SVM-light Version V6.02
1 # kernel type
3 # kernel parameter -d 
1 # kernel parameter -g 
1 # kernel parameter -s 
1 # kernel parameter -r 
empty# kernel parameter -u 
33 # highest feature index 
10000 # number of training documents 
7084 # number of support vectors plus 1 
0 # threshold b, each following line is a SV (starting with alpha*y)
-50 3:0.0093307439 4:-0.029923303 8:0.0004914818 11:-0.0002457409 12:0.0002457409 13:-0.0002457409 14:-0.0002457409 15:-0.0002457409 16:-0.0002457409 17:0.0002457409 18:-0.0002457409 19:-0.0002457409 20:0.0019659272 21:0.00073722267 22:0.0029488907 23:0.00073722267 24:0.00073722267 25:0.00073722267 26:0.00073722267 28:0.14578332 29:0.17150994 30:0.019659271 31:-0.0002457409 32:0.0002457409 33:0.97362542 #
-50 3:0.0074176667 4:-0.016669421 8:0.00058366026 11:-0.00019455343 12:0.00019455343 13:-0.00019455343 14:-0.00019455343 15:-0.00019455343 16:-0.00019455343 17:0.00019455343 18:-0.00019455343 19:-0.00019455343 20:0.0031128549 21:0.00097276713 24:0.00058366026 25:0.00077821373 26:0.00077821373 28:0.1621953 29:0.190818 30:0.029183013 31:0.00019455343 32:-0.00019455343 33:0.96751416 #
35 3:0.011659514 4:-0.028032072 11:-0.00025022795 12:-0.00025022795 13:-0.00025022795 14:-0.00025022795 15:-0.00025022795 16:-0.00025022795 17:0.00025022795 18:-0.00025022795 19:-0.00025022795 20:0.0032529633 21:0.00050045591 22:0.0037534193 23:0.00050045591 24:0.00050045591 25:0.00075068383 26:0.00075068383 28:0.085615493 29:0.10072426 30:0.17515957 31:-0.00025022795 32:-0.00025022795 33:0.97513831 #
35 3:0.010430068 4:-0.033492077 8:0.0010510581 11:-0.00035035267 12:-0.00035035267 13:-0.00035035267 14:-0.00035035267 15:-0.00035035267 16:-0.00035035267 17:0.0010510581 18:-0.00035035267 19:-0.00035035267 20:0.0091091692 21:0.00035035267 22:0.0077077588 23:0.0024524687 24:0.00070070534 25:0.0010510581 26:0.0010510581 28:0.16151258 29:0.19696827 30:0.0070070536 31:-0.00035035267 32:-0.00035035267 33:0.96627271 #
35 3:0.010639068 4:-0.019330401 8:0.00078416197 11:-0.00026138732 12:-0.00026138732 13:-0.00026138732 14:-0.00026138732 15:-0.00026138732 16:-0.00026138732 17:0.00078416197 18:-0.00026138732 19:0.00026138732 20:0.00026138732 21:0.0010455493 22:0.0023524859 23:0.0018297113 24:0.0010455493 25:0.0010455493 26:0.00026138732 28:0.54415089 29:0.66359967 30:0.0052277464 31:-0.00026138732 32:-0.00026138732 33:0.51284194 #
35 3:0.013713345 4:-0.028612409 8:0.00097892119 11:-0.00032630705 12:-0.00032630705 13:-0.00032630705 14:-0.00032630705 15:-0.00032630705 16:-0.00032630705 17:0.00032630705 18:-0.00032630705 19:-0.00032630705 20:0.0055472199 21:0.0019578424 22:0.0026104564 23:0.00097892119 24:0.00065261411 25:0.0013052282 26:0.00032630705 28:0.19578423 29:0.23876213 30:0.0097892117 31:-0.00032630705 32:-0.00032630705 33:0.95053244 #
35 3:0.0065912199 4:-0.016493343 8:0.00058621808 11:-0.00019540601 12:-0.00019540601 13:-0.00019540601 14:-0.00019540601 15:-0.00019540601 16:-0.00019540601 17:0.00039081203 18:0.00019540601 19:-0.00019540601 20:0.00097703014 21:0.0013678422 24:0.0011724362 25:0.00078162405 26:0.00039081203 28:0.075254768 29:0.088534556 30:0.0046897447 31:0.00019540601 32:-0.00019540601 33:0.99305338 #
35 3:0.0090131201 4:-0.032204062 8:0.00055031257 11:0.00027515629 12:-0.00027515629 13:-0.00027515629 14:-0.00027515629 15:-0.00027515629 16:-0.00027515629 17:0.00027515629 18:-0.00027515629 19:-0.00027515629 20:0.00027515629 21:0.0011006251 22:0.0060534379 23:0.0019260939 24:0.00055031257 25:0.00082546886 26:0.0011006251 28:0.12592252 29:0.15356472 30:0.038521878 31:0.00027515629 32:-0.00027515629 33:0.97873092 #
35 3:0.012419958 4:-0.02246155 8:0.00091239554 11:-0.00030413186 12:-0.00030413186 13:-0.00030413186 14:-0.00030413186 15:-0.00030413186 16:-0.00030413186 17:0.00060826371 18:-0.00030413186 19:-0.00030413186 20:0.0051702415 21:0.0018247911 24:0.0018247911 25:0.0012165274 26:0.00060826371 28:0.065084219 29:0.079372332 30:0.030413186 31:-0.00030413186 32:-0.00030413186 33:0.99390292 #
-50 3:0.009462269 4:-0.015852014 8:0.00044621257 11:-0.00022310628 12:-0.00022310628 13:-0.00022310628 14:-0.00022310628 15:-0.00022310628 16:-0.00022310628 17:0.00044621257 18:-0.00022310628 19:-0.00022310628 20:0.0037928068 21:0.0013386377 22:0.0051314444 23:0.0013386377 24:0.00044621257 25:0.00089242513 26:0.00022310628 28:0.10227861 29:0.12032791 30:0.0044621257 31:-0.00022310628 32:-0.00022310628 33:0.98724532 #
35 3:0.011960129 4:-0.031014165 8:0.00033869047 11:-0.00033869047 12:-0.00033869047 13:-0.00033869047 14:-0.00033869047 15:-0.00033869047 16:-0.00033869047 17:0.00067738094 18:-0.00033869047 19:-0.00033869047 20:0.0057577384 21:0.0020321428 22:0.0084672617 23:0.0020321428 24:0.00033869047 25:0.0013547619 26:0.0010160714 28:0.085011311 29:0.10367315 30:0.037255954 31:-0.00033869047 32:-0.00033869047 33:0.98965359 #
35 3:0.011069999 4:-0.020137839 8:0.00054374791 11:-0.00027187396 12:0.00027187396 13:-0.00027187396 14:-0.00027187396 15:-0.00027187396 16:-0.00027187396 17:0.00054374791 18:-0.00027187396 19:-0.00027187396 20:0.0016312437 21:0.0010874958 22:0.0016312437 23:0.0010874958 24:0.00054374791 25:0.0010874958 26:0.0010874958 28:0.15401389 29:0.1878214 30:0.00081562187 31:0.00027187396 32:-0.00027187396 33:0.96977443 #
35 3:0.0066106669 4:-0.022211559 8:0.00067573413 11:-0.0002252447 12:-0.0002252447 13:-0.0002252447 14:-0.0002252447 15:-0.0002252447 16:-0.0002252447 17:0.0004504894 18:-0.0002252447 19:-0.0002252447 20:0.0013514683 21:0.0009009788 22:0.0020272024 23:0.0015767129 24:0.0004504894 25:0.0009009788 26:0.0002252447 28:0.099143706 29:0.11664072 30:0.0049553835 31:0.0002252447 32:-0.0002252447 33:0.98792326 #
35 3:0.010009544 4:-0.018207647 8:0.00073835626 11:-0.00024611875 12:-0.00024611875 13:-0.00024611875 14:-0.00024611875 15:-0.00024611875 16:-0.00024611875 17:0.00049223751 18:-0.00024611875 19:-0.00024611875 20:0.0041840188 21:0.0014767125 22:0.0061529689 23:0.0014767125 24:0.00024611875 25:0.00098447502 26:0.00098447502 28:0.16719094 29:0.19669566 30:0.012305938 31:-0.00024611875 32:-0.00024611875 33:0.96577001 #
35 3:0.0090388795 4:-0.021125501 8:0.00046949252 11:-0.00023474626 12:-0.00023474626 13:-0.00023474626 14:-0.00023474626 15:-0.00023474626 16:-0.00023474626 17:0.00070423877 18:-0.00023474626 19:-0.00023474626 20:0.0058686566 21:0.0014084775 22:0.0039906865 23:0.0014084775 24:0.00023474626 25:0.00046949252 26:0.00023474626 28:0.099499546 29:0.11705857 30:0.0063381488 31:-0.00023474626 32:-0.00023474626 33:0.98781222 #
35 3:0.007907249 4:-0.014857746 8:0.00039292124 11:-0.00019646062 12:-0.00019646062 13:-0.00019646062 14:-0.00019646062 15:-0.00019646062 16:-0.00019646062 17:0.00058938185 18:-0.00019646062 19:-0.00019646062 20:0.005107976 21:0.00019646062 22:0.002553988 23:0.00039292124 24:0.00039292124 25:0.00058938185 26:0.00019646062 28:0.15357916 29:0.1806809 30:0.0049115154 31:0.00019646062 32:-0.00019646062 33:0.97130132 #
35 3:0.012443372 4:-0.029635107 8:0.00036371977 11:-0.00036371977 12:-0.00036371977 13:-0.00036371977 14:-0.00036371977 15:-0.00036371977 16:-0.00036371977 17:0.00072743953 18:-0.00036371977 19:-0.00036371977 20:0.0094567137 21:0.00036371977 22:0.009092994 23:0.0021823186 24:0.0010911593 25:0.0014548791 26:0.0014548791 28:0.091657378 29:0.11177836 30:0.024005504 31:-0.00036371977 32:-0.00036371977 33:0.9885903 #
-50 3:0.0087484559 4:-0.025198255 8:0.00093704253 11:-0.00031234752 12:-0.00031234752 13:-0.00031234752 14:-0.00031234752 15:-0.00031234752 16:-0.00031234752 17:0.00093704253 18:-0.00031234752 19:-0.00031234752 20:0.0078086881 21:0.0018740851 22:0.0071839928 23:0.0018740851 24:0.00093704253 25:0.0012493901 26:0.00062469504 28:0.176164 29:0.21483262 30:0.0087457309 31:-0.00031234752 32:-0.00031234752 33:0.96015626 #
-50 3:0.0091145132 4:-0.019169973 8:0.00043522107 11:-0.00021761053 12:-0.00021761053 13:-0.00021761053 14:-0.00021761053 15:-0.00021761053 16:-0.00021761053 17:0.00065283163 18:-0.00021761053 19:-0.00021761053 20:0.0017408843 21:0.00065283163 22:0.0036993793 23:0.0013056633 24:0.00065283163 25:0.00043522107 26:0.00043522107 28:0.14835164 29:0.17453235 30:0.0054402635 31:-0.00021761053 32:-0.00021761053 33:0.97315431 #
35 3:0.0098634204 4:-0.017933698 8:0.00072741648 11:-0.00024247216 12:-0.00024247216 13:-0.00024247216 14:-0.00024247216 15:-0.00024247216 16:-0.00024247216 17:0.00048494432 18:-0.00024247216 19:0.00024247216 20:0.0024247216 21:0.0012123608 22:0.0038795546 23:0.0012123608 24:0.00048494432 25:0.00096988864 26:0.00096988864 28:0.20333715 29:0.2392206 30:0.084865257 31:0.00024247216 32:-0.00024247216 33:0.94539893 #
-50 3:0.016095003 4:-0.029122984 8:0.0011824113 11:-0.00039413711 12:0.00039413711 13:-0.00039413711 14:-0.00039413711 15:-0.00039413711 16:-0.00039413711 17:0.0011824113 18:-0.00039413711 19:-0.00039413711 20:0.0067003309 21:0.0023648227 22:0.0039413711 23:0.0019706856 24:0.00039413711 25:0.0015765484 26:0.0011824113 28:0.28279337 29:0.34486997 30:0.011824113 31:-0.00039413711 32:-0.00039413711 33:0.89429712 #
-50 3:0.0087491237 4:-0.015930029 8:0.00064570445 11:-0.0002152348 12:-0.0002152348 13:-0.0002152348 14:-0.0002152348 15:-0.0002152348 16:-0.0002152348 17:0.0004304696 18:-0.0002152348 19:-0.0002152348 20:0.0036589918 21:0.0012914089 22:0.0049504004 23:0.0012914089 24:0.0012914089 25:0.00086093921 26:0.0004304696 28:0.0686104 29:0.080717355 30:0.0053808703 31:0.0002152348 32:-0.0002152348 33:0.99416959 #
-50 3:0.0086904215 4:-0.030141663 8:0.00076495222 11:0.00025498407 12:-0.00025498407 13:-0.00025498407 14:-0.00025498407 15:-0.00025498407 16:-0.00025498407 17:0.00050996814 18:-0.00025498407 19:-0.00025498407 20:0.00076495222 21:0.00076495222 24:0.00076495222 25:0.0010199363 26:0.00076495222 28:0.21044345 29:0.25663891 30:0.040797453 31:0.00025498407 32:-0.00025498407 33:0.94191116 #
-50 3:0.0073743644 4:-0.01761261 8:0.00020873465 11:-0.00020873465 12:-0.00020873465 13:-0.00020873465 14:-0.00020873465 15:-0.00020873465 16:-0.00020873465 17:0.00062620395 18:-0.00020873465 19:-0.00020873465 20:0.003548489 21:0.0012524079 22:0.0052183662 23:0.0012524079 24:0.0012524079 25:0.0008349386 26:0.00020873465 28:0.06960883 29:0.081892863 30:0.003548489 31:-0.00020873465 32:-0.00020873465 33:0.99399441 #
35 3:0.0093226936 4:-0.030385604 8:0.00074826472 11:-0.00024942157 12:-0.00024942157 13:-0.00024942157 14:-0.00024942157 15:-0.00024942157 16:-0.00024942157 17:0.00049884315 18:-0.00024942157 19:-0.00024942157 20:0.0042401669 21:0.0014965294 22:0.0019953726 23:0.00074826472 24:0.00074826472 25:0.00099768629 26:0.00024942157 28:0.12639937 29:0.14870514 30:0.0052378532 31:-0.00024942157 32:-0.00024942157 33:0.98022676 #
-50 3:0.0069132755 4:-0.016263952 8:0.00039554 11:-0.00019777 12:-0.00019777 13:-0.00019777 14:-0.00019777 15:-0.00019777 16:-0.00019777 17:0.00059330999 18:-0.00019777 19:-0.00019777 20:0.00158216 21:0.00059330999 22:0.00494425 23:0.00118662 24:0.00059330999 25:0.00079108001 26:0.00039554 28:0.12391675 29:0.14578418 30:0.0055375602 31:-0.00019777 32:-0.00019777 33:0.98133475 #
-50 3:0.012333622 4:-0.029173542 11:-0.00036864515 12:-0.00036864515 13:-0.00036864515 14:-0.00036864515 15:-0.00036864515 16:-0.00036864515 17:0.0011059354 18:-0.00036864515 19:-0.00036864515 20:0.0088474834 21:0.0014745806 22:0.0062669674 23:0.0022118709 24:0.0011059354 25:0.00073729031 26:0.00036864515 28:0.19243276 29:0.23467581 30:0.0077415481 31:-0.00036864515 32:-0.00036864515 33:0.95221043 #
35 3:0.010293328 4:-0.02833318 8:0.00087145256 11:-0.0002904842 12:-0.0002904842 13:-0.0002904842 14:-0.0002904842 15:-0.0002904842 16:-0.0002904842 17:0.00058096839 18:-0.0002904842 19:-0.0002904842 20:0.0066811363 21:0.0017429051 22:0.0049382313 23:0.0017429051 24:0.00058096839 25:0.0011619368 26:0.0002904842 28:0.084530897 29:0.10308703 30:0.0069716205 31:-0.0002904842 32:-0.0002904842 33:0.99055111 #
35 3:0.0072677191 4:-0.023445804 8:0.00038322809 11:0.00019161405 12:-0.00019161405 13:-0.00019161405 14:-0.00019161405 15:-0.00019161405 16:-0.00019161405 17:0.00038322809 18:0.00019161405 19:-0.00019161405 20:0.0015329124 21:0.00057484215 22:0.0032574388 23:0.0011496843 24:0.00038322809 25:0.00076645619 26:0.00019161405 28:0.17139685 29:0.20164312 30:0.0053651934 31:-0.00019161405 32:-0.00019161405 33:0.9640103 #
35 3:0.0076005729 4:-0.016832514 8:0.00021144445 11:-0.00021144445 12:-0.00021144445 13:-0.00021144445 14:-0.00021144445 15:-0.00021144445 16:-0.00021144445 17:0.00063433335 18:-0.00021144445 19:-0.00021144445 20:0.0035945557 21:0.0012686667 22:0.0033831112 23:0.0010572223 24:0.00021144445 25:0.00063433335 26:0.0004228889 28:0.075198099 29:0.088468358 30:0.014589666 31:0.00021144445 32:-0.00021144445 33:0.99294311 #
35 3:0.0079554571 4:-0.025697596 8:0.00042221282 11:-0.00021110641 12:-0.00021110641 13:-0.00021110641 14:-0.00021110641 15:-0.00021110641 16:-0.00021110641 17:0.0006333192 18:-0.00021110641 19:-0.00021110641 20:0.0016888513 21:0.0006333192 22:0.0035888089 23:0.0012666384 24:0.0006333192 25:0.00042221282 26:0.00021110641 28:0.36030376 29:0.4238869 30:0.0063331923 31:-0.00021110641 32:0.00021110641 33:0.83049262 #
35 3:0.010590018 4:-0.0265697 8:0.0002737066 11:-0.0002737066 12:-0.0002737066 13:-0.0002737066 14:-0.0002737066 15:-0.0002737066 16:-0.0002737066 17:0.00082111976 18:0.0002737066 19:-0.0002737066 20:0.0021896528 21:0.00082111976 22:0.0043793055 23:0.001368533 24:0.00082111976 25:0.00082111976 26:0.00054741319 28:0.23046096 29:0.28105015 30:0.003284479 31:-0.0002737066 32:-0.0002737066 33:0.93114984 #
-50 3:0.010347085 4:-0.018532995 11:-0.00024037567 12:-0.00024037567 13:-0.00024037567 14:-0.00024037567 15:-0.00024037567 16:-0.00024037567 17:0.00072112703 18:-0.00024037567 19:-0.00024037567 20:0.0019230053 21:0.00072112703 24:0.00048075133 25:0.00072112703 26:0.00048075133 28:0.035203017 29:0.041414324 30:0.005047889 31:-0.00024037567 32:-0.00024037567 33:0.99828017 #
35 3:0.012001186 4:-0.026020158 8:0.00090567546 11:-0.00030189182 12:-0.00030189182 13:-0.00030189182 14:-0.00030189182 15:-0.00030189182 16:-0.00030189182 17:0.00090567546 18:-0.00030189182 19:-0.00030189182 20:0.0078491876 21:0.00030189182 22:0.0075472957 23:0.0018113509 24:0.00090567546 25:0.0012075673 26:0.00030189182 28:0.13917212 29:0.16972359 30:0.0060378364 31:0.00030189182 32:-0.00030189182 33:0.97511059 #
-50 3:0.012141552 4:-0.025211085 8:0.00055257085 11:0.00027628543 12:-0.00027628543 13:-0.00027628543 14:-0.00027628543 15:-0.00027628543 16:-0.00027628543 17:0.00082885625 18:-0.00027628543 19:-0.00027628543 20:0.0071834209 21:0.00027628543 22:0.0071834209 23:0.00027628543 24:0.00082885625 25:0.00055257085 26:0.00027628543 28:0.10271187 29:0.12525952 30:0.023484262 31:-0.00027628543 32:-0.00027628543 33:0.98606271 #
35 3:0.0073638372 4:-0.024365673 8:0.00040032918 11:-0.00020016459 12:-0.00020016459 13:-0.00020016459 14:-0.00020016459 15:-0.00020016459 16:-0.00020016459 17:0.00060049375 18:-0.00020016459 19:-0.00020016459 20:0.00040032918 21:0.00060049375 22:0.003402798 23:0.0012009875 24:0.00060049375 25:0.00080065837 26:0.00080065837 28:0.21825546 29:0.25677115 30:0.033027157 31:-0.00020016459 32:-0.00020016459 33:0.94057339 #
35 3:0.0087778522 4:-0.030320348 11:-0.00027322455 12:-0.00027322455 13:-0.00027322455 14:-0.00027322455 15:-0.00027322455 16:-0.00027322455 17:0.00081967359 18:-0.00027322455 19:-0.00027322455 20:0.0068306136 21:0.0016393472 22:0.0021857964 23:0.00081967359 24:0.0005464491 25:0.0010928982 26:0.0005464491 28:0.039125752 29:0.047713201 30:0.0068306136 31:-0.00027322455 32:-0.00027322455 33:0.9975428 #
-50 3:0.0093140546 4:-0.019975152 8:0.0007491014 11:-0.00024970045 12:0.00024970045 13:-0.00024970045 14:-0.00024970045 15:-0.00024970045 16:-0.00024970045 17:0.00049940089 18:-0.00024970045 19:-0.00024970045 20:0.0019976036 21:0.0007491014 22:0.0062425113 23:0.0014982028 24:0.0007491014 25:0.00099880178 26:0.00024970045 28:0.097547978 29:0.11476233 30:0.003745507 31:-0.00024970045 32:-0.00024970045 33:0.98831439 #
-50 3:0.0076527982 4:-0.026576642 8:0.00067447056 11:-0.00022482353 12:-0.00022482353 13:-0.00022482353 14:-0.00022482353 15:-0.00022482353 16:-0.00022482353 17:0.00022482353 18:-0.00022482353 19:-0.00022482353 20:0.00067447056 21:0.00067447056 22:0.0026978822 23:0.00067447056 24:0.00067447056 25:0.00067447056 26:0.0008992941 28:0.085194625 29:0.10022858 30:0.044964705 31:0.00022482353 32:-0.00022482353 33:0.98989797 #
-50 3:0.0079026371 4:-0.025426861 8:0.00041474545 11:-0.00020737272 12:-0.00020737272 13:-0.00020737272 14:-0.00020737272 15:-0.00020737272 16:-0.00020737272 17:0.00062211818 18:-0.00020737272 19:-0.00020737272 20:0.00041474545 21:0.00062211818 22:0.0024884727 23:0.00062211818 24:0.0012442364 25:0.00020737272 26:0.00020737272 28:0.038339071 29:0.045105644 30:0.0041474546 31:-0.00020737272 32:0.00020737272 33:0.9978776 #
35 3:0.0092216553 4:-0.023711458 8:0.00027359228 11:-0.00027359228 12:-0.00027359228 13:-0.00027359228 14:-0.00027359228 15:-0.00027359228 16:-0.00027359228 17:0.00027359228 18:-0.00027359228 19:-0.00027359228 20:0.0065662144 21:0.0010943691 24:0.0016415536 25:0.0008207768 26:0.0010943691 28:0.11555991 29:0.14092737 30:0.043774765 31:0.00027359228 32:-0.00027359228 33:0.98192269 #
35 3:0.0086310618 4:-0.021996953 8:0.00069821638 11:-0.00023273879 12:-0.00023273879 13:-0.00023273879 14:-0.00023273879 15:-0.00023273879 16:-0.00023273879 17:0.00069821638 18:-0.00023273879 19:-0.00023273879 20:0.0013964328 21:0.00093095517 22:0.0039565596 23:0.0013964328 24:0.00069821638 25:0.00093095517 26:0.00023273879 28:0.10542602 29:0.12403116 30:0.0062839473 31:-0.00023273879 32:-0.00023273879 33:0.98634702 #
-50 3:0.0085791191 4:-0.027361663 8:0.00047597155 11:-0.00023798578 12:-0.00023798578 13:-0.00023798578 14:-0.00023798578 15:-0.00023798578 16:-0.00023798578 17:0.00047597155 18:-0.00023798578 19:-0.00023798578 20:0.0040457584 21:0.0014279147 22:0.0011899289 23:0.0016659005 24:0.00047597155 25:0.0009519431 26:0.00023798578 28:0.16579279 29:0.19505076 30:0.0059496444 31:0.00023798578 32:-0.00023798578 33:0.96622229 #
-50 3:0.0070859073 4:-0.018356955 11:-0.00019367476 12:-0.00019367476 13:-0.00019367476 14:-0.00019367476 15:-0.00019367476 16:-0.00019367476 17:0.00038734952 18:-0.00019367476 19:-0.00019367476 20:0.0015493981 21:0.00058102427 22:0.0023240971 23:0.00058102427 24:0.00058102427 25:0.00058102427 26:0.00038734952 28:0.1560825 29:0.18362692 30:0.0044545196 31:-0.00019367476 32:-0.00019367476 33:0.97031057 #
35 3:0.0058472212 4:-0.018716641 8:0.00058863062 11:-0.0001962102 12:-0.0001962102 13:-0.0001962102 14:-0.0001962102 15:-0.0001962102 16:-0.0001962102 17:0.00058863062 18:-0.0001962102 19:-0.0001962102 20:0.00058863062 21:0.00058863062 22:0.0033355735 23:0.0011772612 24:0.0011772612 25:0.00058863062 26:0.00039242039 28:0.067054838 29:0.078888275 30:0.0078484081 31:-0.0001962102 32:-0.0001962102 33:0.99439329 #
-50 3:0.0065753236 4:-0.020786269 8:0.00043657998 11:-0.00021828999 12:-0.00021828999 13:-0.00021828999 14:-0.00021828999 15:-0.00021828999 16:-0.00021828999 17:0.00065486995 18:-0.00021828999 19:-0.00021828999 20:0.00065486995 21:0.00065486995 22:0.0017463199 23:0.00065486995 24:0.00065486995 25:0.00065486995 26:0.00043657998 28:0.16092993 29:0.18932946 30:0.022920448 31:-0.00021828999 32:-0.00021828999 33:0.9681161 #
-50 3:0.014058162 4:-0.035840269 8:0.00087970303 11:-0.00029323433 12:-0.00029323433 13:-0.00029323433 14:-0.00029323433 15:-0.00029323433 16:-0.00029323433 17:0.00087970303 18:-0.00029323433 19:-0.00029323433 20:0.00087970303 21:0.00087970303 22:0.0023458747 23:0.00087970303 24:0.00087970303 25:0.00087970303 26:0.00058646867 28:0.21435431 29:0.26140669 30:0.073308587 31:-0.00029323433 32:-0.00029323433 33:0.9374702 #
35 3:0.0090954695 4:-0.029674588 8:0.00074306916 11:-0.00024768972 12:0.00024768972 13:-0.00024768972 14:-0.00024768972 15:-0.00024768972 16:-0.00024768972 17:0.00074306916 18:-0.00024768972 19:-0.00024768972 20:0.005449174 21:0.0017338281 22:0.0059445533 23:0.00099075888 24:0.00049537944 25:0.00099075888 26:0.00099075888 28:0.11318677 29:0.13316047 30:0.0049537946 31:-0.00024768972 32:-0.00024768972 33:0.98407125 #
35 3:0.007192546 4:-0.016868817 11:-0.00020113662 12:-0.00020113662 13:-0.00020113662 14:-0.00020113662 15:-0.00020113662 16:-0.00020113662 17:0.00040227323 18:-0.00020113662 19:-0.00020113662 20:0.0016090929 21:0.00060340989 22:0.0044250055 23:0.0014079564 24:0.00060340989 25:0.00060340989 26:0.00080454646 28:0.39892229 29:0.46932012 30:0.028159127 31:-0.00020113662 32:-0.00020113662 33:0.78704762 #
35 3:0.0073922644 4:-0.016191589 8:0.00061558717 11:-0.00020519573 12:-0.00020519573 13:-0.00020519573 14:-0.00020519573 15:-0.00020519573 16:-0.00020519573 17:0.00041039145 18:-0.00020519573 19:-0.00020519573 20:0.0034883274 21:0.0012311743 22:0.0047195018 23:0.0012311743 24:0.0012311743 25:0.00061558717 26:0.00061558717 28:0.059738632 29:0.070281588 30:0.017441636 31:-0.00020519573 32:-0.00020519573 33:0.99540448 #
35 3:0.0063423971 4:-0.017242923 8:0.00019524958 11:-0.00019524958 12:-0.00019524958 13:-0.00019524958 14:-0.00019524958 15:-0.00019524958 16:-0.00019524958 17:0.00039049916 18:-0.00019524958 19:-0.00019524958 20:0.0042954907 21:0.0013667471 24:0.00039049916 25:0.00078099832 26:0.00019524958 28:0.082477331 29:0.097031236 30:0.0029287438 31:-0.00019524958 32:-0.00019524958 33:0.99167264 #
35 3:0.0091281682 4:-0.017821288 8:0.00069775485 11:-0.00023258496 12:-0.00023258496 13:-0.00023258496 14:-0.00023258496 15:-0.00023258496 16:-0.00023258496 17:0.00046516993 18:0.00023258496 19:-0.00023258496 20:0.0039539444 21:0.0013955097 22:0.0023258496 23:0.0011629248 24:0.0013955097 25:0.00093033985 26:0.00046516993 28:0.094766743 29:0.1114896 30:0.011629248 31:-0.00023258496 32:-0.00023258496 33:0.98895127 #
35 3:0.0084418254 4:-0.024926897 8:0.00051610131 11:-0.00025805066 12:-0.00025805066 13:-0.00025805066 14:-0.00025805066 15:-0.00025805066 16:-0.00025805066 17:0.00077415194 18:-0.00025805066 19:-0.00025805066 20:0.0030966077 21:0.00077415194 22:0.00051610131 23:0.00077415194 24:0.00051610131 25:0.0010322026 26:0.00051610131 28:0.15622644 29:0.1905188 30:0.012902533 31:0.00025805066 32:0.00025805066 33:0.96872216 #
35 3:0.01407512 4:-0.024807418 8:0.0010215631 11:-0.00034052102 12:-0.00034052102 13:-0.00034052102 14:-0.00034052102 15:-0.00034052102 16:-0.00034052102 17:0.00068104203 18:-0.00034052102 19:-0.00034052102 20:0.0068104202 21:0.002383647 22:0.003064689 23:0.002383647 24:0.0020431262 25:0.0010215631 26:0.00034052102 28:0.060272221 29:0.07350146 30:0.0068104202 31:-0.00034052102 32:-0.00034052102 33:0.99500239 #
35 3:0.0099835834 4:-0.024759572 8:0.00027702269 11:-0.00027702269 12:-0.00027702269 13:0.00027702269 14:-0.00027702269 15:-0.00027702269 16:-0.00027702269 17:0.00083106809 18:-0.00027702269 19:-0.00027702269 20:0.0033242723 21:0.00083106809 22:0.0022161815 23:0.00083106809 24:0.00055404537 25:0.0011080907 26:0.00055404537 28:0.12409508 29:0.15133473 30:0.055404536 31:-0.00027702269 32:-0.00027702269 33:0.97872114 #
35 3:0.01031707 4:-0.018748185 8:0.00076111394 11:-0.00025370467 12:-0.00025370467 13:-0.00025370467 14:-0.00025370467 15:-0.00025370467 16:-0.00025370467 17:0.00050740934 18:-0.00025370467 19:0.00025370467 20:0.0043129791 21:0.0015222279 22:0.0065963212 23:0.00025370467 24:0.00025370467 25:0.0010148187 26:0.00050740934 28:0.1001829 29:0.11786103 30:0.0071037305 31:0.00025370467 32:0.00025370467 33:0.98767221 #
35 3:0.0081605259 4:-0.013914641 8:0.00038976371 11:-0.00019488185 12:-0.00019488185 13:-0.00019488185 14:-0.00019488185 15:-0.00019488185 16:-0.00019488185 17:0.00058464555 18:-0.00019488185 19:-0.00019488185 20:0.0033129915 21:0.0011692911 24:0.00019488185 25:0.00077952741 26:0.00038976371 28:0.16392876 29:0.19285703 30:0.01364173 31:-0.00019488185 32:-0.00019488185 33:0.96719861 #
35 3:0.0081334291 4:-0.018110776 8:0.00023121713 11:-0.00023121713 12:-0.00023121713 13:-0.00023121713 14:-0.00023121713 15:-0.00023121713 16:-0.00023121713 17:0.00069365138 18:-0.00023121713 19:-0.00023121713 20:0.0057804282 21:0.0013873028 22:0.0053179939 23:0.0013873028 24:0.00023121713 25:0.00092486851 26:0.00069365138 28:0.06722869 29:0.079092443 30:0.0161852 31:-0.00023121713 32:-0.00023121713 33:0.99423367 #
35 3:0.012319954 4:-0.027437281 11:-0.00031460251 12:-0.00031460251 13:-0.00031460251 14:-0.00031460251 15:-0.00031460251 16:-0.00031460251 17:0.00031460251 18:-0.00031460251 19:-0.00031460251 20:0.00062920502 21:0.00094380748 22:0.006921255 23:0.0022022175 24:0.00062920502 25:0.00094380748 26:0.00125841 28:0.18215485 29:0.22214082 30:0.0044044349 31:-0.00031460251 32:-0.00031460251 33:0.95733541 #
35 3:0.0074287532 4:-0.02125749 11:-0.00021623276 12:-0.00021623276 13:-0.00021623276 14:-0.00021623276 15:-0.00021623276 16:-0.00021623276 17:0.0006486983 18:-0.00021623276 19:-0.00021623276 20:0.003675957 21:0.0012973966 24:0.0006486983 25:0.0006486983 26:0.00021623276 28:0.06901069 29:0.081188917 30:0.006486983 31:-0.00021623276 32:-0.00021623276 33:0.99402201 #
35 3:0.010012404 4:-0.027008932 8:0.00065952557 11:-0.00021984187 12:-0.00021984187 13:-0.00021984187 14:-0.00021984187 15:-0.00021984187 16:-0.00021984187 17:0.00043968373 18:-0.00021984187 19:-0.00021984187 20:0.0037373116 21:0.0013190511 22:0.0017587349 23:0.00065952557 24:0.00065952557 25:0.00043968373 26:0.00021984187 28:0.10542956 29:0.12403478 30:0.0061555724 31:0.00021984187 32:-0.00021984187 33:0.98621058 #
35 3:0.0077957655 4:-0.022387713 11:-0.00020919144 12:-0.00020919144 13:-0.00020919144 14:-0.00020919144 15:-0.00020919144 16:-0.00020919144 17:0.00062757428 18:-0.00020919144 19:-0.00020919144 20:0.0054389769 21:0.00020919144 22:0.0052297856 23:0.0012551486 24:0.0012551486 25:0.00062757428 26:0.00020919144 28:0.041413628 29:0.048722774 30:0.0037654457 31:-0.00020919144 32:-0.00020919144 33:0.99763393 #
-50 3:0.0094501916 4:-0.019904179 8:0.00045496874 11:-0.00022748437 12:-0.00022748437 13:-0.00022748437 14:-0.00022748437 15:-0.00022748437 16:-0.00022748437 17:0.0006824531 18:-0.00022748437 19:-0.00022748437 20:0.0059145936 21:0.00022748437 22:0.0038672343 23:0.0013649062 24:0.0006824531 25:0.00022748437 26:0.00022748437 28:0.17349096 29:0.20410807 30:0.0027298124 31:-0.00022748437 32:-0.00022748437 33:0.96316886 #
35 3:0.008647277 4:-0.022930533 8:0.00071702356 11:-0.00023900786 12:-0.00023900786 13:-0.00023900786 14:-0.00023900786 15:-0.00023900786 16:-0.00023900786 17:0.00047801572 18:0.00023900786 19:-0.00023900786 20:0.0040631336 21:0.0014340471 22:0.0019120629 23:0.00071702356 24:0.00047801572 25:0.00095603144 26:0.00023900786 28:0.12173865 29:0.14322306 30:0.004780157 31:-0.00023900786 32:-0.00023900786 33:0.98184425 #
-50 3:0.011625567 4:-0.023015991 8:0.00089691544 11:-0.00029897181 12:-0.00029897181 13:-0.00029897181 14:-0.00029897181 15:-0.00029897181 16:-0.00029897181 17:0.00059794361 18:-0.00029897181 19:-0.00029897181 20:0.0050825211 21:0.0017938309 22:0.0020928027 23:0.0020928027 24:0.00029897181 25:0.0011958872 26:0.00029897181 28:0.068365887 29:0.083374269 30:0.0080722393 31:0.00029897181 32:-0.00029897181 33:0.99378234 #
35 3:0.010021725 4:-0.021589227 8:0.00051114411 11:-0.00025557206 12:-0.00025557206 13:-0.00025557206 14:-0.00025557206 15:-0.00025557206 16:-0.00025557206 17:0.00051114411 18:-0.00025557206 19:-0.00025557206 20:0.0017890043 21:0.0017890043 24:0.00051114411 25:0.0010222882 26:0.00025557206 28:0.11217569 29:0.12893866 30:0.0063893013 31:-0.00025557206 32:-0.00025557206 33:0.98497468 #
35 3:0.0058736973 4:-0.018109059 8:0.00045134791 11:-0.00022567395 12:-0.00022567395 13:-0.00022567395 14:-0.00022567395 15:-0.00022567395 16:-0.00022567395 17:0.00067702186 18:-0.00022567395 19:-0.00022567395 20:0.0038364572 21:0.0013540437 24:0.00045134791 25:0.00090269581 26:0.00045134791 28:0.079058103 29:0.093009263 30:0.0090269586 31:-0.00022567395 32:-0.00022567395 33:0.99228835 #
-50 3:0.0088177351 4:-0.018549336 8:0.00042377328 11:-0.00021188664 12:-0.00021188664 13:-0.00021188664 14:-0.00021188664 15:-0.00021188664 16:-0.00021188664 17:0.0006356599 18:-0.00021188664 19:-0.00021188664 20:0.004661506 21:0.0014832064 22:0.0016950931 23:0.0006356599 24:0.00042377328 25:0.00084754656 26:0.00084754656 28:0.063000254 29:0.074117944 30:0.004661506 31:-0.00021188664 32:-0.00021188664 33:0.99501961 #
35 3:0.011485618 4:-0.029676095 8:0.00049235113 11:-0.00024617556 12:-0.00024617556 13:-0.00024617556 14:-0.00024617556 15:-0.00024617556 16:-0.00024617556 17:0.00073852675 18:-0.00024617556 19:-0.00024617556 20:0.0056620385 21:0.0014770535 22:0.0041849846 23:0.0014770535 24:0.00024617556 25:0.00073852675 26:0.00073852675 28:0.11662568 29:0.13720596 30:0.016001413 31:-0.00024617556 32:0.00024617556 33:0.98297906 #
-50 3:0.0080192992 4:-0.01842792 8:0.00068365422 11:-0.00022788475 12:-0.00022788475 13:-0.00022788475 14:-0.00022788475 15:-0.00022788475 16:-0.00022788475 17:0.00045576951 18:-0.00022788475 19:-0.00022788475 20:0.0015951933 21:0.0015951933 24:0.00045576951 25:0.00091153901 26:0.00022788475 28:0.060580883 29:0.071270958 30:0.0041019255 31:-0.00022788475 32:-0.00022788475 33:0.99540061 #
35 3:0.0076789064 4:-0.026707789 8:0.00045199541 11:-0.0002259977 12:-0.0002259977 13:0.0002259977 14:-0.0002259977 15:-0.0002259977 16:-0.0002259977 17:0.00067799311 18:-0.0002259977 19:-0.0002259977 20:0.0056499429 21:0.0013559862 24:0.0002259977 25:0.00067799311 26:0.0002259977 28:0.10712066 29:0.12602536 30:0.0054239449 31:0.0002259977 32:-0.0002259977 33:0.98580199 #
-50 3:0.0090391943 4:-0.018955754 8:0.00064862723 11:-0.00021620908 12:-0.00021620908 13:-0.00021620908 14:-0.00021620908 15:-0.00021620908 16:-0.00021620908 17:0.00064862723 18:-0.00021620908 19:-0.00021620908 20:0.0025945089 21:0.00064862723 22:0.0036755544 23:0.0012972545 24:0.00043241816 25:0.00086483633 26:0.00043241816 28:0.057040278 29:0.067106977 30:0.0064862724 31:-0.00021620908 32:-0.00021620908 33:0.99585903 #
35 3:0.0088758338 4:-0.025585385 8:0.0008190446 11:-0.00027301488 12:-0.00027301488 13:-0.00027301488 14:-0.00027301488 15:-0.00027301488 16:-0.00027301488 17:0.0008190446 18:-0.00027301488 19:-0.00027301488 20:0.0068253716 21:0.0016380892 22:0.004641253 23:0.0016380892 24:0.00027301488 25:0.0010920595 26:0.00054602977 28:0.03706177 29:0.045197614 30:0.0054602972 31:-0.00027301488 32:-0.00027301488 33:0.99786937 #
-50 3:0.014405032 4:-0.029794578 8:0.00096095237 11:-0.00032031746 12:0.00032031746 13:-0.00032031746 14:-0.00032031746 15:-0.00032031746 16:-0.00032031746 17:0.00096095237 18:-0.00032031746 19:-0.00032031746 20:0.0041641267 21:0.00064063491 22:0.0054453965 23:0.0019219047 24:0.00064063491 25:0.00096095237 26:0.00032031746 28:0.1761746 29:0.21484652 30:0.0083282534 31:-0.00032031746 32:-0.00032031746 33:0.9599914 #
-50 3:0.0087092109 4:-0.022562331 11:-0.00023804352 12:-0.00023804352 13:-0.00023804352 14:-0.00023804352 15:-0.00023804352 16:-0.00023804352 17:0.00071413053 18:-0.00023804352 19:-0.00023804352 20:0.0040467395 21:0.0014282611 22:0.0016663047 23:0.0016663047 24:0.00071413053 25:0.00071413053 26:0.00023804352 28:0.062424533 29:0.073441185 30:0.0054750009 31:-0.00023804352 32:-0.00023804352 33:0.99502188 #
-50 3:0.0065175984 4:-0.019252107 8:0.00059625827 11:0.00019875276 12:-0.00019875276 13:-0.00019875276 14:-0.00019875276 15:-0.00019875276 16:-0.00019875276 17:0.00039750553 18:0.00019875276 19:-0.00019875276 20:0.0015900221 21:0.00059625827 24:0.00039750553 25:0.00079501106 26:0.00019875276 28:0.082788475 29:0.097398788 30:0.0039750552 31:0.00019875276 32:-0.00019875276 33:0.99157751 #
35 3:0.0075651337 4:-0.026211262 8:0.00044149577 11:-0.00022074788 12:-0.00022074788 13:-0.00022074788 14:-0.00022074788 15:-0.00022074788 16:-0.00022074788 17:0.00066224363 18:-0.00022074788 19:-0.00022074788 20:0.0055186972 21:0.0013244873 22:0.00044149577 23:0.00066224363 24:0.0013244873 25:0.00044149577 26:0.00044149577 28:0.048809566 29:0.057423145 30:0.013244873 31:0.00022074788 32:-0.00022074788 33:0.99667668 #
35 3:0.0084243817 4:-0.018512364 8:0.00070615346 11:-0.00023538449 12:-0.00023538449 13:0.00023538449 14:-0.00023538449 15:-0.00023538449 16:-0.00023538449 17:0.00047076898 18:-0.00023538449 19:-0.00023538449 20:0.0040015364 21:0.0014123069 24:0.00070615346 25:0.00047076898 26:0.00047076898 28:0.085162111 29:0.10019141 30:0.016006146 31:-0.00023538449 32:-0.00023538449 33:0.9909687 #
35 3:0.0082233306 4:-0.022381512 8:0.00059826742 11:-0.00019942247 12:-0.00019942247 13:-0.00019942247 14:-0.00019942247 15:-0.00019942247 16:-0.00019942247 17:0.00059826742 18:-0.00019942247 19:-0.00019942247 20:0.003390182 21:0.0011965348 22:0.0045867166 23:0.0011965348 24:0.00059826742 25:0.00039884495 26:0.00019942247 28:0.096418768 29:0.1134335 30:0.0049855616 31:-0.00019942247 32:-0.00019942247 33:0.98853719 #
-50 3:0.0095256511 4:-0.014523808 8:0.00021050025 11:-0.00021050025 12:-0.00021050025 13:-0.00021050025 14:-0.00021050025 15:-0.00021050025 16:-0.00021050025 17:0.00063150073 18:-0.00021050025 19:-0.00021050025 20:0.0035785043 21:0.0012630015 22:0.0010525013 23:0.0014735018 24:0.00063150073 25:0.00063150073 26:0.00063150073 28:0.073624566 29:0.086616643 30:0.0031575037 31:-0.00021050025 32:-0.00021050025 33:0.99335068 #
35 3:0.0075877868 4:-0.01574924 8:0.00041306045 11:-0.00020653023 12:-0.00020653023 13:-0.00020653023 14:-0.00020653023 15:-0.00020653023 16:-0.00020653023 17:0.00061959069 18:-0.00020653023 19:-0.00020653023 20:0.0045436649 21:0.0014457116 24:0.00020653023 25:0.00061959069 26:0.0008261209 28:0.067801811 29:0.079766102 30:0.024783628 31:-0.00020653023 32:-0.00020653023 33:0.99403 #
-50 3:0.0071268007 4:-0.019499199 8:0.00021880341 11:-0.00021880341 12:-0.00021880341 13:-0.00021880341 14:-0.00021880341 15:-0.00021880341 16:-0.00021880341 17:0.00065641024 18:-0.00021880341 19:-0.00021880341 20:0.0037196581 21:0.0013128205 22:0.0017504273 23:0.00065641024 24:0.00065641024 25:0.00087521365 26:0.00021880341 28:0.057759725 29:0.06795159 30:0.0052512819 31:-0.00021880341 32:-0.00021880341 33:0.99577433 #
35 3:0.0090616243 4:-0.019575583 8:0.00023418965 11:-0.00023418965 12:-0.00023418965 13:-0.00023418965 14:-0.00023418965 15:-0.00023418965 16:-0.00023418965 17:0.00070256891 18:-0.00023418965 19:-0.00023418965 20:0.0056205513 21:0.00093675859 22:0.0018735172 23:0.00070256891 24:0.00070256891 25:0.00093675859 26:0.00046837929 28:0.036655363 29:0.043123681 30:0.0074940687 31:-0.00023418965 32:-0.00023418965 33:0.99811625 #
-50 3:0.013578518 4:-0.03074812 11:-0.00038805199 12:-0.00038805199 13:0.00038805199 14:-0.00038805199 15:-0.00038805199 16:-0.00038805199 17:0.00077610399 18:-0.00038805199 19:-0.00038805199 20:0.002328312 21:0.001552208 24:0.00038805199 25:0.001164156 26:0.00077610399 28:0.31899813 29:0.38902211 30:0.054327279 31:-0.00038805199 32:-0.00038805199 33:0.86186349 #
35 3:0.0082636848 4:-0.017334746 8:0.00039504882 11:-0.00019752441 12:-0.00019752441 13:-0.00019752441 14:-0.00019752441 15:-0.00019752441 16:-0.00019752441 17:0.00039504882 18:-0.00019752441 19:-0.00019752441 20:0.0049381102 21:0.0011851465 24:0.00019752441 25:0.00079009763 26:0.00039504882 28:0.027602062 29:0.032473013 30:0.0049381102 31:-0.00019752441 32:-0.00019752441 33:0.99888092 #
-50 3:0.0088820998 4:-0.022907821 8:0.00070627814 11:-0.00023542605 12:0.00023542605 13:-0.00023542605 14:-0.00023542605 15:-0.00023542605 16:-0.00023542605 17:0.00070627814 18:-0.00023542605 19:-0.00023542605 20:0.0011771303 21:0.0016479823 24:0.0004708521 25:0.0009417042 26:0.00023542605 28:0.10410069 29:0.12247098 30:0.0058856513 31:0.00023542605 32:-0.00023542605 33:0.98667055 #
35 3:0.0084000546 4:-0.015270876 8:0.00041249543 11:0.00020624771 12:-0.00020624771 13:-0.00020624771 14:-0.00020624771 15:-0.00020624771 16:-0.00020624771 17:0.00041249543 18:-0.00020624771 19:-0.00020624771 20:0.00061874319 21:0.00061874319 24:0.00061874319 25:0.00061874319 26:0.00082499086 28:0.12379813 29:0.14564389 30:0.012374863 31:-0.00020624771 32:-0.00020624771 33:0.98132664 #
-50 3:0.0081969844 4:-0.024019103 8:0.00049728504 11:-0.00024864252 12:-0.00024864252 13:-0.00024864252 14:-0.00024864252 15:-0.00024864252 16:-0.00024864252 17:0.00074592762 18:-0.00024864252 19:-0.00024864252 20:0.0057187784 21:0.0014918552 22:0.004226923 23:0.0014918552 24:0.00074592762 25:0.00049728504 26:0.00049728504 28:0.15115228 29:0.17782666 30:0.012432127 31:-0.00024864252 32:-0.00024864252 33:0.97194368 #
35 3:0.014254942 4:-0.025320573 8:0.0010379866 11:-0.00034599553 12:-0.00034599553 13:-0.00034599553 14:-0.00034599553 15:-0.00034599553 16:-0.00034599553 17:0.0010379866 18:-0.00034599553 19:-0.00034599553 20:0.0086498884 21:0.0020759732 22:0.0058819237 23:0.0020759732 24:0.00069199107 25:0.0013839821 26:0.00034599553 28:0.14497213 29:0.17679679 30:0.012109843 31:-0.00034599553 32:-0.00034599553 33:0.97293943 #
35 3:0.031481624 4:-0.057231057 8:0.0023206638 11:-0.00077355455 12:0.00077355455 13:-0.00077355455 14:-0.00077355455 15:-0.00077355455 16:-0.00077355455 17:0.0023206638 18:-0.00077355455 19:-0.00077355455 20:0.012376873 21:0.0038677729 24:0.0046413275 25:0.0030942182 26:0.0030942182 28:0.40611616 29:0.49526057 31:-0.00077355455 32:-0.00077355455 33:0.76504546 #
-50 3:0.0069137453 4:-0.018022195 8:0.00021236915 11:-0.00021236915 12:-0.00021236915 13:-0.00021236915 14:-0.00021236915 15:-0.00021236915 16:-0.00021236915 17:0.00063710747 18:-0.00021236915 19:-0.00021236915 20:0.0042473832 21:0.0014865841 24:0.00063710747 25:0.0004247383 26:0.00021236915 28:0.080800094 29:0.095058553 30:0.0048844903 31:-0.00021236915 32:-0.00021236915 33:0.99197632 #
-50 3:0.010855601 4:-0.023780307 8:0.00090510631 11:-0.00030170209 12:-0.00030170209 13:-0.00030170209 14:-0.00030170209 15:-0.00030170209 16:-0.00030170209 17:0.00060340419 18:-0.00030170209 19:-0.00030170209 20:0.0051289354 21:0.0018102126 22:0.0075425524 23:0.0018102126 24:0.00060340419 25:0.0012068084 26:0.00030170209 28:0.14361019 29:0.17513505 30:0.0066374461 31:-0.00030170209 32:-0.00030170209 33:0.97359264 #
-50 3:0.011239669 4:-0.039117001 8:0.00066252699 11:-0.00033126349 12:-0.00033126349 13:-0.00033126349 14:-0.00033126349 15:-0.00033126349 16:-0.00033126349 17:0.00099379045 18:-0.00033126349 19:-0.00033126349 20:0.0056314794 21:0.0019875809 24:0.00066252699 25:0.001325054 26:0.00033126349 28:0.090766199 29:0.1106917 30:0.00662527 31:-0.00033126349 32:-0.00033126349 33:0.98882151 #
35 3:0.010058789 4:-0.020905757 8:0.0004741376 11:-0.0002370688 12:-0.0002370688 13:-0.0002370688 14:-0.0002370688 15:-0.0002370688 16:-0.0002370688 17:0.0007112064 18:-0.0002370688 19:-0.0002370688 20:0.0004741376 21:0.0007112064 24:0.0014224128 25:0.0007112064 26:0.0002370688 28:0.10791609 29:0.12695983 30:0.0049784449 31:-0.0002370688 32:-0.0002370688 33:0.98573208 #
35 3:0.011105034 4:-0.02020398 8:0.00081992347 11:-0.00027330784 12:0.00027330784 13:-0.00027330784 14:-0.00027330784 15:-0.00027330784 16:-0.00027330784 17:0.00054661569 18:-0.00027330784 19:-0.00027330784 20:0.00081992347 21:0.00081992347 22:0.0065593878 23:0.0010932314 24:0.00054661569 25:0.0010932314 26:0.00027330784 28:0.092050076 29:0.11225572 30:0.0049195411 31:-0.00027330784 32:-0.00027330784 33:0.98910105 #
-50 3:0.006993717 4:-0.016810499 8:0.00020617312 11:-0.00020617312 12:-0.00020617312 13:-0.00020617312 14:-0.00020617312 15:-0.00020617312 16:-0.00020617312 17:0.00061851932 18:-0.00020617312 19:-0.00020617312 20:0.005154328 21:0.0012370386 24:0.00020617312 25:0.00082469248 26:0.00082469248 28:0.095592164 29:0.11246125 30:0.010721002 31:-0.00020617312 32:-0.00020617312 33:0.98880625 #
35 3:0.012242377 4:-0.022148808 8:0.0008992459 11:-0.00029974864 12:-0.00029974864 13:-0.00029974864 14:-0.00029974864 15:-0.00029974864 16:-0.00029974864 17:0.0008992459 18:-0.00029974864 19:-0.00029974864 20:0.0056952243 21:0.0020982404 22:0.0071939672 23:0.0011989946 24:0.00059949729 25:0.0011989946 26:0.0008992459 28:0.13698512 29:0.16705592 30:0.0071939672 31:0.00029974864 32:-0.00029974864 33:0.97598159 #
35 3:0.0089650284 4:-0.028531505 8:0.00049600034 11:-0.00024800017 12:-0.00024800017 13:-0.00024800017 14:-0.00024800017 15:-0.00024800017 16:-0.00024800017 17:0.00024800017 18:0.00024800017 19:-0.00024800017 20:0.0064480039 21:0.00024800017 22:0.0042160028 23:0.001488001 24:0.001488001 25:0.00099200069 26:0.00049600034 28:0.11508695 29:0.13539569 30:0.0074400045 31:0.00024800017 32:-0.00024800017 33:0.98356861 #
-50 3:0.0071955938 4:-0.024450758 11:-0.00021882252 12:-0.00021882252 13:-0.00021882252 14:-0.00021882252 15:-0.00021882252 16:-0.00021882252 17:0.00043764504 18:-0.00021882252 19:-0.00021882252 20:0.0021882253 21:0.0010941126 22:0.00043764504 23:0.00065646757 24:0.0013129351 25:0.00087529008 26:0.00021882252 28:0.068053804 29:0.080062784 30:0.0065646758 31:-0.00021882252 32:-0.00021882252 33:0.9941107 #
35 3:0.0074592875 4:-0.023673378 8:0.00020560191 11:-0.00020560191 12:-0.00020560191 13:-0.00020560191 14:-0.00020560191 15:-0.00020560191 16:-0.00020560191 17:0.00061680574 18:-0.00020560191 19:-0.00020560191 20:0.0016448153 21:0.00061680574 22:0.0018504172 23:0.0014392134 24:0.0012336115 25:0.00061680574 26:0.00020560191 28:0.095249198 29:0.11205716 30:0.011719309 31:0.00020560191 32:-0.00020560191 33:0.98873961 #
35 3:0.012113531 4:-0.035290107 8:0.00028681199 11:-0.00028681199 12:-0.00028681199 13:-0.00028681199 14:-0.00028681199 15:-0.00028681199 16:-0.00028681199 17:0.000860436 18:-0.00028681199 19:-0.00028681199 20:0.003728556 21:0.00057362398 22:0.0043021799 23:0.00057362398 24:0.001720872 25:0.000860436 26:0.001147248 28:0.12734452 29:0.15529722 30:0.0031549318 31:-0.00028681199 32:-0.00028681199 33:0.97888935 #
35 3:0.01240701 4:-0.022479933 8:0.00091214589 11:-0.00030404862 12:-0.00030404862 13:0.00030404862 14:-0.00030404862 15:-0.00030404862 16:-0.00030404862 17:0.00091214589 18:-0.00030404862 19:-0.00030404862 20:0.0079052644 21:0.00030404862 24:0.00060809724 25:0.00091214589 26:0.00030404862 28:0.10763322 29:0.13126083 30:0.0018242918 31:-0.00030404862 32:-0.00030404862 33:0.98511755 #
35 3:0.010942277 4:-0.027543861 8:0.00031944711 11:-0.00031944711 12:-0.00031944711 13:-0.00031944711 14:-0.00031944711 15:-0.00031944711 16:-0.00031944711 17:0.00095834135 18:-0.00031944711 19:-0.00031944711 20:0.0054306011 21:0.0019166827 22:0.0079861777 23:0.0019166827 24:0.0019166827 25:0.0012777884 26:0.00031944711 28:0.0501532 29:0.061161347 30:0.005750048 31:-0.00031944711 32:-0.00031944711 33:0.99635559 #
35 3:0.0086831953 4:-0.022813195 11:0.00021791965 12:-0.00021791965 13:-0.00021791965 14:-0.00021791965 15:-0.00021791965 16:-0.00021791965 17:0.00043583929 18:0.00021791965 19:-0.00021791965 20:0.0037046338 21:0.0013075179 22:0.0054479912 23:0.0013075179 24:0.00021791965 25:0.00087167858 26:0.00021791965 28:0.096549295 29:0.11358844 30:0.0056659109 31:-0.00021791965 32:-0.00021791965 33:0.98848349 #
35 3:0.006466046 4:-0.020599052 8:0.00043306372 11:-0.00021653186 12:-0.00021653186 13:-0.00021653186 14:-0.00021653186 15:-0.00021653186 16:-0.00021653186 17:0.00064959557 18:-0.00021653186 19:-0.00021653186 20:0.0054132966 21:0.0012991911 22:0.0049802326 23:0.0012991911 24:0.00021653186 25:0.00086612743 26:0.00043306372 28:0.13974532 29:0.16440615 30:0.0097439336 31:-0.00021653186 32:-0.00021653186 33:0.9761256 #
-50 3:0.0093146032 4:-0.030086901 8:0.00049342733 11:-0.00024671367 12:-0.00024671367 13:-0.00024671367 14:-0.00024671367 15:-0.00024671367 16:-0.00024671367 17:0.00074014103 18:-0.00024671367 19:-0.00024671367 20:0.0019737093 21:0.00074014103 24:0.00074014103 25:0.00024671367 26:0.00049342733 28:0.15436381 29:0.18160346 30:0.013569252 31:0.00024671367 32:0.00024671367 33:0.97057158 #
35 3:0.0096648512 4:-0.031368665 8:0.00076868042 11:0.00025622681 12:-0.00025622681 13:-0.00025622681 14:-0.00025622681 15:-0.00025622681 16:-0.00025622681 17:0.00051245361 18:-0.00025622681 19:-0.00025622681 20:0.0066618966 21:0.00025622681 22:0.0043558558 23:0.0015373608 24:0.00076868042 25:0.00076868042 26:0.0010249072 28:0.1299403 29:0.14935715 30:0.011530206 31:-0.00025622681 32:-0.00025622681 33:0.97955507 #
-50 3:0.010144017 4:-0.019730408 8:0.00025499123 11:-0.00025499123 12:-0.00025499123 13:-0.00025499123 14:-0.00025499123 15:-0.00025499123 16:-0.00025499123 17:0.00050998246 18:-0.00025499123 19:-0.00025499123 20:0.0066297725 21:0.00025499123 22:0.0043348512 23:0.0015299475 24:0.00076497375 25:0.00050998246 26:0.00050998246 28:0.084448002 29:0.099349685 30:0.0076497374 31:-0.00025499123 32:0.00025499123 33:0.99115098 #
-50 3:0.0078979116 4:-0.025634844 8:0.00063057034 11:-0.0002101901 12:-0.0002101901 13:-0.0002101901 14:-0.0002101901 15:-0.0002101901 16:-0.0002101901 17:0.00063057034 18:-0.0002101901 19:-0.0002101901 20:0.00063057034 21:0.00063057034 22:0.00042038021 23:0.00063057034 24:0.00063057034 25:0.00042038021 26:0.00042038021 28:0.14438589 29:0.16986513 30:0.006305703 31:-0.0002101901 32:-0.0002101901 33:0.97444135 #
35 3:0.0084608132 4:-0.018062858 8:0.00063265272 11:-0.00021088425 12:-0.00021088425 13:-0.00021088425 14:-0.00021088425 15:-0.00021088425 16:-0.00021088425 17:0.00042176849 18:-0.00021088425 19:-0.00021088425 20:0.0035850322 21:0.0012653054 22:0.0052721063 23:0.0012653054 24:0.0012653054 25:0.00084353698 26:0.00021088425 28:0.10671587 29:0.12554783 30:0.0046394537 31:0.00021088425 32:-0.00021088425 33:0.98609477 #
-50 3:0.0087031452 4:-0.017214496 8:0.00067042658 11:0.00022347552 12:-0.00022347552 13:-0.00022347552 14:-0.00022347552 15:-0.00022347552 16:-0.00022347552 17:0.00044695105 18:-0.00022347552 19:-0.00022347552 20:0.0037990839 21:0.0013408532 22:0.0051399367 23:0.0013408532 24:0.00067042658 25:0.00067042658 26:0.00022347552 28:0.12545246 29:0.14759217 30:0.0049164612 31:-0.00022347552 32:-0.00022347552 33:0.98083407 #
35 3:0.0082644112 4:-0.016219277 8:0.00038803494 11:-0.00019401747 12:-0.00019401747 13:-0.00019401747 14:-0.00019401747 15:-0.00019401747 16:-0.00019401747 17:0.00058205239 18:-0.00019401747 19:-0.00019401747 20:0.0032982971 21:0.0011641048 22:0.0050444542 23:0.00019401747 24:0.00058205239 25:0.00038803494 26:0.00058205239 28:0.13811716 29:0.16249157 30:0.024834236 31:-0.00019401747 32:-0.00019401747 33:0.97648996 #
-50 3:0.010101406 4:-0.027425632 11:-0.00032917524 12:-0.00032917524 13:-0.00032917524 14:-0.00032917524 15:-0.00032917524 16:-0.00032917524 17:0.00065835047 18:-0.00032917524 19:-0.00032917524 20:0.0055959788 21:0.0019750514 22:0.0026334019 23:0.00098752568 24:0.00098752568 25:0.0013167009 26:0.00032917524 28:0.13858277 29:0.16900185 30:0.0055959788 31:-0.00032917524 32:-0.00032917524 33:0.97534621 #
-50 3:0.013157045 4:-0.033902675 8:0.0008293477 11:-0.00027644922 12:-0.00027644922 13:-0.00027644922 14:-0.00027644922 15:-0.00027644922 16:-0.00027644922 17:0.0008293477 18:-0.00027644922 19:-0.00027644922 20:0.0069112307 21:0.0016586954 22:0.0066347816 23:0.0011057969 24:0.0008293477 25:0.0011057969 26:0.00055289845 28:0.13552646 29:0.16527517 30:0.0063583325 31:0.00027644922 32:-0.00027644922 33:0.97614223 #
35 3:0.0067114448 4:-0.023317592 8:0.0005914818 11:0.0001971606 12:-0.0001971606 13:-0.0001971606 14:-0.0001971606 15:-0.0001971606 16:-0.0001971606 17:0.0005914818 18:-0.0001971606 19:-0.0001971606 20:0.0049290149 21:0.0011829636 24:0.0011829636 25:0.00078864238 26:0.00039432119 28:0.032746404 29:0.038525183 30:0.03943212 31:-0.0001971606 32:-0.0001971606 33:0.99763262 #
35 3:0.013945168 4:-0.03292745 8:0.0007989537 11:-0.00039947685 12:-0.00039947685 13:-0.00039947685 14:-0.00039947685 15:-0.00039947685 16:-0.00039947685 17:0.0007989537 18:-0.00039947685 19:-0.00039947685 20:0.0027963379 21:0.0027963379 22:0.0099869212 23:0.0023968611 24:0.0011984305 25:0.0015979074 26:0.00039947685 28:0.21988004 29:0.26814482 30:0.0071905828 31:-0.00039947685 32:-0.00039947685 33:0.93717265 #
-50 3:0.0072795809 4:-0.016199399 8:0.00019531473 11:-0.00019531473 12:-0.00019531473 13:-0.00019531473 14:-0.00019531473 15:-0.00019531473 16:-0.00019531473 17:0.00039062946 18:-0.00019531473 19:-0.00019531473 20:0.0015625178 21:0.00058594416 22:0.0035156652 23:0.00097657368 24:0.00039062946 25:0.00078125892 26:0.00019531473 28:0.13172807 29:0.15497442 30:0.004296924 31:-0.00019531473 32:-0.00019531473 33:0.97891742 #
-50 3:0.012036016 4:-0.026555561 11:-0.00033335752 12:-0.00033335752 13:-0.00033335752 14:-0.00033335752 15:-0.00033335752 16:-0.00033335752 17:0.0010000726 18:-0.00033335752 19:-0.00033335752 20:0.0026668601 21:0.0010000726 24:0.00066671503 25:0.0013334301 26:0.00066671503 28:0.062004499 29:0.075615488 30:0.0083339382 31:-0.00033335752 32:-0.00033335752 33:0.99473882 #
35 3:0.010344638 4:-0.021760335 8:0.0002623694 11:-0.0002623694 12:-0.0002623694 13:-0.0002623694 14:-0.0002623694 15:-0.0002623694 16:-0.0002623694 17:0.00078710826 18:-0.0002623694 19:-0.0002623694 20:0.001311847 21:0.0018365859 24:0.0015742165 25:0.0010494776 26:0.0005247388 28:0.074224308 29:0.090517446 30:0.0065592355 31:-0.0002623694 32:-0.0002623694 33:0.99280584 #
-50 3:0.0070324554 4:-0.024533972 8:0.0006237842 11:-0.00020792807 12:-0.00020792807 13:-0.00020792807 14:-0.00020792807 15:-0.00020792807 16:-0.00020792807 17:0.00020792807 18:-0.00020792807 19:-0.00020792807 20:0.0035347773 21:0.0012475684 22:0.0054061301 23:0.00020792807 24:0.0006237842 25:0.00083171227 26:0.00041585614 28:0.12376503 29:0.14560579 30:0.0024951368 31:-0.00020792807 32:-0.00020792807 33:0.98121256 #
35 3:0.0068251211 4:-0.021682922 8:0.0002278193 11:-0.0002278193 12:-0.0002278193 13:-0.0002278193 14:-0.0002278193 15:-0.0002278193 16:-0.0002278193 17:0.0004556386 18:-0.0002278193 19:-0.0002278193 20:0.0038729282 21:0.0013669158 24:0.0004556386 25:0.0004556386 26:0.0002278193 28:0.062083039 29:0.073038869 30:0.0047842055 31:-0.0002278193 32:-0.0002278193 33:0.99511468 #
-50 3:0.010158708 4:-0.020336976 8:0.00052612543 11:-0.00026306271 12:-0.00026306271 13:-0.00026306271 14:-0.00026306271 15:-0.00026306271 16:-0.00026306271 17:0.00052612543 18:-0.00026306271 19:-0.00026306271 20:0.00052612543 21:0.0007891882 22:0.0031567528 23:0.0007891882 24:0.00052612543 25:0.0007891882 26:0.00052612543 28:0.11960673 29:0.14586303 30:0.0073657562 31:-0.00026306271 32:-0.00026306271 33:0.98175007 #
35 3:0.0091258939 4:-0.01793444 8:0.00044494317 11:-0.00022247159 12:-0.00022247159 13:-0.00022247159 14:-0.00022247159 15:-0.00022247159 16:-0.00022247159 17:0.00066741474 18:-0.00022247159 19:-0.00022247159 20:0.0037820169 21:0.0013348295 24:0.00066741474 25:0.00044494317 26:0.00066741474 28:0.091745056 29:0.10793432 30:0.034260623 31:0.00022247159 32:-0.00022247159 33:0.98910868 #
35 3:0.0057019969 4:-0.015970834 8:0.0003927082 11:-0.0001963541 12:-0.0001963541 13:-0.0001963541 14:-0.0001963541 15:-0.0001963541 16:-0.0001963541 17:0.00058906229 18:-0.0001963541 19:-0.0001963541 20:0.0033380196 21:0.0011781246 22:0.0049088523 23:0.0011781246 24:0.0001963541 25:0.00058906229 26:0.0003927082 28:0.1408821 29:0.16574445 30:0.0035343738 31:0.0001963541 32:-0.0001963541 33:0.97587985 #
35 3:0.010268553 4:-0.02156394 8:0.00022751566 11:-0.00022751566 12:-0.00022751566 13:-0.00022751566 14:-0.00022751566 15:-0.00022751566 16:-0.00022751566 17:0.00045503132 18:-0.00022751566 19:-0.00022751566 20:0.0038677661 21:0.001365094 24:0.00022751566 25:0.00068254699 26:0.00045503132 28:0.12064473 29:0.14193565 30:0.0047778287 31:-0.00022751566 32:-0.00022751566 33:0.98218507 #
35 3:0.0066024251 4:-0.019511184 8:0.0007095153 11:-0.00023650509 12:-0.00023650509 13:-0.00023650509 14:-0.00023650509 15:-0.00023650509 16:-0.00023650509 17:0.0007095153 18:-0.00023650509 19:-0.00023650509 20:0.0059126271 21:0.0014190306 22:0.0018920407 23:0.0007095153 24:0.0007095153 25:0.00047301018 26:0.00023650509 28:0.19055925 29:0.22418791 30:0.0040205866 31:0.00023650509 32:-0.00023650509 33:0.95548058 #
35 3:0.0082517695 4:-0.016338222 8:0.00040835078 11:-0.00020417539 12:0.00020417539 13:-0.00020417539 14:-0.00020417539 15:-0.00020417539 16:-0.00020417539 17:0.00040835078 18:-0.00020417539 19:-0.00020417539 20:0.0014292276 21:0.0014292276 22:0.0018375785 23:0.0014292276 24:0.0012250523 25:0.00081670156 26:0.00040835078 28:0.093983971 29:0.11056913 30:0.0042876829 31:-0.00020417539 32:-0.00020417539 33:0.98922974 #
-50 3:0.0065730801 4:-0.022905434 8:0.00058099977 11:-0.00019366658 12:0.00019366658 13:-0.00019366658 14:-0.00019366658 15:-0.00019366658 16:-0.00019366658 17:0.00038733316 18:-0.00019366658 19:-0.00019366658 20:0.0048416648 21:0.0011619995 22:0.0044543315 23:0.0011619995 24:0.00019366658 25:0.00058099977 26:0.00038733316 28:0.12610793 29:0.14836216 30:0.0048416648 31:0.00019366658 32:-0.00019366658 33:0.9805339 #
35 3:0.006705008 4:-0.021701753 8:0.00066607457 11:-0.00022202486 12:-0.00022202486 13:-0.00022202486 14:-0.00022202486 15:-0.00022202486 16:-0.00022202486 17:0.00044404971 18:-0.00022202486 19:-0.00022202486 20:0.0037744227 21:0.0013321491 24:0.0013321491 25:0.00088809943 26:0.00022202486 28:0.15949155 29:0.18763764 30:0.0044404971 31:-0.00022202486 32:-0.00022202486 33:0.96891648 #
-50 3:0.0074808579 4:-0.023528308 11:-0.0001939472 12:-0.0001939472 13:-0.0001939472 14:-0.0001939472 15:-0.0001939472 16:-0.0001939472 17:0.0003878944 18:-0.0001939472 19:-0.0001939472 20:0.00484868 21:0.0011636831 22:0.0031031552 23:0.00096973596 24:0.0001939472 25:0.00077578879 26:0.0003878944 28:0.13138565 29:0.15457204 30:0.0069820993 31:-0.0001939472 32:-0.0001939472 33:0.9788515 #
35 3:0.0069204639 4:-0.023122311 8:0.00062165858 11:-0.00020721952 12:-0.00020721952 13:-0.00020721952 14:-0.00020721952 15:-0.00020721952 16:-0.00020721952 17:0.00062165858 18:-0.00020721952 19:-0.00020721952 20:0.0053877076 21:0.00020721952 24:0.00062165858 25:0.00062165858 26:0.00020721952 28:0.13252932 29:0.15591611 30:0.0082887812 31:0.00020721952 32:-0.00020721952 33:0.97849059 #
-50 3:0.012050929 4:-0.028930806 8:0.0010016004 11:-0.0003338668 12:-0.0003338668 13:-0.0003338668 14:-0.0003338668 15:-0.0003338668 16:-0.0003338668 17:0.0010016004 18:-0.0003338668 19:-0.0003338668 20:0.0056757359 21:0.0020032008 22:0.0026709344 23:0.0010016004 24:0.00066773361 25:0.0013354672 26:0.0003338668 28:0.15558194 29:0.18973316 30:0.0056757359 31:-0.0003338668 32:-0.0003338668 33:0.96888149 #
35 3:0.0063271779 4:-0.020274771 8:0.00042613555 11:-0.00021306777 12:-0.00021306777 13:-0.00021306777 14:-0.00021306777 15:-0.00021306777 16:-0.00021306777 17:0.00063920335 18:-0.00021306777 19:-0.00021306777 20:0.0053266943 21:0.0012784067 22:0.0017045422 23:0.00063920335 24:0.00063920335 25:0.00042613555 26:0.00042613555 28:0.13372347 29:0.15732072 30:0.0042613554 31:-0.00021306777 32:-0.00021306777 33:0.97819418 #
-50 3:0.0078660399 4:-0.023165978 8:0.00084317796 11:-0.00028105933 12:-0.00028105933 13:-0.00028105933 14:-0.00028105933 15:-0.00028105933 16:-0.00028105933 17:0.00056211866 18:-0.00028105933 19:-0.00028105933 20:0.0070264828 21:0.0016863559 24:0.00056211866 25:0.0011242373 26:0.00028105933 28:0.13181682 29:0.16075188 30:0.0050590676 31:-0.00028105933 32:-0.00028105933 33:0.97780538 #
35 3:0.0079239011 4:-0.022709586 8:0.00023018754 11:-0.00023018754 12:-0.00023018754 13:-0.00023018754 14:-0.00023018754 15:-0.00023018754 16:-0.00023018754 17:0.00069056259 18:-0.00023018754 19:-0.00023018754 20:0.00046037507 21:0.00069056259 24:0.00046037507 25:0.00069056259 26:0.00023018754 28:0.13184682 29:0.15511417 30:0.0029924379 31:-0.00023018754 32:-0.00023018754 33:0.97875738 #
35 3:0.009862964 4:-0.027483242 11:-0.00027767615 12:-0.00027767615 13:-0.00027767615 14:-0.00027767615 15:-0.00027767615 16:-0.00027767615 17:0.00027767615 18:-0.00027767615 19:-0.00027767615 20:0.0008330284 21:0.0008330284 22:0.0022214092 23:0.0008330284 24:0.0008330284 25:0.0011107046 26:0.0008330284 28:0.12133337 29:0.14796807 30:0.04165142 31:-0.00027767615 32:-0.00027767615 33:0.98019677 #
-50 3:0.0068963086 4:-0.018998183 8:0.00058422575 11:-0.00019474191 12:-0.00019474191 13:-0.00019474191 14:-0.00019474191 15:-0.00019474191 16:-0.00019474191 17:0.00058422575 18:-0.00019474191 19:-0.00019474191 20:0.0033106124 21:0.0011684515 22:0.0044790641 23:0.0011684515 24:0.00019474191 25:0.00077896763 26:0.00019474191 28:0.13139237 29:0.15457834 30:0.0044790641 31:-0.00019474191 32:-0.00019474191 33:0.97896761 #
35 3:0.0057333079 4:-0.018352011 8:0.00057716313 11:-0.0001923877 12:-0.0001923877 13:-0.0001923877 14:-0.0001923877 15:-0.0001923877 16:-0.0001923877 17:0.00057716313 18:-0.0001923877 19:-0.0001923877 20:0.0032705909 21:0.0011543263 22:0.0015391016 23:0.00057716313 24:0.0003847754 25:0.00057716313 26:0.0001923877 28:0.1306197 29:0.15366969 30:0.00096193852 31:-0.0001923877 32:-0.0001923877 33:0.97925341 #
35 3:0.0093259858 4:-0.023084491 8:0.0002486759 11:-0.0002486759 12:-0.0002486759 13:-0.0002486759 14:-0.0002486759 15:-0.0002486759 16:-0.0002486759 17:0.00074602768 18:-0.0002486759 19:-0.0002486759 20:0.0042274902 21:0.0014920554 22:0.0054708696 23:0.0017407313 24:0.0002486759 25:0.00074602768 26:0.00099470362 28:0.1096238 29:0.1289683 30:0.062168974 31:-0.0002486759 32:0.0002486759 33:0.98326451 #
35 3:0.0087844916 4:-0.017627137 8:0.00063321262 11:-0.00021107087 12:-0.00021107087 13:-0.00021107087 14:-0.00021107087 15:-0.00021107087 16:-0.00021107087 17:0.00063321262 18:-0.00021107087 19:-0.00021107087 20:0.0035882047 21:0.0012664252 22:0.0052767717 23:0.0012664252 24:0.00021107087 25:0.0008442835 26:0.00021107087 28:0.12607896 29:0.14832795 30:0.0048546297 31:-0.00021107087 32:-0.00021107087 33:0.98063523 #
-50 3:0.0089285308 4:-0.020570757 11:-0.00025431669 12:0.00025431669 13:-0.00025431669 14:-0.00025431669 15:-0.00025431669 16:-0.00025431669 17:0.00076295011 18:-0.00025431669 19:-0.00025431669 20:0.0063579176 21:0.0015259002 22:0.0058492841 23:0.0015259002 24:0.00050863338 25:0.0010172668 26:0.00025431669 28:0.12830023 29:0.14747062 30:0.0063579176 31:-0.00025431669 32:-0.00025431669 33:0.98039091 #
-50 3:0.0090021454 4:-0.018837634 11:-0.0002272936 12:-0.0002272936 13:-0.0002272936 14:-0.0002272936 15:-0.0002272936 16:-0.0002272936 17:0.0006818808 18:-0.0002272936 19:-0.0002272936 20:0.0018183488 21:0.0006818808 22:0.003863991 23:0.0013637616 24:0.00045458719 25:0.00045458719 26:0.0002272936 28:0.1285459 29:0.1512298 30:0.0040912847 31:-0.0002272936 32:-0.0002272936 33:0.97986269 #
-50 3:0.0085202521 4:-0.015994195 8:0.00063889369 11:-0.00021296456 12:-0.00021296456 13:-0.00021296456 14:-0.00021296456 15:-0.00021296456 16:-0.00021296456 17:0.00063889369 18:-0.00021296456 19:-0.00021296456 20:0.0053241141 21:0.0012777874 22:0.0036203975 23:0.0012777874 24:0.00063889369 25:0.00085185823 26:0.00021296456 28:0.081829503 29:0.096270628 30:0.0063889367 31:0.00021296456 32:-0.00021296456 33:0.99177593 #
35 3:0.0065958053 4:-0.021263929 8:0.00034758597 11:-0.00017379299 12:-0.00017379299 13:-0.00017379299 14:-0.00017379299 15:-0.00017379299 16:-0.00017379299 17:0.00052137894 18:-0.00017379299 19:-0.00017379299 20:0.0013903439 21:0.00052137894 22:0.00052137894 23:0.00052137894 24:0.00052137894 25:0.00069517194 26:0.00017379299 28:0.32154655 29:0.37828997 30:0.0041710315 31:-0.00017379299 32:-0.00017379299 33:0.86774838 #
35 3:0.0068231602 4:-0.012238701 8:0.0003325138 11:-0.0001662569 12:-0.0001662569 13:-0.0001662569 14:-0.0001662569 15:-0.0001662569 16:-0.0001662569 17:0.0003325138 18:-0.0001662569 19:-0.0001662569 20:0.0039901654 21:0.00066502759 22:0.00049877068 23:0.00049877068 24:0.00049877068 25:0.0003325138 26:0.00066502759 28:0.34664562 29:0.4078182 30:0.033251379 31:-0.0001662569 32:0.0001662569 33:0.84391999 #
-50 3:0.0085981339 4:-0.015575357 8:0.00042260555 11:-0.00021130277 12:-0.00021130277 13:-0.00021130277 14:-0.00021130277 15:-0.00021130277 16:-0.00021130277 17:0.00063390832 18:-0.00021130277 19:-0.00021130277 20:0.0052825697 21:0.0012678166 22:0.0016904222 23:0.00063390832 24:0.00021130277 25:0.00063390832 26:0.00063390832 28:0.12183296 29:0.14333302 30:0.0092973225 31:-0.00021130277 32:-0.00021130277 33:0.981924 #
35 3:0.0058309585 4:-0.018698925 8:0.00039287918 11:-0.00019643959 12:-0.00019643959 13:-0.00019643959 14:-0.00019643959 15:-0.00019643959 16:-0.00019643959 17:0.00019643959 18:-0.00019643959 19:-0.00019643959 20:0.0045181108 21:0.0011786376 22:0.0031430335 23:0.00098219793 24:0.00058931881 25:0.00039287918 26:0.00058931881 28:0.10343723 29:0.1216904 30:0.0088397814 31:-0.00019643959 32:-0.00019643959 33:0.98691255 #
35 3:0.0094327144 4:-0.019874236 8:0.0004529827 11:-0.00022649135 12:-0.00022649135 13:-0.00022649135 14:-0.00022649135 15:-0.00022649135 16:-0.00022649135 17:0.0004529827 18:-0.00022649135 19:-0.00022649135 20:0.0020384223 21:0.0015854395 22:0.003850353 23:0.0013589482 24:0.00067947409 25:0.0009059654 26:0.00067947409 28:0.10190073 29:0.11988414 30:0.0045298273 31:-0.00022649135 32:0.00022649135 33:0.98727584 #
35 3:0.0075847362 4:-0.026430786 8:0.00067042088 11:-0.00022347362 12:0.00022347362 13:-0.00022347362 14:-0.00022347362 15:-0.00022347362 16:-0.00022347362 17:0.00044694723 18:-0.00022347362 19:-0.00022347362 20:0.0055868402 21:0.0013408418 22:0.0017877889 23:0.00067042088 24:0.00067042088 25:0.00067042088 26:0.00044694723 28:0.14770488 29:0.17377084 30:0.0044694724 31:0.00022347362 32:-0.00022347362 33:0.97322762 #
-50 3:0.0076058847 4:-0.016697828 8:0.000636913 11:-0.00021230434 12:0.00021230434 13:-0.00021230434 14:-0.00021230434 15:-0.00021230434 16:-0.00021230434 17:0.000636913 18:-0.00021230434 19:-0.00021230434 20:0.001273826 21:0.00084921735 24:0.001273826 25:0.00042460868 26:0.00042460868 28:0.1223892 29:0.14398693 30:0.014861303 31:-0.00021230434 32:-0.00021230434 33:0.98169523 #
35 3:0.0063951146 4:-0.018905217 8:0.00041965497 11:-0.00020982749 12:-0.00020982749 13:-0.00020982749 14:-0.00020982749 15:-0.00020982749 16:-0.00020982749 17:0.00041965497 18:-0.00020982749 19:-0.00020982749 20:0.0035670674 21:0.001258965 22:0.0054555149 23:0.00020982749 24:0.0006294825 25:0.0006294825 26:0.0006294825 28:0.11900156 29:0.1400011 30:0.015737062 31:-0.00020982749 32:-0.00020982749 33:0.98262215 #
-50 3:0.0068815714 4:-0.018996285 8:0.00058426859 11:-0.0001947562 12:-0.0001947562 13:-0.0001947562 14:-0.0001947562 15:-0.0001947562 16:-0.0001947562 17:0.00058426859 18:-0.0001947562 19:-0.0001947562 20:0.0015580496 21:0.00058426859 22:0.0050636609 23:0.0001947562 24:0.00058426859 25:0.0003895124 26:0.0003895124 28:0.11797551 29:0.13879496 30:0.014801471 31:0.0001947562 32:-0.0001947562 33:0.98293453 #
35 3:0.0097883455 4:-0.017779889 8:0.00072097196 11:-0.00024032399 12:-0.00024032399 13:-0.00024032399 14:-0.00024032399 15:-0.00024032399 16:-0.00024032399 17:0.00048064798 18:-0.00024032399 19:0.00024032399 20:0.00048064798 21:0.00072097196 24:0.00096129597 25:0.00096129597 26:0.00096129597 28:0.11817933 29:0.13903464 30:0.0120162 31:-0.00024032399 32:0.00024032399 33:0.98292512 #
-50 3:0.0090047922 4:-0.018824093 8:0.00064415036 11:-0.00021471678 12:0.00021471678 13:-0.00021471678 14:-0.00021471678 15:-0.00021471678 16:-0.00021471678 17:0.00042943357 18:-0.00021471678 19:-0.00021471678 20:0.0036501852 21:0.0012883007 24:0.00021471678 25:0.00042943357 26:0.00042943357 28:0.11662772 29:0.13720831 30:0.0062267869 31:-0.00021471678 32:-0.00021471678 33:0.98340285 #
35 3:0.012865651 4:-0.02326759 8:0.00094513717 11:-0.00031504571 12:-0.00031504571 13:-0.00031504571 14:-0.00031504571 15:-0.00031504571 16:-0.00031504571 17:0.00094513717 18:-0.00031504571 19:-0.00031504571 20:0.0025203656 21:0.00094513717 24:0.00094513717 25:0.0012601828 26:0.00063009141 28:0.23502411 29:0.286616 30:0.047256857 31:-0.00031504571 32:-0.00031504571 33:0.92717957 #
35 3:0.010107851 4:-0.018321628 8:0.00074334472 11:-0.00024778157 12:-0.00024778157 13:-0.00024778157 14:-0.00024778157 15:-0.00024778157 16:-0.00024778157 17:0.00049556314 18:-0.00024778157 19:-0.00024778157 20:0.0012389079 21:0.0017344711 24:0.0014866894 25:0.00099112629 26:0.00049556314 28:0.10144921 29:0.11935143 30:0.0061945394 31:-0.00024778157 32:0.00024778157 33:0.98740959 #
-50 3:0.0060198694 4:-0.01718856 8:0.00042268389 11:-0.00021134195 12:-0.00021134195 13:-0.00021134195 14:-0.00021134195 15:-0.00021134195 16:-0.00021134195 17:0.00063402584 18:-0.00021134195 19:-0.00021134195 20:0.0054948907 21:0.00021134195 22:0.0014793937 23:0.0014793937 24:0.00063402584 25:0.00063402584 26:0.00021134195 28:0.11612818 29:0.136622 30:0.0063402583 31:-0.00021134195 32:-0.00021134195 33:0.98358542 #
-50 3:0.0086763874 4:-0.015935583 8:0.00060614647 11:0.00020204882 12:-0.00020204882 13:-0.00020204882 14:-0.00020204882 15:-0.00020204882 16:-0.00020204882 17:0.00060614647 18:-0.00020204882 19:-0.00020204882 20:0.0052532693 21:0.00020204882 22:0.0034348299 23:0.0012122929 24:0.00060614647 25:0.00080819527 26:0.00020204882 28:0.11179563 29:0.13152368 30:0.0052532693 31:0.00020204882 32:-0.00020204882 33:0.98478591 #
35 3:0.0099913711 4:-0.017556032 8:0.00048085098 11:-0.00024042549 12:-0.00024042549 13:-0.00024042549 14:-0.00024042549 15:-0.00024042549 16:-0.00024042549 17:0.0007212765 18:-0.00024042549 19:-0.00024042549 20:0.0040872335 21:0.001442553 22:0.00048085098 23:0.0007212765 24:0.00024042549 25:0.00096170197 26:0.00048085098 28:0.10619114 29:0.1249299 30:0.0067319139 31:-0.00024042549 32:-0.00024042549 33:0.98622537 #
-50 3:0.010165088 4:-0.018493887 8:0.00075052399 11:-0.00025017466 12:0.00025017466 13:-0.00025017466 14:-0.00025017466 15:-0.00025017466 16:-0.00025017466 17:0.00050034933 18:-0.00025017466 19:-0.00025017466 20:0.0042529693 21:0.001501048 22:0.0035024453 23:0.0017512226 24:0.00050034933 25:0.0010006987 26:0.00025017466 28:0.10915871 29:0.12842216 30:0.004503144 31:-0.00025017466 32:0.00025017466 33:0.98543799 #
35 3:0.0094750272 4:-0.019845622 8:0.00067887449 11:-0.00022629151 12:-0.00022629151 13:-0.00022629151 14:0.00022629151 15:-0.00022629151 16:-0.00022629151 17:0.00045258302 18:-0.00022629151 19:-0.00022629151 20:0.0038469555 21:0.001357749 22:0.00452583 23:0.0015840406 24:0.00022629151 25:0.00090516603 26:0.00090516603 28:0.10711056 29:0.12601268 30:0.00452583 31:-0.00022629151 32:-0.00022629151 33:0.98595208 #
-50 3:0.0072362525 4:-0.021528371 8:0.00066353776 11:-0.00022117926 12:0.00022117926 13:-0.00022117926 14:-0.00022117926 15:-0.00022117926 16:-0.00022117926 17:0.00044235852 18:-0.00022117926 19:-0.00022117926 20:0.0037600475 21:0.0013270755 22:0.0055294815 23:0.0013270755 24:0.00044235852 25:0.00088471704 26:0.00022117926 28:0.10677429 29:0.12561655 30:0.0048659439 31:-0.00022117926 32:-0.00022117926 33:0.98601717 #
35 3:0.0087282658 4:-0.016958142 8:0.00040559273 11:-0.00020279636 12:-0.00020279636 13:-0.00020279636 14:-0.00020279636 15:-0.00020279636 16:-0.00020279636 17:0.00060838909 18:-0.00020279636 19:-0.00020279636 20:0.0034475382 21:0.0012167782 24:0.00060838909 25:0.00040559273 26:0.00020279636 28:0.12978968 29:0.1526935 30:0.0052727056 31:-0.00020279636 32:-0.00020279636 33:0.97950643 #
35 3:0.0082299085 4:-0.028703976 8:0.00072974712 11:-0.00024324904 12:-0.00024324904 13:-0.00024324904 14:-0.00024324904 15:-0.00024324904 16:-0.00024324904 17:0.00072974712 18:-0.00024324904 19:-0.00024324904 20:0.0036487356 21:0.00048649809 22:0.00097299617 23:0.00048649809 24:0.00048649809 25:0.00097299617 26:0.00024324904 28:0.12398647 29:0.14586672 30:0.0058379769 31:-0.00024324904 32:0.00024324904 33:0.98102337 #
35 3:0.0076634772 4:-0.026482504 8:0.00067041902 11:-0.00022347302 12:-0.00022347302 13:-0.00022347302 14:-0.00022347302 15:-0.00022347302 16:-0.00022347302 17:0.00067041902 18:-0.00022347302 19:-0.00022347302 20:0.0037990413 21:0.001340838 24:0.001340838 25:0.00044694604 26:0.00022347302 28:0.11727864 29:0.13797447 30:0.0051398794 31:0.00022347302 32:-0.00022347302 33:0.9830578 #
-50 3:0.0084082885 4:-0.021568902 8:0.00071844592 11:-0.00023948196 12:-0.00023948196 13:-0.00023948196 14:-0.00023948196 15:-0.00023948196 16:-0.00023948196 17:0.00071844592 18:-0.00023948196 19:-0.00023948196 20:0.0040711933 21:0.0014368918 22:0.0016763738 23:0.0016763738 24:0.00047896392 25:0.00095792784 26:0.00023948196 28:0.10518527 29:0.12374751 30:0.0047896393 31:-0.00023948196 32:-0.00023948196 33:0.98642623 #
35 3:0.0084984275 4:-0.01959854 11:-0.00024694824 12:-0.00024694824 13:-0.00024694824 14:-0.00024694824 15:-0.00024694824 16:-0.00024694824 17:0.00049389648 18:-0.00024694824 19:-0.00024694824 20:0.00419812 21:0.0014816895 22:0.0017286377 23:0.0017286377 24:0.00074084476 25:0.00098779297 26:0.00024694824 28:0.1038121 29:0.12213072 30:0.0061737061 31:-0.00024694824 32:-0.00024694824 33:0.9868052 #
-50 3:0.0067912871 4:-0.023125105 11:-0.00020730642 12:-0.00020730642 13:-0.00020730642 14:-0.00020730642 15:-0.00020730642 16:-0.00020730642 17:0.00062191929 18:-0.00020730642 19:-0.00020730642 20:0.0035242094 21:0.0012438386 24:0.00020730642 25:0.0008292257 26:0.00020730642 28:0.10370504 29:0.12200605 30:0.0055972734 31:-0.00020730642 32:-0.00020730642 33:0.98677862 #
35 3:0.0093373246 4:-0.020507809 8:0.00045873219 11:-0.00022936609 12:-0.00022936609 13:-0.00022936609 14:-0.00022936609 15:-0.00022936609 16:-0.00022936609 17:0.00068809825 18:-0.00022936609 19:-0.00022936609 20:0.0057341522 21:0.0013761965 22:0.0018349288 23:0.00068809825 24:0.00068809825 25:0.00045873219 26:0.00022936609 28:0.10121926 29:0.11908229 30:0.0050460543 31:-0.00022936609 32:-0.00022936609 33:0.98742104 #
-50 3:0.0084727257 4:-0.01466817 8:0.00020180363 11:-0.00020180363 12:-0.00020180363 13:-0.00020180363 14:-0.00020180363 15:-0.00020180363 16:-0.00020180363 17:0.0006054109 18:-0.00020180363 19:-0.00020180363 20:0.0034306617 21:0.0012108218 22:0.0016144291 23:0.0006054109 24:0.0006054109 25:0.00020180363 26:0.00020180363 28:0.098399453 29:0.11576466 30:0.020180363 31:0.00020180363 32:-0.00020180363 33:0.98803061 #
35 3:0.010099512 4:-0.021916665 8:0.00076173729 11:-0.00025391241 12:-0.00025391241 13:-0.00025391241 14:-0.00025391241 15:-0.00025391241 16:-0.00025391241 17:0.00076173729 18:-0.00025391241 19:-0.00025391241 20:0.0020312993 21:0.00076173729 22:0.0063478104 23:0.0015234746 24:0.00076173729 25:0.0010156496 26:0.00025391241 28:0.12496046 29:0.14363317 30:0.0055860733 31:0.00025391241 32:-0.00025391241 33:0.98137152 #
35 3:0.0097443508 4:-0.03104195 8:0.00080826617 11:-0.00026942205 12:-0.00026942205 13:-0.00026942205 14:-0.00026942205 15:-0.00026942205 16:-0.00026942205 17:0.00026942205 18:-0.00026942205 19:-0.00026942205 20:0.0067355512 21:0.0016165323 22:0.00026942205 23:0.0010776882 24:0.0016165323 25:0.0010776882 26:0.00026942205 28:0.12640475 29:0.15415253 30:0.004580175 31:0.00026942205 32:-0.00026942205 33:0.9793492 #
-50 3:0.0075395098 4:-0.020126648 8:0.0004188747 11:-0.00020943735 12:-0.00020943735 13:-0.00020943735 14:-0.00020943735 15:-0.00020943735 16:-0.00020943735 17:0.00020943735 18:-0.00020943735 19:-0.00020943735 20:0.000628312 21:0.000628312 24:0.0004188747 25:0.00083774939 26:0.00083774939 28:0.074490577 29:0.087636963 30:0.019268235 31:-0.00020943735 32:-0.00020943735 33:0.99294245 #
-50 3:0.0085521182 4:-0.018550312 8:0.00023895994 11:-0.00023895994 12:-0.00023895994 13:-0.00023895994 14:-0.00023895994 15:-0.00023895994 16:-0.00023895994 17:0.00071687979 18:-0.00023895994 19:-0.00023895994 20:0.0019116795 21:0.00071687979 22:0.0040623187 23:0.0014337596 24:0.0014337596 25:0.00095583976 26:0.00023895994 28:0.10351744 29:0.12178593 30:0.0052571185 31:-0.00023895994 32:-0.00023895994 33:0.9869045 #
35 3:0.0094907461 4:-0.030450655 8:0.00050046085 11:-0.00025023043 12:-0.00025023043 13:0.00025023043 14:-0.00025023043 15:-0.00025023043 16:-0.00025023043 17:0.00050046085 18:-0.00025023043 19:-0.00025023043 20:0.00075069128 21:0.00075069128 22:0.0020018434 23:0.00075069128 24:0.00075069128 25:0.00075069128 26:0.00025023043 28:0.12251031 29:0.14413022 30:0.0062557603 31:-0.00025023043 32:0.00025023043 33:0.98140371 #
35 3:0.010476761 4:-0.017888468 8:0.00075115298 11:-0.00025038433 12:-0.00025038433 13:-0.00025038433 14:-0.00025038433 15:-0.00025038433 16:-0.00025038433 17:0.00050076866 18:-0.00025038433 19:-0.00025038433 20:0.0042565335 21:0.001502306 22:0.0035053806 23:0.0017526903 24:0.00050076866 25:0.0010015373 26:0.00025038433 28:0.09786772 29:0.11513923 30:0.0050076866 31:-0.00025038433 32:-0.00025038433 33:0.98826694 #
-50 3:0.0058124415 4:-0.018745868 8:0.00039253931 11:-0.00019626966 12:-0.00019626966 13:-0.00019626966 14:-0.00019626966 15:-0.00019626966 16:-0.00019626966 17:0.00039253931 18:-0.00019626966 19:-0.00019626966 20:0.0049067414 21:0.0011776179 22:0.0039253933 23:0.0013738876 24:0.00058880897 25:0.00058880897 26:0.00078507862 28:0.084774755 29:0.099734426 30:0.0058880895 31:-0.00019626966 32:-0.00019626966 33:0.99116176 #
35 3:0.0093186386 4:-0.020582283 8:0.00045935635 11:-0.00022967817 12:-0.00022967817 13:-0.00022967817 14:-0.00022967817 15:-0.00022967817 16:-0.00022967817 17:0.00068903452 18:-0.00022967817 19:-0.00022967817 20:0.0027561381 21:0.00068903452 24:0.00045935635 25:0.00068903452 26:0.00068903452 28:0.10230555 29:0.12036055 30:0.0068903454 31:0.00022967817 32:-0.00022967817 33:0.98715681 #
-50 3:0.0076596248 4:-0.020410556 8:0.00042567129 11:-0.00021283564 12:-0.00021283564 13:-0.00021283564 14:-0.00021283564 15:-0.00021283564 16:-0.00021283564 17:0.0006385069 18:-0.00021283564 19:-0.00021283564 20:0.0014898495 21:0.0014898495 22:0.0017026851 23:0.0006385069 24:0.00042567129 25:0.00042567129 26:0.00021283564 28:0.1015673 29:0.11949018 30:0.0085134255 31:-0.00021283564 32:-0.00021283564 33:0.98734456 #
35 3:0.0069960365 4:-0.019250404 8:0.00059266255 11:-0.00019755417 12:-0.00019755417 13:-0.00019755417 14:-0.00019755417 15:-0.00019755417 16:-0.00019755417 17:0.00039510833 18:-0.00019755417 19:-0.00019755417 20:0.0033584209 21:0.0011853251 22:0.0051364084 23:0.00019755417 24:0.00039510833 25:0.00079021667 26:0.00039510833 28:0.093549803 29:0.1100594 30:0.015804334 31:-0.00019755417 32:-0.00019755417 33:0.98915374 #
35 3:0.0075645936 4:-0.026180763 8:0.00066277868 11:-0.00022092623 12:0.00022092623 13:-0.00022092623 14:-0.00022092623 15:-0.00022092623 16:-0.00022092623 17:0.00022092623 18:-0.00022092623 19:-0.00022092623 20:0.00044185246 21:0.00066277868 22:0.0037557459 23:0.0013255574 24:0.00066277868 25:0.00066277868 26:0.00066277868 28:0.14898603 29:0.17527846 30:0.04263876 31:0.00022092623 32:-0.00022092623 33:0.97185445 #
35 3:0.011022627 4:-0.019959925 8:0.00081022456 11:-0.00027007487 12:-0.00027007487 13:-0.00027007487 14:-0.00027007487 15:-0.00027007487 16:-0.00027007487 17:0.00054014975 18:-0.00027007487 19:-0.00027007487 20:0.0045912727 21:0.0016204491 22:0.0070219464 23:0.00027007487 24:0.00081022456 25:0.0010802995 26:0.00081022456 28:0.085473292 29:0.1042354 30:0.020255614 31:0.00027007487 32:0.00027007487 33:0.99036449 #
-50 3:0.0062943464 4:-0.019149868 8:0.00069681881 11:-0.00023227294 12:-0.00023227294 13:-0.00023227294 14:-0.00023227294 15:-0.00023227294 16:-0.00023227294 17:0.00069681881 18:-0.00023227294 19:-0.00023227294 20:0.0039486401 21:0.0013936376 22:0.0018581835 23:0.00069681881 24:0.00069681881 25:0.00046454588 26:0.00023227294 28:0.089499407 29:0.10529397 30:0.0041809129 31:-0.00023227294 32:-0.00023227294 33:0.99017954 #
35 3:0.013407809 4:-0.029488182 8:0.001002169 11:-0.00033405633 12:-0.00033405633 13:-0.00033405633 14:-0.00033405633 15:-0.00033405633 16:-0.00033405633 17:0.001002169 18:-0.00033405633 19:-0.00033405633 20:0.0056789578 21:0.002004338 24:0.002004338 25:0.0013362253 26:0.00066811265 28:0.05378307 29:0.065588623 30:0.0070151831 31:-0.00033405633 32:-0.00033405633 33:0.99582195 #
-50 3:0.013383522 4:-0.022894479 8:0.00096083031 11:-0.00032027677 12:-0.00032027677 13:-0.00032027677 14:-0.00032027677 15:-0.00032027677 16:-0.00032027677 17:0.00064055354 18:-0.00032027677 19:-0.00032027677 20:0.0041635982 21:0.00064055354 22:0.0083271964 23:0.00032027677 24:0.0019216606 25:0.00064055354 26:0.00032027677 28:0.11626047 29:0.14178012 30:0.0080069192 31:-0.00032027677 32:-0.00032027677 33:0.98260915 #
35 3:0.010314407 4:-0.021657955 8:0.00073629827 11:-0.00024543275 12:0.00024543275 13:-0.00024543275 14:-0.00024543275 15:-0.00024543275 16:-0.00024543275 17:0.00073629827 18:-0.00024543275 19:-0.00024543275 20:0.0041723568 21:0.0014725965 24:0.00073629827 25:0.00098173099 26:0.00098173099 28:0.098325267 29:0.11567736 30:0.049086552 31:-0.00024543275 32:0.00024543275 33:0.98688513 #
-50 3:0.0082955621 4:-0.017308231 8:0.000583013 11:-0.00019433766 12:-0.00019433766 13:-0.00019433766 14:-0.00019433766 15:-0.00019433766 16:-0.00019433766 17:0.00038867531 18:-0.00019433766 19:-0.00019433766 20:0.0040810909 21:0.001166026 24:0.00038867531 25:0.000583013 26:0.00077735062 28:0.091962524 29:0.10819166 30:0.024292208 31:-0.00019433766 32:-0.00019433766 33:0.98937303 #
35 3:0.0093679968 4:-0.020278644 8:0.000706069 11:0.00023535633 12:-0.00023535633 13:-0.00023535633 14:-0.00023535633 15:-0.00023535633 16:-0.00023535633 17:0.00047071266 18:0.00023535633 19:-0.00023535633 20:0.0040010577 21:0.001412138 22:0.0016474944 23:0.0016474944 24:0.00023535633 25:0.00094142533 26:0.00023535633 28:0.1035309 29:0.12180161 30:0.0070606903 31:0.00023535633 32:-0.00023535633 33:0.98684913 #
-50 3:0.0076448517 4:-0.026482798 8:0.00067096035 11:-0.00022365345 12:0.00022365345 13:-0.00022365345 14:-0.00022365345 15:-0.00022365345 16:-0.00022365345 17:0.00067096035 18:-0.00022365345 19:-0.00022365345 20:0.0055913362 21:0.0013419207 22:0.0017892276 23:0.00067096035 24:0.00067096035 25:0.0008946138 26:0.0004473069 28:0.097895347 29:0.11517034 30:0.021247078 31:-0.00022365345 32:-0.00022365345 33:0.98787725 #
35 3:0.0097620245 4:-0.031088583 8:0.00054037553 11:-0.00027018777 12:-0.00027018777 13:-0.00027018777 14:-0.00027018777 15:-0.00027018777 16:-0.00027018777 17:0.00081056327 18:-0.00027018777 19:-0.00027018777 20:0.0045931917 21:0.0016211265 22:0.0062143183 23:0.0016211265 24:0.00081056327 25:0.0010807511 26:0.00027018777 28:0.089388914 29:0.10900995 30:0.0054037552 31:0.00027018777 32:-0.00027018777 33:0.98942757 #
35 3:0.0067065503 4:-0.019760095 8:0.00071884977 11:-0.00023961659 12:-0.00023961659 13:-0.00023961659 14:-0.00023961659 15:-0.00023961659 16:-0.00023961659 17:0.00071884977 18:-0.00023961659 19:-0.00023961659 20:0.004073482 21:0.0014376995 24:0.00071884977 25:0.00095846638 26:0.00023961659 28:0.16998641 29:0.199984 30:0.0038338655 31:-0.00023961659 32:0.00023961659 33:0.96469641 #
35 3:0.029855214 4:-0.054033533 8:0.0021929063 11:-0.00073096878 12:-0.00073096878 13:-0.00073096878 14:-0.00073096878 15:-0.00073096878 16:-0.00073096878 17:0.0014619376 18:0.00073096878 19:-0.00073096878 20:0.017543251 21:0.0029238751 24:0.0014619376 25:0.0029238751 26:0.0014619376 28:0.23908526 29:0.29156882 31:-0.00073096878 32:-0.00073096878 33:0.92394453 #
35 3:0.0077096908 4:-0.026670694 8:0.00067596888 11:-0.00022532296 12:-0.00022532296 13:-0.00022532296 14:-0.00022532296 15:-0.00022532296 16:-0.00022532296 17:0.00067596888 18:-0.00022532296 19:-0.00022532296 20:0.0038304904 21:0.0013519378 22:0.0056330743 23:0.0013519378 24:0.00045064592 25:0.00090129185 26:0.00022532296 28:0.10450254 29:0.12294523 30:0.0054077511 31:0.00022532296 32:-0.00022532296 33:0.98646396 #
35 3:0.010367703 4:-0.02249576 8:0.00084988575 11:-0.00028329526 12:0.00028329526 13:-0.00028329526 14:-0.00028329526 15:-0.00028329526 16:-0.00028329526 17:0.00028329526 18:-0.00028329526 19:-0.00028329526 20:0.00056659052 21:0.00084988575 22:0.0070823813 23:0.0016997715 24:0.00084988575 25:0.001133181 26:0.00084988575 28:0.10201178 29:0.12440344 30:0.019830668 31:0.00028329526 32:-0.00028329526 33:0.98643404 #
35 3:0.006082755 4:-0.019530078 8:0.00061368593 11:-0.00020456198 12:-0.00020456198 13:-0.00020456198 14:-0.00020456198 15:-0.00020456198 16:-0.00020456198 17:0.00061368593 18:-0.00020456198 19:-0.00020456198 20:0.0034775536 21:0.0012273719 24:0.00040912395 25:0.00061368593 26:0.00020456198 28:0.03788897 29:0.044576101 30:0.0049094874 31:-0.00020456198 32:-0.00020456198 33:0.99805784 #
35 3:0.010553742 4:-0.022083111 8:0.00075553183 11:-0.00025184394 12:0.00025184394 13:-0.00025184394 14:-0.00025184394 15:-0.00025184394 16:-0.00025184394 17:0.00050368789 18:0.00025184394 19:-0.00025184394 20:0.0062960987 21:0.0015110637 24:0.00025184394 25:0.0010073758 26:0.00075553183 28:0.11083148 29:0.13038969 30:0.030221274 31:-0.00025184394 32:-0.00025184394 33:0.98445797 #
-50 3:0.011432193 4:-0.02476936 8:0.00086309464 11:-0.0002876982 12:0.0002876982 13:-0.0002876982 14:-0.0002876982 15:-0.0002876982 16:-0.0002876982 17:0.00086309464 18:-0.0002876982 19:-0.0002876982 20:0.0037400767 21:0.00057539641 22:0.0074801533 23:0.0002876982 24:0.00057539641 25:0.0011507928 26:0.00086309464 28:0.1081774 29:0.13192402 30:0.028769821 31:-0.0002876982 32:-0.0002876982 33:0.98450327 #
35 3:0.0081989691 4:-0.028544731 8:0.00048281631 11:0.00024140815 12:-0.00024140815 13:-0.00024140815 14:-0.00024140815 15:-0.00024140815 16:0.00024140815 17:0.00048281631 18:-0.00024140815 19:-0.00024140815 20:0.0019312652 21:0.00072422449 22:0.0041039386 23:0.001448449 24:0.00048281631 25:0.00096563261 26:0.00096563261 28:0.12276088 29:0.14442484 30:0.039832346 31:-0.00024140815 32:-0.00024140815 33:0.98059994 #
-50 3:0.0072378777 4:-0.023138421 8:0.00060288841 11:-0.00020096281 12:-0.00020096281 13:-0.00020096281 14:-0.00020096281 15:-0.00020096281 16:-0.00020096281 17:0.00060288841 18:-0.00020096281 19:-0.00020096281 20:0.0012057768 21:0.00080385123 22:0.00020096281 23:0.00080385123 24:0.00040192562 25:0.00060288841 26:0.00040192562 28:0.11562998 29:0.13603574 30:0.025120351 31:0.00020096281 32:-0.00020096281 33:0.983311 #
35 3:0.010515485 4:-0.022072531 8:0.00075629086 11:0.00025209694 12:-0.00025209694 13:-0.00025209694 14:-0.00025209694 15:-0.00025209694 16:-0.00025209694 17:0.00050419389 18:-0.00025209694 19:-0.00025209694 20:0.004285648 21:0.0015125817 22:0.0025209694 23:0.0012604847 24:0.0015125817 25:0.0010083878 26:0.00025209694 28:0.10562862 29:0.12426867 30:0.013109041 31:0.00025209694 32:-0.00025209694 33:0.98620325 #
-50 3:0.0097892117 4:-0.01836722 8:0.00048960379 11:-0.00024480189 12:-0.00024480189 13:-0.00024480189 14:-0.00024480189 15:-0.00024480189 16:-0.00024480189 17:0.00073440571 18:-0.00024480189 19:-0.00024480189 20:0.0061200475 21:0.0014688114 24:0.00024480189 25:0.00097920757 26:0.00097920757 28:0.099509522 29:0.11706916 30:0.014688114 31:0.00024480189 32:0.00024480189 33:0.98777568 #
35 3:0.010410124 4:-0.02386155 8:0.00088617305 11:-0.00029539102 12:0.00029539102 13:-0.00029539102 14:-0.00029539102 15:-0.00029539102 16:-0.00029539102 17:0.00059078203 18:-0.00029539102 19:-0.00029539102 20:0.00059078203 21:0.00088617305 24:0.00059078203 25:0.0011815641 26:0.0011815641 28:0.11313476 29:0.13796829 30:0.022154327 31:0.00029539102 32:-0.00029539102 33:0.98335671 #
31.136571736278710886836051940918 3:0.0095215216 4:-0.01661334 8:0.00069126813 11:-0.00023042269 12:-0.00023042269 13:-0.00023042269 14:-0.00023042269 15:-0.00023042269 16:-0.00023042269 17:0.00023042269 18:-0.00023042269 19:-0.00023042269 20:0.0039171861 21:0.0013825363 24:0.0013825363 25:0.00092169078 26:0.00046084539 28:0.036598038 29:0.043056786 30:0.0057605677 31:-0.00023042269 32:-0.00023042269 33:0.99819112 #
35 3:0.0084179118 4:-0.016414272 8:0.00064249651 11:0.0002141655 12:-0.0002141655 13:-0.0002141655 14:-0.0002141655 15:-0.0002141655 16:-0.0002141655 17:0.00064249651 18:-0.0002141655 19:-0.0002141655 20:0.001713324 21:0.00064249651 22:0.0053541376 23:0.001284993 24:0.00064249651 25:0.00085666199 26:0.0002141655 28:0.094875313 29:0.11161877 30:0.0032124824 31:0.0002141655 32:-0.0002141655 33:0.98901623 #
35 3:0.010420208 4:-0.021450346 8:0.00084089901 11:-0.00028029966 12:-0.00028029966 13:-0.00028029966 14:-0.00028029966 15:-0.00028029966 16:-0.00028029966 17:0.00084089901 18:-0.00028029966 19:-0.00028029966 20:0.0047650943 21:0.001681798 22:0.0047650943 23:0.001681798 24:0.001681798 25:0.00084089901 26:0.00028029966 28:0.11030352 29:0.13451581 30:0.0067271921 31:-0.00028029966 32:-0.00028029966 33:0.98441243 #
-50 3:0.011903535 4:-0.022084521 8:0.00087906723 11:-0.0002930224 12:-0.0002930224 13:-0.0002930224 14:-0.0002930224 15:-0.0002930224 16:-0.0002930224 17:0.00087906723 18:-0.0002930224 19:-0.0002930224 20:0.0049813809 21:0.0017581345 22:0.0023441792 23:0.00087906723 24:0.0017581345 25:0.00087906723 26:0.0002930224 28:0.1434579 29:0.17494904 30:0.0049813809 31:-0.0002930224 32:-0.0002930224 33:0.97371346 #
-50 3:0.0093172146 4:-0.016931327 8:0.00068726199 11:-0.00022908732 12:-0.00022908732 13:-0.00022908732 14:-0.00022908732 15:-0.00022908732 16:-0.00022908732 17:0.00045817465 18:-0.00022908732 19:-0.00022908732 20:0.0038944846 21:0.001374524 22:0.0018326986 23:0.00068726199 24:0.00068726199 25:0.00091634929 26:0.00045817465 28:0.11400531 29:0.13412376 30:0.00687262 31:0.00022908732 32:-0.00022908732 33:0.98415917 #
-50 3:0.011419518 4:-0.027375791 8:0.00032937693 11:-0.00032937693 12:-0.00032937693 13:-0.00032937693 14:-0.00032937693 15:-0.00032937693 16:-0.00032937693 17:0.00098813081 18:-0.00032937693 19:-0.00032937693 20:0.0055994079 21:0.0019762616 22:0.0055994079 23:0.0019762616 24:0.00032937693 25:0.0013175077 26:0.00032937693 28:0.13866769 29:0.16910541 30:0.0062581617 31:-0.00032937693 32:-0.00032937693 33:0.97528505 #
35 3:0.011475224 4:-0.037234779 8:0.00091269973 11:-0.00030423322 12:-0.00030423322 13:-0.00030423322 14:-0.00030423322 15:-0.00030423322 16:-0.00030423322 17:0.00060846645 18:-0.00030423322 19:-0.00030423322 20:0.0076058307 21:0.0018253995 22:0.0069973646 23:0.0018253995 24:0.00060846645 25:0.0012169329 26:0.00060846645 28:0.15515895 29:0.18921787 30:0.012169329 31:-0.00030423322 32:-0.00030423322 33:0.96867859 #
-50 3:0.012324451 4:-0.027272342 8:0.00033932421 11:-0.00033932421 12:-0.00033932421 13:-0.00033932421 14:-0.00033932421 15:-0.00033932421 16:-0.00033932421 17:0.0010179726 18:-0.00033932421 19:-0.00033932421 20:0.0040718904 21:0.0010179726 22:0.0057685114 23:0.0020359452 24:0.00033932421 25:0.0010179726 26:0.00067864842 28:0.10213658 29:0.12455574 30:0.0091617536 31:-0.00033932421 32:-0.00033932421 33:0.98641545 #
-50 3:0.0062980978 4:-0.015915649 8:0.00019589634 11:-0.00019589634 12:-0.00019589634 13:-0.00019589634 14:-0.00019589634 15:-0.00019589634 16:-0.00019589634 17:0.00058768905 18:-0.00019589634 19:-0.00019589634 20:0.0015671707 21:0.00058768905 22:0.0033302379 23:0.0011753781 24:0.00039179268 25:0.00058768905 26:0.00019589634 28:0.11966132 29:0.14077894 30:0.0043097194 31:0.00019589634 32:-0.00019589634 33:0.98261607 #
35 3:0.009162114 4:-0.03278359 8:0.00083994446 11:0.0002799815 12:-0.0002799815 13:0.0002799815 14:-0.0002799815 15:-0.0002799815 16:-0.0002799815 17:0.00083994446 18:-0.0002799815 19:-0.0002799815 20:0.0047596851 21:0.0016798889 22:0.002239852 23:0.00083994446 24:0.00083994446 25:0.001119926 26:0.0002799815 28:0.23938417 29:0.29193109 30:0.0050396668 31:-0.0002799815 32:-0.0002799815 33:0.9253388 #
35 3:0.0070967595 4:-0.024595425 8:0.00062263681 11:-0.00020754561 12:-0.00020754561 13:-0.00020754561 14:-0.00020754561 15:-0.00020754561 16:-0.00020754561 17:0.00020754561 18:-0.00020754561 19:-0.00020754561 20:0.0053961859 21:0.00020754561 22:0.0012452736 23:0.00083018246 24:0.00062263681 25:0.00083018246 26:0.00062263681 28:0.10378941 29:0.12210531 30:0.01037728 31:-0.00020754561 32:-0.00020754561 33:0.98667186 #
35 3:0.0064832573 4:-0.020846972 11:0.00021337162 12:-0.00021337162 13:-0.00021337162 14:-0.00021337162 15:-0.00021337162 16:-0.00021337162 17:0.00064011483 18:-0.00021337162 19:-0.00021337162 20:0.0036273175 21:0.0012802297 24:0.00021337162 25:0.00064011483 26:0.00021337162 28:0.12452581 29:0.14650095 30:0.0038406891 31:-0.00021337162 32:-0.00021337162 33:0.98108268 #
-50 3:0.0088647502 4:-0.021548767 11:-0.00026856613 12:-0.00026856613 13:-0.00026856613 14:-0.00026856613 15:-0.00026856613 16:-0.00026856613 17:0.00080569839 18:-0.00026856613 19:-0.00026856613 20:0.0045656241 21:0.0016113968 22:0.0032227936 23:0.00080569839 24:0.00026856613 25:0.00080569839 26:0.00053713226 28:0.046389427 29:0.053321119 30:0.0067141531 31:-0.00026856613 32:-0.00026856613 33:0.99718606 #
-50 3:0.01018393 4:-0.024727659 11:-0.00027601607 12:-0.00027601607 13:-0.00027601607 14:-0.00027601607 15:-0.00027601607 16:-0.00027601607 17:0.00082804821 18:-0.00027601607 19:-0.00027601607 20:0.0019321125 21:0.0019321125 22:0.00055203214 23:0.00082804821 24:0.00055203214 25:0.00082804821 26:0.00027601607 28:0.12010012 29:0.14646241 30:0.0055203214 31:-0.00027601607 32:-0.00027601607 33:0.9815132 #
35 3:0.011280643 4:-0.019410171 8:0.00080338499 11:0.000267795 12:-0.000267795 13:-0.000267795 14:-0.000267795 15:-0.000267795 16:-0.000267795 17:0.00080338499 18:-0.000267795 19:-0.000267795 20:0.0045525148 21:0.00160677 24:0.00053558999 25:0.00107118 26:0.000267795 28:0.10555943 29:0.12873173 30:0.0066948747 31:0.000267795 32:-0.000267795 33:0.98575336 #
35 3:0.010971929 4:-0.019959539 8:0.00080914836 11:-0.00026971611 12:-0.00026971611 13:-0.00026971611 14:-0.00026971611 15:-0.00026971611 16:-0.00026971611 17:0.00026971611 18:-0.00026971611 19:-0.00026971611 20:0.00080914836 21:0.00080914836 24:0.00053943222 25:0.0010788644 26:0.0010788644 28:0.11225045 29:0.13689172 30:0.0053943223 31:0.00026971611 32:-0.00026971611 33:0.98392439 #
-50 3:0.0081532029 4:-0.020873921 8:0.00069652143 11:-0.00023217381 12:-0.00023217381 13:-0.00023217381 14:0.00023217381 15:-0.00023217381 16:-0.00023217381 17:0.00023217381 18:-0.00023217381 19:-0.00023217381 20:0.00023217381 21:0.00092869526 22:0.0013930429 23:0.00092869526 24:0.00046434763 25:0.00092869526 26:0.00092869526 28:0.18832546 29:0.22155882 30:0.046434764 31:-0.00023217381 32:-0.00023217381 33:0.95539522 #
35 3:0.0079353554 4:-0.02568594 8:0.00063075137 11:0.00021025047 12:-0.00021025047 13:-0.00021025047 14:-0.00021025047 15:-0.00021025047 16:0.00021025047 17:0.00021025047 18:-0.00021025047 19:-0.00021025047 20:0.0016820037 21:0.00063075137 22:0.0052562617 23:0.0012615027 24:0.00063075137 25:0.00084100186 26:0.00042050093 28:0.11680254 29:0.1374155 30:0.013035528 31:-0.00021025047 32:-0.00021025047 33:0.98313117 #
35 3:0.0079795662 4:-0.019233059 11:-0.00020797469 12:-0.00020797469 13:-0.00020797469 14:-0.00020797469 15:-0.00020797469 16:-0.00020797469 17:0.00062392408 18:-0.00020797469 19:-0.00020797469 20:0.0035355699 21:0.0012478482 24:0.00062392408 25:0.00062392408 26:0.00041594938 28:0.11174688 29:0.13146704 30:0.0051993672 31:-0.00020797469 32:-0.00020797469 33:0.98476017 #
-50 3:0.0077733677 4:-0.019856481 8:0.00066290377 11:-0.00022096792 12:-0.00022096792 13:-0.00022096792 14:0.00022096792 15:-0.00022096792 16:-0.00022096792 17:0.00066290377 18:-0.00022096792 19:-0.00022096792 20:0.00066290377 21:0.00066290377 22:0.0055241981 23:0.0013258075 24:0.00066290377 25:0.00088387169 26:0.00044193584 28:0.11130596 29:0.1309478 30:0.0059661339 31:-0.00022096792 32:-0.00022096792 33:0.98485398 #
35 3:0.0066149123 4:-0.023134368 8:0.0005865111 11:-0.0001955037 12:-0.0001955037 13:-0.0001955037 14:-0.0001955037 15:-0.0001955037 16:-0.0001955037 17:0.0003910074 18:-0.0001955037 19:-0.0001955037 20:0.0015640296 21:0.0005865111 22:0.0048875925 23:0.0011730222 24:0.0005865111 25:0.0003910074 26:0.0003910074 28:0.11291121 29:0.13283695 30:0.0054741036 31:-0.0001955037 32:-0.0001955037 33:0.98436117 #
35 3:0.008650247 4:-0.023805032 8:0.0002446115 11:-0.0002446115 12:-0.0002446115 13:-0.0002446115 14:-0.0002446115 15:-0.0002446115 16:-0.0002446115 17:0.00073383446 18:0.0002446115 19:-0.0002446115 20:0.0041583953 21:0.0014676689 22:0.0061152875 23:0.0014676689 24:0.00048922299 25:0.00048922299 26:0.00048922299 28:0.1187809 29:0.13974166 30:0.012230575 31:-0.0002446115 32:-0.0002446115 33:0.98260438 #
35 3:0.0079906434 4:-0.02781635 8:0.00047070801 11:0.000235354 12:-0.000235354 13:-0.000235354 14:-0.000235354 15:-0.000235354 16:0.000235354 17:0.00047070801 18:-0.000235354 19:-0.000235354 20:0.0040010181 21:0.001412124 22:0.0058838502 23:0.001412124 24:0.00047070801 25:0.00094141602 26:0.000235354 28:0.11450914 29:0.13471663 30:0.0047070798 31:-0.000235354 32:-0.000235354 33:0.98377973 #
35 3:0.0086573754 4:-0.017411932 11:-0.00019436878 12:-0.00019436878 13:-0.00019436878 14:-0.00019436878 15:-0.00019436878 16:-0.00019436878 17:0.00038873756 18:-0.00019436878 19:-0.00019436878 20:0.0048592193 21:0.0011662127 22:0.0031099005 23:0.0009718439 24:0.00019436878 25:0.00058310636 26:0.00077747513 28:0.14648409 29:0.17233513 30:0.023324253 31:-0.00019436878 32:-0.00019436878 33:0.97359324 #
35 3:0.015332182 4:-0.027868908 8:0.0011312395 11:-0.00037707982 12:-0.00037707982 13:-0.00037707982 14:-0.00037707982 15:-0.00037707982 16:-0.00037707982 17:0.00075415964 18:-0.00037707982 19:0.00037707982 20:0.0064103571 21:0.0022624789 24:0.00075415964 25:0.0015083193 26:0.00037707982 28:0.1596292 29:0.19467123 30:0.0079186764 31:-0.00037707982 32:-0.00037707982 33:0.96720976 #
35 3:0.0089607053 4:-0.017542142 8:0.00045787657 11:-0.00022893828 12:-0.00022893828 13:-0.00022893828 14:-0.00022893828 15:-0.00022893828 16:-0.00022893828 17:0.00068681483 18:-0.00022893828 19:-0.00022893828 20:0.001602568 21:0.001602568 22:0.0057234569 23:0.0013736297 24:0.00068681483 25:0.00068681483 26:0.00022893828 28:0.1042791 29:0.12268116 30:0.0045787655 31:-0.00022893828 32:-0.00022893828 33:0.98672402 #
35 3:0.0074414453 4:-0.024104256 8:0.0005046252 11:-0.0002523126 12:-0.0002523126 13:-0.0002523126 14:-0.0002523126 15:-0.0002523126 16:-0.0002523126 17:0.00075693778 18:-0.0002523126 19:-0.0002523126 20:0.0020185008 21:0.00075693778 24:0.0015138756 25:0.0002523126 26:0.0002523126 28:0.099413686 29:0.11695698 30:0.0060555022 31:-0.0002523126 32:-0.0002523126 33:0.98780382 #
-50 3:0.0064507709 4:-0.018852726 8:0.00021156328 11:-0.00021156328 12:-0.00021156328 13:-0.00021156328 14:-0.00021156328 15:-0.00021156328 16:-0.00021156328 17:0.00063468982 18:-0.00021156328 19:-0.00021156328 20:0.0052890819 21:0.0012693796 22:0.0033850125 23:0.0010578164 24:0.00021156328 25:0.00084625313 26:0.00042312656 28:0.11121035 29:0.13083497 30:0.013751613 31:-0.00021156328 32:-0.00021156328 33:0.98482704 #
35 3:0.0080948295 4:-0.018566594 8:0.00068995589 11:-0.00022998531 12:-0.00022998531 13:-0.00022998531 14:-0.00022998531 15:-0.00022998531 16:-0.00022998531 17:0.00045997062 18:0.00022998531 19:-0.00022998531 20:0.0039097504 21:0.0013799118 22:0.0057496326 23:0.0013799118 24:0.00022998531 25:0.00091994123 26:0.00045997062 28:0.10780331 29:0.1268277 30:0.013799118 31:-0.00022998531 32:-0.00022998531 33:0.985717 #
-50 3:0.008254569 4:-0.019091874 8:0.0002303683 11:-0.0002303683 12:-0.0002303683 13:-0.0002303683 14:-0.0002303683 15:-0.0002303683 16:-0.0002303683 17:0.00069110485 18:-0.0002303683 19:-0.0002303683 20:0.0004607366 21:0.00069110485 22:0.0057592075 23:0.0013822097 24:0.0002303683 25:0.0009214732 26:0.0004607366 28:0.10601088 29:0.12471909 30:0.011518415 31:-0.0002303683 32:-0.0002303683 33:0.98620665 #
-50 3:0.0069206143 4:-0.024070546 8:0.00040720342 11:-0.00020360171 12:-0.00020360171 13:-0.00020360171 14:-0.00020360171 15:-0.00020360171 16:-0.00020360171 17:0.00020360171 18:-0.00020360171 19:-0.00020360171 20:0.0052936445 21:0.00020360171 22:0.0012216102 23:0.00081440684 24:0.00040720342 25:0.00020360171 26:0.00061080512 28:0.067050114 29:0.078883447 30:0.014659323 31:-0.00020360171 32:-0.00020360171 33:0.99418712 #
-50 3:0.007935537 4:-0.018064391 8:0.00069617043 11:-0.0002320568 12:-0.0002320568 13:-0.0002320568 14:-0.0002320568 15:-0.0002320568 16:-0.0002320568 17:0.00069617043 18:-0.0002320568 19:-0.0002320568 20:0.0039449655 21:0.0013923409 22:0.0018564544 23:0.00069617043 24:0.00069617043 25:0.00069617043 26:0.0004641136 28:0.11058203 29:0.13009569 30:0.0069617042 31:-0.0002320568 32:-0.0002320568 33:0.98508114 #
35 3:0.0088873347 4:-0.018537231 8:0.00063429371 11:-0.00021143124 12:-0.00021143124 13:-0.00021143124 14:-0.00021143124 15:-0.00021143124 16:-0.00021143124 17:0.00063429371 18:-0.00021143124 19:-0.00021143124 20:0.0054972125 21:0.00021143124 22:0.0014800187 23:0.0014800187 24:0.00063429371 25:0.00042286247 26:0.00021143124 28:0.10330953 29:0.12154125 30:0.0019028812 31:-0.00021143124 32:-0.00021143124 33:0.98696107 #
35 3:0.011711664 4:-0.023019396 8:0.00082955789 11:-0.00027651931 12:-0.00027651931 13:-0.00027651931 14:-0.00027651931 15:-0.00027651931 16:-0.00027651931 17:0.00082955789 18:-0.00027651931 19:-0.00027651931 20:0.0016591158 21:0.0011060772 22:0.0016591158 23:0.0011060772 24:0.0016591158 25:0.0011060772 26:0.00055303861 28:0.11694831 29:0.14262035 30:0.0069129826 31:-0.00027651931 32:-0.00027651931 33:0.98247308 #
-50 3:0.0098062092 4:-0.023261542 8:0.00075539923 11:-0.00025179973 12:-0.00025179973 13:-0.00025179973 14:-0.00025179973 15:-0.00025179973 16:-0.00025179973 17:0.00075539923 18:-0.00025179973 19:-0.00025179973 20:0.0062949937 21:0.0015107985 22:0.0020143979 23:0.00075539923 24:0.0015107985 25:0.00050359947 26:0.00050359947 28:0.12356821 29:0.14537406 30:0.0055395942 31:-0.00025179973 32:-0.00025179973 33:0.98126358 #
35 3:0.0091719469 4:-0.020673018 8:0.00069186068 11:-0.00023062022 12:-0.00023062022 13:-0.00023062022 14:-0.00023062022 15:-0.00023062022 16:-0.00023062022 17:0.00069186068 18:-0.00023062022 19:-0.00023062022 20:0.0059961258 21:0.00023062022 22:0.0016143416 23:0.0016143416 24:0.00046124044 25:0.00092248089 26:0.00023062022 28:0.12372544 29:0.14555827 30:0.0046124044 31:-0.00023062022 32:-0.00023062022 33:0.98128903 #
35 3:0.012538785 4:-0.026344895 8:0.00090163085 11:0.00030054362 12:-0.00030054362 13:-0.00030054362 14:-0.00030054362 15:-0.00030054362 16:-0.00030054362 17:0.00060108723 18:0.00030054362 19:-0.00030054362 20:0.0051092417 21:0.0018032617 22:0.0030054362 23:0.0015027181 24:0.0018032617 25:0.0012021745 26:0.00030054362 28:0.12532669 29:0.15283845 30:0.0090163089 31:-0.00030054362 32:-0.00030054362 33:0.97977221 #
-50 3:0.0066992887 4:-0.019647758 8:0.00047849293 11:0.00023924647 12:-0.00023924647 13:-0.00023924647 14:-0.00023924647 15:-0.00023924647 16:-0.00023924647 17:0.0007177394 18:-0.00023924647 19:-0.00023924647 20:0.00406719 21:0.0014354788 24:0.00047849293 25:0.0007177394 26:0.00023924647 28:0.11743174 29:0.13815527 30:0.016029514 31:-0.00023924647 32:-0.00023924647 33:0.98306376 #
-50 3:0.010109453 4:-0.027172141 8:0.00027845241 11:-0.00027845241 12:-0.00027845241 13:-0.00027845241 14:-0.00027845241 15:-0.00027845241 16:-0.00027845241 17:0.00055690482 18:-0.00027845241 19:-0.00027845241 20:0.0055690482 21:0.0019491669 22:0.0066828579 23:0.0011138096 24:0.00083535723 25:0.0011138096 26:0.0011138096 28:0.11878223 29:0.14485651 30:0.0022276193 31:0.00027845241 32:-0.00027845241 33:0.98182321 #
-50 3:0.0070340107 4:-0.022956366 8:0.00023453817 11:-0.00023453817 12:-0.00023453817 13:-0.00023453817 14:-0.00023453817 15:-0.00023453817 16:-0.00023453817 17:0.0007036145 18:-0.00023453817 19:-0.00023453817 20:0.0018763053 21:0.0007036145 24:0.00046907633 25:0.0007036145 26:0.00023453817 28:0.15770815 29:0.18553846 30:0.0058634542 31:-0.00023453817 32:-0.00023453817 33:0.96958077 #
35 3:0.0080720326 4:-0.026038261 8:0.000425709 11:-0.0002128545 12:-0.0002128545 13:-0.0002128545 14:-0.0002128545 15:-0.0002128545 16:-0.0002128545 17:0.00063856354 18:-0.0002128545 19:-0.0002128545 20:0.0051085083 21:0.00085141801 22:0.0053213625 23:0.0012771271 24:0.00063856354 25:0.00085141801 26:0.0002128545 28:0.094658531 29:0.11136335 30:0.017028362 31:0.0002128545 32:-0.0002128545 33:0.98870921 #
35 3:0.017277358 4:-0.031314582 8:0.0012717653 11:-0.00042392177 12:0.00042392177 13:-0.00042392177 14:-0.00042392177 15:-0.00042392177 16:-0.00042392177 17:0.0012717653 18:-0.00042392177 19:-0.00042392177 20:0.010598045 21:0.0025435307 24:0.00042392177 25:0.0016956871 26:0.00084784353 28:0.11645132 29:0.14201379 30:0.0097502004 31:-0.00042392177 32:-0.00042392177 33:0.98222673 #
