SVM-light Version V6.02
3 # kernel type
3 # kernel parameter -d 
1 # kernel parameter -g 
1 # kernel parameter -s 
1 # kernel parameter -r 
empty# kernel parameter -u 
2702 # highest feature index 
10000 # number of training documents 
6145 # number of support vectors plus 1 
0 # threshold b, each following line is a SV (starting with alpha*y)
-10 3:0.0093820784 4:-0.019624775 11:-0.00022309227 12:-0.00022309227 13:-0.00022309227 14:-0.00022309227 15:-0.00022309227 16:-0.00022309227 18:-0.00022309227 19:-0.00022309227 28:0.064406738 29:0.075773291 30:0.0084775062 31:-0.00022309227 32:-0.00022309227 33:0.99476844 900:0.00022309227 1801:0.00022309227 2115:0.00022309227 2204:0.00022309227 2306:0.00022309227 2401:0.00022309227 2504:0.00022309227 2600:0.00022309227 2699:0.00022309227 #
7.5 3:0.0097421305 4:-0.019012287 11:-0.00024790302 12:-0.00024790302 13:-0.00024790302 14:-0.00024790302 15:-0.00024790302 16:-0.00024790302 18:-0.00024790302 19:-0.00024790302 28:0.06401848 29:0.075315416 30:0.0086766062 31:-0.00024790302 32:-0.00024790302 33:0.99483484 901:0.00024790302 1800:0.00024790302 2115:0.00024790302 2204:0.00024790302 2324:0.00024790302 2399:0.00024790302 2501:0.00024790302 2602:0.00024790302 2700:0.00024790302 #
7.5 3:0.010334134 4:-0.021908041 11:-0.00024882748 12:-0.00024882748 13:-0.00024882748 14:-0.00024882748 15:-0.00024882748 16:-0.00024882748 18:-0.00024882748 19:-0.00024882748 28:0.065444112 29:0.076992191 30:0.0067183417 31:-0.00024882748 32:-0.00024882748 33:0.9945634 901:0.00024882748 1800:0.00024882748 2106:0.00024882748 2201:0.00024882748 2500:0.00024882748 2602:0.00024882748 2699:0.00024882748 #
-10 3:0.010378963 4:-0.020395264 11:-0.00024040004 12:-0.00024040004 13:-0.00024040004 14:-0.00024040004 15:-0.00024040004 16:-0.00024040004 18:-0.00024040004 19:-0.00024040004 28:0.06585519 29:0.077476129 30:0.0060100011 31:0.00024040004 32:-0.00024040004 33:0.99453497 1801:0.00024040004 2105:0.00024040004 2205:0.00024040004 2500:0.00024040004 2601:0.00024040004 2699:0.00024040004 #
7.5 3:0.0087024337 4:-0.015802328 11:-0.00021367737 12:-0.00021367737 13:-0.00021367737 14:-0.00021367737 15:-0.00021367737 16:-0.00021367737 18:-0.00021367737 19:-0.00021367737 28:0.066970766 29:0.078789257 30:0.0064103212 31:0.00021367737 32:-0.00021367737 33:0.9944545 901:0.00021367737 1801:0.00021367737 2122:0.00021367737 2202:0.00021367737 2324:0.00021367737 2399:0.00021367737 2500:0.00021367737 2602:0.00021367737 2700:0.00021367737 #
-10 3:0.0087493164 4:-0.015930379 11:-0.00021523955 12:-0.00021523955 13:-0.00021523955 14:-0.00021523955 15:-0.00021523955 16:-0.00021523955 18:-0.00021523955 19:-0.00021523955 28:0.068611912 29:0.080719136 30:0.0053809886 31:0.00021523955 32:-0.00021523955 33:0.99419147 901:0.00021523955 1800:0.00021523955 2115:0.00021523955 2204:0.00021523955 2321:0.00021523955 2404:0.00021523955 2504:0.00021523955 2602:0.00021523955 2700:0.00021523955 #
7.5 3:0.009278724 4:-0.015589442 11:-0.00021924211 12:-0.00021924211 13:-0.00021924211 14:-0.00021924211 15:-0.00021924211 16:-0.00021924211 18:-0.00021924211 19:-0.00021924211 28:0.069537021 29:0.081808001 30:0.0043848422 31:-0.00021924211 32:-0.00021924211 33:0.99404371 901:0.00021924211 1800:0.00021924211 2115:0.00021924211 2204:0.00021924211 2500:0.00021924211 2602:0.00021924211 2699:0.00021924211 #
7.5 3:0.0068919645 4:-0.017458711 11:-0.00021504448 12:-0.00021504448 13:-0.00021504448 14:-0.00021504448 15:-0.00021504448 16:-0.00021504448 18:-0.00021504448 19:-0.00021504448 28:0.068754017 29:0.080886826 30:0.0064513343 31:0.00021504448 32:-0.00021504448 33:0.99415058 901:0.00021504448 1799:0.00021504448 2123:0.00021504448 2204:0.00021504448 2322:0.00021504448 2402:0.00021504448 2499:0.00021504448 2602:0.00021504448 2700:0.00021504448 #
-10 3:0.0068901815 4:-0.017454196 11:-0.00021498885 12:-0.00021498885 13:-0.00021498885 14:-0.00021498885 15:-0.00021498885 16:-0.00021498885 18:-0.00021498885 19:-0.00021498885 28:0.070297055 29:0.082701907 30:0.0064496654 31:0.00021498885 32:-0.00021498885 33:0.99389338 901:0.00021498885 1799:0.00021498885 2115:0.00021498885 2204:0.00021498885 2310:0.00021498885 2401:0.00021498885 2499:0.00021498885 2602:0.00021498885 2700:0.00021498885 #
7.5 3:0.0085126916 4:-0.019913534 11:-0.00024331138 12:-0.00024331138 13:-0.00024331138 14:-0.00024331138 15:-0.00024331138 16:-0.00024331138 18:-0.00024331138 19:-0.00024331138 28:0.071180746 29:0.083742917 30:0.0065694074 31:0.00024331138 32:-0.00024331138 33:0.9936837 1799:0.00024331138 2124:0.00024331138 2199:0.00024331138 2501:0.00024331138 2601:0.00024331138 2702:0.00024331138 #
-10 3:0.0091631832 4:-0.018620417 11:-0.00023924433 12:-0.00023924433 13:-0.00023924433 14:-0.00023924433 15:-0.00023924433 16:-0.00023924433 18:-0.00023924433 19:-0.00023924433 28:0.071940765 29:0.084635071 30:0.0050241309 31:-0.00023924433 32:-0.00023924433 33:0.99358165 899:0.00023924433 1801:0.00023924433 2115:0.00023924433 2204:0.00023924433 2501:0.00023924433 2600:0.00023924433 2699:0.00023924433 #
7.5 3:0.0083287107 4:-0.015107269 11:-0.0002051136 12:-0.0002051136 13:-0.0002051136 14:-0.0002051136 15:-0.0002051136 16:-0.0002051136 18:-0.0002051136 19:-0.0002051136 28:0.072413303 29:0.085191883 30:0.0043073855 31:0.0002051136 32:-0.0002051136 33:0.99357027 1800:0.0002051136 2115:0.0002051136 2204:0.0002051136 2499:0.0002051136 2601:0.0002051136 2699:0.0002051136 #
-10 3:0.0076419367 4:-0.017816598 11:-0.00019740964 12:-0.00019740964 13:-0.00019740964 14:-0.00019740964 15:-0.00019740964 16:-0.00019740964 18:-0.00019740964 19:-0.00019740964 28:0.072228238 29:0.084974982 30:0.0043430123 31:-0.00019740964 32:-0.00019740964 33:0.99356276 901:0.00019740964 1800:0.00019740964 2106:0.00019740964 2201:0.00019740964 2320:0.00019740964 2405:0.00019740964 2501:0.00019740964 2602:0.00019740964 2699:0.00019740964 #
7.5 3:0.0057799602 4:-0.018533384 11:0.00019443143 12:-0.00019443143 13:-0.00019443143 14:-0.00019443143 15:0.00019443143 16:-0.00019443143 18:0.00019443143 19:-0.00019443143 28:0.16133726 29:0.18980785 30:0.0046663545 31:0.00019443143 32:-0.00019443143 33:0.96826851 901:0.00019443143 1800:0.00019443143 2115:0.00019443143 2204:0.00019443143 2499:0.00019443143 2602:0.00019443143 2699:0.00019443143 #
-10 3:0.0083725303 4:-0.022274848 11:-0.00023250304 12:-0.00023250304 13:-0.00023250304 14:-0.00023250304 15:-0.00023250304 16:-0.00023250304 18:-0.00023250304 19:-0.00023250304 28:0.072113141 29:0.084838033 30:0.0046500606 31:-0.00023250304 32:-0.00023250304 33:0.99348545 900:0.00023250304 1801:0.00023250304 2115:0.00023250304 2204:0.00023250304 2504:0.00023250304 2600:0.00023250304 2700:0.00023250304 #
-10 3:0.013560115 4:-0.029009743 11:-0.0003385446 12:-0.0003385446 13:-0.0003385446 14:-0.0003385446 15:-0.0003385446 16:-0.0003385446 18:-0.0003385446 19:-0.0003385446 28:0.22377799 29:0.27290082 30:0.0091407048 31:-0.0003385446 32:-0.0003385446 33:0.9350602 901:0.0003385446 1801:0.0003385446 2112:0.0003385446 2205:0.0003385446 2501:0.0003385446 2602:0.0003385446 2700:0.0003385446 #
-10 3:0.0071402411 4:-0.024809334 11:-0.00020973604 12:-0.00020973604 13:-0.00020973604 14:-0.00020973604 15:-0.00020973604 16:-0.00020973604 18:-0.00020973604 19:-0.00020973604 28:0.076356508 29:0.089832045 30:0.0041947211 31:-0.00020973604 32:-0.00020973604 33:0.99268073 901:0.00020973604 1800:0.00020973604 2111:0.00020973604 2200:0.00020973604 2307:0.00020973604 2405:0.00020973604 2501:0.00020973604 2602:0.00020973604 2700:0.00020973604 #
-10 3:0.0076994733 4:-0.026788272 11:-0.00022651227 12:-0.00022651227 13:-0.00022651227 14:-0.00022651227 15:-0.00022651227 16:-0.00022651227 18:-0.00022651227 19:-0.00022651227 28:0.20712508 29:0.24367738 30:0.22628576 31:-0.00022651227 32:-0.00022651227 33:0.91963983 901:0.00022651227 1800:0.00022651227 2122:0.00022651227 2202:0.00022651227 2318:0.00022651227 2405:0.00022651227 2501:0.00022651227 2601:0.00022651227 2701:0.00022651227 #
-10 3:0.0087663606 4:-0.02119169 11:-0.00022476471 12:-0.00022476471 13:-0.00022476471 14:-0.00022476471 15:-0.00022476471 16:-0.00022476471 18:-0.00022476471 19:-0.00022476471 28:0.074891597 29:0.088107765 30:0.0056191175 31:-0.00022476471 32:-0.00022476471 33:0.99301046 900:0.00022476471 1800:0.00022476471 2115:0.00022476471 2204:0.00022476471 2299:0.00022476471 2402:0.00022476471 2501:0.00022476471 2601:0.00022476471 2699:0.00022476471 #
-10 3:0.0039482354 4:-0.029192038 11:-0.00018460718 12:-0.00018460718 13:-0.00018460718 14:-0.00018460718 15:-0.00018460718 16:-0.00018460718 18:-0.00018460718 19:-0.00018460718 28:0.22880398 29:0.26918125 30:0.0055382154 31:-0.00018460718 32:-0.00018460718 33:0.93503535 900:0.00018460718 1801:0.00018460718 2124:0.00018460718 2199:0.00018460718 2306:0.00018460718 2401:0.00018460718 2500:0.00018460718 2602:0.00018460718 2701:0.00018460718 #
7.5 3:0.006869744 4:-0.015636332 11:-0.00020068974 12:-0.00020068974 13:-0.00020068974 14:-0.00020068974 15:-0.00020068974 16:-0.00020068974 18:-0.00020068974 19:-0.00020068974 28:0.072170042 29:0.084905811 30:0.0044151745 31:-0.00020068974 32:-0.00020068974 33:0.99361491 901:0.00020068974 1800:0.00020068974 2103:0.00020068974 2205:0.00020068974 2501:0.00020068974 2601:0.00020068974 2700:0.00020068974 #
1.8971824708602866849105339497328 3:0.0096713696 4:-0.018255198 11:-0.00020807491 12:-0.00020807491 13:-0.00020807491 14:-0.00020807491 15:-0.00020807491 16:-0.00020807491 18:-0.00020807491 19:-0.00020807491 28:0.07208547 29:0.084807172 30:0.0052018729 31:-0.00020807491 32:-0.00020807491 33:0.99355769 1801:0.00020807491 2115:0.00020807491 2204:0.00020807491 2501:0.00020807491 2600:0.00020807491 2699:0.00020807491 #
7.5 3:0.0060195285 4:-0.019344153 11:-0.00020227784 12:-0.00020227784 13:-0.00020227784 14:-0.00020227784 15:-0.00020227784 16:-0.00020227784 18:-0.00020227784 19:-0.00020227784 28:0.069581553 29:0.081859812 30:0.0048546679 31:-0.00020227784 32:-0.00020227784 33:0.99399328 901:0.00020227784 1800:0.00020227784 2115:0.00020227784 2204:0.00020227784 2305:0.00020227784 2405:0.00020227784 2501:0.00020227784 2600:0.00020227784 2699:0.00020227784 #
-10 3:0.0070928326 4:-0.016287105 11:-0.00020121437 12:0.00020121437 13:-0.00020121437 14:-0.00020121437 15:-0.00020121437 16:-0.00020121437 18:-0.00020121437 19:-0.00020121437 28:0.067392729 29:0.079286508 30:0.0046279305 31:-0.00020121437 32:-0.00020121437 33:0.9944014 901:0.00020121437 1801:0.00020121437 2115:0.00020121437 2204:0.00020121437 2323:0.00020121437 2404:0.00020121437 2504:0.00020121437 2602:0.00020121437 2699:0.00020121437 #
7.5 3:0.0080625536 4:-0.015712049 11:-0.0002048929 12:-0.0002048929 13:-0.0002048929 14:-0.0002048929 15:-0.0002048929 16:-0.0002048929 18:-0.0002048929 19:-0.0002048929 28:0.066463158 29:0.078191228 30:0.0051223226 31:-0.0002048929 32:-0.0002048929 33:0.99455011 901:0.0002048929 1800:0.0002048929 2105:0.0002048929 2205:0.0002048929 2500:0.0002048929 2602:0.0002048929 2699:0.0002048929 #
-10 3:0.0083563169 4:-0.017529832 11:-0.00019969752 12:-0.00019969752 13:-0.00019969752 14:-0.00019969752 15:-0.00019969752 16:-0.00019969752 18:-0.00019969752 19:-0.00019969752 28:0.06659513 29:0.078347325 30:0.0055915308 31:0.00019969752 32:-0.00019969752 33:0.99449366 900:0.00019969752 1800:0.00019969752 2124:0.00019969752 2199:0.00019969752 2306:0.00019969752 2401:0.00019969752 2500:0.00019969752 2602:0.00019969752 2699:0.00019969752 #
7.5 3:0.0092879618 4:-0.016826158 11:-0.00022752838 12:-0.00022752838 13:-0.00022752838 14:-0.00022752838 15:-0.00022752838 16:-0.00022752838 18:-0.00022752838 19:-0.00022752838 28:0.067823932 29:0.079791926 30:0.0056882096 31:-0.00022752838 32:-0.00022752838 33:0.99429899 901:0.00022752838 1799:0.00022752838 2115:0.00022752838 2204:0.00022752838 2499:0.00022752838 2602:0.00022752838 2700:0.00022752838 #
-10 3:0.0087258313 4:-0.015774556 11:-0.00021344172 12:-0.00021344172 13:-0.00021344172 14:-0.00021344172 15:-0.00021344172 16:-0.00021344172 18:-0.00021344172 19:-0.00021344172 28:0.06591507 29:0.077547647 30:0.0032016258 31:-0.00021344172 32:-0.00021344172 33:0.99463838 901:0.00021344172 1800:0.00021344172 2124:0.00021344172 2199:0.00021344172 2504:0.00021344172 2602:0.00021344172 2700:0.00021344172 #
7.5 3:0.010320397 4:-0.018660259 11:-0.00025262218 12:-0.00025262218 13:-0.00025262218 14:-0.00025262218 15:-0.00025262218 16:-0.00025262218 18:-0.00025262218 19:-0.00025262218 28:0.070542216 29:0.082991436 30:0.0032840883 31:-0.00025262218 32:-0.00025262218 33:0.9938156 901:0.00025262218 1800:0.00025262218 2124:0.00025262218 2199:0.00025262218 2315:0.00025262218 2404:0.00025262218 2504:0.00025262218 2602:0.00025262218 2700:0.00025262218 #
-10 3:0.0073745311 4:-0.017613009 11:-0.00020873938 12:-0.00020873938 13:-0.00020873938 14:-0.00020873938 15:-0.00020873938 16:-0.00020873938 18:-0.00020873938 19:-0.00020873938 28:0.069610409 29:0.081894718 30:0.0035485695 31:-0.00020873938 32:-0.00020873938 33:0.99401689 899:0.00020873938 1801:0.00020873938 2115:0.00020873938 2204:0.00020873938 2323:0.00020873938 2404:0.00020873938 2504:0.00020873938 2602:0.00020873938 2699:0.00020873938 #
-10 3:0.0064929673 4:-0.019969402 11:0.00024431106 12:0.00024431106 13:-0.00024431106 14:-0.00024431106 15:-0.00024431106 16:-0.00024431106 18:-0.00024431106 19:-0.00024431106 28:0.070298061 29:0.082704172 30:0.0048862207 31:0.00024431106 32:-0.00024431106 33:0.99385732 899:0.00024431106 1800:0.00024431106 2115:0.00024431106 2204:0.00024431106 2500:0.00024431106 2601:0.00024431106 2699:0.00024431106 #
-10 3:0.0081298323 4:-0.022348864 11:-0.00022938628 12:-0.00022938628 13:-0.00022938628 14:-0.00022938628 15:-0.00022938628 16:-0.00022938628 18:-0.00022938628 19:-0.00022938628 28:0.06806808 29:0.080081038 30:0.0057346569 31:-0.00022938628 32:-0.00022938628 33:0.99416012 900:0.00022938628 1801:0.00022938628 2123:0.00022938628 2204:0.00022938628 2318:0.00022938628 2405:0.00022938628 2499:0.00022938628 2602:0.00022938628 2701:0.00022938628 #
-10 3:0.013974485 4:-0.025442593 11:-0.00034381112 12:-0.00034381112 13:-0.00034381112 14:-0.00034381112 15:-0.00034381112 16:-0.00034381112 18:-0.00034381112 19:-0.00034381112 28:0.064980298 29:0.079245023 30:0.0041257334 31:-0.00034381112 32:-0.00034381112 33:0.99430174 901:0.00034381112 1800:0.00034381112 2123:0.00034381112 2204:0.00034381112 2324:0.00034381112 2399:0.00034381112 2500:0.00034381112 2602:0.00034381112 2699:0.00034381112 #
7.5 3:0.012705418 4:-0.027727058 11:-0.00034793804 12:-0.00034793804 13:-0.00034793804 14:-0.00034793804 15:-0.00034793804 16:-0.00034793804 18:-0.00034793804 19:-0.00034793804 28:0.068195857 29:0.083164155 30:0.0062628849 31:-0.00034793804 32:-0.00034793804 33:0.99371105 1801:0.00034793804 2115:0.00034793804 2204:0.00034793804 2499:0.00034793804 2602:0.00034793804 2700:0.00034793804 #
-10 3:0.010538495 4:-0.031231318 11:-0.00034685133 12:-0.00034685133 13:-0.00034685133 14:-0.00034685133 15:-0.00034685133 16:-0.00034685133 18:-0.00034685133 19:-0.00034685133 28:0.071451373 29:0.087135993 30:0.0097118374 31:-0.00034685133 32:-0.00034685133 33:0.99303538 900:0.00034685133 1801:0.00034685133 2115:0.00034685133 2204:0.00034685133 2501:0.00034685133 2600:0.00034685133 2700:0.00034685133 #
7.5 3:0.0065956716 4:-0.022896497 11:-0.00019377546 12:-0.00019377546 13:-0.00019377546 14:-0.00019377546 15:-0.00019377546 16:-0.00019377546 18:-0.00019377546 19:-0.00019377546 28:0.16390884 29:0.19283371 30:0.0058132638 31:0.00019377546 32:-0.00019377546 33:0.96713328 900:0.00019377546 1801:0.00019377546 2106:0.00019377546 2201:0.00019377546 2316:0.00019377546 2403:0.00019377546 2501:0.00019377546 2601:0.00019377546 2700:0.00019377546 #
7.5 3:0.0074493783 4:-0.025782395 11:-0.00021837492 12:-0.00021837492 13:-0.00021837492 14:-0.00021837492 15:-0.00021837492 16:-0.00021837492 18:-0.00021837492 19:-0.00021837492 28:0.16413714 29:0.19310239 30:0.0054593729 31:-0.00021837492 32:-0.00021837492 33:0.96696413 900:0.00021837492 1801:0.00021837492 2115:0.00021837492 2204:0.00021837492 2501:0.00021837492 2600:0.00021837492 2699:0.00021837492 #
-10 3:0.010468941 4:-0.033447895 11:-0.00034692287 12:-0.00034692287 13:-0.00034692287 14:-0.00034692287 15:-0.00034692287 16:-0.00034692287 18:-0.00034692287 19:-0.00034692287 28:0.065915346 29:0.080385499 30:0.0076323031 31:-0.00034692287 32:-0.00034692287 33:0.99393398 1801:0.00034692287 2106:0.00034692287 2201:0.00034692287 2501:0.00034692287 2601:0.00034692287 2700:0.00034692287 #
7.5 3:0.011744334 4:-0.034572642 11:-0.00027859432 12:-0.00027859432 13:-0.00027859432 14:-0.00027859432 15:-0.00027859432 16:-0.00027859432 18:-0.00027859432 19:-0.00027859432 28:0.061499696 29:0.075000376 30:0.0080792354 31:0.00027859432 32:-0.00027859432 33:0.99458176 1801:0.00027859432 2115:0.00027859432 2204:0.00027859432 2323:0.00027859432 2404:0.00027859432 2500:0.00027859432 2602:0.00027859432 2700:0.00027859432 #
-10 3:0.010526909 4:-0.033486519 11:-0.00029075489 12:0.00029075489 13:-0.00029075489 14:-0.00029075489 15:-0.00029075489 16:-0.00029075489 18:-0.00029075489 19:-0.00029075489 28:0.059351794 29:0.07238052 30:0.0072688721 31:0.00029075489 32:-0.00029075489 33:0.99496323 900:0.00029075489 1800:0.00029075489 2115:0.00029075489 2204:0.00029075489 2323:0.00029075489 2404:0.00029075489 2499:0.00029075489 2601:0.00029075489 2700:0.00029075489 #
7.5 3:0.007885362 4:-0.027435267 11:-0.00023207176 12:0.00023207176 13:0.00023207176 14:-0.00023207176 15:-0.00023207176 16:-0.00023207176 18:-0.00023207176 19:-0.00023207176 28:0.059428934 29:0.069916256 30:0.005569722 31:0.00023207176 32:-0.00023207176 33:0.99535578 900:0.00023207176 1801:0.00023207176 2115:0.00023207176 2204:0.00023207176 2500:0.00023207176 2602:0.00023207176 2699:0.00023207176 #
-10 3:0.0068423324 4:-0.023660522 11:-0.0002002386 12:-0.0002002386 13:-0.0002002386 14:-0.0002002386 15:-0.0002002386 16:-0.0002002386 18:-0.0002002386 19:-0.0002002386 28:0.059947435 29:0.070526041 30:0.0056066811 31:-0.0002002386 32:-0.0002002386 33:0.99538612 901:0.0002002386 1800:0.0002002386 2103:0.0002002386 2205:0.0002002386 2307:0.0002002386 2405:0.0002002386 2504:0.0002002386 2602:0.0002002386 2699:0.0002002386 #
7.5 3:0.0097155571 4:-0.021886934 11:-0.00023301052 12:-0.00023301052 13:-0.00023301052 14:-0.00023301052 15:-0.00023301052 16:-0.00023301052 18:-0.00023301052 19:-0.00023301052 28:0.061442543 29:0.072284527 30:0.0051262314 31:0.00023301052 32:-0.00023301052 33:0.99518794 901:0.00023301052 1800:0.00023301052 2115:0.00023301052 2204:0.00023301052 2310:0.00023301052 2401:0.00023301052 2501:0.00023301052 2600:0.00023301052 2699:0.00023301052 #
-10 3:0.01051708 4:-0.020549523 11:-0.00024735785 12:-0.00024735785 13:-0.00024735785 14:-0.00024735785 15:-0.00024735785 16:-0.00024735785 18:-0.00024735785 19:-0.00024735785 28:0.060352843 29:0.07100407 30:0.0049471571 31:-0.00024735785 32:0.00024735785 33:0.995368 901:0.00024735785 1801:0.00024735785 2106:0.00024735785 2201:0.00024735785 2315:0.00024735785 2404:0.00024735785 2504:0.00024735785 2601:0.00024735785 2699:0.00024735785 #
7.5 3:0.010660428 4:-0.021808324 11:-0.00024797727 12:-0.00024797727 13:-0.00024797727 14:-0.00024797727 15:-0.00024797727 16:-0.00024797727 18:-0.00024797727 19:-0.00024797727 28:0.058319293 29:0.068610348 30:0.0049595456 31:-0.00024797727 32:-0.00024797727 33:0.99562871 901:0.00024797727 1801:0.00024797727 2124:0.00024797727 2199:0.00024797727 2501:0.00024797727 2602:0.00024797727 2702:0.00024797727 #
-10 3:0.009804518 4:-0.022443261 11:-0.00024559451 12:-0.00024559451 13:-0.00024559451 14:-0.00024559451 15:-0.00024559451 16:-0.00024559451 18:-0.00024559451 19:-0.00024559451 28:0.058200989 29:0.068471752 30:0.0049118903 31:0.00024559451 32:-0.00024559451 33:0.99564016 1801:0.00024559451 2115:0.00024559451 2204:0.00024559451 2499:0.00024559451 2602:0.00024559451 2700:0.00024559451 #
7.5 3:0.0075935726 4:-0.022283325 11:-0.00023056712 12:-0.00023056712 13:-0.00023056712 14:-0.00023056712 15:-0.00023056712 16:-0.00023056712 18:-0.00023056712 19:-0.00023056712 28:0.057063058 29:0.067131922 30:0.0050724768 31:-0.00023056712 32:-0.00023056712 33:0.99581939 900:0.00023056712 1801:0.00023056712 2106:0.00023056712 2201:0.00023056712 2500:0.00023056712 2602:0.00023056712 2699:0.00023056712 #
-10 3:0.0083328998 4:-0.018543368 11:-0.00022357577 12:-0.00022357577 13:-0.00022357577 14:-0.00022357577 15:-0.00022357577 16:-0.00022357577 18:-0.00022357577 19:-0.00022357577 28:0.056050446 29:0.065941438 30:0.0044715158 31:-0.00022357577 32:-0.00022357577 33:0.99603009 899:0.00022357577 1801:0.00022357577 2110:0.00022357577 2201:0.00022357577 2500:0.00022357577 2602:0.00022357577 2699:0.00022357577 #
7.5 3:0.0072544324 4:-0.018058615 11:-0.00021372169 12:-0.00021372169 13:-0.00021372169 14:-0.00021372169 15:-0.00021372169 16:-0.00021372169 18:-0.00021372169 19:-0.00021372169 28:0.056858517 29:0.066892751 30:0.0032058253 31:0.00021372169 32:-0.00021372169 33:0.99594307 900:0.00021372169 1801:0.00021372169 2115:0.00021372169 2204:0.00021372169 2306:0.00021372169 2401:0.00021372169 2501:0.00021372169 2602:0.00021372169 2699:0.00021372169 #
7.5 3:0.010788562 4:-0.016835272 11:-0.00024195938 12:-0.00024195938 13:-0.00024195938 14:-0.00024195938 15:-0.00024195938 16:-0.00024195938 18:-0.00024195938 19:-0.00024195938 28:0.053308491 29:0.062715873 30:0.0058070249 31:0.00024195938 32:0.00024195938 33:0.99638867 1801:0.00024195938 2115:0.00024195938 2204:0.00024195938 2501:0.00024195938 2601:0.00024195938 2700:0.00024195938 #
-10 3:0.0088169342 4:-0.016589703 11:-0.00022100643 12:-0.00022100643 13:-0.00022100643 14:-0.00022100643 15:-0.00022100643 16:-0.00022100643 18:-0.00022100643 19:-0.00022100643 28:0.052557539 29:0.061833177 30:0.0035361028 31:-0.00022100643 32:-0.00022100643 33:0.99651796 900:0.00022100643 1801:0.00022100643 2103:0.00022100643 2205:0.00022100643 2501:0.00022100643 2600:0.00022100643 2699:0.00022100643 #
7.5 3:0.0054793134 4:-0.016435819 11:-0.00019935067 12:-0.00019935067 13:-0.00019935067 14:-0.00019935067 15:-0.00019935067 16:-0.00019935067 18:-0.00019935067 19:-0.00019935067 28:0.054006092 29:0.063537046 30:0.0047844164 31:0.00019935067 32:-0.00019935067 33:0.9963547 899:0.00019935067 1801:0.00019935067 2106:0.00019935067 2201:0.00019935067 2504:0.00019935067 2601:0.00019935067 2700:0.00019935067 #
-10 3:0.0089772958 4:-0.03109736 11:-0.00026312971 12:-0.00026312971 13:-0.00026312971 14:-0.00026312971 15:-0.00026312971 16:-0.00026312971 18:-0.00026312971 19:-0.00026312971 28:0.05863319 29:0.067395411 30:0.010525187 31:-0.00026312971 32:-0.00026312971 33:0.99541962 901:0.00026312971 1800:0.00026312971 2103:0.00026312971 2205:0.00026312971 2305:0.00026312971 2405:0.00026312971 2504:0.00026312971 2601:0.00026312971 2699:0.00026312971 #
7.5 3:0.0098327538 4:-0.031764992 11:-0.0002609198 12:-0.0002609198 13:-0.0002609198 14:-0.0002609198 15:-0.0002609198 16:-0.0002609198 18:-0.0002609198 19:-0.0002609198 28:0.054814029 29:0.066847652 30:0.0078275939 31:-0.0002609198 32:-0.0002609198 33:0.9956699 900:0.0002609198 1801:0.0002609198 2115:0.0002609198 2204:0.0002609198 2323:0.0002609198 2404:0.0002609198 2499:0.0002609198 2601:0.0002609198 2699:0.0002609198 #
-10 3:0.012055175 4:-0.0291875 11:-0.00033595919 12:-0.00033595919 13:-0.00033595919 14:-0.00033595919 15:-0.00033595919 16:-0.00033595919 18:-0.00033595919 19:-0.00033595919 28:0.054425389 29:0.066372097 30:0.0070551429 31:-0.00033595919 32:-0.00033595919 33:0.99578303 1800:0.00033595919 2106:0.00033595919 2201:0.00033595919 2500:0.00033595919 2599:0.00033595919 2699:0.00033595919 #
7.5 3:0.014607462 4:-0.026581807 11:-0.00035939337 12:0.00035939337 13:-0.00035939337 14:-0.00035939337 15:-0.00035939337 16:-0.00035939337 18:-0.00035939337 19:-0.00035939337 28:0.053909004 29:0.065743826 30:0.0086254403 31:-0.00035939337 32:-0.00035939337 33:0.99587899 901:0.00035939337 1801:0.00035939337 2123:0.00035939337 2204:0.00035939337 2500:0.00035939337 2602:0.00035939337 2699:0.00035939337 #
-10 3:0.015910832 4:-0.031499844 11:-0.00040917491 12:-0.00040917491 13:-0.00040917491 14:-0.00040917491 15:-0.00040917491 16:-0.00040917491 18:-0.00040917491 19:-0.00040917491 28:0.052304827 29:0.063786276 30:0.0081834979 31:-0.00040917491 32:-0.00040917491 33:0.99593168 901:0.00040917491 1801:0.00040917491 2105:0.00040917491 2205:0.00040917491 2305:0.00040917491 2405:0.00040917491 2500:0.00040917491 2602:0.00040917491 2699:0.00040917491 #
7.5 3:0.012673011 4:-0.040970895 11:-0.00033455252 12:-0.00033455252 13:-0.00033455252 14:-0.00033455252 15:-0.00033455252 16:-0.00033455252 18:-0.00033455252 19:-0.00033455252 28:0.049848322 29:0.060791537 30:0.0060219453 31:-0.00033455252 32:-0.00033455252 33:0.9959628 900:0.00033455252 1801:0.00033455252 2123:0.00033455252 2204:0.00033455252 2312:0.00033455252 2405:0.00033455252 2504:0.00033455252 2599:0.00033455252 2699:0.00033455252 #
-10 3:0.011454369 4:-0.039794005 11:-0.00033670745 12:-0.00033670745 13:-0.00033670745 14:-0.00033670745 15:-0.00033670745 16:-0.00033670745 18:-0.00033670745 19:-0.00033670745 28:0.050169408 29:0.06118311 30:0.0067341491 31:-0.00033670745 32:-0.00033670745 33:0.99598062 901:0.00033670745 1799:0.00033670745 2106:0.00033670745 2201:0.00033670745 2321:0.00033670745 2404:0.00033670745 2500:0.00033670745 2601:0.00033670745 2700:0.00033670745 #
7.5 3:0.010137643 4:-0.032555535 11:-0.00033275812 12:-0.00033275812 13:-0.00033275812 14:-0.00033275812 15:-0.00033275812 16:-0.00033275812 18:-0.00033275812 19:-0.00033275812 28:0.052575786 29:0.064115837 30:0.0073206788 31:-0.00033275812 32:-0.00033275812 33:0.9959451 900:0.00033275812 1800:0.00033275812 2114:0.00033275812 2203:0.00033275812 2315:0.00033275812 2404:0.00033275812 2499:0.00033275812 2600:0.00033275812 2699:0.00033275812 #
-10 3:0.010175376 4:-0.026834419 11:-0.00030272192 12:-0.00030272192 13:-0.00030272192 14:-0.00030272192 15:-0.00030272192 16:-0.00030272192 18:-0.00030272192 19:-0.00030272192 28:0.053884503 29:0.065711848 30:0.0051462729 31:0.00030272192 32:-0.00030272192 33:0.99595517 1801:0.00030272192 2123:0.00030272192 2204:0.00030272192 2301:0.00030272192 2401:0.00030272192 2501:0.00030272192 2602:0.00030272192 2700:0.00030272192 #
-10 3:0.0092522232 4:-0.029725663 11:-0.00024358025 12:-0.00024358025 13:-0.00024358025 14:-0.00024358025 15:-0.00024358025 16:-0.00024358025 18:-0.00024358025 19:-0.00024358025 28:0.17180933 29:0.20212775 30:0.024358025 31:-0.00024358025 32:0.00024358025 33:0.96335989 900:0.00024358025 1799:0.00024358025 2100:0.00024358025 2201:0.00024358025 2310:0.00024358025 2401:0.00024358025 2501:0.00024358025 2601:0.00024358025 2702:0.00024358025 #
7.5 3:0.012083018 4:-0.021851024 11:-0.00029563549 12:-0.00029563549 13:-0.00029563549 14:-0.00029563549 15:-0.00029563549 16:-0.00029563549 18:-0.00029563549 19:-0.00029563549 28:0.056466378 29:0.068862371 30:0.0050258031 31:0.00029563549 32:-0.00029563549 33:0.9957003 901:0.00029563549 1800:0.00029563549 2108:0.00029563549 2203:0.00029563549 2310:0.00029563549 2401:0.00029563549 2500:0.00029563549 2602:0.00029563549 2700:0.00029563549 #
-10 3:0.010430331 4:-0.020458799 11:0.0002458705 12:-0.0002458705 13:-0.0002458705 14:-0.0002458705 15:-0.0002458705 16:-0.0002458705 18:-0.0002458705 19:-0.0002458705 28:0.2112003 29:0.24275778 30:0.079907909 31:-0.0002458705 32:-0.0002458705 33:0.94315922 901:0.0002458705 1799:0.0002458705 2108:0.0002458705 2203:0.0002458705 2307:0.0002458705 2405:0.0002458705 2501:0.0002458705 2602:0.0002458705 2700:0.0002458705 #
7.5 3:0.00028439646 4:-0.00091954647 11:-7.5226762e-06 12:7.5226762e-06 13:-7.5226762e-06 14:7.5226762e-06 15:-7.5226762e-06 16:-7.5226762e-06 18:-7.5226762e-06 19:-7.5226762e-06 28:0.64454299 29:0.75828588 30:0.091347858 31:-7.5226762e-06 32:-7.5226762e-06 33:0.034950353 901:7.5226762e-06 1801:7.5226762e-06 2107:7.5226762e-06 2205:7.5226762e-06 2502:7.5226762e-06 2602:7.5226762e-06 2701:7.5226762e-06 #
7.5 3:0.032291591 4:-0.058443014 11:-0.00079062046 12:-0.00079062046 13:-0.00079062046 14:-0.00079062046 15:-0.00079062046 16:-0.00079062046 18:-0.00079062046 19:-0.00079062046 31:-0.00079062046 32:-0.00079062046 33:0.99776304 901:0.00079062046 1799:0.00079062046 2103:0.00079062046 2205:0.00079062046 2504:0.00079062046 2602:0.00079062046 2699:0.00079062046 #
-10 3:0.010358769 4:-0.020518752 11:-0.00025180384 12:-0.00025180384 13:-0.00025180384 14:-0.00025180384 15:-0.00025180384 16:-0.00025180384 18:-0.00025180384 19:-0.00025180384 28:0.071889997 29:0.08767055 30:0.41874981 31:-0.00025180384 32:-0.00025180384 33:0.90070236 900:0.00025180384 1801:0.00025180384 2115:0.00025180384 2204:0.00025180384 2323:0.00025180384 2404:0.00025180384 2501:0.00025180384 2600:0.00025180384 2702:0.00025180384 #
7.5 3:0.00049076125 4:-0.00097074319 11:-1.261808e-05 12:-1.261808e-05 13:-1.261808e-05 14:-1.261808e-05 15:-1.261808e-05 16:-1.261808e-05 18:-1.261808e-05 19:-1.261808e-05 28:0.6452927 29:0.75916779 30:0.061462671 31:-1.261808e-05 32:-1.261808e-05 33:0.059014764 901:1.261808e-05 1800:1.261808e-05 2107:1.261808e-05 2205:1.261808e-05 2502:1.261808e-05 2602:1.261808e-05 2701:1.261808e-05 #
7.5 3:0.006566138 4:-0.016515566 11:-0.00019629471 12:-0.00019629471 13:-0.00019629471 14:-0.00019629471 15:-0.00019629471 16:-0.00019629471 18:-0.00019629471 19:-0.00019629471 28:0.035156384 29:0.041361261 30:0.0049073678 31:-0.00019629471 32:-0.00019629471 33:0.99835491 900:0.00019629471 1801:0.00019629471 2115:0.00019629471 2204:0.00019629471 2323:0.00019629471 2404:0.00019629471 2499:0.00019629471 2602:0.00019629471 2699:0.00019629471 #
7.5 3:0.015557591 4:-0.028189508 11:-0.0003811701 12:-0.0003811701 13:-0.0003811701 14:-0.0003811701 15:-0.0003811701 16:-0.0003811701 18:0.0003811701 19:-0.0003811701 28:0.0064798919 29:0.0079016564 31:-0.0003811701 32:-0.0003811701 33:0.99942803 901:0.0003811701 1800:0.0003811701 2103:0.0003811701 2205:0.0003811701 2504:0.0003811701 2602:0.0003811701 2699:0.0003811701 #
7.5 3:0.0024943885 4:-0.0080678985 11:-6.6023218e-05 12:-6.6023218e-05 13:-6.6023218e-05 14:-6.6023218e-05 15:-6.6023218e-05 16:-6.6023218e-05 18:6.6023218e-05 19:-6.6023218e-05 28:0.62821621 29:0.76611757 30:6.6023218e-05 31:-6.6023218e-05 32:-6.6023218e-05 33:0.13541362 901:6.6023218e-05 1800:6.6023218e-05 2124:6.6023218e-05 2199:6.6023218e-05 2501:6.6023218e-05 2602:6.6023218e-05 2700:6.6023218e-05 #
-10 3:0.008235625 4:-0.021937676 11:-0.0002537595 12:-0.0002537595 13:-0.0002537595 14:-0.0002537595 15:-0.0002537595 16:-0.0002537595 18:-0.0002537595 19:-0.0002537595 28:0.21774594 29:0.250283 30:0.014210531 31:-0.0002537595 32:-0.0002537595 33:0.94297028 1801:0.0002537595 2106:0.0002537595 2201:0.0002537595 2308:0.0002537595 2403:0.0002537595 2501:0.0002537595 2601:0.0002537595 2700:0.0002537595 #
-10 3:0.005805084 4:-0.018416807 11:-0.00019349834 12:-0.00019349834 13:-0.00019349834 14:-0.00019349834 15:-0.00019349834 16:-0.00019349834 18:-0.00019349834 19:-0.00019349834 28:0.10592487 29:0.12461681 30:0.11609901 31:-0.00019349834 32:-0.00019349834 33:0.97948867 900:0.00019349834 1800:0.00019349834 2124:0.00019349834 2199:0.00019349834 2315:0.00019349834 2404:0.00019349834 2499:0.00019349834 2601:0.00019349834 2699:0.00019349834 #
7.5 3:0.0093755135 4:-0.02565985 11:-0.00020859641 12:-0.00020859641 13:-0.00020859641 14:-0.00020859641 15:-0.00020859641 16:-0.00020859641 18:-0.00020859641 19:-0.00020859641 28:0.018957241 29:0.022303127 30:0.0064664884 31:-0.00020859641 32:-0.00020859641 33:0.9991768 901:0.00020859641 1799:0.00020859641 2123:0.00020859641 2204:0.00020859641 2321:0.00020859641 2404:0.00020859641 2501:0.00020859641 2601:0.00020859641 2699:0.00020859641 #
7.5 3:0.0079317503 4:-0.018216774 11:-0.00022503451 12:0.00022503451 13:-0.00022503451 14:-0.00022503451 15:-0.00022503451 16:-0.00022503451 18:-0.00022503451 19:-0.00022503451 28:0.035697225 29:0.041995943 30:0.022503451 31:-0.00022503451 32:-0.00022503451 33:0.99802804 901:0.00022503451 1800:0.00022503451 2119:0.00022503451 2204:0.00022503451 2500:0.00022503451 2602:0.00022503451 2702:0.00022503451 #
7.5 3:0.0026364499 4:-0.0052067023 11:-6.1559396e-05 12:-6.1559396e-05 13:-6.1559396e-05 14:-6.1559396e-05 15:-6.1559396e-05 16:-6.1559396e-05 18:-6.1559396e-05 19:-6.1559396e-05 28:0.61474752 29:0.72323239 30:0.027701728 31:-6.1559396e-05 32:-6.1559396e-05 33:0.3133989 900:6.1559396e-05 1801:6.1559396e-05 2120:6.1559396e-05 2205:6.1559396e-05 2501:6.1559396e-05 2600:6.1559396e-05 2701:6.1559396e-05 #
-10 3:0.0074866661 4:-0.016185351 11:-0.00019140138 12:-0.00019140138 13:-0.00019140138 14:-0.00019140138 15:-0.00019140138 16:-0.00019140138 18:-0.00019140138 19:-0.00019140138 28:0.22116813 29:0.26019868 30:0.01531211 31:-0.00019140138 32:-0.00019140138 33:0.93958938 901:0.00019140138 1800:0.00019140138 2106:0.00019140138 2201:0.00019140138 2500:0.00019140138 2602:0.00019140138 2700:0.00019140138 #
7.5 3:0.0096622035 4:-0.031099873 11:-0.00025610792 12:-0.00025610792 13:-0.00025610792 14:-0.00025610792 15:-0.00025610792 16:-0.00025610792 18:-0.00025610792 19:-0.00025610792 28:0.022934465 29:0.02698097 30:0.0064026983 31:-0.00025610792 32:-0.00025610792 33:0.9988209 900:0.00025610792 1801:0.00025610792 2114:0.00025610792 2203:0.00025610792 2299:0.00025610792 2402:0.00025610792 2504:0.00025610792 2602:0.00025610792 2700:0.00025610792 #
-10 3:0.0077308225 4:-0.014561987 11:0.0001935358 12:-0.0001935358 13:-0.0001935358 14:-0.0001935358 15:0.0001935358 16:-0.0001935358 18:0.0001935358 19:-0.0001935358 28:0.17591824 29:0.20696332 30:0.019353582 31:-0.0001935358 32:-0.0001935358 33:0.96206647 901:0.0001935358 1800:0.0001935358 2100:0.0001935358 2201:0.0001935358 2501:0.0001935358 2602:0.0001935358 2701:0.0001935358 #
7.5 3:0.0021511782 4:-0.0069385124 11:-7.109702e-05 12:-7.109702e-05 13:-7.109702e-05 14:-7.109702e-05 15:-7.109702e-05 16:-7.109702e-05 18:-7.109702e-05 19:-7.109702e-05 28:0.61587793 29:0.72456253 30:0.0012086494 31:-7.109702e-05 32:-7.109702e-05 33:0.30927202 901:7.109702e-05 1800:7.109702e-05 2101:7.109702e-05 2201:7.109702e-05 2310:7.109702e-05 2401:7.109702e-05 2502:7.109702e-05 2602:7.109702e-05 2700:7.109702e-05 #
-10 3:0.0094398456 4:-0.024800155 11:-0.00027805768 12:-0.00027805768 13:-0.00027805768 14:-0.00027805768 15:-0.00027805768 16:-0.00027805768 18:-0.00027805768 19:-0.00027805768 28:0.13166031 29:0.16056162 30:0.019464036 31:-0.00027805768 32:-0.00027805768 33:0.97765076 899:0.00027805768 1799:0.00027805768 2114:0.00027805768 2203:0.00027805768 2325:0.00027805768 2403:0.00027805768 2500:0.00027805768 2602:0.00027805768 2701:0.00027805768 #
7.5 3:0.006596447 4:-0.019999519 11:-0.0001963235 12:0.0001963235 13:-0.0001963235 14:-0.0001963235 15:-0.0001963235 16:-0.0001963235 18:-0.0001963235 19:-0.0001963235 28:0.16613875 29:0.19545771 30:0.019632351 31:-0.0001963235 32:-0.0001963235 33:0.9661079 901:0.0001963235 1801:0.0001963235 2101:0.0001963235 2201:0.0001963235 2315:0.0001963235 2404:0.0001963235 2501:0.0001963235 2602:0.0001963235 2701:0.0001963235 #
7.5 3:0.0039533712 4:-0.0071790442 11:-9.7077682e-05 12:-9.7077682e-05 13:-9.7077682e-05 14:-9.7077682e-05 15:-9.7077682e-05 16:-9.7077682e-05 18:-9.7077682e-05 19:-9.7077682e-05 28:0.58968961 29:0.71913397 30:0.097077683 31:9.7077682e-05 32:-9.7077682e-05 33:0.35443062 901:9.7077682e-05 1799:9.7077682e-05 2120:9.7077682e-05 2205:9.7077682e-05 2312:9.7077682e-05 2405:9.7077682e-05 2501:9.7077682e-05 2602:9.7077682e-05 2702:9.7077682e-05 #
-10 3:0.0074364343 4:-0.025854666 11:-0.00021841552 12:0.00021841552 13:-0.00021841552 14:-0.00021841552 15:-0.00021841552 16:-0.00021841552 18:-0.00021841552 19:-0.00021841552 28:0.1922406 29:0.22616489 30:0.012012853 31:-0.00021841552 32:-0.00021841552 33:0.95447576 901:0.00021841552 1800:0.00021841552 2110:0.00021841552 2201:0.00021841552 2323:0.00021841552 2404:0.00021841552 2501:0.00021841552 2602:0.00021841552 2700:0.00021841552 #
7.5 3:0.011157027 4:-0.036132231 11:-0.00036949819 12:-0.00036949819 13:-0.00036949819 14:-0.00036949819 15:-0.00036949819 16:-0.00036949819 18:-0.00036949819 19:-0.00036949819 28:0.022908887 29:0.027937759 30:0.022169892 31:-0.00036949819 32:-0.00036949819 33:0.99838412 901:0.00036949819 1800:0.00036949819 2106:0.00036949819 2201:0.00036949819 2500:0.00036949819 2602:0.00036949819 2701:0.00036949819 #
7.5 3:0.008261499 4:-0.018131638 11:-0.00022979108 12:-0.00022979108 13:-0.00022979108 14:-0.00022979108 15:-0.00022979108 16:-0.00022979108 18:-0.00022979108 19:-0.00022979108 28:0.034507725 29:0.040597189 30:0.041362394 31:-0.00022979108 32:-0.00022979108 33:0.99752307 901:0.00022979108 1801:0.00022979108 2115:0.00022979108 2204:0.00022979108 2500:0.00022979108 2601:0.00022979108 2702:0.00022979108 #
7.5 3:0.0030125359 4:-0.01009368 11:-9.0021385e-05 12:-9.0021385e-05 13:-9.0021385e-05 14:-9.0021385e-05 15:-9.0021385e-05 16:-9.0021385e-05 18:-9.0021385e-05 19:-9.0021385e-05 28:0.60670817 29:0.7137742 30:0.0027006418 31:-9.0021385e-05 32:9.0021385e-05 33:0.34973308 901:9.0021385e-05 1799:9.0021385e-05 2121:9.0021385e-05 2204:9.0021385e-05 2315:9.0021385e-05 2404:9.0021385e-05 2501:9.0021385e-05 2602:9.0021385e-05 2700:9.0021385e-05 #
-10 3:0.012909859 4:-0.028832173 11:-0.00036397306 12:-0.00036397306 13:-0.00036397306 14:-0.00036397306 15:-0.00036397306 16:-0.00036397306 18:-0.00036397306 19:-0.00036397306 28:0.19690943 29:0.24013487 30:0.010919192 31:-0.00036397306 32:-0.00036397306 33:0.94996965 1801:0.00036397306 2112:0.00036397306 2205:0.00036397306 2318:0.00036397306 2405:0.00036397306 2499:0.00036397306 2601:0.00036397306 2701:0.00036397306 #
7.5 3:0.007565673 4:-0.026320554 11:0.00022192036 12:-0.00022192036 13:-0.00022192036 14:-0.00022192036 15:-0.00022192036 16:-0.00022192036 18:-0.00022192036 19:-0.00022192036 28:0.025019301 29:0.029435517 30:0.0053260885 31:-0.00022192036 32:-0.00022192036 33:0.99886352 899:0.00022192036 1801:0.00022192036 2107:0.00022192036 2205:0.00022192036 2504:0.00022192036 2599:0.00022192036 2699:0.00022192036 #
-10 3:0.013922728 4:-0.025275944 11:-0.00034227537 12:-0.00034227537 13:-0.00034227537 14:-0.00034227537 15:-0.00034227537 16:-0.00034227537 18:-0.00034227537 19:0.00034227537 28:0.17147996 29:0.2091234 30:0.047918551 31:-0.00034227537 32:-0.00034227537 33:0.96110922 901:0.00034227537 1800:0.00034227537 2104:0.00034227537 2202:0.00034227537 2299:0.00034227537 2402:0.00034227537 2504:0.00034227537 2602:0.00034227537 2699:0.00034227537 #
7.5 3:0.013220388 4:-0.02615959 11:-0.00033960471 12:-0.00033960471 13:-0.00033960471 14:-0.00033960471 15:-0.00033960471 16:-0.00033960471 18:-0.00033960471 19:-0.00033960471 28:0.58751613 29:0.71648443 30:0.0067920941 31:-0.00033960471 32:-0.00033960471 33:0.37492359 901:0.00033960471 1799:0.00033960471 2104:0.00033960471 2202:0.00033960471 2499:0.00033960471 2602:0.00033960471 2700:0.00033960471 #
-10 3:0.0066890996 4:-0.015996194 11:-0.0001940255 12:-0.0001940255 13:-0.0001940255 14:-0.0001940255 15:-0.0001940255 16:-0.0001940255 18:-0.0001940255 19:-0.0001940255 28:0.19092304 29:0.22461556 30:0.033954464 31:-0.0001940255 32:-0.0001940255 33:0.95479947 899:0.0001940255 1801:0.0001940255 2114:0.0001940255 2203:0.0001940255 2500:0.0001940255 2601:0.0001940255 2702:0.0001940255 #
7.5 3:0.0059251832 4:-0.018823884 11:-0.00019777981 12:-0.00019777981 13:-0.00019777981 14:-0.00019777981 15:-0.00019777981 16:-0.00019777981 18:-0.00019777981 19:-0.00019777981 28:0.026023867 29:0.030616315 30:0.0047467155 31:-0.00019777981 32:-0.00019777981 33:0.99898583 899:0.00019777981 1801:0.00019777981 2115:0.00019777981 2204:0.00019777981 2306:0.00019777981 2401:0.00019777981 2501:0.00019777981 2600:0.00019777981 2700:0.00019777981 #
7.5 3:0.014898283 4:-0.027086101 11:-0.00036596815 12:-0.00036596815 13:-0.00036596815 14:-0.00036596815 15:-0.00036596815 16:-0.00036596815 18:-0.00036596815 19:-0.00036596815 28:0.58554906 29:0.71408439 31:-0.00036596815 32:-0.00036596815 33:0.38243672 901:0.00036596815 1799:0.00036596815 2114:0.00036596815 2203:0.00036596815 2499:0.00036596815 2602:0.00036596815 2702:0.00036596815 #
-10 3:0.010928362 4:-0.023936851 11:-0.00030335132 12:-0.00030335132 13:-0.00030335132 14:-0.00030335132 15:-0.00030335132 16:-0.00030335132 18:-0.00030335132 19:-0.00030335132 28:0.17746052 29:0.21641386 30:0.030335132 31:-0.00030335132 32:-0.00030335132 33:0.95919687 901:0.00030335132 1800:0.00030335132 2106:0.00030335132 2201:0.00030335132 2501:0.00030335132 2601:0.00030335132 2701:0.00030335132 #
7.5 3:0.0079247337 4:-0.027552364 11:-0.00023275736 12:0.00023275736 13:-0.00023275736 14:-0.00023275736 15:-0.00023275736 16:-0.00023275736 18:-0.00023275736 19:-0.00023275736 28:0.026029255 29:0.030621558 30:0.0060516912 31:0.00023275736 32:-0.00023275736 33:0.99876183 901:0.00023275736 1801:0.00023275736 2110:0.00023275736 2201:0.00023275736 2323:0.00023275736 2404:0.00023275736 2504:0.00023275736 2602:0.00023275736 2700:0.00023275736 #
-10 3:0.0091896523 4:-0.019854035 11:-0.00023053454 12:-0.00023053454 13:-0.00023053454 14:-0.00023053454 15:-0.00023053454 16:-0.00023053454 18:-0.00023053454 19:-0.00023053454 28:0.20848852 29:0.24527954 30:0.034580182 31:-0.00023053454 32:-0.00023053454 33:0.94588321 901:0.00023053454 1799:0.00023053454 2103:0.00023053454 2205:0.00023053454 2318:0.00023053454 2405:0.00023053454 2500:0.00023053454 2602:0.00023053454 2701:0.00023053454 #
7.5 3:0.0077172378 4:-0.01684439 11:-0.00019907215 12:-0.00019907215 13:-0.00019907215 14:-0.00019907215 15:-0.00019907215 16:-0.00019907215 18:-0.00019907215 19:-0.00019907215 28:0.02667965 29:0.031387705 30:0.0083610304 31:-0.00019907215 32:-0.00019907215 33:0.99894404 1801:0.00019907215 2115:0.00019907215 2204:0.00019907215 2504:0.00019907215 2601:0.00019907215 2700:0.00019907215 #
7.5 3:0.0080659613 4:-0.014657833 11:-0.00019811493 12:-0.00019811493 13:-0.00019811493 14:-0.00019811493 15:-0.00019811493 16:-0.00019811493 18:-0.00019811493 19:-0.00019811493 28:0.033671614 29:0.039613079 30:0.0039622984 31:-0.00019811493 32:-0.00019811493 33:0.99849921 901:0.00019811493 1800:0.00019811493 2111:0.00019811493 2200:0.00019811493 2300:0.00019811493 2401:0.00019811493 2500:0.00019811493 2602:0.00019811493 2701:0.00019811493 #
7.5 3:0.0089266384 4:-0.016787972 11:-0.0001982759 12:-0.0001982759 13:-0.0001982759 14:-0.0001982759 15:-0.0001982759 16:-0.0001982759 18:-0.0001982759 19:-0.0001982759 28:0.026622504 29:0.031319659 30:0.010905175 31:0.0001982759 32:-0.0001982759 33:0.998914 899:0.0001982759 1799:0.0001982759 2110:0.0001982759 2201:0.0001982759 2307:0.0001982759 2405:0.0001982759 2500:0.0001982759 2601:0.0001982759 2701:0.0001982759 #
-10 3:0.0093970513 4:-0.021724882 11:-0.00026830388 12:-0.00026830388 13:-0.00026830388 14:-0.00026830388 15:-0.00026830388 16:-0.00026830388 18:-0.00026830388 19:-0.00026830388 28:0.17433043 29:0.21259862 30:0.026830386 31:-0.00026830388 32:-0.00026830388 33:0.96079612 899:0.00026830388 1801:0.00026830388 2110:0.00026830388 2201:0.00026830388 2306:0.00026830388 2401:0.00026830388 2500:0.00026830388 2600:0.00026830388 2700:0.00026830388 #
7.5 3:0.0070872987 4:-0.016969005 11:-0.0001956833 12:-0.0001956833 13:-0.0001956833 14:-0.0001956833 15:-0.0001956833 16:-0.0001956833 18:-0.0001956833 19:-0.0001956833 28:0.026845792 29:0.031583283 30:0.0039136661 31:0.0001956833 32:-0.0001956833 33:0.99896324 901:0.0001956833 1800:0.0001956833 2115:0.0001956833 2204:0.0001956833 2306:0.0001956833 2401:0.0001956833 2500:0.0001956833 2601:0.0001956833 2700:0.0001956833 #
7.5 3:0.01305189 4:-0.023617495 11:-0.00031970063 12:-0.00031970063 13:-0.00031970063 14:-0.00031970063 15:-0.00031970063 16:-0.00031970063 18:-0.00031970063 19:-0.00031970063 28:0.58001685 29:0.70733762 31:-0.00031970063 32:-0.00031970063 33:0.40314248 901:0.00031970063 1799:0.00031970063 2106:0.00031970063 2201:0.00031970063 2301:0.00031970063 2401:0.00031970063 2501:0.00031970063 2602:0.00031970063 2700:0.00031970063 #
7.5 3:0.0081099933 4:-0.014601718 11:-0.00019903462 12:-0.00019903462 13:-0.00019903462 14:-0.00019903462 15:-0.00019903462 16:-0.00019903462 18:-0.00019903462 19:-0.00019903462 28:0.02678608 29:0.031513151 30:0.0099517312 31:0.00019903462 32:-0.00019903462 33:0.99895477 900:0.00019903462 1800:0.00019903462 2106:0.00019903462 2201:0.00019903462 2323:0.00019903462 2404:0.00019903462 2500:0.00019903462 2601:0.00019903462 2700:0.00019903462 #
-10 3:0.005721861 4:-0.0176025 11:-0.00019076941 12:-0.00019076941 13:-0.00019076941 14:-0.00019076941 15:-0.00019076941 16:-0.00019076941 18:-0.00019076941 19:-0.00019076941 28:0.17637968 29:0.20750561 30:0.046356969 31:-0.00019076941 32:-0.00019076941 33:0.96090549 1799:0.00019076941 2113:0.00019076941 2200:0.00019076941 2311:0.00019076941 2400:0.00019076941 2500:0.00019076941 2601:0.00019076941 2702:0.00019076941 #
-10 3:0.0097221965 4:-0.021495013 11:-0.00027367522 12:-0.00027367522 13:-0.00027367522 14:-0.00027367522 15:-0.00027367522 16:-0.00027367522 18:-0.00027367522 19:-0.00027367522 28:0.17352104 29:0.21161117 30:0.027367523 31:0.00027367522 32:-0.00027367522 33:0.96114743 899:0.00027367522 1799:0.00027367522 2122:0.00027367522 2202:0.00027367522 2501:0.00027367522 2601:0.00027367522 2702:0.00027367522 #
-10 3:0.0064360555 4:-0.022531258 11:-0.0001908586 12:-0.0001908586 13:-0.0001908586 14:-0.0001908586 15:-0.0001908586 16:-0.0001908586 18:-0.0001908586 19:-0.0001908586 28:0.17266214 29:0.20313272 30:0.011451515 31:-0.0001908586 32:-0.0001908586 33:0.96345419 900:0.0001908586 1801:0.0001908586 2115:0.0001908586 2204:0.0001908586 2306:0.0001908586 2401:0.0001908586 2501:0.0001908586 2600:0.0001908586 2700:0.0001908586 #
7.5 3:0.0033330424 4:-0.0062801717 11:-8.3418643e-05 12:-8.3418643e-05 13:-8.3418643e-05 14:-8.3418643e-05 15:-8.3418643e-05 16:-8.3418643e-05 18:-8.3418643e-05 19:-8.3418643e-05 28:0.590433 29:0.69462705 30:0.0066734916 31:-8.3418643e-05 32:-8.3418643e-05 33:0.41083685 900:8.3418643e-05 1799:8.3418643e-05 2110:8.3418643e-05 2201:8.3418643e-05 2501:8.3418643e-05 2601:8.3418643e-05 2702:8.3418643e-05 #
7.5 3:0.0072792531 4:-0.016952127 11:-0.00020196929 12:-0.00020196929 13:-0.00020196929 14:-0.00020196929 15:-0.00020196929 16:-0.00020196929 18:-0.00020196929 19:-0.00020196929 28:0.027108319 29:0.03189297 30:0.0050492324 31:-0.00020196929 32:-0.00020196929 33:0.99894011 901:0.00020196929 1801:0.00020196929 2110:0.00020196929 2201:0.00020196929 2322:0.00020196929 2402:0.00020196929 2500:0.00020196929 2601:0.00020196929 2700:0.00020196929 #
7.5 3:0.00371991 4:-0.012071281 11:-9.8585748e-05 12:-9.8585748e-05 13:-9.8585748e-05 14:-9.8585748e-05 15:-9.8585748e-05 16:-9.8585748e-05 18:9.8585748e-05 19:-9.8585748e-05 28:0.587363 29:0.69101512 30:0.0071967593 31:9.8585748e-05 32:-9.8585748e-05 33:0.42105973 901:9.8585748e-05 1800:9.8585748e-05 2124:9.8585748e-05 2199:9.8585748e-05 2501:9.8585748e-05 2602:9.8585748e-05 2702:9.8585748e-05 #
7.5 3:0.007703166 4:-0.017969824 11:-0.00019858783 12:-0.00019858783 13:-0.00019858783 14:-0.00019858783 15:-0.00019858783 16:-0.00019858783 18:-0.00019858783 19:-0.00019858783 28:0.027033761 29:0.031803843 30:0.0089364527 31:0.00019858783 32:-0.00019858783 33:0.99889678 901:0.00019858783 1800:0.00019858783 2115:0.00019858783 2204:0.00019858783 2323:0.00019858783 2404:0.00019858783 2499:0.00019858783 2601:0.00019858783 2702:0.00019858783 #
-10 3:0.010582133 4:-0.023861833 11:-0.00030218935 12:-0.00030218935 13:0.00030218935 14:-0.00030218935 15:-0.00030218935 16:-0.00030218935 18:-0.00030218935 19:-0.00030218935 28:0.17224793 29:0.21005787 30:0.030218937 31:-0.00030218935 32:-0.00030218935 33:0.96156657 901:0.00030218935 1800:0.00030218935 2106:0.00030218935 2201:0.00030218935 2504:0.00030218935 2602:0.00030218935 2700:0.00030218935 #
-10 3:0.0073516648 4:-0.014547878 11:-0.00018874352 12:-0.00018874352 13:-0.00018874352 14:-0.00018874352 15:-0.00018874352 16:-0.00018874352 18:-0.00018874352 19:-0.00018874352 28:0.17021646 29:0.20025498 30:0.028311526 31:0.00018874352 32:-0.00018874352 33:0.96429062 901:0.00018874352 1800:0.00018874352 2115:0.00018874352 2204:0.00018874352 2320:0.00018874352 2405:0.00018874352 2501:0.00018874352 2602:0.00018874352 2702:0.00018874352 #
7.5 3:0.0063081752 4:-0.02187746 11:-0.00018506222 12:-0.00018506222 13:0.00018506222 14:-0.00018506222 15:-0.00018506222 16:-0.00018506222 18:-0.00018506222 19:-0.00018506222 28:0.57229197 29:0.6979177 30:0.014804977 31:-0.00018506222 32:-0.00018506222 33:0.42971447 901:0.00018506222 1800:0.00018506222 2100:0.00018506222 2201:0.00018506222 2310:0.00018506222 2401:0.00018506222 2502:0.00018506222 2601:0.00018506222 2700:0.00018506222 #
-10 3:0.012299047 4:-0.027414972 11:-0.00031999871 12:-0.00031999871 13:-0.00031999871 14:-0.00031999871 15:-0.00031999871 16:-0.00031999871 18:-0.00031999871 19:-0.00031999871 28:0.17599928 29:0.21463273 30:0.021439914 31:-0.00031999871 32:-0.00031999871 33:0.9599961 899:0.00031999871 1801:0.00031999871 2115:0.00031999871 2204:0.00031999871 2314:0.00031999871 2403:0.00031999871 2499:0.00031999871 2601:0.00031999871 2701:0.00031999871 #
7.5 3:0.0085649006 4:-0.016718449 11:-0.00020042922 12:-0.00020042922 13:-0.00020042922 14:-0.00020042922 15:-0.00020042922 16:-0.00020042922 18:-0.00020042922 19:-0.00020042922 28:0.027192233 29:0.031990509 30:0.0020042923 31:-0.00020042922 32:-0.00020042922 33:0.99893928 900:0.00020042922 1800:0.00020042922 2124:0.00020042922 2199:0.00020042922 2499:0.00020042922 2600:0.00020042922 2700:0.00020042922 #
-10 3:0.007985699 4:-0.023010476 11:-0.00024558991 12:-0.00024558991 13:-0.00024558991 14:-0.00024558991 15:-0.00024558991 16:-0.00024558991 18:-0.00024558991 19:-0.00024558991 28:0.18207544 29:0.21420597 30:0.012770674 31:-0.00024558991 32:-0.00024558991 33:0.95927411 901:0.00024558991 1801:0.00024558991 2115:0.00024558991 2204:0.00024558991 2321:0.00024558991 2404:0.00024558991 2501:0.00024558991 2601:0.00024558991 2700:0.00024558991 #
7.5 3:0.0067150192 4:-0.019590801 11:-0.00020245115 12:-0.00020245115 13:-0.00020245115 14:-0.00020245115 15:-0.00020245115 16:-0.00020245115 18:-0.00020245115 19:-0.00020245115 28:0.02720741 29:0.032009549 30:0.0040490227 31:-0.00020245115 32:-0.00020245115 33:0.99889398 1799:0.00020245115 2106:0.00020245115 2201:0.00020245115 2324:0.00020245115 2399:0.00020245115 2500:0.00020245115 2600:0.00020245115 2701:0.00020245115 #
-10 3:0.0068180654 4:-0.021900553 11:-0.00022934191 12:-0.00022934191 13:-0.00022934191 14:-0.00022934191 15:-0.00022934191 16:-0.00022934191 18:0.00022934191 19:-0.00022934191 28:0.17563233 29:0.2066256 30:0.027521029 31:-0.00022934191 32:-0.00022934191 33:0.96186 901:0.00022934191 1801:0.00022934191 2124:0.00022934191 2199:0.00022934191 2321:0.00022934191 2404:0.00022934191 2501:0.00022934191 2601:0.00022934191 2699:0.00022934191 #
7.5 3:0.0081443144 4:-0.014832871 11:-0.00020039185 12:0.00020039185 13:-0.00020039185 14:-0.00020039185 15:-0.00020039185 16:-0.00020039185 18:-0.00020039185 19:0.00020039185 28:0.027159108 29:0.031952482 30:0.0068133231 31:-0.00020039185 32:-0.00020039185 33:0.9989534 901:0.00020039185 1800:0.00020039185 2115:0.00020039185 2204:0.00020039185 2306:0.00020039185 2401:0.00020039185 2501:0.00020039185 2602:0.00020039185 2700:0.00020039185 #
-10 3:0.0064497422 4:-0.022528308 11:-0.00019129283 12:-0.00019129283 13:-0.00019129283 14:-0.00019129283 15:-0.00019129283 16:-0.00019129283 18:-0.00019129283 19:-0.00019129283 28:0.17123386 29:0.20145239 30:0.0051649064 31:-0.00019129283 32:-0.00019129283 33:0.96411586 901:0.00019129283 1799:0.00019129283 2106:0.00019129283 2201:0.00019129283 2324:0.00019129283 2399:0.00019129283 2501:0.00019129283 2599:0.00019129283 2701:0.00019129283 #
7.5 3:0.0029184113 4:-0.0097075608 11:-8.6570275e-05 12:-8.6570275e-05 13:-8.6570275e-05 14:-8.6570275e-05 15:-8.6570275e-05 16:-8.6570275e-05 18:-8.6570275e-05 19:-8.6570275e-05 28:0.5844515 29:0.68758959 30:0.013851244 31:-8.6570275e-05 32:-8.6570275e-05 33:0.43051398 1799:8.6570275e-05 2101:8.6570275e-05 2201:8.6570275e-05 2500:8.6570275e-05 2600:8.6570275e-05 2702:8.6570275e-05 #
7.5 3:0.022645824 4:-0.041157804 11:-0.00055660051 12:-0.00055660051 13:-0.00055660051 14:-0.00055660051 15:-0.00055660051 16:-0.00055660051 18:-0.00055660051 19:0.00055660051 28:0.026817011 29:0.032705843 30:0.0050094044 31:-0.00055660051 32:-0.00055660051 33:0.99798465 901:0.00055660051 1800:0.00055660051 2105:0.00055660051 2205:0.00055660051 2305:0.00055660051 2405:0.00055660051 2500:0.00055660051 2602:0.00055660051 2701:0.00055660051 #
7.5 3:0.017152207 4:-0.031027012 11:-0.00042009633 12:-0.00042009633 13:-0.00042009633 14:-0.00042009633 15:-0.00042009633 16:-0.00042009633 18:-0.00042009633 19:-0.00042009633 28:0.57133102 29:0.69674659 31:-0.00042009633 32:-0.00042009633 33:0.43227911 901:0.00042009633 1800:0.00042009633 2115:0.00042009633 2204:0.00042009633 2499:0.00042009633 2602:0.00042009633 2701:0.00042009633 #
7.5 3:0.0069856653 4:-0.024382103 11:-0.00020652814 12:-0.00020652814 13:-0.00020652814 14:-0.00020652814 15:-0.00020652814 16:-0.00020652814 18:-0.00020652814 19:-0.00020652814 28:0.027552919 29:0.032414593 30:0.0020652814 31:-0.00020652814 32:-0.00020652814 33:0.99877012 900:0.00020652814 1800:0.00020652814 2124:0.00020652814 2199:0.00020652814 2323:0.00020652814 2404:0.00020652814 2501:0.00020652814 2600:0.00020652814 2701:0.00020652814 #
-10 3:0.0080333315 4:-0.015895808 11:-0.00020651848 12:-0.00020651848 13:-0.00020651848 14:-0.00020651848 15:-0.00020651848 16:-0.00020651848 18:-0.00020651848 19:-0.00020651848 28:0.17636472 29:0.20748706 30:0.012391109 31:-0.00020651848 32:-0.00020651848 33:0.96196312 901:0.00020651848 1801:0.00020651848 2115:0.00020651848 2204:0.00020651848 2323:0.00020651848 2404:0.00020651848 2499:0.00020651848 2602:0.00020651848 2702:0.00020651848 #
-10 3:0.0061023165 4:-0.01962181 11:0.00020534964 12:-0.00020534964 13:-0.00020534964 14:-0.00020534964 15:-0.00020534964 16:-0.00020534964 18:-0.00020534964 19:-0.00020534964 28:0.17243415 29:0.20286286 30:0.033882692 31:-0.00020534964 32:-0.00020534964 33:0.96308982 901:0.00020534964 1801:0.00020534964 2115:0.00020534964 2204:0.00020534964 2323:0.00020534964 2404:0.00020534964 2499:0.00020534964 2602:0.00020534964 2701:0.00020534964 #
7.5 3:0.0025489291 4:-0.008228315 11:-8.599829e-05 12:-8.599829e-05 13:-8.599829e-05 14:-8.599829e-05 15:-8.599829e-05 16:-8.599829e-05 18:-8.599829e-05 19:-8.599829e-05 28:0.58188593 29:0.68457139 30:0.03181937 31:-8.599829e-05 32:-8.599829e-05 33:0.43781731 1799:8.599829e-05 2101:8.599829e-05 2201:8.599829e-05 2501:8.599829e-05 2600:8.599829e-05 2702:8.599829e-05 #
7.5 3:0.0066058887 4:-0.019471491 11:-0.00020418486 12:-0.00020418486 13:-0.00020418486 14:-0.00020418486 15:-0.00020418486 16:-0.00020418486 18:-0.00020418486 19:-0.00020418486 28:0.027526163 29:0.032383721 30:0.0049004368 31:-0.00020418486 32:-0.00020418486 33:0.9988724 899:0.00020418486 1800:0.00020418486 2105:0.00020418486 2205:0.00020418486 2315:0.00020418486 2404:0.00020418486 2501:0.00020418486 2602:0.00020418486 2699:0.00020418486 #
-10 3:0.0085769622 4:-0.018330298 11:-0.00019310637 12:-0.00019310637 13:-0.00019310637 14:-0.00019310637 15:-0.00019310637 16:-0.00019310637 18:-0.00019310637 19:-0.00019310637 28:0.17171019 29:0.20201243 30:0.033793613 31:-0.00019310637 32:-0.00019310637 33:0.9634077 899:0.00019310637 1800:0.00019310637 2103:0.00019310637 2205:0.00019310637 2500:0.00019310637 2601:0.00019310637 2702:0.00019310637 #
7.5 3:0.0030533674 4:-0.0090648578 11:-9.4313691e-05 12:-9.4313691e-05 13:-9.4313691e-05 14:-9.4313691e-05 15:-9.4313691e-05 16:-9.4313691e-05 18:-9.4313691e-05 19:-9.4313691e-05 28:0.57777417 29:0.67973387 30:0.097331733 31:-9.4313691e-05 32:-9.4313691e-05 33:0.44110516 1800:9.4313691e-05 2103:9.4313691e-05 2205:9.4313691e-05 2502:9.4313691e-05 2602:9.4313691e-05 2702:9.4313691e-05 #
7.5 3:0.0070253927 4:-0.024825733 11:-0.00021202766 12:-0.00021202766 13:-0.00021202766 14:-0.00021202766 15:-0.00021202766 16:-0.00021202766 18:-0.00021202766 19:-0.00021202766 28:0.034545667 29:0.040641461 30:0.0057247467 31:-0.00021202766 32:-0.00021202766 33:0.99822623 900:0.00021202766 1801:0.00021202766 2105:0.00021202766 2205:0.00021202766 2322:0.00021202766 2402:0.00021202766 2500:0.00021202766 2602:0.00021202766 2699:0.00021202766 #
7.5 3:0.0081652887 4:-0.017867845 11:-0.00020356031 12:-0.00020356031 13:-0.00020356031 14:-0.00020356031 15:-0.00020356031 16:-0.00020356031 18:-0.00020356031 19:-0.00020356031 28:0.027515247 29:0.032370161 30:0.0081424126 31:-0.00020356031 32:-0.00020356031 33:0.99887043 899:0.00020356031 1801:0.00020356031 2124:0.00020356031 2199:0.00020356031 2500:0.00020356031 2601:0.00020356031 2700:0.00020356031 #
-10 3:0.0082471296 4:-0.014998185 11:-0.00020283538 12:-0.00020283538 13:-0.00020283538 14:-0.00020283538 15:-0.00020283538 16:-0.00020283538 18:-0.00020283538 19:-0.00020283538 28:0.1646577 29:0.1937159 30:0.030425306 31:-0.00020283538 32:-0.00020283538 33:0.96651053 901:0.00020283538 1800:0.00020283538 2122:0.00020283538 2202:0.00020283538 2500:0.00020283538 2602:0.00020283538 2702:0.00020283538 #
7.5 3:0.0082637956 4:-0.017334977 11:-0.00019752704 12:-0.00019752704 13:-0.00019752704 14:-0.00019752704 15:-0.00019752704 16:-0.00019752704 18:-0.00019752704 19:-0.00019752704 28:0.027602429 29:0.032473445 30:0.0049381759 31:-0.00019752704 32:-0.00019752704 33:0.99889427 900:0.00019752704 1800:0.00019752704 2123:0.00019752704 2204:0.00019752704 2499:0.00019752704 2602:0.00019752704 2700:0.00019752704 #
7.5 3:0.0030357032 4:-0.010194858 11:-9.1221234e-05 12:-9.1221234e-05 13:-9.1221234e-05 14:-9.1221234e-05 15:-9.1221234e-05 16:-9.1221234e-05 18:-9.1221234e-05 19:-9.1221234e-05 28:0.57487893 29:0.67632788 30:0.013683185 31:-9.1221234e-05 32:-9.1221234e-05 33:0.4602111 899:9.1221234e-05 1799:9.1221234e-05 2101:9.1221234e-05 2201:9.1221234e-05 2501:9.1221234e-05 2600:9.1221234e-05 2702:9.1221234e-05 #
-10 3:0.0056503289 4:-0.018202933 11:-0.00019055033 12:0.00019055033 13:-0.00019055033 14:-0.00019055033 15:-0.00019055033 16:-0.00019055033 18:-0.00019055033 19:-0.00019055033 28:0.16865991 29:0.19842386 30:0.057165097 31:-0.00019055033 32:-0.00019055033 33:0.96361297 901:0.00019055033 1800:0.00019055033 2104:0.00019055033 2202:0.00019055033 2315:0.00019055033 2404:0.00019055033 2501:0.00019055033 2601:0.00019055033 2701:0.00019055033 #
7.5 3:0.010381352 4:-0.028390823 11:-0.00029122207 12:-0.00029122207 13:-0.00029122207 14:-0.00029122207 15:-0.00029122207 16:-0.00029122207 18:-0.00029122207 19:-0.00029122207 28:0.027083652 29:0.033027496 30:0.0075717736 31:0.00029122207 32:-0.00029122207 33:0.99860048 900:0.00029122207 1801:0.00029122207 2125:0.00029122207 2203:0.00029122207 2315:0.00029122207 2404:0.00029122207 2499:0.00029122207 2601:0.00029122207 2700:0.00029122207 #
-10 3:0.0066755107 4:-0.022342283 11:-0.0002265573 12:-0.0002265573 13:-0.0002265573 14:-0.0002265573 15:-0.0002265573 16:-0.0002265573 18:-0.0002265573 19:-0.0002265573 28:0.16172113 29:0.19026054 30:0.028319662 31:-0.0002265573 32:-0.0002265573 33:0.96762621 900:0.0002265573 1801:0.0002265573 2120:0.0002265573 2205:0.0002265573 2307:0.0002265573 2405:0.0002265573 2501:0.0002265573 2602:0.0002265573 2702:0.0002265573 #
7.5 3:0.0035554254 4:-0.011587022 11:-9.4731069e-05 12:-9.4731069e-05 13:-9.4731069e-05 14:-9.4731069e-05 15:-9.4731069e-05 16:-9.4731069e-05 18:-9.4731069e-05 19:-9.4731069e-05 28:0.57428437 29:0.6756286 30:0.011367728 31:-9.4731069e-05 32:-9.4731069e-05 33:0.46200341 901:9.4731069e-05 1799:9.4731069e-05 2114:9.4731069e-05 2203:9.4731069e-05 2308:9.4731069e-05 2403:9.4731069e-05 2501:9.4731069e-05 2601:9.4731069e-05 2702:9.4731069e-05 #
-10 3:0.010026198 4:-0.022405649 11:-0.00024183386 12:-0.00024183386 13:-0.00024183386 14:-0.00024183386 15:-0.00024183386 16:-0.00024183386 18:-0.00024183386 19:-0.00024183386 28:0.16857754 29:0.19832553 30:0.010640689 31:-0.00024183386 32:-0.00024183386 33:0.96515894 899:0.00024183386 1801:0.00024183386 2115:0.00024183386 2204:0.00024183386 2320:0.00024183386 2405:0.00024183386 2501:0.00024183386 2600:0.00024183386 2701:0.00024183386 #
7.5 3:0.0083103003 4:-0.015611324 11:-0.00020784476 12:-0.00020784476 13:-0.00020784476 14:-0.00020784476 15:-0.00020784476 16:-0.00020784476 18:-0.00020784476 19:-0.00020784476 28:0.02773896 29:0.032633703 30:0.0068588769 31:-0.00020784476 32:-0.00020784476 33:0.99890184 901:0.00020784476 1799:0.00020784476 2106:0.00020784476 2201:0.00020784476 2324:0.00020784476 2399:0.00020784476 2499:0.00020784476 2602:0.00020784476 2700:0.00020784476 #
-10 3:0.0078594666 4:-0.025376609 11:-0.00020754428 12:-0.00020754428 13:-0.00020754428 14:-0.00020754428 15:-0.00020754428 16:-0.00020754428 18:-0.00020754428 19:-0.00020754428 28:0.16596279 29:0.19524935 30:0.015565821 31:-0.00020754428 32:-0.00020754428 33:0.96611863 901:0.00020754428 1800:0.00020754428 2115:0.00020754428 2204:0.00020754428 2323:0.00020754428 2404:0.00020754428 2501:0.00020754428 2601:0.00020754428 2702:0.00020754428 #
7.5 3:0.0042392397 4:-0.0076918174 11:-0.00010402976 12:0.00010402976 13:-0.00010402976 14:-0.00010402976 15:-0.00010402976 16:-0.00010402976 18:0.00010402976 19:-0.00010402976 28:0.57002693 29:0.67061955 30:0.049934287 31:-0.00010402976 32:-0.00010402976 33:0.47198302 901:0.00010402976 1800:0.00010402976 2107:0.00010402976 2205:0.00010402976 2303:0.00010402976 2405:0.00010402976 2502:0.00010402976 2602:0.00010402976 2701:0.00010402976 #
7.5 3:0.005729455 4:-0.016424797 11:0.00020102838 12:-0.00020102838 13:-0.00020102838 14:-0.00020102838 15:-0.00020102838 16:-0.00020102838 18:-0.00020102838 19:-0.00020102838 28:0.027900729 29:0.032823913 30:0.0044226246 31:0.00020102838 32:-0.00020102838 33:0.99891001 1800:0.00020102838 2106:0.00020102838 2201:0.00020102838 2300:0.00020102838 2401:0.00020102838 2501:0.00020102838 2600:0.00020102838 2700:0.00020102838 #
7.5 3:0.0035471595 4:-0.011522176 11:-9.4430296e-05 12:-9.4430296e-05 13:-9.4430296e-05 14:-9.4430296e-05 15:-9.4430296e-05 16:-9.4430296e-05 18:-9.4430296e-05 19:-9.4430296e-05 28:0.57052803 29:0.67120963 30:0.00321063 31:-9.4430296e-05 32:-9.4430296e-05 33:0.4730958 901:9.4430296e-05 1800:9.4430296e-05 2110:9.4430296e-05 2201:9.4430296e-05 2500:9.4430296e-05 2600:9.4430296e-05 2702:9.4430296e-05 #
7.5 3:0.01095052 4:-0.019835439 11:-0.00026832681 12:-0.00026832681 13:-0.00026832681 14:-0.00026832681 15:-0.00026832681 16:-0.00026832681 18:-0.00026832681 19:0.00026832681 28:0.03533059 29:0.043085232 30:0.0050982093 31:0.00026832681 32:0.00026832681 33:0.99817568 901:0.00026832681 1801:0.00026832681 2107:0.00026832681 2205:0.00026832681 2305:0.00026832681 2405:0.00026832681 2504:0.00026832681 2602:0.00026832681 2699:0.00026832681 #
-10 3:0.007562743 4:-0.014722148 11:-0.00019234284 12:-0.00019234284 13:-0.00019234284 14:-0.00019234284 15:-0.00019234284 16:-0.00019234284 18:-0.00019234284 19:-0.00019234284 28:0.16704783 29:0.19652629 30:0.012117598 31:-0.00019234284 32:-0.00019234284 33:0.96594572 1800:0.00019234284 2123:0.00019234284 2204:0.00019234284 2501:0.00019234284 2602:0.00019234284 2700:0.00019234284 #
7.5 3:0.0059158481 4:-0.017438285 11:-0.00021118035 12:-0.00021118035 13:-0.00021118035 14:-0.00021118035 15:-0.00021118035 16:-0.00021118035 18:-0.00021118035 19:-0.00021118035 28:0.027875807 29:0.032794196 30:0.0063354108 31:-0.00021118035 32:-0.00021118035 33:0.99888307 900:0.00021118035 1801:0.00021118035 2101:0.00021118035 2201:0.00021118035 2315:0.00021118035 2404:0.00021118035 2501:0.00021118035 2602:0.00021118035 2699:0.00021118035 #
-10 3:0.0096817827 4:-0.021283537 11:-0.00027275225 12:-0.00027275225 13:-0.00027275225 14:-0.00027275225 15:-0.00027275225 16:-0.00027275225 18:-0.00027275225 19:-0.00027275225 28:0.15872818 29:0.19357228 30:0.017183393 31:0.00027275225 32:-0.00027275225 33:0.96772504 899:0.00027275225 1800:0.00027275225 2115:0.00027275225 2204:0.00027275225 2306:0.00027275225 2401:0.00027275225 2501:0.00027275225 2601:0.00027275225 2700:0.00027275225 #
7.5 3:0.0067032701 4:-0.019862784 11:-0.0002047559 12:-0.0002047559 13:-0.0002047559 14:-0.0002047559 15:-0.0002047559 16:-0.0002047559 18:-0.0002047559 19:-0.0002047559 28:0.036442455 29:0.042873837 30:0.0045046294 31:-0.0002047559 32:-0.0002047559 33:0.99818498 900:0.0002047559 1801:0.0002047559 2115:0.0002047559 2204:0.0002047559 2306:0.0002047559 2401:0.0002047559 2500:0.0002047559 2602:0.0002047559 2699:0.0002047559 #
7.5 3:0.0067612925 4:-0.0159469 11:-0.00019760312 12:-0.00019760312 13:-0.00019760312 14:-0.00019760312 15:-0.00019760312 16:-0.00019760312 18:-0.00019760312 19:-0.00019760312 28:0.027543899 29:0.032404937 30:0.022724358 31:-0.00019760312 32:-0.00019760312 33:0.99868619 899:0.00019760312 1801:0.00019760312 2123:0.00019760312 2204:0.00019760312 2315:0.00019760312 2404:0.00019760312 2501:0.00019760312 2600:0.00019760312 2701:0.00019760312 #
-10 3:0.013854473 4:-0.027201694 11:-0.00032723672 12:-0.00032723672 13:-0.00032723672 14:-0.00032723672 15:-0.00032723672 16:-0.00032723672 18:-0.00032723672 19:-0.00032723672 28:0.15740086 29:0.19195379 30:0.065447345 31:-0.00032723672 32:-0.00032723672 33:0.96600282 901:0.00032723672 1801:0.00032723672 2115:0.00032723672 2204:0.00032723672 2323:0.00032723672 2404:0.00032723672 2500:0.00032723672 2602:0.00032723672 2699:0.00032723672 #
7.5 3:0.0085939644 4:-0.014060996 11:-0.00019852597 12:-0.00019852597 13:-0.00019852597 14:-0.00019852597 15:-0.00019852597 16:-0.00019852597 18:-0.00019852597 19:-0.00019852597 28:0.027253645 29:0.032063928 30:0.039705195 31:-0.00019852597 32:-0.00019852597 33:0.99818856 899:0.00019852597 1799:0.00019852597 2101:0.00019852597 2201:0.00019852597 2499:0.00019852597 2600:0.00019852597 2701:0.00019852597 #
-10 3:0.010419116 4:-0.02739867 11:-0.00026111738 12:-0.00026111738 13:-0.00026111738 14:-0.00026111738 15:-0.00026111738 16:-0.00026111738 18:-0.00026111738 19:-0.00026111738 28:0.15371719 29:0.18745878 30:0.019583803 31:-0.00026111738 32:-0.00026111738 33:0.96952885 900:0.00026111738 1801:0.00026111738 2105:0.00026111738 2205:0.00026111738 2303:0.00026111738 2405:0.00026111738 2501:0.00026111738 2600:0.00026111738 2699:0.00026111738 #
7.5 3:0.019763457 4:-0.035931319 11:-0.00048547849 12:-0.00048547849 13:-0.00048547849 14:-0.00048547849 15:-0.00048547849 16:-0.00048547849 18:-0.00048547849 19:-0.00048547849 28:0.54616332 29:0.66605222 31:-0.00048547849 32:-0.00048547849 33:0.50635409 901:0.00048547849 1800:0.00048547849 2123:0.00048547849 2204:0.00048547849 2499:0.00048547849 2602:0.00048547849 2702:0.00048547849 #
7.5 3:0.0070374846 4:-0.015332457 11:-0.00019803869 12:-0.00019803869 13:-0.00019803869 14:-0.00019803869 15:-0.00019803869 16:-0.00019803869 18:-0.00019803869 19:-0.00019803869 28:0.028222492 29:0.033203166 30:0.00059411605 31:-0.00019803869 32:-0.00019803869 33:0.99890709 899:0.00019803869 1801:0.00019803869 2124:0.00019803869 2199:0.00019803869 2501:0.00019803869 2601:0.00019803869 2699:0.00019803869 #
7.5 3:0.0049375831 4:-0.010028889 11:-0.00011373043 12:-0.00011373043 13:-0.00011373043 14:-0.00011373043 15:-0.00011373043 16:-0.00011373043 18:-0.00011373043 19:-0.00011373043 28:0.55230337 29:0.64976925 30:0.10235739 31:-0.00011373043 32:-0.00011373043 33:0.51201439 1801:0.00011373043 2107:0.00011373043 2205:0.00011373043 2502:0.00011373043 2600:0.00011373043 2701:0.00011373043 #
7.5 3:0.0066261701 4:-0.019596074 11:-0.00020345704 12:-0.00020345704 13:-0.00020345704 14:-0.00020345704 15:-0.00020345704 16:-0.00020345704 18:-0.00020345704 19:-0.00020345704 28:0.03622349 29:0.04261611 30:0.030518556 31:0.00020345704 32:-0.00020345704 33:0.99775332 1801:0.00020345704 2122:0.00020345704 2202:0.00020345704 2310:0.00020345704 2401:0.00020345704 2500:0.00020345704 2602:0.00020345704 2702:0.00020345704 #
7.5 3:0.0078443773 4:-0.014758101 11:0.00019632561 12:-0.00019632561 13:-0.00019632561 14:-0.00019632561 15:-0.00019632561 16:-0.00019632561 18:-0.00019632561 19:-0.00019632561 28:0.028149165 29:0.033116203 30:0.0045154891 31:-0.00019632561 32:-0.00019632561 33:0.99890471 901:0.00019632561 1800:0.00019632561 2103:0.00019632561 2205:0.00019632561 2500:0.00019632561 2602:0.00019632561 2700:0.00019632561 #
7.5 3:0.010639136 4:-0.019330526 11:-0.00026138901 12:-0.00026138901 13:-0.00026138901 14:-0.00026138901 15:-0.00026138901 16:-0.00026138901 18:-0.00026138901 19:0.00026138901 28:0.54415441 29:0.66360396 30:0.0052277804 31:-0.00026138901 32:-0.00026138901 33:0.51284522 901:0.00026138901 1801:0.00026138901 2099:0.00026138901 2202:0.00026138901 2307:0.00026138901 2405:0.00026138901 2502:0.00026138901 2602:0.00026138901 2699:0.00026138901 #
-10 3:0.015450252 4:-0.028071344 11:0.00037960976 12:-0.00037960976 13:-0.00037960976 14:-0.00037960976 15:-0.00037960976 16:-0.00037960976 18:-0.00037960976 19:-0.00037960976 28:0.15450117 29:0.18841551 30:0.018980488 31:-0.00037960976 32:-0.00037960976 33:0.96914375 901:0.00037960976 1800:0.00037960976 2106:0.00037960976 2201:0.00037960976 2500:0.00037960976 2602:0.00037960976 2700:0.00037960976 #
7.5 3:0.0065310691 4:-0.023078933 11:-0.00019710886 12:-0.00019710886 13:-0.00019710886 14:-0.00019710886 15:-0.00019710886 16:-0.00019710886 18:-0.00019710886 19:-0.00019710886 28:0.028127436 29:0.033090636 30:0.005913266 31:-0.00019710886 32:-0.00019710886 33:0.99875063 900:0.00019710886 1801:0.00019710886 2115:0.00019710886 2204:0.00019710886 2310:0.00019710886 2401:0.00019710886 2499:0.00019710886 2602:0.00019710886 2699:0.00019710886 #
-10 3:0.0074826749 4:-0.025950549 11:-0.00021951225 12:-0.00021951225 13:-0.00021951225 14:-0.00021951225 15:-0.00021951225 16:-0.00021951225 18:-0.00021951225 19:-0.00021951225 28:0.15604687 29:0.18358468 30:0.02634147 31:-0.00021951225 32:-0.00021951225 33:0.96980512 901:0.00021951225 1799:0.00021951225 2123:0.00021951225 2204:0.00021951225 2501:0.00021951225 2601:0.00021951225 2701:0.00021951225 #
7.5 3:0.019872138 4:-0.036087584 11:-0.00048781402 12:-0.00048781402 13:-0.00048781402 14:-0.00048781402 15:-0.00048781402 16:-0.00048781402 18:-0.00048781402 19:-0.00048781402 28:0.54191256 29:0.66087091 31:-0.00048781402 32:-0.00048781402 33:0.51757067 1801:0.00048781402 2103:0.00048781402 2205:0.00048781402 2499:0.00048781402 2602:0.00048781402 2700:0.00048781402 #
-10 3:0.0099049993 4:-0.020337537 11:0.00021871492 12:-0.00021871492 13:-0.00021871492 14:-0.00021871492 15:-0.00021871492 16:-0.00021871492 18:-0.00021871492 19:-0.00021871492 28:0.16180092 29:0.19035415 30:0.028870368 31:-0.00021871492 32:-0.00021871492 33:0.9675948 1801:0.00021871492 2123:0.00021871492 2204:0.00021871492 2315:0.00021871492 2404:0.00021871492 2499:0.00021871492 2601:0.00021871492 2702:0.00021871492 #
7.5 3:0.0077859527 4:-0.016860237 11:0.00019551009 12:-0.00019551009 13:-0.00019551009 14:-0.00019551009 15:-0.00019551009 16:-0.00019551009 18:-0.00019551009 19:-0.00019551009 28:0.028268803 29:0.033258218 30:0.005083262 31:-0.00019551009 32:-0.00019551009 33:0.99886101 901:0.00019551009 1801:0.00019551009 2115:0.00019551009 2204:0.00019551009 2306:0.00019551009 2401:0.00019551009 2501:0.00019551009 2602:0.00019551009 2700:0.00019551009 #
-10 3:0.010937197 4:-0.02426862 11:-0.00030219916 12:-0.00030219916 13:-0.00030219916 14:-0.00030219916 15:-0.00030219916 16:-0.00030219916 18:-0.00030219916 19:-0.00030219916 28:0.14958858 29:0.18242554 30:0.029313318 31:-0.00030219916 32:-0.00030219916 33:0.97096592 901:0.00030219916 1801:0.00030219916 2110:0.00030219916 2201:0.00030219916 2501:0.00030219916 2602:0.00030219916 2701:0.00030219916 #
7.5 3:0.0072721369 4:-0.018557757 11:-0.00021609117 12:-0.00021609117 13:-0.00021609117 14:-0.00021609117 15:-0.00021609117 16:-0.00021609117 18:-0.00021609117 19:-0.00021609117 28:0.53955805 29:0.65799761 30:0.021609116 31:-0.00021609117 32:-0.00021609117 33:0.52445328 901:0.00021609117 1801:0.00021609117 2106:0.00021609117 2201:0.00021609117 2501:0.00021609117 2602:0.00021609117 2701:0.00021609117 #
7.5 3:0.0059681423 4:-0.019021615 11:0.00019961465 12:-0.00019961465 13:-0.00019961465 14:-0.00019961465 15:-0.00019961465 16:-0.00019961465 18:-0.00019961465 19:-0.00019961465 28:0.027912116 29:0.032838605 30:0.019961465 31:0.00019961465 32:-0.00019961465 33:0.99867207 901:0.00019961465 1800:0.00019961465 2123:0.00019961465 2204:0.00019961465 2315:0.00019961465 2404:0.00019961465 2499:0.00019961465 2602:0.00019961465 2702:0.00019961465 #
-10 3:0.0081063723 4:-0.030296359 11:-0.00030789367 12:-0.00030789367 13:-0.00030789367 14:-0.00030789367 15:-0.00030789367 16:-0.00030789367 18:-0.00030789367 19:-0.00030789367 28:0.15464883 29:0.18859719 30:0.0092368098 31:0.00030789367 32:-0.00030789367 33:0.96924925 901:0.00030789367 1800:0.00030789367 2123:0.00030789367 2204:0.00030789367 2318:0.00030789367 2405:0.00030789367 2501:0.00030789367 2601:0.00030789367 2702:0.00030789367 #
7.5 3:0.0085127 4:-0.017644469 11:-0.00020081276 12:-0.00020081276 13:-0.00020081276 14:-0.00020081276 15:-0.00020081276 16:-0.00020081276 18:-0.00020081276 19:-0.00020081276 28:0.028441112 29:0.033459421 30:0.00060243829 31:-0.00020081276 32:-0.00020081276 33:0.99884272 900:0.00020081276 1801:0.00020081276 2124:0.00020081276 2199:0.00020081276 2500:0.00020081276 2602:0.00020081276 2699:0.00020081276 #
-10 3:0.012144537 4:-0.037545029 11:-0.00030852619 12:-0.00030852619 13:-0.00030852619 14:-0.00030852619 15:-0.00030852619 16:-0.00030852619 18:-0.00030852619 19:-0.00030852619 28:0.15272047 29:0.18624492 30:0.010798417 31:-0.00030852619 32:-0.00030852619 33:0.96969783 1800:0.00030852619 2114:0.00030852619 2203:0.00030852619 2315:0.00030852619 2404:0.00030852619 2499:0.00030852619 2602:0.00030852619 2700:0.00030852619 #
7.5 3:0.0064225197 4:-0.019319655 11:-0.00021438251 12:-0.00021438251 13:-0.00021438251 14:-0.00021438251 15:-0.00021438251 16:-0.00021438251 18:-0.00021438251 19:-0.00021438251 28:0.53441274 29:0.65172285 30:0.012434185 31:-0.00021438251 32:-0.00021438251 33:0.53767133 1800:0.00021438251 2115:0.00021438251 2204:0.00021438251 2324:0.00021438251 2399:0.00021438251 2501:0.00021438251 2599:0.00021438251 2699:0.00021438251 #
7.5 3:0.0074508768 4:-0.024284761 11:-0.00019934254 12:-0.00019934254 13:-0.00019934254 14:-0.00019934254 15:-0.00019934254 16:-0.00019934254 18:-0.00019934254 19:-0.00019934254 28:0.028384384 29:0.033393864 30:0.0043855361 31:-0.00019934254 32:-0.00019934254 33:0.9987061 901:0.00019934254 1800:0.00019934254 2115:0.00019934254 2204:0.00019934254 2323:0.00019934254 2404:0.00019934254 2499:0.00019934254 2602:0.00019934254 2699:0.00019934254 #
-10 3:0.0085989796 4:-0.017122449 11:-0.00022248752 12:-0.00022248752 13:-0.00022248752 14:-0.00022248752 15:-0.00022248752 16:-0.00022248752 18:-0.00022248752 19:-0.00022248752 28:0.15672021 29:0.18437763 30:0.0093444753 31:-0.00022248752 32:-0.00022248752 33:0.97004557 900:0.00022248752 1800:0.00022248752 2106:0.00022248752 2201:0.00022248752 2501:0.00022248752 2600:0.00022248752 2701:0.00022248752 #
7.5 3:0.00820312 4:-0.014935889 11:-0.00020180273 12:-0.00020180273 13:-0.00020180273 14:-0.00020180273 15:-0.00020180273 16:-0.00020180273 18:-0.00020180273 19:-0.00020180273 28:0.52065104 29:0.63494003 30:0.19433603 31:-0.00020180273 32:-0.00020180273 33:0.53639168 901:0.00020180273 1800:0.00020180273 2103:0.00020180273 2205:0.00020180273 2300:0.00020180273 2401:0.00020180273 2504:0.00020180273 2602:0.00020180273 2699:0.00020180273 #
7.5 3:0.010733943 4:-0.020936886 11:-0.00027313054 12:-0.00027313054 13:-0.00027313054 14:-0.00027313054 15:-0.00027313054 16:-0.00027313054 18:-0.00027313054 19:-0.00027313054 28:0.036858965 29:0.044949092 30:0.0049163494 31:-0.00027313054 32:-0.00027313054 33:0.99801898 901:0.00027313054 1799:0.00027313054 2115:0.00027313054 2204:0.00027313054 2323:0.00027313054 2404:0.00027313054 2499:0.00027313054 2602:0.00027313054 2700:0.00027313054 #
7.5 3:0.0075691678 4:-0.014767063 11:-0.00019616685 12:-0.00019616685 13:-0.00019616685 14:-0.00019616685 15:-0.00019616685 16:-0.00019616685 18:-0.00019616685 19:-0.00019616685 28:0.028532468 29:0.033568069 30:0.0043156706 31:0.00019616685 32:-0.00019616685 33:0.99888158 1801:0.00019616685 2115:0.00019616685 2204:0.00019616685 2305:0.00019616685 2405:0.00019616685 2500:0.00019616685 2601:0.00019616685 2699:0.00019616685 #
-10 3:0.0089664161 4:-0.018799527 11:-0.00021415917 12:-0.00021415917 13:-0.00021415917 14:-0.00021415917 15:-0.00021415917 16:-0.00021415917 18:-0.00021415917 19:-0.00021415917 28:0.15922092 29:0.18731861 30:0.0053539793 31:-0.00021415917 32:-0.00021415917 33:0.96907026 900:0.00021415917 1801:0.00021415917 2115:0.00021415917 2204:0.00021415917 2500:0.00021415917 2600:0.00021415917 2699:0.00021415917 #
7.5 3:0.0057711224 4:-0.015338664 11:-0.00016006811 12:-0.00016006811 13:-0.00016006811 14:-0.00016006811 15:-0.00016006811 16:-0.00016006811 18:-0.00016006811 19:-0.00016006811 28:0.52694422 29:0.64261425 30:0.10404427 31:-0.00016006811 32:-0.00016006811 33:0.54615241 900:0.00016006811 1801:0.00016006811 2115:0.00016006811 2204:0.00016006811 2303:0.00016006811 2405:0.00016006811 2501:0.00016006811 2600:0.00016006811 2700:0.00016006811 #
-10 3:0.009910115 4:-0.031580292 11:-0.00033136189 12:-0.00033136189 13:-0.00033136189 14:-0.00033136189 15:-0.00033136189 16:-0.00033136189 18:-0.00033136189 19:-0.00033136189 28:0.15176375 29:0.18507887 30:0.016568094 31:-0.00033136189 32:-0.00033136189 33:0.97022766 900:0.00033136189 1801:0.00033136189 2121:0.00033136189 2204:0.00033136189 2500:0.00033136189 2602:0.00033136189 2699:0.00033136189 #
7.5 3:0.0075359065 4:-0.024520272 11:-0.00020025668 12:-0.00020025668 13:-0.00020025668 14:-0.00020025668 15:-0.00020025668 16:-0.00020025668 18:-0.00020025668 19:-0.00020025668 28:0.02853257 29:0.033567023 30:0.0062079569 31:-0.00020025668 32:-0.00020025668 33:0.99868006 900:0.00020025668 1800:0.00020025668 2106:0.00020025668 2201:0.00020025668 2315:0.00020025668 2404:0.00020025668 2500:0.00020025668 2600:0.00020025668 2700:0.00020025668 #
7.5 3:0.0083301859 4:-0.01422363 11:-0.00019989396 12:0.00019989396 13:-0.00019989396 14:-0.00019989396 15:-0.00019989396 16:-0.00019989396 18:0.00019989396 19:-0.00019989396 28:0.028504878 29:0.03353421 30:0.0069962884 31:-0.00019989396 32:-0.00019989396 33:0.99887013 901:0.00019989396 1800:0.00019989396 2106:0.00019989396 2201:0.00019989396 2321:0.00019989396 2404:0.00019989396 2500:0.00019989396 2602:0.00019989396 2700:0.00019989396 #
-10 3:0.011214926 4:-0.038951367 11:0.00032924738 12:-0.00032924738 13:-0.00032924738 14:-0.00032924738 15:-0.00032924738 16:-0.00032924738 18:-0.00032924738 19:-0.00032924738 28:0.14388111 29:0.17546581 30:0.039509688 31:-0.00032924738 32:-0.00032924738 33:0.97226751 901:0.00032924738 1800:0.00032924738 2101:0.00032924738 2201:0.00032924738 2500:0.00032924738 2602:0.00032924738 2702:0.00032924738 #
7.5 3:0.0035256001 4:-0.011358141 11:-0.00011630534 12:0.00011630534 13:-0.00011630534 14:-0.00011630534 15:-0.00011630534 16:-0.00011630534 18:-0.00011630534 19:-0.00011630534 28:0.54016387 29:0.63548654 30:0.034891602 31:-0.00011630534 32:-0.00011630534 33:0.55047315 901:0.00011630534 1799:0.00011630534 2119:0.00011630534 2204:0.00011630534 2323:0.00011630534 2404:0.00011630534 2501:0.00011630534 2602:0.00011630534 2702:0.00011630534 #
-10 3:0.0081444001 4:-0.019637436 11:-0.00024293576 12:-0.00024293576 13:-0.00024293576 14:-0.00024293576 15:-0.00024293576 16:-0.00024293576 18:0.00024293576 19:-0.00024293576 28:0.1506469 29:0.17723136 30:0.014576145 31:-0.00024293576 32:-0.00024293576 33:0.97222888 899:0.00024293576 1801:0.00024293576 2123:0.00024293576 2204:0.00024293576 2299:0.00024293576 2402:0.00024293576 2501:0.00024293576 2602:0.00024293576 2702:0.00024293576 #
7.5 3:0.0081843352 4:-0.014811452 11:-0.00020033383 12:-0.00020033383 13:-0.00020033383 14:-0.00020033383 15:-0.00020033383 16:-0.00020033383 18:-0.00020033383 19:0.00020033383 28:0.028573614 29:0.033616018 30:0.006010015 31:0.00020033383 32:-0.00020033383 33:0.99886447 901:0.00020033383 1800:0.00020033383 2115:0.00020033383 2204:0.00020033383 2321:0.00020033383 2404:0.00020033383 2504:0.00020033383 2602:0.00020033383 2700:0.00020033383 #
7.5 3:0.0086269928 4:-0.018880121 11:-0.00023927557 12:-0.00023927557 13:-0.00023927557 14:-0.00023927557 15:-0.00023927557 16:-0.00023927557 18:-0.00023927557 19:-0.00023927557 28:0.038312804 29:0.045074731 30:0.0052640624 31:-0.00023927557 32:-0.00023927557 33:0.99801838 901:0.00023927557 1800:0.00023927557 2123:0.00023927557 2204:0.00023927557 2322:0.00023927557 2402:0.00023927557 2500:0.00023927557 2602:0.00023927557 2699:0.00023927557 #
7.5 3:0.0073557529 4:-0.015928665 11:-0.00020186853 12:-0.00020186853 13:-0.00020186853 14:-0.00020186853 15:-0.00020186853 16:-0.00020186853 18:-0.00020186853 19:-0.00020186853 28:0.028772322 29:0.033849318 30:0.0050467136 31:-0.00020186853 32:-0.00020186853 33:0.99884552 899:0.00020186853 1801:0.00020186853 2106:0.00020186853 2201:0.00020186853 2500:0.00020186853 2602:0.00020186853 2699:0.00020186853 #
7.5 3:0.0074777091 4:-0.024041194 11:-0.00025159901 12:-0.00025159901 13:-0.00025159901 14:-0.00025159901 15:-0.00025159901 16:-0.00025159901 18:-0.00025159901 19:-0.00025159901 28:0.52145153 29:0.63591647 30:0.0052835792 31:-0.00025159901 32:-0.00025159901 33:0.56836218 901:0.00025159901 1800:0.00025159901 2106:0.00025159901 2201:0.00025159901 2308:0.00025159901 2403:0.00025159901 2501:0.00025159901 2601:0.00025159901 2699:0.00025159901 #
-10 3:0.0069635217 4:-0.018907556 11:-0.00019407812 12:-0.00019407812 13:-0.00019407812 14:-0.00019407812 15:-0.00019407812 16:-0.00019407812 18:-0.00019407812 19:-0.00019407812 28:0.15047266 29:0.17702642 30:0.013585469 31:-0.00019407812 32:-0.00019407812 33:0.9723314 1801:0.00019407812 2115:0.00019407812 2204:0.00019407812 2323:0.00019407812 2404:0.00019407812 2499:0.00019407812 2602:0.00019407812 2699:0.00019407812 #
7.5 3:0.0090890322 4:-0.019350404 11:-0.00020588997 12:-0.00020588997 13:-0.00020588997 14:-0.00020588997 15:-0.00020588997 16:-0.00020588997 18:-0.00020588997 19:-0.00020588997 28:0.028847244 29:0.033938903 30:0.0035001296 31:-0.00020588997 32:-0.00020588997 33:0.99877226 1800:0.00020588997 2115:0.00020588997 2204:0.00020588997 2499:0.00020588997 2601:0.00020588997 2700:0.00020588997 #
-10 3:0.0075162672 4:-0.01686636 11:-0.00019657337 12:0.00019657337 13:-0.00019657337 14:-0.00019657337 15:-0.00019657337 16:-0.00019657337 18:-0.00019657337 19:-0.00019657337 28:0.1426356 29:0.16780682 30:0.06880068 31:0.00019657337 32:-0.00019657337 33:0.97284156 901:0.00019657337 1800:0.00019657337 2115:0.00019657337 2204:0.00019657337 2320:0.00019657337 2405:0.00019657337 2501:0.00019657337 2602:0.00019657337 2700:0.00019657337 #
7.5 3:0.0064852592 4:-0.021043176 11:-0.00017180741 12:-0.00017180741 13:-0.00017180741 14:-0.00017180741 15:-0.00017180741 16:-0.00017180741 18:-0.00017180741 19:-0.00017180741 28:0.51731211 29:0.6308682 30:0.025771109 31:0.00017180741 32:-0.00017180741 33:0.57727289 901:0.00017180741 1800:0.00017180741 2120:0.00017180741 2205:0.00017180741 2308:0.00017180741 2403:0.00017180741 2501:0.00017180741 2601:0.00017180741 2702:0.00017180741 #
-10 3:0.0095510734 4:-0.019803191 11:0.00023867075 12:-0.00023867075 13:-0.00023867075 14:-0.00023867075 15:0.00023867075 16:-0.00023867075 18:0.00023867075 19:-0.00023867075 28:0.14199001 29:0.16704805 30:0.047734149 31:-0.00023867075 32:-0.00023867075 33:0.97425401 901:0.00023867075 1800:0.00023867075 2115:0.00023867075 2204:0.00023867075 2501:0.00023867075 2602:0.00023867075 2701:0.00023867075 #
7.5 3:0.0059375833 4:-0.018864589 11:-0.00019805638 12:-0.00019805638 13:-0.00019805638 14:-0.00019805638 15:-0.00019805638 16:-0.00019805638 18:-0.00019805638 19:-0.00019805638 28:0.028922174 29:0.034026086 30:0.0039611277 31:-0.00019805638 32:-0.00019805638 33:0.99879837 900:0.00019805638 1801:0.00019805638 2121:0.00019805638 2204:0.00019805638 2323:0.00019805638 2404:0.00019805638 2500:0.00019805638 2601:0.00019805638 2702:0.00019805638 #
7.5 3:0.0069756773 4:-0.024308376 11:-0.00020552854 12:0.00020552854 13:-0.00020552854 14:-0.00020552854 15:-0.00020552854 16:-0.00020552854 18:-0.00020552854 19:-0.00020552854 28:0.029000077 29:0.03411774 30:0.0051382137 31:-0.00020552854 32:-0.00020552854 33:0.99866319 901:0.00020552854 1800:0.00020552854 2115:0.00020552854 2204:0.00020552854 2321:0.00020552854 2404:0.00020552854 2499:0.00020552854 2601:0.00020552854 2699:0.00020552854 #
7.5 3:0.0071002301 4:-0.019428218 11:-0.00019967681 12:-0.00019967681 13:-0.00019967681 14:-0.00019967681 15:-0.00019967681 16:-0.00019967681 18:-0.00019967681 19:-0.00019967681 28:0.038723327 29:0.045556266 30:0.0047922437 31:-0.00019967681 32:-0.00019967681 33:0.99798477 899:0.00019967681 1801:0.00019967681 2115:0.00019967681 2204:0.00019967681 2310:0.00019967681 2401:0.00019967681 2504:0.00019967681 2601:0.00019967681 2700:0.00019967681 #
7.5 3:0.0048701903 4:-0.010460705 11:-0.00012889912 12:-0.00012889912 13:-0.00012889912 14:-0.00012889912 15:-0.00012889912 16:-0.00012889912 18:-0.00012889912 19:-0.00012889912 28:0.52536827 29:0.61808026 30:0.020623859 31:0.00012889912 32:-0.00012889912 33:0.58429968 1800:0.00012889912 2110:0.00012889912 2201:0.00012889912 2322:0.00012889912 2402:0.00012889912 2500:0.00012889912 2602:0.00012889912 2700:0.00012889912 #
-10 3:0.0079456391 4:-0.025707331 11:-0.0002104342 12:-0.0002104342 13:-0.0002104342 14:0.0002104342 15:-0.0002104342 16:-0.0002104342 18:-0.0002104342 19:-0.0002104342 28:0.14388438 29:0.16927537 30:0.025252104 31:-0.0002104342 32:-0.0002104342 33:0.97431034 901:0.0002104342 1800:0.0002104342 2123:0.0002104342 2204:0.0002104342 2320:0.0002104342 2405:0.0002104342 2501:0.0002104342 2602:0.0002104342 2702:0.0002104342 #
7.5 3:0.0086443685 4:-0.017502656 11:-0.00021219287 12:-0.00021219287 13:-0.00021219287 14:-0.00021219287 15:-0.00021219287 16:-0.00021219287 18:-0.00021219287 19:-0.00021219287 28:0.029095886 29:0.034230955 30:0.0038194717 31:0.00021219287 32:-0.00021219287 33:0.99879187 901:0.00021219287 1801:0.00021219287 2115:0.00021219287 2204:0.00021219287 2306:0.00021219287 2401:0.00021219287 2499:0.00021219287 2602:0.00021219287 2700:0.00021219287 #
-10 3:0.011903766 4:-0.02208495 11:-0.0002930281 12:-0.0002930281 13:-0.0002930281 14:-0.0002930281 15:-0.0002930281 16:-0.0002930281 18:-0.0002930281 19:-0.0002930281 28:0.14346071 29:0.17495243 30:0.0049814777 31:-0.0002930281 32:-0.0002930281 33:0.97373241 901:0.0002930281 1801:0.0002930281 2115:0.0002930281 2204:0.0002930281 2306:0.0002930281 2401:0.0002930281 2504:0.0002930281 2601:0.0002930281 2699:0.0002930281 #
7.5 3:0.0067922999 4:-0.022043889 11:-0.0001800124 12:-0.0001800124 13:0.0001800124 14:-0.0001800124 15:-0.0001800124 16:-0.0001800124 18:-0.0001800124 19:-0.0001800124 28:0.50961512 29:0.62148201 30:0.014400992 31:0.0001800124 32:-0.0001800124 33:0.59440094 901:0.0001800124 1799:0.0001800124 2110:0.0001800124 2201:0.0001800124 2320:0.0001800124 2405:0.0001800124 2501:0.0001800124 2601:0.0001800124 2702:0.0001800124 #
-10 3:0.010815935 4:-0.023953462 11:-0.00030013092 12:-0.00030013092 13:-0.00030013092 14:-0.00030013092 15:-0.00030013092 16:-0.00030013092 18:-0.00030013092 19:-0.00030013092 28:0.14526336 29:0.17714928 30:0.0069030114 31:-0.00030013092 32:-0.00030013092 33:0.97302443 901:0.00030013092 1800:0.00030013092 2111:0.00030013092 2200:0.00030013092 2313:0.00030013092 2400:0.00030013092 2501:0.00030013092 2602:0.00030013092 2700:0.00030013092 #
7.5 3:0.010324704 4:-0.033354253 11:-0.00027397409 12:-0.00027397409 13:-0.00027397409 14:-0.00027397409 15:-0.00027397409 16:-0.00027397409 18:-0.00027397409 19:-0.00027397409 28:0.028479606 29:0.034731694 30:0.0060274298 31:-0.00027397409 32:-0.00027397409 33:0.99836153 900:0.00027397409 1801:0.00027397409 2115:0.00027397409 2204:0.00027397409 2323:0.00027397409 2404:0.00027397409 2504:0.00027397409 2601:0.00027397409 2699:0.00027397409 #
7.5 3:0.0079526529 4:-0.016354855 11:-0.00019845246 12:-0.00019845246 13:-0.00019845246 14:-0.00019845246 15:-0.00019845246 16:-0.00019845246 18:-0.00019845246 19:-0.00019845246 28:0.029148698 29:0.034292586 30:0.0043659541 31:-0.00019845246 32:-0.00019845246 33:0.99881124 900:0.00019845246 1800:0.00019845246 2106:0.00019845246 2201:0.00019845246 2500:0.00019845246 2601:0.00019845246 2700:0.00019845246 #
7.5 3:0.0098341275 4:-0.022777073 11:-0.00028115543 12:-0.00028115543 13:-0.00028115543 14:-0.00028115543 15:-0.00028115543 16:-0.00028115543 18:-0.00028115543 19:-0.00028115543 28:0.038484555 29:0.046933275 30:0.0073100408 31:0.00028115543 32:-0.00028115543 33:0.99782056 901:0.00028115543 1800:0.00028115543 2106:0.00028115543 2201:0.00028115543 2500:0.00028115543 2601:0.00028115543 2699:0.00028115543 #
7.5 3:0.011631961 4:-0.024313554 11:-0.00027722854 12:-0.00027722854 13:-0.00027722854 14:-0.00027722854 15:-0.00027722854 16:-0.00027722854 18:-0.00027722854 19:-0.00027722854 28:0.028390974 29:0.034623072 30:0.010534684 31:-0.00027722854 32:-0.00027722854 33:0.99857712 901:0.00027722854 1799:0.00027722854 2115:0.00027722854 2204:0.00027722854 2321:0.00027722854 2404:0.00027722854 2499:0.00027722854 2602:0.00027722854 2701:0.00027722854 #
-10 3:0.0075751054 4:-0.019384349 11:-0.0002001533 12:-0.0002001533 13:-0.0002001533 14:-0.0002001533 15:-0.0002001533 16:-0.0002001533 18:-0.0002001533 19:-0.0002001533 28:0.1419047 29:0.16694587 30:0.016012264 31:-0.0002001533 32:-0.0002001533 33:0.97534704 1800:0.0002001533 2115:0.0002001533 2204:0.0002001533 2323:0.0002001533 2404:0.0002001533 2499:0.0002001533 2601:0.0002001533 2702:0.0002001533 #
7.5 3:0.0066177757 4:-0.023659542 11:0.00020199608 12:-0.00020199608 13:-0.00020199608 14:-0.00020199608 15:-0.00020199608 16:-0.00020199608 18:-0.00020199608 19:-0.00020199608 28:0.029188434 29:0.034339335 30:0.005049902 31:0.00020199608 32:-0.00020199608 33:0.99866861 901:0.00020199608 1801:0.00020199608 2115:0.00020199608 2204:0.00020199608 2310:0.00020199608 2401:0.00020199608 2499:0.00020199608 2602:0.00020199608 2699:0.00020199608 #
7.5 3:0.0068036974 4:-0.016512288 11:-0.00020560149 12:-0.00020560149 13:-0.00020560149 14:-0.00020560149 15:-0.00020560149 16:-0.00020560149 18:-0.00020560149 19:-0.00020560149 28:0.029320829 29:0.034495819 30:0.0022616163 31:-0.00020560149 32:-0.00020560149 33:0.99881202 899:0.00020560149 1800:0.00020560149 2115:0.00020560149 2204:0.00020560149 2324:0.00020560149 2399:0.00020560149 2501:0.00020560149 2602:0.00020560149 2700:0.00020560149 #
-10 3:0.0088919699 4:-0.023597693 11:-0.00024621544 12:-0.00024621544 13:-0.00024621544 14:-0.00024621544 15:-0.00024621544 16:-0.00024621544 18:-0.00024621544 19:-0.00024621544 28:0.11000659 29:0.12942068 30:0.0086175399 31:0.00024621544 32:-0.00024621544 33:0.9851079 901:0.00024621544 1801:0.00024621544 2115:0.00024621544 2204:0.00024621544 2501:0.00024621544 2602:0.00024621544 2700:0.00024621544 #
-10 3:0.013727707 4:-0.028795049 11:-0.00032853251 12:-0.00032853251 13:0.00032853251 14:-0.00032853251 15:-0.00032853251 16:-0.00032853251 18:-0.00032853251 19:-0.00032853251 28:0.21715999 29:0.26483005 30:0.0082133133 31:-0.00032853251 32:-0.00032853251 33:0.93894595 901:0.00032853251 1799:0.00032853251 2123:0.00032853251 2204:0.00032853251 2315:0.00032853251 2404:0.00032853251 2499:0.00032853251 2602:0.00032853251 2701:0.00032853251 #
-10 3:0.0065507796 4:-0.022901451 11:-0.00019416731 12:-0.00019416731 13:-0.00019416731 14:-0.00019416731 15:-0.00019416731 16:-0.00019416731 18:-0.00019416731 19:-0.00019416731 28:0.13195223 29:0.15523872 30:0.025241751 31:0.00019416731 32:-0.00019416731 33:0.97840911 900:0.00019416731 1801:0.00019416731 2122:0.00019416731 2202:0.00019416731 2500:0.00019416731 2602:0.00019416731 2702:0.00019416731 #
7.5 3:0.0048700655 4:-0.016255176 11:-0.00014495863 12:-0.00014495863 13:-0.00014495863 14:-0.00014495863 15:-0.00014495863 16:-0.00014495863 18:-0.00014495863 19:-0.00014495863 28:0.50612307 29:0.59543931 30:0.021743793 31:-0.00014495863 32:-0.00014495863 33:0.62332207 901:0.00014495863 1801:0.00014495863 2106:0.00014495863 2201:0.00014495863 2501:0.00014495863 2601:0.00014495863 2702:0.00014495863 #
-10 3:0.0080117788 4:-0.020848025 11:-0.00022156414 12:-0.00022156414 13:-0.00022156414 14:-0.00022156414 15:-0.00022156414 16:-0.00022156414 18:-0.00022156414 19:-0.00022156414 28:0.13596505 29:0.15995823 30:0.026587697 31:-0.00022156414 32:-0.00022156414 33:0.97709787 901:0.00022156414 1801:0.00022156414 2114:0.00022156414 2203:0.00022156414 2325:0.00022156414 2403:0.00022156414 2504:0.00022156414 2602:0.00022156414 2700:0.00022156414 #
7.5 3:0.0091183959 4:-0.026445823 11:-0.00021516295 12:-0.00021516295 13:-0.00021516295 14:-0.00021516295 15:-0.00021516295 16:-0.00021516295 18:-0.00021516295 19:-0.00021516295 28:0.029204067 29:0.03435722 30:0.0062397253 31:-0.00021516295 32:-0.00021516295 33:0.99857122 900:0.00021516295 1801:0.00021516295 2115:0.00021516295 2204:0.00021516295 2499:0.00021516295 2602:0.00021516295 2699:0.00021516295 #
-10 3:0.006657809 4:-0.016824659 11:-0.00020708483 12:-0.00020708483 13:-0.00020708483 14:-0.00020708483 15:-0.00020708483 16:-0.00020708483 18:-0.00020708483 19:-0.00020708483 28:0.14352842 29:0.16885696 30:0.0045558661 31:0.00020708483 32:0.00020708483 33:0.97495538 899:0.00020708483 1801:0.00020708483 2115:0.00020708483 2204:0.00020708483 2323:0.00020708483 2404:0.00020708483 2500:0.00020708483 2601:0.00020708483 2699:0.00020708483 #
7.5 3:0.0083416849 4:-0.016274204 11:-0.00021618784 12:-0.00021618784 13:-0.00021618784 14:-0.00021618784 15:-0.00021618784 16:-0.00021618784 18:-0.00021618784 19:-0.00021618784 28:0.029159416 29:0.034304686 30:0.0077827619 31:0.00021618784 32:-0.00021618784 33:0.99878782 1800:0.00021618784 2115:0.00021618784 2204:0.00021618784 2324:0.00021618784 2399:0.00021618784 2500:0.00021618784 2601:0.00021618784 2699:0.00021618784 #
-10 3:0.009340358 4:-0.019344939 11:-0.00020722761 12:-0.00020722761 13:-0.00020722761 14:-0.00020722761 15:-0.00020722761 16:-0.00020722761 18:-0.00020722761 19:-0.00020722761 28:0.12620783 29:0.14848065 30:0.072529659 31:-0.00020722761 32:-0.00020722761 33:0.97790706 900:0.00020722761 1800:0.00020722761 2115:0.00020722761 2204:0.00020722761 2303:0.00020722761 2405:0.00020722761 2504:0.00020722761 2602:0.00020722761 2699:0.00020722761 #
7.5 3:0.00640749 4:-0.020705884 11:-0.00016936571 12:0.00016936571 13:-0.00016936571 14:-0.00016936571 15:-0.00016936571 16:-0.00016936571 18:0.00016936571 19:-0.00016936571 28:0.48924673 29:0.59664154 30:0.012702428 31:-0.00016936571 32:-0.00016936571 33:0.63562953 1800:0.00016936571 2100:0.00016936571 2201:0.00016936571 2301:0.00016936571 2401:0.00016936571 2501:0.00016936571 2601:0.00016936571 2702:0.00016936571 #
-10 3:0.0053366874 4:-0.016764836 11:-0.00020870367 12:-0.00020870367 13:-0.00020870367 14:-0.00020870367 15:-0.00020870367 16:-0.00020870367 18:-0.00020870367 19:-0.00020870367 28:0.14264269 29:0.16781445 30:0.005008888 31:0.00020870367 32:-0.00020870367 33:0.97527224 900:0.00020870367 1799:0.00020870367 2119:0.00020870367 2204:0.00020870367 2322:0.00020870367 2402:0.00020870367 2501:0.00020870367 2602:0.00020870367 2701:0.00020870367 #
7.5 3:0.0084814364 4:-0.015422151 11:-0.00020851918 12:-0.00020851918 13:-0.00020851918 14:-0.00020851918 15:-0.00020851918 16:-0.00020851918 18:-0.00020851918 19:-0.00020851918 28:0.029317796 29:0.034491159 30:0.0050044605 31:-0.00020851918 32:-0.00020851918 33:0.99880689 901:0.00020851918 1799:0.00020851918 2123:0.00020851918 2204:0.00020851918 2305:0.00020851918 2405:0.00020851918 2500:0.00020851918 2602:0.00020851918 2699:0.00020851918 #
-10 3:0.0094613694 4:-0.03070841 11:-0.00025083352 12:-0.00025083352 13:-0.00025083352 14:-0.00025083352 15:-0.00025083352 16:-0.00025083352 18:0.00025083352 19:-0.00025083352 28:0.12522613 29:0.14732455 30:0.060200039 31:-0.00025083352 32:-0.00025083352 33:0.97875232 901:0.00025083352 1800:0.00025083352 2110:0.00025083352 2201:0.00025083352 2300:0.00025083352 2401:0.00025083352 2500:0.00025083352 2602:0.00025083352 2702:0.00025083352 #
7.5 3:0.0053072474 4:-0.011508107 11:-0.00014783865 12:-0.00014783865 13:-0.00014783865 14:-0.00014783865 15:-0.00014783865 16:-0.00014783865 18:-0.00014783865 19:-0.00014783865 28:0.49816155 29:0.58607233 30:0.022175798 31:-0.00014783865 32:-0.00014783865 33:0.63851511 901:0.00014783865 1800:0.00014783865 2122:0.00014783865 2202:0.00014783865 2501:0.00014783865 2602:0.00014783865 2702:0.00014783865 #
7.5 3:0.0081876833 4:-0.016186772 11:0.00021014074 12:-0.00021014074 13:-0.00021014074 14:-0.00021014074 15:-0.00021014074 16:-0.00021014074 18:-0.00021014074 19:-0.00021014074 28:0.029346155 29:0.034524024 30:0.0042028148 31:-0.00021014074 32:-0.00021014074 33:0.99879897 901:0.00021014074 1800:0.00021014074 2115:0.00021014074 2204:0.00021014074 2307:0.00021014074 2405:0.00021014074 2499:0.00021014074 2601:0.00021014074 2701:0.00021014074 #
7.5 3:0.010211698 4:-0.022348238 11:-0.00028322844 12:-0.00028322844 13:-0.00028322844 14:-0.00028322844 15:-0.00028322844 16:-0.00028322844 18:-0.00028322844 19:-0.00028322844 28:0.036536466 29:0.044557497 30:0.15860792 31:-0.00028322844 32:-0.00028322844 33:0.98535174 901:0.00028322844 1801:0.00028322844 2104:0.00028322844 2202:0.00028322844 2299:0.00028322844 2402:0.00028322844 2500:0.00028322844 2602:0.00028322844 2700:0.00028322844 #
7.5 3:0.014454198 4:-0.026254825 11:-0.00035539869 12:0.00035539869 13:-0.00035539869 14:-0.00035539869 15:-0.00035539869 16:-0.00035539869 18:-0.00035539869 19:-0.00035539869 28:0.48340619 29:0.58952111 30:0.1066196 31:-0.00035539869 32:-0.00035539869 33:0.63758522 901:0.00035539869 1799:0.00035539869 2105:0.00035539869 2205:0.00035539869 2317:0.00035539869 2405:0.00035539869 2501:0.00035539869 2602:0.00035539869 2701:0.00035539869 #
-10 3:0.0075322636 4:-0.026267124 11:-0.00022180089 12:0.00022180089 13:-0.00022180089 14:-0.00022180089 15:-0.00022180089 16:-0.00022180089 18:-0.00022180089 19:-0.00022180089 28:0.13047215 29:0.15349731 30:0.038371556 31:0.00022180089 32:-0.00022180089 33:0.97836375 901:0.00022180089 1799:0.00022180089 2115:0.00022180089 2204:0.00022180089 2323:0.00022180089 2404:0.00022180089 2501:0.00022180089 2601:0.00022180089 2702:0.00022180089 #
7.5 3:0.011583025 4:-0.024320213 11:0.00027746265 12:-0.00027746265 13:-0.00027746265 14:-0.00027746265 15:-0.00027746265 16:-0.00027746265 18:0.00027746265 19:-0.00027746265 28:0.028686862 29:0.034985263 30:0.006936566 31:0.00027746265 32:-0.00027746265 33:0.99858803 901:0.00027746265 1800:0.00027746265 2100:0.00027746265 2201:0.00027746265 2500:0.00027746265 2602:0.00027746265 2702:0.00027746265 #
-10 3:0.014494132 4:-0.034141075 11:-0.00041576731 12:-0.00041576731 13:-0.00041576731 14:-0.00041576731 15:-0.00041576731 16:-0.00041576731 18:-0.00041576731 19:-0.00041576731 28:0.12912901 29:0.15747602 30:0.0087311137 31:-0.00041576731 32:-0.00041576731 33:0.97830045 899:0.00041576731 1800:0.00041576731 2123:0.00041576731 2204:0.00041576731 2315:0.00041576731 2404:0.00041576731 2499:0.00041576731 2600:0.00041576731 2699:0.00041576731 #
7.5 3:0.011847526 4:-0.024822881 11:-0.00028282529 12:-0.00028282529 13:-0.00028282529 14:-0.00028282529 15:-0.00028282529 16:-0.00028282529 18:-0.00028282529 19:-0.00028282529 28:0.4829666 29:0.58898365 30:0.10605948 31:-0.00028282529 32:-0.00028282529 33:0.63861948 901:0.00028282529 1801:0.00028282529 2122:0.00028282529 2202:0.00028282529 2303:0.00028282529 2405:0.00028282529 2501:0.00028282529 2602:0.00028282529 2701:0.00028282529 #
7.5 3:0.0081866123 4:-0.017180426 11:-0.000195685 12:-0.000195685 13:-0.000195685 14:-0.000195685 15:-0.000195685 16:-0.000195685 18:-0.000195685 19:-0.000195685 28:0.029389931 29:0.034575582 30:0.0048921253 31:-0.000195685 32:-0.000195685 33:0.99877626 900:0.000195685 1800:0.000195685 2115:0.000195685 2204:0.000195685 2500:0.000195685 2601:0.000195685 2699:0.000195685 #
7.5 3:0.0070552481 4:-0.024003513 11:-0.00020442935 12:-0.00020442935 13:0.00020442935 14:-0.00020442935 15:-0.00020442935 16:-0.00020442935 18:-0.00020442935 19:-0.00020442935 28:0.029331524 29:0.034507673 30:0.0067461687 31:-0.00020442935 32:0.00020442935 33:0.99863738 899:0.00020442935 1800:0.00020442935 2106:0.00020442935 2201:0.00020442935 2323:0.00020442935 2404:0.00020442935 2500:0.00020442935 2602:0.00020442935 2701:0.00020442935 #
