SVM-light Version V6.02
3 # kernel type
3 # kernel parameter -d 
1 # kernel parameter -g 
1 # kernel parameter -s 
1 # kernel parameter -r 
empty# kernel parameter -u 
2702 # highest feature index 
10000 # number of training documents 
5078 # number of support vectors plus 1 
0 # threshold b, each following line is a SV (starting with alpha*y)
-100 3:0.0093820784 4:-0.019624775 11:-0.00022309227 12:-0.00022309227 13:-0.00022309227 14:-0.00022309227 15:-0.00022309227 16:-0.00022309227 18:-0.00022309227 19:-0.00022309227 28:0.064406738 29:0.075773291 30:0.0084775062 31:-0.00022309227 32:-0.00022309227 33:0.99476844 900:0.00022309227 1801:0.00022309227 2115:0.00022309227 2204:0.00022309227 2306:0.00022309227 2401:0.00022309227 2504:0.00022309227 2600:0.00022309227 2699:0.00022309227 #
75 3:0.0097421305 4:-0.019012287 11:-0.00024790302 12:-0.00024790302 13:-0.00024790302 14:-0.00024790302 15:-0.00024790302 16:-0.00024790302 18:-0.00024790302 19:-0.00024790302 28:0.06401848 29:0.075315416 30:0.0086766062 31:-0.00024790302 32:-0.00024790302 33:0.99483484 901:0.00024790302 1800:0.00024790302 2115:0.00024790302 2204:0.00024790302 2324:0.00024790302 2399:0.00024790302 2501:0.00024790302 2602:0.00024790302 2700:0.00024790302 #
75 3:0.010334134 4:-0.021908041 11:-0.00024882748 12:-0.00024882748 13:-0.00024882748 14:-0.00024882748 15:-0.00024882748 16:-0.00024882748 18:-0.00024882748 19:-0.00024882748 28:0.065444112 29:0.076992191 30:0.0067183417 31:-0.00024882748 32:-0.00024882748 33:0.9945634 901:0.00024882748 1800:0.00024882748 2106:0.00024882748 2201:0.00024882748 2500:0.00024882748 2602:0.00024882748 2699:0.00024882748 #
-100 3:0.010378963 4:-0.020395264 11:-0.00024040004 12:-0.00024040004 13:-0.00024040004 14:-0.00024040004 15:-0.00024040004 16:-0.00024040004 18:-0.00024040004 19:-0.00024040004 28:0.06585519 29:0.077476129 30:0.0060100011 31:0.00024040004 32:-0.00024040004 33:0.99453497 1801:0.00024040004 2105:0.00024040004 2205:0.00024040004 2500:0.00024040004 2601:0.00024040004 2699:0.00024040004 #
75 3:0.014175289 4:-0.045907933 11:-0.00037503327 12:-0.00037503327 13:-0.00037503327 14:-0.00037503327 15:-0.00037503327 16:-0.00037503327 18:-0.00037503327 19:-0.00037503327 28:0.21834436 29:0.26627362 30:0.0071256319 31:-0.00037503327 32:-0.00037503327 33:0.93758315 901:0.00037503327 1799:0.00037503327 2110:0.00037503327 2201:0.00037503327 2301:0.00037503327 2401:0.00037503327 2501:0.00037503327 2602:0.00037503327 2700:0.00037503327 #
-100 3:0.0087493164 4:-0.015930379 11:-0.00021523955 12:-0.00021523955 13:-0.00021523955 14:-0.00021523955 15:-0.00021523955 16:-0.00021523955 18:-0.00021523955 19:-0.00021523955 28:0.068611912 29:0.080719136 30:0.0053809886 31:0.00021523955 32:-0.00021523955 33:0.99419147 901:0.00021523955 1800:0.00021523955 2115:0.00021523955 2204:0.00021523955 2321:0.00021523955 2404:0.00021523955 2504:0.00021523955 2602:0.00021523955 2700:0.00021523955 #
75 3:0.007566419 4:-0.026433581 11:-0.00022334076 12:-0.00022334076 13:-0.00022334076 14:-0.00022334076 15:-0.00022334076 16:-0.00022334076 18:-0.00022334076 19:-0.00022334076 28:0.066312104 29:0.078015156 30:0.010050334 31:-0.00022334076 32:-0.00022334076 33:0.994313 900:0.00022334076 1801:0.00022334076 2124:0.00022334076 2199:0.00022334076 2315:0.00022334076 2404:0.00022334076 2500:0.00022334076 2602:0.00022334076 2700:0.00022334076 #
75 3:0.0081323618 4:-0.017193928 11:-0.00019508475 12:-0.00019508475 13:-0.00019508475 14:-0.00019508475 15:-0.00019508475 16:-0.00019508475 18:-0.00019508475 19:-0.00019508475 28:0.067594916 29:0.079524346 30:0.0042918646 31:-0.00019508475 32:-0.00019508475 33:0.99434698 900:0.00019508475 1801:0.00019508475 2106:0.00019508475 2201:0.00019508475 2315:0.00019508475 2404:0.00019508475 2501:0.00019508475 2600:0.00019508475 2699:0.00019508475 #
-100 3:0.0068901815 4:-0.017454196 11:-0.00021498885 12:-0.00021498885 13:-0.00021498885 14:-0.00021498885 15:-0.00021498885 16:-0.00021498885 18:-0.00021498885 19:-0.00021498885 28:0.070297055 29:0.082701907 30:0.0064496654 31:0.00021498885 32:-0.00021498885 33:0.99389338 901:0.00021498885 1799:0.00021498885 2115:0.00021498885 2204:0.00021498885 2310:0.00021498885 2401:0.00021498885 2499:0.00021498885 2602:0.00021498885 2700:0.00021498885 #
75 3:0.0086347936 4:-0.017900825 11:-0.00020033983 12:-0.00020033983 13:-0.00020033983 14:-0.00020033983 15:-0.00020033983 16:-0.00020033983 18:-0.00020033983 19:-0.00020033983 28:0.066606984 29:0.078360923 30:0.0048081558 31:0.00020033983 32:-0.00020033983 33:0.99448693 901:0.00020033983 1801:0.00020033983 2121:0.00020033983 2204:0.00020033983 2315:0.00020033983 2404:0.00020033983 2500:0.00020033983 2602:0.00020033983 2699:0.00020033983 #
-100 3:0.0091631832 4:-0.018620417 11:-0.00023924433 12:-0.00023924433 13:-0.00023924433 14:-0.00023924433 15:-0.00023924433 16:-0.00023924433 18:-0.00023924433 19:-0.00023924433 28:0.071940765 29:0.084635071 30:0.0050241309 31:-0.00023924433 32:-0.00023924433 33:0.99358165 899:0.00023924433 1801:0.00023924433 2115:0.00023924433 2204:0.00023924433 2501:0.00023924433 2600:0.00023924433 2699:0.00023924433 #
75 3:0.0085455487 4:-0.028592486 11:-0.00025504359 12:-0.00025504359 13:-0.00025504359 14:-0.00025504359 15:-0.00025504359 16:-0.00025504359 18:-0.00025504359 19:-0.00025504359 28:0.065372773 29:0.076908395 30:0.0076513081 31:0.00025504359 32:-0.00025504359 33:0.99441499 901:0.00025504359 1800:0.00025504359 2115:0.00025504359 2204:0.00025504359 2312:0.00025504359 2405:0.00025504359 2499:0.00025504359 2602:0.00025504359 2699:0.00025504359 #
-100 3:0.0076419367 4:-0.017816598 11:-0.00019740964 12:-0.00019740964 13:-0.00019740964 14:-0.00019740964 15:-0.00019740964 16:-0.00019740964 18:-0.00019740964 19:-0.00019740964 28:0.072228238 29:0.084974982 30:0.0043430123 31:-0.00019740964 32:-0.00019740964 33:0.99356276 901:0.00019740964 1800:0.00019740964 2106:0.00019740964 2201:0.00019740964 2320:0.00019740964 2405:0.00019740964 2501:0.00019740964 2602:0.00019740964 2699:0.00019740964 #
75 3:0.014021214 4:-0.025357431 11:-0.0003433424 12:-0.0003433424 13:-0.0003433424 14:-0.0003433424 15:-0.0003433424 16:-0.0003433424 18:-0.0003433424 19:-0.0003433424 28:0.23759294 29:0.28974664 30:0.0041201087 31:-0.0003433424 32:-0.0003433424 33:0.9266811 901:0.0003433424 1800:0.0003433424 2115:0.0003433424 2204:0.0003433424 2501:0.0003433424 2602:0.0003433424 2699:0.0003433424 #
-100 3:0.0083725303 4:-0.022274848 11:-0.00023250304 12:-0.00023250304 13:-0.00023250304 14:-0.00023250304 15:-0.00023250304 16:-0.00023250304 18:-0.00023250304 19:-0.00023250304 28:0.072113141 29:0.084838033 30:0.0046500606 31:-0.00023250304 32:-0.00023250304 33:0.99348545 900:0.00023250304 1801:0.00023250304 2115:0.00023250304 2204:0.00023250304 2504:0.00023250304 2600:0.00023250304 2700:0.00023250304 #
75 3:0.016615668 4:-0.034706298 11:-0.00039572874 12:-0.00039572874 13:-0.00039572874 14:-0.00039572874 15:-0.00039572874 16:-0.00039572874 18:-0.00039572874 19:-0.00039572874 28:0.33423248 29:0.40760061 30:0.011871862 31:-0.00039572874 32:-0.00039572874 33:0.84883815 901:0.00039572874 1801:0.00039572874 2118:0.00039572874 2205:0.00039572874 2500:0.00039572874 2602:0.00039572874 2702:0.00039572874 #
-100 3:0.0071402411 4:-0.024809334 11:-0.00020973604 12:-0.00020973604 13:-0.00020973604 14:-0.00020973604 15:-0.00020973604 16:-0.00020973604 18:-0.00020973604 19:-0.00020973604 28:0.076356508 29:0.089832045 30:0.0041947211 31:-0.00020973604 32:-0.00020973604 33:0.99268073 901:0.00020973604 1800:0.00020973604 2111:0.00020973604 2200:0.00020973604 2307:0.00020973604 2405:0.00020973604 2501:0.00020973604 2602:0.00020973604 2700:0.00020973604 #
75 3:0.0077161789 4:-0.026692078 11:-0.00022535148 12:-0.00022535148 13:0.00022535148 14:-0.00022535148 15:-0.00022535148 16:-0.00022535148 18:-0.00022535148 19:-0.00022535148 28:0.063988551 29:0.075280912 30:0.0058591384 31:-0.00022535148 32:-0.00022535148 33:0.99470145 901:0.00022535148 1801:0.00022535148 2123:0.00022535148 2204:0.00022535148 2314:0.00022535148 2403:0.00022535148 2501:0.00022535148 2601:0.00022535148 2700:0.00022535148 #
-100 3:0.0087663606 4:-0.02119169 11:-0.00022476471 12:-0.00022476471 13:-0.00022476471 14:-0.00022476471 15:-0.00022476471 16:-0.00022476471 18:-0.00022476471 19:-0.00022476471 28:0.074891597 29:0.088107765 30:0.0056191175 31:-0.00022476471 32:-0.00022476471 33:0.99301046 900:0.00022476471 1800:0.00022476471 2115:0.00022476471 2204:0.00022476471 2299:0.00022476471 2402:0.00022476471 2501:0.00022476471 2601:0.00022476471 2699:0.00022476471 #
75 3:0.0069457805 4:-0.017859681 11:-0.00019823755 12:-0.00019823755 13:-0.00019823755 14:-0.00019823755 15:-0.00019823755 16:-0.00019823755 18:-0.00019823755 19:-0.00019823755 28:0.066272795 29:0.077968813 30:0.003964751 31:-0.00019823755 32:-0.00019823755 33:0.9945578 901:0.00019823755 1800:0.00019823755 2106:0.00019823755 2201:0.00019823755 2501:0.00019823755 2602:0.00019823755 2701:0.00019823755 #
75 3:0.0075476053 4:-0.017389195 11:-0.00021498298 12:0.00021498298 13:-0.00021498298 14:-0.00021498298 15:-0.00021498298 16:-0.00021498298 18:-0.00021498298 19:-0.00021498298 28:0.066489935 29:0.078223713 30:0.0068794554 31:0.00021498298 32:-0.00021498298 33:0.99451131 1800:0.00021498298 2104:0.00021498298 2202:0.00021498298 2500:0.00021498298 2602:0.00021498298 2700:0.00021498298 #
-100 3:0.010533038 4:-0.023403736 11:-0.00024193391 12:-0.00024193391 13:-0.00024193391 14:-0.00024193391 15:-0.00024193391 16:-0.00024193391 18:-0.00024193391 19:-0.00024193391 28:0.061896373 29:0.072819687 30:0.0058064139 31:-0.00024193391 32:-0.00024193391 33:0.99507415 901:0.00024193391 1801:0.00024193391 2115:0.00024193391 2204:0.00024193391 2310:0.00024193391 2401:0.00024193391 2499:0.00024193391 2602:0.00024193391 2700:0.00024193391 #
75 3:0.0072877742 4:-0.015639842 11:-0.00020007521 12:-0.00020007521 13:-0.00020007521 14:-0.00020007521 15:-0.00020007521 16:-0.00020007521 18:0.00020007521 19:-0.00020007521 28:0.066673063 29:0.078439489 30:0.018006768 31:-0.00020007521 32:-0.00020007521 33:0.9943738 899:0.00020007521 1800:0.00020007521 2106:0.00020007521 2201:0.00020007521 2324:0.00020007521 2399:0.00020007521 2501:0.00020007521 2602:0.00020007521 2701:0.00020007521 #
-100 3:0.0070928326 4:-0.016287105 11:-0.00020121437 12:0.00020121437 13:-0.00020121437 14:-0.00020121437 15:-0.00020121437 16:-0.00020121437 18:-0.00020121437 19:-0.00020121437 28:0.067392729 29:0.079286508 30:0.0046279305 31:-0.00020121437 32:-0.00020121437 33:0.9944014 901:0.00020121437 1801:0.00020121437 2115:0.00020121437 2204:0.00020121437 2323:0.00020121437 2404:0.00020121437 2504:0.00020121437 2602:0.00020121437 2699:0.00020121437 #
75 3:0.0080625536 4:-0.015712049 11:-0.0002048929 12:-0.0002048929 13:-0.0002048929 14:-0.0002048929 15:-0.0002048929 16:-0.0002048929 18:-0.0002048929 19:-0.0002048929 28:0.066463158 29:0.078191228 30:0.0051223226 31:-0.0002048929 32:-0.0002048929 33:0.99455011 901:0.0002048929 1800:0.0002048929 2105:0.0002048929 2205:0.0002048929 2500:0.0002048929 2602:0.0002048929 2699:0.0002048929 #
-100 3:0.0083563169 4:-0.017529832 11:-0.00019969752 12:-0.00019969752 13:-0.00019969752 14:-0.00019969752 15:-0.00019969752 16:-0.00019969752 18:-0.00019969752 19:-0.00019969752 28:0.06659513 29:0.078347325 30:0.0055915308 31:0.00019969752 32:-0.00019969752 33:0.99449366 900:0.00019969752 1800:0.00019969752 2124:0.00019969752 2199:0.00019969752 2306:0.00019969752 2401:0.00019969752 2500:0.00019969752 2602:0.00019969752 2699:0.00019969752 #
75 3:0.0087153399 4:-0.018276811 11:-0.00020866228 12:-0.00020866228 13:-0.00020866228 14:-0.00020866228 15:-0.00020866228 16:-0.00020866228 18:-0.00020866228 19:-0.00020866228 28:0.067930005 29:0.079917654 30:0.0018779605 31:-0.00020866228 32:-0.00020866228 33:0.99427581 901:0.00020866228 1800:0.00020866228 2110:0.00020866228 2201:0.00020866228 2324:0.00020866228 2399:0.00020866228 2500:0.00020866228 2602:0.00020866228 2699:0.00020866228 #
-100 3:0.0087258313 4:-0.015774556 11:-0.00021344172 12:-0.00021344172 13:-0.00021344172 14:-0.00021344172 15:-0.00021344172 16:-0.00021344172 18:-0.00021344172 19:-0.00021344172 28:0.06591507 29:0.077547647 30:0.0032016258 31:-0.00021344172 32:-0.00021344172 33:0.99463838 901:0.00021344172 1800:0.00021344172 2124:0.00021344172 2199:0.00021344172 2504:0.00021344172 2602:0.00021344172 2700:0.00021344172 #
75 3:0.007474422 4:-0.022378087 11:0.00024847814 12:-0.00024847814 13:-0.00024847814 14:-0.00024847814 15:-0.00024847814 16:-0.00024847814 18:-0.00024847814 19:-0.00024847814 28:0.066127487 29:0.07779602 30:0.012920863 31:-0.00024847814 32:-0.00024847814 33:0.9944095 901:0.00024847814 1800:0.00024847814 2115:0.00024847814 2204:0.00024847814 2500:0.00024847814 2602:0.00024847814 2700:0.00024847814 #
75 3:0.0088470681 4:-0.015191994 11:-0.00021229494 12:-0.00021229494 13:-0.00021229494 14:-0.00021229494 15:-0.00021229494 16:-0.00021229494 18:-0.00021229494 19:-0.00021229494 28:0.06754376 29:0.079464123 30:0.0016983595 31:-0.00021229494 32:-0.00021229494 33:0.99438953 900:0.00021229494 1801:0.00021229494 2115:0.00021229494 2204:0.00021229494 2324:0.00021229494 2399:0.00021229494 2501:0.00021229494 2600:0.00021229494 2700:0.00021229494 #
-100 3:0.0086369133 4:-0.030148681 11:-0.00025459673 12:-0.00025459673 13:-0.00025459673 14:-0.00025459673 15:-0.00025459673 16:-0.00025459673 18:-0.00025459673 19:-0.00025459673 28:0.057589781 29:0.067753278 30:0.025459673 31:-0.00025459673 32:-0.00025459673 33:0.99521863 900:0.00025459673 1800:0.00025459673 2100:0.00025459673 2201:0.00025459673 2500:0.00025459673 2600:0.00025459673 2700:0.00025459673 #
75 3:0.015025097 4:-0.025883298 11:-0.00035132736 12:-0.00035132736 13:-0.00035132736 14:-0.00035132736 15:-0.00035132736 16:-0.00035132736 18:-0.00035132736 19:-0.00035132736 28:0.064995557 29:0.079262964 30:0.0070265471 31:-0.00035132736 32:-0.00035132736 33:0.99425638 901:0.00035132736 1801:0.00035132736 2124:0.00035132736 2199:0.00035132736 2501:0.00035132736 2601:0.00035132736 2700:0.00035132736 #
-100 3:0.0081298323 4:-0.022348864 11:-0.00022938628 12:-0.00022938628 13:-0.00022938628 14:-0.00022938628 15:-0.00022938628 16:-0.00022938628 18:-0.00022938628 19:-0.00022938628 28:0.06806808 29:0.080081038 30:0.0057346569 31:-0.00022938628 32:-0.00022938628 33:0.99416012 900:0.00022938628 1801:0.00022938628 2123:0.00022938628 2204:0.00022938628 2318:0.00022938628 2405:0.00022938628 2499:0.00022938628 2602:0.00022938628 2701:0.00022938628 #
75 3:0.010423227 4:-0.018996792 11:-0.00025661383 12:0.00025661383 13:-0.00025661383 14:-0.00025661383 15:-0.00025661383 16:-0.00025661383 18:-0.00025661383 19:-0.00025661383 28:0.066116549 29:0.075996183 30:0.051322766 31:0.00025661383 32:0.00025661383 33:0.99335212 901:0.00025661383 1801:0.00025661383 2101:0.00025661383 2201:0.00025661383 2322:0.00025661383 2402:0.00025661383 2500:0.00025661383 2602:0.00025661383 2701:0.00025661383 #
-100 3:0.0085145095 4:-0.027847271 11:-0.0002284021 12:-0.0002284021 13:-0.0002284021 14:-0.0002284021 15:-0.0002284021 16:-0.0002284021 18:-0.0002284021 19:-0.0002284021 28:0.06814377 29:0.080169141 30:0.0057100528 31:-0.0002284021 32:-0.0002284021 33:0.99400598 901:0.0002284021 1801:0.0002284021 2115:0.0002284021 2204:0.0002284021 2499:0.0002284021 2600:0.0002284021 2699:0.0002284021 #
75 3:0.007993347 4:-0.026025189 11:-0.00021264017 12:-0.00021264017 13:-0.00021264017 14:-0.00021264017 15:-0.00021264017 16:-0.00021264017 18:-0.00021264017 19:-0.00021264017 28:0.066643551 29:0.07840468 30:0.0051033641 31:0.00021264017 32:-0.00021264017 33:0.99430543 900:0.00021264017 1800:0.00021264017 2115:0.00021264017 2204:0.00021264017 2323:0.00021264017 2404:0.00021264017 2499:0.00021264017 2600:0.00021264017 2699:0.00021264017 #
-100 3:0.0083842939 4:-0.029061433 11:-0.00024616683 12:-0.00024616683 13:-0.00024616683 14:-0.00024616683 15:-0.00024616683 16:-0.00024616683 18:-0.00024616683 19:-0.00024616683 28:0.066216417 29:0.077901959 30:0.0078773387 31:-0.00024616683 32:0.00024616683 33:0.99426788 900:0.00024616683 1801:0.00024616683 2106:0.00024616683 2201:0.00024616683 2315:0.00024616683 2404:0.00024616683 2499:0.00024616683 2602:0.00024616683 2700:0.00024616683 #
75 3:0.0073177777 4:-0.025356086 11:-0.00021384902 12:-0.00021384902 13:-0.00021384902 14:-0.00021384902 15:-0.00021384902 16:-0.00021384902 18:-0.00021384902 19:-0.00021384902 28:0.064841166 29:0.076284222 30:0.0051323767 31:0.00021384902 32:-0.00021384902 33:0.9946118 901:0.00021384902 1801:0.00021384902 2115:0.00021384902 2204:0.00021384902 2321:0.00021384902 2404:0.00021384902 2504:0.00021384902 2602:0.00021384902 2699:0.00021384902 #
-100 3:0.0066897352 4:-0.02316585 11:-0.00019556232 12:-0.00019556232 13:-0.00019556232 14:-0.00019556232 15:-0.00019556232 16:-0.00019556232 18:-0.00019556232 19:-0.00019556232 28:0.065104648 29:0.076593935 30:0.0048890579 31:-0.00019556232 32:-0.00019556232 33:0.99462992 901:0.00019556232 1801:0.00019556232 2123:0.00019556232 2204:0.00019556232 2315:0.00019556232 2404:0.00019556232 2499:0.00019556232 2601:0.00019556232 2702:0.00019556232 #
75 3:0.0077657094 4:-0.020402702 11:0.00019489376 12:-0.00019489376 13:-0.00019489376 14:-0.00019489376 15:-0.00019489376 16:-0.00019489376 18:-0.00019489376 19:-0.00019489376 28:0.064751498 29:0.076178119 30:0.004872344 31:-0.00019489376 32:-0.00019489376 33:0.99473774 1800:0.00019489376 2106:0.00019489376 2201:0.00019489376 2323:0.00019489376 2404:0.00019489376 2501:0.00019489376 2602:0.00019489376 2699:0.00019489376 #
75 3:0.0073911594 4:-0.021834353 11:-0.00022547069 12:-0.00022547069 13:-0.00022547069 14:-0.00022547069 15:-0.00022547069 16:-0.00022547069 18:-0.00022547069 19:-0.00022547069 28:0.067192517 29:0.079050027 30:0.0045094136 31:0.00022547069 32:-0.00022547069 33:0.99432576 901:0.00022547069 1800:0.00022547069 2107:0.00022547069 2205:0.00022547069 2499:0.00022547069 2602:0.00022547069 2699:0.00022547069 #
-100 3:0.010775273 4:-0.022029635 11:-0.00025047341 12:-0.00025047341 13:-0.00025047341 14:-0.00025047341 15:-0.00025047341 16:-0.00025047341 18:-0.00025047341 19:-0.00025047341 28:0.068076171 29:0.080088876 30:0.0075142025 31:-0.00025047341 32:-0.00025047341 33:0.994129 901:0.00025047341 1800:0.00025047341 2115:0.00025047341 2204:0.00025047341 2504:0.00025047341 2602:0.00025047341 2699:0.00025047341 #
-100 3:0.008904729 4:-0.03187304 11:0.00027226788 12:-0.00027226788 13:-0.00027226788 14:-0.00027226788 15:-0.00027226788 16:-0.00027226788 18:-0.00027226788 19:-0.00027226788 28:0.14726697 29:0.17959332 30:0.013613394 31:0.00027226788 32:-0.00027226788 33:0.97199625 901:0.00027226788 1801:0.00027226788 2101:0.00027226788 2201:0.00027226788 2301:0.00027226788 2401:0.00027226788 2500:0.00027226788 2602:0.00027226788 2699:0.00027226788 #
-100 3:0.0088634621 4:-0.021448545 11:-0.00026770032 12:-0.00026770032 13:-0.00026770032 14:-0.00026770032 15:-0.00026770032 16:-0.00026770032 18:-0.00026770032 19:-0.00026770032 28:0.067880772 29:0.082780972 30:0.0045509054 31:-0.00026770032 32:-0.00026770032 33:0.99397129 1800:0.00026770032 2115:0.00026770032 2204:0.00026770032 2323:0.00026770032 2404:0.00026770032 2499:0.00026770032 2599:0.00026770032 2699:0.00026770032 #
-100 3:0.0072023924 4:-0.015772449 11:-0.00019981414 12:-0.00019981414 13:-0.00019981414 14:-0.00019981414 15:-0.00019981414 16:-0.00019981414 18:-0.00019981414 19:-0.00019981414 28:0.068216547 29:0.080255345 30:0.0045957253 31:-0.00019981414 32:-0.00019981414 33:0.99427515 901:0.00019981414 1800:0.00019981414 2106:0.00019981414 2201:0.00019981414 2305:0.00019981414 2405:0.00019981414 2500:0.00019981414 2601:0.00019981414 2699:0.00019981414 #
-100 3:0.0085229622 4:-0.020772438 11:-0.00024097857 12:-0.00024097857 13:-0.00024097857 14:-0.00024097857 15:-0.00024097857 16:-0.00024097857 18:-0.00024097857 19:-0.00024097857 28:0.067580029 29:0.079506055 30:0.0043376139 31:-0.00024097857 32:-0.00024097857 33:0.99427754 1801:0.00024097857 2115:0.00024097857 2204:0.00024097857 2501:0.00024097857 2602:0.00024097857 2699:0.00024097857 #
75 3:0.0076779136 4:-0.020046333 11:-0.00024601421 12:-0.00024601421 13:-0.00024601421 14:-0.00024601421 15:-0.00024601421 16:-0.00024601421 18:-0.00024601421 19:-0.00024601421 28:0.067011811 29:0.078837715 30:0.0046742703 31:-0.00024601421 32:0.00024601421 33:0.99438947 1801:0.00024601421 2123:0.00024601421 2204:0.00024601421 2500:0.00024601421 2602:0.00024601421 2699:0.00024601421 #
75 3:0.012447613 4:-0.033461783 11:-0.00034198535 12:-0.00034198535 13:-0.00034198535 14:-0.00034198535 15:-0.00034198535 16:-0.00034198535 18:-0.00034198535 19:-0.00034198535 28:0.064293243 29:0.078406982 30:0.01025956 31:-0.00034198535 32:-0.00034198535 33:0.99415135 1801:0.00034198535 2115:0.00034198535 2204:0.00034198535 2500:0.00034198535 2602:0.00034198535 2699:0.00034198535 #
75 3:0.0099268537 4:-0.017962676 11:-0.00024304169 12:-0.00024304169 13:-0.00024304169 14:-0.00024304169 15:-0.00024304169 16:-0.00024304169 18:0.00024304169 19:-0.00024304169 28:0.040896628 29:0.048112534 30:0.014582502 31:0.00024304169 32:-0.00024304169 33:0.99768615 901:0.00024304169 1800:0.00024304169 2110:0.00024304169 2201:0.00024304169 2300:0.00024304169 2401:0.00024304169 2500:0.00024304169 2602:0.00024304169 2700:0.00024304169 #
75 3:0.0088781705 4:-0.025846148 11:-0.00027265004 12:-0.00027265004 13:-0.00027265004 14:-0.00027265004 15:-0.00027265004 16:-0.00027265004 18:-0.00027265004 19:-0.00027265004 28:0.030305052 29:0.036957715 30:0.0087248012 31:-0.00027265004 32:-0.00027265004 33:0.99844444 901:0.00027265004 1801:0.00027265004 2123:0.00027265004 2204:0.00027265004 2323:0.00027265004 2404:0.00027265004 2499:0.00027265004 2600:0.00027265004 2701:0.00027265004 #
-100 3:0.0072758999 4:-0.021941056 11:-0.00026795562 12:-0.00026795562 13:-0.00026795562 14:-0.00026795562 15:-0.00026795562 16:-0.00026795562 18:-0.00026795562 19:-0.00026795562 28:0.11313622 29:0.13797036 30:0.0056270682 31:0.00026795562 32:0.00026795562 33:0.98366511 1801:0.00026795562 2115:0.00026795562 2204:0.00026795562 2323:0.00026795562 2404:0.00026795562 2500:0.00026795562 2602:0.00026795562 2699:0.00026795562 #
75 3:0.00028439646 4:-0.00091954647 11:-7.5226762e-06 12:7.5226762e-06 13:-7.5226762e-06 14:7.5226762e-06 15:-7.5226762e-06 16:-7.5226762e-06 18:-7.5226762e-06 19:-7.5226762e-06 28:0.64454299 29:0.75828588 30:0.091347858 31:-7.5226762e-06 32:-7.5226762e-06 33:0.034950353 901:7.5226762e-06 1801:7.5226762e-06 2107:7.5226762e-06 2205:7.5226762e-06 2502:7.5226762e-06 2602:7.5226762e-06 2701:7.5226762e-06 #
75 3:0.032291591 4:-0.058443014 11:-0.00079062046 12:-0.00079062046 13:-0.00079062046 14:-0.00079062046 15:-0.00079062046 16:-0.00079062046 18:-0.00079062046 19:-0.00079062046 31:-0.00079062046 32:-0.00079062046 33:0.99776304 901:0.00079062046 1799:0.00079062046 2103:0.00079062046 2205:0.00079062046 2504:0.00079062046 2602:0.00079062046 2699:0.00079062046 #
-100 3:0.0073867985 4:-0.021836469 11:0.00022594468 12:-0.00022594468 13:-0.00022594468 14:-0.00022594468 15:-0.00022594468 16:-0.00022594468 18:-0.00022594468 19:-0.00022594468 28:0.17753378 29:0.20886326 30:0.0067783403 31:-0.00022594468 32:-0.00022594468 33:0.96139461 901:0.00022594468 1800:0.00022594468 2110:0.00022594468 2201:0.00022594468 2318:0.00022594468 2405:0.00022594468 2500:0.00022594468 2602:0.00022594468 2702:0.00022594468 #
75 3:0.0099634761 4:-0.019420896 11:0.00025361544 12:-0.00025361544 13:-0.00025361544 14:-0.00025361544 15:-0.00025361544 16:-0.00025361544 18:-0.00025361544 19:-0.00025361544 28:0.056845363 29:0.066875853 30:0.020289235 31:0.00025361544 32:-0.00025361544 33:0.99569416 901:0.00025361544 1799:0.00025361544 2110:0.00025361544 2201:0.00025361544 2306:0.00025361544 2401:0.00025361544 2500:0.00025361544 2602:0.00025361544 2700:0.00025361544 #
-100 3:0.010336481 4:-0.017222259 11:-0.00024197246 12:-0.00024197246 13:-0.00024197246 14:-0.00024197246 15:-0.00024197246 16:-0.00024197246 18:0.00024197246 19:-0.00024197246 28:0.12582085 29:0.14802423 30:0.0072591738 31:-0.00024197246 32:-0.00024197246 33:0.98071438 900:0.00024197246 1800:0.00024197246 2106:0.00024197246 2201:0.00024197246 2323:0.00024197246 2404:0.00024197246 2501:0.00024197246 2602:0.00024197246 2701:0.00024197246 #
75 3:0.0094601065 4:-0.018451577 11:0.00024064901 12:-0.00024064901 13:-0.00024064901 14:-0.00024064901 15:-0.00024064901 16:-0.00024064901 18:-0.00024064901 19:-0.00024064901 28:0.20533136 29:0.24156588 30:0.0072194706 31:-0.00024064901 32:-0.00024064901 33:0.94815713 901:0.00024064901 1800:0.00024064901 2106:0.00024064901 2201:0.00024064901 2501:0.00024064901 2602:0.00024064901 2701:0.00024064901 #
-100 3:0.011464386 4:-0.028887277 11:-0.00030955748 12:-0.00030955748 13:-0.00030955748 14:-0.00030955748 15:-0.00030955748 16:-0.00030955748 18:-0.00030955748 19:-0.00030955748 28:0.14920671 29:0.18195789 30:0.0077389372 31:-0.00030955748 32:-0.00030955748 33:0.97139138 900:0.00030955748 1801:0.00030955748 2115:0.00030955748 2204:0.00030955748 2499:0.00030955748 2600:0.00030955748 2700:0.00030955748 #
-100 3:0.0060180067 4:-0.018602392 11:-0.00019598042 12:-0.00019598042 13:-0.00019598042 14:-0.00019598042 15:-0.00019598042 16:-0.00019598042 18:-0.00019598042 19:-0.00019598042 28:0.10111218 29:0.11895619 30:0.019598041 31:0.00019598042 32:-0.00019598042 33:0.98734933 1800:0.00019598042 2099:0.00019598042 2202:0.00019598042 2315:0.00019598042 2404:0.00019598042 2499:0.00019598042 2602:0.00019598042 2702:0.00019598042 #
75 3:0.00049076125 4:-0.00097074319 11:-1.261808e-05 12:-1.261808e-05 13:-1.261808e-05 14:-1.261808e-05 15:-1.261808e-05 16:-1.261808e-05 18:-1.261808e-05 19:-1.261808e-05 28:0.6452927 29:0.75916779 30:0.061462671 31:-1.261808e-05 32:-1.261808e-05 33:0.059014764 901:1.261808e-05 1800:1.261808e-05 2107:1.261808e-05 2205:1.261808e-05 2502:1.261808e-05 2602:1.261808e-05 2701:1.261808e-05 #
75 3:0.0083747748 4:-0.018315464 11:-0.00020465141 12:-0.00020465141 13:-0.00020465141 14:-0.00020465141 15:-0.00020465141 16:-0.00020465141 18:-0.00020465141 19:-0.00020465141 28:0.032977529 29:0.038797814 30:0.020465141 31:-0.00020465141 32:-0.00020465141 33:0.99828959 1800:0.00020465141 2110:0.00020465141 2201:0.00020465141 2500:0.00020465141 2602:0.00020465141 2700:0.00020465141 #
75 3:0.015557591 4:-0.028189508 11:-0.0003811701 12:-0.0003811701 13:-0.0003811701 14:-0.0003811701 15:-0.0003811701 16:-0.0003811701 18:0.0003811701 19:-0.0003811701 28:0.0064798919 29:0.0079016564 31:-0.0003811701 32:-0.0003811701 33:0.99942803 901:0.0003811701 1800:0.0003811701 2103:0.0003811701 2205:0.0003811701 2504:0.0003811701 2602:0.0003811701 2699:0.0003811701 #
-100 3:0.01118362 4:-0.022487795 11:-0.00027555539 12:-0.00027555539 13:-0.00027555539 14:-0.00027555539 15:-0.00027555539 16:-0.00027555539 18:-0.00027555539 19:-0.00027555539 28:0.096405812 29:0.11756847 30:0.019288879 31:-0.00027555539 32:-0.00027555539 33:0.9878661 899:0.00027555539 1801:0.00027555539 2106:0.00027555539 2201:0.00027555539 2500:0.00027555539 2601:0.00027555539 2700:0.00027555539 #
75 3:0.0024943885 4:-0.0080678985 11:-6.6023218e-05 12:-6.6023218e-05 13:-6.6023218e-05 14:-6.6023218e-05 15:-6.6023218e-05 16:-6.6023218e-05 18:6.6023218e-05 19:-6.6023218e-05 28:0.62821621 29:0.76611757 30:6.6023218e-05 31:-6.6023218e-05 32:-6.6023218e-05 33:0.13541362 901:6.6023218e-05 1800:6.6023218e-05 2124:6.6023218e-05 2199:6.6023218e-05 2501:6.6023218e-05 2602:6.6023218e-05 2700:6.6023218e-05 #
75 3:0.0081876833 4:-0.016186772 11:0.00021014074 12:-0.00021014074 13:-0.00021014074 14:-0.00021014074 15:-0.00021014074 16:-0.00021014074 18:-0.00021014074 19:-0.00021014074 28:0.029346155 29:0.034524024 30:0.0042028148 31:-0.00021014074 32:-0.00021014074 33:0.99879897 901:0.00021014074 1800:0.00021014074 2115:0.00021014074 2204:0.00021014074 2307:0.00021014074 2405:0.00021014074 2499:0.00021014074 2601:0.00021014074 2701:0.00021014074 #
75 3:0.0082891714 4:-0.014489135 11:-0.0001994198 12:-0.0001994198 13:-0.0001994198 14:-0.0001994198 15:-0.0001994198 16:-0.0001994198 18:-0.0001994198 19:-0.0001994198 28:0.038364381 29:0.045134682 30:0.0039883959 31:-0.0001994198 32:-0.0001994198 33:0.99809611 901:0.0001994198 1800:0.0001994198 2106:0.0001994198 2201:0.0001994198 2501:0.0001994198 2602:0.0001994198 2700:0.0001994198 #
75 3:0.0093755135 4:-0.02565985 11:-0.00020859641 12:-0.00020859641 13:-0.00020859641 14:-0.00020859641 15:-0.00020859641 16:-0.00020859641 18:-0.00020859641 19:-0.00020859641 28:0.018957241 29:0.022303127 30:0.0064664884 31:-0.00020859641 32:-0.00020859641 33:0.9991768 901:0.00020859641 1799:0.00020859641 2123:0.00020859641 2204:0.00020859641 2321:0.00020859641 2404:0.00020859641 2501:0.00020859641 2601:0.00020859641 2699:0.00020859641 #
-100 3:0.0075751054 4:-0.019384349 11:-0.0002001533 12:-0.0002001533 13:-0.0002001533 14:-0.0002001533 15:-0.0002001533 16:-0.0002001533 18:-0.0002001533 19:-0.0002001533 28:0.1419047 29:0.16694587 30:0.016012264 31:-0.0002001533 32:-0.0002001533 33:0.97534704 1800:0.0002001533 2115:0.0002001533 2204:0.0002001533 2323:0.0002001533 2404:0.0002001533 2499:0.0002001533 2601:0.0002001533 2702:0.0002001533 #
75 3:0.0096622035 4:-0.031099873 11:-0.00025610792 12:-0.00025610792 13:-0.00025610792 14:-0.00025610792 15:-0.00025610792 16:-0.00025610792 18:-0.00025610792 19:-0.00025610792 28:0.022934465 29:0.02698097 30:0.0064026983 31:-0.00025610792 32:-0.00025610792 33:0.9988209 900:0.00025610792 1801:0.00025610792 2114:0.00025610792 2203:0.00025610792 2299:0.00025610792 2402:0.00025610792 2504:0.00025610792 2602:0.00025610792 2700:0.00025610792 #
-100 3:0.0097104935 4:-0.025186231 11:-0.0002093572 12:-0.0002093572 13:-0.0002093572 14:-0.0002093572 15:-0.0002093572 16:-0.0002093572 18:-0.0002093572 19:-0.0002093572 28:0.11927079 29:0.14031956 30:0.0048152152 31:-0.0002093572 32:-0.0002093572 33:0.98251331 1800:0.0002093572 2115:0.0002093572 2204:0.0002093572 2499:0.0002093572 2602:0.0002093572 2699:0.0002093572 #
75 3:0.011157027 4:-0.036132231 11:-0.00036949819 12:-0.00036949819 13:-0.00036949819 14:-0.00036949819 15:-0.00036949819 16:-0.00036949819 18:-0.00036949819 19:-0.00036949819 28:0.022908887 29:0.027937759 30:0.022169892 31:-0.00036949819 32:-0.00036949819 33:0.99838412 901:0.00036949819 1800:0.00036949819 2106:0.00036949819 2201:0.00036949819 2500:0.00036949819 2602:0.00036949819 2701:0.00036949819 #
-100 3:0.0067893402 4:-0.017730504 11:-0.00019716469 12:-0.00019716469 13:-0.00019716469 14:-0.00019716469 15:-0.00019716469 16:-0.00019716469 18:-0.00019716469 19:-0.00019716469 28:0.11524079 29:0.13557832 30:0.0035489644 31:-0.00019716469 32:-0.00019716469 33:0.98385179 1801:0.00019716469 2115:0.00019716469 2204:0.00019716469 2323:0.00019716469 2404:0.00019716469 2501:0.00019716469 2602:0.00019716469 2699:0.00019716469 #
75 3:0.007565673 4:-0.026320554 11:0.00022192036 12:-0.00022192036 13:-0.00022192036 14:-0.00022192036 15:-0.00022192036 16:-0.00022192036 18:-0.00022192036 19:-0.00022192036 28:0.025019301 29:0.029435517 30:0.0053260885 31:-0.00022192036 32:-0.00022192036 33:0.99886352 899:0.00022192036 1801:0.00022192036 2107:0.00022192036 2205:0.00022192036 2504:0.00022192036 2599:0.00022192036 2699:0.00022192036 #
75 3:0.0082858559 4:-0.01814886 11:-0.00023000018 12:-0.00023000018 13:-0.00023000018 14:-0.00023000018 15:-0.00023000018 16:-0.00023000018 18:-0.00023000018 19:-0.00023000018 28:0.057412647 29:0.067544155 30:0.019550016 31:-0.00023000018 32:-0.00023000018 33:0.9956708 901:0.00023000018 1800:0.00023000018 2115:0.00023000018 2204:0.00023000018 2314:0.00023000018 2403:0.00023000018 2504:0.00023000018 2601:0.00023000018 2701:0.00023000018 #
75 3:0.0021511782 4:-0.0069385124 11:-7.109702e-05 12:-7.109702e-05 13:-7.109702e-05 14:-7.109702e-05 15:-7.109702e-05 16:-7.109702e-05 18:-7.109702e-05 19:-7.109702e-05 28:0.61587793 29:0.72456253 30:0.0012086494 31:-7.109702e-05 32:-7.109702e-05 33:0.30927202 901:7.109702e-05 1800:7.109702e-05 2101:7.109702e-05 2201:7.109702e-05 2310:7.109702e-05 2401:7.109702e-05 2502:7.109702e-05 2602:7.109702e-05 2700:7.109702e-05 #
-100 3:0.01012077 4:-0.018365797 11:-0.0002487379 12:-0.0002487379 13:-0.0002487379 14:-0.0002487379 15:-0.0002487379 16:-0.0002487379 18:-0.0002487379 19:-0.0002487379 28:0.11267578 29:0.1325599 30:0.0064671854 31:-0.0002487379 32:0.0002487379 33:0.98450458 901:0.0002487379 1799:0.0002487379 2106:0.0002487379 2201:0.0002487379 2315:0.0002487379 2404:0.0002487379 2501:0.0002487379 2602:0.0002487379 2700:0.0002487379 #
75 3:0.0026364499 4:-0.0052067023 11:-6.1559396e-05 12:-6.1559396e-05 13:-6.1559396e-05 14:-6.1559396e-05 15:-6.1559396e-05 16:-6.1559396e-05 18:-6.1559396e-05 19:-6.1559396e-05 28:0.61474752 29:0.72323239 30:0.027701728 31:-6.1559396e-05 32:-6.1559396e-05 33:0.3133989 900:6.1559396e-05 1801:6.1559396e-05 2120:6.1559396e-05 2205:6.1559396e-05 2501:6.1559396e-05 2600:6.1559396e-05 2701:6.1559396e-05 #
75 3:0.0080223791 4:-0.020559074 11:-0.00022865106 12:-0.00022865106 13:-0.00022865106 14:-0.00022865106 15:-0.00022865106 16:-0.00022865106 18:-0.00022865106 19:-0.00022865106 28:0.039508618 29:0.046480186 30:0.10289298 31:-0.00022865106 32:-0.00022865106 33:0.99257427 901:0.00022865106 1801:0.00022865106 2104:0.00022865106 2202:0.00022865106 2322:0.00022865106 2402:0.00022865106 2500:0.00022865106 2602:0.00022865106 2700:0.00022865106 #
75 3:0.0059251832 4:-0.018823884 11:-0.00019777981 12:-0.00019777981 13:-0.00019777981 14:-0.00019777981 15:-0.00019777981 16:-0.00019777981 18:-0.00019777981 19:-0.00019777981 28:0.026023867 29:0.030616315 30:0.0047467155 31:-0.00019777981 32:-0.00019777981 33:0.99898583 899:0.00019777981 1801:0.00019777981 2115:0.00019777981 2204:0.00019777981 2306:0.00019777981 2401:0.00019777981 2501:0.00019777981 2600:0.00019777981 2700:0.00019777981 #
75 3:0.0074827885 4:-0.022071324 11:-0.00022839739 12:-0.00022839739 13:-0.00022839739 14:-0.00022839739 15:-0.00022839739 16:-0.00022839739 18:-0.00022839739 19:-0.00022839739 28:0.045505896 29:0.053536348 30:0.06851922 31:0.00022839739 32:-0.00022839739 33:0.99489903 900:0.00022839739 1800:0.00022839739 2099:0.00022839739 2202:0.00022839739 2322:0.00022839739 2402:0.00022839739 2501:0.00022839739 2602:0.00022839739 2702:0.00022839739 #
75 3:0.0030125359 4:-0.01009368 11:-9.0021385e-05 12:-9.0021385e-05 13:-9.0021385e-05 14:-9.0021385e-05 15:-9.0021385e-05 16:-9.0021385e-05 18:-9.0021385e-05 19:-9.0021385e-05 28:0.60670817 29:0.7137742 30:0.0027006418 31:-9.0021385e-05 32:9.0021385e-05 33:0.34973308 901:9.0021385e-05 1799:9.0021385e-05 2121:9.0021385e-05 2204:9.0021385e-05 2315:9.0021385e-05 2404:9.0021385e-05 2501:9.0021385e-05 2602:9.0021385e-05 2700:9.0021385e-05 #
-100 3:0.0091572404 4:-0.020645024 11:-0.00023022979 12:-0.00023022979 13:-0.00023022979 14:-0.00023022979 15:-0.00023022979 16:-0.00023022979 18:-0.00023022979 19:-0.00023022979 28:0.11551319 29:0.13589774 30:0.027857805 31:0.00023022979 32:-0.00023022979 33:0.98331141 901:0.00023022979 1800:0.00023022979 2123:0.00023022979 2204:0.00023022979 2315:0.00023022979 2404:0.00023022979 2500:0.00023022979 2601:0.00023022979 2701:0.00023022979 #
75 3:0.0079247337 4:-0.027552364 11:-0.00023275736 12:0.00023275736 13:-0.00023275736 14:-0.00023275736 15:-0.00023275736 16:-0.00023275736 18:-0.00023275736 19:-0.00023275736 28:0.026029255 29:0.030621558 30:0.0060516912 31:0.00023275736 32:-0.00023275736 33:0.99876183 901:0.00023275736 1801:0.00023275736 2110:0.00023275736 2201:0.00023275736 2323:0.00023275736 2404:0.00023275736 2504:0.00023275736 2602:0.00023275736 2700:0.00023275736 #
75 3:0.0039533712 4:-0.0071790442 11:-9.7077682e-05 12:-9.7077682e-05 13:-9.7077682e-05 14:-9.7077682e-05 15:-9.7077682e-05 16:-9.7077682e-05 18:-9.7077682e-05 19:-9.7077682e-05 28:0.58968961 29:0.71913397 30:0.097077683 31:9.7077682e-05 32:-9.7077682e-05 33:0.35443062 901:9.7077682e-05 1799:9.7077682e-05 2120:9.7077682e-05 2205:9.7077682e-05 2312:9.7077682e-05 2405:9.7077682e-05 2501:9.7077682e-05 2602:9.7077682e-05 2702:9.7077682e-05 #
-100 3:0.0081686033 4:-0.026061205 11:-0.00022667485 12:-0.00022667485 13:-0.00022667485 14:-0.00022667485 15:-0.00022667485 16:-0.00022667485 18:-0.00022667485 19:-0.00022667485 28:0.10979903 29:0.1291752 30:0.0056668711 31:-0.00022667485 32:0.00022667485 33:0.98512888 900:0.00022667485 1800:0.00022667485 2123:0.00022667485 2204:0.00022667485 2315:0.00022667485 2404:0.00022667485 2501:0.00022667485 2602:0.00022667485 2700:0.00022667485 #
75 3:0.0077172378 4:-0.01684439 11:-0.00019907215 12:-0.00019907215 13:-0.00019907215 14:-0.00019907215 15:-0.00019907215 16:-0.00019907215 18:-0.00019907215 19:-0.00019907215 28:0.02667965 29:0.031387705 30:0.0083610304 31:-0.00019907215 32:-0.00019907215 33:0.99894404 1801:0.00019907215 2115:0.00019907215 2204:0.00019907215 2504:0.00019907215 2601:0.00019907215 2700:0.00019907215 #
75 3:0.0083510643 4:-0.026423095 11:-0.00027746611 12:-0.00027746611 13:-0.00027746611 14:-0.00027746611 15:-0.00027746611 16:-0.00027746611 18:-0.00027746611 19:-0.00027746611 28:0.031228812 29:0.038084999 30:0.012485975 31:-0.00027746611 32:-0.00027746611 33:0.99832308 899:0.00027746611 1801:0.00027746611 2115:0.00027746611 2204:0.00027746611 2299:0.00027746611 2402:0.00027746611 2500:0.00027746611 2602:0.00027746611 2700:0.00027746611 #
75 3:0.010853001 4:-0.019954691 11:-0.00026805911 12:-0.00026805911 13:-0.00026805911 14:-0.00026805911 15:-0.00026805911 16:-0.00026805911 18:-0.00026805911 19:-0.00026805911 28:0.03115651 29:0.037994698 30:0.0050931228 31:0.00026805911 32:-0.00026805911 33:0.9985202 901:0.00026805911 1801:0.00026805911 2106:0.00026805911 2201:0.00026805911 2500:0.00026805911 2602:0.00026805911 2699:0.00026805911 #
75 3:0.0070872987 4:-0.016969005 11:-0.0001956833 12:-0.0001956833 13:-0.0001956833 14:-0.0001956833 15:-0.0001956833 16:-0.0001956833 18:-0.0001956833 19:-0.0001956833 28:0.026845792 29:0.031583283 30:0.0039136661 31:0.0001956833 32:-0.0001956833 33:0.99896324 901:0.0001956833 1800:0.0001956833 2115:0.0001956833 2204:0.0001956833 2306:0.0001956833 2401:0.0001956833 2500:0.0001956833 2601:0.0001956833 2700:0.0001956833 #
-100 3:0.012724157 4:-0.025176492 11:0.00032724685 12:-0.00032724685 13:-0.00032724685 14:-0.00032724685 15:0.00032724685 16:-0.00032724685 18:-0.00032724685 19:-0.00032724685 28:0.076903008 29:0.093785673 30:0.0026179748 31:-0.00032724685 32:-0.00032724685 33:0.99221241 901:0.00032724685 1799:0.00032724685 2124:0.00032724685 2199:0.00032724685 2315:0.00032724685 2404:0.00032724685 2501:0.00032724685 2602:0.00032724685 2701:0.00032724685 #
75 3:0.013220388 4:-0.02615959 11:-0.00033960471 12:-0.00033960471 13:-0.00033960471 14:-0.00033960471 15:-0.00033960471 16:-0.00033960471 18:-0.00033960471 19:-0.00033960471 28:0.58751613 29:0.71648443 30:0.0067920941 31:-0.00033960471 32:-0.00033960471 33:0.37492359 901:0.00033960471 1799:0.00033960471 2104:0.00033960471 2202:0.00033960471 2499:0.00033960471 2602:0.00033960471 2700:0.00033960471 #
-100 3:0.0088668745 4:-0.022910351 11:-0.00023542283 12:-0.00023542283 13:-0.00023542283 14:-0.00023542283 15:-0.00023542283 16:-0.00023542283 18:-0.00023542283 19:-0.00023542283 28:0.1022771 29:0.12032697 30:0.0058855708 31:-0.00023542283 32:-0.00023542283 33:0.98712796 901:0.00023542283 1800:0.00023542283 2107:0.00023542283 2205:0.00023542283 2305:0.00023542283 2405:0.00023542283 2500:0.00023542283 2602:0.00023542283 2699:0.00023542283 #
75 3:0.0089266384 4:-0.016787972 11:-0.0001982759 12:-0.0001982759 13:-0.0001982759 14:-0.0001982759 15:-0.0001982759 16:-0.0001982759 18:-0.0001982759 19:-0.0001982759 28:0.026622504 29:0.031319659 30:0.010905175 31:0.0001982759 32:-0.0001982759 33:0.998914 899:0.0001982759 1799:0.0001982759 2110:0.0001982759 2201:0.0001982759 2307:0.0001982759 2405:0.0001982759 2500:0.0001982759 2601:0.0001982759 2701:0.0001982759 #
-100 3:0.0081997169 4:-0.014332772 11:-0.00019726773 12:-0.00019726773 13:-0.00019726773 14:-0.00019726773 15:-0.00019726773 16:-0.00019726773 18:-0.00019726773 19:-0.00019726773 28:0.19207564 29:0.22597215 30:0.049316932 31:-0.00019726773 32:-0.00019726773 33:0.95359218 901:0.00019726773 1800:0.00019726773 2122:0.00019726773 2202:0.00019726773 2501:0.00019726773 2602:0.00019726773 2700:0.00019726773 #
75 3:0.014898283 4:-0.027086101 11:-0.00036596815 12:-0.00036596815 13:-0.00036596815 14:-0.00036596815 15:-0.00036596815 16:-0.00036596815 18:-0.00036596815 19:-0.00036596815 28:0.58554906 29:0.71408439 31:-0.00036596815 32:-0.00036596815 33:0.38243672 901:0.00036596815 1799:0.00036596815 2114:0.00036596815 2203:0.00036596815 2499:0.00036596815 2602:0.00036596815 2702:0.00036596815 #
75 3:0.0081099933 4:-0.014601718 11:-0.00019903462 12:-0.00019903462 13:-0.00019903462 14:-0.00019903462 15:-0.00019903462 16:-0.00019903462 18:-0.00019903462 19:-0.00019903462 28:0.02678608 29:0.031513151 30:0.0099517312 31:0.00019903462 32:-0.00019903462 33:0.99895477 900:0.00019903462 1800:0.00019903462 2106:0.00019903462 2201:0.00019903462 2323:0.00019903462 2404:0.00019903462 2500:0.00019903462 2601:0.00019903462 2700:0.00019903462 #
-100 3:0.0094804 4:-0.021142432 11:-0.0002632878 12:-0.0002632878 13:-0.0002632878 14:-0.0002632878 15:-0.0002632878 16:-0.0002632878 18:-0.0002632878 19:-0.0002632878 28:0.094723053 29:0.10887741 30:0.01316439 31:-0.0002632878 32:-0.0002632878 33:0.98917228 901:0.0002632878 1801:0.0002632878 2121:0.0002632878 2204:0.0002632878 2315:0.0002632878 2404:0.0002632878 2499:0.0002632878 2602:0.0002632878 2701:0.0002632878 #
75 3:0.01305189 4:-0.023617495 11:-0.00031970063 12:-0.00031970063 13:-0.00031970063 14:-0.00031970063 15:-0.00031970063 16:-0.00031970063 18:-0.00031970063 19:-0.00031970063 28:0.58001685 29:0.70733762 31:-0.00031970063 32:-0.00031970063 33:0.40314248 901:0.00031970063 1799:0.00031970063 2106:0.00031970063 2201:0.00031970063 2301:0.00031970063 2401:0.00031970063 2501:0.00031970063 2602:0.00031970063 2700:0.00031970063 #
75 3:0.010238095 4:-0.023571469 11:0.00029035538 12:-0.00029035538 13:-0.00029035538 14:-0.00029035538 15:-0.00029035538 16:-0.00029035538 18:-0.00029035538 19:-0.00029035538 28:0.030487316 29:0.037180007 30:0.023228431 31:-0.00029035538 32:-0.00029035538 33:0.99824184 901:0.00029035538 1800:0.00029035538 2110:0.00029035538 2201:0.00029035538 2500:0.00029035538 2601:0.00029035538 2700:0.00029035538 #
-100 3:0.0080297291 4:-0.027938411 11:-0.00023677347 12:-0.00023677347 13:-0.00023677347 14:-0.00023677347 15:-0.00023677347 16:-0.00023677347 18:-0.00023677347 19:-0.00023677347 28:0.097541198 29:0.11475463 30:0.04025149 31:-0.00023677347 32:-0.00023677347 33:0.9873454 900:0.00023677347 1800:0.00023677347 2101:0.00023677347 2201:0.00023677347 2500:0.00023677347 2601:0.00023677347 2701:0.00023677347 #
75 3:0.0072792531 4:-0.016952127 11:-0.00020196929 12:-0.00020196929 13:-0.00020196929 14:-0.00020196929 15:-0.00020196929 16:-0.00020196929 18:-0.00020196929 19:-0.00020196929 28:0.027108319 29:0.03189297 30:0.0050492324 31:-0.00020196929 32:-0.00020196929 33:0.99894011 901:0.00020196929 1801:0.00020196929 2110:0.00020196929 2201:0.00020196929 2322:0.00020196929 2402:0.00020196929 2500:0.00020196929 2601:0.00020196929 2700:0.00020196929 #
-100 3:0.0072613186 4:-0.017698506 11:-0.00021658991 12:-0.00021658991 13:-0.00021658991 14:-0.00021658991 15:-0.00021658991 16:-0.00021658991 18:-0.00021658991 19:-0.00021658991 28:0.068739139 29:0.080870338 30:0.021658991 31:-0.00021658991 32:-0.00021658991 33:0.99393106 900:0.00021658991 1800:0.00021658991 2106:0.00021658991 2201:0.00021658991 2320:0.00021658991 2405:0.00021658991 2501:0.00021658991 2601:0.00021658991 2700:0.00021658991 #
75 3:0.0033330424 4:-0.0062801717 11:-8.3418643e-05 12:-8.3418643e-05 13:-8.3418643e-05 14:-8.3418643e-05 15:-8.3418643e-05 16:-8.3418643e-05 18:-8.3418643e-05 19:-8.3418643e-05 28:0.590433 29:0.69462705 30:0.0066734916 31:-8.3418643e-05 32:-8.3418643e-05 33:0.41083685 900:8.3418643e-05 1799:8.3418643e-05 2110:8.3418643e-05 2201:8.3418643e-05 2501:8.3418643e-05 2601:8.3418643e-05 2702:8.3418643e-05 #
75 3:0.0085649006 4:-0.016718449 11:-0.00020042922 12:-0.00020042922 13:-0.00020042922 14:-0.00020042922 15:-0.00020042922 16:-0.00020042922 18:-0.00020042922 19:-0.00020042922 28:0.027192233 29:0.031990509 30:0.0020042923 31:-0.00020042922 32:-0.00020042922 33:0.99893928 900:0.00020042922 1800:0.00020042922 2124:0.00020042922 2199:0.00020042922 2499:0.00020042922 2600:0.00020042922 2700:0.00020042922 #
-100 3:0.0096642748 4:-0.020253008 11:0.00023087887 12:-0.00023087887 13:0.00023087887 14:-0.00023087887 15:0.00023087887 16:-0.00023087887 18:-0.00023087887 19:-0.00023087887 28:0.089490958 29:0.10528307 30:0.03463183 31:-0.00023087887 32:-0.00023087887 33:0.98954684 901:0.00023087887 1800:0.00023087887 2115:0.00023087887 2204:0.00023087887 2312:0.00023087887 2405:0.00023087887 2499:0.00023087887 2602:0.00023087887 2701:0.00023087887 #
75 3:0.00371991 4:-0.012071281 11:-9.8585748e-05 12:-9.8585748e-05 13:-9.8585748e-05 14:-9.8585748e-05 15:-9.8585748e-05 16:-9.8585748e-05 18:9.8585748e-05 19:-9.8585748e-05 28:0.587363 29:0.69101512 30:0.0071967593 31:9.8585748e-05 32:-9.8585748e-05 33:0.42105973 901:9.8585748e-05 1800:9.8585748e-05 2124:9.8585748e-05 2199:9.8585748e-05 2501:9.8585748e-05 2602:9.8585748e-05 2702:9.8585748e-05 #
75 3:0.010280352 4:-0.020055043 11:-0.00026177947 12:-0.00026177947 13:-0.00026177947 14:-0.00026177947 15:-0.00026177947 16:-0.00026177947 18:0.00026177947 19:-0.00026177947 28:0.053785205 29:0.065591462 30:0.011780076 31:-0.00026177947 32:-0.00026177947 33:0.9960708 901:0.00026177947 1800:0.00026177947 2115:0.00026177947 2204:0.00026177947 2499:0.00026177947 2602:0.00026177947 2701:0.00026177947 #
75 3:0.007703166 4:-0.017969824 11:-0.00019858783 12:-0.00019858783 13:-0.00019858783 14:-0.00019858783 15:-0.00019858783 16:-0.00019858783 18:-0.00019858783 19:-0.00019858783 28:0.027033761 29:0.031803843 30:0.0089364527 31:0.00019858783 32:-0.00019858783 33:0.99889678 901:0.00019858783 1800:0.00019858783 2115:0.00019858783 2204:0.00019858783 2323:0.00019858783 2404:0.00019858783 2499:0.00019858783 2601:0.00019858783 2702:0.00019858783 #
-100 3:0.0094610834 4:-0.030331945 11:-0.00024882669 12:-0.00024882669 13:-0.00024882669 14:-0.00024882669 15:-0.00024882669 16:-0.00024882669 18:-0.00024882669 19:-0.00024882669 28:0.07462313 29:0.087791033 30:0.0049765338 31:-0.00024882669 32:-0.00024882669 33:0.99281853 900:0.00024882669 1800:0.00024882669 2121:0.00024882669 2204:0.00024882669 2322:0.00024882669 2402:0.00024882669 2500:0.00024882669 2602:0.00024882669 2699:0.00024882669 #
75 3:0.0067150192 4:-0.019590801 11:-0.00020245115 12:-0.00020245115 13:-0.00020245115 14:-0.00020245115 15:-0.00020245115 16:-0.00020245115 18:-0.00020245115 19:-0.00020245115 28:0.02720741 29:0.032009549 30:0.0040490227 31:-0.00020245115 32:-0.00020245115 33:0.99889398 1799:0.00020245115 2106:0.00020245115 2201:0.00020245115 2324:0.00020245115 2399:0.00020245115 2500:0.00020245115 2600:0.00020245115 2701:0.00020245115 #
-100 3:0.0065738023 4:-0.019382741 11:-0.0002354927 12:-0.0002354927 13:-0.0002354927 14:-0.0002354927 15:-0.0002354927 16:-0.0002354927 18:-0.0002354927 19:-0.0002354927 28:0.1903511 29:0.22394177 30:0.04709854 31:0.0002354927 32:-0.0002354927 33:0.95445192 900:0.0002354927 1801:0.0002354927 2104:0.0002354927 2202:0.0002354927 2504:0.0002354927 2601:0.0002354927 2700:0.0002354927 #
75 3:0.0063081752 4:-0.02187746 11:-0.00018506222 12:-0.00018506222 13:0.00018506222 14:-0.00018506222 15:-0.00018506222 16:-0.00018506222 18:-0.00018506222 19:-0.00018506222 28:0.57229197 29:0.6979177 30:0.014804977 31:-0.00018506222 32:-0.00018506222 33:0.42971447 901:0.00018506222 1800:0.00018506222 2100:0.00018506222 2201:0.00018506222 2310:0.00018506222 2401:0.00018506222 2502:0.00018506222 2601:0.00018506222 2700:0.00018506222 #
75 3:0.0081443144 4:-0.014832871 11:-0.00020039185 12:0.00020039185 13:-0.00020039185 14:-0.00020039185 15:-0.00020039185 16:-0.00020039185 18:-0.00020039185 19:0.00020039185 28:0.027159108 29:0.031952482 30:0.0068133231 31:-0.00020039185 32:-0.00020039185 33:0.9989534 901:0.00020039185 1800:0.00020039185 2115:0.00020039185 2204:0.00020039185 2306:0.00020039185 2401:0.00020039185 2501:0.00020039185 2602:0.00020039185 2700:0.00020039185 #
-100 3:0.006635665 4:-0.019861698 11:-0.00021786605 12:-0.00021786605 13:-0.00021786605 14:-0.00021786605 15:-0.00021786605 16:-0.00021786605 18:-0.00021786605 19:-0.00021786605 28:0.19229947 29:0.22623429 30:0.019607944 31:-0.00021786605 32:-0.00021786605 33:0.95447117 901:0.00021786605 1800:0.00021786605 2123:0.00021786605 2204:0.00021786605 2501:0.00021786605 2602:0.00021786605 2702:0.00021786605 #
75 3:0.0029184113 4:-0.0097075608 11:-8.6570275e-05 12:-8.6570275e-05 13:-8.6570275e-05 14:-8.6570275e-05 15:-8.6570275e-05 16:-8.6570275e-05 18:-8.6570275e-05 19:-8.6570275e-05 28:0.5844515 29:0.68758959 30:0.013851244 31:-8.6570275e-05 32:-8.6570275e-05 33:0.43051398 1799:8.6570275e-05 2101:8.6570275e-05 2201:8.6570275e-05 2500:8.6570275e-05 2600:8.6570275e-05 2702:8.6570275e-05 #
-100 3:0.014423968 4:-0.025963301 11:-0.00033432699 12:0.00033432699 13:-0.00033432699 14:-0.00033432699 15:-0.00033432699 16:-0.00033432699 18:-0.00033432699 19:-0.00033432699 28:0.082913093 29:0.10111386 30:0.0066865399 31:-0.00033432699 32:-0.00033432699 33:0.99094522 901:0.00033432699 1801:0.00033432699 2115:0.00033432699 2204:0.00033432699 2308:0.00033432699 2403:0.00033432699 2501:0.00033432699 2602:0.00033432699 2700:0.00033432699 #
-100 3:0.013158321 4:-0.029265363 11:-0.000368345 12:-0.000368345 13:-0.000368345 14:-0.000368345 15:-0.000368345 16:-0.000368345 18:-0.000368345 19:-0.000368345 28:0.18903098 29:0.23052505 30:0.036834501 31:-0.000368345 32:-0.000368345 33:0.95327687 899:0.000368345 1801:0.000368345 2100:0.000368345 2201:0.000368345 2504:0.000368345 2602:0.000368345 2702:0.000368345 #
75 3:0.022645824 4:-0.041157804 11:-0.00055660051 12:-0.00055660051 13:-0.00055660051 14:-0.00055660051 15:-0.00055660051 16:-0.00055660051 18:-0.00055660051 19:0.00055660051 28:0.026817011 29:0.032705843 30:0.0050094044 31:-0.00055660051 32:-0.00055660051 33:0.99798465 901:0.00055660051 1800:0.00055660051 2105:0.00055660051 2205:0.00055660051 2305:0.00055660051 2405:0.00055660051 2500:0.00055660051 2602:0.00055660051 2701:0.00055660051 #
-100 3:0.011513237 4:-0.021678314 11:-0.00028813118 12:-0.00028813118 13:-0.00028813118 14:-0.00028813118 15:-0.00028813118 16:-0.00028813118 18:-0.00028813118 19:-0.00028813118 28:0.18098672 29:0.22071424 30:0.034575742 31:0.00028813118 32:-0.00028813118 33:0.95745993 901:0.00028813118 1800:0.00028813118 2100:0.00028813118 2201:0.00028813118 2300:0.00028813118 2401:0.00028813118 2500:0.00028813118 2602:0.00028813118 2702:0.00028813118 #
75 3:0.017152207 4:-0.031027012 11:-0.00042009633 12:-0.00042009633 13:-0.00042009633 14:-0.00042009633 15:-0.00042009633 16:-0.00042009633 18:-0.00042009633 19:-0.00042009633 28:0.57133102 29:0.69674659 31:-0.00042009633 32:-0.00042009633 33:0.43227911 901:0.00042009633 1800:0.00042009633 2115:0.00042009633 2204:0.00042009633 2499:0.00042009633 2602:0.00042009633 2701:0.00042009633 #
75 3:0.0069856653 4:-0.024382103 11:-0.00020652814 12:-0.00020652814 13:-0.00020652814 14:-0.00020652814 15:-0.00020652814 16:-0.00020652814 18:-0.00020652814 19:-0.00020652814 28:0.027552919 29:0.032414593 30:0.0020652814 31:-0.00020652814 32:-0.00020652814 33:0.99877012 900:0.00020652814 1800:0.00020652814 2124:0.00020652814 2199:0.00020652814 2323:0.00020652814 2404:0.00020652814 2501:0.00020652814 2600:0.00020652814 2701:0.00020652814 #
-100 3:0.011350953 4:-0.023456797 11:-0.00025827478 12:-0.00025827478 13:-0.00025827478 14:-0.00025827478 15:-0.00025827478 16:-0.00025827478 18:-0.00025827478 19:-0.00025827478 28:0.19249478 29:0.22125885 30:0.010330992 31:-0.00025827478 32:-0.00025827478 33:0.95561671 1800:0.00025827478 2105:0.00025827478 2205:0.00025827478 2306:0.00025827478 2401:0.00025827478 2501:0.00025827478 2601:0.00025827478 2699:0.00025827478 #
75 3:0.0025489291 4:-0.008228315 11:-8.599829e-05 12:-8.599829e-05 13:-8.599829e-05 14:-8.599829e-05 15:-8.599829e-05 16:-8.599829e-05 18:-8.599829e-05 19:-8.599829e-05 28:0.58188593 29:0.68457139 30:0.03181937 31:-8.599829e-05 32:-8.599829e-05 33:0.43781731 1799:8.599829e-05 2101:8.599829e-05 2201:8.599829e-05 2501:8.599829e-05 2600:8.599829e-05 2702:8.599829e-05 #
75 3:0.0066058887 4:-0.019471491 11:-0.00020418486 12:-0.00020418486 13:-0.00020418486 14:-0.00020418486 15:-0.00020418486 16:-0.00020418486 18:-0.00020418486 19:-0.00020418486 28:0.027526163 29:0.032383721 30:0.0049004368 31:-0.00020418486 32:-0.00020418486 33:0.9988724 899:0.00020418486 1800:0.00020418486 2105:0.00020418486 2205:0.00020418486 2315:0.00020418486 2404:0.00020418486 2501:0.00020418486 2602:0.00020418486 2699:0.00020418486 #
75 3:0.011544808 4:-0.040108964 11:0.00033932147 12:-0.00033932147 13:-0.00033932147 14:-0.00033932147 15:-0.00033932147 16:0.00033932147 18:-0.00033932147 19:-0.00033932147 28:0.059174269 29:0.0721635 30:0.020359289 31:-0.00033932147 32:-0.00033932147 33:0.99455124 901:0.00033932147 1801:0.00033932147 2119:0.00033932147 2204:0.00033932147 2323:0.00033932147 2404:0.00033932147 2500:0.00033932147 2602:0.00033932147 2702:0.00033932147 #
75 3:0.0030533674 4:-0.0090648578 11:-9.4313691e-05 12:-9.4313691e-05 13:-9.4313691e-05 14:-9.4313691e-05 15:-9.4313691e-05 16:-9.4313691e-05 18:-9.4313691e-05 19:-9.4313691e-05 28:0.57777417 29:0.67973387 30:0.097331733 31:-9.4313691e-05 32:-9.4313691e-05 33:0.44110516 1800:9.4313691e-05 2103:9.4313691e-05 2205:9.4313691e-05 2502:9.4313691e-05 2602:9.4313691e-05 2702:9.4313691e-05 #
-100 3:0.017381638 4:-0.038515475 11:-0.00048100034 12:-0.00048100034 13:-0.00048100034 14:-0.00048100034 15:-0.00048100034 16:-0.00048100034 18:-0.00048100034 19:0.00048100034 28:0.080856159 29:0.098605074 30:0.012025009 31:-0.00048100034 32:-0.00048100034 33:0.99086076 1801:0.00048100034 2115:0.00048100034 2204:0.00048100034 2315:0.00048100034 2404:0.00048100034 2499:0.00048100034 2600:0.00048100034 2701:0.00048100034 #
75 3:0.0082637956 4:-0.017334977 11:-0.00019752704 12:-0.00019752704 13:-0.00019752704 14:-0.00019752704 15:-0.00019752704 16:-0.00019752704 18:-0.00019752704 19:-0.00019752704 28:0.027602429 29:0.032473445 30:0.0049381759 31:-0.00019752704 32:-0.00019752704 33:0.99889427 900:0.00019752704 1800:0.00019752704 2123:0.00019752704 2204:0.00019752704 2499:0.00019752704 2602:0.00019752704 2700:0.00019752704 #
75 3:0.0082490658 4:-0.014419032 11:-0.00019845495 12:-0.00019845495 13:-0.00019845495 14:-0.00019845495 15:-0.00019845495 16:-0.00019845495 18:-0.00019845495 19:-0.00019845495 28:0.034078684 29:0.040091868 30:0.0099227475 31:0.00019845495 32:-0.00019845495 33:0.99842685 901:0.00019845495 1800:0.00019845495 2115:0.00019845495 2204:0.00019845495 2499:0.00019845495 2602:0.00019845495 2700:0.00019845495 #
75 3:0.0030357032 4:-0.010194858 11:-9.1221234e-05 12:-9.1221234e-05 13:-9.1221234e-05 14:-9.1221234e-05 15:-9.1221234e-05 16:-9.1221234e-05 18:-9.1221234e-05 19:-9.1221234e-05 28:0.57487893 29:0.67632788 30:0.013683185 31:-9.1221234e-05 32:-9.1221234e-05 33:0.4602111 899:9.1221234e-05 1799:9.1221234e-05 2101:9.1221234e-05 2201:9.1221234e-05 2501:9.1221234e-05 2600:9.1221234e-05 2702:9.1221234e-05 #
75 3:0.0083863549 4:-0.017396113 11:-0.00019799302 12:-0.00019799302 13:-0.00019799302 14:-0.00019799302 15:-0.00019799302 16:-0.00019799302 18:-0.00019799302 19:-0.00019799302 28:0.033288568 29:0.03916302 30:0.0049498254 31:-0.00019799302 32:-0.00019799302 33:0.99847883 900:0.00019799302 1800:0.00019799302 2115:0.00019799302 2204:0.00019799302 2323:0.00019799302 2404:0.00019799302 2500:0.00019799302 2602:0.00019799302 2699:0.00019799302 #
75 3:0.0081652887 4:-0.017867845 11:-0.00020356031 12:-0.00020356031 13:-0.00020356031 14:-0.00020356031 15:-0.00020356031 16:-0.00020356031 18:-0.00020356031 19:-0.00020356031 28:0.027515247 29:0.032370161 30:0.0081424126 31:-0.00020356031 32:-0.00020356031 33:0.99887043 899:0.00020356031 1801:0.00020356031 2124:0.00020356031 2199:0.00020356031 2500:0.00020356031 2601:0.00020356031 2700:0.00020356031 #
75 3:0.0035554254 4:-0.011587022 11:-9.4731069e-05 12:-9.4731069e-05 13:-9.4731069e-05 14:-9.4731069e-05 15:-9.4731069e-05 16:-9.4731069e-05 18:-9.4731069e-05 19:-9.4731069e-05 28:0.57428437 29:0.6756286 30:0.011367728 31:-9.4731069e-05 32:-9.4731069e-05 33:0.46200341 901:9.4731069e-05 1799:9.4731069e-05 2114:9.4731069e-05 2203:9.4731069e-05 2308:9.4731069e-05 2403:9.4731069e-05 2501:9.4731069e-05 2601:9.4731069e-05 2702:9.4731069e-05 #
75 3:0.010381352 4:-0.028390823 11:-0.00029122207 12:-0.00029122207 13:-0.00029122207 14:-0.00029122207 15:-0.00029122207 16:-0.00029122207 18:-0.00029122207 19:-0.00029122207 28:0.027083652 29:0.033027496 30:0.0075717736 31:0.00029122207 32:-0.00029122207 33:0.99860048 900:0.00029122207 1801:0.00029122207 2125:0.00029122207 2203:0.00029122207 2315:0.00029122207 2404:0.00029122207 2499:0.00029122207 2601:0.00029122207 2700:0.00029122207 #
-100 3:0.0060568261 4:-0.019495355 11:-0.00020385507 12:-0.00020385507 13:-0.00020385507 14:-0.00020385507 15:-0.00020385507 16:-0.00020385507 18:-0.00020385507 19:-0.00020385507 28:0.18649477 29:0.21940513 30:0.01528913 31:-0.00020385507 32:-0.00020385507 33:0.9573034 901:0.00020385507 1800:0.00020385507 2121:0.00020385507 2204:0.00020385507 2315:0.00020385507 2404:0.00020385507 2501:0.00020385507 2602:0.00020385507 2702:0.00020385507 #
75 3:0.0083103003 4:-0.015611324 11:-0.00020784476 12:-0.00020784476 13:-0.00020784476 14:-0.00020784476 15:-0.00020784476 16:-0.00020784476 18:-0.00020784476 19:-0.00020784476 28:0.02773896 29:0.032633703 30:0.0068588769 31:-0.00020784476 32:-0.00020784476 33:0.99890184 901:0.00020784476 1799:0.00020784476 2106:0.00020784476 2201:0.00020784476 2324:0.00020784476 2399:0.00020784476 2499:0.00020784476 2602:0.00020784476 2700:0.00020784476 #
-100 3:0.0093614664 4:-0.026878923 11:-0.00025118401 12:-0.00025118401 13:-0.00025118401 14:-0.00025118401 15:-0.00025118401 16:-0.00025118401 18:0.00025118401 19:-0.00025118401 28:0.18179944 29:0.22170757 30:0.012308016 31:-0.00025118401 32:-0.00025118401 33:0.95751345 1801:0.00025118401 2118:0.00025118401 2205:0.00025118401 2303:0.00025118401 2405:0.00025118401 2500:0.00025118401 2601:0.00025118401 2701:0.00025118401 #
75 3:0.0042392397 4:-0.0076918174 11:-0.00010402976 12:0.00010402976 13:-0.00010402976 14:-0.00010402976 15:-0.00010402976 16:-0.00010402976 18:0.00010402976 19:-0.00010402976 28:0.57002693 29:0.67061955 30:0.049934287 31:-0.00010402976 32:-0.00010402976 33:0.47198302 901:0.00010402976 1800:0.00010402976 2107:0.00010402976 2205:0.00010402976 2303:0.00010402976 2405:0.00010402976 2502:0.00010402976 2602:0.00010402976 2701:0.00010402976 #
-100 3:0.010145891 4:-0.022799145 11:-0.00024375709 12:-0.00024375709 13:-0.00024375709 14:-0.00024375709 15:-0.00024375709 16:-0.00024375709 18:-0.00024375709 19:-0.00024375709 28:0.18972833 29:0.2232108 30:0.0075564696 31:-0.00024375709 32:-0.00024375709 33:0.95577157 901:0.00024375709 1800:0.00024375709 2115:0.00024375709 2204:0.00024375709 2501:0.00024375709 2602:0.00024375709 2700:0.00024375709 #
75 3:0.005729455 4:-0.016424797 11:0.00020102838 12:-0.00020102838 13:-0.00020102838 14:-0.00020102838 15:-0.00020102838 16:-0.00020102838 18:-0.00020102838 19:-0.00020102838 28:0.027900729 29:0.032823913 30:0.0044226246 31:0.00020102838 32:-0.00020102838 33:0.99891001 1800:0.00020102838 2106:0.00020102838 2201:0.00020102838 2300:0.00020102838 2401:0.00020102838 2501:0.00020102838 2600:0.00020102838 2700:0.00020102838 #
-100 3:0.0070839017 4:-0.017269026 11:-0.00021603281 12:0.00021603281 13:-0.00021603281 14:-0.00021603281 15:-0.00021603281 16:-0.00021603281 18:-0.00021603281 19:-0.00021603281 28:0.17832214 29:0.20979163 30:0.06805034 31:-0.00021603281 32:-0.00021603281 33:0.95875365 901:0.00021603281 1801:0.00021603281 2111:0.00021603281 2200:0.00021603281 2313:0.00021603281 2400:0.00021603281 2504:0.00021603281 2602:0.00021603281 2700:0.00021603281 #
75 3:0.0035471595 4:-0.011522176 11:-9.4430296e-05 12:-9.4430296e-05 13:-9.4430296e-05 14:-9.4430296e-05 15:-9.4430296e-05 16:-9.4430296e-05 18:-9.4430296e-05 19:-9.4430296e-05 28:0.57052803 29:0.67120963 30:0.00321063 31:-9.4430296e-05 32:-9.4430296e-05 33:0.4730958 901:9.4430296e-05 1800:9.4430296e-05 2110:9.4430296e-05 2201:9.4430296e-05 2500:9.4430296e-05 2600:9.4430296e-05 2702:9.4430296e-05 #
-100 3:0.0078029903 4:-0.02506955 11:-0.00020542678 12:-0.00020542678 13:-0.00020542678 14:-0.00020542678 15:-0.00020542678 16:-0.00020542678 18:-0.00020542678 19:-0.00020542678 28:0.18496628 29:0.21760653 30:0.030814018 31:0.00020542678 32:-0.00020542678 33:0.9574942 900:0.00020542678 1800:0.00020542678 2122:0.00020542678 2202:0.00020542678 2312:0.00020542678 2405:0.00020542678 2500:0.00020542678 2601:0.00020542678 2702:0.00020542678 #
75 3:0.0059158481 4:-0.017438285 11:-0.00021118035 12:-0.00021118035 13:-0.00021118035 14:-0.00021118035 15:-0.00021118035 16:-0.00021118035 18:-0.00021118035 19:-0.00021118035 28:0.027875807 29:0.032794196 30:0.0063354108 31:-0.00021118035 32:-0.00021118035 33:0.99888307 900:0.00021118035 1801:0.00021118035 2101:0.00021118035 2201:0.00021118035 2315:0.00021118035 2404:0.00021118035 2501:0.00021118035 2602:0.00021118035 2699:0.00021118035 #
75 3:0.0067612925 4:-0.0159469 11:-0.00019760312 12:-0.00019760312 13:-0.00019760312 14:-0.00019760312 15:-0.00019760312 16:-0.00019760312 18:-0.00019760312 19:-0.00019760312 28:0.027543899 29:0.032404937 30:0.022724358 31:-0.00019760312 32:-0.00019760312 33:0.99868619 899:0.00019760312 1801:0.00019760312 2123:0.00019760312 2204:0.00019760312 2315:0.00019760312 2404:0.00019760312 2501:0.00019760312 2600:0.00019760312 2701:0.00019760312 #
-100 3:0.010856882 4:-0.021286791 11:-0.0002560002 12:-0.0002560002 13:-0.0002560002 14:-0.0002560002 15:-0.0002560002 16:-0.0002560002 18:-0.0002560002 19:-0.0002560002 28:0.18590735 29:0.21368593 30:0.0076800063 31:-0.0002560002 32:-0.0002560002 33:0.9587208 901:0.0002560002 1800:0.0002560002 2123:0.0002560002 2204:0.0002560002 2314:0.0002560002 2403:0.0002560002 2501:0.0002560002 2602:0.0002560002 2700:0.0002560002 #
75 3:0.019763457 4:-0.035931319 11:-0.00048547849 12:-0.00048547849 13:-0.00048547849 14:-0.00048547849 15:-0.00048547849 16:-0.00048547849 18:-0.00048547849 19:-0.00048547849 28:0.54616332 29:0.66605222 31:-0.00048547849 32:-0.00048547849 33:0.50635409 901:0.00048547849 1800:0.00048547849 2123:0.00048547849 2204:0.00048547849 2499:0.00048547849 2602:0.00048547849 2702:0.00048547849 #
75 3:0.011535279 4:-0.021210156 11:-0.00026912981 12:-0.00026912981 13:-0.00026912981 14:-0.00026912981 15:-0.00026912981 16:-0.00026912981 18:-0.00026912981 19:-0.00026912981 28:0.033622388 29:0.041001927 30:0.013994751 31:0.00026912981 32:-0.00026912981 33:0.9982025 901:0.00026912981 1801:0.00026912981 2123:0.00026912981 2204:0.00026912981 2324:0.00026912981 2399:0.00026912981 2501:0.00026912981 2602:0.00026912981 2701:0.00026912981 #
75 3:0.0085939644 4:-0.014060996 11:-0.00019852597 12:-0.00019852597 13:-0.00019852597 14:-0.00019852597 15:-0.00019852597 16:-0.00019852597 18:-0.00019852597 19:-0.00019852597 28:0.027253645 29:0.032063928 30:0.039705195 31:-0.00019852597 32:-0.00019852597 33:0.99818856 899:0.00019852597 1799:0.00019852597 2101:0.00019852597 2201:0.00019852597 2499:0.00019852597 2600:0.00019852597 2701:0.00019852597 #
-100 3:0.0070721479 4:-0.024562933 11:-0.00020764035 12:-0.00020764035 13:-0.00020764035 14:-0.00020764035 15:-0.00020764035 16:-0.00020764035 18:-0.00020764035 19:-0.00020764035 28:0.17797476 29:0.20938244 30:0.028031446 31:-0.00020764035 32:-0.00020764035 33:0.96075183 901:0.00020764035 1801:0.00020764035 2123:0.00020764035 2204:0.00020764035 2499:0.00020764035 2602:0.00020764035 2702:0.00020764035 #
75 3:0.010639136 4:-0.019330526 11:-0.00026138901 12:-0.00026138901 13:-0.00026138901 14:-0.00026138901 15:-0.00026138901 16:-0.00026138901 18:-0.00026138901 19:0.00026138901 28:0.54415441 29:0.66360396 30:0.0052277804 31:-0.00026138901 32:-0.00026138901 33:0.51284522 901:0.00026138901 1801:0.00026138901 2099:0.00026138901 2202:0.00026138901 2307:0.00026138901 2405:0.00026138901 2502:0.00026138901 2602:0.00026138901 2699:0.00026138901 #
-100 3:0.010928362 4:-0.023936851 11:-0.00030335132 12:-0.00030335132 13:-0.00030335132 14:-0.00030335132 15:-0.00030335132 16:-0.00030335132 18:-0.00030335132 19:-0.00030335132 28:0.17746052 29:0.21641386 30:0.030335132 31:-0.00030335132 32:-0.00030335132 33:0.95919687 901:0.00030335132 1800:0.00030335132 2106:0.00030335132 2201:0.00030335132 2501:0.00030335132 2601:0.00030335132 2701:0.00030335132 #
75 3:0.0070374846 4:-0.015332457 11:-0.00019803869 12:-0.00019803869 13:-0.00019803869 14:-0.00019803869 15:-0.00019803869 16:-0.00019803869 18:-0.00019803869 19:-0.00019803869 28:0.028222492 29:0.033203166 30:0.00059411605 31:-0.00019803869 32:-0.00019803869 33:0.99890709 899:0.00019803869 1801:0.00019803869 2124:0.00019803869 2199:0.00019803869 2501:0.00019803869 2601:0.00019803869 2699:0.00019803869 #
75 3:0.0049375831 4:-0.010028889 11:-0.00011373043 12:-0.00011373043 13:-0.00011373043 14:-0.00011373043 15:-0.00011373043 16:-0.00011373043 18:-0.00011373043 19:-0.00011373043 28:0.55230337 29:0.64976925 30:0.10235739 31:-0.00011373043 32:-0.00011373043 33:0.51201439 1801:0.00011373043 2107:0.00011373043 2205:0.00011373043 2502:0.00011373043 2600:0.00011373043 2701:0.00011373043 #
-100 3:0.0071458691 4:-0.024725949 11:-0.00021048229 12:-0.00021048229 13:-0.00021048229 14:-0.00021048229 15:-0.00021048229 16:-0.00021048229 18:-0.00021048229 19:-0.00021048229 28:0.17989922 29:0.21164626 30:0.042096458 31:-0.00021048229 32:-0.00021048229 33:0.9593783 901:0.00021048229 1799:0.00021048229 2106:0.00021048229 2201:0.00021048229 2308:0.00021048229 2403:0.00021048229 2500:0.00021048229 2602:0.00021048229 2702:0.00021048229 #
75 3:0.0078443773 4:-0.014758101 11:0.00019632561 12:-0.00019632561 13:-0.00019632561 14:-0.00019632561 15:-0.00019632561 16:-0.00019632561 18:-0.00019632561 19:-0.00019632561 28:0.028149165 29:0.033116203 30:0.0045154891 31:-0.00019632561 32:-0.00019632561 33:0.99890471 901:0.00019632561 1800:0.00019632561 2103:0.00019632561 2205:0.00019632561 2500:0.00019632561 2602:0.00019632561 2700:0.00019632561 #
-100 3:0.010617825 4:-0.019217109 11:-0.00026002701 12:-0.00026002701 13:-0.00026002701 14:-0.00026002701 15:-0.00026002701 16:-0.00026002701 18:-0.00026002701 19:-0.00026002701 28:0.18234134 29:0.20958698 30:0.014301485 31:0.00026002701 32:0.00026002701 33:0.96027976 901:0.00026002701 1800:0.00026002701 2106:0.00026002701 2201:0.00026002701 2501:0.00026002701 2602:0.00026002701 2701:0.00026002701 #
75 3:0.0065310691 4:-0.023078933 11:-0.00019710886 12:-0.00019710886 13:-0.00019710886 14:-0.00019710886 15:-0.00019710886 16:-0.00019710886 18:-0.00019710886 19:-0.00019710886 28:0.028127436 29:0.033090636 30:0.005913266 31:-0.00019710886 32:-0.00019710886 33:0.99875063 900:0.00019710886 1801:0.00019710886 2115:0.00019710886 2204:0.00019710886 2310:0.00019710886 2401:0.00019710886 2499:0.00019710886 2602:0.00019710886 2699:0.00019710886 #
-100 3:0.0054138028 4:-0.016542701 11:-0.0002061047 12:-0.0002061047 13:-0.0002061047 14:-0.0002061047 15:-0.0002061047 16:-0.0002061047 18:-0.0002061047 19:-0.0002061047 28:0.17842072 29:0.20990732 30:0.012366282 31:-0.0002061047 32:-0.0002061047 33:0.96106619 900:0.0002061047 1801:0.0002061047 2123:0.0002061047 2204:0.0002061047 2314:0.0002061047 2403:0.0002061047 2501:0.0002061047 2601:0.0002061047 2700:0.0002061047 #
75 3:0.019872138 4:-0.036087584 11:-0.00048781402 12:-0.00048781402 13:-0.00048781402 14:-0.00048781402 15:-0.00048781402 16:-0.00048781402 18:-0.00048781402 19:-0.00048781402 28:0.54191256 29:0.66087091 31:-0.00048781402 32:-0.00048781402 33:0.51757067 1801:0.00048781402 2103:0.00048781402 2205:0.00048781402 2499:0.00048781402 2602:0.00048781402 2700:0.00048781402 #
-100 3:0.0097221965 4:-0.021495013 11:-0.00027367522 12:-0.00027367522 13:-0.00027367522 14:-0.00027367522 15:-0.00027367522 16:-0.00027367522 18:-0.00027367522 19:-0.00027367522 28:0.17352104 29:0.21161117 30:0.027367523 31:0.00027367522 32:-0.00027367522 33:0.96114743 899:0.00027367522 1799:0.00027367522 2122:0.00027367522 2202:0.00027367522 2501:0.00027367522 2601:0.00027367522 2702:0.00027367522 #
75 3:0.0077859527 4:-0.016860237 11:0.00019551009 12:-0.00019551009 13:-0.00019551009 14:-0.00019551009 15:-0.00019551009 16:-0.00019551009 18:-0.00019551009 19:-0.00019551009 28:0.028268803 29:0.033258218 30:0.005083262 31:-0.00019551009 32:-0.00019551009 33:0.99886101 901:0.00019551009 1801:0.00019551009 2115:0.00019551009 2204:0.00019551009 2306:0.00019551009 2401:0.00019551009 2501:0.00019551009 2602:0.00019551009 2700:0.00019551009 #
-100 3:0.013879422 4:-0.031673063 11:-0.00038917293 12:-0.00038917293 13:-0.00038917293 14:-0.00038917293 15:-0.00038917293 16:-0.00038917293 18:-0.00038917293 19:-0.00038917293 28:0.17501886 29:0.213438 30:0.0097293239 31:-0.00038917293 32:-0.00038917293 33:0.96047884 899:0.00038917293 1801:0.00038917293 2106:0.00038917293 2201:0.00038917293 2501:0.00038917293 2600:0.00038917293 2701:0.00038917293 #
75 3:0.0072721369 4:-0.018557757 11:-0.00021609117 12:-0.00021609117 13:-0.00021609117 14:-0.00021609117 15:-0.00021609117 16:-0.00021609117 18:-0.00021609117 19:-0.00021609117 28:0.53955805 29:0.65799761 30:0.021609116 31:-0.00021609117 32:-0.00021609117 33:0.52445328 901:0.00021609117 1801:0.00021609117 2106:0.00021609117 2201:0.00021609117 2501:0.00021609117 2602:0.00021609117 2701:0.00021609117 #
75 3:0.0059681423 4:-0.019021615 11:0.00019961465 12:-0.00019961465 13:-0.00019961465 14:-0.00019961465 15:-0.00019961465 16:-0.00019961465 18:-0.00019961465 19:-0.00019961465 28:0.027912116 29:0.032838605 30:0.019961465 31:0.00019961465 32:-0.00019961465 33:0.99867207 901:0.00019961465 1800:0.00019961465 2123:0.00019961465 2204:0.00019961465 2315:0.00019961465 2404:0.00019961465 2499:0.00019961465 2602:0.00019961465 2702:0.00019961465 #
-100 3:0.013922728 4:-0.025275944 11:-0.00034227537 12:-0.00034227537 13:-0.00034227537 14:-0.00034227537 15:-0.00034227537 16:-0.00034227537 18:-0.00034227537 19:0.00034227537 28:0.17147996 29:0.2091234 30:0.047918551 31:-0.00034227537 32:-0.00034227537 33:0.96110922 901:0.00034227537 1800:0.00034227537 2104:0.00034227537 2202:0.00034227537 2299:0.00034227537 2402:0.00034227537 2504:0.00034227537 2602:0.00034227537 2699:0.00034227537 #
75 3:0.0085127 4:-0.017644469 11:-0.00020081276 12:-0.00020081276 13:-0.00020081276 14:-0.00020081276 15:-0.00020081276 16:-0.00020081276 18:-0.00020081276 19:-0.00020081276 28:0.028441112 29:0.033459421 30:0.00060243829 31:-0.00020081276 32:-0.00020081276 33:0.99884272 900:0.00020081276 1801:0.00020081276 2124:0.00020081276 2199:0.00020081276 2500:0.00020081276 2602:0.00020081276 2699:0.00020081276 #
75 3:0.0064225197 4:-0.019319655 11:-0.00021438251 12:-0.00021438251 13:-0.00021438251 14:-0.00021438251 15:-0.00021438251 16:-0.00021438251 18:-0.00021438251 19:-0.00021438251 28:0.53441274 29:0.65172285 30:0.012434185 31:-0.00021438251 32:-0.00021438251 33:0.53767133 1800:0.00021438251 2115:0.00021438251 2204:0.00021438251 2324:0.00021438251 2399:0.00021438251 2501:0.00021438251 2599:0.00021438251 2699:0.00021438251 #
-100 3:0.0064105908 4:-0.022406045 11:-0.00019054675 12:-0.00019054675 13:-0.00019054675 14:-0.00019054675 15:-0.00019054675 16:-0.00019054675 18:-0.00019054675 19:-0.00019054675 28:0.17510293 29:0.2060039 30:0.038871534 31:0.00019054675 32:-0.00019054675 33:0.96168941 900:0.00019054675 1801:0.00019054675 2119:0.00019054675 2204:0.00019054675 2314:0.00019054675 2403:0.00019054675 2501:0.00019054675 2599:0.00019054675 2701:0.00019054675 #
75 3:0.0074508768 4:-0.024284761 11:-0.00019934254 12:-0.00019934254 13:-0.00019934254 14:-0.00019934254 15:-0.00019934254 16:-0.00019934254 18:-0.00019934254 19:-0.00019934254 28:0.028384384 29:0.033393864 30:0.0043855361 31:-0.00019934254 32:-0.00019934254 33:0.9987061 901:0.00019934254 1800:0.00019934254 2115:0.00019934254 2204:0.00019934254 2323:0.00019934254 2404:0.00019934254 2499:0.00019934254 2602:0.00019934254 2699:0.00019934254 #
75 3:0.00820312 4:-0.014935889 11:-0.00020180273 12:-0.00020180273 13:-0.00020180273 14:-0.00020180273 15:-0.00020180273 16:-0.00020180273 18:-0.00020180273 19:-0.00020180273 28:0.52065104 29:0.63494003 30:0.19433603 31:-0.00020180273 32:-0.00020180273 33:0.53639168 901:0.00020180273 1800:0.00020180273 2103:0.00020180273 2205:0.00020180273 2300:0.00020180273 2401:0.00020180273 2504:0.00020180273 2602:0.00020180273 2699:0.00020180273 #
-100 3:0.0066122669 4:-0.019493364 11:-0.00020180435 12:-0.00020180435 13:-0.00020180435 14:-0.00020180435 15:-0.00020180435 16:-0.00020180435 18:-0.00020180435 19:-0.00020180435 28:0.17233688 29:0.20274879 30:0.050451085 31:-0.00020180435 32:-0.00020180435 33:0.96240491 900:0.00020180435 1800:0.00020180435 2122:0.00020180435 2202:0.00020180435 2501:0.00020180435 2602:0.00020180435 2702:0.00020180435 #
75 3:0.0075691678 4:-0.014767063 11:-0.00019616685 12:-0.00019616685 13:-0.00019616685 14:-0.00019616685 15:-0.00019616685 16:-0.00019616685 18:-0.00019616685 19:-0.00019616685 28:0.028532468 29:0.033568069 30:0.0043156706 31:0.00019616685 32:-0.00019616685 33:0.99888158 1801:0.00019616685 2115:0.00019616685 2204:0.00019616685 2305:0.00019616685 2405:0.00019616685 2500:0.00019616685 2601:0.00019616685 2699:0.00019616685 #
-100 3:0.0057128193 4:-0.016844466 11:0.00020405465 12:-0.00020405465 13:-0.00020405465 14:-0.00020405465 15:-0.00020405465 16:-0.00020405465 18:-0.00020405465 19:-0.00020405465 28:0.17516051 29:0.20607072 30:0.008978405 31:0.00020405465 32:-0.00020405465 33:0.96252584 900:0.00020405465 1801:0.00020405465 2110:0.00020405465 2201:0.00020405465 2504:0.00020405465 2600:0.00020405465 2700:0.00020405465 #
-100 3:0.005806528 4:-0.017466975 11:0.00019406798 12:-0.00019406798 13:-0.00019406798 14:-0.00019406798 15:-0.00019406798 16:-0.00019406798 18:-0.00019406798 19:-0.00019406798 28:0.17796423 29:0.20937024 30:0.014555099 31:-0.00019406798 32:-0.00019406798 33:0.96121871 901:0.00019406798 1800:0.00019406798 2110:0.00019406798 2201:0.00019406798 2301:0.00019406798 2401:0.00019406798 2501:0.00019406798 2602:0.00019406798 2702:0.00019406798 #
75 3:0.0057711224 4:-0.015338664 11:-0.00016006811 12:-0.00016006811 13:-0.00016006811 14:-0.00016006811 15:-0.00016006811 16:-0.00016006811 18:-0.00016006811 19:-0.00016006811 28:0.52694422 29:0.64261425 30:0.10404427 31:-0.00016006811 32:-0.00016006811 33:0.54615241 900:0.00016006811 1801:0.00016006811 2115:0.00016006811 2204:0.00016006811 2303:0.00016006811 2405:0.00016006811 2501:0.00016006811 2600:0.00016006811 2700:0.00016006811 #
75 3:0.0083301859 4:-0.01422363 11:-0.00019989396 12:0.00019989396 13:-0.00019989396 14:-0.00019989396 15:-0.00019989396 16:-0.00019989396 18:0.00019989396 19:-0.00019989396 28:0.028504878 29:0.03353421 30:0.0069962884 31:-0.00019989396 32:-0.00019989396 33:0.99887013 901:0.00019989396 1800:0.00019989396 2106:0.00019989396 2201:0.00019989396 2321:0.00019989396 2404:0.00019989396 2500:0.00019989396 2602:0.00019989396 2700:0.00019989396 #
-100 3:0.013319844 4:-0.033481456 11:-0.0003884511 12:-0.0003884511 13:-0.0003884511 14:-0.0003884511 15:-0.0003884511 16:-0.0003884511 18:-0.0003884511 19:-0.0003884511 28:0.17200615 29:0.20976359 30:0.0066036684 31:-0.0003884511 32:-0.0003884511 33:0.96180493 1801:0.0003884511 2123:0.0003884511 2204:0.0003884511 2500:0.0003884511 2602:0.0003884511 2699:0.0003884511 #
75 3:0.010258298 4:-0.023594398 11:-0.00028770108 12:-0.00028770108 13:-0.00028770108 14:-0.00028770108 15:-0.00028770108 16:-0.00028770108 18:-0.00028770108 19:-0.00028770108 28:0.053972721 29:0.065820254 30:0.0057540215 31:-0.00028770108 32:-0.00028770108 33:0.99602115 1800:0.00028770108 2106:0.00028770108 2201:0.00028770108 2306:0.00028770108 2401:0.00028770108 2504:0.00028770108 2601:0.00028770108 2700:0.00028770108 #
75 3:0.0035256001 4:-0.011358141 11:-0.00011630534 12:0.00011630534 13:-0.00011630534 14:-0.00011630534 15:-0.00011630534 16:-0.00011630534 18:-0.00011630534 19:-0.00011630534 28:0.54016387 29:0.63548654 30:0.034891602 31:-0.00011630534 32:-0.00011630534 33:0.55047315 901:0.00011630534 1799:0.00011630534 2119:0.00011630534 2204:0.00011630534 2323:0.00011630534 2404:0.00011630534 2501:0.00011630534 2602:0.00011630534 2702:0.00011630534 #
75 3:0.0075359065 4:-0.024520272 11:-0.00020025668 12:-0.00020025668 13:-0.00020025668 14:-0.00020025668 15:-0.00020025668 16:-0.00020025668 18:-0.00020025668 19:-0.00020025668 28:0.02853257 29:0.033567023 30:0.0062079569 31:-0.00020025668 32:-0.00020025668 33:0.99868006 900:0.00020025668 1800:0.00020025668 2106:0.00020025668 2201:0.00020025668 2315:0.00020025668 2404:0.00020025668 2500:0.00020025668 2600:0.00020025668 2700:0.00020025668 #
-100 3:0.0080890357 4:-0.028618695 11:-0.00024392239 12:-0.00024392239 13:-0.00024392239 14:-0.00024392239 15:-0.00024392239 16:-0.00024392239 18:-0.00024392239 19:-0.00024392239 28:0.173402 29:0.20400205 30:0.043906029 31:-0.00024392239 32:-0.00024392239 33:0.96202993 901:0.00024392239 1801:0.00024392239 2122:0.00024392239 2202:0.00024392239 2320:0.00024392239 2405:0.00024392239 2501:0.00024392239 2600:0.00024392239 2702:0.00024392239 #
-100 3:0.013504366 4:-0.028243782 11:-0.00032206389 12:0.00032206389 13:-0.00032206389 14:-0.00032206389 15:-0.00032206389 16:-0.00032206389 18:-0.00032206389 19:-0.00032206389 28:0.16811736 29:0.20502266 30:0.012882556 31:-0.00032206389 32:-0.00032206389 33:0.96361518 901:0.00032206389 1801:0.00032206389 2124:0.00032206389 2199:0.00032206389 2305:0.00032206389 2405:0.00032206389 2501:0.00032206389 2602:0.00032206389 2699:0.00032206389 #
75 3:0.0081843352 4:-0.014811452 11:-0.00020033383 12:-0.00020033383 13:-0.00020033383 14:-0.00020033383 15:-0.00020033383 16:-0.00020033383 18:-0.00020033383 19:0.00020033383 28:0.028573614 29:0.033616018 30:0.006010015 31:0.00020033383 32:-0.00020033383 33:0.99886447 901:0.00020033383 1800:0.00020033383 2115:0.00020033383 2204:0.00020033383 2321:0.00020033383 2404:0.00020033383 2504:0.00020033383 2602:0.00020033383 2700:0.00020033383 #
75 3:0.0074777091 4:-0.024041194 11:-0.00025159901 12:-0.00025159901 13:-0.00025159901 14:-0.00025159901 15:-0.00025159901 16:-0.00025159901 18:-0.00025159901 19:-0.00025159901 28:0.52145153 29:0.63591647 30:0.0052835792 31:-0.00025159901 32:-0.00025159901 33:0.56836218 901:0.00025159901 1800:0.00025159901 2106:0.00025159901 2201:0.00025159901 2308:0.00025159901 2403:0.00025159901 2501:0.00025159901 2601:0.00025159901 2699:0.00025159901 #
75 3:0.0073557529 4:-0.015928665 11:-0.00020186853 12:-0.00020186853 13:-0.00020186853 14:-0.00020186853 15:-0.00020186853 16:-0.00020186853 18:-0.00020186853 19:-0.00020186853 28:0.028772322 29:0.033849318 30:0.0050467136 31:-0.00020186853 32:-0.00020186853 33:0.99884552 899:0.00020186853 1801:0.00020186853 2106:0.00020186853 2201:0.00020186853 2500:0.00020186853 2602:0.00020186853 2699:0.00020186853 #
75 3:0.010811212 4:-0.023810973 11:-0.00029877745 12:-0.00029877745 13:-0.00029877745 14:-0.00029877745 15:-0.00029877745 16:-0.00029877745 18:-0.00029877745 19:-0.00029877745 28:0.034060627 29:0.041536041 30:0.059755489 31:-0.00029877745 32:-0.00029877745 33:0.99642277 901:0.00029877745 1800:0.00029877745 2121:0.00029877745 2204:0.00029877745 2312:0.00029877745 2405:0.00029877745 2501:0.00029877745 2602:0.00029877745 2700:0.00029877745 #
75 3:0.0090890322 4:-0.019350404 11:-0.00020588997 12:-0.00020588997 13:-0.00020588997 14:-0.00020588997 15:-0.00020588997 16:-0.00020588997 18:-0.00020588997 19:-0.00020588997 28:0.028847244 29:0.033938903 30:0.0035001296 31:-0.00020588997 32:-0.00020588997 33:0.99877226 1800:0.00020588997 2115:0.00020588997 2204:0.00020588997 2499:0.00020588997 2601:0.00020588997 2700:0.00020588997 #
75 3:0.010944813 4:-0.01830399 11:-0.00025601534 12:-0.00025601534 13:-0.00025601534 14:-0.00025601534 15:-0.00025601534 16:-0.00025601534 18:-0.00025601534 19:-0.00025601534 28:0.035401803 29:0.041648574 30:0.040962454 31:0.00025601534 32:-0.00025601534 33:0.99743575 901:0.00025601534 1799:0.00025601534 2108:0.00025601534 2203:0.00025601534 2314:0.00025601534 2403:0.00025601534 2500:0.00025601534 2600:0.00025601534 2702:0.00025601534 #
75 3:0.0064852592 4:-0.021043176 11:-0.00017180741 12:-0.00017180741 13:-0.00017180741 14:-0.00017180741 15:-0.00017180741 16:-0.00017180741 18:-0.00017180741 19:-0.00017180741 28:0.51731211 29:0.6308682 30:0.025771109 31:0.00017180741 32:-0.00017180741 33:0.57727289 901:0.00017180741 1800:0.00017180741 2120:0.00017180741 2205:0.00017180741 2308:0.00017180741 2403:0.00017180741 2501:0.00017180741 2601:0.00017180741 2702:0.00017180741 #
75 3:0.0074523049 4:-0.015395523 11:-0.00019612224 12:-0.00019612224 13:-0.00019612224 14:-0.00019612224 15:-0.00019612224 16:-0.00019612224 18:-0.00019612224 19:-0.00019612224 28:0.036461085 29:0.042895857 30:0.0031379559 31:0.00019612224 32:-0.00019612224 33:0.99826217 900:0.00019612224 1800:0.00019612224 2115:0.00019612224 2204:0.00019612224 2319:0.00019612224 2404:0.00019612224 2504:0.00019612224 2601:0.00019612224 2699:0.00019612224 #
75 3:0.0059375833 4:-0.018864589 11:-0.00019805638 12:-0.00019805638 13:-0.00019805638 14:-0.00019805638 15:-0.00019805638 16:-0.00019805638 18:-0.00019805638 19:-0.00019805638 28:0.028922174 29:0.034026086 30:0.0039611277 31:-0.00019805638 32:-0.00019805638 33:0.99879837 900:0.00019805638 1801:0.00019805638 2121:0.00019805638 2204:0.00019805638 2323:0.00019805638 2404:0.00019805638 2500:0.00019805638 2601:0.00019805638 2702:0.00019805638 #
-100 3:0.01544198 4:-0.033005048 11:-0.00038521001 12:-0.00038521001 13:-0.00038521001 14:-0.00038521001 15:-0.00038521001 16:-0.00038521001 18:-0.00038521001 19:-0.00038521001 28:0.16741227 29:0.2041613 30:0.0077042002 31:-0.00038521001 32:-0.00038521001 33:0.96379542 901:0.00038521001 1801:0.00038521001 2106:0.00038521001 2201:0.00038521001 2501:0.00038521001 2602:0.00038521001 2701:0.00038521001 #
75 3:0.0048701903 4:-0.010460705 11:-0.00012889912 12:-0.00012889912 13:-0.00012889912 14:-0.00012889912 15:-0.00012889912 16:-0.00012889912 18:-0.00012889912 19:-0.00012889912 28:0.52536827 29:0.61808026 30:0.020623859 31:0.00012889912 32:-0.00012889912 33:0.58429968 1800:0.00012889912 2110:0.00012889912 2201:0.00012889912 2322:0.00012889912 2402:0.00012889912 2500:0.00012889912 2602:0.00012889912 2700:0.00012889912 #
75 3:0.0069756773 4:-0.024308376 11:-0.00020552854 12:0.00020552854 13:-0.00020552854 14:-0.00020552854 15:-0.00020552854 16:-0.00020552854 18:-0.00020552854 19:-0.00020552854 28:0.029000077 29:0.03411774 30:0.0051382137 31:-0.00020552854 32:-0.00020552854 33:0.99866319 901:0.00020552854 1800:0.00020552854 2115:0.00020552854 2204:0.00020552854 2321:0.00020552854 2404:0.00020552854 2499:0.00020552854 2601:0.00020552854 2699:0.00020552854 #
-100 3:0.0081872568 4:-0.028348366 11:-0.00023952665 12:-0.00023952665 13:-0.00023952665 14:-0.00023952665 15:-0.00023952665 16:-0.00023952665 18:-0.00023952665 19:-0.00023952665 28:0.16706744 29:0.19655077 30:0.076648526 31:-0.00023952665 32:-0.00023952665 33:0.96265757 901:0.00023952665 1799:0.00023952665 2100:0.00023952665 2201:0.00023952665 2501:0.00023952665 2601:0.00023952665 2701:0.00023952665 #
75 3:0.0086443685 4:-0.017502656 11:-0.00021219287 12:-0.00021219287 13:-0.00021219287 14:-0.00021219287 15:-0.00021219287 16:-0.00021219287 18:-0.00021219287 19:-0.00021219287 28:0.029095886 29:0.034230955 30:0.0038194717 31:0.00021219287 32:-0.00021219287 33:0.99879187 901:0.00021219287 1801:0.00021219287 2115:0.00021219287 2204:0.00021219287 2306:0.00021219287 2401:0.00021219287 2499:0.00021219287 2602:0.00021219287 2700:0.00021219287 #
-100 3:0.0090375943 4:-0.02191647 11:-0.00027358159 12:-0.00027358159 13:-0.00027358159 14:-0.00027358159 15:-0.00027358159 16:-0.00027358159 18:-0.00027358159 19:-0.00027358159 28:0.16166483 29:0.19715109 30:0.013679079 31:0.00027358159 32:-0.00027358159 33:0.96656376 1800:0.00027358159 2115:0.00027358159 2204:0.00027358159 2323:0.00027358159 2404:0.00027358159 2501:0.00027358159 2601:0.00027358159 2700:0.00027358159 #
75 3:0.0067922999 4:-0.022043889 11:-0.0001800124 12:-0.0001800124 13:0.0001800124 14:-0.0001800124 15:-0.0001800124 16:-0.0001800124 18:-0.0001800124 19:-0.0001800124 28:0.50961512 29:0.62148201 30:0.014400992 31:0.0001800124 32:-0.0001800124 33:0.59440094 901:0.0001800124 1799:0.0001800124 2110:0.0001800124 2201:0.0001800124 2320:0.0001800124 2405:0.0001800124 2501:0.0001800124 2601:0.0001800124 2702:0.0001800124 #
-100 3:0.0093635609 4:-0.016584722 11:-0.00021754901 12:-0.00021754901 13:-0.00021754901 14:-0.00021754901 15:-0.00021754901 16:-0.00021754901 18:-0.00021754901 19:-0.00021754901 28:0.17387822 29:0.2045635 30:0.0039158822 31:-0.00021754901 32:-0.00021754901 33:0.96308947 900:0.00021754901 1801:0.00021754901 2124:0.00021754901 2199:0.00021754901 2504:0.00021754901 2600:0.00021754901 2700:0.00021754901 #
75 3:0.010324704 4:-0.033354253 11:-0.00027397409 12:-0.00027397409 13:-0.00027397409 14:-0.00027397409 15:-0.00027397409 16:-0.00027397409 18:-0.00027397409 19:-0.00027397409 28:0.028479606 29:0.034731694 30:0.0060274298 31:-0.00027397409 32:-0.00027397409 33:0.99836153 900:0.00027397409 1801:0.00027397409 2115:0.00027397409 2204:0.00027397409 2323:0.00027397409 2404:0.00027397409 2504:0.00027397409 2601:0.00027397409 2699:0.00027397409 #
75 3:0.0079526529 4:-0.016354855 11:-0.00019845246 12:-0.00019845246 13:-0.00019845246 14:-0.00019845246 15:-0.00019845246 16:-0.00019845246 18:-0.00019845246 19:-0.00019845246 28:0.029148698 29:0.034292586 30:0.0043659541 31:-0.00019845246 32:-0.00019845246 33:0.99881124 900:0.00019845246 1800:0.00019845246 2106:0.00019845246 2201:0.00019845246 2500:0.00019845246 2601:0.00019845246 2700:0.00019845246 #
-100 3:0.0064094234 4:-0.018995527 11:0.0001958475 12:-0.0001958475 13:-0.0001958475 14:-0.0001958475 15:-0.0001958475 16:-0.0001958475 18:0.0001958475 19:-0.0001958475 28:0.16081233 29:0.18919064 30:0.039169502 31:-0.0001958475 32:-0.0001958475 33:0.96768248 900:0.0001958475 1800:0.0001958475 2103:0.0001958475 2205:0.0001958475 2307:0.0001958475 2405:0.0001958475 2500:0.0001958475 2602:0.0001958475 2701:0.0001958475 #
75 3:0.011631961 4:-0.024313554 11:-0.00027722854 12:-0.00027722854 13:-0.00027722854 14:-0.00027722854 15:-0.00027722854 16:-0.00027722854 18:-0.00027722854 19:-0.00027722854 28:0.028390974 29:0.034623072 30:0.010534684 31:-0.00027722854 32:-0.00027722854 33:0.99857712 901:0.00027722854 1799:0.00027722854 2115:0.00027722854 2204:0.00027722854 2321:0.00027722854 2404:0.00027722854 2499:0.00027722854 2602:0.00027722854 2701:0.00027722854 #
-100 3:0.019262208 4:-0.034872808 11:-0.00047241227 12:-0.00047241227 13:-0.00047241227 14:-0.00047241227 15:-0.00047241227 16:-0.00047241227 18:-0.00047241227 19:-0.00047241227 28:0.15931159 29:0.19428428 30:0.011810306 31:-0.00047241227 32:-0.00047241227 33:0.9670279 901:0.00047241227 1801:0.00047241227 2103:0.00047241227 2205:0.00047241227 2504:0.00047241227 2602:0.00047241227 2700:0.00047241227 #
75 3:0.0048700655 4:-0.016255176 11:-0.00014495863 12:-0.00014495863 13:-0.00014495863 14:-0.00014495863 15:-0.00014495863 16:-0.00014495863 18:-0.00014495863 19:-0.00014495863 28:0.50612307 29:0.59543931 30:0.021743793 31:-0.00014495863 32:-0.00014495863 33:0.62332207 901:0.00014495863 1801:0.00014495863 2106:0.00014495863 2201:0.00014495863 2501:0.00014495863 2601:0.00014495863 2702:0.00014495863 #
-100 3:0.012387517 4:-0.022576869 11:-0.00030506041 12:-0.00030506041 13:-0.00030506041 14:-0.00030506041 15:-0.00030506041 16:-0.00030506041 18:-0.00030506041 19:-0.00030506041 28:0.15436058 29:0.18824364 30:0.061012086 31:-0.00030506041 32:-0.00030506041 33:0.96765167 901:0.00030506041 1800:0.00030506041 2122:0.00030506041 2202:0.00030506041 2322:0.00030506041 2402:0.00030506041 2501:0.00030506041 2602:0.00030506041 2700:0.00030506041 #
75 3:0.0066177757 4:-0.023659542 11:0.00020199608 12:-0.00020199608 13:-0.00020199608 14:-0.00020199608 15:-0.00020199608 16:-0.00020199608 18:-0.00020199608 19:-0.00020199608 28:0.029188434 29:0.034339335 30:0.005049902 31:0.00020199608 32:-0.00020199608 33:0.99866861 901:0.00020199608 1801:0.00020199608 2115:0.00020199608 2204:0.00020199608 2310:0.00020199608 2401:0.00020199608 2499:0.00020199608 2602:0.00020199608 2699:0.00020199608 #
-100 3:0.0097875865 4:-0.017728295 11:-0.00023981152 12:-0.00023981152 13:-0.00023981152 14:-0.00023981152 15:-0.00023981152 16:-0.00023981152 18:-0.00023981152 19:-0.00023981152 28:0.16461381 29:0.19366218 30:0.0071943454 31:-0.00023981152 32:-0.00023981152 33:0.96692002 901:0.00023981152 1800:0.00023981152 2124:0.00023981152 2199:0.00023981152 2315:0.00023981152 2404:0.00023981152 2501:0.00023981152 2602:0.00023981152 2701:0.00023981152 #
75 3:0.0091183959 4:-0.026445823 11:-0.00021516295 12:-0.00021516295 13:-0.00021516295 14:-0.00021516295 15:-0.00021516295 16:-0.00021516295 18:-0.00021516295 19:-0.00021516295 28:0.029204067 29:0.03435722 30:0.0062397253 31:-0.00021516295 32:-0.00021516295 33:0.99857122 900:0.00021516295 1801:0.00021516295 2115:0.00021516295 2204:0.00021516295 2499:0.00021516295 2602:0.00021516295 2699:0.00021516295 #
-100 3:0.0071895621 4:-0.022013787 11:-0.00019381562 12:-0.00019381562 13:-0.00019381562 14:-0.00019381562 15:-0.00019381562 16:-0.00019381562 18:-0.00019381562 19:-0.00019381562 28:0.15509126 29:0.18245995 30:0.038763121 31:0.00019381562 32:-0.00019381562 33:0.96985334 901:0.00019381562 1801:0.00019381562 2114:0.00019381562 2203:0.00019381562 2323:0.00019381562 2404:0.00019381562 2501:0.00019381562 2601:0.00019381562 2702:0.00019381562 #
75 3:0.00640749 4:-0.020705884 11:-0.00016936571 12:0.00016936571 13:-0.00016936571 14:-0.00016936571 15:-0.00016936571 16:-0.00016936571 18:0.00016936571 19:-0.00016936571 28:0.48924673 29:0.59664154 30:0.012702428 31:-0.00016936571 32:-0.00016936571 33:0.63562953 1800:0.00016936571 2100:0.00016936571 2201:0.00016936571 2301:0.00016936571 2401:0.00016936571 2501:0.00016936571 2601:0.00016936571 2702:0.00016936571 #
75 3:0.0083416849 4:-0.016274204 11:-0.00021618784 12:-0.00021618784 13:-0.00021618784 14:-0.00021618784 15:-0.00021618784 16:-0.00021618784 18:-0.00021618784 19:-0.00021618784 28:0.029159416 29:0.034304686 30:0.0077827619 31:0.00021618784 32:-0.00021618784 33:0.99878782 1800:0.00021618784 2115:0.00021618784 2204:0.00021618784 2324:0.00021618784 2399:0.00021618784 2500:0.00021618784 2601:0.00021618784 2699:0.00021618784 #
75 3:0.0068036974 4:-0.016512288 11:-0.00020560149 12:-0.00020560149 13:-0.00020560149 14:-0.00020560149 15:-0.00020560149 16:-0.00020560149 18:-0.00020560149 19:-0.00020560149 28:0.029320829 29:0.034495819 30:0.0022616163 31:-0.00020560149 32:-0.00020560149 33:0.99881202 899:0.00020560149 1800:0.00020560149 2115:0.00020560149 2204:0.00020560149 2324:0.00020560149 2399:0.00020560149 2501:0.00020560149 2602:0.00020560149 2700:0.00020560149 #
-100 3:0.0074826749 4:-0.025950549 11:-0.00021951225 12:-0.00021951225 13:-0.00021951225 14:-0.00021951225 15:-0.00021951225 16:-0.00021951225 18:-0.00021951225 19:-0.00021951225 28:0.15604687 29:0.18358468 30:0.02634147 31:-0.00021951225 32:-0.00021951225 33:0.96980512 901:0.00021951225 1799:0.00021951225 2123:0.00021951225 2204:0.00021951225 2501:0.00021951225 2601:0.00021951225 2701:0.00021951225 #
-100 3:0.012185741 4:-0.028460719 11:-0.00036087245 12:-0.00036087245 13:-0.00036087245 14:-0.00036087245 15:-0.00036087245 16:-0.00036087245 18:-0.00036087245 19:-0.00036087245 28:0.15450393 29:0.18841873 30:0.010826174 31:-0.00036087245 32:-0.00036087245 33:0.96930343 1799:0.00036087245 2114:0.00036087245 2203:0.00036087245 2501:0.00036087245 2600:0.00036087245 2702:0.00036087245 #
75 3:0.0053072474 4:-0.011508107 11:-0.00014783865 12:-0.00014783865 13:-0.00014783865 14:-0.00014783865 15:-0.00014783865 16:-0.00014783865 18:-0.00014783865 19:-0.00014783865 28:0.49816155 29:0.58607233 30:0.022175798 31:-0.00014783865 32:-0.00014783865 33:0.63851511 901:0.00014783865 1800:0.00014783865 2122:0.00014783865 2202:0.00014783865 2501:0.00014783865 2602:0.00014783865 2702:0.00014783865 #
-100 3:0.0058077476 4:-0.016912054 11:-0.00019099636 12:-0.00019099636 13:-0.00019099636 14:-0.00019099636 15:-0.00019099636 16:-0.00019099636 18:-0.00019099636 19:-0.00019099636 28:0.16019246 29:0.18846184 30:0.020627607 31:-0.00019099636 32:-0.00019099636 33:0.96854252 900:0.00019099636 1801:0.00019099636 2123:0.00019099636 2204:0.00019099636 2501:0.00019099636 2602:0.00019099636 2701:0.00019099636 #
75 3:0.0084814364 4:-0.015422151 11:-0.00020851918 12:-0.00020851918 13:-0.00020851918 14:-0.00020851918 15:-0.00020851918 16:-0.00020851918 18:-0.00020851918 19:-0.00020851918 28:0.029317796 29:0.034491159 30:0.0050044605 31:-0.00020851918 32:-0.00020851918 33:0.99880689 901:0.00020851918 1799:0.00020851918 2123:0.00020851918 2204:0.00020851918 2305:0.00020851918 2405:0.00020851918 2500:0.00020851918 2602:0.00020851918 2699:0.00020851918 #
75 3:0.0086483005 4:-0.019890137 11:-0.00024444141 12:-0.00024444141 13:-0.00024444141 14:-0.00024444141 15:-0.00024444141 16:-0.00024444141 18:-0.00024444141 19:-0.00024444141 28:0.03764642 29:0.044290338 30:0.0061110351 31:0.00024444141 32:-0.00024444141 33:0.99805427 1801:0.00024444141 2115:0.00024444141 2204:0.00024444141 2300:0.00024444141 2401:0.00024444141 2500:0.00024444141 2601:0.00024444141 2699:0.00024444141 #
75 3:0.014454198 4:-0.026254825 11:-0.00035539869 12:0.00035539869 13:-0.00035539869 14:-0.00035539869 15:-0.00035539869 16:-0.00035539869 18:-0.00035539869 19:-0.00035539869 28:0.48340619 29:0.58952111 30:0.1066196 31:-0.00035539869 32:-0.00035539869 33:0.63758522 901:0.00035539869 1799:0.00035539869 2105:0.00035539869 2205:0.00035539869 2317:0.00035539869 2405:0.00035539869 2501:0.00035539869 2602:0.00035539869 2701:0.00035539869 #
-100 3:0.011461481 4:-0.039646246 11:-0.00033453366 12:0.00033453366 13:-0.00033453366 14:-0.00033453366 15:-0.00033453366 16:-0.00033453366 18:-0.00033453366 19:-0.00033453366 28:0.14987108 29:0.18276912 30:0.043489378 31:-0.00033453366 32:-0.00033453366 33:0.96981311 901:0.00033453366 1799:0.00033453366 2122:0.00033453366 2202:0.00033453366 2323:0.00033453366 2404:0.00033453366 2500:0.00033453366 2602:0.00033453366 2701:0.00033453366 #
75 3:0.011847526 4:-0.024822881 11:-0.00028282529 12:-0.00028282529 13:-0.00028282529 14:-0.00028282529 15:-0.00028282529 16:-0.00028282529 18:-0.00028282529 19:-0.00028282529 28:0.4829666 29:0.58898365 30:0.10605948 31:-0.00028282529 32:-0.00028282529 33:0.63861948 901:0.00028282529 1801:0.00028282529 2122:0.00028282529 2202:0.00028282529 2303:0.00028282529 2405:0.00028282529 2501:0.00028282529 2602:0.00028282529 2701:0.00028282529 #
75 3:0.011583025 4:-0.024320213 11:0.00027746265 12:-0.00027746265 13:-0.00027746265 14:-0.00027746265 15:-0.00027746265 16:-0.00027746265 18:0.00027746265 19:-0.00027746265 28:0.028686862 29:0.034985263 30:0.006936566 31:0.00027746265 32:-0.00027746265 33:0.99858803 901:0.00027746265 1800:0.00027746265 2100:0.00027746265 2201:0.00027746265 2500:0.00027746265 2602:0.00027746265 2702:0.00027746265 #
-100 3:0.010026732 4:-0.023703609 11:-0.00029957062 12:-0.00029957062 13:-0.00029957062 14:-0.00029957062 15:-0.00029957062 16:-0.00029957062 18:-0.00029957062 19:-0.00029957062 28:0.15547715 29:0.18960723 30:0.0059914123 31:0.00029957062 32:-0.00029957062 33:0.96911097 1801:0.00029957062 2115:0.00029957062 2204:0.00029957062 2308:0.00029957062 2403:0.00029957062 2499:0.00029957062 2600:0.00029957062 2700:0.00029957062 #
-100 3:0.013178186 4:-0.026076103 11:-0.00033847237 12:-0.00033847237 13:-0.00033847237 14:-0.00033847237 15:-0.00033847237 16:-0.00033847237 18:-0.00033847237 19:-0.00033847237 28:0.15772814 29:0.19235046 30:0.013538895 31:-0.00033847237 32:-0.00033847237 33:0.96803099 901:0.00033847237 1800:0.00033847237 2123:0.00033847237 2204:0.00033847237 2315:0.00033847237 2404:0.00033847237 2500:0.00033847237 2602:0.00033847237 2699:0.00033847237 #
75 3:0.0070552481 4:-0.024003513 11:-0.00020442935 12:-0.00020442935 13:0.00020442935 14:-0.00020442935 15:-0.00020442935 16:-0.00020442935 18:-0.00020442935 19:-0.00020442935 28:0.029331524 29:0.034507673 30:0.0067461687 31:-0.00020442935 32:0.00020442935 33:0.99863738 899:0.00020442935 1800:0.00020442935 2106:0.00020442935 2201:0.00020442935 2323:0.00020442935 2404:0.00020442935 2500:0.00020442935 2602:0.00020442935 2701:0.00020442935 #
-100 3:0.0092708198 4:-0.018501416 11:0.00022730722 12:-0.00022730722 13:-0.00022730722 14:-0.00022730722 15:-0.00022730722 16:-0.00022730722 18:-0.00022730722 19:-0.00022730722 28:0.14638358 29:0.17221704 30:0.068192169 31:-0.00022730722 32:-0.00022730722 33:0.97151107 900:0.00022730722 1801:0.00022730722 2104:0.00022730722 2202:0.00022730722 2303:0.00022730722 2405:0.00022730722 2504:0.00022730722 2602:0.00022730722 2701:0.00022730722 #
75 3:0.012745277 4:-0.023130793 11:-0.00031263108 12:0.00031263108 13:-0.00031263108 14:-0.00031263108 15:-0.00031263108 16:-0.00031263108 18:-0.00031263108 19:-0.00031263108 28:0.48131117 29:0.58696485 30:0.062526219 31:-0.00031263108 32:-0.00031263108 33:0.64745897 901:0.00031263108 1800:0.00031263108 2104:0.00031263108 2202:0.00031263108 2501:0.00031263108 2602:0.00031263108 2702:0.00031263108 #
-100 3:0.0049773017 4:-0.015406291 11:-0.00019207725 12:-0.00019207725 13:-0.00019207725 14:-0.00019207725 15:-0.00019207725 16:-0.00019207725 18:-0.00019207725 19:-0.00019207725 28:0.15454727 29:0.18182033 30:0.067227036 31:0.00019207725 32:-0.00019207725 33:0.96864557 900:0.00019207725 1800:0.00019207725 2108:0.00019207725 2203:0.00019207725 2500:0.00019207725 2602:0.00019207725 2700:0.00019207725 #
75 3:0.0081866123 4:-0.017180426 11:-0.000195685 12:-0.000195685 13:-0.000195685 14:-0.000195685 15:-0.000195685 16:-0.000195685 18:-0.000195685 19:-0.000195685 28:0.029389931 29:0.034575582 30:0.0048921253 31:-0.000195685 32:-0.000195685 33:0.99877626 900:0.000195685 1800:0.000195685 2115:0.000195685 2204:0.000195685 2500:0.000195685 2601:0.000195685 2699:0.000195685 #
-100 3:0.012990826 4:-0.025757935 11:-0.00032198787 12:-0.00032198787 13:-0.00032198787 14:-0.00032198787 15:-0.00032198787 16:-0.00032198787 18:-0.00032198787 19:-0.00032198787 28:0.1542322 29:0.18808922 30:0.0077277091 31:-0.00032198787 32:-0.00032198787 33:0.96950555 900:0.00032198787 1801:0.00032198787 2105:0.00032198787 2205:0.00032198787 2323:0.00032198787 2404:0.00032198787 2504:0.00032198787 2600:0.00032198787 2699:0.00032198787 #
75 3:0.015310254 4:-0.027855122 11:-0.00037651625 12:-0.00037651625 13:-0.00037651625 14:-0.00037651625 15:-0.00037651625 16:-0.00037651625 18:-0.00037651625 19:-0.00037651625 28:0.4797495 29:0.58506107 30:0.075303249 31:-0.00037651625 32:-0.00037651625 33:0.64873749 901:0.00037651625 1800:0.00037651625 2122:0.00037651625 2202:0.00037651625 2322:0.00037651625 2402:0.00037651625 2501:0.00037651625 2600:0.00037651625 2700:0.00037651625 #
75 3:0.0070337392 4:-0.024613392 11:-0.00020826358 12:0.00020826358 13:0.00020826358 14:-0.00020826358 15:-0.00020826358 16:-0.00020826358 18:-0.00020826358 19:-0.00020826358 28:0.029360998 29:0.034542598 30:0.0062479074 31:-0.00020826358 32:-0.00020826358 33:0.99862385 901:0.00020826358 1800:0.00020826358 2115:0.00020826358 2204:0.00020826358 2323:0.00020826358 2404:0.00020826358 2499:0.00020826358 2602:0.00020826358 2699:0.00020826358 #
75 3:0.019845624 4:-0.039269153 11:-0.00050979346 12:-0.00050979346 13:-0.00050979346 14:-0.00050979346 15:-0.00050979346 16:-0.00050979346 18:-0.00050979346 19:-0.00050979346 28:0.48073524 29:0.58626246 30:0.010195869 31:-0.00050979346 32:-0.00050979346 33:0.65049648 901:0.00050979346 1799:0.00050979346 2104:0.00050979346 2202:0.00050979346 2504:0.00050979346 2602:0.00050979346 2700:0.00050979346 #
