SVM-light Version V6.02
2 # kernel type
3 # kernel parameter -d 
1 # kernel parameter -g 
1 # kernel parameter -s 
1 # kernel parameter -r 
empty# kernel parameter -u 
2702 # highest feature index 
10000 # number of training documents 
6438 # number of support vectors plus 1 
0 # threshold b, each following line is a SV (starting with alpha*y)
-100 3:0.010802961 4:-0.023435095 11:-0.00027162931 12:-0.00027162931 13:-0.00027162931 14:-0.00027162931 15:-0.00027162931 16:-0.00027162931 18:-0.00027162931 19:-0.00027162931 28:0.062928364 29:0.076740712 30:0.0065191034 31:0.00027162931 32:-0.00027162931 33:0.99470651 901:0.00027162931 1801:0.00027162931 2115:0.00027162931 2204:0.00027162931 2321:0.00027162931 2404:0.00027162931 2500:0.00027162931 2602:0.00027162931 2699:0.00027162931 #
90 3:0.0097421305 4:-0.019012287 11:-0.00024790302 12:-0.00024790302 13:-0.00024790302 14:-0.00024790302 15:-0.00024790302 16:-0.00024790302 18:-0.00024790302 19:-0.00024790302 28:0.06401848 29:0.075315416 30:0.0086766062 31:-0.00024790302 32:-0.00024790302 33:0.99483484 901:0.00024790302 1800:0.00024790302 2115:0.00024790302 2204:0.00024790302 2324:0.00024790302 2399:0.00024790302 2501:0.00024790302 2602:0.00024790302 2700:0.00024790302 #
90 3:0.0089537948 4:-0.019186532 11:-0.00022479102 12:-0.00022479102 13:-0.00022479102 14:-0.00022479102 15:-0.00022479102 16:-0.00022479102 18:-0.00022479102 19:-0.00022479102 28:0.064924143 29:0.076381736 30:0.008542059 31:0.00022479102 32:-0.00022479102 33:0.99470025 899:0.00022479102 1799:0.00022479102 2123:0.00022479102 2204:0.00022479102 2501:0.00022479102 2601:0.00022479102 2702:0.00022479102 #
78.944548690225929021835327148438 3:0.0090979114 4:-0.016381666 11:-0.00021160766 12:-0.00021160766 13:-0.00021160766 14:-0.00021160766 15:-0.00021160766 16:-0.00021160766 18:-0.00021160766 19:-0.00021160766 28:0.10018353 29:0.11786336 30:0.0010580383 31:-0.00021160766 32:-0.00021160766 33:0.98778456 900:0.00021160766 1800:0.00021160766 2123:0.00021160766 2204:0.00021160766 2324:0.00021160766 2399:0.00021160766 2500:0.00021160766 2600:0.00021160766 2699:0.00021160766 #
-100 3:0.007395755 4:-0.023317581 11:-0.00023836033 12:-0.00023836033 13:-0.00023836033 14:-0.00023836033 15:-0.00023836033 16:-0.00023836033 18:-0.00023836033 19:-0.00023836033 28:0.34764615 29:0.42395958 30:0.0047672065 31:-0.00023836033 32:-0.00023836033 33:0.83592963 1801:0.00023836033 2106:0.00023836033 2201:0.00023836033 2501:0.00023836033 2602:0.00023836033 2699:0.00023836033 #
90 3:0.0086655719 4:-0.025544459 11:-0.0002644058 12:-0.0002644058 13:-0.0002644058 14:-0.0002644058 15:-0.0002644058 16:-0.0002644058 18:-0.0002644058 19:-0.0002644058 28:0.061106827 29:0.074520133 30:0.0063457391 31:0.0002644058 32:-0.0002644058 33:0.99495906 900:0.0002644058 1801:0.0002644058 2123:0.0002644058 2204:0.0002644058 2306:0.0002644058 2401:0.0002644058 2500:0.0002644058 2602:0.0002644058 2700:0.0002644058 #
-100 3:0.0081590107 4:-0.019519728 11:-0.00024059333 12:-0.00024059333 13:-0.00024059333 14:-0.00024059333 15:-0.00024059333 16:-0.00024059333 18:-0.00024059333 19:-0.00024059333 28:0.067065395 29:0.078900181 30:0.0072178002 31:-0.00024059333 32:-0.00024059333 33:0.99437225 900:0.00024059333 1801:0.00024059333 2104:0.00024059333 2202:0.00024059333 2299:0.00024059333 2402:0.00024059333 2500:0.00024059333 2602:0.00024059333 2700:0.00024059333 #
90 3:0.0083232438 4:-0.026592469 11:-0.00027581811 12:-0.00027581811 13:-0.00027581811 14:-0.00027581811 15:-0.00027581811 16:-0.00027581811 18:-0.00027581811 19:-0.00027581811 28:0.069870248 29:0.08520849 30:0.006619635 31:0.00027581811 32:-0.00027581811 33:0.99349689 1801:0.00027581811 2115:0.00027581811 2204:0.00027581811 2324:0.00027581811 2399:0.00027581811 2500:0.00027581811 2601:0.00027581811 2700:0.00027581811 #
90 3:0.0082210684 4:-0.026382701 11:-0.0002309082 12:-0.0002309082 13:-0.0002309082 14:-0.0002309082 15:-0.0002309082 16:-0.0002309082 18:-0.0002309082 19:-0.0002309082 28:0.054953843 29:0.064651988 30:0.069272459 31:-0.0002309082 32:-0.0002309082 33:0.99359798 899:0.0002309082 1801:0.0002309082 2112:0.0002309082 2205:0.0002309082 2500:0.0002309082 2602:0.0002309082 2701:0.0002309082 #
35.991142210220218089489208068699 3:0.007993347 4:-0.026025189 11:-0.00021264017 12:-0.00021264017 13:-0.00021264017 14:-0.00021264017 15:-0.00021264017 16:-0.00021264017 18:-0.00021264017 19:-0.00021264017 28:0.066643551 29:0.07840468 30:0.0051033641 31:0.00021264017 32:-0.00021264017 33:0.99430543 900:0.00021264017 1800:0.00021264017 2115:0.00021264017 2204:0.00021264017 2323:0.00021264017 2404:0.00021264017 2499:0.00021264017 2600:0.00021264017 2699:0.00021264017 #
-100 3:0.008308107 4:-0.028805099 11:0.00024288018 12:-0.00024288018 13:-0.00024288018 14:-0.00024288018 15:-0.00024288018 16:-0.00024288018 18:-0.00024288018 19:-0.00024288018 28:0.067340955 29:0.079225086 30:0.0060720043 31:-0.00024288018 32:-0.00024288018 33:0.99410856 901:0.00024288018 1801:0.00024288018 2100:0.00024288018 2201:0.00024288018 2315:0.00024288018 2404:0.00024288018 2499:0.00024288018 2602:0.00024288018 2700:0.00024288018 #
4.0000280282660725106325116939843 3:0.0090291779 4:-0.032307919 11:0.00027591913 12:-0.00027591913 13:0.00027591913 14:-0.00027591913 15:-0.00027591913 16:-0.00027591913 18:-0.00027591913 19:-0.00027591913 28:0.066714488 29:0.081360273 30:0.0066220588 31:0.00027591913 32:-0.00027591913 33:0.99386066 901:0.00027591913 1801:0.00027591913 2115:0.00027591913 2204:0.00027591913 2321:0.00027591913 2404:0.00027591913 2500:0.00027591913 2602:0.00027591913 2699:0.00027591913 #
-100 3:0.010468941 4:-0.033447895 11:-0.00034692287 12:-0.00034692287 13:-0.00034692287 14:-0.00034692287 15:-0.00034692287 16:-0.00034692287 18:-0.00034692287 19:-0.00034692287 28:0.065915346 29:0.080385499 30:0.0076323031 31:-0.00034692287 32:-0.00034692287 33:0.99393398 1801:0.00034692287 2106:0.00034692287 2201:0.00034692287 2501:0.00034692287 2601:0.00034692287 2700:0.00034692287 #
90 3:0.0070579872 4:-0.015540387 11:-0.00019652362 12:-0.00019652362 13:-0.00019652362 14:-0.00019652362 15:-0.00019652362 16:-0.00019652362 18:-0.00019652362 19:-0.00019652362 28:0.064697541 29:0.076115556 30:0.0098261805 31:-0.00019652362 32:-0.00019652362 33:0.99480253 900:0.00019652362 1799:0.00019652362 2119:0.00019652362 2204:0.00019652362 2315:0.00019652362 2404:0.00019652362 2501:0.00019652362 2600:0.00019652362 2700:0.00019652362 #
-100 3:0.0092375791 4:-0.029875902 11:-0.0002444339 12:-0.0002444339 13:-0.0002444339 14:0.0002444339 15:-0.0002444339 16:-0.0002444339 18:-0.0002444339 19:-0.0002444339 28:0.062377091 29:0.07338395 30:0.0051331124 31:-0.0002444339 32:-0.0002444339 33:0.99484605 901:0.0002444339 1800:0.0002444339 2115:0.0002444339 2204:0.0002444339 2500:0.0002444339 2602:0.0002444339 2699:0.0002444339 #
-100 3:0.0099682221 4:-0.01801404 11:-0.00024392473 12:-0.00024392473 13:-0.00024392473 14:-0.00024392473 15:-0.00024392473 16:-0.00024392473 18:-0.00024392473 19:-0.00024392473 28:0.1154447 29:0.13581729 30:0.0063420427 31:-0.00024392473 32:-0.00024392473 33:0.98374844 901:0.00024392473 1801:0.00024392473 2123:0.00024392473 2204:0.00024392473 2315:0.00024392473 2404:0.00024392473 2504:0.00024392473 2602:0.00024392473 2700:0.00024392473 #
-100 3:0.0077831363 4:-0.026999785 11:-0.00022885751 12:-0.00022885751 13:-0.00022885751 14:-0.00022885751 15:-0.00022885751 16:-0.00022885751 18:-0.00022885751 19:-0.00022885751 28:0.21333182 29:0.25097889 30:0.061791528 31:-0.00022885751 32:-0.00022885751 33:0.94174862 900:0.00022885751 1799:0.00022885751 2100:0.00022885751 2201:0.00022885751 2501:0.00022885751 2602:0.00022885751 2702:0.00022885751 #
2.0000088811945651023904702014988 3:0.0085922508 4:-0.029564893 11:-0.00025381646 12:-0.00025381646 13:-0.00025381646 14:-0.00025381646 15:-0.00025381646 16:-0.00025381646 18:-0.00025381646 19:-0.00025381646 28:0.056268573 29:0.066197872 30:0.0063454118 31:-0.00025381646 32:-0.00025381646 33:0.995722 900:0.00025381646 1801:0.00025381646 2101:0.00025381646 2201:0.00025381646 2310:0.00025381646 2401:0.00025381646 2500:0.00025381646 2602:0.00025381646 2700:0.00025381646 #
90 3:0.0076006786 4:-0.016832747 11:-0.00021144738 12:-0.00021144738 13:-0.00021144738 14:-0.00021144738 15:-0.00021144738 16:-0.00021144738 18:-0.00021144738 19:-0.00021144738 28:0.07519915 29:0.088469587 30:0.014589869 31:0.00021144738 32:-0.00021144738 33:0.99295688 899:0.00021144738 1801:0.00021144738 2115:0.00021144738 2204:0.00021144738 2314:0.00021144738 2403:0.00021144738 2499:0.00021144738 2601:0.00021144738 2700:0.00021144738 #
90 3:0.0069310153 4:-0.023161618 11:-0.00020640495 12:-0.00020640495 13:-0.00020640495 14:-0.00020640495 15:-0.00020640495 16:-0.00020640495 18:-0.00020640495 19:-0.00020640495 28:0.084458835 29:0.099363342 30:0.004128099 31:0.00020640495 32:-0.00020640495 33:0.99115652 900:0.00020640495 1801:0.00020640495 2105:0.00020640495 2205:0.00020640495 2315:0.00020640495 2404:0.00020640495 2504:0.00020640495 2602:0.00020640495 2699:0.00020640495 #
-100 3:0.0094444109 4:-0.018425567 11:-0.00024476671 12:-0.00024476671 13:-0.00024476671 14:-0.00024476671 15:-0.00024476671 16:-0.00024476671 18:-0.00024476671 19:-0.00024476671 28:0.036783539 29:0.043274753 30:0.0048953341 31:0.00024476671 32:-0.00024476671 33:0.99815863 1800:0.00024476671 2114:0.00024476671 2203:0.00024476671 2500:0.00024476671 2601:0.00024476671 2700:0.00024476671 #
90 3:0.0089653432 4:-0.01836269 11:-0.00020880274 12:-0.00020880274 13:-0.00020880274 14:0.00020880274 15:-0.00020880274 16:-0.00020880274 18:-0.00020880274 19:-0.00020880274 28:0.17830083 29:0.20976532 30:0.0062640822 31:-0.00020880274 32:-0.00020880274 33:0.961119 901:0.00020880274 1800:0.00020880274 2115:0.00020880274 2204:0.00020880274 2319:0.00020880274 2404:0.00020880274 2501:0.00020880274 2602:0.00020880274 2700:0.00020880274 #
90 3:0.0066717234 4:-0.023382319 11:-0.0001983157 12:-0.0001983157 13:-0.0001983157 14:-0.0001983157 15:-0.0001983157 16:-0.0001983157 18:-0.0001983157 19:-0.0001983157 28:0.098739401 29:0.11616342 30:0.0017848413 31:-0.0001983157 32:-0.0001983157 33:0.9880088 901:0.0001983157 1801:0.0001983157 2122:0.0001983157 2202:0.0001983157 2324:0.0001983157 2399:0.0001983157 2500:0.0001983157 2600:0.0001983157 2699:0.0001983157 #
90 3:0.0071979952 4:-0.021269431 11:-0.00022276278 12:-0.00022276278 13:-0.00022276278 14:-0.00022276278 15:-0.00022276278 16:-0.00022276278 18:-0.00022276278 19:-0.00022276278 28:0.073373608 29:0.086322807 30:0.0040097302 31:0.00022276278 32:-0.00022276278 33:0.99329931 899:0.00022276278 1801:0.00022276278 2115:0.00022276278 2204:0.00022276278 2306:0.00022276278 2401:0.00022276278 2500:0.00022276278 2601:0.00022276278 2699:0.00022276278 #
90 3:0.0091936607 4:-0.019058285 11:-0.00022971901 12:-0.00022971901 13:-0.00022971901 14:-0.00022971901 15:-0.00022971901 16:-0.00022971901 18:-0.00022971901 19:-0.00022971901 28:0.12322128 29:0.14496648 30:0.034457851 31:-0.00022971901 32:-0.00022971901 33:0.98090017 901:0.00022971901 1800:0.00022971901 2122:0.00022971901 2202:0.00022971901 2308:0.00022971901 2403:0.00022971901 2500:0.00022971901 2602:0.00022971901 2700:0.00022971901 #
-100 3:0.0075688749 4:-0.018420307 11:-0.00023031321 12:-0.00023031321 13:-0.00023031321 14:-0.00023031321 15:-0.00023031321 16:-0.00023031321 18:-0.00023031321 19:-0.00023031321 28:0.10815968 29:0.12724574 30:0.0052972035 31:-0.00023031321 32:-0.00023031321 33:0.98574048 901:0.00023031321 1801:0.00023031321 2115:0.00023031321 2204:0.00023031321 2305:0.00023031321 2405:0.00023031321 2499:0.00023031321 2602:0.00023031321 2699:0.00023031321 #
-100 3:0.0080100782 4:-0.018762216 11:-0.00022853821 12:-0.00022853821 13:-0.00022853821 14:-0.00022853821 15:-0.00022853821 16:-0.00022853821 18:-0.00022853821 19:-0.00022853821 28:0.10479848 29:0.12329179 30:0.004570764 31:-0.00022853821 32:-0.00022853821 33:0.98659945 899:0.00022853821 1801:0.00022853821 2106:0.00022853821 2201:0.00022853821 2504:0.00022853821 2602:0.00022853821 2699:0.00022853821 #
-100 3:0.0086615039 4:-0.027559221 11:-0.00023945171 12:-0.00023945171 13:-0.00023945171 14:-0.00023945171 15:-0.00023945171 16:-0.00023945171 18:-0.00023945171 19:-0.00023945171 28:0.055473775 29:0.065262564 30:0.0071835509 31:0.00023945171 32:-0.00023945171 33:0.99587965 901:0.00023945171 1801:0.00023945171 2110:0.00023945171 2201:0.00023945171 2300:0.00023945171 2401:0.00023945171 2499:0.00023945171 2602:0.00023945171 2699:0.00023945171 #
90 3:0.0075509916 4:-0.018142404 11:-0.00020917329 12:-0.00020917329 13:-0.00020917329 14:-0.00020917329 15:-0.00020917329 16:-0.00020917329 18:-0.00020917329 19:-0.00020917329 28:0.092898041 29:0.10929095 30:0.047063988 31:-0.00020917329 32:-0.00020917329 33:0.98834378 901:0.00020917329 1801:0.00020917329 2115:0.00020917329 2204:0.00020917329 2323:0.00020917329 2404:0.00020917329 2499:0.00020917329 2602:0.00020917329 2701:0.00020917329 #
90 3:0.014005309 4:-0.029351318 11:-0.00033442615 12:-0.00033442615 13:-0.00033442615 14:-0.00033442615 15:-0.00033442615 16:-0.00033442615 18:-0.00033442615 19:-0.00033442615 28:0.24045241 29:0.29323488 30:0.0093639325 31:-0.00033442615 32:-0.00033442615 33:0.92468834 901:0.00033442615 1801:0.00033442615 2115:0.00033442615 2204:0.00033442615 2315:0.00033442615 2404:0.00033442615 2504:0.00033442615 2602:0.00033442615 2700:0.00033442615 #
90 3:0.010258298 4:-0.023594398 11:-0.00028770108 12:-0.00028770108 13:-0.00028770108 14:-0.00028770108 15:-0.00028770108 16:-0.00028770108 18:-0.00028770108 19:-0.00028770108 28:0.053972721 29:0.065820254 30:0.0057540215 31:-0.00028770108 32:-0.00028770108 33:0.99602115 1800:0.00028770108 2106:0.00028770108 2201:0.00028770108 2306:0.00028770108 2401:0.00028770108 2504:0.00028770108 2601:0.00028770108 2700:0.00028770108 #
90 3:0.0050076228 4:-0.015561717 11:-0.00019419845 12:-0.00019419845 13:-0.00019419845 14:-0.00019419845 15:-0.00019419845 16:-0.00019419845 18:-0.00019419845 19:-0.00019419845 28:0.19084075 29:0.22451866 30:0.1747786 31:-0.00019419845 32:-0.00019419845 33:0.93933791 901:0.00019419845 1799:0.00019419845 2110:0.00019419845 2201:0.00019419845 2317:0.00019419845 2405:0.00019419845 2504:0.00019419845 2602:0.00019419845 2700:0.00019419845 #
90 3:0.01131238 4:-0.02788165 11:-0.00034722048 12:-0.00034722048 13:-0.00034722048 14:-0.00034722048 15:-0.00034722048 16:-0.00034722048 18:-0.00034722048 19:-0.00034722048 28:0.054513615 29:0.066478834 30:0.0052083069 31:-0.00034722048 32:-0.00034722048 33:0.99582833 899:0.00034722048 1801:0.00034722048 2106:0.00034722048 2201:0.00034722048 2306:0.00034722048 2401:0.00034722048 2500:0.00034722048 2602:0.00034722048 2700:0.00034722048 #
70.58975565433502197265625 3:0.010394342 4:-0.026496612 11:-0.00021721654 12:-0.00021721654 13:-0.00021721654 14:-0.00021721654 15:-0.00021721654 16:-0.00021721654 18:-0.00021721654 19:-0.00021721654 28:0.067065604 29:0.078901738 30:0.00564763 31:-0.00021721654 32:-0.00021721654 33:0.99420011 900:0.00021721654 1801:0.00021721654 2122:0.00021721654 2202:0.00021721654 2315:0.00021721654 2404:0.00021721654 2500:0.00021721654 2602:0.00021721654 2699:0.00021721654 #
90 3:0.0098327538 4:-0.031764992 11:-0.0002609198 12:-0.0002609198 13:-0.0002609198 14:-0.0002609198 15:-0.0002609198 16:-0.0002609198 18:-0.0002609198 19:-0.0002609198 28:0.054814029 29:0.066847652 30:0.0078275939 31:-0.0002609198 32:-0.0002609198 33:0.9956699 900:0.0002609198 1801:0.0002609198 2115:0.0002609198 2204:0.0002609198 2323:0.0002609198 2404:0.0002609198 2499:0.0002609198 2601:0.0002609198 2699:0.0002609198 #
2.0000010759083135525315810809843 3:0.01106877 4:-0.028436184 11:-0.00023252785 12:-0.00023252785 13:-0.00023252785 14:-0.00023252785 15:-0.00023252785 16:-0.00023252785 18:-0.00023252785 19:-0.00023252785 28:0.05310471 29:0.062475581 30:0.0055806683 31:0.00023252785 32:-0.00023252785 33:0.9961493 901:0.00023252785 1801:0.00023252785 2115:0.00023252785 2204:0.00023252785 2301:0.00023252785 2401:0.00023252785 2504:0.00023252785 2602:0.00023252785 2700:0.00023252785 #
90 3:0.0066781356 4:-0.023836618 11:-0.00020337694 12:-0.00020337694 13:-0.00020337694 14:-0.00020337694 15:-0.00020337694 16:-0.00020337694 18:-0.00020337694 19:-0.00020337694 28:0.16503023 29:0.1941538 30:0.0065080621 31:0.00020337694 32:-0.00020337694 33:0.96665061 901:0.00020337694 1800:0.00020337694 2110:0.00020337694 2201:0.00020337694 2300:0.00020337694 2401:0.00020337694 2504:0.00020337694 2602:0.00020337694 2700:0.00020337694 #
15.9871477670967578887939453125 3:0.0076856492 4:-0.023513775 11:-0.00019635387 12:-0.00019635387 13:-0.00019635387 14:-0.00019635387 15:-0.00019635387 16:-0.00019635387 18:-0.00019635387 19:-0.00019635387 28:0.053225644 29:0.062619209 30:0.0045161392 31:-0.00019635387 32:-0.00019635387 33:0.99629956 901:0.00019635387 1801:0.00019635387 2123:0.00019635387 2204:0.00019635387 2306:0.00019635387 2401:0.00019635387 2501:0.00019635387 2600:0.00019635387 2699:0.00019635387 #
90 3:0.0087398496 4:-0.030447919 11:-0.00025749879 12:0.00025749879 13:-0.00025749879 14:-0.00025749879 15:-0.00025749879 16:-0.00025749879 18:-0.00025749879 19:-0.00025749879 28:0.23164333 29:0.28249162 30:0.030899854 31:-0.00025749879 32:-0.00025749879 33:0.92982811 901:0.00025749879 1800:0.00025749879 2101:0.00025749879 2201:0.00025749879 2301:0.00025749879 2401:0.00025749879 2501:0.00025749879 2601:0.00025749879 2701:0.00025749879 #
90 3:0.010660428 4:-0.021808324 11:-0.00024797727 12:-0.00024797727 13:-0.00024797727 14:-0.00024797727 15:-0.00024797727 16:-0.00024797727 18:-0.00024797727 19:-0.00024797727 28:0.058319293 29:0.068610348 30:0.0049595456 31:-0.00024797727 32:-0.00024797727 33:0.99562871 901:0.00024797727 1801:0.00024797727 2124:0.00024797727 2199:0.00024797727 2501:0.00024797727 2602:0.00024797727 2702:0.00024797727 #
-100 3:0.0099035148 4:-0.021615867 11:-0.00027916228 12:-0.00027916228 13:-0.00027916228 14:-0.00027916228 15:-0.00027916228 16:-0.00027916228 18:-0.00027916228 19:-0.00027916228 28:0.051943723 29:0.06334471 30:0.0069790566 31:0.00027916228 32:-0.00027916228 33:0.99633014 900:0.00027916228 1801:0.00027916228 2106:0.00027916228 2201:0.00027916228 2323:0.00027916228 2404:0.00027916228 2500:0.00027916228 2602:0.00027916228 2699:0.00027916228 #
-100 3:0.013311923 4:-0.028179381 11:-0.00031753074 12:-0.00031753074 13:-0.00031753074 14:-0.00031753074 15:-0.00031753074 16:-0.00031753074 18:-0.00031753074 19:-0.00031753074 28:0.097799465 29:0.11926772 30:0.0063506146 31:-0.00031753074 32:-0.00031753074 33:0.98752058 900:0.00031753074 1801:0.00031753074 2115:0.00031753074 2204:0.00031753074 2315:0.00031753074 2404:0.00031753074 2499:0.00031753074 2602:0.00031753074 2699:0.00031753074 #
-100 3:0.0089937951 4:-0.019982591 11:-0.00022414917 12:-0.00022414917 13:-0.00022414917 14:-0.00022414917 15:-0.00022414917 16:-0.00022414917 18:-0.00022414917 19:-0.00022414917 28:0.053304914 29:0.062712453 30:0.006724475 31:-0.00022414917 32:-0.00022414917 33:0.99634308 1801:0.00022414917 2115:0.00022414917 2204:0.00022414917 2501:0.00022414917 2600:0.00022414917 2700:0.00022414917 #
2.0000004783525788809583900729194 3:0.011200207 4:-0.020370141 11:-0.0002746566 12:-0.0002746566 13:-0.0002746566 14:-0.0002746566 15:-0.0002746566 16:-0.0002746566 18:-0.0002746566 19:-0.0002746566 28:0.051149298 29:0.062377259 30:0.0054931319 31:-0.0002746566 32:-0.0002746566 33:0.99645412 901:0.0002746566 1800:0.0002746566 2115:0.0002746566 2204:0.0002746566 2307:0.0002746566 2405:0.0002746566 2500:0.0002746566 2602:0.0002746566 2699:0.0002746566 #
90 3:0.0059052119 4:-0.017237309 11:-0.00019420515 12:-0.00019420515 13:-0.00019420515 14:-0.00019420515 15:-0.00019420515 16:-0.00019420515 18:-0.00019420515 19:-0.00019420515 28:0.14478965 29:0.17034121 30:0.038841028 31:-0.00019420515 32:-0.00019420515 33:0.97374457 1801:0.00019420515 2100:0.00019420515 2201:0.00019420515 2310:0.00019420515 2401:0.00019420515 2500:0.00019420515 2601:0.00019420515 2700:0.00019420515 #
-100 3:0.014333763 4:-0.024742767 11:-0.00033475034 12:-0.00033475034 13:-0.00033475034 14:-0.00033475034 15:-0.00033475034 16:-0.00033475034 18:-0.00033475034 19:-0.00033475034 28:0.09540385 29:0.11634583 30:0.0060255062 31:-0.00033475034 32:-0.00033475034 33:0.98818302 901:0.00033475034 1800:0.00033475034 2115:0.00033475034 2204:0.00033475034 2306:0.00033475034 2401:0.00033475034 2500:0.00033475034 2602:0.00033475034 2700:0.00033475034 #
-100 3:0.0089772316 4:-0.022478618 11:-0.00024100934 12:-0.00024100934 13:-0.00024100934 14:-0.00024100934 15:-0.00024100934 16:-0.00024100934 18:-0.00024100934 19:-0.00024100934 28:0.053089537 29:0.062457573 30:0.0038561495 31:-0.00024100934 32:-0.00024100934 33:0.99633265 901:0.00024100934 1801:0.00024100934 2123:0.00024100934 2204:0.00024100934 2306:0.00024100934 2401:0.00024100934 2500:0.00024100934 2602:0.00024100934 2699:0.00024100934 #
-100 3:0.013517921 4:-0.024450265 11:-0.00033085854 12:-0.00033085854 13:-0.00033085854 14:-0.00033085854 15:-0.00033085854 16:-0.00033085854 18:-0.00033085854 19:-0.00033085854 28:0.080067769 29:0.097642973 30:0.0059554535 31:-0.00033085854 32:-0.00033085854 33:0.99158305 901:0.00033085854 1800:0.00033085854 2105:0.00033085854 2205:0.00033085854 2315:0.00033085854 2404:0.00033085854 2501:0.00033085854 2602:0.00033085854 2699:0.00033085854 #
-100 3:0.0068579386 4:-0.020030482 11:-0.00020713959 12:-0.00020713959 13:-0.00020713959 14:-0.00020713959 15:-0.00020713959 16:-0.00020713959 18:-0.00020713959 19:-0.00020713959 28:0.046542194 29:0.054755278 30:0.0062141879 31:-0.00020713959 32:-0.00020713959 33:0.99716997 900:0.00020713959 1800:0.00020713959 2115:0.00020713959 2204:0.00020713959 2324:0.00020713959 2399:0.00020713959 2501:0.00020713959 2599:0.00020713959 2700:0.00020713959 #
-100 3:0.010264677 4:-0.026491933 11:-0.00027929823 12:-0.00027929823 13:-0.00027929823 14:-0.00027929823 15:-0.00027929823 16:-0.00027929823 18:-0.00027929823 19:-0.00027929823 28:0.083105192 29:0.10134895 30:0.0055859648 31:0.00027929823 32:-0.00027929823 33:0.99095017 899:0.00027929823 1801:0.00027929823 2123:0.00027929823 2204:0.00027929823 2500:0.00027929823 2602:0.00027929823 2701:0.00027929823 #
-100 3:0.0092648631 4:-0.020518387 11:-0.00025709029 12:-0.00025709029 13:-0.00025709029 14:-0.00025709029 15:-0.00025709029 16:-0.00025709029 18:-0.00025709029 19:-0.00025709029 28:0.04789592 29:0.056349047 30:0.004627625 31:-0.00025709029 32:-0.00025709029 33:0.9969961 901:0.00025709029 1800:0.00025709029 2123:0.00025709029 2204:0.00025709029 2321:0.00025709029 2404:0.00025709029 2500:0.00025709029 2602:0.00025709029 2699:0.00025709029 #
90 3:0.0070815766 4:-0.019550387 11:-0.00020058001 12:-0.00020058001 13:-0.00020058001 14:-0.00020058001 15:-0.00020058001 16:-0.00020058001 18:-0.00020058001 19:-0.00020058001 28:0.086245388 29:0.1014654 30:0.00441276 31:-0.00020058001 32:-0.00020058001 33:0.99086523 900:0.00020058001 1801:0.00020058001 2115:0.00020058001 2204:0.00020058001 2323:0.00020058001 2404:0.00020058001 2500:0.00020058001 2600:0.00020058001 2700:0.00020058001 #
90 3:0.018632475 4:-0.033732545 11:-0.00045623968 12:-0.00045623968 13:-0.00045623968 14:-0.00045623968 15:-0.00045623968 16:-0.00045623968 18:-0.00045623968 19:-0.00045623968 28:0.28853509 29:0.3518703 30:0.027374381 31:-0.00045623968 32:-0.00045623968 33:0.88921112 901:0.00045623968 1800:0.00045623968 2115:0.00045623968 2204:0.00045623968 2307:0.00045623968 2405:0.00045623968 2504:0.00045623968 2602:0.00045623968 2701:0.00045623968 #
90 3:0.0075026071 4:-0.024204146 11:-0.00019781091 12:0.00019781091 13:-0.00019781091 14:-0.00019781091 15:-0.00019781091 16:-0.00019781091 18:-0.00019781091 19:-0.00019781091 28:0.067621656 29:0.079555593 30:0.0051430836 31:-0.00019781091 32:-0.00019781091 33:0.99419761 900:0.00019781091 1800:0.00019781091 2115:0.00019781091 2204:0.00019781091 2323:0.00019781091 2404:0.00019781091 2500:0.00019781091 2602:0.00019781091 2699:0.00019781091 #
-100 3:0.0072653848 4:-0.016609136 11:-0.00018557438 12:-0.00018557438 13:-0.00018557438 14:-0.00018557438 15:-0.00018557438 16:-0.00018557438 18:-0.00018557438 19:-0.00018557438 28:0.30915949 29:0.36371648 30:0.0048249336 31:-0.00018557438 32:-0.00018557438 33:0.87850904 1801:0.00018557438 2106:0.00018557438 2201:0.00018557438 2324:0.00018557438 2399:0.00018557438 2501:0.00018557438 2601:0.00018557438 2700:0.00018557438 #
90 3:0.010867281 4:-0.023478232 11:-0.0002519243 12:-0.0002519243 13:-0.0002519243 14:-0.0002519243 15:-0.0002519243 16:-0.0002519243 18:-0.0002519243 19:-0.0002519243 28:0.048177999 29:0.056680445 30:0.0075577283 31:-0.0002519243 32:-0.0002519243 33:0.99686438 1801:0.0002519243 2124:0.0002519243 2199:0.0002519243 2305:0.0002519243 2405:0.0002519243 2500:0.0002519243 2601:0.0002519243 2699:0.0002519243 #
-100 3:0.0089038583 4:-0.017629694 11:-0.00020414348 12:-0.00020414348 13:-0.00020414348 14:-0.00020414348 15:-0.00020414348 16:-0.00020414348 18:-0.00020414348 19:-0.00020414348 28:0.044335883 29:0.052160703 30:0.0051035872 31:-0.00020414348 32:-0.00020414348 33:0.99744505 899:0.00020414348 1801:0.00020414348 2115:0.00020414348 2204:0.00020414348 2306:0.00020414348 2401:0.00020414348 2500:0.00020414348 2602:0.00020414348 2700:0.00020414348 #
90 3:0.0091463737 4:-0.018908935 11:-0.00019515517 12:-0.00019515517 13:-0.00019515517 14:-0.00019515517 15:-0.00019515517 16:-0.00019515517 18:-0.00019515517 19:-0.00019515517 28:0.073317848 29:0.086256631 30:0.0042934138 31:-0.00019515517 32:-0.00019515517 33:0.99333984 900:0.00019515517 1800:0.00019515517 2115:0.00019515517 2204:0.00019515517 2499:0.00019515517 2601:0.00019515517 2700:0.00019515517 #
-100 3:0.014717462 4:-0.030848287 11:-0.00035205082 12:-0.00035205082 13:-0.00035205082 14:-0.00035205082 15:-0.00035205082 16:-0.00035205082 18:-0.00035205082 19:-0.00035205082 28:0.27894041 29:0.34017262 30:0.0042246096 31:-0.00035205082 32:-0.00035205082 33:0.89737749 901:0.00035205082 1801:0.00035205082 2123:0.00035205082 2204:0.00035205082 2324:0.00035205082 2399:0.00035205082 2501:0.00035205082 2602:0.00035205082 2701:0.00035205082 #
90 3:0.0057782559 4:-0.01620703 11:-0.00019611711 12:-0.00019611711 13:-0.00019611711 14:-0.00019611711 15:-0.00019611711 16:-0.00019611711 18:-0.00019611711 19:-0.00019611711 28:0.093241915 29:0.10969614 30:0.088252693 31:-0.00019611711 32:-0.00019611711 33:0.98548841 899:0.00019611711 1800:0.00019611711 2122:0.00019611711 2202:0.00019611711 2500:0.00019611711 2602:0.00019611711 2700:0.00019611711 #
90 3:0.0084633585 4:-0.021572249 11:-0.0002281777 12:-0.0002281777 13:-0.0002281777 14:-0.0002281777 15:-0.0002281777 16:-0.0002281777 18:-0.0002281777 19:-0.0002281777 28:0.16478081 29:0.19385977 30:0.0068453313 31:0.0002281777 32:-0.0002281777 33:0.96678895 901:0.0002281777 1801:0.0002281777 2115:0.0002281777 2204:0.0002281777 2323:0.0002281777 2404:0.0002281777 2501:0.0002281777 2602:0.0002281777 2699:0.0002281777 #
90 3:0.0089593856 4:-0.019943617 11:-0.00024828649 12:-0.00024828649 13:-0.00024828649 14:-0.00024828649 15:-0.00024828649 16:-0.00024828649 18:-0.00024828649 19:-0.00024828649 28:0.060480107 29:0.071153939 30:0.0042208703 31:-0.00024828649 32:-0.00024828649 33:0.99538052 901:0.00024828649 1801:0.00024828649 2115:0.00024828649 2204:0.00024828649 2504:0.00024828649 2602:0.00024828649 2699:0.00024828649 #
-100 3:0.0077034091 4:-0.02668862 11:-0.00022536358 12:-0.00022536358 13:-0.00022536358 14:-0.00022536358 15:-0.00022536358 16:-0.00022536358 18:-0.00022536358 19:-0.00022536358 28:0.050481442 29:0.059390064 30:0.0049579986 31:-0.00022536358 32:-0.00022536358 33:0.99655777 901:0.00022536358 1799:0.00022536358 2123:0.00022536358 2204:0.00022536358 2501:0.00022536358 2602:0.00022536358 2700:0.00022536358 #
90 3:0.0087533481 4:-0.028341731 11:-0.00023216006 12:-0.00023216006 13:-0.00023216006 14:-0.00023216006 15:-0.00023216006 16:-0.00023216006 18:-0.00023216006 19:-0.00023216006 28:0.05714852 29:0.067233555 30:0.046432011 31:-0.00023216006 32:-0.00023216006 33:0.99457371 900:0.00023216006 1799:0.00023216006 2114:0.00023216006 2203:0.00023216006 2316:0.00023216006 2403:0.00023216006 2501:0.00023216006 2600:0.00023216006 2702:0.00023216006 #
90 3:0.012493733 4:-0.027070737 11:-0.00031399151 12:-0.00031399151 13:0.00031399151 14:-0.00031399151 15:-0.00031399151 16:-0.00031399151 18:-0.00031399151 19:-0.00031399151 28:0.14318012 29:0.17461067 30:0.0072218045 31:0.00031399151 32:-0.00031399151 33:0.97368765 901:0.00031399151 1801:0.00031399151 2106:0.00031399151 2201:0.00031399151 2300:0.00031399151 2401:0.00031399151 2500:0.00031399151 2602:0.00031399151 2699:0.00031399151 #
90 3:0.010695496 4:-0.026834516 11:-0.00031199015 12:-0.00031199015 13:-0.00031199015 14:-0.00031199015 15:-0.00031199015 16:-0.00031199015 18:-0.00031199015 19:-0.00031199015 28:0.052102357 29:0.063539915 30:0.0053038327 31:-0.00031199015 32:-0.00031199015 33:0.99618459 899:0.00031199015 1801:0.00031199015 2122:0.00031199015 2202:0.00031199015 2500:0.00031199015 2602:0.00031199015 2699:0.00031199015 #
-100 3:0.011267997 4:-0.02747204 11:-0.00028976004 12:-0.00028976004 13:-0.00028976004 14:-0.00028976004 15:-0.00028976004 16:-0.00028976004 18:-0.00028976004 19:-0.00028976004 28:0.05401127 29:0.065868251 30:0.0057952008 31:-0.00028976004 32:-0.00028976004 33:0.99590528 900:0.00028976004 1800:0.00028976004 2115:0.00028976004 2204:0.00028976004 2323:0.00028976004 2404:0.00028976004 2499:0.00028976004 2601:0.00028976004 2702:0.00028976004 #
90 3:0.010078635 4:-0.022962105 11:-0.00024902972 12:-0.00024902972 13:-0.00024902972 14:-0.00024902972 15:-0.00024902972 16:-0.00024902972 18:-0.00024902972 19:-0.00024902972 28:0.15987708 29:0.18808965 30:0.0014941783 31:0.00024902972 32:-0.00024902972 33:0.96872562 899:0.00024902972 1801:0.00024902972 2124:0.00024902972 2199:0.00024902972 2315:0.00024902972 2404:0.00024902972 2504:0.00024902972 2601:0.00024902972 2699:0.00024902972 #
-100 3:0.0072395089 4:-0.025157709 11:-0.00021329401 12:-0.00021329401 13:-0.00021329401 14:-0.00021329401 15:-0.00021329401 16:-0.00021329401 18:-0.00021329401 19:-0.00021329401 28:0.054505154 29:0.064124711 30:0.0070387027 31:0.00021329401 32:-0.00021329401 33:0.99608308 900:0.00021329401 1801:0.00021329401 2100:0.00021329401 2201:0.00021329401 2315:0.00021329401 2404:0.00021329401 2501:0.00021329401 2602:0.00021329401 2699:0.00021329401 #
90 3:0.0094715897 4:-0.025972148 11:-0.00029268238 12:-0.00029268238 13:-0.00029268238 14:-0.00029268238 15:-0.00029268238 16:-0.00029268238 18:-0.00029268238 19:-0.00029268238 28:0.053853557 29:0.065674998 30:0.0029268237 31:-0.00029268238 32:-0.00029268238 33:0.99599808 1801:0.00029268238 2115:0.00029268238 2204:0.00029268238 2306:0.00029268238 2401:0.00029268238 2501:0.00029268238 2602:0.00029268238 2699:0.00029268238 #
-100 3:0.010457571 4:-0.026183484 11:-0.00031033217 12:-0.00031033217 13:-0.00031033217 14:-0.00031033217 15:-0.00031033217 16:-0.00031033217 18:0.00031033217 19:-0.00031033217 28:0.1930266 29:0.23539935 30:0.0062066428 31:-0.00031033217 32:-0.00031033217 33:0.95209903 901:0.00031033217 1800:0.00031033217 2115:0.00031033217 2204:0.00031033217 2323:0.00031033217 2404:0.00031033217 2499:0.00031033217 2602:0.00031033217 2699:0.00031033217 #
90 3:0.0071126143 4:-0.022880923 11:-0.00023940118 12:-0.00023940118 13:-0.00023940118 14:-0.00023940118 15:-0.00023940118 16:-0.00023940118 18:-0.00023940118 19:-0.00023940118 28:0.13933867 29:0.16392757 30:0.0043092212 31:-0.00023940118 32:-0.00023940118 33:0.97627807 901:0.00023940118 1801:0.00023940118 2115:0.00023940118 2204:0.00023940118 2499:0.00023940118 2602:0.00023940118 2699:0.00023940118 #
-100 3:0.0076815537 4:-0.022440711 11:-0.00023107608 12:-0.00023107608 13:-0.00023107608 14:-0.00023107608 15:-0.00023107608 16:-0.00023107608 18:-0.00023107608 19:-0.00023107608 28:0.12894276 29:0.15169683 30:0.027729129 31:-0.00023107608 32:-0.00023107608 33:0.97930044 901:0.00023107608 1801:0.00023107608 2106:0.00023107608 2201:0.00023107608 2321:0.00023107608 2404:0.00023107608 2500:0.00023107608 2601:0.00023107608 2700:0.00023107608 #
89.99985820613801479339599609375 3:0.012066482 4:-0.02187385 11:-0.0002958056 12:-0.0002958056 13:-0.0002958056 14:-0.0002958056 15:-0.0002958056 16:-0.0002958056 18:-0.0002958056 19:0.0002958056 28:0.12482996 29:0.15223043 30:0.02810153 31:0.0002958056 32:-0.0002958056 33:0.97970808 901:0.0002958056 1799:0.0002958056 2123:0.0002958056 2204:0.0002958056 2314:0.0002958056 2403:0.0002958056 2501:0.0002958056 2602:0.0002958056 2702:0.0002958056 #
-100 3:0.010586306 4:-0.01987836 11:-0.00026435187 12:0.00026435187 13:-0.00026435187 14:-0.00026435187 15:-0.00026435187 16:-0.00026435187 18:-0.00026435187 19:-0.00026435187 28:0.050033879 29:0.0610177 30:0.006344445 31:-0.00026435187 32:-0.00026435187 33:0.99660659 901:0.00026435187 1801:0.00026435187 2110:0.00026435187 2201:0.00026435187 2301:0.00026435187 2401:0.00026435187 2500:0.00026435187 2601:0.00026435187 2699:0.00026435187 #
90 3:0.011764199 4:-0.021414677 11:0.0002885249 12:-0.0002885249 13:-0.0002885249 14:-0.0002885249 15:-0.0002885249 16:-0.0002885249 18:-0.0002885249 19:-0.0002885249 28:0.13935752 29:0.16994694 30:0.0075016473 31:0.0002885249 32:-0.0002885249 33:0.97521418 900:0.0002885249 1801:0.0002885249 2106:0.0002885249 2201:0.0002885249 2322:0.0002885249 2402:0.0002885249 2500:0.0002885249 2602:0.0002885249 2700:0.0002885249 #
-100 3:0.005505173 4:-0.016332693 11:-0.00019820989 12:-0.00019820989 13:-0.00019820989 14:-0.00019820989 15:-0.00019820989 16:-0.00019820989 18:-0.00019820989 19:-0.00019820989 28:0.062277548 29:0.073268287 30:0.0029731484 31:-0.00019820989 32:-0.00019820989 33:0.99521184 1800:0.00019820989 2115:0.00019820989 2204:0.00019820989 2321:0.00019820989 2404:0.00019820989 2501:0.00019820989 2600:0.00019820989 2699:0.00019820989 #
90 3:0.0083380863 4:-0.019613028 11:-0.0002392677 12:-0.0002392677 13:-0.0002392677 14:-0.0002392677 15:-0.0002392677 16:-0.0002392677 18:-0.0002392677 19:-0.0002392677 28:0.053696457 29:0.063171454 30:0.0059816926 31:0.0002392677 32:-0.0002392677 33:0.99631071 899:0.0002392677 1801:0.0002392677 2123:0.0002392677 2204:0.0002392677 2315:0.0002392677 2404:0.0002392677 2499:0.0002392677 2601:0.0002392677 2702:0.0002392677 #
90 3:0.0084350975 4:-0.01577571 11:-0.00021055911 12:-0.00021055911 13:-0.00021055911 14:-0.00021055911 15:-0.00021055911 16:-0.00021055911 18:-0.00021055911 19:-0.00021055911 28:0.082261235 29:0.096777178 30:0.0033689458 31:-0.00021055911 32:-0.00021055911 33:0.99173337 900:0.00021055911 1800:0.00021055911 2115:0.00021055911 2204:0.00021055911 2500:0.00021055911 2601:0.00021055911 2699:0.00021055911 #
90 3:0.0079939812 4:-0.015883997 11:-0.00019854178 12:-0.00019854178 13:-0.00019854178 14:-0.00019854178 15:-0.00019854178 16:-0.00019854178 18:-0.00019854178 19:-0.00019854178 28:0.079309501 29:0.093304709 30:0.059562534 31:0.00019854178 32:-0.00019854178 33:0.99052495 1801:0.00019854178 2123:0.00019854178 2204:0.00019854178 2315:0.00019854178 2404:0.00019854178 2499:0.00019854178 2601:0.00019854178 2701:0.00019854178 #
-100 3:0.0088821258 4:-0.022907889 11:-0.00023542673 12:0.00023542673 13:-0.00023542673 14:-0.00023542673 15:-0.00023542673 16:-0.00023542673 18:-0.00023542673 19:-0.00023542673 28:0.10410099 29:0.12247134 30:0.0058856686 31:0.00023542673 32:-0.00023542673 33:0.98667347 901:0.00023542673 1801:0.00023542673 2103:0.00023542673 2205:0.00023542673 2500:0.00023542673 2602:0.00023542673 2699:0.00023542673 #
90 3:0.011202601 4:-0.033169869 11:-0.00034279397 12:-0.00034279397 13:-0.00034279397 14:-0.00034279397 15:-0.00034279397 16:-0.00034279397 18:-0.00034279397 19:-0.00034279397 28:0.044906009 29:0.054764763 30:0.0075414674 31:-0.00034279397 32:-0.00034279397 33:0.99684483 901:0.00034279397 1801:0.00034279397 2115:0.00034279397 2204:0.00034279397 2501:0.00034279397 2602:0.00034279397 2699:0.00034279397 #
-100 3:0.0070340279 4:-0.022956423 11:-0.00023453875 12:-0.00023453875 13:-0.00023453875 14:-0.00023453875 15:-0.00023453875 16:-0.00023453875 18:-0.00023453875 19:-0.00023453875 28:0.15770854 29:0.18553892 30:0.0058634686 31:-0.00023453875 32:-0.00023453875 33:0.96958315 899:0.00023453875 1801:0.00023453875 2106:0.00023453875 2201:0.00023453875 2500:0.00023453875 2601:0.00023453875 2699:0.00023453875 #
-100 3:0.0064947708 4:-0.022768799 11:-0.00019242402 12:-0.00019242402 13:-0.00019242402 14:-0.00019242402 15:-0.00019242402 16:-0.00019242402 18:-0.00019242402 19:-0.00019242402 28:0.15472816 29:0.18203312 30:0.032712083 31:-0.00019242402 32:-0.00019242402 33:0.97020191 900:0.00019242402 1799:0.00019242402 2101:0.00019242402 2201:0.00019242402 2310:0.00019242402 2401:0.00019242402 2500:0.00019242402 2599:0.00019242402 2701:0.00019242402 #
-100 3:0.0067497431 4:-0.019746762 11:-0.0002398456 12:-0.0002398456 13:-0.0002398456 14:-0.0002398456 15:-0.0002398456 16:-0.0002398456 18:-0.0002398456 19:-0.0002398456 28:0.15885933 29:0.18689248 30:0.0043172208 31:0.0002398456 32:-0.0002398456 33:0.96921605 1801:0.0002398456 2101:0.0002398456 2201:0.0002398456 2300:0.0002398456 2401:0.0002398456 2500:0.0002398456 2601:0.0002398456 2700:0.0002398456 #
90 3:0.0082210321 4:-0.014949622 11:-0.00020205409 12:0.00020205409 13:-0.00020205409 14:-0.00020205409 15:-0.00020205409 16:-0.00020205409 18:-0.00020205409 19:-0.00020205409 28:0.095721103 29:0.11261282 30:0.0058595682 31:-0.00020205409 32:-0.00020205409 33:0.98885268 901:0.00020205409 1800:0.00020205409 2110:0.00020205409 2201:0.00020205409 2323:0.00020205409 2404:0.00020205409 2504:0.00020205409 2601:0.00020205409 2700:0.00020205409 #
-100 3:0.0078428565 4:-0.021578332 11:0.00019264914 12:-0.00019264914 13:-0.00019264914 14:-0.00019264914 15:-0.00019264914 16:-0.00019264914 18:-0.00019264914 19:-0.00019264914 28:0.1611722 29:0.18961491 30:0.0050088773 31:-0.00019264914 32:-0.00019264914 33:0.96825457 900:0.00019264914 1800:0.00019264914 2106:0.00019264914 2201:0.00019264914 2500:0.00019264914 2600:0.00019264914 2700:0.00019264914 #
90 3:0.013421202 4:-0.021650279 11:-0.00029955604 12:-0.00029955604 13:-0.00029955604 14:-0.00029955604 15:-0.00029955604 16:-0.00029955604 18:-0.00029955604 19:-0.00029955604 28:0.14198956 29:0.17315838 30:0.014977803 31:-0.00029955604 32:-0.00029955604 33:0.97415626 899:0.00029955604 1799:0.00029955604 2101:0.00029955604 2201:0.00029955604 2500:0.00029955604 2601:0.00029955604 2701:0.00029955604 #
-100 3:0.010636142 4:-0.022272971 11:-0.00025411844 12:-0.00025411844 13:0.00025411844 14:-0.00025411844 15:-0.00025411844 16:-0.00025411844 18:-0.00025411844 19:-0.00025411844 28:0.16339308 29:0.18780877 30:0.0050823689 31:-0.00025411844 32:-0.00025411844 33:0.96819127 901:0.00025411844 1800:0.00025411844 2115:0.00025411844 2204:0.00025411844 2324:0.00025411844 2399:0.00025411844 2499:0.00025411844 2602:0.00025411844 2699:0.00025411844 #
90 3:0.0090432763 4:-0.018982641 11:-0.00021661152 12:-0.00021661152 13:-0.00021661152 14:-0.00021661152 15:-0.00021661152 16:-0.00021661152 18:-0.00021661152 19:-0.00021661152 28:0.16126294 29:0.18972136 30:0.0064983456 31:-0.00021661152 32:-0.00021661152 33:0.96825349 901:0.00021661152 1801:0.00021661152 2115:0.00021661152 2204:0.00021661152 2305:0.00021661152 2405:0.00021661152 2499:0.00021661152 2602:0.00021661152 2699:0.00021661152 #
-100 3:0.0079394318 4:-0.019874534 11:-0.00022708121 12:-0.00022708121 13:-0.00022708121 14:-0.00022708121 15:-0.00022708121 16:-0.00022708121 18:-0.00022708121 19:-0.00022708121 28:0.16006047 29:0.18830709 30:0.0052228677 31:-0.00022708121 32:-0.00022708121 33:0.96872842 899:0.00022708121 1801:0.00022708121 2115:0.00022708121 2204:0.00022708121 2306:0.00022708121 2401:0.00022708121 2501:0.00022708121 2601:0.00022708121 2699:0.00022708121 #
1.490116119384765625e-08 3:0.012176864 4:-0.033543643 11:-0.00034315209 12:-0.00034315209 13:-0.00034315209 14:-0.00034315209 15:-0.00034315209 16:-0.00034315209 18:-0.00034315209 19:-0.00034315209 28:0.078924976 29:0.096250728 30:0.020589124 31:-0.00034315209 32:-0.00034315209 33:0.99136639 900:0.00034315209 1801:0.00034315209 2106:0.00034315209 2201:0.00034315209 2500:0.00034315209 2601:0.00034315209 2700:0.00034315209 #
90 3:0.013336726 4:-0.032472245 11:-0.00040601118 12:-0.00040601118 13:-0.00040601118 14:-0.00040601118 15:-0.00040601118 16:-0.00040601118 18:-0.00040601118 19:-0.00040601118 28:0.045753401 29:0.055798117 30:0.0056841564 31:-0.00040601118 32:-0.00040601118 33:0.99675745 901:0.00040601118 1800:0.00040601118 2115:0.00040601118 2204:0.00040601118 2299:0.00040601118 2402:0.00040601118 2499:0.00040601118 2602:0.00040601118 2700:0.00040601118 #
-100 3:0.012185741 4:-0.028460719 11:-0.00036087245 12:-0.00036087245 13:-0.00036087245 14:-0.00036087245 15:-0.00036087245 16:-0.00036087245 18:-0.00036087245 19:-0.00036087245 28:0.15450393 29:0.18841873 30:0.010826174 31:-0.00036087245 32:-0.00036087245 33:0.96930343 1799:0.00036087245 2114:0.00036087245 2203:0.00036087245 2501:0.00036087245 2600:0.00036087245 2702:0.00036087245 #
90 3:0.0090609677 4:-0.027140368 11:-0.00033874661 12:-0.00033874661 13:-0.00033874661 14:-0.00033874661 15:-0.00033874661 16:-0.00033874661 18:-0.00033874661 19:-0.00033874661 28:0.15582344 29:0.19003008 30:0.013549864 31:-0.00033874661 32:-0.00033874661 33:0.96881533 900:0.00033874661 1801:0.00033874661 2122:0.00033874661 2202:0.00033874661 2322:0.00033874661 2402:0.00033874661 2500:0.00033874661 2602:0.00033874661 2700:0.00033874661 #
-100 3:0.013178186 4:-0.026076103 11:-0.00033847237 12:-0.00033847237 13:-0.00033847237 14:-0.00033847237 15:-0.00033847237 16:-0.00033847237 18:-0.00033847237 19:-0.00033847237 28:0.15772814 29:0.19235046 30:0.013538895 31:-0.00033847237 32:-0.00033847237 33:0.96803099 901:0.00033847237 1800:0.00033847237 2123:0.00033847237 2204:0.00033847237 2315:0.00033847237 2404:0.00033847237 2500:0.00033847237 2602:0.00033847237 2699:0.00033847237 #
90 3:0.010430862 4:-0.033494629 11:-0.00035037936 12:-0.00035037936 13:-0.00035037936 14:-0.00035037936 15:-0.00035037936 16:-0.00035037936 18:-0.00035037936 19:-0.00035037936 28:0.16152489 29:0.19698328 30:0.0070075872 31:-0.00035037936 32:-0.00035037936 33:0.96634632 901:0.00035037936 1801:0.00035037936 2124:0.00035037936 2199:0.00035037936 2320:0.00035037936 2405:0.00035037936 2500:0.00035037936 2601:0.00035037936 2701:0.00035037936 #
-100 3:0.0096817827 4:-0.021283537 11:-0.00027275225 12:-0.00027275225 13:-0.00027275225 14:-0.00027275225 15:-0.00027275225 16:-0.00027275225 18:-0.00027275225 19:-0.00027275225 28:0.15872818 29:0.19357228 30:0.017183393 31:0.00027275225 32:-0.00027275225 33:0.96772504 899:0.00027275225 1800:0.00027275225 2115:0.00027275225 2204:0.00027275225 2306:0.00027275225 2401:0.00027275225 2501:0.00027275225 2601:0.00027275225 2700:0.00027275225 #
90 3:0.0084503107 4:-0.019445052 11:-0.00023952845 12:-0.00023952845 13:-0.00023952845 14:-0.00023952845 15:-0.00023952845 16:-0.00023952845 18:-0.00023952845 19:-0.00023952845 28:0.16244102 29:0.19110778 30:0.014371708 31:-0.00023952845 32:-0.00023952845 33:0.967695 901:0.00023952845 1800:0.00023952845 2110:0.00023952845 2201:0.00023952845 2306:0.00023952845 2401:0.00023952845 2500:0.00023952845 2602:0.00023952845 2700:0.00023952845 #
-100 3:0.012122094 4:-0.019495204 11:-0.00027735435 12:-0.00027735435 13:-0.00027735435 14:-0.00027735435 15:-0.00027735435 16:-0.00027735435 18:-0.00027735435 19:-0.00027735435 28:0.083816491 29:0.10221618 30:0.022188349 31:0.00027735435 32:-0.00027735435 33:0.99070978 901:0.00027735435 1800:0.00027735435 2119:0.00027735435 2204:0.00027735435 2319:0.00027735435 2404:0.00027735435 2499:0.00027735435 2601:0.00027735435 2701:0.00027735435 #
90 3:0.0099281808 4:-0.031899091 11:-0.00026125743 12:-0.00026125743 13:-0.00026125743 14:-0.00026125743 15:-0.00026125743 16:-0.00026125743 18:-0.00026125743 19:-0.00026125743 28:0.17824288 29:0.21736878 30:0.0060089207 31:0.00026125743 32:-0.00026125743 33:0.95907599 900:0.00026125743 1801:0.00026125743 2106:0.00026125743 2201:0.00026125743 2306:0.00026125743 2401:0.00026125743 2500:0.00026125743 2600:0.00026125743 2699:0.00026125743 #
-100 3:0.011322368 4:-0.027563324 11:-0.00033747678 12:-0.00033747678 13:-0.00033747678 14:-0.00033747678 15:-0.00033747678 16:-0.00033747678 18:-0.00033747678 19:-0.00033747678 28:0.16232634 29:0.19796051 30:0.0060745822 31:-0.00033747678 32:-0.00033747678 33:0.96619606 900:0.00033747678 1801:0.00033747678 2106:0.00033747678 2201:0.00033747678 2300:0.00033747678 2401:0.00033747678 2500:0.00033747678 2602:0.00033747678 2699:0.00033747678 #
90 3:0.0095827905 4:-0.028578665 11:-0.00031453348 12:-0.00031453348 13:-0.00031453348 14:-0.00031453348 15:-0.00031453348 16:-0.00031453348 18:-0.00031453348 19:-0.00031453348 28:0.16292834 29:0.19869395 30:0.0062906696 31:-0.00031453348 32:-0.00031453348 33:0.96593231 900:0.00031453348 1801:0.00031453348 2105:0.00031453348 2205:0.00031453348 2500:0.00031453348 2601:0.00031453348 2699:0.00031453348 #
-100 3:0.0096356459 4:-0.027858112 11:-0.00028262465 12:-0.00028262465 13:-0.00028262465 14:-0.00028262465 15:-0.00028262465 16:-0.00028262465 18:-0.00028262465 19:-0.00028262465 28:0.16346444 29:0.19934647 30:0.0062177423 31:-0.00028262465 32:-0.00028262465 33:0.9657284 1801:0.00028262465 2105:0.00028262465 2205:0.00028262465 2321:0.00028262465 2404:0.00028262465 2500:0.00028262465 2602:0.00028262465 2699:0.00028262465 #
90 3:0.010494158 4:-0.024436893 11:-0.00029134925 12:-0.00029134925 13:-0.00029134925 14:-0.00029134925 15:-0.00029134925 16:-0.00029134925 18:-0.00029134925 19:-0.00029134925 28:0.065844931 29:0.080298766 30:0.017480955 31:-0.00029134925 32:-0.00029134925 33:0.99408364 901:0.00029134925 1800:0.00029134925 2115:0.00029134925 2204:0.00029134925 2499:0.00029134925 2602:0.00029134925 2700:0.00029134925 #
-100 3:0.011738389 4:-0.024647983 11:0.00028217799 12:-0.00028217799 13:-0.00028217799 14:-0.00028217799 15:-0.00028217799 16:-0.00028217799 18:-0.00028217799 19:-0.00028217799 28:0.1632061 29:0.19903143 30:0.00705445 31:-0.00028217799 32:-0.00028217799 33:0.9658953 901:0.00028217799 1801:0.00028217799 2115:0.00028217799 2204:0.00028217799 2323:0.00028217799 2404:0.00028217799 2499:0.00028217799 2602:0.00028217799 2699:0.00028217799 #
90 3:0.012401103 4:-0.029917806 11:-0.00034586585 12:-0.00034586585 13:-0.00034586585 14:-0.00034586585 15:-0.00034586585 16:-0.00034586585 18:-0.00034586585 19:-0.00034586585 28:0.04911295 29:0.059893586 30:0.0076090484 31:-0.00034586585 32:-0.00034586585 33:0.99643946 899:0.00034586585 1799:0.00034586585 2114:0.00034586585 2203:0.00034586585 2308:0.00034586585 2403:0.00034586585 2500:0.00034586585 2600:0.00034586585 2699:0.00034586585 #
-100 3:0.0085792216 4:-0.027361987 11:-0.0002379886 12:-0.0002379886 13:-0.0002379886 14:-0.0002379886 15:-0.0002379886 16:-0.0002379886 18:-0.0002379886 19:-0.0002379886 28:0.16579476 29:0.19505309 30:0.0059497152 31:0.0002379886 32:-0.0002379886 33:0.96623373 900:0.0002379886 1800:0.0002379886 2115:0.0002379886 2204:0.0002379886 2303:0.0002379886 2405:0.0002379886 2500:0.0002379886 2602:0.0002379886 2699:0.0002379886 #
90 3:0.0067910901 4:-0.023997772 11:-0.00020495635 12:-0.00020495635 13:-0.00020495635 14:-0.00020495635 15:-0.00020495635 16:-0.00020495635 18:-0.00020495635 19:-0.00020495635 28:0.17593044 29:0.20697722 30:0.0040991269 31:-0.00020495635 32:-0.00020495635 33:0.9620651 900:0.00020495635 1801:0.00020495635 2115:0.00020495635 2204:0.00020495635 2323:0.00020495635 2404:0.00020495635 2500:0.00020495635 2602:0.00020495635 2700:0.00020495635 #
90 3:0.012968313 4:-0.042026881 11:-0.00034420486 12:-0.00034420486 13:-0.00034420486 14:-0.00034420486 15:-0.00034420486 16:-0.00034420486 18:-0.00034420486 19:-0.00034420486 28:0.12528367 29:0.15278564 30:0.30978435 31:-0.00034420486 32:-0.00034420486 33:0.9290089 900:0.00034420486 1800:0.00034420486 2110:0.00034420486 2201:0.00034420486 2300:0.00034420486 2401:0.00034420486 2500:0.00034420486 2602:0.00034420486 2699:0.00034420486 #
90 3:0.011404395 4:-0.027780071 11:-0.0003470442 12:-0.0003470442 13:-0.0003470442 14:-0.0003470442 15:-0.0003470442 16:-0.0003470442 18:-0.0003470442 19:-0.0003470442 28:0.069061793 29:0.084220685 30:0.0041645304 31:-0.0003470442 32:-0.0003470442 33:0.99358749 901:0.0003470442 1801:0.0003470442 2123:0.0003470442 2204:0.0003470442 2504:0.0003470442 2602:0.0003470442 2700:0.0003470442 #
-100 3:0.013957122 4:-0.024502458 11:-0.00032390523 12:-0.00032390523 13:-0.00032390523 14:-0.00032390523 15:-0.00032390523 16:-0.00032390523 18:-0.00032390523 19:-0.00032390523 28:0.15677014 29:0.19118182 30:0.011336683 31:-0.00032390523 32:-0.00032390523 33:0.96847665 1801:0.00032390523 2124:0.00032390523 2199:0.00032390523 2324:0.00032390523 2399:0.00032390523 2500:0.00032390523 2601:0.00032390523 2700:0.00032390523 #
90 3:0.015791651 4:-0.028587339 11:-0.00038674561 12:-0.00038674561 13:-0.00038674561 14:-0.00038674561 15:-0.00038674561 16:-0.00038674561 18:-0.00038674561 19:-0.00038674561 28:0.1585657 29:0.1933728 30:0.0085084029 31:-0.00038674561 32:-0.00038674561 33:0.96763748 901:0.00038674561 1801:0.00038674561 2115:0.00038674561 2204:0.00038674561 2499:0.00038674561 2602:0.00038674561 2699:0.00038674561 #
90 3:0.0068880636 4:-0.019016795 11:-0.00019501999 12:-0.00019501999 13:-0.00019501999 14:-0.00019501999 15:-0.00019501999 16:-0.00019501999 18:-0.00019501999 19:-0.00019501999 28:0.15727192 29:0.18502522 30:0.078007996 31:0.00019501999 32:-0.00019501999 33:0.96671408 900:0.00019501999 1800:0.00019501999 2120:0.00019501999 2205:0.00019501999 2317:0.00019501999 2405:0.00019501999 2501:0.00019501999 2601:0.00019501999 2702:0.00019501999 #
90 3:0.0078475829 4:-0.021170044 11:-0.00022765112 12:-0.00022765112 13:-0.00022765112 14:-0.00022765112 15:-0.00022765112 16:-0.00022765112 18:-0.00022765112 19:-0.00022765112 28:0.13972543 29:0.16438232 30:0.0063742311 31:-0.00022765112 32:-0.00022765112 33:0.97616798 1801:0.00022765112 2100:0.00022765112 2201:0.00022765112 2301:0.00022765112 2401:0.00022765112 2500:0.00022765112 2601:0.00022765112 2701:0.00022765112 #
90 3:0.013844012 4:-0.025172748 11:-0.0003403271 12:-0.0003403271 13:-0.0003403271 14:-0.0003403271 15:-0.0003403271 16:-0.0003403271 18:-0.0003403271 19:0.0003403271 28:0.15825209 29:0.19298927 30:0.0085081775 31:-0.0003403271 32:-0.0003403271 33:0.9678902 901:0.0003403271 1800:0.0003403271 2114:0.0003403271 2203:0.0003403271 2308:0.0003403271 2403:0.0003403271 2499:0.0003403271 2601:0.0003403271 2700:0.0003403271 #
-100 3:0.0077182888 4:-0.024797419 11:-0.00020319688 12:-0.00020319688 13:-0.00020319688 14:-0.00020319688 15:-0.00020319688 16:-0.00020319688 18:-0.00020319688 19:-0.00020319688 28:0.20116083 29:0.23665933 30:0.021335671 31:-0.00020319688 32:-0.00020319688 33:0.94994539 900:0.00020319688 1799:0.00020319688 2110:0.00020319688 2201:0.00020319688 2300:0.00020319688 2401:0.00020319688 2501:0.00020319688 2601:0.00020319688 2702:0.00020319688 #
90 3:0.0098112803 4:-0.020178985 11:-0.00022294182 12:-0.00022294182 13:-0.00022294182 14:-0.00022294182 15:-0.00022294182 16:-0.00022294182 18:-0.00022294182 19:-0.00022294182 28:0.05843528 29:0.068746336 30:0.0044588363 31:-0.00022294182 32:-0.00022294182 33:0.99565816 1801:0.00022294182 2115:0.00022294182 2204:0.00022294182 2500:0.00022294182 2600:0.00022294182 2699:0.00022294182 #
-100 3:0.010485345 4:-0.036194783 11:-0.00030837467 12:-0.00030837467 13:-0.00030837467 14:-0.00030837467 15:-0.00030837467 16:-0.00030837467 18:-0.00030837467 19:-0.00030837467 28:0.15264547 29:0.18615346 30:0.0061674933 31:-0.00030837467 32:-0.00030837467 33:0.96983832 901:0.00030837467 1801:0.00030837467 2105:0.00030837467 2205:0.00030837467 2315:0.00030837467 2404:0.00030837467 2504:0.00030837467 2602:0.00030837467 2699:0.00030837467 #
90 3:0.0076542008 4:-0.02650152 11:-0.00022356326 12:-0.00022356326 13:-0.00022356326 14:-0.00022356326 15:-0.00022356326 16:-0.00022356326 18:-0.00022356326 19:-0.00022356326 28:0.05997308 29:0.070556566 30:0.005812645 31:-0.00022356326 32:-0.00022356326 33:0.99530363 901:0.00022356326 1800:0.00022356326 2106:0.00022356326 2201:0.00022356326 2323:0.00022356326 2404:0.00022356326 2501:0.00022356326 2601:0.00022356326 2700:0.00022356326 #
-100 3:0.014491358 4:-0.039113287 11:-0.00031901733 12:-0.00031901733 13:-0.00031901733 14:-0.00031901733 15:-0.00031901733 16:-0.00031901733 18:-0.00031901733 19:-0.00031901733 28:0.14898109 29:0.18168356 30:0.0063803466 31:-0.00031901733 32:-0.00031901733 33:0.97108871 1799:0.00031901733 2122:0.00031901733 2202:0.00031901733 2318:0.00031901733 2405:0.00031901733 2501:0.00031901733 2600:0.00031901733 2701:0.00031901733 #
90 3:0.012725114 4:-0.027498709 11:-0.00031966896 12:-0.00031966896 13:-0.00031966896 14:-0.00031966896 15:-0.00031966896 16:-0.00031966896 18:-0.00031966896 19:-0.00031966896 28:0.15440011 29:0.18829142 30:0.019180138 31:-0.00031966896 32:-0.00031966896 33:0.96923631 901:0.00031966896 1801:0.00031966896 2121:0.00031966896 2204:0.00031966896 2323:0.00031966896 2404:0.00031966896 2500:0.00031966896 2602:0.00031966896 2700:0.00031966896 #
-100 3:0.02461582 4:-0.044863421 11:-0.00060602726 12:0.00060602726 13:-0.00060602726 14:-0.00060602726 15:-0.00060602726 16:-0.00060602726 18:-0.00060602726 19:-0.00060602726 28:0.19343784 29:0.23590216 30:0.0133326 31:-0.00060602726 32:-0.00060602726 33:0.95085675 901:0.00060602726 1801:0.00060602726 2105:0.00060602726 2205:0.00060602726 2315:0.00060602726 2404:0.00060602726 2500:0.00060602726 2602:0.00060602726 2699:0.00060602726 #
-100 3:0.0066755107 4:-0.022342283 11:-0.0002265573 12:-0.0002265573 13:-0.0002265573 14:-0.0002265573 15:-0.0002265573 16:-0.0002265573 18:-0.0002265573 19:-0.0002265573 28:0.16172113 29:0.19026054 30:0.028319662 31:-0.0002265573 32:-0.0002265573 33:0.96762621 900:0.0002265573 1801:0.0002265573 2120:0.0002265573 2205:0.0002265573 2307:0.0002265573 2405:0.0002265573 2501:0.0002265573 2602:0.0002265573 2702:0.0002265573 #
90 3:0.011334336 4:-0.023839332 11:-0.00025254663 12:-0.00025254663 13:-0.00025254663 14:-0.00025254663 15:-0.00025254663 16:-0.00025254663 18:-0.00025254663 19:-0.00025254663 28:0.048716243 29:0.057312932 30:0.0055560255 31:-0.00025254663 32:-0.00025254663 33:0.99680156 1801:0.00025254663 2115:0.00025254663 2204:0.00025254663 2499:0.00025254663 2601:0.00025254663 2699:0.00025254663 #
90 3:0.0076685473 4:-0.024877261 11:-0.00020309718 12:-0.00020309718 13:-0.00020309718 14:-0.00020309718 15:-0.00020309718 16:-0.00020309718 18:-0.00020309718 19:-0.00020309718 28:0.073285587 29:0.086218812 30:0.013404414 31:-0.00020309718 32:-0.00020309718 33:0.99314523 901:0.00020309718 1800:0.00020309718 2115:0.00020309718 2204:0.00020309718 2323:0.00020309718 2404:0.00020309718 2500:0.00020309718 2601:0.00020309718 2699:0.00020309718 #
-100 3:0.008904729 4:-0.03187304 11:0.00027226788 12:-0.00027226788 13:-0.00027226788 14:-0.00027226788 15:-0.00027226788 16:-0.00027226788 18:-0.00027226788 19:-0.00027226788 28:0.14726697 29:0.17959332 30:0.013613394 31:0.00027226788 32:-0.00027226788 33:0.97199625 901:0.00027226788 1801:0.00027226788 2101:0.00027226788 2201:0.00027226788 2301:0.00027226788 2401:0.00027226788 2500:0.00027226788 2602:0.00027226788 2699:0.00027226788 #
90 3:0.012769642 4:-0.028850969 11:-0.00032189337 12:-0.00032189337 13:-0.00032189337 14:-0.00032189337 15:-0.00032189337 16:-0.00032189337 18:-0.00032189337 19:-0.00032189337 28:0.14710526 29:0.17939761 30:0.012875735 31:-0.00032189337 32:-0.00032189337 33:0.97211796 899:0.00032189337 1801:0.00032189337 2115:0.00032189337 2204:0.00032189337 2324:0.00032189337 2399:0.00032189337 2500:0.00032189337 2600:0.00032189337 2699:0.00032189337 #
-100 3:0.015186792 4:-0.027582478 11:-0.00037273529 12:-0.00037273529 13:-0.00037273529 14:-0.00037273529 15:-0.00037273529 16:-0.00037273529 18:-0.00037273529 19:-0.00037273529 28:0.14723045 29:0.17955032 30:0.011182059 31:-0.00037273529 32:-0.00037273529 33:0.97209364 901:0.00037273529 1799:0.00037273529 2118:0.00037273529 2205:0.00037273529 2500:0.00037273529 2602:0.00037273529 2700:0.00037273529 #
90 3:0.0089930147 4:-0.016391428 11:-0.00022156186 12:-0.00022156186 13:-0.00022156186 14:-0.00022156186 15:-0.00022156186 16:-0.00022156186 18:-0.00022156186 19:-0.00022156186 28:0.053640127 29:0.063105248 30:0.022156186 31:-0.00022156186 32:-0.00022156186 33:0.99614215 901:0.00022156186 1799:0.00022156186 2124:0.00022156186 2199:0.00022156186 2504:0.00022156186 2601:0.00022156186 2702:0.00022156186 #
-100 3:0.009716413 4:-0.020973371 11:-0.00024307362 12:-0.00024307362 13:-0.00024307362 14:-0.00024307362 15:-0.00024307362 16:-0.00024307362 18:-0.00024307362 19:-0.00024307362 28:0.075034395 29:0.08827462 30:0.0089937244 31:0.00024307362 32:-0.00024307362 33:0.99295574 900:0.00024307362 1801:0.00024307362 2106:0.00024307362 2201:0.00024307362 2305:0.00024307362 2405:0.00024307362 2500:0.00024307362 2599:0.00024307362 2699:0.00024307362 #
-100 3:0.010722124 4:-0.023170289 11:-0.00026935164 12:-0.00026935164 13:-0.00026935164 14:-0.00026935164 15:-0.00026935164 16:-0.00026935164 18:-0.00026935164 19:-0.00026935164 28:0.44254476 29:0.53968912 30:0.007541846 31:-0.00026935164 32:-0.00026935164 33:0.71566731 901:0.00026935164 1801:0.00026935164 2115:0.00026935164 2204:0.00026935164 2300:0.00026935164 2401:0.00026935164 2499:0.00026935164 2602:0.00026935164 2700:0.00026935164 #
-100 3:0.013996273 4:-0.028001558 11:-0.00032504485 12:-0.00032504485 13:-0.00032504485 14:-0.00032504485 15:-0.00032504485 16:-0.00032504485 18:-0.00032504485 19:-0.00032504485 28:0.14171955 29:0.17282958 30:0.0087762102 31:-0.00032504485 32:-0.00032504485 33:0.97415936 900:0.00032504485 1799:0.00032504485 2115:0.00032504485 2204:0.00032504485 2321:0.00032504485 2404:0.00032504485 2499:0.00032504485 2600:0.00032504485 2699:0.00032504485 #
90 3:0.012644079 4:-0.030188767 11:-0.00033344707 12:-0.00033344707 13:-0.00033344707 14:-0.00033344707 15:-0.00033344707 16:-0.00033344707 18:-0.00033344707 19:-0.00033344707 28:0.057352893 29:0.069943853 30:0.0066689411 31:-0.00033344707 32:-0.00033344707 33:0.99533945 899:0.00033344707 1801:0.00033344707 2122:0.00033344707 2202:0.00033344707 2323:0.00033344707 2404:0.00033344707 2500:0.00033344707 2601:0.00033344707 2700:0.00033344707 #
-100 3:0.013141661 4:-0.027756069 11:-0.00031060405 12:-0.00031060405 13:-0.00031060405 14:-0.00031060405 15:-0.00031060405 16:-0.00031060405 18:-0.00031060405 19:-0.00031060405 28:0.13418095 29:0.16363552 30:0.0062120808 31:-0.00031060405 32:-0.00031060405 33:0.97684973 899:0.00031060405 1800:0.00031060405 2115:0.00031060405 2204:0.00031060405 2306:0.00031060405 2401:0.00031060405 2499:0.00031060405 2600:0.00031060405 2700:0.00031060405 #
90 3:0.010755412 4:-0.026226679 11:-0.00028469268 12:-0.00028469268 13:-0.00028469268 14:-0.00028469268 15:-0.00028469268 16:-0.00028469268 18:-0.00028469268 19:-0.00028469268 28:0.13295148 29:0.16213533 30:0.0042703901 31:-0.00028469268 32:-0.00028469268 33:0.97735 1801:0.00028469268 2100:0.00028469268 2201:0.00028469268 2501:0.00028469268 2601:0.00028469268 2700:0.00028469268 #
-100 3:0.011780188 4:-0.025545731 11:0.00029653296 12:-0.00029653296 13:-0.00029653296 14:-0.00029653296 15:-0.00029653296 16:-0.00029653296 18:-0.00029653296 19:-0.00029653296 28:0.13284676 29:0.16200781 30:0.007413324 31:0.00029653296 32:-0.00029653296 33:0.97737259 901:0.00029653296 1801:0.00029653296 2123:0.00029653296 2204:0.00029653296 2322:0.00029653296 2402:0.00029653296 2499:0.00029653296 2602:0.00029653296 2700:0.00029653296 #
90 3:0.014011314 4:-0.025186038 11:-0.00032455416 12:-0.00032455416 13:-0.00032455416 14:-0.00032455416 15:-0.00032455416 16:-0.00032455416 18:-0.00032455416 19:-0.00032455416 28:0.15059313 29:0.18364896 30:0.032455415 31:-0.00032455416 32:-0.00032455416 33:0.9704169 901:0.00032455416 1800:0.00032455416 2122:0.00032455416 2202:0.00032455416 2500:0.00032455416 2602:0.00032455416 2700:0.00032455416 #
90 3:0.012004861 4:-0.023646772 11:-0.00027667286 12:-0.00027667286 13:-0.00027667286 14:-0.00027667286 15:-0.00027667286 16:-0.00027667286 18:-0.00027667286 19:-0.00027667286 28:0.077368796 29:0.094350979 30:0.0069168215 31:-0.00027667286 32:-0.00027667286 33:0.99214888 899:0.00027667286 1801:0.00027667286 2105:0.00027667286 2205:0.00027667286 2306:0.00027667286 2401:0.00027667286 2500:0.00027667286 2601:0.00027667286 2699:0.00027667286 #
90 3:0.0082500959 4:-0.021020954 11:-0.00022246587 12:-0.00022246587 13:-0.00022246587 14:-0.00022246587 15:-0.00022246587 16:-0.00022246587 18:-0.00022246587 19:-0.00022246587 28:0.1818347 29:0.21392317 30:0.0055616465 31:0.00022246587 32:-0.00022246587 33:0.95949531 901:0.00022246587 1800:0.00022246587 2115:0.00022246587 2204:0.00022246587 2323:0.00022246587 2404:0.00022246587 2504:0.00022246587 2602:0.00022246587 2699:0.00022246587 #
90 3:0.0065749297 4:-0.022878947 11:0.00019350513 12:-0.00019350513 13:-0.00019350513 14:-0.00019350513 15:-0.00019350513 16:0.00019350513 18:-0.00019350513 19:-0.00019350513 28:0.13659333 29:0.16069826 30:0.0054181437 31:-0.00019350513 32:-0.00019350513 33:0.97720087 900:0.00019350513 1799:0.00019350513 2115:0.00019350513 2204:0.00019350513 2306:0.00019350513 2401:0.00019350513 2501:0.00019350513 2601:0.00019350513 2700:0.00019350513 #
-100 3:0.0070785405 4:-0.0214532 11:-0.00023803151 12:-0.00023803151 13:-0.00023803151 14:-0.00023803151 15:-0.00023803151 16:-0.00023803151 18:-0.00023803151 19:-0.00023803151 28:0.13479486 29:0.15858135 30:0.0035704726 31:-0.00023803151 32:-0.00023803151 33:0.97783345 899:0.00023803151 1801:0.00023803151 2123:0.00023803151 2204:0.00023803151 2499:0.00023803151 2601:0.00023803151 2702:0.00023803151 #
90 3:0.011086255 4:-0.02020934 11:-0.00027230638 12:-0.00027230638 13:-0.00027230638 14:-0.00027230638 15:-0.00027230638 16:-0.00027230638 18:-0.00027230638 19:-0.00027230638 28:0.13270579 29:0.16183713 30:0.0016338383 31:0.00027230638 32:-0.00027230638 33:0.97757995 901:0.00027230638 1800:0.00027230638 2115:0.00027230638 2204:0.00027230638 2305:0.00027230638 2405:0.00027230638 2499:0.00027230638 2601:0.00027230638 2699:0.00027230638 #
-100 3:0.011088846 4:-0.021891648 11:-0.00028437749 12:-0.00028437749 13:-0.00028437749 14:-0.00028437749 15:-0.00028437749 16:-0.00028437749 18:0.00028437749 19:-0.00028437749 28:0.13390768 29:0.16330093 30:0.0056875502 31:-0.00028437749 32:-0.00028437749 33:0.97712106 900:0.00028437749 1800:0.00028437749 2123:0.00028437749 2204:0.00028437749 2500:0.00028437749 2602:0.00028437749 2699:0.00028437749 #
90 3:0.0071564335 4:-0.023970382 11:0.00021342038 12:-0.00021342038 13:-0.00021342038 14:-0.00021342038 15:-0.00021342038 16:-0.00021342038 18:-0.00021342038 19:-0.00021342038 28:0.13756011 29:0.16183455 30:0.0085368156 31:-0.00021342038 32:-0.00021342038 33:0.97682512 1800:0.00021342038 2105:0.00021342038 2205:0.00021342038 2301:0.00021342038 2401:0.00021342038 2501:0.00021342038 2601:0.00021342038 2699:0.00021342038 #
-100 3:0.0077500972 4:-0.025054693 11:-0.00021974492 12:-0.00021974492 13:-0.00021974492 14:-0.00021974492 15:-0.00021974492 16:-0.00021974492 18:-0.00021974492 19:-0.00021974492 28:0.13770536 29:0.16200694 30:0.0054936227 31:-0.00021974492 32:-0.00021974492 33:0.97676617 1801:0.00021974492 2106:0.00021974492 2201:0.00021974492 2323:0.00021974492 2404:0.00021974492 2501:0.00021974492 2602:0.00021974492 2699:0.00021974492 #
-100 3:0.012382532 4:-0.025490992 11:-0.00029522122 12:-0.00029522122 13:-0.00029522122 14:-0.00029522122 15:-0.00029522122 16:-0.00029522122 18:-0.00029522122 19:-0.00029522122 28:0.12986487 29:0.15837143 30:0.0073805307 31:-0.00029522122 32:-0.00029522122 33:0.97836316 1801:0.00029522122 2106:0.00029522122 2201:0.00029522122 2303:0.00029522122 2405:0.00029522122 2501:0.00029522122 2601:0.00029522122 2700:0.00029522122 #
90 3:0.0095579391 4:-0.02002978 11:-0.00022863578 12:-0.00022863578 13:-0.00022863578 14:0.00022863578 15:-0.00022863578 16:-0.00022863578 18:-0.00022863578 19:-0.00022863578 28:0.16342199 29:0.19226211 30:0.0073163449 31:-0.00022863578 32:-0.00022863578 33:0.96735799 901:0.00022863578 1800:0.00022863578 2123:0.00022863578 2204:0.00022863578 2307:0.00022863578 2405:0.00022863578 2500:0.00022863578 2602:0.00022863578 2700:0.00022863578 #
-100 3:0.0090227164 4:-0.027476983 11:-0.00024283506 12:-0.00024283506 13:-0.00024283506 14:-0.00024283506 15:-0.00024283506 16:-0.00024283506 18:-0.00024283506 19:-0.00024283506 28:0.18103111 29:0.2129785 30:0.0060708765 31:-0.00024283506 32:-0.00024283506 33:0.95968419 1799:0.00024283506 2104:0.00024283506 2202:0.00024283506 2501:0.00024283506 2601:0.00024283506 2702:0.00024283506 #
-100 3:0.012016743 4:-0.026690463 11:-0.00033270559 12:0.00033270559 13:-0.00033270559 14:-0.00033270559 15:-0.00033270559 16:-0.00033270559 18:-0.00033270559 19:-0.00033270559 28:0.12842435 29:0.1566145 30:0.0056559946 31:-0.00033270559 32:-0.00033270559 33:0.97881979 901:0.00033270559 1801:0.00033270559 2110:0.00033270559 2201:0.00033270559 2309:0.00033270559 2400:0.00033270559 2500:0.00033270559 2602:0.00033270559 2700:0.00033270559 #
90 3:0.010170025 4:-0.032641958 11:-0.00033418857 12:-0.00033418857 13:-0.00033418857 14:-0.00033418857 15:-0.00033418857 16:-0.00033418857 18:-0.00033418857 19:-0.00033418857 28:0.047788966 29:0.058279146 30:0.0060153943 31:-0.00033418857 32:-0.00033418857 33:0.99655032 900:0.00033418857 1800:0.00033418857 2123:0.00033418857 2204:0.00033418857 2322:0.00033418857 2402:0.00033418857 2500:0.00033418857 2601:0.00033418857 2700:0.00033418857 #
-100 3:0.01167325 4:-0.026281014 11:-0.00028050016 12:-0.00028050016 13:-0.00028050016 14:-0.00028050016 15:-0.00028050016 16:-0.00028050016 18:-0.00028050016 19:-0.00028050016 28:0.12634008 29:0.15407313 30:0.0061710034 31:-0.00028050016 32:-0.00028050016 33:0.97950655 901:0.00028050016 1801:0.00028050016 2115:0.00028050016 2204:0.00028050016 2315:0.00028050016 2404:0.00028050016 2499:0.00028050016 2601:0.00028050016 2699:0.00028050016 #
90 3:0.010544582 4:-0.027208565 11:-0.00022247052 12:-0.00022247052 13:-0.00022247052 14:-0.00022247052 15:-0.00022247052 16:-0.00022247052 18:-0.00022247052 19:-0.00022247052 28:0.14952244 29:0.17590967 30:0.033370577 31:-0.00022247052 32:-0.00022247052 33:0.97197372 900:0.00022247052 1800:0.00022247052 2101:0.00022247052 2201:0.00022247052 2501:0.00022247052 2601:0.00022247052 2701:0.00022247052 #
-100 3:0.011814109 4:-0.024905138 11:-0.00027955745 12:-0.00027955745 13:-0.00027955745 14:-0.00027955745 15:-0.00027955745 16:-0.00027955745 18:-0.00027955745 19:-0.00027955745 28:0.12620062 29:0.15390198 30:0.0083867237 31:0.00027955745 32:-0.00027955745 33:0.97956932 901:0.00027955745 1801:0.00027955745 2103:0.00027955745 2205:0.00027955745 2500:0.00027955745 2602:0.00027955745 2700:0.00027955745 #
90 3:0.011146542 4:-0.023101868 11:-0.00029834552 12:-0.00029834552 13:-0.00029834552 14:-0.00029834552 15:-0.00029834552 16:-0.00029834552 18:-0.00029834552 19:-0.00029834552 28:0.045050174 29:0.054940328 30:0.01193382 31:-0.00029834552 32:-0.00029834552 33:0.99707073 900:0.00029834552 1801:0.00029834552 2123:0.00029834552 2204:0.00029834552 2324:0.00029834552 2399:0.00029834552 2500:0.00029834552 2600:0.00029834552 2700:0.00029834552 #
-100 3:0.0079412209 4:-0.025910234 11:-0.00021195383 12:0.00021195383 13:-0.00021195383 14:-0.00021195383 15:-0.00021195383 16:-0.00021195383 18:-0.00021195383 19:-0.00021195383 28:0.06951873 29:0.081786618 30:0.0014836767 31:-0.00021195383 32:-0.00021195383 33:0.99385148 901:0.00021195383 1800:0.00021195383 2124:0.00021195383 2199:0.00021195383 2501:0.00021195383 2602:0.00021195383 2699:0.00021195383 #
90 3:0.0068554436 4:-0.016188992 11:-0.00019739964 12:-0.00019739964 13:-0.00019739964 14:-0.00019739964 15:-0.00019739964 16:-0.00019739964 18:-0.00019739964 19:-0.00019739964 28:0.073823512 29:0.086851895 30:0.0047375914 31:-0.00019739964 32:-0.00019739964 33:0.99331498 1801:0.00019739964 2115:0.00019739964 2204:0.00019739964 2323:0.00019739964 2404:0.00019739964 2501:0.00019739964 2600:0.00019739964 2699:0.00019739964 #
90 3:0.011649555 4:-0.025320452 11:-0.00031890327 12:-0.00031890327 13:-0.00031890327 14:-0.00031890327 15:-0.00031890327 16:-0.00031890327 18:-0.00031890327 19:-0.00031890327 28:0.12979363 29:0.15828446 30:0.0079725822 31:0.00031890327 32:-0.00031890327 33:0.97839528 899:0.00031890327 1801:0.00031890327 2108:0.00031890327 2203:0.00031890327 2300:0.00031890327 2401:0.00031890327 2504:0.00031890327 2602:0.00031890327 2700:0.00031890327 #
-100 3:0.0096365018 4:-0.02476147 11:-0.00027567547 12:-0.00027567547 13:-0.00027567547 14:-0.00027567547 15:-0.00027567547 16:-0.00027567547 18:-0.00027567547 19:-0.00027567547 28:0.13078319 29:0.15949203 30:0.008821615 31:-0.00027567547 32:-0.00027567547 33:0.97809649 899:0.00027567547 1801:0.00027567547 2100:0.00027567547 2201:0.00027567547 2310:0.00027567547 2401:0.00027567547 2500:0.00027567547 2601:0.00027567547 2699:0.00027567547 #
90 3:0.0070161563 4:-0.024600992 11:-0.00020854495 12:-0.00020854495 13:-0.00020854495 14:-0.00020854495 15:-0.00020854495 16:-0.00020854495 18:-0.00020854495 19:-0.00020854495 28:0.135671 29:0.15961197 30:0.0072990735 31:-0.00020854495 32:-0.00020854495 33:0.97745019 900:0.00020854495 1801:0.00020854495 2106:0.00020854495 2201:0.00020854495 2323:0.00020854495 2404:0.00020854495 2501:0.00020854495 2600:0.00020854495 2699:0.00020854495 #
-100 3:0.0075495834 4:-0.026183102 11:-0.00022135662 12:-0.00022135662 13:-0.00022135662 14:-0.00022135662 15:-0.00022135662 16:-0.00022135662 18:-0.00022135662 19:-0.00022135662 28:0.13672313 29:0.160851 30:0.0053125587 31:0.00022135662 32:-0.00022135662 33:0.97706813 901:0.00022135662 1800:0.00022135662 2122:0.00022135662 2202:0.00022135662 2500:0.00022135662 2600:0.00022135662 2700:0.00022135662 #
-100 3:0.0077286004 4:-0.020448416 11:-0.00019472316 12:-0.00019472316 13:-0.00019472316 14:-0.00019472316 15:-0.00019472316 16:-0.00019472316 18:0.00019472316 19:-0.00019472316 28:0.38036248 29:0.44748551 30:0.00077889266 31:-0.00019472316 32:-0.00019472316 33:0.8090747 901:0.00019472316 1800:0.00019472316 2125:0.00019472316 2203:0.00019472316 2307:0.00019472316 2405:0.00019472316 2502:0.00019472316 2602:0.00019472316 2700:0.00019472316 #
-100 3:0.0081500467 4:-0.028455591 11:-0.0002404245 12:-0.0002404245 13:-0.0002404245 14:-0.0002404245 15:-0.0002404245 16:-0.0002404245 18:-0.0002404245 19:-0.0002404245 28:0.09110406 29:0.10718124 30:0.0072127352 31:-0.0002404245 32:-0.0002404245 33:0.98958725 900:0.0002404245 1799:0.0002404245 2115:0.0002404245 2204:0.0002404245 2324:0.0002404245 2399:0.0002404245 2501:0.0002404245 2602:0.0002404245 2700:0.0002404245 #
90 3:0.01446636 4:-0.032843232 11:-0.00034068589 12:-0.00034068589 13:-0.00034068589 14:-0.00034068589 15:-0.00034068589 16:-0.00034068589 18:-0.00034068589 19:-0.00034068589 28:0.0555318 29:0.067721538 30:0.0071544033 31:-0.00034068589 32:-0.00034068589 33:0.99548411 900:0.00034068589 1801:0.00034068589 2115:0.00034068589 2204:0.00034068589 2303:0.00034068589 2405:0.00034068589 2500:0.00034068589 2602:0.00034068589 2699:0.00034068589 #
90 3:0.0082234135 4:-0.015554227 11:-0.00020893857 12:-0.00020893857 13:-0.00020893857 14:-0.00020893857 15:-0.00020893857 16:-0.00020893857 18:-0.00020893857 19:-0.00020893857 28:0.093602389 29:0.11012108 30:0.0062681572 31:0.00020893857 32:-0.00020893857 33:0.98932415 901:0.00020893857 1800:0.00020893857 2121:0.00020893857 2204:0.00020893857 2323:0.00020893857 2404:0.00020893857 2501:0.00020893857 2602:0.00020893857 2700:0.00020893857 #
81.577207024500239640474319458008 3:0.021384481 4:-0.04648836 11:-0.00059160753 12:-0.00059160753 13:-0.00059160753 14:-0.00059160753 15:-0.00059160753 16:-0.00059160753 18:-0.00059160753 19:-0.00059160753 28:0.12006675 29:0.14642286 30:0.26030731 31:-0.00059160753 32:-0.00059160753 33:0.94538879 899:0.00059160753 1801:0.00059160753 2104:0.00059160753 2202:0.00059160753 2500:0.00059160753 2601:0.00059160753 2699:0.00059160753 #
-100 3:0.0078044147 4:-0.019741734 11:-0.00024297189 12:0.00024297189 13:-0.00024297189 14:-0.00024297189 15:-0.00024297189 16:-0.00024297189 18:-0.00024297189 19:-0.00024297189 28:0.087482028 29:0.10292047 30:0.0046164659 31:-0.00024297189 32:-0.00024297189 33:0.99059635 899:0.00024297189 1800:0.00024297189 2115:0.00024297189 2204:0.00024297189 2299:0.00024297189 2402:0.00024297189 2504:0.00024297189 2601:0.00024297189 2699:0.00024297189 #
89.971567598798358744716097135097 3:0.010518246 4:-0.020520097 11:-0.00026765847 12:-0.00026765847 13:-0.00026765847 14:-0.00026765847 15:-0.00026765847 16:-0.00026765847 18:-0.00026765847 19:-0.00026765847 28:0.086638369 29:0.10565551 30:0.0056208279 31:-0.00026765847 32:-0.00026765847 33:0.99033636 901:0.00026765847 1800:0.00026765847 2115:0.00026765847 2204:0.00026765847 2308:0.00026765847 2403:0.00026765847 2499:0.00026765847 2602:0.00026765847 2699:0.00026765847 #
23.254727734718471765518188476562 3:0.010154773 4:-0.032905065 11:-0.00026878263 12:-0.00026878263 13:-0.00026878263 14:-0.00026878263 15:-0.00026878263 16:-0.00026878263 18:-0.00026878263 19:-0.00026878263 28:0.051396612 29:0.06268011 30:0.0032253915 31:-0.00026878263 32:-0.00026878263 33:0.99610841 901:0.00026878263 1800:0.00026878263 2113:0.00026878263 2200:0.00026878263 2324:0.00026878263 2399:0.00026878263 2500:0.00026878263 2601:0.00026878263 2702:0.00026878263 #
90 3:0.011923213 4:-0.021677725 11:-0.00029325017 12:-0.00029325017 13:-0.00029325017 14:-0.00029325017 15:-0.00029325017 16:-0.00029325017 18:-0.00029325017 19:-0.00029325017 28:0.17331085 29:0.21135418 30:0.0082110045 31:-0.00029325017 32:-0.00029325017 33:0.96156728 901:0.00029325017 1800:0.00029325017 2105:0.00029325017 2205:0.00029325017 2311:0.00029325017 2400:0.00029325017 2502:0.00029325017 2602:0.00029325017 2699:0.00029325017 #
-100 3:0.012304115 4:-0.026033793 11:-0.00029705247 12:0.00029705247 13:-0.00029705247 14:-0.00029705247 15:-0.00029705247 16:-0.00029705247 18:-0.00029705247 19:-0.00029705247 28:0.088515699 29:0.1079459 30:0.0044557871 31:-0.00029705247 32:-0.00029705247 33:0.98977882 900:0.00029705247 1800:0.00029705247 2115:0.00029705247 2204:0.00029705247 2499:0.00029705247 2602:0.00029705247 2700:0.00029705247 #
90 3:0.0091433898 4:-0.02395221 11:0.00022776899 12:-0.00022776899 13:-0.00022776899 14:-0.00022776899 15:-0.00022776899 16:-0.00022776899 18:-0.00022776899 19:-0.00022776899 28:0.12569204 29:0.14787218 30:0.068330698 31:0.00022776899 32:-0.00022776899 33:0.97826785 900:0.00022776899 1801:0.00022776899 2104:0.00022776899 2202:0.00022776899 2299:0.00022776899 2402:0.00022776899 2504:0.00022776899 2600:0.00022776899 2700:0.00022776899 #
-100 3:0.012819327 4:-0.040229455 11:-0.00033126492 12:-0.00033126492 13:-0.00033126492 14:-0.00033126492 15:-0.00033126492 16:-0.00033126492 18:-0.00033126492 19:-0.00033126492 28:0.092091642 29:0.11230543 30:0.00066252984 31:-0.00033126492 32:-0.00033126492 33:0.98849452 900:0.00033126492 1801:0.00033126492 2124:0.00033126492 2199:0.00033126492 2305:0.00033126492 2405:0.00033126492 2501:0.00033126492 2602:0.00033126492 2699:0.00033126492 #
-100 3:0.0066074226 4:-0.02366912 11:-0.00020211312 12:-0.00020211312 13:0.00020211312 14:-0.00020211312 15:-0.00020211312 16:-0.00020211312 18:-0.00020211312 19:-0.00020211312 28:0.43359733 29:0.52877647 30:0.0040422627 31:0.00020211312 32:-0.00020211312 33:0.72922415 901:0.00020211312 1800:0.00020211312 2121:0.00020211312 2204:0.00020211312 2501:0.00020211312 2602:0.00020211312 2699:0.00020211312 #
90 3:0.010524345 4:-0.028974891 11:-0.00025886344 12:-0.00025886344 13:-0.00025886344 14:-0.00025886344 15:-0.00025886344 16:-0.00025886344 18:-0.00025886344 19:-0.00025886344 28:0.14614393 29:0.17822488 30:0.008542493 31:0.00025886344 32:0.00025886344 33:0.97254992 900:0.00025886344 1800:0.00025886344 2110:0.00025886344 2201:0.00025886344 2315:0.00025886344 2404:0.00025886344 2501:0.00025886344 2602:0.00025886344 2700:0.00025886344 #
-100 3:0.0089621786 4:-0.017918015 11:-0.00023129319 12:-0.00023129319 13:-0.00023129319 14:-0.00023129319 15:-0.00023129319 16:-0.00023129319 18:-0.00023129319 19:-0.00023129319 28:0.12824976 29:0.1508818 30:0.0023129319 31:-0.00023129319 32:-0.00023129319 33:0.97998923 900:0.00023129319 1801:0.00023129319 2123:0.00023129319 2204:0.00023129319 2318:0.00023129319 2405:0.00023129319 2500:0.00023129319 2601:0.00023129319 2702:0.00023129319 #
-100 3:0.0084551023 4:-0.020569516 11:-0.00023433086 12:-0.00023433086 13:-0.00023433086 14:-0.00023433086 15:-0.00023433086 16:-0.00023433086 18:-0.00023433086 19:-0.00023433086 28:0.13944326 29:0.16405036 30:0.011716544 31:-0.00023433086 32:-0.00023433086 33:0.9762224 899:0.00023433086 1801:0.00023433086 2115:0.00023433086 2204:0.00023433086 2321:0.00023433086 2404:0.00023433086 2501:0.00023433086 2601:0.00023433086 2701:0.00023433086 #
90 3:0.010802115 4:-0.037463795 11:0.00031576928 12:-0.00031576928 13:-0.00031576928 14:-0.00031576928 15:-0.00031576928 16:-0.00031576928 18:-0.00031576928 19:-0.00031576928 28:0.046102315 29:0.056222722 30:0.006631155 31:-0.00031576928 32:-0.00031576928 33:0.99656785 901:0.00031576928 1801:0.00031576928 2125:0.00031576928 2203:0.00031576928 2315:0.00031576928 2404:0.00031576928 2504:0.00031576928 2600:0.00031576928 2699:0.00031576928 #
90 3:0.010889566 4:-0.02393131 11:-0.00026284243 12:-0.00026284243 13:-0.00026284243 14:-0.00026284243 15:-0.00026284243 16:-0.00026284243 18:-0.00026284243 19:-0.00026284243 28:0.089618757 29:0.10928988 30:0.0044683213 31:-0.00026284243 32:-0.00026284243 33:0.98960179 1801:0.00026284243 2115:0.00026284243 2204:0.00026284243 2323:0.00026284243 2404:0.00026284243 2500:0.00026284243 2602:0.00026284243 2700:0.00026284243 #
-100 3:0.0062665436 4:-0.021055318 11:-0.00021351941 12:-0.00021351941 13:-0.00021351941 14:-0.00021351941 15:-0.00021351941 16:-0.00021351941 18:-0.00021351941 19:-0.00021351941 28:0.091734342 29:0.10792339 30:0.0046974272 31:-0.00021351941 32:-0.00021351941 33:0.98966247 901:0.00021351941 1801:0.00021351941 2115:0.00021351941 2204:0.00021351941 2323:0.00021351941 2404:0.00021351941 2499:0.00021351941 2602:0.00021351941 2699:0.00021351941 #
-100 3:0.0067573301 4:-0.022733837 11:0.00020368019 12:-0.00020368019 13:-0.00020368019 14:-0.00020368019 15:-0.00020368019 16:-0.00020368019 18:-0.00020368019 19:-0.00020368019 28:0.050926156 29:0.059912525 30:0.0052956846 31:0.00020368019 32:-0.00020368019 33:0.99660712 899:0.00020368019 1801:0.00020368019 2103:0.00020368019 2205:0.00020368019 2500:0.00020368019 2601:0.00020368019 2701:0.00020368019 #
-100 3:0.0062951338 4:-0.018886128 11:-0.00020727332 12:-0.00020727332 13:-0.00020727332 14:-0.00020727332 15:-0.00020727332 16:-0.00020727332 18:-0.00020727332 19:-0.00020727332 28:0.091647968 29:0.10782151 30:0.0035236464 31:-0.00020727332 32:-0.00020727332 33:0.98973006 901:0.00020727332 1800:0.00020727332 2111:0.00020727332 2200:0.00020727332 2315:0.00020727332 2404:0.00020727332 2504:0.00020727332 2602:0.00020727332 2699:0.00020727332 #
90 3:0.0062476145 4:-0.019199634 11:-0.00020844361 12:-0.00020844361 13:-0.00020844361 14:-0.00020844361 15:-0.00020844361 16:-0.00020844361 18:-0.00020844361 19:-0.00020844361 28:0.090854317 29:0.1068878 30:0.0035435415 31:-0.00020844361 32:-0.00020844361 33:0.98989874 1800:0.00020844361 2115:0.00020844361 2204:0.00020844361 2306:0.00020844361 2401:0.00020844361 2500:0.00020844361 2602:0.00020844361 2699:0.00020844361 #
-100 3:0.0067822263 4:-0.019296085 11:-0.00019594358 12:-0.00019594358 13:-0.00019594358 14:-0.00019594358 15:-0.00019594358 16:-0.00019594358 18:-0.00019594358 19:-0.00019594358 28:0.089865603 29:0.10572331 30:0.0048985891 31:-0.00019594358 32:-0.00019594358 33:0.99010289 901:0.00019594358 1801:0.00019594358 2101:0.00019594358 2201:0.00019594358 2306:0.00019594358 2401:0.00019594358 2501:0.00019594358 2601:0.00019594358 2699:0.00019594358 #
-100 3:0.0065229754 4:-0.019294962 11:-0.0001992356 12:0.0001992356 13:-0.0001992356 14:-0.0001992356 15:-0.0001992356 16:-0.0001992356 18:-0.0001992356 19:-0.0001992356 28:0.091229983 29:0.10733021 30:0.034866229 31:0.0001992356 32:-0.0001992356 33:0.98920476 901:0.0001992356 1800:0.0001992356 2115:0.0001992356 2204:0.0001992356 2323:0.0001992356 2404:0.0001992356 2504:0.0001992356 2602:0.0001992356 2701:0.0001992356 #
90 3:0.0086701615 4:-0.03001756 11:-0.00025295679 12:-0.00025295679 13:-0.00025295679 14:-0.00025295679 15:-0.00025295679 16:-0.00025295679 18:-0.00025295679 19:-0.00025295679 28:0.054729726 29:0.064387619 30:0.0091064442 31:-0.00025295679 32:-0.00025295679 33:0.9958908 900:0.00025295679 1801:0.00025295679 2106:0.00025295679 2201:0.00025295679 2323:0.00025295679 2404:0.00025295679 2500:0.00025295679 2600:0.00025295679 2700:0.00025295679 #
43.906008301821238148932025069371 3:0.0084604174 4:-0.017283671 11:0.00019649898 12:-0.00019649898 13:-0.00019649898 14:-0.00019649898 15:-0.00019649898 16:-0.00019649898 18:-0.00019649898 19:-0.00019649898 28:0.087909713 29:0.10342331 30:0.0035369818 31:-0.00019649898 32:-0.00019649898 33:0.99055135 901:0.00019649898 1801:0.00019649898 2111:0.00019649898 2200:0.00019649898 2500:0.00019649898 2602:0.00019649898 2699:0.00019649898 #
-100 3:0.0098703578 4:-0.019235656 11:-0.00022955907 12:-0.00022955907 13:-0.00022955907 14:-0.00022955907 15:-0.00022955907 16:-0.00022955907 18:-0.00022955907 19:-0.00022955907 28:0.11731386 29:0.13801549 30:0.0059685358 31:-0.00022955907 32:-0.00022955907 33:0.98320144 900:0.00022955907 1801:0.00022955907 2123:0.00022955907 2204:0.00022955907 2307:0.00022955907 2405:0.00022955907 2500:0.00022955907 2602:0.00022955907 2699:0.00022955907 #
90 3:0.008437125 4:-0.015399886 11:-0.00020768392 12:-0.00020768392 13:-0.00020768392 14:-0.00020768392 15:-0.00020768392 16:-0.00020768392 18:-0.00020768392 19:-0.00020768392 28:0.089540847 29:0.10534143 30:0.0026998909 31:0.00020768392 32:-0.00020768392 33:0.99023694 901:0.00020768392 1801:0.00020768392 2124:0.00020768392 2199:0.00020768392 2323:0.00020768392 2404:0.00020768392 2501:0.00020768392 2602:0.00020768392 2700:0.00020768392 #
-100 3:0.012338496 4:-0.019860785 11:-0.00028261525 12:-0.00028261525 13:-0.00028261525 14:-0.00028261525 15:-0.00028261525 16:-0.00028261525 18:-0.00028261525 19:-0.00028261525 28:0.20048161 29:0.24449044 30:0.021196144 31:0.00028261525 32:-0.00028261525 33:0.94817418 901:0.00028261525 1800:0.00028261525 2106:0.00028261525 2201:0.00028261525 2499:0.00028261525 2601:0.00028261525 2701:0.00028261525 #
90 3:0.0073336423 4:-0.018183697 11:-0.00020482909 12:-0.00020482909 13:-0.00020482909 14:-0.00020482909 15:-0.00020482909 16:-0.00020482909 18:-0.00020482909 19:-0.00020482909 28:0.091630295 29:0.10779951 30:0.0049158982 31:-0.00020482909 32:-0.00020482909 33:0.98973417 899:0.00020482909 1801:0.00020482909 2123:0.00020482909 2204:0.00020482909 2306:0.00020482909 2401:0.00020482909 2500:0.00020482909 2600:0.00020482909 2699:0.00020482909 #
-100 3:0.010254043 4:-0.02031572 11:0.00026384421 12:-0.00026384421 13:-0.00026384421 14:-0.00026384421 15:-0.00026384421 16:-0.00026384421 18:0.00026384421 19:-0.00026384421 28:0.089546092 29:0.10920248 30:0.0084430147 31:0.00026384421 32:-0.00026384421 33:0.98967963 901:0.00026384421 1800:0.00026384421 2106:0.00026384421 2201:0.00026384421 2315:0.00026384421 2404:0.00026384421 2500:0.00026384421 2601:0.00026384421 2699:0.00026384421 #
90 3:0.010770724 4:-0.019545246 11:-0.00026471182 12:-0.00026471182 13:-0.00026471182 14:-0.00026471182 15:-0.00026471182 16:-0.00026471182 18:-0.00026471182 19:-0.00026471182 28:0.0558489 29:0.068107702 30:0.0058236602 31:-0.00026471182 32:-0.00026471182 33:0.99584585 901:0.00026471182 1800:0.00026471182 2115:0.00026471182 2204:0.00026471182 2323:0.00026471182 2404:0.00026471182 2504:0.00026471182 2602:0.00026471182 2699:0.00026471182 #
-100 3:0.012868452 4:-0.022861363 11:-0.00031217668 12:-0.00031217668 13:-0.00031217668 14:-0.00031217668 15:-0.00031217668 16:-0.00031217668 18:-0.00031217668 19:-0.00031217668 28:0.090843417 29:0.11078526 30:0.0096774772 31:0.00031217668 32:-0.00031217668 33:0.98928791 901:0.00031217668 1801:0.00031217668 2115:0.00031217668 2204:0.00031217668 2499:0.00031217668 2602:0.00031217668 2700:0.00031217668 #
-100 3:0.0060862526 4:-0.019258728 11:-0.0002018941 12:-0.0002018941 13:-0.0002018941 14:-0.0002018941 15:-0.0002018941 16:-0.0002018941 18:-0.0002018941 19:-0.0002018941 28:0.10216649 29:0.12019563 30:0.0044416701 31:-0.0002018941 32:-0.0002018941 33:0.98726219 899:0.0002018941 1801:0.0002018941 2123:0.0002018941 2204:0.0002018941 2306:0.0002018941 2401:0.0002018941 2504:0.0002018941 2600:0.0002018941 2699:0.0002018941 #
-100 3:0.011018787 4:-0.018948687 11:-0.00025049466 12:-0.00025049466 13:-0.00025049466 14:-0.00025049466 15:-0.00025049466 16:-0.00025049466 18:-0.00025049466 19:-0.00025049466 28:0.092440046 29:0.10875226 30:0.01127226 31:-0.00025049466 32:-0.00025049466 33:0.98945391 899:0.00025049466 1800:0.00025049466 2115:0.00025049466 2204:0.00025049466 2324:0.00025049466 2399:0.00025049466 2500:0.00025049466 2601:0.00025049466 2701:0.00025049466 #
90 3:0.011744334 4:-0.034572642 11:-0.00027859432 12:-0.00027859432 13:-0.00027859432 14:-0.00027859432 15:-0.00027859432 16:-0.00027859432 18:-0.00027859432 19:-0.00027859432 28:0.061499696 29:0.075000376 30:0.0080792354 31:0.00027859432 32:-0.00027859432 33:0.99458176 1801:0.00027859432 2115:0.00027859432 2204:0.00027859432 2323:0.00027859432 2404:0.00027859432 2500:0.00027859432 2602:0.00027859432 2700:0.00027859432 #
90 3:0.013491683 4:-0.024517901 11:-0.00033139143 12:-0.00033139143 13:-0.00033139143 14:-0.00033139143 15:-0.00033139143 16:-0.00033139143 18:-0.00033139143 19:-0.00033139143 28:0.16867824 29:0.2057046 30:0.019883486 31:-0.00033139143 32:-0.00033139143 33:0.96335489 901:0.00033139143 1800:0.00033139143 2115:0.00033139143 2204:0.00033139143 2323:0.00033139143 2404:0.00033139143 2499:0.00033139143 2602:0.00033139143 2702:0.00033139143 #
90 3:0.007291208 4:-0.016442392 11:-0.0002081007 12:-0.0002081007 13:-0.0002081007 14:-0.0002081007 15:-0.0002081007 16:-0.0002081007 18:-0.0002081007 19:-0.0002081007 28:0.085960157 29:0.10112862 30:0.0052025174 31:-0.0002081007 32:-0.0002081007 33:0.99097556 901:0.0002081007 1800:0.0002081007 2115:0.0002081007 2204:0.0002081007 2499:0.0002081007 2601:0.0002081007 2700:0.0002081007 #
-100 3:0.0076825395 4:-0.018476795 11:-0.00022343354 12:-0.00022343354 13:-0.00022343354 14:-0.00022343354 15:-0.00022343354 16:-0.00022343354 18:-0.00022343354 19:-0.00022343354 28:0.084947199 29:0.099937357 30:0.0037983702 31:-0.00022343354 32:-0.00022343354 33:0.99115121 899:0.00022343354 1800:0.00022343354 2115:0.00022343354 2204:0.00022343354 2323:0.00022343354 2404:0.00022343354 2499:0.00022343354 2601:0.00022343354 2699:0.00022343354 #
90 3:0.0068026376 4:-0.020024125 11:-0.00024237634 12:-0.00024237634 13:-0.00024237634 14:-0.00024237634 15:-0.00024237634 16:-0.00024237634 18:-0.00024237634 19:-0.00024237634 28:0.085192859 29:0.10022747 30:0.0038780214 31:0.00024237634 32:-0.00024237634 33:0.99107689 900:0.00024237634 1799:0.00024237634 2115:0.00024237634 2204:0.00024237634 2501:0.00024237634 2600:0.00024237634 2700:0.00024237634 #
-100 3:0.0063006659 4:-0.022201577 11:-0.00019999126 12:-0.00019999126 13:-0.00019999126 14:-0.00019999126 15:-0.00019999126 16:-0.00019999126 18:-0.00019999126 19:-0.00019999126 28:0.086506218 29:0.10177155 30:0.0051997728 31:0.00019999126 32:-0.00019999126 33:0.99075669 899:0.00019999126 1799:0.00019999126 2115:0.00019999126 2204:0.00019999126 2323:0.00019999126 2404:0.00019999126 2499:0.00019999126 2602:0.00019999126 2700:0.00019999126 #
-100 3:0.012301326 4:-0.023423359 11:0.00030890654 12:-0.00030890654 13:0.00030890654 14:-0.00030890654 15:-0.00030890654 16:-0.00030890654 18:-0.00030890654 19:-0.00030890654 28:0.21314552 29:0.25993252 30:0.030890655 31:-0.00030890654 32:-0.00030890654 33:0.94092935 900:0.00030890654 1801:0.00030890654 2106:0.00030890654 2201:0.00030890654 2307:0.00030890654 2405:0.00030890654 2501:0.00030890654 2600:0.00030890654 2701:0.00030890654 #
-100 3:0.0082774209 4:-0.021221567 11:-0.00023566851 12:-0.00023566851 13:-0.00023566851 14:-0.00023566851 15:-0.00023566851 16:-0.00023566851 18:-0.00023566851 19:-0.00023566851 28:0.085465185 29:0.10054798 30:0.0035350278 31:-0.00023566851 32:-0.00023566851 33:0.99098611 901:0.00023566851 1800:0.00023566851 2106:0.00023566851 2201:0.00023566851 2500:0.00023566851 2602:0.00023566851 2700:0.00023566851 #
90 3:0.0079091433 4:-0.018491358 11:-0.00020445314 12:-0.00020445314 13:-0.00020445314 14:-0.00020445314 15:-0.00020445314 16:-0.00020445314 18:-0.00020445314 19:-0.00020445314 28:0.083737873 29:0.098515749 30:0.004089063 31:-0.00020445314 32:-0.00020445314 33:0.99139333 900:0.00020445314 1800:0.00020445314 2107:0.00020445314 2205:0.00020445314 2500:0.00020445314 2600:0.00020445314 2700:0.00020445314 #
-100 3:0.0066421228 4:-0.016209206 11:-0.00020256378 12:-0.00020256378 13:-0.00020256378 14:-0.00020256378 15:-0.00020256378 16:-0.00020256378 18:-0.00020256378 19:-0.00020256378 28:0.083223328 29:0.097909205 30:0.0030384567 31:0.00020256378 32:-0.00020256378 33:0.99154967 901:0.00020256378 1801:0.00020256378 2124:0.00020256378 2199:0.00020256378 2306:0.00020256378 2401:0.00020256378 2504:0.00020256378 2601:0.00020256378 2701:0.00020256378 #
59.377211729197867384755227249116 3:0.0065334658 4:-0.020258239 11:-0.00025254878 12:-0.00025254878 13:-0.00025254878 14:-0.00025254878 15:-0.00025254878 16:-0.00025254878 18:0.00025254878 19:-0.00025254878 28:0.084295735 29:0.099170856 30:0.0045458782 31:-0.00025254878 32:0.00025254878 33:0.99125397 1800:0.00025254878 2115:0.00025254878 2204:0.00025254878 2323:0.00025254878 2404:0.00025254878 2499:0.00025254878 2602:0.00025254878 2700:0.00025254878 #
90 3:0.0075340727 4:-0.026101926 11:-0.00022037087 12:-0.00022037087 13:0.00022037087 14:-0.00022037087 15:-0.00022037087 16:-0.00022037087 18:-0.00022037087 19:-0.00022037087 28:0.1839612 29:0.21642403 30:0.0079333512 31:0.00022037087 32:-0.00022037087 33:0.95839292 901:0.00022037087 1801:0.00022037087 2105:0.00022037087 2205:0.00022037087 2315:0.00022037087 2404:0.00022037087 2504:0.00022037087 2601:0.00022037087 2699:0.00022037087 #
90 3:0.009023577 4:-0.01680826 11:-0.00022246377 12:-0.00022246377 13:-0.00022246377 14:-0.00022246377 15:-0.00022246377 16:-0.00022246377 18:-0.00022246377 19:-0.00022246377 28:0.084002323 29:0.09882731 30:0.01179058 31:-0.00022246377 32:-0.00022246377 33:0.99129856 900:0.00022246377 1801:0.00022246377 2115:0.00022246377 2204:0.00022246377 2323:0.00022246377 2404:0.00022246377 2499:0.00022246377 2600:0.00022246377 2700:0.00022246377 #
-100 3:0.0062719663 4:-0.020174487 11:-0.00021162124 12:-0.00021162124 13:-0.00021162124 14:-0.00021162124 15:-0.00021162124 16:-0.00021162124 18:-0.00021162124 19:-0.00021162124 28:0.084062301 29:0.09889695 30:0.012697274 31:-0.00021162124 32:-0.00021162124 33:0.99123389 901:0.00021162124 1800:0.00021162124 2099:0.00021162124 2202:0.00021162124 2501:0.00021162124 2601:0.00021162124 2701:0.00021162124 #
90 3:0.0076728822 4:-0.015068764 11:-0.00019695394 12:-0.00019695394 13:-0.00019695394 14:-0.00019695394 15:-0.00019695394 16:-0.00019695394 18:-0.00019695394 19:-0.00019695394 28:0.076171935 29:0.089614041 30:0.011817236 31:0.00019695394 32:-0.00019695394 33:0.99284482 900:0.00019695394 1800:0.00019695394 2107:0.00019695394 2205:0.00019695394 2300:0.00019695394 2401:0.00019695394 2504:0.00019695394 2601:0.00019695394 2701:0.00019695394 #
-100 3:0.010334095 4:-0.023573639 11:-0.00028695384 12:-0.00028695384 13:-0.00028695384 14:-0.00028695384 15:-0.00028695384 16:-0.00028695384 18:-0.00028695384 19:-0.00028695384 28:0.081147678 29:0.098961771 30:0.005739077 31:0.00028695384 32:-0.00028695384 33:0.99142557 899:0.00028695384 1801:0.00028695384 2106:0.00028695384 2201:0.00028695384 2318:0.00028695384 2405:0.00028695384 2504:0.00028695384 2601:0.00028695384 2700:0.00028695384 #
90 3:0.0065646842 4:-0.019367237 11:-0.00020030941 12:-0.00020030941 13:-0.00020030941 14:-0.00020030941 15:-0.00020030941 16:-0.00020030941 18:-0.00020030941 19:-0.00020030941 28:0.085383885 29:0.10045116 30:0.016024753 31:0.00020030941 32:-0.00020030941 33:0.99093062 1801:0.00020030941 2123:0.00020030941 2204:0.00020030941 2504:0.00020030941 2602:0.00020030941 2701:0.00020030941 #
90 3:0.0071308152 4:-0.024846306 11:-0.00020974176 12:-0.00020974176 13:-0.00020974176 14:-0.00020974176 15:-0.00020974176 16:-0.00020974176 18:-0.00020974176 19:-0.00020974176 28:0.082579523 29:0.097152382 30:0.010067604 31:-0.00020974176 32:-0.00020974176 33:0.9914493 901:0.00020974176 1801:0.00020974176 2123:0.00020974176 2204:0.00020974176 2319:0.00020974176 2404:0.00020974176 2501:0.00020974176 2600:0.00020974176 2699:0.00020974176 #
-100 3:0.010026895 4:-0.019915201 11:-0.00025195701 12:-0.00025195701 13:-0.00025195701 14:-0.00025195701 15:-0.00025195701 16:-0.00025195701 18:-0.00025195701 19:-0.00025195701 28:0.20852716 29:0.25430021 30:0.0075587099 31:-0.00025195701 32:-0.00025195701 33:0.94408286 899:0.00025195701 1801:0.00025195701 2120:0.00025195701 2205:0.00025195701 2501:0.00025195701 2601:0.00025195701 2702:0.00025195701 #
90 3:0.012700282 4:-0.026546596 11:-0.00030269017 12:-0.00030269017 13:-0.00030269017 14:-0.00030269017 15:-0.00030269017 16:-0.00030269017 18:-0.00030269017 19:-0.00030269017 28:0.1413563 29:0.17238508 30:0.0075672544 31:-0.00030269017 32:-0.00030269017 33:0.97435969 901:0.00030269017 1800:0.00030269017 2115:0.00030269017 2204:0.00030269017 2303:0.00030269017 2405:0.00030269017 2501:0.00030269017 2602:0.00030269017 2699:0.00030269017 #
-100 3:0.0071308757 4:-0.018940188 11:-0.00019721359 12:-0.00019721359 13:0.00019721359 14:-0.00019721359 15:-0.00019721359 16:-0.00019721359 18:-0.00019721359 19:-0.00019721359 28:0.07849101 29:0.092343293 30:0.0092690391 31:-0.00019721359 32:-0.00019721359 33:0.99237877 901:0.00019721359 1800:0.00019721359 2101:0.00019721359 2201:0.00019721359 2306:0.00019721359 2401:0.00019721359 2499:0.00019721359 2602:0.00019721359 2700:0.00019721359 #
90 3:0.0058737504 4:-0.018109223 11:-0.00022567599 12:-0.00022567599 13:-0.00022567599 14:-0.00022567599 15:-0.00022567599 16:-0.00022567599 18:-0.00022567599 19:-0.00022567599 28:0.079058811 29:0.093010105 30:0.0090270396 31:-0.00022567599 32:-0.00022567599 33:0.99229735 900:0.00022567599 1801:0.00022567599 2115:0.00022567599 2204:0.00022567599 2500:0.00022567599 2602:0.00022567599 2700:0.00022567599 #
-100 3:0.0063099307 4:-0.016002886 11:-0.00019722129 12:-0.00019722129 13:-0.00019722129 14:-0.00019722129 15:-0.00019722129 16:-0.00019722129 18:-0.00019722129 19:-0.00019722129 28:0.079655707 29:0.093711667 30:0.0086777369 31:0.00019722129 32:-0.00019722129 33:0.99222028 901:0.00019722129 1801:0.00019722129 2106:0.00019722129 2201:0.00019722129 2308:0.00019722129 2403:0.00019722129 2504:0.00019722129 2602:0.00019722129 2699:0.00019722129 #
-100 3:0.0081978161 4:-0.020553453 11:-0.00024114508 12:-0.00024114508 13:-0.00024114508 14:-0.00024114508 15:-0.00024114508 16:-0.00024114508 18:-0.00024114508 19:-0.00024114508 28:0.079934776 29:0.094041765 30:0.0084400782 31:0.00024114508 32:-0.00024114508 33:0.99207091 1801:0.00024114508 2115:0.00024114508 2204:0.00024114508 2323:0.00024114508 2404:0.00024114508 2499:0.00024114508 2602:0.00024114508 2701:0.00024114508 #
90 3:0.0080427909 4:-0.014599343 11:-0.00019771753 12:0.00019771753 13:-0.00019771753 14:-0.00019771753 15:-0.00019771753 16:-0.00019771753 18:-0.00019771753 19:-0.00019771753 28:0.16647024 29:0.19584712 30:0.0047452208 31:0.00019771753 32:-0.00019771753 33:0.96624553 901:0.00019771753 1800:0.00019771753 2124:0.00019771753 2199:0.00019771753 2315:0.00019771753 2404:0.00019771753 2501:0.00019771753 2602:0.00019771753 2701:0.00019771753 #
-100 3:0.0084690982 4:-0.021682765 11:-0.00024085907 12:-0.00024085907 13:-0.00024085907 14:-0.00024085907 15:-0.00024085907 16:-0.00024085907 18:-0.00024085907 19:-0.00024085907 28:0.079767704 29:0.093843512 30:0.0052988995 31:-0.00024085907 32:-0.00024085907 33:0.99209851 901:0.00024085907 1799:0.00024085907 2106:0.00024085907 2201:0.00024085907 2323:0.00024085907 2404:0.00024085907 2501:0.00024085907 2602:0.00024085907 2699:0.00024085907 #
90 3:0.0064344229 4:-0.018542903 11:-0.00022710682 12:-0.00022710682 13:-0.00022710682 14:-0.00022710682 15:-0.00022710682 16:-0.00022710682 18:-0.00022710682 19:-0.00022710682 28:0.076144375 29:0.089582287 30:0.18168546 31:-0.00022710682 32:0.00022710682 33:0.97610515 1801:0.00022710682 2107:0.00022710682 2205:0.00022710682 2322:0.00022710682 2402:0.00022710682 2500:0.00022710682 2602:0.00022710682 2700:0.00022710682 #
-100 3:0.0068476875 4:-0.023771355 11:-0.00020117947 12:-0.00020117947 13:-0.00020117947 14:-0.00020117947 15:-0.00020117947 16:-0.00020117947 18:-0.00020117947 19:-0.00020117947 28:0.092616998 29:0.10896081 30:0.0048283073 31:0.00020117947 32:-0.00020117947 33:0.98940068 900:0.00020117947 1801:0.00020117947 2106:0.00020117947 2201:0.00020117947 2500:0.00020117947 2601:0.00020117947 2699:0.00020117947 #
90 3:0.0072849547 4:-0.017300868 11:-0.00019773147 12:-0.00019773147 13:-0.00019773147 14:-0.00019773147 15:-0.00019773147 16:-0.00019773147 18:-0.00019773147 19:-0.00019773147 28:0.077572033 29:0.091260977 30:0.0047455551 31:-0.00019773147 32:-0.00019773147 33:0.99261194 1801:0.00019773147 2106:0.00019773147 2201:0.00019773147 2500:0.00019773147 2602:0.00019773147 2699:0.00019773147 #
-100 3:0.0059650587 4:-0.017100209 11:0.00020929497 12:-0.00020929497 13:-0.00020929497 14:-0.00020929497 15:-0.00020929497 16:-0.00020929497 18:-0.00020929497 19:-0.00020929497 28:0.076124765 29:0.089559413 30:0.0037673095 31:0.00020929497 32:-0.00020929497 33:0.99289536 1801:0.00020929497 2108:0.00020929497 2203:0.00020929497 2310:0.00020929497 2401:0.00020929497 2501:0.00020929497 2600:0.00020929497 2700:0.00020929497 #
90 3:0.0057541518 4:-0.016423907 11:-0.0002019341 12:-0.0002019341 13:-0.0002019341 14:-0.0002019341 15:-0.0002019341 16:-0.0002019341 18:-0.0002019341 19:-0.0002019341 28:0.076117039 29:0.089549698 30:0.0036348137 31:-0.0002019341 32:0.0002019341 33:0.99290997 900:0.0002019341 1801:0.0002019341 2106:0.0002019341 2201:0.0002019341 2323:0.0002019341 2404:0.0002019341 2501:0.0002019341 2601:0.0002019341 2700:0.0002019341 #
-100 3:0.0077513508 4:-0.026984617 11:0.00022804327 12:-0.00022804327 13:-0.00022804327 14:-0.00022804327 15:-0.00022804327 16:0.00022804327 18:-0.00022804327 19:-0.00022804327 28:0.21823056 29:0.25674251 30:0.045608651 31:-0.00022804327 32:-0.00022804327 33:0.93999434 901:0.00022804327 1799:0.00022804327 2113:0.00022804327 2200:0.00022804327 2311:0.00022804327 2400:0.00022804327 2500:0.00022804327 2601:0.00022804327 2702:0.00022804327 #
90 3:0.013114696 4:-0.023790454 11:-0.00032177809 12:-0.00032177809 13:-0.00032177809 14:-0.00032177809 15:-0.00032177809 16:-0.00032177809 18:-0.00032177809 19:-0.00032177809 28:0.14769614 29:0.1801185 30:0.0064355615 31:-0.00032177809 32:-0.00032177809 33:0.97209156 901:0.00032177809 1800:0.00032177809 2115:0.00032177809 2204:0.00032177809 2499:0.00032177809 2602:0.00032177809 2699:0.00032177809 #
90 3:0.0073667341 4:-0.016476179 11:-0.00019243201 12:-0.00019243201 13:-0.00019243201 14:-0.00019243201 15:-0.00019243201 16:-0.00019243201 18:-0.00019243201 19:-0.00019243201 28:0.15324515 29:0.18028763 30:0.02116752 31:0.00019243201 32:-0.00019243201 33:0.97120434 901:0.00019243201 1801:0.00019243201 2106:0.00019243201 2201:0.00019243201 2501:0.00019243201 2601:0.00019243201 2701:0.00019243201 #
90 3:0.0079758856 4:-0.017277962 11:-0.00020390871 12:-0.00020390871 13:-0.00020390871 14:-0.00020390871 15:-0.00020390871 16:-0.00020390871 18:-0.00020390871 19:-0.00020390871 28:0.13895155 29:0.16347158 30:0.020390872 31:-0.00020390871 32:-0.00020390871 33:0.9763149 900:0.00020390871 1801:0.00020390871 2106:0.00020390871 2201:0.00020390871 2315:0.00020390871 2404:0.00020390871 2501:0.00020390871 2600:0.00020390871 2700:0.00020390871 #
