SVM-light Version V6.02
1 # kernel type
3 # kernel parameter -d 
1 # kernel parameter -g 
1 # kernel parameter -s 
1 # kernel parameter -r 
empty# kernel parameter -u 
2702 # highest feature index 
10000 # number of training documents 
5448 # number of support vectors plus 1 
0 # threshold b, each following line is a SV (starting with alpha*y)
-2.3750825929349388410116716841003 3:0.007118843 4:-0.020443292 11:-0.0002325668 12:-0.0002325668 13:-0.0002325668 14:-0.0002325668 15:-0.0002325668 16:-0.0002325668 18:-0.0002325668 19:-0.0002325668 28:0.10399922 29:0.12235107 30:0.037210688 31:0.0002325668 32:-0.0002325668 33:0.98608321 899:0.0002325668 1801:0.0002325668 2106:0.0002325668 2201:0.0002325668 2315:0.0002325668 2404:0.0002325668 2501:0.0002325668 2600:0.0002325668 2700:0.0002325668 #
1.0003828135259142939617049705703 3:0.0092787901 4:-0.020988146 11:-0.00026946072 12:-0.00026946072 13:-0.00026946072 14:-0.00026946072 15:-0.00026946072 16:-0.00026946072 18:-0.00026946072 19:-0.00026946072 28:0.10170526 29:0.12403008 30:0.040419109 31:0.00026946072 32:-0.00026946072 33:0.98595685 899:0.00026946072 1799:0.00026946072 2100:0.00026946072 2201:0.00026946072 2310:0.00026946072 2401:0.00026946072 2500:0.00026946072 2602:0.00026946072 2702:0.00026946072 #
-2.0090250565585736630680457892595 3:0.010594251 4:-0.02429693 11:-0.0003011165 12:-0.0003011165 13:-0.0003011165 14:-0.0003011165 15:-0.0003011165 16:-0.0003011165 18:-0.0003011165 19:-0.0003011165 28:0.10328296 29:0.12595402 30:0.045167476 31:-0.0003011165 32:-0.0003011165 33:0.98525316 899:0.0003011165 1800:0.0003011165 2115:0.0003011165 2204:0.0003011165 2308:0.0003011165 2403:0.0003011165 2500:0.0003011165 2602:0.0003011165 2700:0.0003011165 #
1.0000444538195838450889141313382 3:0.010972537 4:-0.028159557 11:-0.0002301123 12:-0.0002301123 13:-0.0002301123 14:-0.0002301123 15:-0.0002301123 16:-0.0002301123 18:-0.0002301123 19:-0.0002301123 28:0.1090226 29:0.1282623 30:0.04602246 31:0.0002301123 32:-0.0002301123 33:0.98419029 901:0.0002301123 1801:0.0002301123 2115:0.0002301123 2204:0.0002301123 2499:0.0002301123 2600:0.0002301123 2700:0.0002301123 #
-0.50000498881816535234889897765242 3:0.0098434631 4:-0.028273305 11:-0.00029264117 12:-0.00029264117 13:-0.00029264117 14:-0.00029264117 15:-0.00029264117 16:-0.00029264117 18:-0.00029264117 19:-0.00029264117 28:0.1106886 29:0.13498659 30:0.042432968 31:-0.00029264117 32:-0.00029264117 33:0.98327428 901:0.00029264117 1801:0.00029264117 2114:0.00029264117 2203:0.00029264117 2501:0.00029264117 2601:0.00029264117 2701:0.00029264117 #
1.5000789202099029662207385626971 3:0.0075562494 4:-0.026445309 11:-0.00022353078 12:-0.00022353078 13:-0.00022353078 14:-0.00022353078 15:-0.00022353078 16:-0.00022353078 18:-0.00022353078 19:-0.00022353078 28:0.11512953 29:0.13544624 30:0.040235542 31:0.00022353078 32:-0.00022353078 33:0.98286486 901:0.00022353078 1799:0.00022353078 2122:0.00022353078 2202:0.00022353078 2501:0.00022353078 2601:0.00022353078 2702:0.00022353078 #
-4.0003832855684189340195189288352 3:0.0091164513 4:-0.022562739 11:-0.00026283154 12:-0.00026283154 13:-0.00026283154 14:-0.00026283154 15:-0.00026283154 16:-0.00026283154 18:-0.00026283154 19:-0.00026283154 28:0.1162504 29:0.13362093 30:0.042053048 31:-0.00026283154 32:-0.00026283154 33:0.98299003 899:0.00026283154 1799:0.00026283154 2118:0.00026283154 2205:0.00026283154 2307:0.00026283154 2405:0.00026283154 2500:0.00026283154 2601:0.00026283154 2702:0.00026283154 #
1.2500473572088546259095664936467 3:0.0095167505 4:-0.019660058 11:-0.00025363878 12:-0.00025363878 13:-0.00025363878 14:-0.00025363878 15:-0.00025363878 16:-0.00025363878 18:-0.00025363878 19:-0.00025363878 28:0.1124964 29:0.1323487 30:0.043118589 31:-0.00025363878 32:-0.00025363878 33:0.98361111 901:0.00025363878 1799:0.00025363878 2114:0.00025363878 2203:0.00025363878 2325:0.00025363878 2403:0.00025363878 2500:0.00025363878 2601:0.00025363878 2701:0.00025363878 #
-1.9456752051402681491509838451748 3:0.010455 4:-0.017922489 11:-0.0002507343 12:-0.0002507343 13:-0.0002507343 14:-0.0002507343 15:-0.0002507343 16:-0.0002507343 18:-0.0002507343 19:-0.0002507343 28:0.1105638 29:0.13007595 30:0.037610147 31:-0.0002507343 32:-0.0002507343 33:0.98438287 901:0.0002507343 1799:0.0002507343 2104:0.0002507343 2202:0.0002507343 2299:0.0002507343 2402:0.0002507343 2500:0.0002507343 2600:0.0002507343 2701:0.0002507343 #
0.75001249198310770971431793441297 3:0.010204312 4:-0.018275766 11:0.00024852663 12:-0.00024852663 13:-0.00024852663 14:-0.00024852663 15:-0.00024852663 16:-0.00024852663 18:-0.00024852663 19:-0.00024852663 28:0.11005257 29:0.12947243 30:0.033551097 31:-0.00024852663 32:-0.00024852663 33:0.98466253 901:0.00024852663 1801:0.00024852663 2122:0.00024852663 2202:0.00024852663 2323:0.00024852663 2404:0.00024852663 2501:0.00024852663 2602:0.00024852663 2702:0.00024852663 #
-1.0001361825112204950727345931227 3:0.0083164545 4:-0.018399702 11:-0.00023415813 12:-0.00023415813 13:-0.00023415813 14:-0.00023415813 15:-0.00023415813 16:-0.00023415813 18:-0.00023415813 19:-0.00023415813 28:0.11000749 29:0.12942155 30:0.035123721 31:0.00023415813 32:-0.00023415813 33:0.98463494 899:0.00023415813 1801:0.00023415813 2123:0.00023415813 2204:0.00023415813 2314:0.00023415813 2403:0.00023415813 2499:0.00023415813 2600:0.00023415813 2701:0.00023415813 #
0.4999989854025147506533244268212 3:0.010354532 4:-0.017847968 11:-0.00024591325 12:0.00024591325 13:-0.00024591325 14:-0.00024591325 15:-0.00024591325 16:-0.00024591325 18:-0.00024591325 19:-0.00024591325 28:0.11064621 29:0.13017172 30:0.03688699 31:-0.00024591325 32:-0.00024591325 33:0.98439074 901:0.00024591325 1800:0.00024591325 2115:0.00024591325 2204:0.00024591325 2323:0.00024591325 2404:0.00024591325 2501:0.00024591325 2602:0.00024591325 2702:0.00024591325 #
0.24999888630806324507638294107892 3:0.010191564 4:-0.018442322 11:-0.00024955184 12:-0.00024955184 13:-0.00024955184 14:-0.00024955184 15:-0.00024955184 16:-0.00024955184 18:-0.00024955184 19:0.00024955184 28:0.10982528 29:0.12920547 30:0.039928295 31:-0.00024955184 32:0.00024955184 33:0.98448205 901:0.00024955184 1800:0.00024955184 2115:0.00024955184 2204:0.00024955184 2323:0.00024955184 2404:0.00024955184 2499:0.00024955184 2602:0.00024955184 2701:0.00024955184 #
0.50000112238795701991023179289186 3:0.0098372893 4:-0.017766478 11:-0.00024060599 12:-0.00024060599 13:-0.00024060599 14:-0.00024060599 15:-0.00024060599 16:-0.00024060599 18:-0.00024060599 19:-0.00024060599 28:0.11282256 29:0.1327327 30:0.036090899 31:-0.00024060599 32:-0.00024060599 33:0.9838379 901:0.00024060599 1800:0.00024060599 2110:0.00024060599 2201:0.00024060599 2300:0.00024060599 2401:0.00024060599 2501:0.00024060599 2602:0.00024060599 2701:0.00024060599 #
0.50000765517433332085772690334124 3:0.0091400631 4:-0.024253618 11:-0.00025281723 12:-0.00025281723 13:-0.00025281723 14:-0.00025281723 15:-0.00025281723 16:-0.00025281723 18:-0.00025281723 19:-0.00025281723 28:0.11525433 29:0.13559347 30:0.044243019 31:0.00025281723 32:-0.00025281723 33:0.98270065 901:0.00025281723 1800:0.00025281723 2099:0.00025281723 2202:0.00025281723 2500:0.00025281723 2602:0.00025281723 2702:0.00025281723 #
1.2500820272315584791300580036477 3:0.0069960435 4:-0.020752784 11:-0.00023046104 12:-0.00023046104 13:-0.00023046104 14:-0.00023046104 15:-0.00023046104 16:-0.00023046104 18:-0.00023046104 19:-0.00023046104 28:0.11410818 29:0.13424586 30:0.038026072 31:0.00023046104 32:-0.00023046104 33:0.98337728 900:0.00023046104 1801:0.00023046104 2114:0.00023046104 2203:0.00023046104 2501:0.00023046104 2600:0.00023046104 2701:0.00023046104 #
70 3:0.0088365693 4:-0.030770391 11:-0.00026013138 12:-0.00026013138 13:0.00026013138 14:-0.00026013138 15:-0.00026013138 16:-0.00026013138 18:-0.00026013138 19:-0.00026013138 28:0.23092642 29:0.28161824 30:0.0065032844 31:0.00026013138 32:-0.00026013138 33:0.93075007 901:0.00026013138 1800:0.00026013138 2106:0.00026013138 2201:0.00026013138 2315:0.00026013138 2404:0.00026013138 2501:0.00026013138 2601:0.00026013138 2699:0.00026013138 #
70 3:0.0082506519 4:-0.019272743 11:-0.00024372728 12:-0.00024372728 13:-0.00024372728 14:-0.00024372728 15:-0.00024372728 16:-0.00024372728 18:-0.00024372728 19:-0.00024372728 28:0.21898165 29:0.25170204 30:0.03655909 31:-0.00024372728 32:0.00024372728 33:0.94176221 899:0.00024372728 1800:0.00024372728 2123:0.00024372728 2204:0.00024372728 2499:0.00024372728 2602:0.00024372728 2702:0.00024372728 #
-0.2500023721840483048595160653349 3:0.0076148128 4:-0.026405627 11:-0.00022276034 12:0.00022276034 13:-0.00022276034 14:-0.00022276034 15:-0.00022276034 16:-0.00022276034 18:-0.00022276034 19:-0.00022276034 28:0.11301523 29:0.13295896 30:0.044552069 31:0.00022276034 32:-0.00022276034 33:0.98326415 901:0.00022276034 1799:0.00022276034 2110:0.00022276034 2201:0.00022276034 2301:0.00022276034 2401:0.00022276034 2500:0.00022276034 2601:0.00022276034 2701:0.00022276034 #
0.25000013817567429130761524902482 3:0.0094623063 4:-0.019848468 11:-0.00022635926 12:-0.00022635926 13:-0.00022635926 14:-0.00022635926 15:-0.00022635926 16:-0.00022635926 18:0.00022635926 19:-0.00022635926 28:0.10644544 29:0.125231 30:0.045271851 31:-0.00022635926 32:-0.00022635926 33:0.98511553 901:0.00022635926 1801:0.00022635926 2103:0.00022635926 2205:0.00022635926 2324:0.00022635926 2399:0.00022635926 2500:0.00022635926 2602:0.00022635926 2700:0.00022635926 #
-1.017624951018499146471185667906 3:0.0097946404 4:-0.017760666 11:-0.00024068919 12:-0.00024068919 13:-0.00024068919 14:-0.00024068919 15:-0.00024068919 16:-0.00024068919 18:-0.00024068919 19:-0.00024068919 28:0.10596101 29:0.12466015 30:0.048137836 31:-0.00024068919 32:-0.00024068919 33:0.98514086 901:0.00024068919 1800:0.00024068919 2115:0.00024068919 2204:0.00024068919 2504:0.00024068919 2602:0.00024068919 2700:0.00024068919 #
0.24999776724684044659774428964738 3:0.0088929078 4:-0.01733939 11:-0.00022609966 12:-0.00022609966 13:-0.00022609966 14:-0.00022609966 15:-0.00022609966 16:-0.00022609966 18:-0.00022609966 19:-0.00022609966 28:0.10614475 29:0.1248771 30:0.056524914 31:-0.00022609966 32:-0.00022609966 33:0.98466402 900:0.00022609966 1799:0.00022609966 2106:0.00022609966 2201:0.00022609966 2324:0.00022609966 2399:0.00022609966 2501:0.00022609966 2602:0.00022609966 2702:0.00022609966 #
-13.00138295332767768286430509761 3:0.0079711657 4:-0.016944349 11:-0.00020622378 12:-0.00020622378 13:-0.00020622378 14:-0.00020622378 15:-0.00020622378 16:-0.00020622378 18:-0.00020622378 19:-0.00020622378 28:0.11331584 29:0.13331336 30:0.061867133 31:-0.00020622378 32:-0.00020622378 33:0.98245007 1799:0.00020622378 2104:0.00020622378 2202:0.00020622378 2299:0.00020622378 2402:0.00020622378 2501:0.00020622378 2602:0.00020622378 2700:0.00020622378 #
7.5334992296993732452392578125 3:0.007958686 4:-0.020276939 11:-0.00021452816 12:-0.00021452816 13:-0.00021452816 14:-0.00021452816 15:-0.00021452816 16:-0.00021452816 18:-0.00021452816 19:-0.00021452816 28:0.11830799 29:0.13918586 30:0.06435845 31:-0.00021452816 32:-0.00021452816 33:0.98082274 901:0.00021452816 1801:0.00021452816 2122:0.00021452816 2202:0.00021452816 2501:0.00021452816 2601:0.00021452816 2700:0.00021452816 #
-100 3:0.0080038328 4:-0.020250488 11:-0.00024962163 12:0.00024962163 13:-0.00024962163 14:-0.00024962163 15:-0.00024962163 16:-0.00024962163 18:-0.00024962163 19:-0.00024962163 28:0.11851786 29:0.13943365 30:0.074886493 31:-0.00024962163 32:0.00024962163 33:0.98001456 901:0.00024962163 1800:0.00024962163 2123:0.00024962163 2204:0.00024962163 2500:0.00024962163 2602:0.00024962163 2699:0.00024962163 #
0.25000133657971518319484971470956 3:0.0093037952 4:-0.023598585 11:-0.00019348811 12:-0.00019348811 13:-0.00019348811 14:-0.00019348811 15:-0.00019348811 16:-0.00019348811 18:-0.00019348811 19:-0.00019348811 28:0.11663463 29:0.13721789 30:0.085134767 31:-0.00019348811 32:-0.00019348811 33:0.97963029 900:0.00019348811 1801:0.00019348811 2113:0.00019348811 2200:0.00019348811 2311:0.00019348811 2400:0.00019348811 2500:0.00019348811 2601:0.00019348811 2701:0.00019348811 #
70 3:0.0091051059 4:-0.015322221 11:-0.00021660388 12:-0.00021660388 13:-0.00021660388 14:-0.00021660388 15:-0.00021660388 16:-0.00021660388 18:-0.00021660388 19:-0.00021660388 28:0.1392308 29:0.16380018 30:0.0032490583 31:-0.00021660388 32:-0.00021660388 33:0.97645026 900:0.00021660388 1800:0.00021660388 2124:0.00021660388 2199:0.00021660388 2305:0.00021660388 2405:0.00021660388 2501:0.00021660388 2599:0.00021660388 2699:0.00021660388 #
1.0200726698752893284449783095624 3:0.0075885318 4:-0.024748515 11:-0.00022090985 12:-0.00022090985 13:-0.00022090985 14:-0.00022090985 15:-0.00022090985 16:-0.00022090985 18:-0.00022090985 19:-0.00022090985 28:0.11537901 29:0.13574027 30:0.077318445 31:-0.00022090985 32:-0.00022090985 33:0.98061877 899:0.00022090985 1801:0.00022090985 2123:0.00022090985 2204:0.00022090985 2499:0.00022090985 2602:0.00022090985 2701:0.00022090985 #
-100 3:0.012282764 4:-0.029899616 11:-0.00019957298 12:-0.00019957298 13:-0.00019957298 14:-0.00019957298 15:-0.00019957298 16:-0.00019957298 18:-0.00019957298 19:-0.00019957298 28:0.18185689 29:0.21395022 30:0.011974378 31:-0.00019957298 32:-0.00019957298 33:0.95914775 899:0.00019957298 1801:0.00019957298 2111:0.00019957298 2200:0.00019957298 2300:0.00019957298 2401:0.00019957298 2500:0.00019957298 2601:0.00019957298 2700:0.00019957298 #
-100 3:0.0064582583 4:-0.016150622 11:-0.00019143804 12:-0.00019143804 13:-0.00019143804 14:-0.00019143804 15:-0.00019143804 16:-0.00019143804 18:-0.00019143804 19:-0.00019143804 28:0.16091324 29:0.18930925 30:0.0015315043 31:0.00019143804 32:-0.00019143804 33:0.96848506 901:0.00019143804 1801:0.00019143804 2106:0.00019143804 2201:0.00019143804 2315:0.00019143804 2404:0.00019143804 2501:0.00019143804 2602:0.00019143804 2699:0.00019143804 #
-0.52503061382394466960477075190283 3:0.0074110981 4:-0.018013332 11:-0.00019019302 12:-0.00019019302 13:-0.00019019302 14:-0.00019019302 15:-0.00019019302 16:-0.00019019302 18:-0.00019019302 19:-0.00019019302 28:0.16084243 29:0.18922684 30:0.0047548255 31:-0.00019019302 32:-0.00019019302 33:0.96846282 901:0.00019019302 1800:0.00019019302 2105:0.00019019302 2205:0.00019019302 2501:0.00019019302 2602:0.00019019302 2699:0.00019019302 #
-100 3:0.0050111231 4:-0.015763827 11:0.00019612111 12:-0.00019612111 13:-0.00019612111 14:-0.00019612111 15:-0.00019612111 16:-0.00019612111 18:-0.00019612111 19:-0.00019612111 28:0.078087583 29:0.091867052 30:0.019612111 31:0.00019612111 32:-0.00019612111 33:0.99237281 900:0.00019612111 1800:0.00019612111 2122:0.00019612111 2202:0.00019612111 2323:0.00019612111 2404:0.00019612111 2501:0.00019612111 2602:0.00019612111 2702:0.00019612111 #
0.25007980321623696218225063603313 3:0.01227537 4:-0.025708335 11:-0.00029341332 12:0.00029341332 13:-0.00029341332 14:0.00029341332 15:-0.00029341332 16:-0.00029341332 18:-0.00029341332 19:-0.00029341332 28:0.078928187 29:0.096254237 30:0.073353328 31:-0.00029341332 32:-0.00029341332 33:0.98909628 901:0.00029341332 1800:0.00029341332 2110:0.00029341332 2201:0.00029341332 2322:0.00029341332 2402:0.00029341332 2500:0.00029341332 2602:0.00029341332 2699:0.00029341332 #
-100 3:0.011002593 4:-0.023580141 11:0.00027906324 12:-0.00027906324 13:-0.00027906324 14:-0.00027906324 15:-0.00027906324 16:-0.00027906324 18:-0.00027906324 19:-0.00027906324 28:0.11001232 29:0.13416244 30:0.065579861 31:-0.00027906324 32:-0.00027906324 33:0.98230261 900:0.00027906324 1800:0.00027906324 2122:0.00027906324 2202:0.00027906324 2303:0.00027906324 2405:0.00027906324 2500:0.00027906324 2602:0.00027906324 2699:0.00027906324 #
-100 3:0.010304144 4:-0.017557105 11:0.00024862087 12:-0.00024862087 13:-0.00024862087 14:-0.00024862087 15:-0.00024862087 16:-0.00024862087 18:-0.00024862087 19:-0.00024862087 28:0.21806039 29:0.25064462 30:0.019889669 31:-0.00024862087 32:-0.00024862087 33:0.9427703 899:0.00024862087 1801:0.00024862087 2122:0.00024862087 2202:0.00024862087 2504:0.00024862087 2599:0.00024862087 2702:0.00024862087 #
-100 3:0.010822818 4:-0.023621228 11:-0.00026077899 12:-0.00026077899 13:0.00026077899 14:-0.00026077899 15:-0.00026077899 16:-0.00026077899 18:-0.00026077899 19:-0.00026077899 28:0.10610576 29:0.12939854 30:0.065194748 31:-0.00026077899 32:-0.00026077899 33:0.9833976 901:0.00026077899 1801:0.00026077899 2104:0.00026077899 2202:0.00026077899 2299:0.00026077899 2402:0.00026077899 2504:0.00026077899 2602:0.00026077899 2699:0.00026077899 #
-100 3:0.010040012 4:-0.018878581 11:0.00025123305 12:-0.00025123305 13:-0.00025123305 14:-0.00025123305 15:-0.00025123305 16:-0.00025123305 18:-0.00025123305 19:-0.00025123305 28:0.12421966 29:0.14613974 30:0.075369909 31:-0.00025123305 32:-0.00025123305 33:0.97830147 901:0.00025123305 1800:0.00025123305 2123:0.00025123305 2204:0.00025123305 2500:0.00025123305 2602:0.00025123305 2701:0.00025123305 #
-2.0003198829067971864503761025844 3:0.0073911515 4:-0.024856551 11:0.00020884391 12:-0.00020884391 13:-0.00020884391 14:-0.00020884391 15:-0.00020884391 16:-0.00020884391 18:-0.00020884391 19:-0.00020884391 28:0.12431224 29:0.1462492 30:0.062653169 31:-0.00020884391 32:-0.00020884391 33:0.97906023 901:0.00020884391 1801:0.00020884391 2100:0.00020884391 2201:0.00020884391 2322:0.00020884391 2402:0.00020884391 2501:0.00020884391 2602:0.00020884391 2700:0.00020884391 #
70 3:0.016355788 4:-0.053060059 11:-0.00043331692 12:-0.00043331692 13:-0.00043331692 14:-0.00043331692 15:-0.00043331692 16:-0.00043331692 18:-0.00043331692 19:-0.00043331692 28:0.17899455 29:0.21828774 30:0.012999508 31:-0.00043331692 32:-0.00043331692 33:0.9576304 901:0.00043331692 1800:0.00043331692 2106:0.00043331692 2201:0.00043331692 2324:0.00043331692 2399:0.00043331692 2500:0.00043331692 2601:0.00043331692 2702:0.00043331692 #
70 3:0.0066086096 4:-0.016418153 11:0.00019461404 12:0.00019461404 13:-0.00019461404 14:-0.00019461404 15:-0.00019461404 16:-0.00019461404 18:-0.00019461404 19:-0.00019461404 28:0.11602695 29:0.1365023 30:0.023353685 31:-0.00019461404 32:-0.00019461404 33:0.98338479 901:0.00019461404 1801:0.00019461404 2110:0.00019461404 2201:0.00019461404 2500:0.00019461404 2601:0.00019461404 2702:0.00019461404 #
1.7503012430218354289479520957684 3:0.0079048686 4:-0.023374856 11:-0.0002413577 12:-0.0002413577 13:-0.0002413577 14:-0.0002413577 15:-0.0002413577 16:-0.0002413577 18:-0.0002413577 19:-0.0002413577 28:0.11844388 29:0.13934545 30:0.072407313 31:0.0002413577 32:-0.0002413577 33:0.98015362 901:0.0002413577 1799:0.0002413577 2110:0.0002413577 2201:0.0002413577 2300:0.0002413577 2401:0.0002413577 2500:0.0002413577 2602:0.0002413577 2700:0.0002413577 #
-0.75919832435310574680897843791172 3:0.0095030386 4:-0.020328363 11:-0.00022644193 12:-0.00022644193 13:-0.00022644193 14:-0.00022644193 15:-0.00022644193 16:-0.00022644193 18:-0.00022644193 19:-0.00022644193 28:0.12555978 29:0.14771712 30:0.05661048 31:-0.00022644193 32:-0.00022644193 33:0.97913486 899:0.00022644193 1800:0.00022644193 2101:0.00022644193 2201:0.00022644193 2320:0.00022644193 2405:0.00022644193 2501:0.00022644193 2600:0.00022644193 2702:0.00022644193 #
0.2500055126885223910626621091069 3:0.012346218 4:-0.025845041 11:-0.00029441784 12:0.00029441784 13:-0.00029441784 14:-0.00029441784 15:-0.00029441784 16:-0.00029441784 18:-0.00029441784 19:-0.00029441784 28:0.12012248 29:0.14649054 30:0.045634765 31:0.00029441784 32:-0.00029441784 33:0.98041141 901:0.00029441784 1801:0.00029441784 2122:0.00029441784 2202:0.00029441784 2308:0.00029441784 2403:0.00029441784 2500:0.00029441784 2602:0.00029441784 2702:0.00029441784 #
-2.750124101904939166729491262231 3:0.011733931 4:-0.028999362 11:-0.00033813066 12:-0.00033813066 13:-0.00033813066 14:-0.00033813066 15:-0.00033813066 16:-0.00033813066 18:-0.00033813066 19:-0.00033813066 28:0.12003638 29:0.14638691 30:0.040575679 31:-0.00033813066 32:-0.00033813066 33:0.9805789 899:0.00033813066 1801:0.00033813066 2114:0.00033813066 2203:0.00033813066 2325:0.00033813066 2403:0.00033813066 2500:0.00033813066 2601:0.00033813066 2701:0.00033813066 #
0.24999857847555373435710635021678 3:0.011297328 4:-0.030127043 11:-0.00025879306 12:-0.00025879306 13:-0.00025879306 14:-0.00025879306 15:-0.00025879306 16:-0.00025879306 18:-0.00025879306 19:-0.00025879306 28:0.11850652 29:0.1445204 30:0.038818959 31:-0.00025879306 32:-0.00025879306 33:0.98108453 1800:0.00025879306 2115:0.00025879306 2204:0.00025879306 2499:0.00025879306 2600:0.00025879306 2702:0.00025879306 #
0.25000116939070493593533228704473 3:0.011767657 4:-0.023063771 11:0.00027771996 12:-0.00027771996 13:-0.00027771996 14:-0.00027771996 15:-0.00027771996 16:-0.00027771996 18:-0.00027771996 19:-0.00027771996 28:0.12294107 29:0.14992712 30:0.041657995 31:0.00027771996 32:-0.00027771996 33:0.97979599 901:0.00027771996 1800:0.00027771996 2123:0.00027771996 2204:0.00027771996 2500:0.00027771996 2602:0.00027771996 2701:0.00027771996 #
-0.24999740170240766778952945514902 3:0.009021692 4:-0.017045353 11:-0.00019494537 12:-0.00019494537 13:-0.00019494537 14:-0.00019494537 15:-0.00019494537 16:-0.00019494537 18:-0.00019494537 19:-0.00019494537 28:0.1269075 29:0.14930283 30:0.035090167 31:0.00019494537 32:-0.00019494537 33:0.97979546 899:0.00019494537 1800:0.00019494537 2115:0.00019494537 2204:0.00019494537 2323:0.00019494537 2404:0.00019494537 2501:0.00019494537 2602:0.00019494537 2702:0.00019494537 #
0.25000264261976928858999258409312 3:0.0083398847 4:-0.015674321 11:-0.0002087731 12:-0.0002087731 13:-0.0002087731 14:-0.0002087731 15:-0.0002087731 16:-0.0002087731 18:-0.0002087731 19:-0.0002087731 28:0.12997587 29:0.15291376 30:0.026096636 31:0.0002087731 32:-0.0002087731 33:0.97914582 901:0.0002087731 1800:0.0002087731 2114:0.0002087731 2203:0.0002087731 2315:0.0002087731 2404:0.0002087731 2501:0.0002087731 2602:0.0002087731 2702:0.0002087731 #
-0.24999933128897774969878753381636 3:0.0080064647 4:-0.014546371 11:-0.00019648609 12:-0.00019648609 13:-0.00019648609 14:-0.00019648609 15:-0.00019648609 16:-0.00019648609 18:-0.00019648609 19:-0.00019648609 28:0.13136667 29:0.15454809 30:0.018666178 31:-0.00019648609 32:-0.00019648609 33:0.9788937 900:0.00019648609 1801:0.00019648609 2123:0.00019648609 2204:0.00019648609 2315:0.00019648609 2404:0.00019648609 2504:0.00019648609 2602:0.00019648609 2702:0.00019648609 #
0.25625961375914230178096886447747 3:0.010465961 4:-0.018933157 11:-0.00025631432 12:-0.00025631432 13:-0.00025631432 14:-0.00025631432 15:-0.00025631432 16:-0.00025631432 18:-0.00025631432 19:-0.00025631432 28:0.085773021 29:0.098588742 30:0.0064078579 31:-0.00025631432 32:0.00025631432 33:0.99116749 901:0.00025631432 1800:0.00025631432 2115:0.00025631432 2204:0.00025631432 2306:0.00025631432 2401:0.00025631432 2504:0.00025631432 2602:0.00025631432 2699:0.00025631432 #
-0.25000142409592895909042908897391 3:0.0094396956 4:-0.015738619 11:0.00022201728 12:-0.00022201728 13:-0.00022201728 14:-0.00022201728 15:-0.00022201728 16:-0.00022201728 18:-0.00022201728 19:-0.00022201728 28:0.13564368 29:0.15958157 30:0.014431123 31:-0.00022201728 32:-0.00022201728 33:0.9775421 900:0.00022201728 1799:0.00022201728 2102:0.00022201728 2200:0.00022201728 2313:0.00022201728 2400:0.00022201728 2500:0.00022201728 2602:0.00022201728 2702:0.00022201728 #
70 3:0.0070675658 4:-0.016225511 11:-0.00020091838 12:0.00020091838 13:-0.00020091838 14:-0.00020091838 15:-0.00020091838 16:-0.00020091838 18:-0.00020091838 19:-0.00020091838 28:0.029322028 29:0.034495678 30:0.036165308 31:-0.00020091838 32:-0.00020091838 33:0.99816251 901:0.00020091838 1800:0.00020091838 2123:0.00020091838 2204:0.00020091838 2500:0.00020091838 2601:0.00020091838 2702:0.00020091838 #
-0.2499984206515481754973251327101 3:0.0091858674 4:-0.021486551 11:-0.00023804074 12:-0.00023804074 13:-0.00023804074 14:-0.00023804074 15:-0.00023804074 16:-0.00023804074 18:-0.00023804074 19:-0.00023804074 28:0.13439542 29:0.15811142 30:0.012616159 31:-0.00023804074 32:-0.00023804074 33:0.97787136 901:0.00023804074 1801:0.00023804074 2104:0.00023804074 2202:0.00023804074 2299:0.00023804074 2402:0.00023804074 2501:0.00023804074 2602:0.00023804074 2700:0.00023804074 #
0.25000016558468451943753052546526 3:0.009065602 4:-0.021136243 11:-0.00025185611 12:-0.00025185611 13:-0.00025185611 14:-0.00025185611 15:-0.00025185611 16:-0.00025185611 18:-0.00025185611 19:-0.00025185611 28:0.13115658 29:0.15430216 30:0.0093186758 31:-0.00025185611 32:-0.00025185611 33:0.97896469 901:0.00025185611 1799:0.00025185611 2125:0.00025185611 2203:0.00025185611 2308:0.00025185611 2403:0.00025185611 2499:0.00025185611 2602:0.00025185611 2702:0.00025185611 #
-1.2530205183750582342838697513798 3:0.0083683012 4:-0.016406067 11:-0.00019735795 12:-0.00019735795 13:-0.00019735795 14:-0.00019735795 15:-0.00019735795 16:-0.00019735795 18:-0.00019735795 19:-0.00019735795 28:0.13047926 29:0.15350501 30:0.0078943176 31:-0.00019735795 32:-0.00019735795 33:0.97929013 901:0.00019735795 1800:0.00019735795 2123:0.00019735795 2204:0.00019735795 2501:0.00019735795 2602:0.00019735795 2700:0.00019735795 #
70 3:0.0081693251 4:-0.01555548 11:0.0002051452 12:-0.0002051452 13:0.0002051452 14:-0.0002051452 15:-0.0002051452 16:-0.0002051452 18:-0.0002051452 19:-0.0002051452 28:0.13354748 29:0.15711457 30:0.0051286304 31:-0.0002051452 32:-0.0002051452 33:0.97833753 900:0.0002051452 1801:0.0002051452 2106:0.0002051452 2201:0.0002051452 2315:0.0002051452 2404:0.0002051452 2501:0.0002051452 2600:0.0002051452 2700:0.0002051452 #
4.1127117795113008469343185424805 3:0.019295067 4:-0.040494017 11:-0.0004619805 12:-0.0004619805 13:0.0004619805 14:-0.0004619805 15:-0.0004619805 16:-0.0004619805 18:-0.0004619805 19:-0.0004619805 28:0.075764798 29:0.092396095 30:0.041578244 31:-0.0004619805 32:-0.0004619805 33:0.99094814 901:0.0004619805 1800:0.0004619805 2114:0.0004619805 2203:0.0004619805 2501:0.0004619805 2602:0.0004619805 2701:0.0004619805 #
0.49999797995698008756804142649344 3:0.0069899559 4:-0.018684013 11:-0.00019438451 12:-0.00019438451 13:-0.00019438451 14:-0.00019438451 15:-0.00019438451 16:-0.00019438451 18:-0.00019438451 19:-0.00019438451 28:0.13040091 29:0.15341215 30:0.0038876904 31:-0.00019438451 32:-0.00019438451 33:0.9793092 900:0.00019438451 1800:0.00019438451 2105:0.00019438451 2205:0.00019438451 2315:0.00019438451 2404:0.00019438451 2499:0.00019438451 2601:0.00019438451 2699:0.00019438451 #
-2.7500595670616276855469095607987 3:0.0085386764 4:-0.022712439 11:-0.00023710851 12:-0.00023710851 13:-0.00023710851 14:-0.00023710851 15:-0.00023710851 16:-0.00023710851 18:-0.00023710851 19:-0.00023710851 28:0.13023423 29:0.15321715 30:0.0052163871 31:0.00023710851 32:-0.00023710851 33:0.97925812 900:0.00023710851 1801:0.00023710851 2106:0.00023710851 2201:0.00023710851 2324:0.00023710851 2399:0.00023710851 2504:0.00023710851 2601:0.00023710851 2699:0.00023710851 #
0.25000014507292800391979881169391 3:0.00669222 4:-0.023233624 11:-0.00019657156 12:-0.00019657156 13:-0.00019657156 14:-0.00019657156 15:-0.00019657156 16:-0.00019657156 18:-0.00019657156 19:-0.00019657156 28:0.13005568 29:0.15300737 30:0.0047177174 31:0.00019657156 32:-0.00019657156 33:0.97931951 900:0.00019657156 1799:0.00019657156 2110:0.00019657156 2201:0.00019657156 2317:0.00019657156 2405:0.00019657156 2501:0.00019657156 2601:0.00019657156 2700:0.00019657156 #
-0.75000032639098901388052809124929 3:0.0067194677 4:-0.023333121 11:0.00019742546 12:-0.00019742546 13:-0.00019742546 14:-0.00019742546 15:-0.00019742546 16:-0.00019742546 18:-0.00019742546 19:-0.00019742546 28:0.1303087 29:0.15330482 30:0.0059227636 31:-0.00019742546 32:-0.00019742546 33:0.97923023 900:0.00019742546 1801:0.00019742546 2120:0.00019742546 2205:0.00019742546 2315:0.00019742546 2404:0.00019742546 2499:0.00019742546 2602:0.00019742546 2702:0.00019742546 #
0.7500031946886819289588288484083 3:0.0067001078 4:-0.022774313 11:-0.00019396501 12:-0.00019396501 13:0.00019396501 14:-0.00019396501 15:-0.00019396501 16:-0.00019396501 18:-0.00019396501 19:-0.00019396501 28:0.13124837 29:0.15440972 30:0.0064008455 31:-0.00019396501 32:-0.00019396501 33:0.97894138 899:0.00019396501 1800:0.00019396501 2115:0.00019396501 2204:0.00019396501 2306:0.00019396501 2401:0.00019396501 2501:0.00019396501 2602:0.00019396501 2700:0.00019396501 #
-0.75000216132965280557698406482814 3:0.0065397383 4:-0.022854546 11:-0.00019436535 12:-0.00019436535 13:-0.00019436535 14:-0.00019436535 15:-0.00019436535 16:-0.00019436535 18:-0.00019436535 19:-0.00019436535 28:0.13099253 29:0.15410841 30:0.0069971527 31:-0.00019436535 32:-0.00019436535 33:0.97901827 900:0.00019436535 1800:0.00019436535 2101:0.00019436535 2201:0.00019436535 2306:0.00019436535 2401:0.00019436535 2501:0.00019436535 2600:0.00019436535 2701:0.00019436535 #
-0.74799326584779990412243932951242 3:0.0065188357 4:-0.022834659 11:-0.00019366152 12:-0.00019366152 13:-0.00019366152 14:-0.00019366152 15:-0.00019366152 16:-0.00019366152 18:-0.00019366152 19:-0.00019366152 28:0.13241799 29:0.15578519 30:0.0054225223 31:-0.00019366152 32:-0.00019366152 33:0.97857159 901:0.00019366152 1801:0.00019366152 2123:0.00019366152 2204:0.00019366152 2315:0.00019366152 2404:0.00019366152 2501:0.00019366152 2602:0.00019366152 2699:0.00019366152 #
1.250007277180388509663089280366 3:0.0069702044 4:-0.02440631 11:-0.00020743127 12:-0.00020743127 13:-0.00020743127 14:-0.00020743127 15:-0.00020743127 16:-0.00020743127 18:-0.00020743127 19:-0.00020743127 28:0.13265021 29:0.15605883 30:0.0058080754 31:-0.00020743127 32:-0.00020743127 33:0.97845322 900:0.00020743127 1801:0.00020743127 2106:0.00020743127 2201:0.00020743127 2324:0.00020743127 2399:0.00020743127 2501:0.00020743127 2599:0.00020743127 2701:0.00020743127 #
-1.5000380709246703414549983790494 3:0.0075476458 4:-0.026250182 11:-0.00022173561 12:-0.00022173561 13:-0.00022173561 14:-0.00022173561 15:-0.00022173561 16:-0.00022173561 18:-0.00022173561 19:-0.00022173561 28:0.13297927 29:0.15644556 30:0.0053216545 31:0.00022173561 32:-0.00022173561 33:0.97829753 901:0.00022173561 1801:0.00022173561 2115:0.00022173561 2204:0.00022173561 2306:0.00022173561 2401:0.00022173561 2501:0.00022173561 2600:0.00022173561 2699:0.00022173561 #
0.75009590797054426225543011241825 3:0.0090818861 4:-0.028768407 11:-0.0002392663 12:-0.0002392663 13:-0.0002392663 14:-0.0002392663 15:-0.0002392663 16:-0.0002392663 18:-0.0002392663 19:-0.0002392663 28:0.13254157 29:0.15593225 30:0.0043067937 31:-0.0002392663 32:-0.0002392663 33:0.97835994 899:0.0002392663 1800:0.0002392663 2115:0.0002392663 2204:0.0002392663 2305:0.0002392663 2405:0.0002392663 2504:0.0002392663 2601:0.0002392663 2699:0.0002392663 #
70 3:0.0098575074 4:-0.034272145 11:-0.00028952485 12:0.00028952485 13:-0.00028952485 14:-0.00028952485 15:-0.00028952485 16:-0.00028952485 18:-0.00028952485 19:-0.00028952485 28:0.22872463 29:0.27893114 30:0.0046323976 31:0.00028952485 32:-0.00028952485 33:0.93198049 901:0.00028952485 1800:0.00028952485 2115:0.00028952485 2204:0.00028952485 2323:0.00028952485 2404:0.00028952485 2499:0.00028952485 2602:0.00028952485 2699:0.00028952485 #
0.24999961506999285321128922987555 3:0.01033598 4:-0.020489115 11:-0.00025260446 12:-0.00025260446 13:-0.00025260446 14:-0.00025260446 15:-0.00025260446 16:-0.00025260446 18:-0.00025260446 19:-0.00025260446 28:0.1316524 29:0.15488443 30:0.0042942758 31:-0.00025260446 32:-0.00025260446 33:0.97884232 1801:0.00025260446 2124:0.00025260446 2199:0.00025260446 2305:0.00025260446 2405:0.00025260446 2500:0.00025260446 2602:0.00025260446 2699:0.00025260446 #
-0.25000131039254697151719142311777 3:0.0086499769 4:-0.017546073 11:-0.00020500259 12:-0.00020500259 13:-0.00020500259 14:-0.00020500259 15:-0.00020500259 16:-0.00020500259 18:-0.00020500259 19:-0.00020500259 28:0.13234763 29:0.15570357 30:0.006150078 31:-0.00020500259 32:-0.00020500259 33:0.9786824 901:0.00020500259 1801:0.00020500259 2123:0.00020500259 2204:0.00020500259 2500:0.00020500259 2600:0.00020500259 2700:0.00020500259 #
0.24999974931735030603263680859527 3:0.0081184916 4:-0.018684043 11:-0.00023109172 12:0.00023109172 13:-0.00023109172 14:-0.00023109172 15:-0.00023109172 16:-0.00023109172 18:-0.00023109172 19:-0.00023109172 28:0.13158825 29:0.15481065 30:0.0069327517 31:-0.00023109172 32:-0.00023109172 33:0.97890455 901:0.00023109172 1800:0.00023109172 2115:0.00023109172 2204:0.00023109172 2306:0.00023109172 2401:0.00023109172 2501:0.00023109172 2602:0.00023109172 2700:0.00023109172 #
-0.5000033245832981032563679946179 3:0.009566973 4:-0.01877488 11:-0.00024508947 12:-0.00024508947 13:-0.00024508947 14:-0.00024508947 15:-0.00024508947 16:-0.00024508947 18:-0.00024508947 19:-0.00024508947 28:0.13007388 29:0.15302895 30:0.0061272364 31:-0.00024508947 32:-0.00024508947 33:0.97937745 899:0.00024508947 1801:0.00024508947 2115:0.00024508947 2204:0.00024508947 2323:0.00024508947 2404:0.00024508947 2501:0.00024508947 2600:0.00024508947 2700:0.00024508947 #
0.2500002650342522669824063541455 3:0.0084652761 4:-0.019105291 11:-0.00022241889 12:-0.00022241889 13:-0.00022241889 14:-0.00022241889 15:-0.00022241889 16:-0.00022241889 18:-0.00022241889 19:-0.00022241889 28:0.12961017 29:0.1524815 30:0.0053380532 31:-0.00022241889 32:-0.00022241889 33:0.97953278 901:0.00022241889 1800:0.00022241889 2115:0.00022241889 2204:0.00022241889 2299:0.00022241889 2402:0.00022241889 2501:0.00022241889 2602:0.00022241889 2699:0.00022241889 #
-0.24999981975760396379904193508992 3:0.008373172 4:-0.021362239 11:-0.00023777498 12:-0.00023777498 13:-0.00023777498 14:-0.00023777498 15:-0.00023777498 16:-0.00023777498 18:-0.00023777498 19:-0.00023777498 28:0.12991311 29:0.15283938 30:0.0045177243 31:-0.00023777498 32:-0.00023777498 33:0.97939509 901:0.00023777498 1801:0.00023777498 2110:0.00023777498 2201:0.00023777498 2315:0.00023777498 2404:0.00023777498 2501:0.00023777498 2600:0.00023777498 2699:0.00023777498 #
1.5000094864051780607638875153498 3:0.0066252882 4:-0.023126746 11:-0.00019529855 12:-0.00019529855 13:-0.00019529855 14:-0.00019529855 15:-0.00019529855 16:-0.00019529855 18:-0.00019529855 19:-0.00019529855 28:0.12849472 29:0.15117085 30:0.0048824637 31:-0.00019529855 32:-0.00019529855 33:0.9798128 900:0.00019529855 1800:0.00019529855 2123:0.00019529855 2204:0.00019529855 2306:0.00019529855 2401:0.00019529855 2500:0.00019529855 2600:0.00019529855 2699:0.00019529855 #
-2.7502529248651863547081575234188 3:0.0075617479 4:-0.026299229 11:-0.0002221499 12:-0.0002221499 13:-0.0002221499 14:-0.0002221499 15:-0.0002221499 16:-0.0002221499 18:-0.0002221499 19:-0.0002221499 28:0.12717637 29:0.14962019 30:0.0066644973 31:0.0002221499 32:-0.0002221499 33:0.98012537 901:0.0002221499 1801:0.0002221499 2106:0.0002221499 2201:0.0002221499 2323:0.0002221499 2404:0.0002221499 2501:0.0002221499 2600:0.0002221499 2699:0.0002221499 #
0.50200518924898529515843392800889 3:0.014501655 4:-0.037020452 11:-0.00030298077 12:-0.00030298077 13:-0.00030298077 14:-0.00030298077 15:-0.00030298077 16:-0.00030298077 18:-0.00030298077 19:-0.00030298077 28:0.046356056 29:0.05653318 30:0.0072715385 31:-0.00030298077 32:-0.00030298077 33:0.99650371 900:0.00030298077 1801:0.00030298077 2115:0.00030298077 2204:0.00030298077 2315:0.00030298077 2404:0.00030298077 2499:0.00030298077 2600:0.00030298077 2699:0.00030298077 #
-100 3:0.010566117 4:-0.024973797 11:-0.00030721046 12:-0.00030721046 13:-0.00030721046 14:-0.00030721046 15:-0.00030721046 16:-0.00030721046 18:-0.00030721046 19:-0.00030721046 28:0.29768693 29:0.36303368 30:0.092163138 31:-0.00030721046 32:-0.00030721046 33:0.87770033 899:0.00030721046 1799:0.00030721046 2122:0.00030721046 2202:0.00030721046 2314:0.00030721046 2403:0.00030721046 2501:0.00030721046 2602:0.00030721046 2700:0.00030721046 #
0.75006387816936281875968006715993 3:0.014974282 4:-0.04034885 11:-0.0003292055 12:-0.0003292055 13:-0.0003292055 14:-0.0003292055 15:-0.0003292055 16:-0.0003292055 18:-0.0003292055 19:-0.0003292055 28:0.155385 29:0.18949398 30:0.007571727 31:-0.0003292055 32:-0.0003292055 33:0.96852261 901:0.0003292055 1799:0.0003292055 2115:0.0003292055 2204:0.0003292055 2499:0.0003292055 2602:0.0003292055 2700:0.0003292055 #
-100 3:0.010105477 4:-0.020882284 11:-0.00023766739 12:-0.00023766739 13:-0.00023766739 14:-0.00023766739 15:-0.00023766739 16:-0.00023766739 18:-0.00023766739 19:-0.00023766739 28:0.19208753 29:0.22598603 30:0.004753348 31:-0.00023766739 32:-0.00023766739 33:0.95470989 1800:0.00023766739 2115:0.00023766739 2204:0.00023766739 2501:0.00023766739 2600:0.00023766739 2700:0.00023766739 #
0.50002889179741161207459754223237 3:0.016849387 4:-0.030541431 11:-0.00041304211 12:-0.00041304211 13:-0.00041304211 14:-0.00041304211 15:-0.00041304211 16:-0.00041304211 18:-0.00041304211 19:-0.00041304211 28:0.16003317 29:0.1951624 30:0.011152137 31:-0.00041304211 32:-0.00041304211 33:0.96693158 901:0.00041304211 1801:0.00041304211 2122:0.00041304211 2202:0.00041304211 2315:0.00041304211 2404:0.00041304211 2500:0.00041304211 2602:0.00041304211 2700:0.00041304211 #
-100 3:0.012779903 4:-0.030176014 11:-0.00036609633 12:-0.00036609633 13:-0.00036609633 14:-0.00036609633 15:-0.00036609633 16:-0.00036609633 18:-0.00036609633 19:-0.00036609633 28:0.25404522 29:0.30981269 30:0.0080541195 31:-0.00036609633 32:-0.00036609633 33:0.91560692 900:0.00036609633 1801:0.00036609633 2103:0.00036609633 2205:0.00036609633 2501:0.00036609633 2602:0.00036609633 2700:0.00036609633 #
0.25000084368581837468425987935916 3:0.010491382 4:-0.034265775 11:-0.0002810377 12:0.0002810377 13:-0.0002810377 14:-0.0002810377 15:-0.0002810377 16:-0.0002810377 18:0.0002810377 19:-0.0002810377 28:0.1677233 29:0.20453924 30:0.008431131 31:-0.0002810377 32:-0.0002810377 33:0.96367824 901:0.0002810377 1800:0.0002810377 2108:0.0002810377 2203:0.0002810377 2301:0.0002810377 2401:0.0002810377 2501:0.0002810377 2601:0.0002810377 2700:0.0002810377 #
70 3:0.0076274131 4:-0.01270851 11:-0.00017855436 12:-0.00017855436 13:-0.00017855436 14:-0.00017855436 15:-0.00017855436 16:-0.00017855436 18:0.00017855436 19:-0.00017855436 28:0.27164367 29:0.31958017 30:0.021426523 31:-0.00017855436 32:-0.00017855436 33:0.90741324 900:0.00017855436 1800:0.00017855436 2115:0.00017855436 2204:0.00017855436 2321:0.00017855436 2404:0.00017855436 2501:0.00017855436 2602:0.00017855436 2701:0.00017855436 #
-100 3:0.0082724309 4:-0.014272209 11:-0.00019648307 12:-0.00019648307 13:-0.00019648307 14:-0.00019648307 15:-0.00019648307 16:-0.00019648307 18:-0.00019648307 19:-0.00019648307 28:0.1765538 29:0.20771012 30:0.0021613138 31:-0.00019648307 32:-0.00019648307 33:0.96198112 900:0.00019648307 1800:0.00019648307 2115:0.00019648307 2204:0.00019648307 2306:0.00019648307 2401:0.00019648307 2501:0.00019648307 2601:0.00019648307 2700:0.00019648307 #
-100 3:0.0099311573 4:-0.020863671 11:-0.000246943 12:-0.000246943 13:-0.000246943 14:-0.000246943 15:-0.000246943 16:-0.000246943 18:-0.000246943 19:-0.000246943 28:0.18581967 29:0.21358594 30:0.24669605 31:-0.000246943 32:-0.000246943 33:0.92653018 1801:0.000246943 2118:0.000246943 2205:0.000246943 2323:0.000246943 2404:0.000246943 2501:0.000246943 2600:0.000246943 2702:0.000246943 #
70 3:0.010517287 4:-0.019019544 11:-0.0002573267 12:-0.0002573267 13:-0.0002573267 14:-0.0002573267 15:-0.0002573267 16:-0.0002573267 18:-0.0002573267 19:-0.0002573267 28:0.23184879 29:0.28274286 30:0.0033452471 31:0.0002573267 32:-0.0002573267 33:0.93049335 901:0.0002573267 1801:0.0002573267 2103:0.0002573267 2205:0.0002573267 2501:0.0002573267 2602:0.0002573267 2701:0.0002573267 #
-100 3:0.014565845 4:-0.026767245 11:-0.0003395222 12:0.0003395222 13:-0.0003395222 14:-0.0003395222 15:-0.0003395222 16:-0.0003395222 18:0.0003395222 19:-0.0003395222 28:0.1392041 29:0.16976111 30:0.0061113997 31:-0.0003395222 32:-0.0003395222 33:0.97510779 901:0.0003395222 1801:0.0003395222 2115:0.0003395222 2204:0.0003395222 2305:0.0003395222 2405:0.0003395222 2501:0.0003395222 2602:0.0003395222 2699:0.0003395222 #
70 3:0.014003673 4:-0.048759416 11:-0.00041254153 12:0.00041254153 13:0.00041254153 14:-0.00041254153 15:-0.00041254153 16:-0.00041254153 18:-0.00041254153 19:-0.00041254153 28:0.086687349 29:0.10571789 30:0.0082508307 31:-0.00041254153 32:-0.00041254153 33:0.98927456 900:0.00041254153 1801:0.00041254153 2122:0.00041254153 2202:0.00041254153 2322:0.00041254153 2402:0.00041254153 2500:0.00041254153 2602:0.00041254153 2700:0.00041254153 #
-100 3:0.011007981 4:-0.036847312 11:-0.00032893111 12:-0.00032893111 13:-0.00032893111 14:-0.00032893111 15:-0.00032893111 16:-0.00032893111 18:0.00032893111 19:-0.00032893111 28:0.14242718 29:0.17369208 30:0.0098679336 31:-0.00032893111 32:-0.00032893111 33:0.97363609 901:0.00032893111 1801:0.00032893111 2115:0.00032893111 2204:0.00032893111 2323:0.00032893111 2404:0.00032893111 2499:0.00032893111 2602:0.00032893111 2700:0.00032893111 #
2.5000787191381017571245592989726 3:0.013839297 4:-0.037909567 11:-0.00033878084 12:-0.00033878084 13:-0.00033878084 14:-0.00033878084 15:-0.00033878084 16:-0.00033878084 18:-0.00033878084 19:-0.00033878084 28:0.1768436 29:0.21566451 30:0.0091470834 31:-0.00033878084 32:-0.00033878084 33:0.95942736 900:0.00033878084 1800:0.00033878084 2106:0.00033878084 2201:0.00033878084 2500:0.00033878084 2601:0.00033878084 2700:0.00033878084 #
70 3:0.0075300699 4:-0.019038824 11:-0.00023501946 12:0.00023501946 13:-0.00023501946 14:-0.00023501946 15:-0.00023501946 16:-0.00023501946 18:-0.00023501946 19:-0.00023501946 28:0.079276763 29:0.093267471 30:0.0056404672 31:-0.00023501946 32:-0.00023501946 33:0.99225217 900:0.00023501946 1801:0.00023501946 2115:0.00023501946 2204:0.00023501946 2305:0.00023501946 2405:0.00023501946 2501:0.00023501946 2600:0.00023501946 2699:0.00023501946 #
1.5000928953193546355748821952147 3:0.0098996181 4:-0.032358438 11:0.00026540537 12:-0.00026540537 13:-0.00026540537 14:-0.00026540537 15:-0.00026540537 16:-0.00026540537 18:-0.00026540537 19:-0.00026540537 28:0.17510119 29:0.21353719 30:0.0055735125 31:0.00026540537 32:-0.00026540537 33:0.96050203 901:0.00026540537 1800:0.00026540537 2115:0.00026540537 2204:0.00026540537 2504:0.00026540537 2602:0.00026540537 2699:0.00026540537 #
-0.69874884983912821656559799521347 3:0.010509218 4:-0.031054944 11:-0.00032129607 12:-0.00032129607 13:-0.00032129607 14:-0.00032129607 15:-0.00032129607 16:-0.00032129607 18:-0.00032129607 19:-0.00032129607 28:0.16482489 29:0.20100604 30:0.064259216 31:-0.00032129607 32:-0.00032129607 33:0.96292436 901:0.00032129607 1799:0.00032129607 2122:0.00032129607 2202:0.00032129607 2322:0.00032129607 2402:0.00032129607 2500:0.00032129607 2602:0.00032129607 2702:0.00032129607 #
-100 3:0.01438472 4:-0.030165119 11:0.0003442647 12:-0.0003442647 13:-0.0003442647 14:-0.0003442647 15:-0.0003442647 16:-0.0003442647 18:-0.0003442647 19:-0.0003442647 28:0.18177177 29:0.22167204 30:0.0092951469 31:-0.0003442647 32:-0.0003442647 33:0.95740014 901:0.0003442647 1800:0.0003442647 2115:0.0003442647 2204:0.0003442647 2305:0.0003442647 2405:0.0003442647 2504:0.0003442647 2602:0.0003442647 2699:0.0003442647 #
0.50000607182870870914825900399592 3:0.015863383 4:-0.02871974 11:-0.00038843692 12:-0.00038843692 13:-0.00038843692 14:-0.00038843692 15:-0.00038843692 16:-0.00038843692 18:-0.00038843692 19:-0.00038843692 28:0.18155542 29:0.22140905 30:0.011653108 31:-0.00038843692 32:-0.00038843692 33:0.957497 901:0.00038843692 1800:0.00038843692 2115:0.00038843692 2204:0.00038843692 2305:0.00038843692 2405:0.00038843692 2500:0.00038843692 2602:0.00038843692 2700:0.00038843692 #
-100 3:0.0073859706 4:-0.025678487 11:-0.00021727495 12:-0.00021727495 13:-0.00021727495 14:-0.00021727495 15:-0.00021727495 16:-0.00021727495 18:-0.00021727495 19:-0.00021727495 28:0.18353866 29:0.21592784 30:0.005214599 31:0.00021727495 32:-0.00021727495 33:0.95861709 900:0.00021727495 1799:0.00021727495 2115:0.00021727495 2204:0.00021727495 2323:0.00021727495 2404:0.00021727495 2501:0.00021727495 2602:0.00021727495 2699:0.00021727495 #
70 3:0.010746618 4:-0.022548862 11:-0.00025686951 12:-0.00025686951 13:-0.00025686951 14:-0.00025686951 15:-0.00025686951 16:-0.00025686951 18:-0.00025686951 19:-0.00025686951 28:0.20984697 29:0.25591138 30:0.025686951 31:-0.00025686951 32:-0.00025686951 33:0.94296795 900:0.00025686951 1800:0.00025686951 2115:0.00025686951 2204:0.00025686951 2300:0.00025686951 2401:0.00025686951 2501:0.00025686951 2602:0.00025686951 2701:0.00025686951 #
-0.24999968671463049241232567965199 3:0.0079699745 4:-0.023454858 11:-0.00024258201 12:-0.00024258201 13:-0.00024258201 14:-0.00024258201 15:-0.00024258201 16:-0.00024258201 18:-0.00024258201 19:-0.00024258201 28:0.18488388 29:0.21751116 30:0.014554921 31:-0.00024258201 32:-0.00024258201 33:0.95795631 901:0.00024258201 1801:0.00024258201 2115:0.00024258201 2204:0.00024258201 2499:0.00024258201 2602:0.00024258201 2700:0.00024258201 #
1.2500402422228915622071099278401 3:0.0085480716 4:-0.022578623 11:0.00021500033 12:-0.00021500033 13:-0.00021500033 14:-0.00021500033 15:-0.00021500033 16:-0.00021500033 18:-0.00021500033 19:-0.00021500033 28:0.18408114 29:0.21656553 30:0.01935003 31:-0.00021500033 32:-0.00021500033 33:0.95825648 901:0.00021500033 1800:0.00021500033 2123:0.00021500033 2204:0.00021500033 2501:0.00021500033 2602:0.00021500033 2702:0.00021500033 #
-0.1842343173921108245849609375 3:0.0098804468 4:-0.0206942 11:0.00023619882 12:-0.00023619882 13:-0.00023619882 14:-0.00023619882 15:-0.00023619882 16:-0.00023619882 18:-0.00023619882 19:-0.00023619882 28:0.1855578 29:0.2183044 30:0.021966491 31:-0.00023619882 32:-0.00023619882 33:0.95754999 901:0.00023619882 1801:0.00023619882 2115:0.00023619882 2204:0.00023619882 2323:0.00023619882 2404:0.00023619882 2501:0.00023619882 2602:0.00023619882 2702:0.00023619882 #
0.49999976828508146953211621621449 3:0.0090358714 4:-0.020384463 11:-0.0002174206 12:-0.0002174206 13:-0.0002174206 14:-0.0002174206 15:-0.0002174206 16:-0.0002174206 18:-0.0002174206 19:-0.0002174206 28:0.18688822 29:0.21986875 30:0.025220789 31:-0.0002174206 32:-0.0002174206 33:0.95686805 901:0.0002174206 1801:0.0002174206 2123:0.0002174206 2204:0.0002174206 2501:0.0002174206 2599:0.0002174206 2701:0.0002174206 #
-0.25000068386243667895030284853419 3:0.0093629844 4:-0.020368375 11:-0.00026025923 12:-0.00026025923 13:-0.00026025923 14:-0.00026025923 15:-0.00026025923 16:-0.00026025923 18:-0.00026025923 19:-0.00026025923 28:0.18237145 29:0.22240452 30:0.031231107 31:-0.00026025923 32:-0.00026025923 33:0.9569732 899:0.00026025923 1799:0.00026025923 2101:0.00026025923 2201:0.00026025923 2300:0.00026025923 2401:0.00026025923 2501:0.00026025923 2601:0.00026025923 2701:0.00026025923 #
70 3:0.0058633997 4:-0.01964139 11:-0.00019974228 12:-0.00019974228 13:-0.00019974228 14:-0.00019974228 15:-0.00019974228 16:-0.00019974228 18:-0.00019974228 19:-0.00019974228 28:0.10923306 29:0.12851019 30:0.037951034 31:-0.00019974228 32:-0.00019974228 33:0.98472941 899:0.00019974228 1801:0.00019974228 2115:0.00019974228 2204:0.00019974228 2323:0.00019974228 2404:0.00019974228 2500:0.00019974228 2601:0.00019974228 2701:0.00019974228 #
70 3:0.0061504245 4:-0.01766227 11:-0.00020092935 12:-0.00020092935 13:-0.00020092935 14:-0.00020092935 15:-0.00020092935 16:-0.00020092935 18:-0.00020092935 19:-0.00020092935 28:0.17675152 29:0.2079438 30:0.0038176577 31:-0.00020092935 32:-0.00020092935 33:0.9618488 899:0.00020092935 1801:0.00020092935 2115:0.00020092935 2204:0.00020092935 2306:0.00020092935 2401:0.00020092935 2501:0.00020092935 2600:0.00020092935 2699:0.00020092935 #
1.52669874588332454834471718641 3:0.01309669 4:-0.025495799 11:-0.00033284037 12:-0.00033284037 13:-0.00033284037 14:-0.00033284037 15:-0.00033284037 16:-0.00033284037 18:-0.00033284037 19:-0.00033284037 28:0.18339504 29:0.22365208 30:0.033284035 31:-0.00033284037 32:-0.00033284037 33:0.95625037 901:0.00033284037 1799:0.00033284037 2119:0.00033284037 2204:0.00033284037 2499:0.00033284037 2602:0.00033284037 2701:0.00033284037 #
-0.76857215231068010119486189068994 3:0.0069086389 4:-0.024226498 11:-0.0002114111 12:-0.0002114111 13:-0.0002114111 14:-0.0002114111 15:-0.0002114111 16:-0.0002114111 18:-0.0002114111 19:-0.0002114111 28:0.18499316 29:0.21763927 30:0.031711664 31:0.0002114111 32:-0.0002114111 33:0.95748085 1801:0.0002114111 2100:0.0002114111 2201:0.0002114111 2325:0.0002114111 2403:0.0002114111 2504:0.0002114111 2601:0.0002114111 2699:0.0002114111 #
0.50188902009760449907105339661939 3:0.0097353049 4:-0.027065769 11:-0.00027796524 12:-0.00027796524 13:-0.00027796524 14:-0.00027796524 15:-0.00027796524 16:-0.00027796524 18:-0.00027796524 19:-0.00027796524 28:0.11340982 29:0.1383044 30:0.0050033745 31:-0.00027796524 32:-0.00027796524 33:0.98344105 1801:0.00027796524 2115:0.00027796524 2204:0.00027796524 2303:0.00027796524 2405:0.00027796524 2501:0.00027796524 2601:0.00027796524 2699:0.00027796524 #
30.504189036786556243896484375 3:0.0075305002 4:-0.018204188 11:-0.00019284461 12:-0.00019284461 13:-0.00019284461 14:-0.00019284461 15:-0.00019284461 16:-0.00019284461 18:-0.00019284461 19:-0.00019284461 28:0.16468544 29:0.19374713 30:0.0034712031 31:-0.00019284461 32:-0.00019284461 33:0.96692288 900:0.00019284461 1801:0.00019284461 2115:0.00019284461 2204:0.00019284461 2306:0.00019284461 2401:0.00019284461 2501:0.00019284461 2601:0.00019284461 2699:0.00019284461 #
-0.24999977714862836597475848066097 3:0.0087784026 4:-0.019126512 11:-0.00024710753 12:-0.00024710753 13:-0.00024710753 14:-0.00024710753 15:-0.00024710753 16:-0.00024710753 18:-0.00024710753 19:-0.00024710753 28:0.17977566 29:0.21150179 30:0.029652901 31:0.00024710753 32:0.00024710753 33:0.96001267 899:0.00024710753 1801:0.00024710753 2106:0.00024710753 2201:0.00024710753 2322:0.00024710753 2402:0.00024710753 2500:0.00024710753 2601:0.00024710753 2701:0.00024710753 #
53.357500911415939981452538631856 3:0.0090083219 4:-0.016925609 11:-0.00022529351 12:-0.00022529351 13:-0.00022529351 14:-0.00022529351 15:-0.00022529351 16:-0.00022529351 18:0.00022529351 19:-0.00022529351 28:0.17976619 29:0.21148977 30:0.038299896 31:-0.00022529351 32:-0.00022529351 33:0.95975035 901:0.00022529351 1800:0.00022529351 2119:0.00022529351 2204:0.00022529351 2308:0.00022529351 2403:0.00022529351 2500:0.00022529351 2602:0.00022529351 2702:0.00022529351 #
-11.095799415023066103458404541016 3:0.01069376 4:-0.019225333 11:-0.0002477784 12:0.0002477784 13:-0.0002477784 14:-0.0002477784 15:-0.0002477784 16:-0.0002477784 18:-0.0002477784 19:-0.0002477784 28:0.17375211 29:0.2044147 30:0.037166759 31:-0.0002477784 32:-0.0002477784 33:0.96237129 901:0.0002477784 1801:0.0002477784 2122:0.0002477784 2202:0.0002477784 2501:0.0002477784 2602:0.0002477784 2702:0.0002477784 #
51.17079906724393367767333984375 3:0.0064526363 4:-0.022462925 11:-0.00019004449 12:0.00019004449 13:-0.00019004449 14:-0.00019004449 15:-0.00019004449 16:-0.00019004449 18:-0.00019004449 19:-0.00019004449 28:0.17330538 29:0.20388924 30:0.023755562 31:-0.00019004449 32:-0.00019004449 33:0.96295547 900:0.00019004449 1800:0.00019004449 2123:0.00019004449 2204:0.00019004449 2308:0.00019004449 2403:0.00019004449 2500:0.00019004449 2602:0.00019004449 2701:0.00019004449 #
-2.5000668929068612378330271894811 3:0.0083278036 4:-0.021251772 11:-0.00022487403 12:-0.00022487403 13:-0.00022487403 14:-0.00022487403 15:-0.00022487403 16:-0.00022487403 18:-0.00022487403 19:-0.00022487403 28:0.17033982 29:0.20039874 30:0.022487404 31:0.00022487403 32:-0.00022487403 33:0.96425986 901:0.00022487403 1801:0.00022487403 2106:0.00022487403 2201:0.00022487403 2324:0.00022487403 2399:0.00022487403 2501:0.00022487403 2601:0.00022487403 2701:0.00022487403 #
0.51021230919798388203645345129189 3:0.0097978693 4:-0.017804159 11:-0.00024063145 12:-0.00024063145 13:-0.00024063145 14:-0.00024063145 15:-0.00024063145 16:-0.00024063145 18:-0.00024063145 19:-0.00024063145 28:0.16761905 29:0.19719988 30:0.024063144 31:-0.00024063145 32:-0.00024063145 33:0.96541333 901:0.00024063145 1799:0.00024063145 2114:0.00024063145 2203:0.00024063145 2308:0.00024063145 2403:0.00024063145 2501:0.00024063145 2602:0.00024063145 2702:0.00024063145 #
-0.24999990283619313857776944587386 3:0.0058250241 4:-0.017215319 11:-0.00019179827 12:-0.00019179827 13:-0.00019179827 14:-0.00019179827 15:-0.00019179827 16:-0.00019179827 18:-0.00019179827 19:-0.00019179827 28:0.16483144 29:0.19391957 30:0.028769741 31:-0.00019179827 32:-0.00019179827 33:0.96647149 900:0.00019179827 1799:0.00019179827 2106:0.00019179827 2201:0.00019179827 2501:0.00019179827 2602:0.00019179827 2702:0.00019179827 #
0.50001115807949803038212621686398 3:0.0068069911 4:-0.018318834 11:-0.00020317828 12:-0.00020317828 13:-0.00020317828 14:-0.00020317828 15:-0.00020317828 16:-0.00020317828 18:0.00020317828 19:-0.00020317828 28:0.16467194 29:0.19373253 30:0.028444961 31:-0.00020317828 32:-0.00020317828 33:0.96651912 1799:0.00020317828 2101:0.00020317828 2201:0.00020317828 2501:0.00020317828 2602:0.00020317828 2702:0.00020317828 #
-0.75000816888904764390133550477913 3:0.0082275691 4:-0.025217352 11:-0.00020704427 12:-0.00020704427 13:-0.00020704427 14:-0.00020704427 15:-0.00020704427 16:-0.00020704427 18:-0.00020704427 19:-0.00020704427 28:0.16803299 29:0.19768587 30:0.026294623 31:0.00020704427 32:-0.00020704427 33:0.96503335 901:0.00020704427 1801:0.00020704427 2100:0.00020704427 2201:0.00020704427 2324:0.00020704427 2399:0.00020704427 2501:0.00020704427 2600:0.00020704427 2701:0.00020704427 #
1.5001578003331954569432582502486 3:0.010145999 4:-0.027193384 11:0.0002431335 12:-0.0002431335 13:-0.0002431335 14:-0.0002431335 15:-0.0002431335 16:-0.0002431335 18:-0.0002431335 19:-0.0002431335 28:0.16689655 29:0.19634975 30:0.024313349 31:0.0002431335 32:-0.0002431335 33:0.96548313 901:0.0002431335 1799:0.0002431335 2108:0.0002431335 2203:0.0002431335 2319:0.0002431335 2404:0.0002431335 2501:0.0002431335 2600:0.0002431335 2701:0.0002431335 #
-100 3:0.012290583 4:-0.030699696 11:-0.00025100369 12:-0.00025100369 13:-0.00025100369 14:-0.00025100369 15:-0.00025100369 16:-0.00025100369 18:-0.00025100369 19:-0.00025100369 28:0.2087196 29:0.2399068 30:0.030120442 31:-0.00025100369 32:-0.00025100369 33:0.94703692 899:0.00025100369 1799:0.00025100369 2123:0.00025100369 2204:0.00025100369 2320:0.00025100369 2405:0.00025100369 2501:0.00025100369 2601:0.00025100369 2702:0.00025100369 #
70 3:0.010839087 4:-0.038800925 11:0.00033129638 12:-0.00033129638 13:-0.00033129638 14:-0.00033129638 15:-0.00033129638 16:-0.00033129638 18:-0.00033129638 19:-0.00033129638 28:0.19679005 29:0.23998779 30:0.033792231 31:-0.00033129638 32:-0.00033129638 33:0.94916415 901:0.00033129638 1801:0.00033129638 2100:0.00033129638 2201:0.00033129638 2301:0.00033129638 2401:0.00033129638 2504:0.00033129638 2602:0.00033129638 2701:0.00033129638 #
1.250160663013468287374507781351 3:0.0087008858 4:-0.023074858 11:0.00024064651 12:-0.00024064651 13:-0.00024064651 14:-0.00024064651 15:-0.00024064651 16:-0.00024064651 18:-0.00024064651 19:-0.00024064651 28:0.16962211 29:0.19955613 30:0.031284045 31:0.00024064651 32:-0.00024064651 33:0.96427059 901:0.00024064651 1800:0.00024064651 2115:0.00024064651 2204:0.00024064651 2321:0.00024064651 2404:0.00024064651 2501:0.00024064651 2602:0.00024064651 2701:0.00024064651 #
-1.0000281138566871064199403917883 3:0.011588404 4:-0.022928294 11:-0.00028633795 12:-0.00028633795 13:-0.00028633795 14:-0.00028633795 15:-0.00028633795 16:-0.00028633795 18:-0.00028633795 19:-0.00028633795 28:0.16771673 29:0.20453119 30:0.031497173 31:0.00028633795 32:-0.00028633795 33:0.9635272 900:0.00028633795 1799:0.00028633795 2119:0.00028633795 2204:0.00028633795 2501:0.00028633795 2602:0.00028633795 2701:0.00028633795 #
1.0000013672199281611341348252608 3:0.011344603 4:-0.026251277 11:-0.00028969737 12:-0.00028969737 13:-0.00028969737 14:-0.00028969737 15:-0.00028969737 16:-0.00028969737 18:-0.00028969737 19:-0.00028969737 28:0.16773477 29:0.20455532 30:0.028390342 31:0.00028969737 32:-0.00028969737 33:0.96353346 899:0.00028969737 1801:0.00028969737 2101:0.00028969737 2201:0.00028969737 2320:0.00028969737 2405:0.00028969737 2501:0.00028969737 2601:0.00028969737 2702:0.00028969737 #
-67.019202397921745273379201535136 3:0.013654921 4:-0.029049432 11:-0.00033727993 12:-0.00033727993 13:-0.00033727993 14:-0.00033727993 15:-0.00033727993 16:-0.00033727993 18:-0.00033727993 19:-0.00033727993 28:0.16661628 29:0.20319092 30:0.026982393 31:-0.00033727993 32:-0.00033727993 33:0.96394604 901:0.00033727993 1801:0.00033727993 2115:0.00033727993 2204:0.00033727993 2300:0.00033727993 2401:0.00033727993 2499:0.00033727993 2602:0.00033727993 2701:0.00033727993 #
-9.8101502410136163234710693359375 3:0.010638696 4:-0.026566308 11:-0.00028638862 12:-0.00028638862 13:-0.00028638862 14:-0.00028638862 15:-0.00028638862 16:-0.00028638862 18:-0.00028638862 19:-0.00028638862 28:0.14515895 29:0.17702253 30:0.080188818 31:-0.00028638862 32:-0.00028638862 33:0.9697119 899:0.00028638862 1801:0.00028638862 2106:0.00028638862 2201:0.00028638862 2303:0.00028638862 2405:0.00028638862 2501:0.00028638862 2601:0.00028638862 2699:0.00028638862 #
-0.75000083192028355050240406853845 3:0.0083830785 4:-0.021593548 11:-0.0001928397 12:-0.0001928397 13:-0.0001928397 14:-0.0001928397 15:-0.0001928397 16:-0.0001928397 18:-0.0001928397 19:-0.0001928397 28:0.16858818 29:0.19833948 30:0.023140762 31:0.0001928397 32:-0.0001928397 33:0.96496981 900:0.0001928397 1801:0.0001928397 2104:0.0001928397 2202:0.0001928397 2299:0.0001928397 2402:0.0001928397 2501:0.0001928397 2601:0.0001928397 2702:0.0001928397 #
0.75000627970685285195173719330342 3:0.0098544229 4:-0.020439418 11:-0.00024631506 12:-0.00024631506 13:-0.00024631506 14:-0.00024631506 15:-0.00024631506 16:-0.00024631506 18:-0.00024631506 19:-0.00024631506 28:0.16750163 29:0.1970619 30:0.017242054 31:0.00024631506 32:-0.00024631506 33:0.96555501 901:0.00024631506 1801:0.00024631506 2106:0.00024631506 2201:0.00024631506 2300:0.00024631506 2401:0.00024631506 2501:0.00024631506 2602:0.00024631506 2701:0.00024631506 #
-1.5000738402026934092958754263236 3:0.0095977783 4:-0.020776046 11:0.00024112925 12:-0.00024112925 13:-0.00024112925 14:-0.00024112925 15:-0.00024112925 16:-0.00024112925 18:-0.00024112925 19:-0.00024112925 28:0.16730994 29:0.19683622 30:0.010850817 31:-0.00024112925 32:-0.00024112925 33:0.96572268 901:0.00024112925 1800:0.00024112925 2124:0.00024112925 2199:0.00024112925 2315:0.00024112925 2404:0.00024112925 2499:0.00024112925 2602:0.00024112925 2699:0.00024112925 #
1.0020943763342602395027824968565 3:0.0084344679 4:-0.023163093 11:-0.00020693445 12:-0.00020693445 13:-0.00020693445 14:-0.00020693445 15:-0.00020693445 16:-0.00020693445 18:-0.00020693445 19:-0.00020693445 28:0.16621388 29:0.19554478 30:0.0053802957 31:-0.00020693445 32:-0.00020693445 33:0.96617693 901:0.00020693445 1801:0.00020693445 2115:0.00020693445 2204:0.00020693445 2501:0.00020693445 2602:0.00020693445 2699:0.00020693445 #
-0.25000044817088068471733208752994 3:0.0068940995 4:-0.023967795 11:-0.00020269326 12:-0.00020269326 13:0.00020269326 14:-0.00020269326 15:-0.00020269326 16:-0.00020269326 18:-0.00020269326 19:-0.00020269326 28:0.16456869 29:0.19361058 30:0.0040538656 31:-0.00020269326 32:-0.00020269326 33:0.96684688 901:0.00020269326 1800:0.00020269326 2106:0.00020269326 2201:0.00020269326 2316:0.00020269326 2403:0.00020269326 2501:0.00020269326 2601:0.00020269326 2699:0.00020269326 #
0.2499998556175541120083494206483 3:0.0069051804 4:-0.023972968 11:-0.00020282688 12:-0.00020282688 13:-0.00020282688 14:-0.00020282688 15:-0.00020282688 16:-0.00020282688 18:-0.00020282688 19:-0.00020282688 28:0.16449259 29:0.19352119 30:0.0044621914 31:-0.00020282688 32:-0.00020282688 33:0.96687573 900:0.00020282688 1799:0.00020282688 2106:0.00020282688 2201:0.00020282688 2316:0.00020282688 2403:0.00020282688 2501:0.00020282688 2601:0.00020282688 2700:0.00020282688 #
-0.49999998237305548487441342331294 3:0.0073139169 4:-0.02328996 11:-0.00020213221 12:-0.00020213221 13:-0.00020213221 14:-0.00020213221 15:-0.00020213221 16:-0.00020213221 18:-0.00020213221 19:-0.00020213221 28:0.16320963 29:0.19201145 30:0.0050533055 31:-0.00020213221 32:-0.00020213221 33:0.96740478 901:0.00020213221 1801:0.00020213221 2123:0.00020213221 2204:0.00020213221 2315:0.00020213221 2404:0.00020213221 2501:0.00020213221 2602:0.00020213221 2700:0.00020213221 #
0.25000036255963264952839608668 3:0.007285805 4:-0.023753237 11:-0.00019448428 12:-0.00019448428 13:-0.00019448428 14:-0.00019448428 15:-0.00019448428 16:-0.00019448428 18:-0.00019448428 19:-0.00019448428 28:0.16280279 29:0.19153202 30:0.004667623 31:-0.00019448428 32:-0.00019448428 33:0.96755928 900:0.00019448428 1800:0.00019448428 2115:0.00019448428 2204:0.00019448428 2499:0.00019448428 2602:0.00019448428 2699:0.00019448428 #
70 3:0.015222983 4:-0.04930428 11:-0.00040278377 12:-0.00040278377 13:-0.00040278377 14:-0.00040278377 15:-0.00040278377 16:-0.00040278377 18:-0.00040278377 19:-0.00040278377 28:0.14656496 29:0.17873932 30:0.0080556758 31:-0.00040278377 32:-0.00040278377 33:0.97151446 901:0.00040278377 1800:0.00040278377 2123:0.00040278377 2204:0.00040278377 2315:0.00040278377 2404:0.00040278377 2501:0.00040278377 2602:0.00040278377 2699:0.00040278377 #
-1.1830505850498391762215533162816 3:0.0068955435 4:-0.022910928 11:-0.00020481119 12:-0.00020481119 13:-0.00020481119 14:-0.00020481119 15:-0.00020481119 16:-0.00020481119 18:-0.00020481119 19:-0.00020481119 28:0.16035692 29:0.18865567 30:0.0053250906 31:-0.00020481119 32:-0.00020481119 33:0.96855211 901:0.00020481119 1800:0.00020481119 2115:0.00020481119 2204:0.00020481119 2501:0.00020481119 2599:0.00020481119 2700:0.00020481119 #
1.000008819389677228173241019249 3:0.0083956653 4:-0.022176139 11:0.00021111342 12:-0.00021111342 13:-0.00021111342 14:-0.00021111342 15:-0.00021111342 16:-0.00021111342 18:-0.00021111342 19:-0.00021111342 28:0.15920486 29:0.18729983 30:0.0052778358 31:-0.00021111342 32:-0.00021111342 33:0.96901065 901:0.00021111342 1800:0.00021111342 2106:0.00021111342 2201:0.00021111342 2323:0.00021111342 2404:0.00021111342 2501:0.00021111342 2602:0.00021111342 2699:0.00021111342 #
-4.9884147281226702830281283240765 3:0.010579619 4:-0.020672502 11:0.00024919317 12:-0.00024919317 13:-0.00024919317 14:-0.00024919317 15:-0.00024919317 16:-0.00024919317 18:-0.00024919317 19:-0.00024919317 28:0.1583174 29:0.18625695 30:0.0064790226 31:-0.00024919317 32:-0.00024919317 33:0.96936148 900:0.00024919317 1800:0.00024919317 2103:0.00024919317 2205:0.00024919317 2500:0.00024919317 2602:0.00024919317 2700:0.00024919317 #
0.25000031617404749884059356190846 3:0.0089051854 4:-0.023077456 11:-0.00021609647 12:-0.00021609647 13:-0.00021609647 14:-0.00021609647 15:-0.00021609647 16:-0.00021609647 18:-0.00021609647 19:-0.00021609647 28:0.15918747 29:0.18728 30:0.0075633763 31:-0.00021609647 32:-0.00021609647 33:0.96897656 899:0.00021609647 1801:0.00021609647 2115:0.00021609647 2204:0.00021609647 2306:0.00021609647 2401:0.00021609647 2499:0.00021609647 2601:0.00021609647 2699:0.00021609647 #
-9.4572281183566246909322217106819 3:0.009710406 4:-0.023782531 11:-0.00028385365 12:-0.00028385365 13:-0.00028385365 14:-0.00028385365 15:-0.00028385365 16:-0.00028385365 18:-0.00028385365 19:-0.00028385365 28:0.15554896 29:0.18969372 30:0.0070963413 31:-0.00028385365 32:-0.00028385365 33:0.9690764 899:0.00028385365 1801:0.00028385365 2115:0.00028385365 2204:0.00028385365 2312:0.00028385365 2405:0.00028385365 2499:0.00028385365 2602:0.00028385365 2699:0.00028385365 #
1.2500576999294046309785244375234 3:0.011929325 4:-0.023388211 11:-0.00028158541 12:0.00028158541 13:-0.00028158541 14:-0.00028158541 15:-0.00028158541 16:-0.00028158541 18:-0.00028158541 19:-0.00028158541 28:0.15656149 29:0.19092898 30:0.0073212208 31:-0.00028158541 32:-0.00028158541 33:0.9686538 901:0.00028158541 1800:0.00028158541 2115:0.00028158541 2204:0.00028158541 2323:0.00028158541 2404:0.00028158541 2501:0.00028158541 2601:0.00028158541 2700:0.00028158541 #
-1.801171341191136310300180412014 3:0.01273393 4:-0.023985635 11:-0.00031877114 12:-0.00031877114 13:0.00031877114 14:-0.00031877114 15:-0.00031877114 16:-0.00031877114 18:-0.00031877114 19:-0.00031877114 28:0.15619786 29:0.19048488 30:0.010519448 31:-0.00031877114 32:-0.00031877114 33:0.96874553 901:0.00031877114 1800:0.00031877114 2103:0.00031877114 2205:0.00031877114 2500:0.00031877114 2602:0.00031877114 2700:0.00031877114 #
70 3:0.019344702 4:-0.062616833 11:0.0005125457 12:-0.0005125457 13:-0.0005125457 14:-0.0005125457 15:-0.0005125457 16:0.0005125457 18:-0.0005125457 19:-0.0005125457 28:0.12451273 29:0.1518468 30:0.061505485 31:-0.0005125457 32:-0.0005125457 33:0.9763996 901:0.0005125457 1800:0.0005125457 2100:0.0005125457 2201:0.0005125457 2310:0.0005125457 2401:0.0005125457 2502:0.0005125457 2602:0.0005125457 2699:0.0005125457 #
-0.24999916491799004103491199657583 3:0.012240425 4:-0.02536751 11:-0.00029785142 12:0.00029785142 13:-0.00029785142 14:-0.00029785142 15:-0.00029785142 16:-0.00029785142 18:-0.00029785142 19:-0.00029785142 28:0.15428704 29:0.18815573 30:0.0074462858 31:-0.00029785142 32:-0.00029785142 33:0.96950638 901:0.00029785142 1799:0.00029785142 2115:0.00029785142 2204:0.00029785142 2499:0.00029785142 2602:0.00029785142 2700:0.00029785142 #
9.0009874068868160890133367502131 3:0.011315029 4:-0.028433181 11:-0.00033611691 12:-0.00033611691 13:-0.00033611691 14:-0.00033611691 15:-0.00033611691 16:-0.00033611691 18:-0.00033611691 19:-0.00033611691 28:0.15192485 29:0.18527436 30:0.0060501043 31:-0.00033611691 32:-0.00033611691 33:0.97036952 900:0.00033611691 1800:0.00033611691 2115:0.00033611691 2204:0.00033611691 2323:0.00033611691 2404:0.00033611691 2499:0.00033611691 2601:0.00033611691 2699:0.00033611691 #
-100 3:0.013794592 4:-0.033941835 11:-0.00028905467 12:-0.00028905467 13:-0.00028905467 14:-0.00028905467 15:-0.00028905467 16:-0.00028905467 18:-0.00028905467 19:-0.00028905467 28:0.15867367 29:0.19350477 30:0.0066482578 31:-0.00028905467 32:-0.00028905467 33:0.96746606 1800:0.00028905467 2115:0.00028905467 2204:0.00028905467 2321:0.00028905467 2404:0.00028905467 2500:0.00028905467 2601:0.00028905467 2699:0.00028905467 #
0.25000133031622212564926144295896 3:0.01403581 4:-0.027577721 11:-0.00033174385 12:-0.00033174385 13:-0.00033174385 14:-0.00033174385 15:-0.00033174385 16:-0.00033174385 18:-0.00033174385 19:-0.00033174385 28:0.1535974 29:0.18731253 30:0.0082935961 31:-0.00033174385 32:-0.00033174385 33:0.96968728 901:0.00033174385 1801:0.00033174385 2115:0.00033174385 2204:0.00033174385 2321:0.00033174385 2404:0.00033174385 2500:0.00033174385 2602:0.00033174385 2699:0.00033174385 #
-0.25000024461175285317438010679325 3:0.011695299 4:-0.027349308 11:-0.00033691796 12:-0.00033691796 13:-0.00033691796 14:-0.00033691796 15:-0.00033691796 16:-0.00033691796 18:-0.00033691796 19:-0.00033691796 28:0.15296075 29:0.186538 30:0.0067383591 31:-0.00033691796 32:-0.00033691796 33:0.9699868 1801:0.00033691796 2122:0.00033691796 2202:0.00033691796 2303:0.00033691796 2405:0.00033691796 2501:0.00033691796 2602:0.00033691796 2699:0.00033691796 #
-1.1272278405809776913315545243677 3:0.012051412 4:-0.029018722 11:-0.00030620373 12:-0.00030620373 13:-0.00030620373 14:-0.00030620373 15:-0.00030620373 16:-0.00030620373 18:-0.00030620373 19:-0.00030620373 28:0.15187706 29:0.18521652 30:0.0064302785 31:0.00030620373 32:-0.00030620373 33:0.97035962 1801:0.00030620373 2123:0.00030620373 2204:0.00030620373 2314:0.00030620373 2403:0.00030620373 2501:0.00030620373 2600:0.00030620373 2699:0.00030620373 #
-0.75001451593278123386454581122962 3:0.0095437746 4:-0.025282728 11:-0.00026346487 12:-0.00026346487 13:0.00026346487 14:-0.00026346487 15:-0.00026346487 16:-0.00026346487 18:-0.00026346487 19:-0.00026346487 28:0.15024348 29:0.18322402 30:0.0052692974 31:-0.00026346487 32:-0.00026346487 33:0.97113156 901:0.00026346487 1801:0.00026346487 2106:0.00026346487 2201:0.00026346487 2303:0.00026346487 2405:0.00026346487 2500:0.00026346487 2602:0.00026346487 2700:0.00026346487 #
-100 3:0.0098652132 4:-0.029349608 11:-0.00032271023 12:-0.00032271023 13:-0.00032271023 14:-0.00032271023 15:-0.00032271023 16:-0.00032271023 18:-0.00032271023 19:-0.00032271023 28:0.3436864 29:0.41912961 30:0.012908409 31:-0.00032271023 32:-0.00032271023 33:0.83969206 900:0.00032271023 1801:0.00032271023 2106:0.00032271023 2201:0.00032271023 2301:0.00032271023 2401:0.00032271023 2501:0.00032271023 2601:0.00032271023 2699:0.00032271023 #
-0.50156473447437976975749052144238 3:0.010936075 4:-0.023742767 11:-0.00027554721 12:-0.00027554721 13:-0.00027554721 14:-0.00027554721 15:-0.00027554721 16:-0.00027554721 18:-0.00027554721 19:-0.00027554721 28:0.20791416 29:0.25355303 30:0.02479925 31:0.00027554721 32:-0.00027554721 33:0.9440248 901:0.00027554721 1801:0.00027554721 2121:0.00027554721 2204:0.00027554721 2301:0.00027554721 2401:0.00027554721 2500:0.00027554721 2602:0.00027554721 2700:0.00027554721 #
0.25000132105519967673501469107578 3:0.01400449 4:-0.025458032 11:-0.00034442841 12:0.00034442841 13:-0.00034442841 14:-0.00034442841 15:-0.00034442841 16:-0.00034442841 18:-0.00034442841 19:0.00034442841 28:0.15051521 29:0.18355623 30:0.0086107105 31:-0.00034442841 32:-0.00034442841 33:0.97094369 901:0.00034442841 1800:0.00034442841 2123:0.00034442841 2204:0.00034442841 2315:0.00034442841 2404:0.00034442841 2499:0.00034442841 2602:0.00034442841 2701:0.00034442841 #
-0.24999870440868893206598500000837 3:0.012902751 4:-0.02324198 11:-0.00029877556 12:-0.00029877556 13:-0.00029877556 14:-0.00029877556 15:-0.00029877556 16:-0.00029877556 18:-0.00029877556 19:-0.00029877556 28:0.14819267 29:0.18072335 30:0.0068718377 31:-0.00029877556 32:-0.00029877556 33:0.97191685 900:0.00029877556 1801:0.00029877556 2108:0.00029877556 2203:0.00029877556 2307:0.00029877556 2405:0.00029877556 2501:0.00029877556 2600:0.00029877556 2700:0.00029877556 #
70 3:0.0083679035 4:-0.028375436 11:-0.00025322841 12:-0.00025322841 13:0.00025322841 14:-0.00025322841 15:-0.00025322841 16:-0.00025322841 18:-0.00025322841 19:-0.00025322841 28:0.13239795 29:0.15218268 30:0.0055710254 31:0.00025322841 32:0.00025322841 33:0.97898108 1801:0.00025322841 2115:0.00025322841 2204:0.00025322841 2504:0.00025322841 2601:0.00025322841 2699:0.00025322841 #
-1.0001417945013191257430662517436 3:0.010724969 4:-0.030855108 11:0.00025197509 12:-0.00025197509 13:-0.00025197509 14:-0.00025197509 15:-0.00025197509 16:-0.00025197509 18:-0.00025197509 19:-0.00025197509 28:0.10691051 29:0.12577589 30:0.0050395019 31:-0.00025197509 32:-0.00025197509 33:0.98572659 899:0.00025197509 1801:0.00025197509 2123:0.00025197509 2204:0.00025197509 2299:0.00025197509 2402:0.00025197509 2500:0.00025197509 2602:0.00025197509 2702:0.00025197509 #
20.752956697052450607543505611829 3:0.013078379 4:-0.027481034 11:-0.00031329106 12:0.00031329106 13:-0.00031329106 14:-0.00031329106 15:-0.00031329106 16:-0.00031329106 18:-0.00031329106 19:-0.00031329106 28:0.1052658 29:0.12837414 30:0.0087721497 31:-0.00031329106 32:-0.00031329106 33:0.9856137 901:0.00031329106 1801:0.00031329106 2106:0.00031329106 2201:0.00031329106 2500:0.00031329106 2602:0.00031329106 2700:0.00031329106 #
-0.25000424981785057676475503285474 3:0.010005803 4:-0.021867251 11:-0.00025466693 12:-0.00025466693 13:-0.00025466693 14:-0.00025466693 15:-0.00025466693 16:-0.00025466693 18:-0.00025466693 19:-0.00025466693 28:0.10691427 29:0.12288953 30:0.0071306746 31:-0.00025466693 32:-0.00025466693 33:0.98632509 899:0.00025466693 1801:0.00025466693 2115:0.00025466693 2204:0.00025466693 2306:0.00025466693 2401:0.00025466693 2500:0.00025466693 2601:0.00025466693 2699:0.00025466693 #
70 3:0.0071020923 4:-0.017956737 11:-0.00022166195 12:0.00022166195 13:-0.00022166195 14:-0.00022166195 15:-0.00022166195 16:-0.00022166195 18:-0.00022166195 19:-0.00022166195 28:0.10480842 29:0.12330389 30:0.0048765629 31:-0.00022166195 32:-0.00022166195 33:0.98661733 900:0.00022166195 1801:0.00022166195 2107:0.00022166195 2205:0.00022166195 2323:0.00022166195 2404:0.00022166195 2501:0.00022166195 2600:0.00022166195 2699:0.00022166195 #
-100 3:0.0059057376 4:-0.016064584 11:-0.0001976245 12:-0.0001976245 13:-0.0001976245 14:-0.0001976245 15:-0.0001976245 16:-0.0001976245 18:-0.0001976245 19:-0.0001976245 28:0.1060631 29:0.12478011 30:0.0035572411 31:-0.0001976245 32:-0.0001976245 33:0.98634392 900:0.0001976245 1801:0.0001976245 2101:0.0001976245 2201:0.0001976245 2501:0.0001976245 2600:0.0001976245 2700:0.0001976245 #
70 3:0.0073094228 4:-0.017003538 11:-0.00020569663 12:-0.00020569663 13:-0.00020569663 14:-0.00020569663 15:-0.00020569663 16:-0.00020569663 18:-0.00020569663 19:-0.00020569663 28:0.031220634 29:0.03672919 30:0.0041139326 31:-0.00020569663 32:-0.00020569663 33:0.99865711 899:0.00020569663 1800:0.00020569663 2115:0.00020569663 2204:0.00020569663 2504:0.00020569663 2601:0.00020569663 2699:0.00020569663 #
-0.49999996694677378838989056930586 3:0.0070780632 4:-0.017306302 11:-0.00021639737 12:-0.00021639737 13:-0.00021639737 14:-0.00021639737 15:-0.00021639737 16:-0.00021639737 18:-0.00021639737 19:-0.00021639737 28:0.1067986 29:0.12564464 30:0.0043279477 31:-0.00021639737 32:-0.00021639737 33:0.98612285 901:0.00021639737 1800:0.00021639737 2123:0.00021639737 2204:0.00021639737 2310:0.00021639737 2401:0.00021639737 2501:0.00021639737 2601:0.00021639737 2699:0.00021639737 #
-100 3:0.011156468 4:-0.02443531 11:-0.00028441448 12:-0.00028441448 13:-0.00028441448 14:-0.00028441448 15:-0.00028441448 16:-0.00028441448 18:-0.00028441448 19:-0.00028441448 28:0.14987504 29:0.18277328 30:0.0056882896 31:0.00028441448 32:-0.00028441448 33:0.97127545 901:0.00028441448 1800:0.00028441448 2115:0.00028441448 2204:0.00028441448 2323:0.00028441448 2404:0.00028441448 2499:0.00028441448 2602:0.00028441448 2700:0.00028441448 #
1.010109356377294043127790246217 3:0.0084693041 4:-0.016693244 11:-0.00020019425 12:-0.00020019425 13:-0.00020019425 14:-0.00020019425 15:-0.00020019425 16:-0.00020019425 18:-0.00020019425 19:-0.00020019425 28:0.10740022 29:0.12635261 30:0.0062060221 31:-0.00020019425 32:-0.00020019425 33:0.98595673 900:0.00020019425 1800:0.00020019425 2101:0.00020019425 2201:0.00020019425 2500:0.00020019425 2601:0.00020019425 2700:0.00020019425 #
-0.7500019117691137937598000462458 3:0.0086627249 4:-0.015771855 11:-0.00021315219 12:0.00021315219 13:-0.00021315219 14:-0.00021315219 15:-0.00021315219 16:-0.00021315219 18:-0.00021315219 19:-0.00021315219 28:0.10630752 29:0.12506704 30:0.0057551092 31:0.00021315219 32:-0.00021315219 33:0.98625517 901:0.00021315219 1800:0.00021315219 2105:0.00021315219 2205:0.00021315219 2501:0.00021315219 2602:0.00021315219 2699:0.00021315219 #
-1.7500133660938472779378116683802 3:0.0071596196 4:-0.019031549 11:-0.00019842887 12:-0.00019842887 13:-0.00019842887 14:-0.00019842887 15:-0.00019842887 16:-0.00019842887 18:-0.00019842887 19:-0.00019842887 28:0.10403229 29:0.12239093 30:0.0059528658 31:0.00019842887 32:-0.00019842887 33:0.98678678 901:0.00019842887 1800:0.00019842887 2107:0.00019842887 2205:0.00019842887 2305:0.00019842887 2405:0.00019842887 2500:0.00019842887 2602:0.00019842887 2700:0.00019842887 #
0.75000305432810687733535814913921 3:0.0079145562 4:-0.018803503 11:-0.00023234142 12:0.00023234142 13:-0.00023234142 14:-0.00023234142 15:-0.00023234142 16:-0.00023234142 18:-0.00023234142 19:-0.00023234142 28:0.10231154 29:0.1203668 30:0.0051115113 31:-0.00023234142 32:-0.00023234142 33:0.98721874 900:0.00023234142 1801:0.00023234142 2115:0.00023234142 2204:0.00023234142 2305:0.00023234142 2405:0.00023234142 2499:0.00023234142 2602:0.00023234142 2699:0.00023234142 #
-1.5000085540716205922961989926989 3:0.0077649332 4:-0.017906567 11:-0.00019998213 12:-0.00019998213 13:-0.00019998213 14:-0.00019998213 15:-0.00019998213 16:-0.00019998213 18:-0.00019998213 19:-0.00019998213 28:0.10119895 29:0.11905736 30:0.0047995709 31:-0.00019998213 32:-0.00019998213 33:0.98751169 899:0.00019998213 1801:0.00019998213 2123:0.00019998213 2204:0.00019998213 2306:0.00019998213 2401:0.00019998213 2500:0.00019998213 2601:0.00019998213 2699:0.00019998213 #
0.50000108013268318440935900071054 3:0.0071165203 4:-0.017993217 11:-0.00022211226 12:0.00022211226 13:-0.00022211226 14:-0.00022211226 15:-0.00022211226 16:-0.00022211226 18:-0.00022211226 19:-0.00022211226 28:0.10120323 29:0.11906327 30:0.0053306939 31:0.00022211226 32:-0.00022211226 33:0.98751104 900:0.00022211226 1801:0.00022211226 2107:0.00022211226 2205:0.00022211226 2305:0.00022211226 2405:0.00022211226 2501:0.00022211226 2600:0.00022211226 2699:0.00022211226 #
0.50000108489297767633274816034827 3:0.0093370341 4:-0.016970439 11:-0.00022955374 12:-0.00022955374 13:-0.00022955374 14:-0.00022955374 15:-0.00022955374 16:-0.00022955374 18:-0.00022955374 19:-0.00022955374 28:0.10109776 29:0.11893868 30:0.0045910748 31:-0.00022955374 32:-0.00022955374 33:0.98754019 901:0.00022955374 1800:0.00022955374 2124:0.00022955374 2199:0.00022955374 2303:0.00022955374 2405:0.00022955374 2504:0.00022955374 2602:0.00022955374 2699:0.00022955374 #
-0.50000563095646655131787383652409 3:0.0099415909 4:-0.018059392 11:-0.00024430559 12:-0.00024430559 13:-0.00024430559 14:-0.00024430559 15:-0.00024430559 16:-0.00024430559 18:-0.00024430559 19:-0.00024430559 28:0.10021171 29:0.11789699 30:0.0051304172 31:-0.00024430559 32:-0.00024430559 33:0.98772746 901:0.00024430559 1800:0.00024430559 2106:0.00024430559 2201:0.00024430559 2500:0.00024430559 2602:0.00024430559 2699:0.00024430559 #
0.25000062222689750646154038804525 3:0.0087560713 4:-0.017451521 11:0.00021454232 12:-0.00021454232 13:-0.00021454232 14:-0.00021454232 15:-0.00021454232 16:-0.00021454232 18:-0.00021454232 19:-0.00021454232 28:0.099303059 29:0.11682688 30:0.005363558 31:-0.00021454232 32:-0.00021454232 33:0.98796743 901:0.00021454232 1800:0.00021454232 2123:0.00021454232 2204:0.00021454232 2500:0.00021454232 2602:0.00021454232 2700:0.00021454232 #
-1.2515292980600614125563652123674 3:0.0084075686 4:-0.017001066 11:-0.0001987276 12:-0.0001987276 13:-0.0001987276 14:-0.0001987276 15:-0.0001987276 16:-0.0001987276 18:-0.0001987276 19:-0.0001987276 28:0.10056412 29:0.1183105 30:0.0049681901 31:0.0001987276 32:-0.0001987276 33:0.9876762 900:0.0001987276 1800:0.0001987276 2115:0.0001987276 2204:0.0001987276 2305:0.0001987276 2405:0.0001987276 2500:0.0001987276 2602:0.0001987276 2699:0.0001987276 #
0.25000015941935616048397150734672 3:0.0078273593 4:-0.017328072 11:-0.0001982829 12:-0.0001982829 13:-0.0001982829 14:-0.0001982829 15:-0.0001982829 16:-0.0001982829 18:-0.0001982829 19:-0.0001982829 28:0.099865176 29:0.11748856 30:0.0047587892 31:0.0001982829 32:-0.0001982829 33:0.98784536 901:0.0001982829 1801:0.0001982829 2115:0.0001982829 2204:0.0001982829 2323:0.0001982829 2404:0.0001982829 2501:0.0001982829 2602:0.0001982829 2699:0.0001982829 #
-0.500000634906195173812193388585 3:0.0076995725 4:-0.01859631 11:-0.00019698156 12:-0.00019698156 13:-0.00019698156 14:-0.00019698156 15:-0.00019698156 16:-0.00019698156 18:-0.00019698156 19:-0.00019698156 28:0.098876864 29:0.1163255 30:0.004924539 31:0.00019698156 32:-0.00019698156 33:0.98805952 900:0.00019698156 1801:0.00019698156 2115:0.00019698156 2204:0.00019698156 2324:0.00019698156 2399:0.00019698156 2501:0.00019698156 2602:0.00019698156 2700:0.00019698156 #
0.75000477788603914230947111718706 3:0.0087810708 4:-0.020073632 11:-0.00024752866 12:-0.00024752866 13:-0.00024752866 14:-0.00024752866 15:-0.00024752866 16:-0.00024752866 18:-0.00024752866 19:-0.00024752866 28:0.098335706 29:0.11568994 30:0.0074258596 31:-0.00024752866 32:-0.00024752866 33:0.98813438 899:0.00024752866 1801:0.00024752866 2123:0.00024752866 2204:0.00024752866 2314:0.00024752866 2403:0.00024752866 2499:0.00024752866 2600:0.00024752866 2701:0.00024752866 #
-21.253793853507616518072609324008 3:0.0088879615 4:-0.019542087 11:-0.00022161272 12:-0.00022161272 13:-0.00022161272 14:-0.00022161272 15:-0.00022161272 16:-0.00022161272 18:0.00022161272 19:-0.00022161272 28:0.10004263 29:0.11769629 30:0.0084212832 31:-0.00022161272 32:0.00022161272 33:0.98772788 901:0.00022161272 1801:0.00022161272 2101:0.00022161272 2201:0.00022161272 2306:0.00022161272 2401:0.00022161272 2500:0.00022161272 2602:0.00022161272 2699:0.00022161272 #
0.25000213148888322800544870005979 3:0.0081184814 4:-0.018129604 11:-0.00021792571 12:-0.00021792571 13:-0.00021792571 14:-0.00021792571 15:-0.00021792571 16:-0.00021792571 18:-0.00021792571 19:-0.00021792571 28:0.10238368 29:0.1204519 30:0.0065377713 31:0.00021792571 32:-0.00021792571 33:0.98720348 1801:0.00021792571 2122:0.00021792571 2202:0.00021792571 2323:0.00021792571 2404:0.00021792571 2500:0.00021792571 2601:0.00021792571 2700:0.00021792571 #
-0.24999987428097236730195618292782 3:0.0083469851 4:-0.017537858 11:-0.00020011171 12:0.00020011171 13:0.00020011171 14:-0.00020011171 15:-0.00020011171 16:-0.00020011171 18:-0.00020011171 19:-0.00020011171 28:0.10183485 29:0.11980488 30:0.0060033514 31:0.00020011171 32:-0.00020011171 33:0.98735118 901:0.00020011171 1800:0.00020011171 2115:0.00020011171 2204:0.00020011171 2306:0.00020011171 2401:0.00020011171 2501:0.00020011171 2602:0.00020011171 2699:0.00020011171 #
0.52865232122558214467034076733398 3:0.00895584 4:-0.017535822 11:-0.00021104196 12:-0.00021104196 13:-0.00021104196 14:-0.00021104196 15:-0.00021104196 16:-0.00021104196 18:-0.00021104196 19:-0.00021104196 28:0.10133391 29:0.1192155 30:0.0065423008 31:-0.00021104196 32:-0.00021104196 33:0.98746538 900:0.00021104196 1800:0.00021104196 2110:0.00021104196 2201:0.00021104196 2500:0.00021104196 2602:0.00021104196 2700:0.00021104196 #
-100 3:0.012692786 4:-0.022941049 11:-0.00031051092 12:-0.00031051092 13:-0.00031051092 14:-0.00031051092 15:-0.00031051092 16:-0.00031051092 18:-0.00031051092 19:-0.00031051092 28:0.28163341 29:0.34345615 30:0.0093153277 31:-0.00031051092 32:-0.00031051092 33:0.89551353 901:0.00031051092 1800:0.00031051092 2115:0.00031051092 2204:0.00031051092 2314:0.00031051092 2403:0.00031051092 2504:0.00031051092 2602:0.00031051092 2700:0.00031051092 #
70 3:0.0068667675 4:-0.015118778 11:-0.00019194151 12:-0.00019194151 13:-0.00019194151 14:-0.00019194151 15:-0.00019194151 16:-0.00019194151 18:-0.00019194151 19:-0.00019194151 28:0.19474193 29:0.22910906 30:0.0046065962 31:0.00019194151 32:-0.00019194151 33:0.95356542 901:0.00019194151 1799:0.00019194151 2101:0.00019194151 2201:0.00019194151 2501:0.00019194151 2600:0.00019194151 2702:0.00019194151 #
-0.88101518364177322517605261964491 3:0.0079034967 4:-0.021871038 11:-0.00019549615 12:-0.00019549615 13:-0.00019549615 14:-0.00019549615 15:-0.00019549615 16:-0.00019549615 18:-0.00019549615 19:-0.00019549615 28:0.098725557 29:0.11614817 30:0.0017594654 31:-0.00019549615 32:-0.00019549615 33:0.98803759 899:0.00019549615 1801:0.00019549615 2124:0.00019549615 2199:0.00019549615 2315:0.00019549615 2404:0.00019549615 2501:0.00019549615 2600:0.00019549615 2700:0.00019549615 #
0.24999993893883226681040810035483 3:0.007402401 4:-0.02247208 11:-0.00021095124 12:-0.00021095124 13:-0.00021095124 14:-0.00021095124 15:-0.00021095124 16:-0.00021095124 18:-0.00021095124 19:-0.00021095124 28:0.098398209 29:0.1157616 30:0.0048518786 31:-0.00021095124 32:-0.00021095124 33:0.98809564 901:0.00021095124 1800:0.00021095124 2123:0.00021095124 2204:0.00021095124 2499:0.00021095124 2602:0.00021095124 2699:0.00021095124 #
-0.25000135127749872898661465114856 3:0.0079895016 4:-0.024589291 11:-0.00030032443 12:-0.00030032443 13:-0.00030032443 14:-0.00030032443 15:-0.00030032443 16:-0.00030032443 18:-0.00030032443 19:-0.00030032443 28:0.096103817 29:0.11719861 30:0.0090097329 31:-0.00030032443 32:-0.00030032443 33:0.98806739 901:0.00030032443 1801:0.00030032443 2108:0.00030032443 2203:0.00030032443 2300:0.00030032443 2401:0.00030032443 2500:0.00030032443 2602:0.00030032443 2700:0.00030032443 #
0.2500002440695048289143187503214 3:0.0076333224 4:-0.026570315 11:-0.00022468562 12:-0.00022468562 13:-0.00022468562 14:-0.00022468562 15:-0.00022468562 16:-0.00022468562 18:-0.00022468562 19:-0.00022468562 28:0.096475512 29:0.11349994 30:0.011234281 31:-0.00022468562 32:-0.00022468562 33:0.98839206 900:0.00022468562 1800:0.00022468562 2110:0.00022468562 2201:0.00022468562 2315:0.00022468562 2404:0.00022468562 2500:0.00022468562 2601:0.00022468562 2699:0.00022468562 #
-0.24999950950497762391933065373451 3:0.008240384 4:-0.026879052 11:0.00022061143 12:-0.00022061143 13:-0.00022061143 14:-0.00022061143 15:-0.00022061143 16:-0.00022061143 18:0.00022061143 19:-0.00022061143 28:0.09472172 29:0.11143745 30:0.011471794 31:-0.00022061143 32:-0.00022061143 33:0.98878038 901:0.00022061143 1800:0.00022061143 2123:0.00022061143 2204:0.00022061143 2500:0.00022061143 2601:0.00022061143 2699:0.00022061143 #
-100 3:0.015468745 4:-0.027975297 11:-0.00037878859 12:-0.00037878859 13:-0.00037878859 14:-0.00037878859 15:-0.00037878859 16:-0.00037878859 18:-0.00037878859 19:-0.00037878859 28:0.20267083 29:0.24715956 30:0.0075757718 31:-0.00037878859 32:-0.00037878859 33:0.94697148 901:0.00037878859 1800:0.00037878859 2103:0.00037878859 2205:0.00037878859 2500:0.00037878859 2602:0.00037878859 2699:0.00037878859 #
-1.071447940097876028175960527733 3:0.0074125337 4:-0.023892459 11:-0.00019586741 12:-0.00019586741 13:-0.00019586741 14:-0.00019586741 15:-0.00019586741 16:-0.00019586741 18:-0.00019586741 19:-0.00019586741 28:0.094490357 29:0.11116455 30:0.009793371 31:-0.00019586741 32:-0.00019586741 33:0.98893458 900:0.00019586741 1799:0.00019586741 2122:0.00019586741 2202:0.00019586741 2320:0.00019586741 2405:0.00019586741 2501:0.00019586741 2599:0.00019586741 2702:0.00019586741 #
0.25000106813262390481611419090768 3:0.0081968084 4:-0.021638719 11:-0.00020614205 12:-0.00020614205 13:-0.00020614205 14:-0.00020614205 15:-0.00020614205 16:-0.00020614205 18:-0.00020614205 19:-0.00020614205 28:0.094054379 29:0.11065293 30:0.010719387 31:-0.00020614205 32:-0.00020614205 33:0.98906958 901:0.00020614205 1799:0.00020614205 2123:0.00020614205 2204:0.00020614205 2500:0.00020614205 2602:0.00020614205 2700:0.00020614205 #
-1.4333243150043355473854944648338 3:0.009034642 4:-0.021036882 11:-0.00023297321 12:-0.00023297321 13:-0.00023297321 14:-0.00023297321 15:-0.00023297321 16:-0.00023297321 18:-0.00023297321 19:-0.00023297321 28:0.091344133 29:0.10746355 30:0.011648661 31:0.00023297321 32:-0.00023297321 33:0.98967016 900:0.00023297321 1800:0.00023297321 2115:0.00023297321 2204:0.00023297321 2501:0.00023297321 2602:0.00023297321 2702:0.00023297321 #
0.50000194726800806233057983263279 3:0.0067481752 4:-0.019876027 11:-0.00024096759 12:-0.00024096759 13:-0.00024096759 14:-0.00024096759 15:-0.00024096759 16:-0.00024096759 18:-0.00024096759 19:-0.00024096759 28:0.088350765 29:0.10394137 30:0.010120639 31:-0.00024096759 32:-0.00024096759 33:0.99037683 901:0.00024096759 1801:0.00024096759 2115:0.00024096759 2204:0.00024096759 2321:0.00024096759 2404:0.00024096759 2501:0.00024096759 2602:0.00024096759 2700:0.00024096759 #
-0.75001095428852115887252693937626 3:0.0068659494 4:-0.020150898 11:-0.00024503563 12:-0.00024503563 13:-0.00024503563 14:-0.00024503563 15:-0.00024503563 16:-0.00024503563 18:-0.00024503563 19:-0.00024503563 28:0.086945988 29:0.10229012 30:0.0088212825 31:0.00024503563 32:0.00024503563 33:0.99067903 900:0.00024503563 1801:0.00024503563 2123:0.00024503563 2204:0.00024503563 2315:0.00024503563 2404:0.00024503563 2500:0.00024503563 2601:0.00024503563 2700:0.00024503563 #
0.5000007153003398485680008889176 3:0.0098028788 4:-0.020245561 11:-0.00021503078 12:-0.00021503078 13:-0.00021503078 14:-0.00021503078 15:-0.00021503078 16:-0.00021503078 18:-0.00021503078 19:-0.00021503078 28:0.085999407 29:0.10117628 30:0.0073110466 31:-0.00021503078 32:-0.00021503078 33:0.99086183 899:0.00021503078 1801:0.00021503078 2115:0.00021503078 2204:0.00021503078 2306:0.00021503078 2401:0.00021503078 2501:0.00021503078 2600:0.00021503078 2700:0.00021503078 #
-0.75000155367859155930432280001696 3:0.0094513632 4:-0.02016376 11:-0.00024615767 12:-0.00024615767 13:-0.00024615767 14:-0.00024615767 15:-0.00024615767 16:-0.00024615767 18:-0.00024615767 19:-0.00024615767 28:0.08528132 29:0.1003314 30:0.0046769953 31:-0.00024615767 32:-0.00024615767 33:0.99103075 900:0.00024615767 1801:0.00024615767 2111:0.00024615767 2200:0.00024615767 2504:0.00024615767 2601:0.00024615767 2699:0.00024615767 #
0.25000109979914714175563972275995 3:0.0068852226 4:-0.020235218 11:-0.00024544579 12:-0.00024544579 13:-0.00024544579 14:-0.00024544579 15:-0.00024544579 16:-0.00024544579 18:-0.00024544579 19:-0.00024544579 28:0.08502242 29:0.10002652 30:0.0029453493 31:0.00024544579 32:0.00024544579 33:0.99111009 901:0.00024544579 1800:0.00024544579 2106:0.00024544579 2201:0.00024544579 2324:0.00024544579 2399:0.00024544579 2500:0.00024544579 2602:0.00024544579 2699:0.00024544579 #
-0.24999967130711403529019776215137 3:0.0058779027 4:-0.018882995 11:-0.00019724123 12:-0.00019724123 13:-0.00019724123 14:-0.00019724123 15:-0.00019724123 16:-0.00019724123 18:-0.00019724123 19:-0.00019724123 28:0.085995205 29:0.10117094 30:0.0039448244 31:-0.00019724123 32:-0.00019724123 33:0.99093992 900:0.00019724123 1801:0.00019724123 2123:0.00019724123 2204:0.00019724123 2499:0.00019724123 2602:0.00019724123 2699:0.00019724123 #
-100 3:0.0084713437 4:-0.025221152 11:-0.00025878765 12:-0.00025878765 13:-0.00025878765 14:-0.00025878765 15:-0.00025878765 16:-0.00025878765 18:-0.00025878765 19:-0.00025878765 28:0.15303925 29:0.17590831 30:0.011386656 31:-0.00025878765 32:-0.00025878765 33:0.97200638 901:0.00025878765 1801:0.00025878765 2106:0.00025878765 2201:0.00025878765 2301:0.00025878765 2401:0.00025878765 2501:0.00025878765 2602:0.00025878765 2699:0.00025878765 #
-7.0001369245018532083690843137447 3:0.0081550851 4:-0.018739948 11:-0.00023174338 12:-0.00023174338 13:-0.00023174338 14:-0.00023174338 15:-0.00023174338 16:-0.00023174338 18:-0.00023174338 19:-0.00023174338 28:0.08706367 29:0.10242826 30:0.0041713808 31:0.00023174338 32:-0.00023174338 33:0.99070299 901:0.00023174338 1800:0.00023174338 2110:0.00023174338 2201:0.00023174338 2500:0.00023174338 2602:0.00023174338 2699:0.00023174338 #
70 3:0.0080487588 4:-0.014554358 11:-0.00019705962 12:-0.00019705962 13:-0.00019705962 14:-0.00019705962 15:-0.00019705962 16:-0.00019705962 18:-0.00019705962 19:-0.00019705962 28:0.099079609 29:0.11656471 30:0.0078823846 31:-0.00019705962 32:-0.00019705962 33:0.98805696 901:0.00019705962 1801:0.00019705962 2124:0.00019705962 2199:0.00019705962 2500:0.00019705962 2602:0.00019705962 2700:0.00019705962 #
-0.5177079646434072923710800750996 3:0.010622619 4:-0.021101227 11:-0.00025690853 12:-0.00025690853 13:-0.00025690853 14:-0.00025690853 15:-0.00025690853 16:-0.00025690853 18:-0.00025690853 19:-0.00025690853 28:0.086958401 29:0.099952839 30:0.0035967196 31:-0.00025690853 32:-0.00025690853 33:0.99089622 901:0.00025690853 1800:0.00025690853 2123:0.00025690853 2204:0.00025690853 2324:0.00025690853 2399:0.00025690853 2499:0.00025690853 2601:0.00025690853 2701:0.00025690853 #
-9.676264242327361486672998580616 3:0.0078134695 4:-0.027196035 11:-0.00023049409 12:-0.00023049409 13:-0.00023049409 14:-0.00023049409 15:-0.00023049409 16:-0.00023049409 18:-0.00023049409 19:-0.00023049409 28:0.20295005 29:0.23876421 30:0.008297787 31:-0.00023049409 32:-0.00023049409 33:0.94917464 900:0.00023049409 1799:0.00023049409 2100:0.00023049409 2201:0.00023049409 2500:0.00023049409 2600:0.00023049409 2701:0.00023049409 #
-0.25000025641619078031752110291563 3:0.0088321408 4:-0.017655184 11:-0.00019920083 12:-0.00019920083 13:-0.00019920083 14:-0.00019920083 15:-0.00019920083 16:-0.00019920083 18:-0.00019920083 19:-0.00019920083 28:0.084409364 29:0.0993056 30:0.0099600423 31:-0.00019920083 32:-0.00019920083 33:0.99122339 899:0.00019920083 1801:0.00019920083 2106:0.00019920083 2201:0.00019920083 2315:0.00019920083 2404:0.00019920083 2504:0.00019920083 2600:0.00019920083 2701:0.00019920083 #
0.25000004678515669320759684524091 3:0.0080581699 4:-0.014637138 11:0.00019784462 12:-0.00019784462 13:-0.00019784462 14:-0.00019784462 15:-0.00019784462 16:-0.00019784462 18:-0.00019784462 19:0.00019784462 28:0.083818853 29:0.098609716 30:0.0098922309 31:0.00019784462 32:-0.00019784462 33:0.99139941 1799:0.00019784462 2101:0.00019784462 2201:0.00019784462 2300:0.00019784462 2401:0.00019784462 2500:0.00019784462 2602:0.00019784462 2701:0.00019784462 #
-0.24999941800338743025378107631695 3:0.0081090126 4:-0.014757946 11:-0.00019952431 12:0.00019952431 13:-0.00019952431 14:-0.00019952431 15:-0.00019952431 16:-0.00019952431 18:-0.00019952431 19:0.00019952431 28:0.084751941 29:0.099708281 30:0.0063847778 31:-0.00019952431 32:-0.00019952431 33:0.99123675 901:0.00019952431 1800:0.00019952431 2124:0.00019952431 2199:0.00019952431 2321:0.00019952431 2404:0.00019952431 2504:0.00019952431 2602:0.00019952431 2699:0.00019952431 #
0.25000096452916775735531018654001 3:0.0083811386 4:-0.016342565 11:0.00021322991 12:-0.00021322991 13:-0.00021322991 14:-0.00021322991 15:-0.00021322991 16:-0.00021322991 18:-0.00021322991 19:-0.00021322991 28:0.086430617 29:0.10168295 30:0.0031984488 31:0.00021322991 32:-0.00021322991 33:0.99087942 901:0.00021322991 1800:0.00021322991 2101:0.00021322991 2201:0.00021322991 2500:0.00021322991 2602:0.00021322991 2699:0.00021322991 #
-2.250027499424244847858744833502 3:0.0070996163 4:-0.01723117 11:-0.00020014404 12:-0.00020014404 13:-0.00020014404 14:-0.00020014404 15:-0.00020014404 16:-0.00020014404 18:-0.00020014404 19:-0.00020014404 28:0.087188751 29:0.10257582 30:0.0040028808 31:-0.00020014404 32:-0.00020014404 33:0.990713 1801:0.00020014404 2115:0.00020014404 2204:0.00020014404 2314:0.00020014404 2403:0.00020014404 2499:0.00020014404 2602:0.00020014404 2700:0.00020014404 #
-1.8311054812293150462210178375244 3:0.0055933632 4:-0.016034659 11:0.00019625336 12:-0.00019625336 13:-0.00019625336 14:-0.00019625336 15:-0.00019625336 16:-0.00019625336 18:-0.00019625336 19:-0.00019625336 28:0.085562535 29:0.10066227 30:0.0043175737 31:0.00019625336 32:-0.00019625336 33:0.99107945 1801:0.00019625336 2100:0.00019625336 2201:0.00019625336 2311:0.00019625336 2400:0.00019625336 2501:0.00019625336 2600:0.00019625336 2700:0.00019625336 #
0.24999999957395580008068236566032 3:0.0060803723 4:-0.01683634 11:-0.00020410444 12:-0.00020410444 13:-0.00020410444 14:-0.00020410444 15:-0.00020410444 16:-0.00020410444 18:-0.00020410444 19:-0.00020410444 28:0.083229706 29:0.097917065 30:0.0036738799 31:0.00020410444 32:0.00020410444 33:0.99153936 899:0.00020410444 1800:0.00020410444 2123:0.00020410444 2204:0.00020410444 2306:0.00020410444 2401:0.00020410444 2501:0.00020410444 2601:0.00020410444 2699:0.00020410444 #
-0.50000069234921995509068892715732 3:0.0078924783 4:-0.017750487 11:-0.00021864922 12:-0.00021864922 13:-0.00021864922 14:-0.00021864922 15:-0.00021864922 16:-0.00021864922 18:-0.00021864922 19:-0.00021864922 28:0.08181417 29:0.096251577 30:0.0032797384 31:0.00021864922 32:-0.00021864922 33:0.99179292 899:0.00021864922 1800:0.00021864922 2105:0.00021864922 2205:0.00021864922 2500:0.00021864922 2602:0.00021864922 2699:0.00021864922 #
70 3:0.0098651815 4:-0.015111115 11:-0.00021828663 12:-0.00021828663 13:-0.00021828663 14:-0.00021828663 15:-0.00021828663 16:-0.00021828663 18:-0.00021828663 19:-0.00021828663 28:0.10387824 29:0.12220995 30:0.005238879 31:-0.00021828663 32:-0.00021828663 33:0.98687387 899:0.00021828663 1800:0.00021828663 2123:0.00021828663 2204:0.00021828663 2306:0.00021828663 2401:0.00021828663 2500:0.00021828663 2601:0.00021828663 2700:0.00021828663 #
3.212459730915725231170654296875 3:0.0055236393 4:-0.01725515 11:-0.00021476569 12:-0.00021476569 13:-0.00021476569 14:-0.00021476569 15:-0.00021476569 16:-0.00021476569 18:-0.00021476569 19:-0.00021476569 28:0.092170991 29:0.10843734 30:0.0053691426 31:-0.00021476569 32:-0.00021476569 33:0.98964036 900:0.00021476569 1800:0.00021476569 2123:0.00021476569 2204:0.00021476569 2499:0.00021476569 2601:0.00021476569 2699:0.00021476569 #
38.4260668419301509857177734375 3:0.0076962709 4:-0.015113924 11:-0.00019756703 12:-0.00019756703 13:-0.00019756703 14:-0.00019756703 15:-0.00019756703 16:-0.00019756703 18:-0.00019756703 19:-0.00019756703 28:0.080050208 29:0.094176255 30:0.0031610725 31:-0.00019756703 32:-0.00019756703 33:0.99218166 900:0.00019756703 1800:0.00019756703 2123:0.00019756703 2204:0.00019756703 2306:0.00019756703 2401:0.00019756703 2500:0.00019756703 2602:0.00019756703 2700:0.00019756703 #
-0.25000021684714873737576112944225 3:0.009637096 4:-0.015486534 11:-0.00021986847 12:-0.00021986847 13:-0.00021986847 14:-0.00021986847 15:-0.00021986847 16:-0.00021986847 18:-0.00021986847 19:-0.00021986847 28:0.080579594 29:0.09479849 30:0.0054967119 31:-0.00021986847 32:-0.00021986847 33:0.99204654 899:0.00021986847 1801:0.00021986847 2114:0.00021986847 2203:0.00021986847 2323:0.00021986847 2404:0.00021986847 2501:0.00021986847 2600:0.00021986847 2700:0.00021986847 #
70 3:0.010307677 4:-0.020097652 11:-0.00026218689 12:-0.00026218689 13:-0.00026218689 14:-0.00026218689 15:-0.00026218689 16:-0.00026218689 18:0.00026218689 19:-0.00026218689 28:0.2316395 29:0.28248802 30:0.02621869 31:-0.00026218689 32:-0.00026218689 33:0.93023908 901:0.00026218689 1800:0.00026218689 2101:0.00026218689 2201:0.00026218689 2301:0.00026218689 2401:0.00026218689 2501:0.00026218689 2602:0.00026218689 2702:0.00026218689 #
-0.24999975721757924929100624922285 3:0.0099527389 4:-0.018090328 11:-0.00024447445 12:-0.00024447445 13:-0.00024447445 14:-0.00024447445 15:-0.00024447445 16:-0.00024447445 18:-0.00024447445 19:-0.00024447445 28:0.082676366 29:0.0972666 30:0.0053784377 31:-0.00024447445 32:-0.00024447445 33:0.99158835 901:0.00024447445 1800:0.00024447445 2115:0.00024447445 2204:0.00024447445 2321:0.00024447445 2404:0.00024447445 2501:0.00024447445 2602:0.00024447445 2699:0.00024447445 #
1.0000125741014789237937065990991 3:0.0088519361 4:-0.01752433 11:0.00022761933 12:-0.00022761933 13:-0.00022761933 14:-0.00022761933 15:-0.00022761933 16:-0.00022761933 18:-0.00022761933 19:-0.00022761933 28:0.083172105 29:0.097848997 30:0.0054628639 31:-0.00022761933 32:-0.00022761933 33:0.9915098 901:0.00022761933 1800:0.00022761933 2123:0.00022761933 2204:0.00022761933 2308:0.00022761933 2403:0.00022761933 2499:0.00022761933 2601:0.00022761933 2699:0.00022761933 #
-1.2500123397011639880815891956445 3:0.0079304585 4:-0.01714454 11:0.00019912538 12:-0.00019912538 13:-0.00019912538 14:-0.00019912538 15:-0.00019912538 16:-0.00019912538 18:0.00019912538 19:-0.00019912538 28:0.08258725 29:0.097161241 30:0.0047790091 31:-0.00019912538 32:-0.00019912538 33:0.99164438 901:0.00019912538 1800:0.00019912538 2123:0.00019912538 2204:0.00019912538 2306:0.00019912538 2401:0.00019912538 2500:0.00019912538 2602:0.00019912538 2699:0.00019912538 #
0.2500002834060278122940701450716 3:0.0072518084 4:-0.01728151 11:-0.0002130186 12:-0.0002130186 13:-0.0002130186 14:-0.0002130186 15:-0.0002130186 16:-0.0002130186 18:-0.0002130186 19:-0.0002130186 28:0.082840808 29:0.09746027 30:0.0036213163 31:-0.0002130186 32:-0.0002130186 33:0.99160165 901:0.0002130186 1801:0.0002130186 2115:0.0002130186 2204:0.0002130186 2500:0.0002130186 2601:0.0002130186 2699:0.0002130186 #
0.2500001081054840645911951924063 3:0.0086755371 4:-0.019501148 11:-0.00022756889 12:-0.00022756889 13:-0.00022756889 14:-0.00022756889 15:-0.00022756889 16:-0.00022756889 18:-0.00022756889 19:-0.00022756889 28:0.080711856 29:0.094955392 30:0.0015929822 31:0.00022756889 32:-0.00022756889 33:0.9919728 901:0.00022756889 1801:0.00022756889 2115:0.00022756889 2204:0.00022756889 2323:0.00022756889 2404:0.00022756889 2499:0.00022756889 2602:0.00022756889 2699:0.00022756889 #
