SVM-light Version V6.02
0 # kernel type
3 # kernel parameter -d 
1 # kernel parameter -g 
1 # kernel parameter -s 
1 # kernel parameter -r 
empty# kernel parameter -u 
2702 # highest feature index 
10000 # number of training documents 
6984 # number of support vectors plus 1 
0 # threshold b, each following line is a SV (starting with alpha*y)
-10 3:0.0093820784 4:-0.019624775 11:-0.00022309227 12:-0.00022309227 13:-0.00022309227 14:-0.00022309227 15:-0.00022309227 16:-0.00022309227 18:-0.00022309227 19:-0.00022309227 28:0.064406738 29:0.075773291 30:0.0084775062 31:-0.00022309227 32:-0.00022309227 33:0.99476844 900:0.00022309227 1801:0.00022309227 2115:0.00022309227 2204:0.00022309227 2306:0.00022309227 2401:0.00022309227 2504:0.00022309227 2600:0.00022309227 2699:0.00022309227 #
7.5 3:0.012640881 4:-0.022725884 11:-0.00029289391 12:0.00029289391 13:-0.00029289391 14:-0.00029289391 15:-0.00029289391 16:-0.00029289391 18:-0.00029289391 19:-0.00029289391 28:0.092261583 29:0.1125152 30:0.039540678 31:0.00029289391 32:-0.00029289391 33:0.98822403 901:0.00029289391 1799:0.00029289391 2110:0.00029289391 2201:0.00029289391 2300:0.00029289391 2401:0.00029289391 2500:0.00029289391 2602:0.00029289391 2701:0.00029289391 #
7.5 3:0.0085752122 4:-0.016091503 11:-0.0002141256 12:-0.0002141256 13:-0.0002141256 14:-0.0002141256 15:-0.0002141256 16:-0.0002141256 18:-0.0002141256 19:-0.0002141256 28:0.0794513 29:0.093472242 30:0.0064237677 31:0.0002141256 32:-0.0002141256 33:0.99225801 901:0.0002141256 1801:0.0002141256 2115:0.0002141256 2204:0.0002141256 2504:0.0002141256 2602:0.0002141256 2699:0.0002141256 #
7.5 3:0.012202159 4:-0.025332013 11:0.00027175157 12:-0.00027175157 13:-0.00027175157 14:-0.00027175157 15:-0.00027175157 16:-0.00027175157 18:0.00027175157 19:-0.00027175157 28:0.095833197 29:0.11686949 30:0.0067937896 31:-0.00027175157 32:-0.00027175157 33:0.98808873 901:0.00027175157 1800:0.00027175157 2113:0.00027175157 2200:0.00027175157 2311:0.00027175157 2400:0.00027175157 2500:0.00027175157 2601:0.00027175157 2699:0.00027175157 #
-10 3:0.010802961 4:-0.023435095 11:-0.00027162931 12:-0.00027162931 13:-0.00027162931 14:-0.00027162931 15:-0.00027162931 16:-0.00027162931 18:-0.00027162931 19:-0.00027162931 28:0.062928364 29:0.076740712 30:0.0065191034 31:0.00027162931 32:-0.00027162931 33:0.99470651 901:0.00027162931 1801:0.00027162931 2115:0.00027162931 2204:0.00027162931 2321:0.00027162931 2404:0.00027162931 2500:0.00027162931 2602:0.00027162931 2699:0.00027162931 #
7.5 3:0.0083576236 4:-0.015912769 11:0.00021042937 12:-0.00021042937 13:-0.00021042937 14:-0.00021042937 15:-0.00021042937 16:-0.00021042937 18:-0.00021042937 19:-0.00021042937 28:0.08572682 29:0.10085458 30:0.015782202 31:-0.00021042937 32:-0.00021042937 33:0.99091184 1800:0.00021042937 2110:0.00021042937 2201:0.00021042937 2301:0.00021042937 2401:0.00021042937 2501:0.00021042937 2602:0.00021042937 2700:0.00021042937 #
-10 3:0.0075198663 4:-0.026063021 11:-0.00022094947 12:-0.00022094947 13:-0.00022094947 14:-0.00022094947 15:-0.00022094947 16:-0.00022094947 18:-0.00022094947 19:-0.00022094947 28:0.062614873 29:0.073664553 30:0.0044189896 31:-0.00022094947 32:-0.00022094947 33:0.99493551 900:0.00022094947 1801:0.00022094947 2123:0.00022094947 2204:0.00022094947 2301:0.00022094947 2401:0.00022094947 2504:0.00022094947 2602:0.00022094947 2700:0.00022094947 #
7.5 3:0.010628487 4:-0.020735165 11:-0.00027046376 12:-0.00027046376 13:-0.00027046376 14:-0.00027046376 15:-0.00027046376 16:-0.00027046376 18:-0.00027046376 19:-0.00027046376 28:0.088612035 29:0.10806379 30:0.0054092752 31:0.00027046376 32:-0.00027046376 33:0.98989731 901:0.00027046376 1800:0.00027046376 2115:0.00027046376 2204:0.00027046376 2499:0.00027046376 2602:0.00027046376 2699:0.00027046376 #
-10 3:0.0070460732 4:-0.02435925 11:-0.0002058204 12:-0.0002058204 13:-0.0002058204 14:-0.0002058204 15:-0.0002058204 16:-0.0002058204 18:-0.0002058204 19:-0.0002058204 28:0.065574378 29:0.077145599 30:0.0051455097 31:-0.0002058204 32:0.0002058204 33:0.99452412 901:0.0002058204 1801:0.0002058204 2115:0.0002058204 2204:0.0002058204 2306:0.0002058204 2401:0.0002058204 2501:0.0002058204 2601:0.0002058204 2700:0.0002058204 #
7.5 3:0.0076407739 4:-0.019578861 11:-0.00021756101 12:-0.00021756101 13:-0.00021756101 14:0.00021756101 15:-0.00021756101 16:-0.00021756101 18:0.00021756101 19:-0.00021756101 28:0.084178708 29:0.099033773 30:0.013053661 31:-0.00021756101 32:-0.00021756101 33:0.99120796 901:0.00021756101 1800:0.00021756101 2114:0.00021756101 2203:0.00021756101 2308:0.00021756101 2403:0.00021756101 2499:0.00021756101 2602:0.00021756101 2700:0.00021756101 #
-10 3:0.008308107 4:-0.028805099 11:0.00024288018 12:-0.00024288018 13:-0.00024288018 14:-0.00024288018 15:-0.00024288018 16:-0.00024288018 18:-0.00024288018 19:-0.00024288018 28:0.067340955 29:0.079225086 30:0.0060720043 31:-0.00024288018 32:-0.00024288018 33:0.99410856 901:0.00024288018 1801:0.00024288018 2100:0.00024288018 2201:0.00024288018 2315:0.00024288018 2404:0.00024288018 2499:0.00024288018 2602:0.00024288018 2700:0.00024288018 #
7.5 3:0.0074331127 4:-0.020140089 11:-0.00024614335 12:0.00024614335 13:-0.00024614335 14:-0.00024614335 15:-0.00024614335 16:-0.00024614335 18:-0.00024614335 19:-0.00024614335 28:0.093450785 29:0.10994238 30:0.010091877 31:0.00024614335 32:0.00024614335 33:0.98925012 901:0.00024614335 1801:0.00024614335 2106:0.00024614335 2201:0.00024614335 2315:0.00024614335 2404:0.00024614335 2499:0.00024614335 2601:0.00024614335 2699:0.00024614335 #
-10 3:0.0090355361 4:-0.029231684 11:0.00023928304 12:-0.00023928304 13:-0.00023928304 14:-0.00023928304 15:-0.00023928304 16:-0.00023928304 18:-0.00023928304 19:-0.00023928304 28:0.070921101 29:0.083435602 30:0.0047856607 31:-0.00023928304 32:-0.00023928304 33:0.99350321 901:0.00023928304 1801:0.00023928304 2115:0.00023928304 2204:0.00023928304 2323:0.00023928304 2404:0.00023928304 2500:0.00023928304 2602:0.00023928304 2699:0.00023928304 #
7.5 3:0.0089907032 4:-0.018794641 11:-0.00021438084 12:0.00021438084 13:-0.00021438084 14:-0.00021438084 15:-0.00021438084 16:-0.00021438084 18:-0.00021438084 19:-0.00021438084 28:0.085132778 29:0.10015658 30:0.006431425 31:-0.00021438084 32:-0.00021438084 33:0.99108261 901:0.00021438084 1801:0.00021438084 2115:0.00021438084 2204:0.00021438084 2324:0.00021438084 2399:0.00021438084 2499:0.00021438084 2600:0.00021438084 2700:0.00021438084 #
-9.9999999999999982236431605997495 3:0.0089685237 4:-0.024768375 11:0.00020066102 12:-0.00020066102 13:-0.00020066102 14:-0.00020066102 15:-0.00020066102 16:-0.00020066102 18:-0.00020066102 19:-0.00020066102 28:0.071826607 29:0.084502362 30:0.0042138812 31:-0.00020066102 32:-0.00020066102 33:0.9934727 900:0.00020066102 1801:0.00020066102 2123:0.00020066102 2204:0.00020066102 2499:0.00020066102 2600:0.00020066102 2700:0.00020066102 #
7.5 3:0.010076492 4:-0.018310335 11:-0.00024781653 12:-0.00024781653 13:-0.00024781653 14:-0.00024781653 15:-0.00024781653 16:-0.00024781653 18:-0.00024781653 19:0.00024781653 28:0.083328299 29:0.098033734 30:0.037172478 31:0.00024781653 32:-0.00024781653 33:0.9907704 901:0.00024781653 1800:0.00024781653 2123:0.00024781653 2204:0.00024781653 2304:0.00024781653 2402:0.00024781653 2501:0.00024781653 2602:0.00024781653 2701:0.00024781653 #
-10 3:0.0068978542 4:-0.023953114 11:-0.00020262631 12:-0.00020262631 13:-0.00020262631 14:-0.00020262631 15:-0.00020262631 16:-0.00020262631 18:-0.00020262631 19:-0.00020262631 28:0.071991101 29:0.084695771 30:0.0050656577 31:0.00020262631 32:-0.00020262631 33:0.99347681 901:0.00020262631 1801:0.00020262631 2115:0.00020262631 2204:0.00020262631 2299:0.00020262631 2402:0.00020262631 2500:0.00020262631 2601:0.00020262631 2699:0.00020262631 #
7.5 3:0.010138828 4:-0.01841606 11:-0.00024901764 12:-0.00024901764 13:-0.00024901764 14:-0.00024901764 15:-0.00024901764 16:-0.00024901764 18:-0.00024901764 19:-0.00024901764 28:0.082569271 29:0.097139299 30:0.0074705295 31:-0.00024901764 32:0.00024901764 33:0.99158829 901:0.00024901764 1799:0.00024901764 2115:0.00024901764 2204:0.00024901764 2314:0.00024901764 2403:0.00024901764 2499:0.00024901764 2602:0.00024901764 2702:0.00024901764 #
-10 3:0.008604534 4:-0.027162872 11:-0.00022370607 12:-0.00022370607 13:0.00022370607 14:-0.00022370607 15:-0.00022370607 16:-0.00022370607 18:-0.00022370607 19:-0.00022370607 28:0.073970653 29:0.087023899 30:0.0055926517 31:-0.00022370607 32:0.00022370607 33:0.99303126 901:0.00022370607 1801:0.00022370607 2123:0.00022370607 2204:0.00022370607 2306:0.00022370607 2401:0.00022370607 2500:0.00022370607 2602:0.00022370607 2699:0.00022370607 #
7.5 3:0.015518138 4:-0.032436583 11:-0.00036984912 12:-0.00036984912 13:-0.00036984912 14:-0.00036984912 15:-0.00036984912 16:-0.00036984912 18:-0.00036984912 19:-0.00036984912 28:0.10799594 29:0.13170327 30:0.033286419 31:-0.00036984912 32:-0.00036984912 33:0.98416847 901:0.00036984912 1800:0.00036984912 2106:0.00036984912 2201:0.00036984912 2315:0.00036984912 2404:0.00036984912 2499:0.00036984912 2602:0.00036984912 2701:0.00036984912 #
-10 3:0.011292785 4:-0.0277755 11:-0.00029976151 12:-0.00029976151 13:-0.00029976151 14:-0.00029976151 15:-0.00029976151 16:-0.00029976151 18:-0.00029976151 19:-0.00029976151 28:0.073321663 29:0.089415863 30:0.007494038 31:-0.00029976151 32:-0.00029976151 33:0.99281013 1801:0.00029976151 2107:0.00029976151 2205:0.00029976151 2299:0.00029976151 2402:0.00029976151 2501:0.00029976151 2602:0.00029976151 2700:0.00029976151 #
7.5 3:0.0071740975 4:-0.014857754 11:-0.00019452439 12:-0.00019452439 13:-0.00019452439 14:-0.00019452439 15:-0.00019452439 16:-0.00019452439 18:-0.00019452439 19:-0.00019452439 28:0.077409036 29:0.091068536 30:0.04474061 31:-0.00019452439 32:-0.00019452439 33:0.99168533 901:0.00019452439 1800:0.00019452439 2115:0.00019452439 2204:0.00019452439 2499:0.00019452439 2601:0.00019452439 2701:0.00019452439 #
7.5 3:0.0088630021 4:-0.022955317 11:-0.00021836942 12:0.00021836942 13:-0.00021836942 14:-0.00021836942 15:-0.00021836942 16:-0.00021836942 18:-0.00021836942 19:-0.00021836942 28:0.089452848 29:0.10523877 30:0.021836942 31:0.00021836942 32:-0.00021836942 33:0.98986852 901:0.00021836942 1801:0.00021836942 2101:0.00021836942 2201:0.00021836942 2317:0.00021836942 2405:0.00021836942 2500:0.00021836942 2600:0.00021836942 2702:0.00021836942 #
-10 3:0.0086010462 4:-0.027732328 11:-0.00022670304 12:-0.00022670304 13:-0.00022670304 14:-0.00022670304 15:-0.00022670304 16:-0.00022670304 18:0.00022670304 19:-0.00022670304 28:0.0755964 29:0.088937871 30:0.0036272486 31:-0.00022670304 32:-0.00022670304 33:0.99273264 900:0.00022670304 1800:0.00022670304 2124:0.00022670304 2199:0.00022670304 2315:0.00022670304 2404:0.00022670304 2501:0.00022670304 2602:0.00022670304 2700:0.00022670304 #
7.5 3:0.018071359 4:-0.040879235 11:-0.00052374008 12:-0.00052374008 13:-0.00052374008 14:-0.00052374008 15:-0.00052374008 16:-0.00052374008 18:-0.00052374008 19:-0.00052374008 28:0.12132439 29:0.14795657 30:0.010998541 31:-0.00052374008 32:-0.00052374008 33:0.98044139 899:0.00052374008 1800:0.00052374008 2115:0.00052374008 2204:0.00052374008 2305:0.00052374008 2405:0.00052374008 2500:0.00052374008 2602:0.00052374008 2699:0.00052374008 #
-10 3:0.0078721959 4:-0.025116088 11:-0.0002053253 12:-0.0002053253 13:-0.0002053253 14:-0.0002053253 15:-0.0002053253 16:-0.0002053253 18:-0.0002053253 19:-0.0002053253 28:0.078165285 29:0.091959037 30:0.0026692287 31:-0.0002053253 32:-0.0002053253 33:0.99233717 901:0.0002053253 1801:0.0002053253 2115:0.0002053253 2204:0.0002053253 2324:0.0002053253 2399:0.0002053253 2500:0.0002053253 2602:0.0002053253 2699:0.0002053253 #
7.5 3:0.013928016 4:-0.027416226 11:-0.0003364023 12:-0.0003364023 13:-0.0003364023 14:-0.0003364023 15:-0.0003364023 16:-0.0003364023 18:-0.0003364023 19:-0.0003364023 28:0.096211061 29:0.11733039 30:0.022875357 31:-0.0003364023 32:-0.0003364023 33:0.98767716 900:0.0003364023 1799:0.0003364023 2106:0.0003364023 2201:0.0003364023 2501:0.0003364023 2601:0.0003364023 2701:0.0003364023 #
-10 3:0.010921756 4:-0.022593141 11:-0.00024228127 12:0.00024228127 13:-0.00024228127 14:-0.00024228127 15:-0.00024228127 16:-0.00024228127 18:-0.00024228127 19:-0.00024228127 28:0.079279274 29:0.093268596 30:0.0062993132 31:-0.00024228127 32:-0.00024228127 33:0.99214178 900:0.00024228127 1801:0.00024228127 2124:0.00024228127 2199:0.00024228127 2500:0.00024228127 2601:0.00024228127 2701:0.00024228127 #
7.5 3:0.0094880871 4:-0.019803815 11:-0.00020908656 12:-0.00020908656 13:-0.00020908656 14:-0.00020908656 15:-0.00020908656 16:-0.00020908656 18:-0.00020908656 19:-0.00020908656 28:0.087122187 29:0.10249633 30:0.0054362505 31:-0.00020908656 32:-0.00020908656 33:0.99065214 899:0.00020908656 1799:0.00020908656 2101:0.00020908656 2201:0.00020908656 2323:0.00020908656 2404:0.00020908656 2500:0.00020908656 2601:0.00020908656 2700:0.00020908656 #
-10 3:0.0092814006 4:-0.020961059 11:-0.00025849006 12:-0.00025849006 13:-0.00025849006 14:-0.00025849006 15:-0.00025849006 16:-0.00025849006 18:-0.00025849006 19:-0.00025849006 28:0.07954257 29:0.091427937 30:0.0064622518 31:0.00025849006 32:0.00025849006 33:0.99234343 1801:0.00025849006 2106:0.00025849006 2201:0.00025849006 2300:0.00025849006 2401:0.00025849006 2501:0.00025849006 2601:0.00025849006 2700:0.00025849006 #
7.5 3:0.0085010445 4:-0.021708483 11:-0.00024141021 12:-0.00024141021 13:-0.00024141021 14:-0.00024141021 15:-0.00024141021 16:-0.00024141021 18:-0.00024141021 19:-0.00024141021 28:0.080488577 29:0.094693147 30:0.0060352548 31:-0.00024141021 32:-0.00024141021 33:0.99195451 901:0.00024141021 1801:0.00024141021 2106:0.00024141021 2201:0.00024141021 2301:0.00024141021 2401:0.00024141021 2500:0.00024141021 2602:0.00024141021 2699:0.00024141021 #
-10 3:0.0075139836 4:-0.022648891 11:-0.0002500822 12:-0.0002500822 13:-0.0002500822 14:-0.0002500822 15:-0.0002500822 16:-0.0002500822 18:-0.0002500822 19:-0.0002500822 28:0.081084147 29:0.095393851 30:0.0060019726 31:0.0002500822 32:-0.0002500822 33:0.99182594 899:0.0002500822 1800:0.0002500822 2106:0.0002500822 2201:0.0002500822 2324:0.0002500822 2399:0.0002500822 2501:0.0002500822 2602:0.0002500822 2700:0.0002500822 #
7.5 3:0.0084703257 4:-0.021719264 11:-0.00024128688 12:-0.00024128688 13:-0.00024128688 14:0.00024128688 15:-0.00024128688 16:-0.00024128688 18:-0.00024128688 19:-0.00024128688 28:0.080606706 29:0.094830565 30:0.0062734587 31:-0.00024128688 32:-0.00024128688 33:0.99193031 901:0.00024128688 1801:0.00024128688 2106:0.00024128688 2201:0.00024128688 2323:0.00024128688 2404:0.00024128688 2501:0.00024128688 2602:0.00024128688 2699:0.00024128688 #
-10 3:0.0084690982 4:-0.021682765 11:-0.00024085907 12:-0.00024085907 13:-0.00024085907 14:-0.00024085907 15:-0.00024085907 16:-0.00024085907 18:-0.00024085907 19:-0.00024085907 28:0.079767704 29:0.093843512 30:0.0052988995 31:-0.00024085907 32:-0.00024085907 33:0.99209851 901:0.00024085907 1799:0.00024085907 2106:0.00024085907 2201:0.00024085907 2323:0.00024085907 2404:0.00024085907 2501:0.00024085907 2602:0.00024085907 2699:0.00024085907 #
7.5 3:0.0072151464 4:-0.022583595 11:-0.00023180705 12:-0.00023180705 13:-0.00023180705 14:-0.00023180705 15:-0.00023180705 16:-0.00023180705 18:-0.00023180705 19:-0.00023180705 28:0.078334555 29:0.092157207 30:0.0041725268 31:-0.00023180705 32:-0.00023180705 33:0.99236596 901:0.00023180705 1801:0.00023180705 2101:0.00023180705 2201:0.00023180705 2310:0.00023180705 2401:0.00023180705 2500:0.00023180705 2601:0.00023180705 2699:0.00023180705 #
-10 3:0.0071402411 4:-0.024809334 11:-0.00020973604 12:-0.00020973604 13:-0.00020973604 14:-0.00020973604 15:-0.00020973604 16:-0.00020973604 18:-0.00020973604 19:-0.00020973604 28:0.076356508 29:0.089832045 30:0.0041947211 31:-0.00020973604 32:-0.00020973604 33:0.99268073 901:0.00020973604 1800:0.00020973604 2111:0.00020973604 2200:0.00020973604 2307:0.00020973604 2405:0.00020973604 2501:0.00020973604 2602:0.00020973604 2700:0.00020973604 #
7.5 3:0.009828941 4:-0.020389019 11:-0.00023952074 12:-0.00023952074 13:-0.00023952074 14:-0.00023952074 15:-0.00023952074 16:-0.00023952074 18:-0.00023952074 19:-0.00023952074 28:0.085896932 29:0.1010562 30:0.0043113735 31:-0.00023952074 32:-0.00023952074 33:0.9908973 901:0.00023952074 1801:0.00023952074 2115:0.00023952074 2204:0.00023952074 2500:0.00023952074 2602:0.00023952074 2700:0.00023952074 #
-10 3:0.0087605743 4:-0.0254646 11:-0.00026354942 12:-0.00026354942 13:-0.00026354942 14:-0.00026354942 15:-0.00026354942 16:-0.00026354942 18:-0.00026354942 19:-0.00026354942 28:0.076579556 29:0.088022865 30:0.0052709882 31:-0.00026354942 32:-0.00026354942 33:0.99279064 899:0.00026354942 1801:0.00026354942 2115:0.00026354942 2204:0.00026354942 2321:0.00026354942 2404:0.00026354942 2501:0.00026354942 2601:0.00026354942 2699:0.00026354942 #
7.5 3:0.0072171465 4:-0.023217198 11:-0.00024291959 12:-0.00024291959 13:-0.00024291959 14:-0.00024291959 15:-0.00024291959 16:-0.00024291959 18:-0.00024291959 19:-0.00024291959 28:0.080996677 29:0.095290072 30:0.0043725525 31:0.00024291959 32:-0.00024291959 33:0.99184072 901:0.00024291959 1801:0.00024291959 2106:0.00024291959 2201:0.00024291959 2310:0.00024291959 2401:0.00024291959 2500:0.00024291959 2602:0.00024291959 2699:0.00024291959 #
-10 3:0.0098679652 4:-0.021603134 11:-0.00027555085 12:-0.00027555085 13:0.00027555085 14:-0.00027555085 15:-0.00027555085 16:-0.00027555085 18:-0.00027555085 19:-0.00027555085 28:0.075726882 29:0.092350863 30:0.006888771 31:-0.00027555085 32:-0.00027555085 33:0.9925341 899:0.00027555085 1800:0.00027555085 2105:0.00027555085 2205:0.00027555085 2500:0.00027555085 2601:0.00027555085 2699:0.00027555085 #
7.5 3:0.0090337638 4:-0.017269716 11:-0.00022823251 12:-0.00022823251 13:-0.00022823251 14:-0.00022823251 15:-0.00022823251 16:-0.00022823251 18:-0.00022823251 19:-0.00022823251 28:0.076250203 29:0.089706786 30:0.0091293007 31:0.00022823251 32:-0.00022823251 33:0.99281144 900:0.00022823251 1801:0.00022823251 2115:0.00022823251 2204:0.00022823251 2500:0.00022823251 2601:0.00022823251 2699:0.00022823251 #
-10 3:0.011738813 4:-0.020040238 11:-0.00028069841 12:-0.00028069841 13:-0.00028069841 14:-0.00028069841 15:-0.00028069841 16:-0.00028069841 18:-0.00028069841 19:-0.00028069841 28:0.074199818 29:0.090488747 30:0.0072981589 31:-0.00028069841 32:-0.00028069841 33:0.99283028 901:0.00028069841 1801:0.00028069841 2115:0.00028069841 2204:0.00028069841 2323:0.00028069841 2404:0.00028069841 2501:0.00028069841 2601:0.00028069841 2699:0.00028069841 #
7.5 3:0.0086379731 4:-0.015095774 11:-0.00020734672 12:-0.00020734672 13:-0.00020734672 14:-0.00020734672 15:-0.00020734672 16:-0.00020734672 18:-0.00020734672 19:-0.00020734672 28:0.072104827 29:0.084829688 30:0.0070497887 31:0.00020734672 32:-0.00020734672 33:0.99360549 900:0.00020734672 1800:0.00020734672 2111:0.00020734672 2200:0.00020734672 2501:0.00020734672 2602:0.00020734672 2700:0.00020734672 #
-10 3:0.0079880012 4:-0.021794256 11:-0.00023410085 12:-0.00023410085 13:-0.00023410085 14:-0.00023410085 15:-0.00023410085 16:-0.00023410085 18:-0.00023410085 19:-0.00023410085 28:0.073268883 29:0.08619827 30:0.0060866219 31:0.00023410085 32:-0.00023410085 33:0.99328989 1800:0.00023410085 2106:0.00023410085 2201:0.00023410085 2500:0.00023410085 2601:0.00023410085 2702:0.00023410085 #
7.5 3:0.0081810104 4:-0.017151861 11:-0.00019550453 12:-0.00019550453 13:-0.00019550453 14:-0.00019550453 15:-0.00019550453 16:-0.00019550453 18:-0.00019550453 19:-0.00019550453 28:0.077765837 29:0.091488302 30:0.0035190815 31:-0.00019550453 32:-0.00019550453 33:0.99257654 901:0.00019550453 1800:0.00019550453 2115:0.00019550453 2204:0.00019550453 2305:0.00019550453 2405:0.00019550453 2499:0.00019550453 2602:0.00019550453 2699:0.00019550453 #
7.5 3:0.010349 4:-0.018068735 11:-0.00024819854 12:-0.00024819854 13:-0.00024819854 14:-0.00024819854 15:-0.00024819854 16:-0.00024819854 18:-0.00024819854 19:-0.00024819854 28:0.083759561 29:0.098539785 30:0.012409926 31:-0.00024819854 32:0.00024819854 33:0.99130493 900:0.00024819854 1801:0.00024819854 2115:0.00024819854 2204:0.00024819854 2305:0.00024819854 2405:0.00024819854 2499:0.00024819854 2601:0.00024819854 2699:0.00024819854 #
-10 3:0.0088634621 4:-0.021448545 11:-0.00026770032 12:-0.00026770032 13:-0.00026770032 14:-0.00026770032 15:-0.00026770032 16:-0.00026770032 18:-0.00026770032 19:-0.00026770032 28:0.067880772 29:0.082780972 30:0.0045509054 31:-0.00026770032 32:-0.00026770032 33:0.99397129 1800:0.00026770032 2115:0.00026770032 2204:0.00026770032 2323:0.00026770032 2404:0.00026770032 2499:0.00026770032 2599:0.00026770032 2699:0.00026770032 #
7.5 3:0.022180291 4:-0.040288661 11:-0.00054459792 12:-0.00054459792 13:-0.00054459792 14:-0.00054459792 15:-0.00054459792 16:-0.00054459792 18:-0.00054459792 19:-0.00054459792 28:0.1200185 29:0.14636615 30:0.0065351753 31:-0.00054459792 32:-0.00054459792 33:0.98082089 901:0.00054459792 1800:0.00054459792 2124:0.00054459792 2199:0.00054459792 2501:0.00054459792 2601:0.00054459792 2699:0.00054459792 #
-10 3:0.0099198055 4:-0.02080195 11:-0.00023722221 12:-0.00023722221 13:-0.00023722221 14:0.00023722221 15:-0.00023722221 16:-0.00023722221 18:-0.00023722221 19:-0.00023722221 28:0.066412732 29:0.078131504 30:0.0071166665 31:-0.00023722221 32:-0.00023722221 33:0.99443549 901:0.00023722221 1801:0.00023722221 2123:0.00023722221 2204:0.00023722221 2306:0.00023722221 2401:0.00023722221 2500:0.00023722221 2602:0.00023722221 2700:0.00023722221 #
7.5 3:0.0075964388 4:-0.027055347 11:-0.0002308007 12:-0.0002308007 13:-0.0002308007 14:-0.0002308007 15:-0.0002308007 16:-0.0002308007 18:-0.0002308007 19:-0.0002308007 28:0.095099114 29:0.11188064 30:0.0046160137 31:0.0002308007 32:-0.0002308007 33:0.98875016 901:0.0002308007 1801:0.0002308007 2123:0.0002308007 2204:0.0002308007 2315:0.0002308007 2404:0.0002308007 2501:0.0002308007 2599:0.0002308007 2700:0.0002308007 #
-10 3:0.010378963 4:-0.020395264 11:-0.00024040004 12:-0.00024040004 13:-0.00024040004 14:-0.00024040004 15:-0.00024040004 16:-0.00024040004 18:-0.00024040004 19:-0.00024040004 28:0.06585519 29:0.077476129 30:0.0060100011 31:0.00024040004 32:-0.00024040004 33:0.99453497 1801:0.00024040004 2105:0.00024040004 2205:0.00024040004 2500:0.00024040004 2601:0.00024040004 2699:0.00024040004 #
7.5 3:0.0087297922 4:-0.015871497 11:-0.00021471175 12:-0.00021471175 13:-0.00021471175 14:-0.00021471175 15:-0.00021471175 16:-0.00021471175 18:-0.00021471175 19:0.00021471175 28:0.078977421 29:0.092914365 30:0.019324057 31:0.00021471175 32:-0.00021471175 33:0.99218297 901:0.00021471175 1800:0.00021471175 2123:0.00021471175 2204:0.00021471175 2324:0.00021471175 2399:0.00021471175 2500:0.00021471175 2602:0.00021471175 2701:0.00021471175 #
-10 3:0.0080780135 4:-0.019312898 11:-0.00022109409 12:-0.00022109409 13:-0.00022109409 14:-0.00022109409 15:-0.00022109409 16:-0.00022109409 18:-0.00022109409 19:-0.00022109409 28:0.066482991 29:0.078214243 30:0.005527352 31:-0.00022109409 32:-0.00022109409 33:0.99448121 899:0.00022109409 1801:0.00022109409 2115:0.00022109409 2204:0.00022109409 2323:0.00022109409 2404:0.00022109409 2501:0.00022109409 2601:0.00022109409 2700:0.00022109409 #
7.5 3:0.012249809 4:-0.035843957 11:-0.00040294373 12:-0.00040294373 13:-0.00040294373 14:-0.00040294373 15:-0.00040294373 16:-0.00040294373 18:-0.00040294373 19:-0.00040294373 28:0.10284332 29:0.12542026 30:0.007252987 31:-0.00040294373 32:-0.00040294373 33:0.98600328 901:0.00040294373 1801:0.00040294373 2110:0.00040294373 2201:0.00040294373 2300:0.00040294373 2401:0.00040294373 2500:0.00040294373 2602:0.00040294373 2699:0.00040294373 #
-10 3:0.0083829733 4:-0.018220523 11:-0.00021160694 12:-0.00021160694 13:-0.00021160694 14:-0.00021160694 15:-0.00021160694 16:-0.00021160694 18:-0.00021160694 19:-0.00021160694 28:0.068772249 29:0.080907911 30:0.0052901735 31:-0.00021160694 32:-0.00021160694 33:0.99412936 900:0.00021160694 1800:0.00021160694 2115:0.00021160694 2204:0.00021160694 2310:0.00021160694 2401:0.00021160694 2504:0.00021160694 2601:0.00021160694 2699:0.00021160694 #
7.5 3:0.0058212071 4:-0.017946284 11:-0.00022387767 12:-0.00022387767 13:-0.00022387767 14:-0.00022387767 15:-0.00022387767 16:-0.00022387767 18:0.00022387767 19:-0.00022387767 28:0.07094235 29:0.08346159 30:0.0044775531 31:0.00022387767 32:-0.00022387767 33:0.99379295 900:0.00022387767 1800:0.00022387767 2115:0.00022387767 2204:0.00022387767 2323:0.00022387767 2404:0.00022387767 2499:0.00022387767 2602:0.00022387767 2700:0.00022387767 #
-10 3:0.0087493164 4:-0.015930379 11:-0.00021523955 12:-0.00021523955 13:-0.00021523955 14:-0.00021523955 15:-0.00021523955 16:-0.00021523955 18:-0.00021523955 19:-0.00021523955 28:0.068611912 29:0.080719136 30:0.0053809886 31:0.00021523955 32:-0.00021523955 33:0.99419147 901:0.00021523955 1800:0.00021523955 2115:0.00021523955 2204:0.00021523955 2321:0.00021523955 2404:0.00021523955 2504:0.00021523955 2602:0.00021523955 2700:0.00021523955 #
7.5 3:0.0075320797 4:-0.023594525 11:-0.00019475906 12:-0.00019475906 13:-0.00019475906 14:-0.00019475906 15:-0.00019475906 16:-0.00019475906 18:-0.00019475906 19:-0.00019475906 28:0.085575186 29:0.1006768 30:0.087641582 31:0.00019475906 32:-0.00019475906 33:0.98703891 901:0.00019475906 1799:0.00019475906 2101:0.00019475906 2201:0.00019475906 2310:0.00019475906 2401:0.00019475906 2500:0.00019475906 2599:0.00019475906 2701:0.00019475906 #
-10 3:0.0079772882 4:-0.018476401 11:-0.00022806881 12:-0.00022806881 13:-0.00022806881 14:-0.00022806881 15:-0.00022806881 16:-0.00022806881 18:-0.00022806881 19:-0.00022806881 28:0.068641871 29:0.0807546 30:0.0047894451 31:-0.00022806881 32:0.00022806881 33:0.99415195 901:0.00022806881 1800:0.00022806881 2115:0.00022806881 2204:0.00022806881 2322:0.00022806881 2402:0.00022806881 2501:0.00022806881 2601:0.00022806881 2700:0.00022806881 #
7.5 3:0.012111737 4:-0.023640158 11:-0.00030822586 12:-0.00030822586 13:-0.00030822586 14:-0.00030822586 15:-0.00030822586 16:-0.00030822586 18:-0.00030822586 19:-0.00030822586 28:0.084762111 29:0.10336971 30:0.0077056466 31:0.00030822586 32:-0.00030822586 33:0.99063796 901:0.00030822586 1800:0.00030822586 2115:0.00030822586 2204:0.00030822586 2499:0.00030822586 2602:0.00030822586 2700:0.00030822586 #
-10 3:0.0072023924 4:-0.015772449 11:-0.00019981414 12:-0.00019981414 13:-0.00019981414 14:-0.00019981414 15:-0.00019981414 16:-0.00019981414 18:-0.00019981414 19:-0.00019981414 28:0.068216547 29:0.080255345 30:0.0045957253 31:-0.00019981414 32:-0.00019981414 33:0.99427515 901:0.00019981414 1800:0.00019981414 2106:0.00019981414 2201:0.00019981414 2305:0.00019981414 2405:0.00019981414 2500:0.00019981414 2601:0.00019981414 2699:0.00019981414 #
7.5 3:0.0072705345 4:-0.025124267 11:-0.00021312505 12:-0.00021312505 13:-0.00021312505 14:-0.00021312505 15:-0.00021312505 16:-0.00021312505 18:-0.00021312505 19:-0.00021312505 28:0.082681865 29:0.097272404 30:0.0053281263 31:0.00021312505 32:0.00021312505 33:0.99145776 900:0.00021312505 1801:0.00021312505 2115:0.00021312505 2204:0.00021312505 2307:0.00021312505 2405:0.00021312505 2499:0.00021312505 2602:0.00021312505 2699:0.00021312505 #
-10 3:0.0062788217 4:-0.012712873 11:-0.00014851154 12:-0.00014851154 13:-0.00014851154 14:-0.00014851154 15:-0.00014851154 16:-0.00014851154 18:-0.00014851154 19:-0.00014851154 28:0.54383737 29:0.66321683 30:0.011880922 31:-0.00014851154 32:-0.00014851154 33:0.51384991 901:0.00014851154 1800:0.00014851154 2106:0.00014851154 2201:0.00014851154 2323:0.00014851154 2404:0.00014851154 2501:0.00014851154 2602:0.00014851154 2702:0.00014851154 #
-10 3:0.0073745311 4:-0.017613009 11:-0.00020873938 12:-0.00020873938 13:-0.00020873938 14:-0.00020873938 15:-0.00020873938 16:-0.00020873938 18:-0.00020873938 19:-0.00020873938 28:0.069610409 29:0.081894718 30:0.0035485695 31:-0.00020873938 32:-0.00020873938 33:0.99401689 899:0.00020873938 1801:0.00020873938 2115:0.00020873938 2204:0.00020873938 2323:0.00020873938 2404:0.00020873938 2504:0.00020873938 2602:0.00020873938 2699:0.00020873938 #
7.5 3:0.0059991521 4:-0.017329734 11:-0.00019640425 12:-0.00019640425 13:-0.00019640425 14:-0.00019640425 15:-0.00019640425 16:-0.00019640425 18:-0.00019640425 19:-0.00019640425 28:0.069786355 29:0.082100905 30:0.0035352765 31:0.00019640425 32:-0.00019640425 33:0.99400187 899:0.00019640425 1801:0.00019640425 2115:0.00019640425 2204:0.00019640425 2323:0.00019640425 2404:0.00019640425 2500:0.00019640425 2602:0.00019640425 2699:0.00019640425 #
7.5 3:0.013196354 4:-0.027573284 11:-0.0003145815 12:0.0003145815 13:-0.0003145815 14:0.0003145815 15:-0.0003145815 16:-0.0003145815 18:-0.0003145815 19:-0.0003145815 28:0.092801541 29:0.11317383 30:0.0075499555 31:-0.0003145815 32:-0.0003145815 33:0.9887296 901:0.0003145815 1800:0.0003145815 2119:0.0003145815 2204:0.0003145815 2321:0.0003145815 2404:0.0003145815 2499:0.0003145815 2601:0.0003145815 2700:0.0003145815 #
7.5 3:0.0089562824 4:-0.021685395 11:0.00022930297 12:-0.00022930297 13:-0.00022930297 14:-0.00022930297 15:-0.00022930297 16:-0.00022930297 18:-0.00022930297 19:-0.00022930297 28:0.087692335 29:0.10316799 30:0.027516356 31:0.00022930297 32:-0.00022930297 33:0.99013019 901:0.00022930297 1800:0.00022930297 2101:0.00022930297 2201:0.00022930297 2310:0.00022930297 2401:0.00022930297 2500:0.00022930297 2602:0.00022930297 2702:0.00022930297 #
-10 3:0.0093415165 4:-0.022082157 11:-0.00026859922 12:-0.00026859922 13:-0.00026859922 14:-0.00026859922 15:-0.00026859922 16:-0.00026859922 18:-0.00026859922 19:-0.00026859922 28:0.071036436 29:0.081651479 30:0.0061777821 31:0.00026859922 32:-0.00026859922 33:0.99381715 1801:0.00026859922 2115:0.00026859922 2204:0.00026859922 2314:0.00026859922 2403:0.00026859922 2499:0.00026859922 2600:0.00026859922 2699:0.00026859922 #
7.5 3:0.012779601 4:-0.023130836 11:0.00031297744 12:-0.00031297744 13:-0.00031297744 14:-0.00031297744 15:-0.00031297744 16:-0.00031297744 18:-0.00031297744 19:-0.00031297744 28:0.087946661 29:0.10725111 30:0.0081374133 31:0.00031297744 32:-0.00031297744 33:0.98994768 901:0.00031297744 1800:0.00031297744 2105:0.00031297744 2205:0.00031297744 2501:0.00031297744 2602:0.00031297744 2699:0.00031297744 #
-10 3:0.008843312 4:-0.018647237 11:-0.00021260987 12:-0.00021260987 13:-0.00021260987 14:-0.00021260987 15:-0.00021260987 16:-0.00021260987 18:-0.00021260987 19:-0.00021260987 28:0.069791317 29:0.082107805 30:0.0046774172 31:0.00021260987 32:-0.00021260987 33:0.99395114 900:0.00021260987 1800:0.00021260987 2123:0.00021260987 2204:0.00021260987 2306:0.00021260987 2401:0.00021260987 2504:0.00021260987 2602:0.00021260987 2699:0.00021260987 #
7.5 3:0.010421294 4:-0.018919282 11:-0.00025619633 12:-0.00025619633 13:-0.00025619633 14:-0.00025619633 15:-0.00025619633 16:-0.00025619633 18:-0.00025619633 19:-0.00025619633 28:0.084106699 29:0.096673131 30:0.0089668725 31:0.00025619633 32:0.00025619633 33:0.99147987 901:0.00025619633 1801:0.00025619633 2103:0.00025619633 2205:0.00025619633 2500:0.00025619633 2602:0.00025619633 2700:0.00025619633 #
-10 3:0.0067812512 4:-0.016936807 11:-0.000199794 12:-0.000199794 13:-0.000199794 14:-0.000199794 15:-0.000199794 16:-0.000199794 18:-0.000199794 19:-0.000199794 28:0.067526378 29:0.079442091 30:0.0037960859 31:-0.000199794 32:-0.000199794 33:0.99437475 899:0.000199794 1801:0.000199794 2115:0.000199794 2204:0.000199794 2306:0.000199794 2401:0.000199794 2501:0.000199794 2600:0.000199794 2699:0.000199794 #
7.5 3:0.0085221939 4:-0.016190602 11:-0.00021222133 12:-0.00021222133 13:-0.00021222133 14:-0.00021222133 15:-0.00021222133 16:-0.00021222133 18:-0.00021222133 19:-0.00021222133 28:0.077931918 29:0.091683865 30:0.02079769 31:0.00021222133 32:-0.00021222133 33:0.992347 900:0.00021222133 1799:0.00021222133 2123:0.00021222133 2204:0.00021222133 2307:0.00021222133 2405:0.00021222133 2499:0.00021222133 2600:0.00021222133 2700:0.00021222133 #
-10 3:0.0064438586 4:-0.018467013 11:-0.00022682032 12:-0.00022682032 13:-0.00022682032 14:-0.00022682032 15:-0.00022682032 16:-0.00022682032 18:-0.00022682032 19:-0.00022682032 28:0.065909445 29:0.077540793 30:0.0040827659 31:-0.00022682032 32:-0.00022682032 33:0.99460709 900:0.00022682032 1801:0.00022682032 2115:0.00022682032 2204:0.00022682032 2501:0.00022682032 2602:0.00022682032 2700:0.00022682032 #
-10 3:0.0085229622 4:-0.020772438 11:-0.00024097857 12:-0.00024097857 13:-0.00024097857 14:-0.00024097857 15:-0.00024097857 16:-0.00024097857 18:-0.00024097857 19:-0.00024097857 28:0.067580029 29:0.079506055 30:0.0043376139 31:-0.00024097857 32:-0.00024097857 33:0.99427754 1801:0.00024097857 2115:0.00024097857 2204:0.00024097857 2501:0.00024097857 2602:0.00024097857 2699:0.00024097857 #
7.5 3:0.0063310415 4:-0.020327933 11:-0.00021262537 12:-0.00021262537 13:-0.00021262537 14:-0.00021262537 15:-0.00021262537 16:-0.00021262537 18:-0.00021262537 19:-0.00021262537 28:0.084456921 29:0.099361964 30:0.019136284 31:0.00021262537 32:-0.00021262537 33:0.99104685 901:0.00021262537 1800:0.00021262537 2099:0.00021262537 2202:0.00021262537 2315:0.00021262537 2404:0.00021262537 2501:0.00021262537 2601:0.00021262537 2702:0.00021262537 #
7.5 3:0.0095165223 4:-0.017284455 11:-0.00023294045 12:0.00023294045 13:-0.00023294045 14:-0.00023294045 15:-0.00023294045 16:-0.00023294045 18:-0.00023294045 19:-0.00023294045 28:0.081869252 29:0.096316218 30:0.017470533 31:0.00023294045 32:-0.00023294045 33:0.99162751 1800:0.00023294045 2115:0.00023294045 2204:0.00023294045 2322:0.00023294045 2402:0.00023294045 2501:0.00023294045 2600:0.00023294045 2700:0.00023294045 #
7.5 3:0.0083211306 4:-0.022918947 11:-0.00020446807 12:-0.00020446807 13:-0.00020446807 14:-0.00020446807 15:-0.00020446807 16:-0.00020446807 18:-0.00020446807 19:-0.00020446807 28:0.088798441 29:0.10446887 30:0.0057251058 31:0.00020446807 32:-0.00020446807 33:0.99023885 900:0.00020446807 1801:0.00020446807 2106:0.00020446807 2201:0.00020446807 2315:0.00020446807 2404:0.00020446807 2504:0.00020446807 2601:0.00020446807 2700:0.00020446807 #
-9.9999999999999982236431605997495 3:0.0093751578 4:-0.02246974 11:-0.00027175728 12:0.00027175728 13:-0.00027175728 14:-0.00027175728 15:-0.00027175728 16:-0.00027175728 18:-0.00027175728 19:-0.00027175728 28:0.063708059 29:0.077692688 30:0.0043481165 31:-0.00027175728 32:-0.00027175728 33:0.99463159 899:0.00027175728 1801:0.00027175728 2105:0.00027175728 2205:0.00027175728 2306:0.00027175728 2401:0.00027175728 2500:0.00027175728 2602:0.00027175728 2699:0.00027175728 #
7.5 3:0.0082229739 4:-0.017223174 11:-0.00019638879 12:-0.00019638879 13:-0.00019638879 14:0.00019638879 15:-0.00019638879 16:-0.00019638879 18:0.00019638879 19:-0.00019638879 28:0.086098813 29:0.10129341 30:0.026512487 31:-0.00019638879 32:-0.00019638879 33:0.99058509 901:0.00019638879 1800:0.00019638879 2106:0.00019638879 2201:0.00019638879 2501:0.00019638879 2602:0.00019638879 2702:0.00019638879 #
-10 3:0.010538164 4:-0.027526181 11:-0.00028682459 12:-0.00028682459 13:-0.00028682459 14:-0.00028682459 15:-0.00028682459 16:-0.00028682459 18:-0.00028682459 19:-0.00028682459 28:0.062240936 29:0.075902395 30:0.0071706148 31:0.00028682459 32:-0.00028682459 33:0.9947077 1801:0.00028682459 2123:0.00028682459 2204:0.00028682459 2504:0.00028682459 2602:0.00028682459 2699:0.00028682459 #
-10 3:0.0077502481 4:-0.027003093 11:-0.00022829587 12:-0.00022829587 13:-0.00022829587 14:-0.00022829587 15:-0.00022829587 16:-0.00022829587 18:-0.00022829587 19:-0.00022829587 28:0.52530879 29:0.64062107 30:0.0045659174 31:-0.00022829587 32:-0.00022829587 33:0.55932492 901:0.00022829587 1800:0.00022829587 2115:0.00022829587 2204:0.00022829587 2501:0.00022829587 2601:0.00022829587 2699:0.00022829587 #
-10 3:0.0095302304 4:-0.033042334 11:0.00027860788 12:-0.00027860788 13:-0.00027860788 14:-0.00027860788 15:-0.00027860788 16:-0.00027860788 18:-0.00027860788 19:-0.00027860788 28:0.061731152 29:0.075282641 30:0.0069651972 31:0.00027860788 32:-0.00027860788 33:0.99463016 901:0.00027860788 1800:0.00027860788 2115:0.00027860788 2204:0.00027860788 2323:0.00027860788 2404:0.00027860788 2500:0.00027860788 2602:0.00027860788 2700:0.00027860788 #
7.5 3:0.0077597294 4:-0.015105695 11:-0.00019732701 12:-0.00019732701 13:-0.00019732701 14:0.00019732701 15:-0.00019732701 16:-0.00019732701 18:0.00019732701 19:-0.00019732701 28:0.092212886 29:0.10848644 30:0.011839621 31:-0.00019732701 32:-0.00019732701 33:0.989595 901:0.00019732701 1799:0.00019732701 2115:0.00019732701 2204:0.00019732701 2499:0.00019732701 2602:0.00019732701 2701:0.00019732701 #
-10 3:0.0088821258 4:-0.022907889 11:-0.00023542673 12:0.00023542673 13:-0.00023542673 14:-0.00023542673 15:-0.00023542673 16:-0.00023542673 18:-0.00023542673 19:-0.00023542673 28:0.10410099 29:0.12247134 30:0.0058856686 31:0.00023542673 32:-0.00023542673 33:0.98667347 901:0.00023542673 1801:0.00023542673 2103:0.00023542673 2205:0.00023542673 2500:0.00023542673 2602:0.00023542673 2699:0.00023542673 #
7.5 3:0.0078004836 4:-0.015441443 11:-0.0002005671 12:-0.0002005671 13:-0.0002005671 14:-0.0002005671 15:-0.0002005671 16:-0.0002005671 18:0.0002005671 19:-0.0002005671 28:0.14300835 29:0.16824572 30:0.0032090736 31:-0.0002005671 32:-0.0002005671 33:0.97515726 901:0.0002005671 1799:0.0002005671 2105:0.0002005671 2205:0.0002005671 2315:0.0002005671 2404:0.0002005671 2504:0.0002005671 2602:0.0002005671 2699:0.0002005671 #
-10 3:0.012457011 4:-0.022574561 11:-0.00030596991 12:-0.00030596991 13:-0.00030596991 14:-0.00030596991 15:-0.00030596991 16:-0.00030596991 18:-0.00030596991 19:-0.00030596991 28:0.1404402 29:0.17126971 30:0.0015298496 31:-0.00030596991 32:-0.00030596991 33:0.97482014 901:0.00030596991 1801:0.00030596991 2124:0.00030596991 2199:0.00030596991 2315:0.00030596991 2404:0.00030596991 2500:0.00030596991 2602:0.00030596991 2701:0.00030596991 #
7.5 3:0.01266438 4:-0.022890754 11:-0.00030992349 12:-0.00030992349 13:-0.00030992349 14:-0.00030992349 15:-0.00030992349 16:-0.00030992349 18:-0.00030992349 19:-0.00030992349 28:0.14070526 29:0.17159224 30:0.0037190816 31:-0.00030992349 32:-0.00030992349 33:0.97470933 901:0.00030992349 1800:0.00030992349 2124:0.00030992349 2199:0.00030992349 2499:0.00030992349 2602:0.00030992349 2700:0.00030992349 #
-10 3:0.010343163 4:-0.018361358 11:-0.00025094318 12:-0.00025094318 13:-0.00025094318 14:-0.00025094318 15:-0.00025094318 16:-0.00025094318 18:-0.00025094318 19:-0.00025094318 28:0.14344665 29:0.1687618 30:0.0062735798 31:-0.00025094318 32:-0.00025094318 33:0.97491425 901:0.00025094318 1800:0.00025094318 2123:0.00025094318 2204:0.00025094318 2306:0.00025094318 2401:0.00025094318 2500:0.00025094318 2602:0.00025094318 2699:0.00025094318 #
7.5 3:0.0083688833 4:-0.015269376 11:-0.00020575404 12:-0.00020575404 13:-0.00020575404 14:-0.00020575404 15:-0.00020575404 16:-0.00020575404 18:-0.00020575404 19:-0.00020575404 28:0.14438584 29:0.16986641 30:0.0061726212 31:0.00020575404 32:-0.00020575404 33:0.97465688 900:0.00020575404 1799:0.00020575404 2105:0.00020575404 2205:0.00020575404 2317:0.00020575404 2405:0.00020575404 2501:0.00020575404 2602:0.00020575404 2699:0.00020575404 #
-10 3:0.0051828437 4:-0.015577758 11:-0.00019437878 12:-0.00019437878 13:-0.00019437878 14:-0.00019437878 15:-0.00019437878 16:-0.00019437878 18:-0.00019437878 19:-0.00019437878 28:0.14232026 29:0.16743594 30:0.0069976365 31:-0.00019437878 32:-0.00019437878 33:0.97539276 900:0.00019437878 1800:0.00019437878 2110:0.00019437878 2201:0.00019437878 2501:0.00019437878 2601:0.00019437878 2699:0.00019437878 #
7.5 3:0.0057436279 4:-0.018472185 11:-0.00019387346 12:-0.00019387346 13:-0.00019387346 14:-0.00019387346 15:-0.00019387346 16:-0.00019387346 18:-0.00019387346 19:-0.00019387346 28:0.14000185 29:0.16470714 30:0.004652963 31:-0.00019387346 32:-0.00019387346 33:0.9761529 901:0.00019387346 1800:0.00019387346 2115:0.00019387346 2204:0.00019387346 2323:0.00019387346 2404:0.00019387346 2499:0.00019387346 2601:0.00019387346 2699:0.00019387346 #
-10 3:0.0078097438 4:-0.017917249 11:-0.00022131417 12:-0.00022131417 13:-0.00022131417 14:-0.00022131417 15:-0.00022131417 16:-0.00022131417 18:-0.00022131417 19:-0.00022131417 28:0.13915572 29:0.16371273 30:0.0044262833 31:-0.00022131417 32:-0.00022131417 33:0.97643811 901:0.00022131417 1801:0.00022131417 2115:0.00022131417 2204:0.00022131417 2499:0.00022131417 2601:0.00022131417 2699:0.00022131417 #
7.5 3:0.0058313911 4:-0.018496566 11:-0.00019392381 12:-0.00019392381 13:-0.00019392381 14:-0.00019392381 15:-0.00019392381 16:-0.00019392381 18:-0.00019392381 19:-0.00019392381 28:0.13805048 29:0.16241314 30:0.0077569527 31:-0.00019392381 32:-0.00019392381 33:0.97679424 900:0.00019392381 1801:0.00019392381 2106:0.00019392381 2201:0.00019392381 2300:0.00019392381 2401:0.00019392381 2501:0.00019392381 2601:0.00019392381 2700:0.00019392381 #
-10 3:0.0072654313 4:-0.022398038 11:-0.00027507046 12:-0.00027507046 13:-0.00027507046 14:-0.00027507046 15:-0.00027507046 16:-0.00027507046 18:-0.00027507046 19:-0.00027507046 28:0.13405284 29:0.16347988 30:0.011002819 31:0.00027507046 32:-0.00027507046 33:0.9770503 1801:0.00027507046 2115:0.00027507046 2204:0.00027507046 2305:0.00027507046 2405:0.00027507046 2500:0.00027507046 2602:0.00027507046 2699:0.00027507046 #
7.5 3:0.0099305017 4:-0.025123693 11:-0.00027700639 12:-0.00027700639 13:-0.00027700639 14:-0.00027700639 15:-0.00027700639 16:-0.00027700639 18:-0.00027700639 19:-0.00027700639 28:0.13142015 29:0.16026759 30:0.012465288 31:-0.00027700639 32:-0.00027700639 33:0.97783256 901:0.00027700639 1800:0.00027700639 2101:0.00027700639 2201:0.00027700639 2500:0.00027700639 2602:0.00027700639 2701:0.00027700639 #
-10 3:0.012702668 4:-0.026371084 11:0.00028289831 12:-0.00028289831 13:-0.00028289831 14:-0.00028289831 15:-0.00028289831 16:-0.00028289831 18:-0.00028289831 19:-0.00028289831 28:0.12900163 29:0.15731975 30:0.014144916 31:-0.00028289831 32:-0.00028289831 33:0.97854525 901:0.00028289831 1801:0.00028289831 2121:0.00028289831 2204:0.00028289831 2504:0.00028289831 2601:0.00028289831 2699:0.00028289831 #
7.5 3:0.012584127 4:-0.029575029 11:-0.00036245264 12:-0.00036245264 13:-0.00036245264 14:-0.00036245264 15:-0.00036245264 16:-0.00036245264 18:-0.00036245264 19:-0.00036245264 28:0.12939559 29:0.15780102 30:0.018122632 31:-0.00036245264 32:-0.00036245264 33:0.97825968 1801:0.00036245264 2124:0.00036245264 2199:0.00036245264 2500:0.00036245264 2602:0.00036245264 2699:0.00036245264 #
-10 3:0.01382234 4:-0.033185299 11:-0.00039971314 12:-0.00039971314 13:-0.00039971314 14:-0.00039971314 15:-0.00039971314 16:-0.00039971314 18:-0.00039971314 19:-0.00039971314 28:0.1306982 29:0.15938962 30:0.017987091 31:-0.00039971314 32:-0.00039971314 33:0.97769833 899:0.00039971314 1801:0.00039971314 2101:0.00039971314 2201:0.00039971314 2300:0.00039971314 2401:0.00039971314 2500:0.00039971314 2601:0.00039971314 2700:0.00039971314 #
7.5 3:0.014289792 4:-0.030857448 11:-0.0003588087 12:-0.0003588087 13:-0.0003588087 14:-0.0003588087 15:-0.0003588087 16:-0.0003588087 18:-0.0003588087 19:-0.0003588087 28:0.1320416 29:0.16102616 30:0.013275921 31:-0.0003588087 32:-0.0003588087 33:0.97739488 900:0.0003588087 1801:0.0003588087 2106:0.0003588087 2201:0.0003588087 2500:0.0003588087 2602:0.0003588087 2701:0.0003588087 #
-10 3:0.013048089 4:-0.025866356 11:-0.00032323273 12:-0.00032323273 13:-0.00032323273 14:-0.00032323273 15:-0.00032323273 16:-0.00032323273 18:-0.00032323273 19:-0.00032323273 28:0.13349512 29:0.1627994 30:0.0067878873 31:-0.00032323273 32:-0.00032323273 33:0.97713256 900:0.00032323273 1800:0.00032323273 2115:0.00032323273 2204:0.00032323273 2315:0.00032323273 2404:0.00032323273 2499:0.00032323273 2600:0.00032323273 2700:0.00032323273 #
7.5 3:0.014780561 4:-0.023777308 11:-0.00033844396 12:-0.00033844396 13:-0.00033844396 14:-0.00033844396 15:-0.00033844396 16:-0.00033844396 18:-0.00033844396 19:-0.00033844396 28:0.1347007 29:0.16427054 30:0.006768879 31:-0.00033844396 32:-0.00033844396 33:0.97674924 901:0.00033844396 1800:0.00033844396 2108:0.00033844396 2203:0.00033844396 2300:0.00033844396 2401:0.00033844396 2502:0.00033844396 2602:0.00033844396 2699:0.00033844396 #
7.5 3:0.010525287 4:-0.027164537 11:-0.00028638935 12:-0.00028638935 13:-0.00028638935 14:-0.00028638935 15:-0.00028638935 16:-0.00028638935 18:-0.00028638935 19:-0.00028638935 28:0.13173911 29:0.1606587 30:0.0045822295 31:-0.00028638935 32:-0.00028638935 33:0.97773325 899:0.00028638935 1801:0.00028638935 2105:0.00028638935 2205:0.00028638935 2306:0.00028638935 2401:0.00028638935 2500:0.00028638935 2602:0.00028638935 2699:0.00028638935 #
-10 3:0.0088742133 4:-0.025560474 11:-0.00031683745 12:-0.00031683745 13:-0.00031683745 14:-0.00031683745 15:-0.00031683745 16:-0.00031683745 18:-0.00031683745 19:-0.00031683745 28:0.13370541 29:0.16305405 30:0.0050693993 31:-0.00031683745 32:-0.00031683745 33:0.97712666 901:0.00031683745 1800:0.00031683745 2105:0.00031683745 2205:0.00031683745 2315:0.00031683745 2404:0.00031683745 2504:0.00031683745 2602:0.00031683745 2699:0.00031683745 #
7.5 3:0.010980751 4:-0.025474021 11:-0.00028655768 12:-0.00028655768 13:-0.00028655768 14:-0.00028655768 15:-0.00028655768 16:-0.00028655768 18:-0.00028655768 19:-0.00028655768 28:0.13353588 29:0.16284786 30:0.0057311533 31:-0.00028655768 32:-0.00028655768 33:0.97716165 1801:0.00028655768 2105:0.00028655768 2205:0.00028655768 2307:0.00028655768 2405:0.00028655768 2504:0.00028655768 2602:0.00028655768 2699:0.00028655768 #
-10 3:0.012382532 4:-0.025490992 11:-0.00029522122 12:-0.00029522122 13:-0.00029522122 14:-0.00029522122 15:-0.00029522122 16:-0.00029522122 18:-0.00029522122 19:-0.00029522122 28:0.12986487 29:0.15837143 30:0.0073805307 31:-0.00029522122 32:-0.00029522122 33:0.97836316 1801:0.00029522122 2106:0.00029522122 2201:0.00029522122 2303:0.00029522122 2405:0.00029522122 2501:0.00029522122 2601:0.00029522122 2700:0.00029522122 #
7.5 3:0.010904625 4:-0.026511919 11:-0.00033054929 12:-0.00033054929 13:-0.00033054929 14:-0.00033054929 15:-0.00033054929 16:-0.00033054929 18:-0.00033054929 19:-0.00033054929 28:0.12759203 29:0.15559947 30:0.008594282 31:-0.00033054929 32:-0.00033054929 33:0.979087 899:0.00033054929 1800:0.00033054929 2115:0.00033054929 2204:0.00033054929 2299:0.00033054929 2402:0.00033054929 2499:0.00033054929 2601:0.00033054929 2699:0.00033054929 #
-10 3:0.011814109 4:-0.024905138 11:-0.00027955745 12:-0.00027955745 13:-0.00027955745 14:-0.00027955745 15:-0.00027955745 16:-0.00027955745 18:-0.00027955745 19:-0.00027955745 28:0.12620062 29:0.15390198 30:0.0083867237 31:0.00027955745 32:-0.00027955745 33:0.97956932 901:0.00027955745 1801:0.00027955745 2103:0.00027955745 2205:0.00027955745 2500:0.00027955745 2602:0.00027955745 2700:0.00027955745 #
7.5 3:0.0124536 4:-0.022633225 11:-0.00030602101 12:-0.00030602101 13:-0.00030602101 14:-0.00030602101 15:-0.00030602101 16:-0.00030602101 18:-0.00030602101 19:-0.00030602101 28:0.12638667 29:0.15413055 30:0.0061204201 31:0.00030602101 32:-0.00030602101 33:0.97957325 901:0.00030602101 1801:0.00030602101 2121:0.00030602101 2204:0.00030602101 2500:0.00030602101 2602:0.00030602101 2699:0.00030602101 #
-10 3:0.010628418 4:-0.025873965 11:-0.00031679281 12:-0.00031679281 13:-0.00031679281 14:-0.00031679281 15:-0.00031679281 16:-0.00031679281 18:-0.00031679281 19:-0.00031679281 28:0.1273507 29:0.15530451 30:0.0057022702 31:-0.00031679281 32:-0.00031679281 33:0.97920656 900:0.00031679281 1801:0.00031679281 2115:0.00031679281 2204:0.00031679281 2299:0.00031679281 2402:0.00031679281 2500:0.00031679281 2602:0.00031679281 2699:0.00031679281 #
7.5 3:0.0097600641 4:-0.026835667 11:-0.00027684492 12:-0.00027684492 13:-0.00027684492 14:-0.00027684492 15:-0.00027684492 16:-0.00027684492 18:-0.00027684492 19:-0.00027684492 28:0.12902081 29:0.15734205 30:0.0055368985 31:-0.00027684492 32:-0.00027684492 33:0.97864681 899:0.00027684492 1801:0.00027684492 2106:0.00027684492 2201:0.00027684492 2300:0.00027684492 2401:0.00027684492 2500:0.00027684492 2602:0.00027684492 2699:0.00027684492 #
-10 3:0.0083621852 4:-0.024874073 11:-0.00030175087 12:-0.00030175087 13:-0.00030175087 14:-0.00030175087 15:-0.00030175087 16:-0.00030175087 18:-0.00030175087 19:-0.00030175087 28:0.13035639 29:0.15897141 30:0.0045262631 31:-0.00030175087 32:-0.00030175087 33:0.97827637 899:0.00030175087 1801:0.00030175087 2115:0.00030175087 2204:0.00030175087 2500:0.00030175087 2602:0.00030175087 2699:0.00030175087 #
7.5 3:0.0088418461 4:-0.023098452 11:-0.00027679233 12:-0.00027679233 13:-0.00027679233 14:-0.00027679233 15:-0.00027679233 16:-0.00027679233 18:-0.00027679233 19:-0.00027679233 28:0.12820467 29:0.15634614 30:0.0060894312 31:-0.00027679233 32:-0.00027679233 33:0.97901446 899:0.00027679233 1801:0.00027679233 2122:0.00027679233 2202:0.00027679233 2500:0.00027679233 2602:0.00027679233 2702:0.00027679233 #
-10 3:0.011505923 4:-0.020859208 11:-0.0002828986 12:-0.0002828986 13:-0.0002828986 14:-0.0002828986 15:-0.0002828986 16:-0.0002828986 18:-0.0002828986 19:-0.0002828986 28:0.12617278 29:0.15386856 30:0.0082040597 31:0.0002828986 32:-0.0002828986 33:0.97967786 901:0.0002828986 1801:0.0002828986 2106:0.0002828986 2201:0.0002828986 2500:0.0002828986 2602:0.0002828986 2699:0.0002828986 #
7.5 3:0.011629918 4:-0.019871339 11:-0.00027820133 12:0.00027820133 13:-0.00027820133 14:-0.00027820133 15:-0.00027820133 16:-0.00027820133 18:-0.00027820133 19:-0.00027820133 28:0.12492075 29:0.15234305 30:0.0072332346 31:-0.00027820133 32:-0.00027820133 33:0.98010331 901:0.00027820133 1800:0.00027820133 2124:0.00027820133 2199:0.00027820133 2324:0.00027820133 2399:0.00027820133 2500:0.00027820133 2602:0.00027820133 2700:0.00027820133 #
-10 3:0.010336481 4:-0.017222259 11:-0.00024197246 12:-0.00024197246 13:-0.00024197246 14:-0.00024197246 15:-0.00024197246 16:-0.00024197246 18:0.00024197246 19:-0.00024197246 28:0.12582085 29:0.14802423 30:0.0072591738 31:-0.00024197246 32:-0.00024197246 33:0.98071438 900:0.00024197246 1800:0.00024197246 2106:0.00024197246 2201:0.00024197246 2323:0.00024197246 2404:0.00024197246 2501:0.00024197246 2602:0.00024197246 2701:0.00024197246 #
7.5 3:0.0091701513 4:-0.016686426 11:-0.00022552678 12:-0.00022552678 13:-0.00022552678 14:-0.00022552678 15:-0.00022552678 16:-0.00022552678 18:-0.00022552678 19:0.00022552678 28:0.1248223 29:0.1468495 30:0.0069913301 31:-0.00022552678 32:-0.00022552678 33:0.98104143 901:0.00022552678 1800:0.00022552678 2115:0.00022552678 2204:0.00022552678 2500:0.00022552678 2602:0.00022552678 2699:0.00022552678 #
-10 3:0.0093696145 4:-0.019601693 11:-0.00022352314 12:-0.00022352314 13:-0.00022352314 14:-0.00022352314 15:-0.00022352314 16:-0.00022352314 18:-0.00022352314 19:-0.00022352314 28:0.12394135 29:0.14581309 30:0.0044704629 31:-0.00022352314 32:-0.00022352314 33:0.98126662 901:0.00022352314 1800:0.00022352314 2105:0.00022352314 2205:0.00022352314 2324:0.00022352314 2399:0.00022352314 2501:0.00022352314 2602:0.00022352314 2699:0.00022352314 #
7.5 3:0.0082949884 4:-0.018182823 11:-0.00019745393 12:-0.00019745393 13:-0.00019745393 14:-0.00019745393 15:-0.00019745393 16:-0.00019745393 18:-0.00019745393 19:-0.00019745393 28:0.12381744 29:0.14566769 30:0.0031592629 31:-0.00019745393 32:-0.00019745393 33:0.98134601 899:0.00019745393 1801:0.00019745393 2115:0.00019745393 2204:0.00019745393 2306:0.00019745393 2401:0.00019745393 2501:0.00019745393 2600:0.00019745393 2699:0.00019745393 #
-10 3:0.0083762854 4:-0.017619075 11:-0.00020088852 12:0.00020088852 13:-0.00020088852 14:-0.00020088852 15:-0.00020088852 16:-0.00020088852 18:-0.00020088852 19:-0.00020088852 28:0.12388192 29:0.14574261 30:0.0014062197 31:-0.00020088852 32:-0.00020088852 33:0.98134041 901:0.00020088852 1801:0.00020088852 2124:0.00020088852 2199:0.00020088852 2315:0.00020088852 2404:0.00020088852 2501:0.00020088852 2600:0.00020088852 2701:0.00020088852 #
-10 3:0.0092191827 4:-0.016790852 11:-0.00022695883 12:-0.00022695883 13:-0.00022695883 14:-0.00022695883 15:-0.00022695883 16:-0.00022695883 18:-0.00022695883 19:-0.00022695883 28:0.12446195 29:0.14642476 30:0.0077165999 31:-0.00022695883 32:-0.00022695883 33:0.981143 901:0.00022695883 1799:0.00022695883 2114:0.00022695883 2203:0.00022695883 2325:0.00022695883 2403:0.00022695883 2499:0.00022695883 2602:0.00022695883 2702:0.00022695883 #
-10 3:0.0069133793 4:-0.016264196 11:-0.00019777297 12:-0.00019777297 13:-0.00019777297 14:-0.00019777297 15:-0.00019777297 16:-0.00019777297 18:-0.00019777297 19:-0.00019777297 28:0.12391861 29:0.14578636 30:0.0055376431 31:-0.00019777297 32:-0.00019777297 33:0.98134947 900:0.00019777297 1801:0.00019777297 2106:0.00019777297 2201:0.00019777297 2323:0.00019777297 2404:0.00019777297 2501:0.00019777297 2602:0.00019777297 2700:0.00019777297 #
7.5 3:0.0080373418 4:-0.015125885 11:-0.00020029419 12:-0.00020029419 13:-0.00020029419 14:-0.00020029419 15:-0.00020029419 16:-0.00020029419 18:-0.00020029419 19:-0.00020029419 28:0.12229363 29:0.14387533 30:0.0060088257 31:-0.00020029419 32:-0.00020029419 33:0.98184216 900:0.00020029419 1801:0.00020029419 2115:0.00020029419 2204:0.00020029419 2499:0.00020029419 2601:0.00020029419 2700:0.00020029419 #
-10 3:0.0084276963 4:-0.016444733 11:-0.00021454395 12:-0.00021454395 13:-0.00021454395 14:-0.00021454395 15:-0.00021454395 16:-0.00021454395 18:-0.00021454395 19:-0.00021454395 28:0.12104999 29:0.14241213 30:0.0064363186 31:-0.00021454395 32:-0.00021454395 33:0.9821822 901:0.00021454395 1801:0.00021454395 2115:0.00021454395 2204:0.00021454395 2306:0.00021454395 2401:0.00021454395 2501:0.00021454395 2602:0.00021454395 2699:0.00021454395 #
7.5 3:0.0063284291 4:-0.018274229 11:-0.00020644921 12:-0.00020644921 13:-0.00020644921 14:-0.00020644921 15:-0.00020644921 16:-0.00020644921 18:-0.00020644921 19:-0.00020644921 28:0.1206675 29:0.14196274 30:0.0051612305 31:-0.00020644921 32:-0.00020644921 33:0.98228532 899:0.00020644921 1800:0.00020644921 2105:0.00020644921 2205:0.00020644921 2306:0.00020644921 2401:0.00020644921 2501:0.00020644921 2601:0.00020644921 2699:0.00020644921 #
-10 3:0.0068979044 4:-0.01628739 11:-0.00019759912 12:-0.00019759912 13:-0.00019759912 14:-0.00019759912 15:-0.00019759912 16:-0.00019759912 18:-0.00019759912 19:-0.00019759912 28:0.12153926 29:0.14298667 30:0.0035567842 31:-0.00019759912 32:-0.00019759912 33:0.98206764 900:0.00019759912 1801:0.00019759912 2115:0.00019759912 2204:0.00019759912 2499:0.00019759912 2602:0.00019759912 2699:0.00019759912 #
-10 3:0.0081064273 4:-0.018884931 11:-0.0002306339 12:-0.0002306339 13:-0.0002306339 14:-0.0002306339 15:-0.0002306339 16:-0.0002306339 18:-0.0002306339 19:-0.0002306339 28:0.49148083 29:0.59936678 30:0.0046126777 31:-0.0002306339 32:-0.0002306339 33:0.63147563 899:0.0002306339 1800:0.0002306339 2101:0.0002306339 2201:0.0002306339 2306:0.0002306339 2401:0.0002306339 2500:0.0002306339 2602:0.0002306339 2700:0.0002306339 #
7.5 3:0.0084812576 4:-0.0173817 11:-0.00019751454 12:-0.00019751454 13:-0.00019751454 14:-0.00019751454 15:-0.00019751454 16:-0.00019751454 18:-0.00019751454 19:-0.00019751454 28:0.12137268 29:0.14279115 30:0.0098757269 31:-0.00019751454 32:-0.00019751454 33:0.98204225 900:0.00019751454 1801:0.00019751454 2123:0.00019751454 2204:0.00019751454 2315:0.00019751454 2404:0.00019751454 2500:0.00019751454 2600:0.00019751454 2699:0.00019751454 #
-10 3:0.009707015 4:-0.019755252 11:-0.00024818169 12:-0.00024818169 13:-0.00024818169 14:-0.00024818169 15:-0.00024818169 16:-0.00024818169 18:-0.00024818169 19:-0.00024818169 28:0.12031353 29:0.14154547 30:0.0091827232 31:-0.00024818169 32:-0.00024818169 33:0.9823032 899:0.00024818169 1800:0.00024818169 2119:0.00024818169 2204:0.00024818169 2320:0.00024818169 2405:0.00024818169 2501:0.00024818169 2601:0.00024818169 2701:0.00024818169 #
7.5 3:0.0087374644 4:-0.018885916 11:-0.0002192189 12:-0.0002192189 13:-0.0002192189 14:-0.0002192189 15:-0.0002192189 16:-0.0002192189 18:-0.0002192189 19:-0.0002192189 28:0.11809322 29:0.13893217 30:0.0085495366 31:0.0002192189 32:-0.0002192189 33:0.98297751 901:0.0002192189 1801:0.0002192189 2115:0.0002192189 2204:0.0002192189 2323:0.0002192189 2404:0.0002192189 2504:0.0002192189 2600:0.0002192189 2699:0.0002192189 #
-10 3:0.0060199765 4:-0.017188866 11:-0.00021134572 12:-0.00021134572 13:-0.00021134572 14:-0.00021134572 15:-0.00021134572 16:-0.00021134572 18:-0.00021134572 19:-0.00021134572 28:0.11613024 29:0.13662444 30:0.0063403714 31:-0.00021134572 32:-0.00021134572 33:0.98360294 900:0.00021134572 1801:0.00021134572 2124:0.00021134572 2199:0.00021134572 2305:0.00021134572 2405:0.00021134572 2501:0.00021134572 2601:0.00021134572 2699:0.00021134572 #
7.5 3:0.0070860805 4:-0.015671032 11:-0.00019603415 12:-0.00019603415 13:-0.00019603415 14:-0.00019603415 15:-0.00019603415 16:-0.00019603415 18:-0.00019603415 19:-0.00019603415 28:0.11589147 29:0.13634372 30:0.0043127513 31:-0.00019603415 32:-0.00019603415 33:0.98369938 901:0.00019603415 1801:0.00019603415 2115:0.00019603415 2204:0.00019603415 2306:0.00019603415 2401:0.00019603415 2501:0.00019603415 2600:0.00019603415 2699:0.00019603415 #
-10 3:0.0082022622 4:-0.014851588 11:-0.00020096729 12:-0.00020096729 13:-0.00020096729 14:-0.00020096729 15:-0.00020096729 16:-0.00020096729 18:-0.00020096729 19:-0.00020096729 28:0.11577123 29:0.13620156 30:0.0048232148 31:0.00020096729 32:-0.00020096729 33:0.98373491 901:0.00020096729 1800:0.00020096729 2115:0.00020096729 2204:0.00020096729 2499:0.00020096729 2602:0.00020096729 2699:0.00020096729 #
7.5 3:0.0083915405 4:-0.013968456 11:-0.00019611722 12:-0.00019611722 13:-0.00019611722 14:-0.00019611722 15:-0.00019611722 16:-0.00019611722 18:-0.00019611722 19:-0.00019611722 28:0.11517376 29:0.13549936 30:0.0031378756 31:0.00019611722 32:-0.00019611722 33:0.98392016 900:0.00019611722 1800:0.00019611722 2106:0.00019611722 2201:0.00019611722 2323:0.00019611722 2404:0.00019611722 2501:0.00019611722 2600:0.00019611722 2700:0.00019611722 #
-10 3:0.0091038784 4:-0.016471306 11:-0.00022281913 12:-0.00022281913 13:-0.00022281913 14:-0.00022281913 15:-0.00022281913 16:-0.00022281913 18:-0.00022281913 19:-0.00022281913 28:0.11484098 29:0.13510638 30:0.0026738297 31:-0.00022281913 32:-0.00022281913 33:0.98396927 901:0.00022281913 1800:0.00022281913 2115:0.00022281913 2204:0.00022281913 2323:0.00022281913 2404:0.00022281913 2499:0.00022281913 2602:0.00022281913 2700:0.00022281913 #
7.5 3:0.0095728152 4:-0.019259991 11:-0.00019771505 12:-0.00019771505 13:0.00019771505 14:-0.00019771505 15:-0.00019771505 16:-0.00019771505 18:-0.00019771505 19:-0.00019771505 28:0.11511169 29:0.13542493 30:0.0049428763 31:-0.00019771505 32:-0.00019771505 33:0.98383015 1801:0.00019771505 2123:0.00019771505 2204:0.00019771505 2501:0.00019771505 2601:0.00019771505 2701:0.00019771505 #
-10 3:0.009004862 4:-0.01882424 11:-0.00021471847 12:0.00021471847 13:-0.00021471847 14:-0.00021471847 15:-0.00021471847 16:-0.00021471847 18:-0.00021471847 19:-0.00021471847 28:0.11662863 29:0.1372094 30:0.0062268353 31:-0.00021471847 32:-0.00021471847 33:0.9834106 901:0.00021471847 1800:0.00021471847 2115:0.00021471847 2204:0.00021471847 2499:0.00021471847 2600:0.00021471847 2700:0.00021471847 #
-10 3:0.0072654672 4:-0.017558323 11:-0.00021021509 12:-0.00021021509 13:-0.00021021509 14:-0.00021021509 15:-0.00021021509 16:-0.00021021509 18:-0.00021021509 19:-0.00021021509 28:0.11819554 29:0.13905308 30:0.010510755 31:-0.00021021509 32:-0.00021021509 33:0.98296577 1801:0.00021021509 2115:0.00021021509 2204:0.00021021509 2324:0.00021021509 2399:0.00021021509 2501:0.00021021509 2601:0.00021021509 2701:0.00021021509 #
7.5 3:0.0086060585 4:-0.015579004 11:-0.00021085312 12:-0.00021085312 13:-0.00021085312 14:-0.00021085312 15:-0.00021085312 16:-0.00021085312 18:-0.00021085312 19:-0.00021085312 28:0.11733766 29:0.13804343 30:0.012651187 31:-0.00021085312 32:-0.00021085312 33:0.98320812 901:0.00021085312 1800:0.00021085312 2115:0.00021085312 2204:0.00021085312 2321:0.00021085312 2404:0.00021085312 2501:0.00021085312 2602:0.00021085312 2701:0.00021085312 #
-10 3:0.0068816724 4:-0.018996565 11:-0.00019475906 12:-0.00019475906 13:-0.00019475906 14:-0.00019475906 15:-0.00019475906 16:-0.00019475906 18:-0.00019475906 19:-0.00019475906 28:0.11797725 29:0.138797 30:0.014801688 31:0.00019475906 32:-0.00019475906 33:0.98294902 901:0.00019475906 1801:0.00019475906 2106:0.00019475906 2201:0.00019475906 2324:0.00019475906 2399:0.00019475906 2501:0.00019475906 2600:0.00019475906 2700:0.00019475906 #
7.5 3:0.0063952594 4:-0.018905645 11:-0.00020983224 12:-0.00020983224 13:-0.00020983224 14:-0.00020983224 15:-0.00020983224 16:-0.00020983224 18:-0.00020983224 19:-0.00020983224 28:0.11900426 29:0.14000426 30:0.015737418 31:-0.00020983224 32:-0.00020983224 33:0.98264438 900:0.00020983224 1800:0.00020983224 2115:0.00020983224 2204:0.00020983224 2324:0.00020983224 2399:0.00020983224 2501:0.00020983224 2601:0.00020983224 2701:0.00020983224 #
-10 3:0.0073920474 4:-0.015239803 11:-0.00019413132 12:-0.00019413132 13:-0.00019413132 14:-0.00019413132 15:-0.00019413132 16:-0.00019413132 18:-0.00019413132 19:-0.00019413132 28:0.12146797 29:0.14290395 30:0.019413132 31:-0.00019413132 32:-0.00019413132 33:0.98191625 1800:0.00019413132 2115:0.00019413132 2204:0.00019413132 2321:0.00019413132 2404:0.00019413132 2499:0.00019413132 2602:0.00019413132 2699:0.00019413132 #
7.5 3:0.0086426185 4:-0.015652748 11:-0.00021174469 12:-0.00021174469 13:-0.00021174469 14:-0.00021174469 15:-0.00021174469 16:-0.00021174469 18:-0.00021174469 19:-0.00021174469 28:0.12361231 29:0.14542626 30:0.021174468 31:-0.00021174469 32:-0.00021174469 33:0.98122489 901:0.00021174469 1800:0.00021174469 2106:0.00021174469 2201:0.00021174469 2315:0.00021174469 2404:0.00021174469 2500:0.00021174469 2602:0.00021174469 2700:0.00021174469 #
7.5 3:0.0050490228 4:-0.015630769 11:-0.00019493453 12:-0.00019493453 13:-0.00019493453 14:-0.00019493453 15:-0.00019493453 16:-0.00019493453 18:-0.00019493453 19:-0.00019493453 28:0.11954555 29:0.14064136 30:0.020273192 31:-0.00019493453 32:-0.00019493453 33:0.98247004 900:0.00019493453 1800:0.00019493453 2119:0.00019493453 2204:0.00019493453 2504:0.00019493453 2602:0.00019493453 2700:0.00019493453 #
-10 3:0.0092685269 4:-0.017663775 11:-0.0002299492 12:-0.0002299492 13:-0.0002299492 14:-0.0002299492 15:-0.0002299492 16:-0.0002299492 18:-0.0002299492 19:-0.0002299492 28:0.12034161 29:0.14157742 30:0.022994921 31:-0.0002299492 32:-0.0002299492 33:0.98211306 900:0.0002299492 1801:0.0002299492 2099:0.0002299492 2202:0.0002299492 2315:0.0002299492 2404:0.0002299492 2499:0.0002299492 2600:0.0002299492 2700:0.0002299492 #
7.5 3:0.0089012375 4:-0.020318385 11:-0.00025018863 12:-0.00025018863 13:-0.00025018863 14:-0.00025018863 15:-0.00025018863 16:-0.00025018863 18:-0.00025018863 19:-0.00025018863 28:0.12121388 29:0.14260501 30:0.025769427 31:-0.00025018863 32:0.00025018863 33:0.98174018 1799:0.00025018863 2115:0.00025018863 2204:0.00025018863 2323:0.00025018863 2404:0.00025018863 2499:0.00025018863 2601:0.00025018863 2701:0.00025018863 #
-10 3:0.0069265682 4:-0.02405653 11:-0.00020350238 12:0.00020350238 13:-0.00020350238 14:-0.00020350238 15:-0.00020350238 16:-0.00020350238 18:-0.00020350238 19:-0.00020350238 28:0.11836309 29:0.13925058 30:0.025437798 31:-0.00020350238 32:-0.00020350238 33:0.98250949 901:0.00020350238 1800:0.00020350238 2108:0.00020350238 2203:0.00020350238 2314:0.00020350238 2403:0.00020350238 2501:0.00020350238 2602:0.00020350238 2701:0.00020350238 #
7.5 3:0.009808097 4:-0.026748722 11:-0.00023883065 12:-0.00023883065 13:-0.00023883065 14:-0.00023883065 15:-0.00023883065 16:-0.00023883065 18:-0.00023883065 19:-0.00023883065 28:0.11464588 29:0.13487722 30:0.023883065 31:0.00023883065 32:-0.00023883065 33:0.98350459 900:0.00023883065 1801:0.00023883065 2113:0.00023883065 2200:0.00023883065 2302:0.00023883065 2400:0.00023883065 2500:0.00023883065 2600:0.00023883065 2701:0.00023883065 #
-10 3:0.010759333 4:-0.027245203 11:-0.00028766828 12:-0.00028766828 13:-0.00028766828 14:-0.00028766828 15:-0.00028766828 16:-0.00028766828 18:-0.00028766828 19:-0.00028766828 28:0.11319459 29:0.13804339 30:0.022150459 31:-0.00028766828 32:-0.00028766828 33:0.9832502 1801:0.00028766828 2103:0.00028766828 2205:0.00028766828 2500:0.00028766828 2602:0.00028766828 2699:0.00028766828 #
7.5 3:0.0081135575 4:-0.028249323 11:0.00023871058 12:-0.00023871058 13:-0.00023871058 14:-0.00023871058 15:-0.00023871058 16:0.00023871058 18:-0.00023871058 19:-0.00023871058 28:0.11819039 29:0.13904652 30:0.021483952 31:-0.00023871058 32:-0.00023871058 33:0.98253274 901:0.00023871058 1801:0.00023871058 2106:0.00023871058 2201:0.00023871058 2314:0.00023871058 2403:0.00023871058 2501:0.00023871058 2601:0.00023871058 2699:0.00023871058 #
-10 3:0.0082576359 4:-0.028655808 11:0.00024169296 12:-0.00024169296 13:-0.00024169296 14:-0.00024169296 15:-0.00024169296 16:-0.00024169296 18:-0.00024169296 19:-0.00024169296 28:0.11917639 29:0.14020851 30:0.021268981 31:-0.00024169296 32:-0.00024169296 33:0.9822402 901:0.00024169296 1801:0.00024169296 2100:0.00024169296 2201:0.00024169296 2500:0.00024169296 2599:0.00024169296 2699:0.00024169296 #
7.5 3:0.0080216005 4:-0.025890918 11:0.00026498002 12:-0.00026498002 13:-0.00026498002 14:-0.00026498002 15:-0.00026498002 16:-0.00026498002 18:-0.00026498002 19:-0.00026498002 28:0.11876934 29:0.14484073 30:0.0185486 31:0.00026498002 32:-0.00026498002 33:0.98175097 901:0.00026498002 1799:0.00026498002 2106:0.00026498002 2201:0.00026498002 2301:0.00026498002 2401:0.00026498002 2500:0.00026498002 2602:0.00026498002 2702:0.00026498002 #
-10 3:0.0086008795 4:-0.022644652 11:-0.00024726408 12:-0.00024726408 13:-0.00024726408 14:-0.00024726408 15:-0.00024726408 16:-0.00024726408 18:-0.00024726408 19:-0.00024726408 28:0.12381501 29:0.14566575 30:0.014835845 31:-0.00024726408 32:-0.00024726408 33:0.98114389 899:0.00024726408 1801:0.00024726408 2101:0.00024726408 2201:0.00024726408 2306:0.00024726408 2401:0.00024726408 2500:0.00024726408 2602:0.00024726408 2701:0.00024726408 #
7.5 3:0.0081609944 4:-0.022645872 11:0.00020277618 12:-0.00020277618 13:-0.00020277618 14:-0.00020277618 15:-0.00020277618 16:-0.00020277618 18:-0.00020277618 19:-0.00020277618 28:0.12418419 29:0.14609821 30:0.015208214 31:0.00020277618 32:-0.00020277618 33:0.98103118 901:0.00020277618 1801:0.00020277618 2103:0.00020277618 2205:0.00020277618 2501:0.00020277618 2601:0.00020277618 2699:0.00020277618 #
-10 3:0.0066355467 4:-0.018672956 11:-0.00019828121 12:-0.00019828121 13:-0.00019828121 14:-0.00019828121 15:-0.00019828121 16:-0.00019828121 18:-0.00019828121 19:-0.00019828121 28:0.124013 29:0.1458973 30:0.01982812 31:-0.00019828121 32:-0.00019828121 33:0.98109543 901:0.00019828121 1801:0.00019828121 2122:0.00019828121 2202:0.00019828121 2504:0.00019828121 2600:0.00019828121 2701:0.00019828121 #
-10 3:0.0084518632 4:-0.020335773 11:-0.00024582216 12:-0.00024582216 13:-0.00024582216 14:-0.00024582216 15:-0.00024582216 16:-0.00024582216 18:-0.00024582216 19:-0.00024582216 28:0.12375671 29:0.14559555 30:0.022123994 31:-0.00024582216 32:-0.00024582216 33:0.98107624 899:0.00024582216 1801:0.00024582216 2122:0.00024582216 2202:0.00024582216 2308:0.00024582216 2403:0.00024582216 2500:0.00024582216 2602:0.00024582216 2701:0.00024582216 #
7.5 3:0.0074383696 4:-0.024018306 11:0.00019642372 12:-0.00019642372 13:-0.00019642372 14:-0.00019642372 15:-0.00019642372 16:0.00019642372 18:-0.00019642372 19:-0.00019642372 28:0.12433621 29:0.14627871 30:0.025535084 31:0.00019642372 32:-0.00019642372 33:0.98074365 901:0.00019642372 1800:0.00019642372 2119:0.00019642372 2204:0.00019642372 2306:0.00019642372 2401:0.00019642372 2501:0.00019642372 2601:0.00019642372 2702:0.00019642372 #
-9.9999999999999982236431605997495 3:0.008753608 4:-0.025066001 11:-0.00030673755 12:-0.00030673755 13:-0.00030673755 14:-0.00030673755 15:-0.00030673755 16:-0.00030673755 18:-0.00030673755 19:-0.00030673755 28:0.12146807 29:0.14813276 30:0.030673755 31:-0.00030673755 32:-0.00030673755 33:0.98063993 1800:0.00030673755 2115:0.00030673755 2204:0.00030673755 2323:0.00030673755 2404:0.00030673755 2499:0.00030673755 2601:0.00030673755 2701:0.00030673755 #
7.5 3:0.010966272 4:-0.025443457 11:-0.00031419951 12:-0.00031419951 13:-0.00031419951 14:-0.00031419951 15:-0.00031419951 16:-0.00031419951 18:-0.00031419951 19:-0.00031419951 28:0.12033842 29:0.14675318 30:0.031419951 31:0.00031419951 32:-0.00031419951 33:0.98093092 901:0.00031419951 1801:0.00031419951 2119:0.00031419951 2204:0.00031419951 2315:0.00031419951 2404:0.00031419951 2499:0.00031419951 2601:0.00031419951 2702:0.00031419951 #
-10 3:0.011904414 4:-0.02636442 11:-0.0003427832 12:-0.0003427832 13:-0.0003427832 14:-0.0003427832 15:-0.0003427832 16:-0.0003427832 18:-0.0003427832 19:-0.0003427832 28:0.11894577 29:0.14505558 30:0.029136572 31:-0.0003427832 32:-0.0003427832 33:0.98138833 899:0.0003427832 1801:0.0003427832 2123:0.0003427832 2204:0.0003427832 2499:0.0003427832 2600:0.0003427832 2701:0.0003427832 #
7.5 3:0.010583268 4:-0.023588896 11:-0.00029621299 12:-0.00029621299 13:-0.00029621299 14:-0.00029621299 15:-0.00029621299 16:-0.00029621299 18:-0.00029621299 19:-0.00029621299 28:0.11700413 29:0.14268877 30:0.03258343 31:-0.00029621299 32:-0.00029621299 33:0.98194611 899:0.00029621299 1801:0.00029621299 2114:0.00029621299 2203:0.00029621299 2315:0.00029621299 2404:0.00029621299 2499:0.00029621299 2601:0.00029621299 2701:0.00029621299 #
-10 3:0.0075088525 4:-0.020098845 11:-0.00023013915 12:-0.00023013915 13:0.00023013915 14:-0.00023013915 15:-0.00023013915 16:-0.00023013915 18:0.00023013915 19:-0.00023013915 28:0.12009811 29:0.14129163 30:0.035671569 31:-0.00023013915 32:-0.00023013915 33:0.98177361 899:0.00023013915 1800:0.00023013915 2115:0.00023013915 2204:0.00023013915 2499:0.00023013915 2602:0.00023013915 2701:0.00023013915 #
7.5 3:0.0084611326 4:-0.021592014 11:-0.00022847428 12:-0.00022847428 13:-0.00022847428 14:-0.00022847428 15:-0.00022847428 16:-0.00022847428 18:-0.00022847428 19:-0.00022847428 28:0.1209817 29:0.14233033 30:0.034271143 31:0.00022847428 32:-0.00022847428 33:0.98152548 901:0.00022847428 1800:0.00022847428 2114:0.00022847428 2203:0.00022847428 2500:0.00022847428 2601:0.00022847428 2701:0.00022847428 #
-10 3:0.013559097 4:-0.023937026 11:-0.00031483409 12:-0.00031483409 13:-0.00031483409 14:-0.00031483409 15:-0.00031483409 16:-0.00031483409 18:-0.00031483409 19:-0.00031483409 28:0.11900728 29:0.14513221 30:0.031483408 31:-0.00031483409 32:-0.00031483409 33:0.98133785 899:0.00031483409 1801:0.00031483409 2124:0.00031483409 2199:0.00031483409 2324:0.00031483409 2399:0.00031483409 2501:0.00031483409 2599:0.00031483409 2700:0.00031483409 #
7.5 3:0.0098673608 4:-0.024424549 11:-0.00026311155 12:-0.00026311155 13:-0.00026311155 14:-0.00026311155 15:-0.00026311155 16:-0.00026311155 18:-0.00026311155 19:-0.00026311155 28:0.12342563 29:0.15051822 30:0.028942272 31:-0.00026311155 32:0.00026311155 33:0.98009056 899:0.00026311155 1801:0.00026311155 2110:0.00026311155 2201:0.00026311155 2301:0.00026311155 2401:0.00026311155 2500:0.00026311155 2601:0.00026311155 2702:0.00026311155 #
-10 3:0.0076815537 4:-0.022440711 11:-0.00023107608 12:-0.00023107608 13:-0.00023107608 14:-0.00023107608 15:-0.00023107608 16:-0.00023107608 18:-0.00023107608 19:-0.00023107608 28:0.12894276 29:0.15169683 30:0.027729129 31:-0.00023107608 32:-0.00023107608 33:0.97930044 901:0.00023107608 1801:0.00023107608 2106:0.00023107608 2201:0.00023107608 2321:0.00023107608 2404:0.00023107608 2500:0.00023107608 2601:0.00023107608 2700:0.00023107608 #
7.5 3:0.0097208824 4:-0.020311667 11:-0.00023156153 12:-0.00023156153 13:-0.00023156153 14:-0.00023156153 15:-0.00023156153 16:-0.00023156153 18:-0.00023156153 19:-0.00023156153 28:0.13167979 29:0.15491699 30:0.023156153 31:-0.00023156153 32:-0.00023156153 33:0.97857904 1800:0.00023156153 2115:0.00023156153 2204:0.00023156153 2323:0.00023156153 2404:0.00023156153 2499:0.00023156153 2599:0.00023156153 2702:0.00023156153 #
-10 3:0.010005101 4:-0.021026246 11:-0.00027570684 12:-0.00027570684 13:-0.00027570684 14:-0.00027570684 15:-0.00027570684 16:-0.00027570684 18:-0.00027570684 19:-0.00027570684 28:0.13007021 29:0.15862241 30:0.022056546 31:0.00027570684 32:-0.00027570684 33:0.97820783 1801:0.00027570684 2115:0.00027570684 2204:0.00027570684 2324:0.00027570684 2399:0.00027570684 2501:0.00027570684 2601:0.00027570684 2700:0.00027570684 #
7.5 3:0.0090231439 4:-0.022982137 11:-0.00027472363 12:0.00027472363 13:-0.00027472363 14:-0.00027472363 15:-0.00027472363 16:-0.00027472363 18:-0.00027472363 19:-0.00027472363 28:0.12929867 29:0.15768038 30:0.027472364 31:0.00027472363 32:-0.00027472363 33:0.97829086 901:0.00027472363 1800:0.00027472363 2104:0.00027472363 2202:0.00027472363 2299:0.00027472363 2402:0.00027472363 2500:0.00027472363 2602:0.00027472363 2700:0.00027472363 #
-10 3:0.0073649622 4:-0.023545455 11:-0.00020422628 12:-0.00020422628 13:-0.00020422628 14:-0.00020422628 15:-0.00020422628 16:-0.00020422628 18:-0.00020422628 19:-0.00020422628 28:0.13138285 29:0.15456866 30:0.029612811 31:0.00020422628 32:-0.00020422628 33:0.97844815 899:0.00020422628 1800:0.00020422628 2115:0.00020422628 2204:0.00020422628 2321:0.00020422628 2404:0.00020422628 2501:0.00020422628 2601:0.00020422628 2700:0.00020422628 #
7.5 3:0.0081004677 4:-0.022482041 11:-0.00020725917 12:-0.00020725917 13:-0.00020725917 14:-0.00020725917 15:-0.00020725917 16:-0.00020725917 18:-0.00020725917 19:-0.00020725917 28:0.13170077 29:0.15494281 30:0.025907395 31:-0.00020725917 32:-0.00020725917 33:0.97847056 1799:0.00020725917 2115:0.00020725917 2204:0.00020725917 2323:0.00020725917 2404:0.00020725917 2501:0.00020725917 2601:0.00020725917 2702:0.00020725917 #
-10 3:0.010144196 4:-0.023644751 11:-0.00028177784 12:-0.00028177784 13:-0.00028177784 14:-0.00028177784 15:-0.00028177784 16:-0.00028177784 18:-0.00028177784 19:-0.00028177784 28:0.12764536 29:0.15566535 30:0.023951117 31:-0.00028177784 32:-0.00028177784 33:0.9788962 901:0.00028177784 1801:0.00028177784 2104:0.00028177784 2202:0.00028177784 2323:0.00028177784 2404:0.00028177784 2501:0.00028177784 2602:0.00028177784 2699:0.00028177784 #
7.5 3:0.0092307758 4:-0.024384027 11:0.00026472859 12:-0.00026472859 13:-0.00026472859 14:-0.00026472859 15:-0.00026472859 16:-0.00026472859 18:-0.00026472859 19:-0.00026472859 28:0.12543634 29:0.15297076 30:0.027796501 31:0.00026472859 32:-0.00026472859 33:0.97949576 900:0.00026472859 1801:0.00026472859 2106:0.00026472859 2201:0.00026472859 2306:0.00026472859 2401:0.00026472859 2500:0.00026472859 2602:0.00026472859 2701:0.00026472859 #
-10 3:0.0098900059 4:-0.021866199 11:-0.00028139999 12:-0.00028139999 13:-0.00028139999 14:-0.00028139999 15:-0.00028139999 16:-0.00028139999 18:-0.00028139999 19:-0.00028139999 28:0.12304214 29:0.15005091 30:0.033767998 31:0.00028139999 32:-0.00028139999 33:0.98011613 899:0.00028139999 1799:0.00028139999 2108:0.00028139999 2203:0.00028139999 2314:0.00028139999 2403:0.00028139999 2501:0.00028139999 2602:0.00028139999 2702:0.00028139999 #
7.5 3:0.011947379 4:-0.029453369 11:-0.00025099138 12:-0.00025099138 13:-0.00025099138 14:-0.00025099138 15:-0.00025099138 16:-0.00025099138 18:-0.00025099138 19:-0.00025099138 28:0.11566436 29:0.13607498 30:0.0070277588 31:-0.00025099138 32:-0.00025099138 33:0.98338425 901:0.00025099138 1801:0.00025099138 2123:0.00025099138 2204:0.00025099138 2324:0.00025099138 2399:0.00025099138 2499:0.00025099138 2600:0.00025099138 2700:0.00025099138 #
-10 3:0.011191922 4:-0.027282335 11:-0.00028787798 12:-0.00028787798 13:-0.00028787798 14:-0.00028787798 15:-0.00028787798 16:-0.00028787798 18:-0.00028787798 19:-0.00028787798 28:0.10629319 29:0.12962571 30:0.00143939 31:-0.00028787798 32:-0.00028787798 33:0.98540634 900:0.00028787798 1801:0.00028787798 2124:0.00028787798 2199:0.00028787798 2315:0.00028787798 2404:0.00028787798 2501:0.00028787798 2601:0.00028787798 2700:0.00028787798 #
7.5 3:0.010947146 4:-0.021527423 11:-0.0002637764 12:-0.0002637764 13:-0.0002637764 14:-0.0002637764 15:-0.0002637764 16:-0.0002637764 18:-0.0002637764 19:-0.0002637764 28:0.1054156 29:0.1285567 30:0.025058758 31:-0.0002637764 32:-0.0002637764 33:0.98546857 901:0.0002637764 1799:0.0002637764 2108:0.0002637764 2203:0.0002637764 2500:0.0002637764 2602:0.0002637764 2702:0.0002637764 #
-9.9999999999999982236431605997495 3:0.0076292334 4:-0.026474541 11:-0.00022328139 12:-0.00022328139 13:-0.00022328139 14:-0.00022328139 15:-0.00022328139 16:-0.00022328139 18:-0.00022328139 19:-0.00022328139 28:0.10506506 29:0.12360634 30:0.026570484 31:0.00022328139 32:-0.00022328139 33:0.98601055 901:0.00022328139 1799:0.00022328139 2100:0.00022328139 2201:0.00022328139 2500:0.00022328139 2601:0.00022328139 2702:0.00022328139 #
7.5 3:0.0075890045 4:-0.026440354 11:-0.00022352504 12:-0.00022352504 13:-0.00022352504 14:-0.00022352504 15:-0.00022352504 16:-0.00022352504 18:-0.00022352504 19:-0.00022352504 28:0.10420067 29:0.12259008 30:0.027940631 31:0.00022352504 32:-0.00022352504 33:0.98619252 901:0.00022352504 1799:0.00022352504 2115:0.00022352504 2204:0.00022352504 2499:0.00022352504 2601:0.00022352504 2701:0.00022352504 #
7.5 3:0.007935375 4:-0.023512613 11:-0.00024267849 12:-0.00024267849 13:-0.00024267849 14:-0.00024267849 15:-0.00024267849 16:-0.00024267849 18:-0.00024267849 19:-0.00024267849 28:0.10725661 29:0.12618311 30:0.026694633 31:-0.00024267849 32:-0.00024267849 33:0.98551732 901:0.00024267849 1801:0.00024267849 2122:0.00024267849 2202:0.00024267849 2500:0.00024267849 2602:0.00024267849 2700:0.00024267849 #
-10 3:0.011279027 4:-0.01815307 11:-0.00025824163 12:-0.00025824163 13:-0.00025824163 14:-0.00025824163 15:-0.00025824163 16:-0.00025824163 18:-0.00025824163 19:-0.00025824163 28:0.10760929 29:0.12369 30:0.032280207 31:0.00025824163 32:0.00025824163 33:0.98570836 901:0.00025824163 1801:0.00025824163 2123:0.00025824163 2204:0.00025824163 2300:0.00025824163 2401:0.00025824163 2499:0.00025824163 2601:0.00025824163 2701:0.00025824163 #
7.5 3:0.0090010175 4:-0.016344529 11:-0.0002211346 12:-0.0002211346 13:-0.0002211346 14:-0.0002211346 15:-0.0002211346 16:-0.0002211346 18:-0.0002211346 19:-0.0002211346 28:0.103805 29:0.12212379 30:0.035381533 31:0.0002211346 32:-0.0002211346 33:0.98626029 901:0.0002211346 1801:0.0002211346 2111:0.0002211346 2200:0.0002211346 2313:0.0002211346 2400:0.0002211346 2500:0.0002211346 2602:0.0002211346 2699:0.0002211346 #
-10 3:0.0088366447 4:-0.017910713 11:-0.00020923116 12:-0.00020923116 13:-0.00020923116 14:-0.00020923116 15:-0.00020923116 16:-0.00020923116 18:-0.00020923116 19:-0.00020923116 28:0.10288105 29:0.12103604 30:0.033686217 31:-0.00020923116 32:-0.00020923116 33:0.98652488 901:0.00020923116 1800:0.00020923116 2115:0.00020923116 2204:0.00020923116 2499:0.00020923116 2600:0.00020923116 2702:0.00020923116 #
7.5 3:0.0094309831 4:-0.017048759 11:-0.00023065516 12:-0.00023065516 13:-0.00023065516 14:-0.00023065516 15:-0.00023065516 16:-0.00023065516 18:-0.00023065516 19:-0.00023065516 28:0.10284452 29:0.12099247 30:0.034598276 31:-0.00023065516 32:-0.00023065516 33:0.98651212 901:0.00023065516 1800:0.00023065516 2123:0.00023065516 2204:0.00023065516 2315:0.00023065516 2404:0.00023065516 2501:0.00023065516 2601:0.00023065516 2701:0.00023065516 #
7.5 3:0.0079883225 4:-0.020441752 11:-0.00021107153 12:-0.00021107153 13:-0.00021107153 14:-0.00021107153 15:-0.00021107153 16:-0.00021107153 18:-0.00021107153 19:-0.00021107153 28:0.10117503 29:0.11902957 30:0.031660728 31:-0.00021107153 32:-0.00021107153 33:0.98697048 1800:0.00021107153 2115:0.00021107153 2204:0.00021107153 2318:0.00021107153 2405:0.00021107153 2500:0.00021107153 2601:0.00021107153 2702:0.00021107153 #
-10 3:0.0061788554 4:-0.019867918 11:0.00020792527 12:-0.00020792527 13:-0.00020792527 14:-0.00020792527 15:-0.00020792527 16:-0.00020792527 18:0.00020792527 19:-0.00020792527 28:0.097932801 29:0.11521555 30:0.029109538 31:-0.00020792527 32:-0.00020792527 33:0.98785293 901:0.00020792527 1800:0.00020792527 2115:0.00020792527 2204:0.00020792527 2320:0.00020792527 2405:0.00020792527 2501:0.00020792527 2602:0.00020792527 2701:0.00020792527 #
7.5 3:0.0080001447 4:-0.019933349 11:-0.00021398941 12:-0.00021398941 13:-0.00021398941 14:-0.00021398941 15:-0.00021398941 16:-0.00021398941 18:-0.00021398941 19:-0.00021398941 28:0.095865116 29:0.11278312 30:0.02567873 31:-0.00021398941 32:-0.00021398941 33:0.98841709 899:0.00021398941 1799:0.00021398941 2106:0.00021398941 2201:0.00021398941 2501:0.00021398941 2601:0.00021398941 2702:0.00021398941 #
-10 3:0.0084067462 4:-0.019101197 11:-0.0002123302 12:-0.0002123302 13:-0.0002123302 14:-0.0002123302 15:-0.0002123302 16:-0.0002123302 18:-0.0002123302 19:-0.0002123302 28:0.096168593 29:0.11314014 30:0.024205642 31:-0.0002123302 32:-0.0002123302 33:0.98839706 899:0.0002123302 1801:0.0002123302 2123:0.0002123302 2204:0.0002123302 2501:0.0002123302 2601:0.0002123302 2702:0.0002123302 #
7.5 3:0.0070488327 4:-0.016117226 11:-0.00019480614 12:-0.00019480614 13:-0.00019480614 14:-0.00019480614 15:-0.00019480614 16:-0.00019480614 18:-0.00019480614 19:-0.00019480614 28:0.09462513 29:0.11132392 30:0.023376737 31:-0.00019480614 32:-0.00019480614 33:0.98883593 899:0.00019480614 1799:0.00019480614 2114:0.00019480614 2203:0.00019480614 2501:0.00019480614 2602:0.00019480614 2702:0.00019480614 #
-9.9999999999999982236431605997495 3:0.0082956422 4:-0.017308399 11:-0.00019433953 12:-0.00019433953 13:-0.00019433953 14:-0.00019433953 15:-0.00019433953 16:-0.00019433953 18:-0.00019433953 19:-0.00019433953 28:0.09196341 29:0.1081927 30:0.024292443 31:-0.00019433953 32:-0.00019433953 33:0.98938257 901:0.00019433953 1800:0.00019433953 2119:0.00019433953 2204:0.00019433953 2500:0.00019433953 2601:0.00019433953 2702:0.00019433953 #
7.5 3:0.0086527104 4:-0.020733425 11:-0.00025088098 12:0.00025088098 13:-0.00025088098 14:-0.00025088098 15:-0.00025088098 16:-0.00025088098 18:-0.00025088098 19:-0.00025088098 28:0.089993514 29:0.10587428 30:0.025088098 31:-0.00025088098 32:-0.00025088098 33:0.98972547 901:0.00025088098 1801:0.00025088098 2105:0.00025088098 2205:0.00025088098 2312:0.00025088098 2405:0.00025088098 2500:0.00025088098 2602:0.00025088098 2699:0.00025088098 #
-10 3:0.0094365766 4:-0.019927669 11:-0.00022734902 12:-0.00022734902 13:-0.00022734902 14:-0.00022734902 15:-0.00022734902 16:-0.00022734902 18:-0.00022734902 19:-0.00022734902 28:0.087463446 29:0.10289817 30:0.022734903 31:-0.00022734902 32:-0.00022734902 33:0.99033237 900:0.00022734902 1801:0.00022734902 2101:0.00022734902 2201:0.00022734902 2500:0.00022734902 2602:0.00022734902 2701:0.00022734902 #
7.5 3:0.0055364901 4:-0.016327295 11:-0.00019802644 12:-0.00019802644 13:-0.00019802644 14:-0.00019802644 15:-0.00019802644 16:-0.00019802644 18:-0.00019802644 19:-0.00019802644 28:0.086337551 29:0.10157371 30:0.019802645 31:0.00019802644 32:-0.00019802644 33:0.99072629 901:0.00019802644 1801:0.00019802644 2104:0.00019802644 2202:0.00019802644 2504:0.00019802644 2602:0.00019802644 2700:0.00019802644 #
-10 3:0.0062869508 4:-0.018838216 11:0.00020927376 12:-0.00020927376 13:-0.00020927376 14:-0.00020927376 15:0.00020927376 16:-0.00020927376 18:-0.00020927376 19:-0.00020927376 28:0.087110206 29:0.10248345 30:0.020927375 31:0.00020927376 32:-0.00020927376 33:0.9904927 1800:0.00020927376 2114:0.00020927376 2203:0.00020927376 2323:0.00020927376 2404:0.00020927376 2501:0.00020927376 2602:0.00020927376 2701:0.00020927376 #
7.5 3:0.0098127397 4:-0.0227501 11:-0.00024945181 12:-0.00024945181 13:-0.00024945181 14:-0.00024945181 15:-0.00024945181 16:-0.00024945181 18:-0.00024945181 19:-0.00024945181 28:0.087228313 29:0.10262198 30:0.022450663 31:-0.00024945181 32:-0.00024945181 33:0.99032372 1801:0.00024945181 2115:0.00024945181 2204:0.00024945181 2499:0.00024945181 2601:0.00024945181 2701:0.00024945181 #
-10 3:0.0073967255 4:-0.020781053 11:-0.0002333528 12:-0.0002333528 13:-0.0002333528 14:-0.0002333528 15:-0.0002333528 16:-0.0002333528 18:-0.0002333528 19:-0.0002333528 28:0.087315947 29:0.10272423 30:0.02333528 31:-0.0002333528 32:-0.0002333528 33:0.99034923 899:0.0002333528 1800:0.0002333528 2101:0.0002333528 2201:0.0002333528 2500:0.0002333528 2602:0.0002333528 2702:0.0002333528 #
7.5 3:0.0067522353 4:-0.019835534 11:-0.00024092614 12:-0.00024092614 13:-0.00024092614 14:-0.00024092614 15:-0.00024092614 16:-0.00024092614 18:-0.00024092614 19:-0.00024092614 28:0.088282563 29:0.10386085 30:0.021683352 31:0.00024092614 32:-0.00024092614 33:0.99020642 900:0.00024092614 1800:0.00024092614 2115:0.00024092614 2204:0.00024092614 2307:0.00024092614 2405:0.00024092614 2499:0.00024092614 2602:0.00024092614 2701:0.00024092614 #
-10 3:0.0071396548 4:-0.018959507 11:-0.00019743889 12:0.00019743889 13:-0.00019743889 14:-0.00019743889 15:-0.00019743889 16:-0.00019743889 18:-0.00019743889 19:-0.00019743889 28:0.089696489 29:0.10552516 30:0.019743888 31:0.00019743889 32:-0.00019743889 33:0.98995858 901:0.00019743889 1800:0.00019743889 2115:0.00019743889 2204:0.00019743889 2320:0.00019743889 2405:0.00019743889 2499:0.00019743889 2602:0.00019743889 2702:0.00019743889 #
7.5 3:0.0075413371 4:-0.019555664 11:-0.00021355783 12:-0.00021355783 13:-0.00021355783 14:-0.00021355783 15:-0.00021355783 16:-0.00021355783 18:-0.00021355783 19:-0.00021355783 28:0.090999119 29:0.10705867 30:0.021355782 31:-0.00021355783 32:-0.00021355783 33:0.98962694 899:0.00021355783 1801:0.00021355783 2114:0.00021355783 2203:0.00021355783 2501:0.00021355783 2602:0.00021355783 2701:0.00021355783 #
-10 3:0.0095001012 4:-0.02227062 11:-0.0002545176 12:-0.0002545176 13:-0.0002545176 14:-0.0002545176 15:-0.0002545176 16:-0.0002545176 18:-0.0002545176 19:-0.0002545176 28:0.090786427 29:0.1068083 30:0.022906583 31:-0.0002545176 32:-0.0002545176 33:0.98956442 1801:0.0002545176 2123:0.0002545176 2204:0.0002545176 2306:0.0002545176 2401:0.0002545176 2500:0.0002545176 2601:0.0002545176 2699:0.0002545176 #
7.5 3:0.010897934 4:-0.023618512 11:-0.00027432916 12:-0.00027432916 13:-0.00027432916 14:-0.00027432916 15:-0.00027432916 16:-0.00027432916 18:-0.00027432916 19:-0.00027432916 28:0.087807283 29:0.10708164 30:0.021946333 31:0.00027432916 32:-0.00027432916 33:0.98977965 900:0.00027432916 1801:0.00027432916 2115:0.00027432916 2204:0.00027432916 2324:0.00027432916 2399:0.00027432916 2501:0.00027432916 2601:0.00027432916 2701:0.00027432916 #
7.5 3:0.0085195852 4:-0.017289501 11:-0.00021578748 12:-0.00021578748 13:-0.00021578748 14:-0.00021578748 15:-0.00021578748 16:-0.00021578748 18:-0.00021578748 19:-0.00021578748 28:0.08926481 29:0.10501729 30:0.021578748 31:-0.00021578748 32:-0.00021578748 33:0.99003297 1800:0.00021578748 2115:0.00021578748 2204:0.00021578748 2499:0.00021578748 2602:0.00021578748 2699:0.00021578748 #
-10 3:0.0071838596 4:-0.01622368 11:-0.00020796506 12:-0.00020796506 13:-0.00020796506 14:-0.00020796506 15:-0.00020796506 16:-0.00020796506 18:-0.00020796506 19:-0.00020796506 28:0.08808776 29:0.10363314 30:0.020796506 31:-0.00020796506 32:-0.00020796506 33:0.99032956 899:0.00020796506 1800:0.00020796506 2103:0.00020796506 2205:0.00020796506 2500:0.00020796506 2602:0.00020796506 2702:0.00020796506 #
-10 3:0.0086241318 4:-0.018400751 11:-0.00020383156 12:-0.00020383156 13:-0.00020383156 14:-0.00020383156 15:-0.00020383156 16:-0.00020383156 18:-0.00020383156 19:-0.00020383156 28:0.084522828 29:0.099439226 30:0.020383155 31:-0.00020383156 32:-0.00020383156 33:0.99102902 899:0.00020383156 1801:0.00020383156 2104:0.00020383156 2202:0.00020383156 2299:0.00020383156 2402:0.00020383156 2500:0.00020383156 2600:0.00020383156 2702:0.00020383156 #
7.5 3:0.0093301041 4:-0.020416776 11:-0.00023297819 12:-0.00023297819 13:-0.00023297819 14:-0.00023297819 15:-0.00023297819 16:-0.00023297819 18:-0.00023297819 19:-0.00023297819 28:0.08277715 29:0.097384878 30:0.020968037 31:-0.00023297819 32:-0.00023297819 33:0.99132216 900:0.00023297819 1800:0.00023297819 2106:0.00023297819 2201:0.00023297819 2500:0.00023297819 2602:0.00023297819 2701:0.00023297819 #
-10 3:0.0069488985 4:-0.020025624 11:-0.0002455193 12:-0.0002455193 13:-0.0002455193 14:-0.0002455193 15:-0.0002455193 16:-0.0002455193 18:-0.0002455193 19:-0.0002455193 28:0.080238163 29:0.094397262 30:0.018413948 31:-0.0002455193 32:-0.0002455193 33:0.991898 1800:0.0002455193 2110:0.0002455193 2201:0.0002455193 2499:0.0002455193 2602:0.0002455193 2702:0.0002455193 #
7.5 3:0.006725464 4:-0.01986848 11:-0.00024124779 12:-0.00024124779 13:-0.00024124779 14:-0.00024124779 15:-0.00024124779 16:-0.00024124779 18:-0.00024124779 19:-0.00024124779 28:0.079898857 29:0.093999788 30:0.015922355 31:-0.00024124779 32:-0.00024124779 33:0.99201095 900:0.00024124779 1800:0.00024124779 2115:0.00024124779 2204:0.00024124779 2501:0.00024124779 2602:0.00024124779 2700:0.00024124779 #
7.5 3:0.0062435041 4:-0.020871846 11:-0.0001958683 12:-0.0001958683 13:-0.0001958683 14:-0.0001958683 15:-0.0001958683 16:-0.0001958683 18:-0.0001958683 19:-0.0001958683 28:0.07903678 29:0.092984557 30:0.020566171 31:-0.0001958683 32:-0.0001958683 33:0.99207294 901:0.0001958683 1801:0.0001958683 2115:0.0001958683 2204:0.0001958683 2324:0.0001958683 2399:0.0001958683 2504:0.0001958683 2601:0.0001958683 2699:0.0001958683 #
-10 3:0.0078324359 4:-0.020712765 11:0.00019724076 12:-0.00019724076 13:0.00019724076 14:-0.00019724076 15:0.00019724076 16:-0.00019724076 18:0.00019724076 19:-0.00019724076 28:0.077783868 29:0.091509849 30:0.019724077 31:-0.00019724076 32:-0.00019724076 33:0.99231827 901:0.00019724076 1800:0.00019724076 2115:0.00019724076 2204:0.00019724076 2499:0.00019724076 2602:0.00019724076 2701:0.00019724076 #
7.5 3:0.0083334306 4:-0.018253066 11:-0.00023132078 12:-0.00023132078 13:-0.00023132078 14:-0.00023132078 15:-0.00023132078 16:-0.00023132078 18:-0.00023132078 19:-0.00023132078 28:0.076520912 29:0.090025418 30:0.019662267 31:0.00023132078 32:-0.00023132078 33:0.99259746 901:0.00023132078 1800:0.00023132078 2123:0.00023132078 2204:0.00023132078 2300:0.00023132078 2401:0.00023132078 2500:0.00023132078 2601:0.00023132078 2701:0.00023132078 #
-10 3:0.0071956608 4:-0.016999006 11:-0.00021302472 12:-0.00021302472 13:-0.00021302472 14:-0.00021302472 15:-0.00021302472 16:-0.00021302472 18:-0.00021302472 19:-0.00021302472 28:0.076299064 29:0.089764357 30:0.018320125 31:0.00021302472 32:-0.00021302472 33:0.99269515 899:0.00021302472 1801:0.00021302472 2123:0.00021302472 2204:0.00021302472 2500:0.00021302472 2602:0.00021302472 2701:0.00021302472 #
7.5 3:0.0061987648 4:-0.017958192 11:-0.00021753383 12:-0.00021753383 13:-0.00021753383 14:-0.00021753383 15:-0.00021753383 16:-0.00021753383 18:-0.00021753383 19:-0.00021753383 28:0.075727873 29:0.089090981 30:0.016315037 31:-0.00021753383 32:-0.00021753383 33:0.99282438 1801:0.00021753383 2106:0.00021753383 2201:0.00021753383 2504:0.00021753383 2602:0.00021753383 2700:0.00021753383 #
-10 3:0.0075395182 4:-0.020126671 11:-0.00020943758 12:-0.00020943758 13:-0.00020943758 14:-0.00020943758 15:-0.00020943758 16:-0.00020943758 18:-0.00020943758 19:-0.00020943758 28:0.074490666 29:0.087637059 30:0.019268258 31:-0.00020943758 32:-0.00020943758 33:0.99294358 900:0.00020943758 1799:0.00020943758 2101:0.00020943758 2201:0.00020943758 2500:0.00020943758 2602:0.00020943758 2702:0.00020943758 #
7.5 3:0.0085343085 4:-0.0195808 11:-0.00024230943 12:-0.00024230943 13:-0.00024230943 14:-0.00024230943 15:-0.00024230943 16:-0.00024230943 18:0.00024230943 19:-0.00024230943 28:0.081197888 29:0.095528066 30:0.014538566 31:0.00024230943 32:-0.00024230943 33:0.99177247 901:0.00024230943 1800:0.00024230943 2110:0.00024230943 2201:0.00024230943 2499:0.00024230943 2602:0.00024230943 2702:0.00024230943 #
-10 3:0.0077615399 4:-0.018751979 11:-0.00020195601 12:-0.00020195601 13:-0.00020195601 14:-0.00020195601 15:-0.00020195601 16:-0.00020195601 18:-0.00020195601 19:-0.00020195601 28:0.070626035 29:0.083088741 30:0.0201956 31:0.00020195601 32:-0.00020195601 33:0.99362355 899:0.00020195601 1801:0.00020195601 2106:0.00020195601 2201:0.00020195601 2324:0.00020195601 2399:0.00020195601 2504:0.00020195601 2601:0.00020195601 2700:0.00020195601 #
7.5 3:0.014378556 4:-0.026018875 11:-0.00035214832 12:-0.00035214832 13:-0.00035214832 14:-0.00035214832 15:-0.00035214832 16:-0.00035214832 18:-0.00035214832 19:-0.00035214832 28:0.09296716 29:0.11337415 30:0.02288964 31:-0.00035214832 32:-0.00035214832 33:0.98848033 901:0.00035214832 1799:0.00035214832 2108:0.00035214832 2203:0.00035214832 2315:0.00035214832 2404:0.00035214832 2499:0.00035214832 2602:0.00035214832 2702:0.00035214832 #
-10 3:0.0079621682 4:-0.017827725 11:-0.00021618219 12:-0.00021618219 13:-0.00021618219 14:-0.00021618219 15:-0.00021618219 16:-0.00021618219 18:-0.00021618219 19:-0.00021618219 28:0.064889245 29:0.076340422 30:0.015565118 31:0.00021618219 32:-0.00021618219 33:0.9946543 899:0.00021618219 1800:0.00021618219 2123:0.00021618219 2204:0.00021618219 2314:0.00021618219 2403:0.00021618219 2500:0.00021618219 2602:0.00021618219 2700:0.00021618219 #
7.5 3:0.011720413 4:-0.021538274 11:-0.0002731967 12:0.0002731967 13:-0.0002731967 14:-0.0002731967 15:-0.0002731967 16:-0.0002731967 18:-0.0002731967 19:-0.0002731967 28:0.083931491 29:0.10235588 30:0.0049175406 31:0.0002731967 32:-0.0002731967 33:0.99088442 901:0.0002731967 1801:0.0002731967 2105:0.0002731967 2205:0.0002731967 2306:0.0002731967 2401:0.0002731967 2501:0.0002731967 2602:0.0002731967 2699:0.0002731967 #
-10 3:0.006646249 4:-0.020255724 11:-0.00022058556 12:-0.00022058556 13:-0.00022058556 14:-0.00022058556 15:-0.00022058556 16:-0.00022058556 18:-0.00022058556 19:-0.00022058556 28:0.065260239 29:0.076777004 30:0.011029278 31:-0.00022058556 32:-0.00022058556 33:0.99462026 899:0.00022058556 1801:0.00022058556 2106:0.00022058556 2201:0.00022058556 2500:0.00022058556 2602:0.00022058556 2700:0.00022058556 #
7.5 3:0.0074483817 4:-0.024028525 11:0.00019637856 12:-0.00019637856 13:-0.00019637856 14:-0.00019637856 15:-0.00019637856 16:-0.00019637856 18:0.00019637856 19:-0.00019637856 28:0.089585938 29:0.10539441 30:0.025136456 31:-0.00019637856 32:-0.00019637856 33:0.98974794 900:0.00019637856 1800:0.00019637856 2106:0.00019637856 2201:0.00019637856 2500:0.00019637856 2602:0.00019637856 2702:0.00019637856 #
-10 3:0.0081153223 4:-0.014676597 11:-0.00019872273 12:-0.00019872273 13:-0.00019872273 14:-0.00019872273 15:-0.00019872273 16:-0.00019872273 18:-0.00019872273 19:-0.00019872273 28:0.066170692 29:0.077847645 30:0.0059616822 31:-0.00019872273 32:-0.00019872273 33:0.99460727 901:0.00019872273 1799:0.00019872273 2124:0.00019872273 2199:0.00019872273 2315:0.00019872273 2404:0.00019872273 2500:0.00019872273 2602:0.00019872273 2699:0.00019872273 #
7.0516972848750762992153795494232 3:0.0083592786 4:-0.017456112 11:0.00019910953 12:-0.00019910953 13:-0.00019910953 14:-0.00019910953 15:-0.00019910953 16:-0.00019910953 18:-0.00019910953 19:-0.00019910953 28:0.073371865 29:0.086319953 30:0.0055750669 31:-0.00019910953 32:-0.00019910953 33:0.99335742 901:0.00019910953 1800:0.00019910953 2115:0.00019910953 2204:0.00019910953 2306:0.00019910953 2401:0.00019910953 2501:0.00019910953 2602:0.00019910953 2699:0.00019910953 #
-10 3:0.0078185359 4:-0.019909509 11:-0.00021070414 12:-0.00021070414 13:-0.00021070414 14:-0.00021070414 15:-0.00021070414 16:-0.00021070414 18:-0.00021070414 19:-0.00021070414 28:0.067442179 29:0.079342745 30:0.0063211238 31:-0.00021070414 32:-0.00021070414 33:0.99431282 901:0.00021070414 1801:0.00021070414 2123:0.00021070414 2204:0.00021070414 2307:0.00021070414 2405:0.00021070414 2499:0.00021070414 2601:0.00021070414 2699:0.00021070414 #
7.5 3:0.009259074 4:-0.017758137 11:-0.00023153859 12:-0.00023153859 13:-0.00023153859 14:-0.00023153859 15:-0.00023153859 16:-0.00023153859 18:-0.00023153859 19:-0.00023153859 28:0.081383504 29:0.095745839 30:0.028942324 31:-0.00023153859 32:-0.00023153859 33:0.99144828 900:0.00023153859 1800:0.00023153859 2106:0.00023153859 2201:0.00023153859 2310:0.00023153859 2401:0.00023153859 2501:0.00023153859 2600:0.00023153859 2701:0.00023153859 #
-10 3:0.0069734622 4:-0.024248097 11:-0.00020504296 12:-0.00020504296 13:-0.00020504296 14:-0.00020504296 15:-0.00020504296 16:-0.00020504296 18:-0.00020504296 19:-0.00020504296 28:0.068560213 29:0.080659799 30:0.0049210312 31:-0.00020504296 32:-0.00020504296 33:0.9940483 901:0.00020504296 1800:0.00020504296 2122:0.00020504296 2202:0.00020504296 2499:0.00020504296 2601:0.00020504296 2700:0.00020504296 #
7.5 3:0.0081996806 4:-0.017787708 11:-0.00022400866 12:-0.00022400866 13:-0.00022400866 14:-0.00022400866 15:-0.00022400866 16:-0.00022400866 18:-0.00022400866 19:-0.00022400866 28:0.084397502 29:0.099291839 30:0.0089603467 31:-0.00022400866 32:-0.00022400866 33:0.9912383 901:0.00022400866 1801:0.00022400866 2115:0.00022400866 2204:0.00022400866 2499:0.00022400866 2602:0.00022400866 2700:0.00022400866 #
-10 3:0.0077272821 4:-0.024298163 11:0.00019990138 12:-0.00019990138 13:-0.00019990138 14:-0.00019990138 15:-0.00019990138 16:-0.00019990138 18:-0.00019990138 19:-0.00019990138 28:0.068154372 29:0.080182441 30:0.0045977314 31:-0.00019990138 32:-0.00019990138 33:0.99410951 899:0.00019990138 1801:0.00019990138 2123:0.00019990138 2204:0.00019990138 2304:0.00019990138 2402:0.00019990138 2501:0.00019990138 2600:0.00019990138 2699:0.00019990138 #
7.5 3:0.0063277991 4:-0.020306572 11:-0.00021270453 12:-0.00021270453 13:-0.00021270453 14:-0.00021270453 15:-0.00021270453 16:-0.00021270453 18:-0.00021270453 19:-0.00021270453 28:0.083680093 29:0.098448165 30:0.04041386 31:0.00021270453 32:-0.00021270453 33:0.990565 901:0.00021270453 1799:0.00021270453 2122:0.00021270453 2202:0.00021270453 2306:0.00021270453 2401:0.00021270453 2500:0.00021270453 2601:0.00021270453 2701:0.00021270453 #
-10 3:0.0072561135 4:-0.025221651 11:-0.00021315571 12:-0.00021315571 13:-0.00021315571 14:-0.00021315571 15:-0.00021315571 16:-0.00021315571 18:-0.00021315571 19:-0.00021315571 28:0.069013424 29:0.081193142 30:0.0053288927 31:0.00021315571 32:-0.00021315571 33:0.99394512 901:0.00021315571 1801:0.00021315571 2106:0.00021315571 2201:0.00021315571 2500:0.00021315571 2601:0.00021315571 2700:0.00021315571 #
7.5 3:0.0071083955 4:-0.024675468 11:-0.00020858656 12:-0.00020858656 13:0.00020858656 14:-0.00020858656 15:-0.00020858656 16:-0.00020858656 18:0.00020858656 19:-0.00020858656 28:0.087983899 29:0.10351108 30:0.0073005296 31:0.00020858656 32:-0.00020858656 33:0.99036902 901:0.00020858656 1801:0.00020858656 2106:0.00020858656 2201:0.00020858656 2323:0.00020858656 2404:0.00020858656 2500:0.00020858656 2601:0.00020858656 2699:0.00020858656 #
7.5 3:0.0093303211 4:-0.017512642 11:0.00023326928 12:-0.00023326928 13:-0.00023326928 14:-0.00023326928 15:-0.00023326928 16:-0.00023326928 18:0.00023326928 19:-0.00023326928 28:0.077559702 29:0.091245607 30:0.0093307709 31:-0.00023326928 32:-0.00023326928 33:0.99256074 901:0.00023326928 1800:0.00023326928 2115:0.00023326928 2204:0.00023326928 2323:0.00023326928 2404:0.00023326928 2499:0.00023326928 2602:0.00023326928 2701:0.00023326928 #
7.5 3:0.0093474425 4:-0.030254183 11:-0.00024740514 12:-0.00024740514 13:-0.00024740514 14:-0.00024740514 15:-0.00024740514 16:-0.00024740514 18:-0.00024740514 19:-0.00024740514 28:0.09402632 29:0.11061978 30:0.0061851284 31:-0.00024740514 32:0.00024740514 33:0.98887831 900:0.00024740514 1801:0.00024740514 2123:0.00024740514 2204:0.00024740514 2500:0.00024740514 2602:0.00024740514 2699:0.00024740514 #
-10 3:0.0068901815 4:-0.017454196 11:-0.00021498885 12:-0.00021498885 13:-0.00021498885 14:-0.00021498885 15:-0.00021498885 16:-0.00021498885 18:-0.00021498885 19:-0.00021498885 28:0.070297055 29:0.082701907 30:0.0064496654 31:0.00021498885 32:-0.00021498885 33:0.99389338 901:0.00021498885 1799:0.00021498885 2115:0.00021498885 2204:0.00021498885 2310:0.00021498885 2401:0.00021498885 2499:0.00021498885 2602:0.00021498885 2700:0.00021498885 #
