SVM-light Version V6.02
1 # kernel type
3 # kernel parameter -d 
1 # kernel parameter -g 
1 # kernel parameter -s 
1 # kernel parameter -r 
empty# kernel parameter -u 
2702 # highest feature index 
10000 # number of training documents 
7051 # number of support vectors plus 1 
0 # threshold b, each following line is a SV (starting with alpha*y)
-500 3:0.011655865 4:-0.027226558 11:-0.00032451234 12:-0.00032451234 13:-0.00032451234 14:-0.00032451234 15:-0.00032451234 16:-0.00032451234 18:-0.00032451234 19:-0.00032451234 28:0.1236392 29:0.15077817 30:0.0032451234 31:-0.00032451234 32:-0.00032451234 33:0.98035181 901:0.00032451234 1801:0.00032451234 2124:0.00032451234 2199:0.00032451234 2324:0.00032451234 2399:0.00032451234 2500:0.00032451234 2602:0.00032451234 2700:0.00032451234 #
350 3:0.016514773 4:-0.029887771 11:-0.00040443183 12:-0.00040443183 13:-0.00040443183 14:-0.00040443183 15:-0.00040443183 16:-0.00040443183 18:0.00040443183 19:-0.00040443183 28:0.14343175 29:0.17491676 30:0.004853182 31:-0.00040443183 32:-0.00040443183 33:0.97346741 901:0.00040443183 1800:0.00040443183 2124:0.00040443183 2199:0.00040443183 2315:0.00040443183 2404:0.00040443183 2500:0.00040443183 2602:0.00040443183 2700:0.00040443183 #
-500 3:0.0084638745 4:-0.029515913 11:0.00024923382 12:-0.00024923382 13:-0.00024923382 14:-0.00024923382 15:-0.00024923382 16:0.00024923382 18:0.00024923382 19:-0.00024923382 28:0.11721218 29:0.13789609 30:0.0074770148 31:-0.00024923382 32:0.00024923382 33:0.98297822 901:0.00024923382 1801:0.00024923382 2119:0.00024923382 2204:0.00024923382 2501:0.00024923382 2601:0.00024923382 2702:0.00024923382 #
350 3:0.008709033 4:-0.015862763 11:-0.00021380921 12:-0.00021380921 13:-0.00021380921 14:-0.00021380921 15:-0.00021380921 16:-0.00021380921 18:-0.00021380921 19:-0.00021380921 28:0.089487702 29:0.10527965 30:0.032071382 31:-0.00021380921 32:-0.00021380921 33:0.98972279 901:0.00021380921 1799:0.00021380921 2123:0.00021380921 2204:0.00021380921 2315:0.00021380921 2404:0.00021380921 2499:0.00021380921 2602:0.00021380921 2702:0.00021380921 #
350 3:0.012104782 4:-0.022041079 11:-0.00029809782 12:0.00029809782 13:-0.00029809782 14:-0.00029809782 15:-0.00029809782 16:-0.00029809782 18:-0.00029809782 19:-0.00029809782 28:0.12162391 29:0.14832155 30:0.026828803 31:-0.00029809782 32:-0.00029809782 33:0.9807418 901:0.00029809782 1801:0.00029809782 2123:0.00029809782 2204:0.00029809782 2322:0.00029809782 2402:0.00029809782 2500:0.00029809782 2602:0.00029809782 2701:0.00029809782 #
350 3:0.0071912101 4:-0.02567105 11:-0.00021920861 12:-0.00021920861 13:0.00021920861 14:-0.00021920861 15:-0.00021920861 16:-0.00021920861 18:-0.00021920861 19:-0.00021920861 28:0.13157777 29:0.15479635 30:0.005480215 31:0.00021920861 32:-0.00021920861 33:0.97876644 901:0.00021920861 1801:0.00021920861 2115:0.00021920861 2204:0.00021920861 2306:0.00021920861 2401:0.00021920861 2501:0.00021920861 2602:0.00021920861 2699:0.00021920861 #
350 3:0.0079618664 4:-0.018311417 11:-0.00022503958 12:-0.00022503958 13:-0.00022503958 14:-0.00022503958 15:-0.00022503958 16:-0.00022503958 18:-0.00022503958 19:-0.00022503958 28:0.05936319 29:0.069838785 30:0.0054009501 31:0.00022503958 32:-0.00022503958 33:0.99557507 1801:0.00022503958 2115:0.00022503958 2204:0.00022503958 2305:0.00022503958 2405:0.00022503958 2501:0.00022503958 2601:0.00022503958 2699:0.00022503958 #
-500 3:0.0081203999 4:-0.018995022 11:-0.00024086144 12:-0.00024086144 13:-0.00024086144 14:-0.00024086144 15:-0.00024086144 16:-0.00024086144 18:-0.00024086144 19:-0.00024086144 28:0.19299987 29:0.22705767 30:0.0096344575 31:-0.00024086144 32:-0.00024086144 33:0.95429301 901:0.00024086144 1801:0.00024086144 2106:0.00024086144 2201:0.00024086144 2323:0.00024086144 2404:0.00024086144 2501:0.00024086144 2602:0.00024086144 2700:0.00024086144 #
-500 3:0.010420743 4:-0.024461828 11:-0.0002703061 12:-0.0002703061 13:-0.0002703061 14:-0.0002703061 15:-0.0002703061 16:-0.0002703061 18:-0.0002703061 19:-0.0002703061 28:0.059329487 29:0.068195529 30:0.0051358161 31:0.0002703061 32:-0.0002703061 33:0.99553734 900:0.0002703061 1800:0.0002703061 2115:0.0002703061 2204:0.0002703061 2301:0.0002703061 2401:0.0002703061 2501:0.0002703061 2600:0.0002703061 2700:0.0002703061 #
350 3:0.012460705 4:-0.026584176 11:-0.00032418771 12:-0.00032418771 13:-0.00032418771 14:-0.00032418771 15:-0.00032418771 16:-0.00032418771 18:-0.00032418771 19:-0.00032418771 28:0.11476245 29:0.13995507 30:0.014588446 31:-0.00032418771 32:-0.00032418771 33:0.9829371 900:0.00032418771 1800:0.00032418771 2106:0.00032418771 2201:0.00032418771 2301:0.00032418771 2401:0.00032418771 2501:0.00032418771 2600:0.00032418771 2702:0.00032418771 #
-500 3:0.0086756181 4:-0.02028626 11:-0.00022473055 12:0.00022473055 13:-0.00022473055 14:-0.00022473055 15:-0.00022473055 16:-0.00022473055 18:-0.00022473055 19:-0.00022473055 28:0.061423354 29:0.072262108 30:0.026967665 31:-0.00022473055 32:-0.00022473055 33:0.99488211 901:0.00022473055 1801:0.00022473055 2113:0.00022473055 2200:0.00022473055 2501:0.00022473055 2602:0.00022473055 2702:0.00022473055 #
350 3:0.010354532 4:-0.017847968 11:-0.00024591325 12:0.00024591325 13:-0.00024591325 14:-0.00024591325 15:-0.00024591325 16:-0.00024591325 18:-0.00024591325 19:-0.00024591325 28:0.11064621 29:0.13017172 30:0.03688699 31:-0.00024591325 32:-0.00024591325 33:0.98439074 901:0.00024591325 1800:0.00024591325 2115:0.00024591325 2204:0.00024591325 2323:0.00024591325 2404:0.00024591325 2501:0.00024591325 2602:0.00024591325 2702:0.00024591325 #
350 3:0.0103066 4:-0.026478134 11:-0.00021651652 12:-0.00021651652 13:-0.00021651652 14:-0.00021651652 15:-0.00021651652 16:-0.00021651652 18:-0.00021651652 19:-0.00021651652 28:0.12047412 29:0.14173388 30:0.0056294296 31:-0.00021651652 32:-0.00021651652 33:0.9821189 901:0.00021651652 1800:0.00021651652 2115:0.00021651652 2204:0.00021651652 2306:0.00021651652 2401:0.00021651652 2504:0.00021651652 2602:0.00021651652 2700:0.00021651652 #
350 3:0.0098372893 4:-0.017766478 11:-0.00024060599 12:-0.00024060599 13:-0.00024060599 14:-0.00024060599 15:-0.00024060599 16:-0.00024060599 18:-0.00024060599 19:-0.00024060599 28:0.11282256 29:0.1327327 30:0.036090899 31:-0.00024060599 32:-0.00024060599 33:0.9838379 901:0.00024060599 1800:0.00024060599 2110:0.00024060599 2201:0.00024060599 2300:0.00024060599 2401:0.00024060599 2501:0.00024060599 2602:0.00024060599 2701:0.00024060599 #
350 3:0.01105596 4:-0.022936717 11:-0.00024594404 12:-0.00024594404 13:-0.00024594404 14:-0.00024594404 15:-0.00024594404 16:-0.00024594404 18:-0.00024594404 19:-0.00024594404 28:0.092433155 29:0.10874416 30:0.0019675524 31:-0.00024594404 32:-0.00024594404 33:0.98943293 901:0.00024594404 1801:0.00024594404 2124:0.00024594404 2199:0.00024594404 2315:0.00024594404 2404:0.00024594404 2500:0.00024594404 2602:0.00024594404 2699:0.00024594404 #
350 3:0.0069960435 4:-0.020752784 11:-0.00023046104 12:-0.00023046104 13:-0.00023046104 14:-0.00023046104 15:-0.00023046104 16:-0.00023046104 18:-0.00023046104 19:-0.00023046104 28:0.11410818 29:0.13424586 30:0.038026072 31:0.00023046104 32:-0.00023046104 33:0.98337728 900:0.00023046104 1801:0.00023046104 2114:0.00023046104 2203:0.00023046104 2501:0.00023046104 2600:0.00023046104 2701:0.00023046104 #
-500 3:0.0066389111 4:-0.019507267 11:-0.00023797434 12:-0.00023797434 13:-0.00023797434 14:-0.00023797434 15:-0.00023797434 16:-0.00023797434 18:-0.00023797434 19:-0.00023797434 28:0.10271924 29:0.12084575 30:0.0042835381 31:-0.00023797434 32:-0.00023797434 33:0.98711753 899:0.00023797434 1801:0.00023797434 2123:0.00023797434 2204:0.00023797434 2306:0.00023797434 2401:0.00023797434 2500:0.00023797434 2602:0.00023797434 2699:0.00023797434 #
-500 3:0.006146912 4:-0.017230961 11:-0.00019118503 12:-0.00019118503 13:-0.00019118503 14:-0.00019118503 15:-0.00019118503 16:-0.00019118503 18:-0.00019118503 19:-0.00019118503 28:0.18693498 29:0.21992396 30:0.00038237005 31:-0.00019118503 32:-0.00019118503 33:0.95726341 899:0.00019118503 1799:0.00019118503 2113:0.00019118503 2200:0.00019118503 2311:0.00019118503 2400:0.00019118503 2501:0.00019118503 2601:0.00019118503 2701:0.00019118503 #
-500 3:0.0082517527 4:-0.029156059 11:-0.00024903982 12:-0.00024903982 13:0.00024903982 14:-0.00024903982 15:-0.00024903982 16:-0.00024903982 18:-0.00024903982 19:-0.00024903982 28:0.11090241 29:0.13047445 30:0.039846368 31:-0.00024903982 32:-0.00024903982 33:0.98395628 900:0.00024903982 1799:0.00024903982 2108:0.00024903982 2203:0.00024903982 2324:0.00024903982 2399:0.00024903982 2501:0.00024903982 2602:0.00024903982 2701:0.00024903982 #
350 3:0.0094623063 4:-0.019848468 11:-0.00022635926 12:-0.00022635926 13:-0.00022635926 14:-0.00022635926 15:-0.00022635926 16:-0.00022635926 18:0.00022635926 19:-0.00022635926 28:0.10644544 29:0.125231 30:0.045271851 31:-0.00022635926 32:-0.00022635926 33:0.98511553 901:0.00022635926 1801:0.00022635926 2103:0.00022635926 2205:0.00022635926 2324:0.00022635926 2399:0.00022635926 2500:0.00022635926 2602:0.00022635926 2700:0.00022635926 #
350 3:0.008661597 4:-0.030948065 11:0.00026442483 12:-0.00026442483 13:-0.00026442483 14:-0.00026442483 15:-0.00026442483 16:-0.00026442483 18:-0.00026442483 19:-0.00026442483 28:0.11106108 29:0.13544105 30:0.026442485 31:0.00026442483 32:-0.00026442483 33:0.9836604 900:0.00026442483 1800:0.00026442483 2123:0.00026442483 2204:0.00026442483 2320:0.00026442483 2405:0.00026442483 2501:0.00026442483 2601:0.00026442483 2702:0.00026442483 #
-500 3:0.0099205328 4:-0.018019997 11:-0.00024356945 12:-0.00024356945 13:-0.00024356945 14:-0.00024356945 15:-0.00024356945 16:-0.00024356945 18:-0.00024356945 19:-0.00024356945 28:0.1138541 29:0.13394615 30:0.029228335 31:-0.00024356945 32:-0.00024356945 33:0.98377705 901:0.00024356945 1800:0.00024356945 2122:0.00024356945 2202:0.00024356945 2500:0.00024356945 2602:0.00024356945 2702:0.00024356945 #
350 3:0.0087039815 4:-0.021762704 11:0.00025778473 12:-0.00025778473 13:0.00025778473 14:-0.00025778473 15:0.00025778473 16:-0.00025778473 18:-0.00025778473 19:-0.00025778473 28:0.13042361 29:0.15905318 30:0.039956633 31:-0.00025778473 32:0.00025778473 33:0.97751969 901:0.00025778473 1801:0.00025778473 2119:0.00025778473 2204:0.00025778473 2501:0.00025778473 2602:0.00025778473 2701:0.00025778473 #
350 3:0.012029199 4:-0.021796253 11:-0.00029472241 12:-0.00029472241 13:-0.00029472241 14:-0.00029472241 15:-0.00029472241 16:-0.00029472241 18:-0.00029472241 19:-0.00029472241 28:0.17211789 29:0.2099013 30:0.029472243 31:-0.00029472241 32:-0.00029472241 33:0.96167928 901:0.00029472241 1799:0.00029472241 2115:0.00029472241 2204:0.00029472241 2501:0.00029472241 2602:0.00029472241 2701:0.00029472241 #
-500 3:0.0080038328 4:-0.020250488 11:-0.00024962163 12:0.00024962163 13:-0.00024962163 14:-0.00024962163 15:-0.00024962163 16:-0.00024962163 18:-0.00024962163 19:-0.00024962163 28:0.11851786 29:0.13943365 30:0.074886493 31:-0.00024962163 32:0.00024962163 33:0.98001456 901:0.00024962163 1800:0.00024962163 2123:0.00024962163 2204:0.00024962163 2500:0.00024962163 2602:0.00024962163 2699:0.00024962163 #
-500 3:0.014251794 4:-0.031679086 11:-0.00039476808 12:0.00039476808 13:-0.00039476808 14:-0.00039476808 15:-0.00039476808 16:-0.00039476808 18:-0.00039476808 19:-0.00039476808 28:0.18168411 29:0.22156753 30:0.031581447 31:-0.00039476808 32:-0.00039476808 33:0.95691782 901:0.00039476808 1801:0.00039476808 2115:0.00039476808 2204:0.00039476808 2321:0.00039476808 2404:0.00039476808 2499:0.00039476808 2600:0.00039476808 2700:0.00039476808 #
-500 3:0.0097880829 4:-0.026959222 11:-0.00027628624 12:-0.00027628624 13:-0.00027628624 14:-0.00027628624 15:-0.00027628624 16:-0.00027628624 18:-0.00027628624 19:-0.00027628624 28:0.113305 29:0.13817628 30:0.082885876 31:-0.00027628624 32:-0.00027628624 33:0.97998732 901:0.00027628624 1800:0.00027628624 2099:0.00027628624 2202:0.00027628624 2306:0.00027628624 2401:0.00027628624 2501:0.00027628624 2602:0.00027628624 2700:0.00027628624 #
350 3:0.0087696249 4:-0.023241349 11:-0.00024233348 12:-0.00024233348 13:-0.00024233348 14:-0.00024233348 15:-0.00024233348 16:-0.00024233348 18:0.00024233348 19:-0.00024233348 28:0.11327878 29:0.13326888 30:0.01744801 31:0.00024233348 32:-0.00024233348 33:0.98411626 901:0.00024233348 1799:0.00024233348 2106:0.00024233348 2201:0.00024233348 2501:0.00024233348 2602:0.00024233348 2701:0.00024233348 #
-500 3:0.012235563 4:-0.039561845 11:-0.00032353876 12:-0.00032353876 13:-0.00032353876 14:0.00032353876 15:-0.00032353876 16:-0.00032353876 18:-0.00032353876 19:-0.00032353876 28:0.16759308 29:0.20438267 30:0.0097061628 31:-0.00032353876 32:-0.00032353876 33:0.96349841 901:0.00032353876 1800:0.00032353876 2123:0.00032353876 2204:0.00032353876 2299:0.00032353876 2402:0.00032353876 2499:0.00032353876 2602:0.00032353876 2702:0.00032353876 #
350 3:0.011171739 4:-0.020053763 11:-0.00027322923 12:-0.00027322923 13:-0.00027322923 14:-0.00027322923 15:-0.00027322923 16:-0.00027322923 18:-0.00027322923 19:-0.00027322923 28:0.20000379 29:0.24390626 30:0.0062842723 31:-0.00027322923 32:-0.00027322923 33:0.94865185 900:0.00027322923 1801:0.00027322923 2115:0.00027322923 2204:0.00027322923 2324:0.00027322923 2399:0.00027322923 2499:0.00027322923 2600:0.00027322923 2700:0.00027322923 #
-500 3:0.010295001 4:-0.024255121 11:-0.00028708624 12:-0.00028708624 13:-0.00028708624 14:-0.00028708624 15:-0.00028708624 16:-0.00028708624 18:-0.00028708624 19:-0.00028708624 28:0.16631193 29:0.20282069 30:0.006028811 31:-0.00028708624 32:-0.00028708624 33:0.96460974 1801:0.00028708624 2115:0.00028708624 2204:0.00028708624 2310:0.00028708624 2401:0.00028708624 2500:0.00028708624 2601:0.00028708624 2700:0.00028708624 #
-500 3:0.0083286483 4:-0.017486503 11:-0.00019937173 12:0.00019937173 13:-0.00019937173 14:-0.00019937173 15:-0.00019937173 16:-0.00019937173 18:0.00019937173 19:-0.00019937173 28:0.21944247 29:0.25816843 30:0.019937173 31:-0.00019937173 32:-0.00019937173 33:0.94043642 901:0.00019937173 1801:0.00019937173 2106:0.00019937173 2201:0.00019937173 2324:0.00019937173 2399:0.00019937173 2501:0.00019937173 2602:0.00019937173 2701:0.00019937173 #
-500 3:0.013534932 4:-0.028359309 11:-0.00032377214 12:0.00032377214 13:-0.00032377214 14:0.00032377214 15:-0.00032377214 16:-0.00032377214 18:-0.00032377214 19:-0.00032377214 28:0.17483695 29:0.2132169 30:0.012950885 31:-0.00032377214 32:-0.00032377214 33:0.96063191 901:0.00032377214 1800:0.00032377214 2102:0.00032377214 2200:0.00032377214 2500:0.00032377214 2602:0.00032377214 2702:0.00032377214 #
350 3:0.0063031497 4:-0.018657941 11:-0.00019280656 12:0.00019280656 13:-0.00019280656 14:-0.00019280656 15:-0.00019280656 16:-0.00019280656 18:-0.00019280656 19:-0.00019280656 28:0.14590058 29:0.17164797 30:0.048201639 31:0.00019280656 32:-0.00019280656 33:0.97290188 901:0.00019280656 1799:0.00019280656 2104:0.00019280656 2202:0.00019280656 2504:0.00019280656 2602:0.00019280656 2701:0.00019280656 #
350 3:0.0084294574 4:-0.021547547 11:-0.00023964191 12:-0.00023964191 13:-0.00023964191 14:-0.00023964191 15:-0.00023964191 16:-0.00023964191 18:-0.00023964191 19:-0.00023964191 28:0.14212203 29:0.16720295 30:0.064942956 31:0.00023964191 32:-0.00023964191 33:0.97318578 901:0.00023964191 1799:0.00023964191 2104:0.00023964191 2202:0.00023964191 2501:0.00023964191 2602:0.00023964191 2699:0.00023964191 #
350 3:0.0067917607 4:-0.015406377 11:-0.00019775625 12:-0.00019775625 13:-0.00019775625 14:-0.00019775625 15:-0.00019775625 16:-0.00019775625 18:-0.00019775625 19:-0.00019775625 28:0.1140045 29:0.13412224 30:0.0039551249 31:0.00019775625 32:-0.00019775625 33:0.98423284 899:0.00019775625 1800:0.00019775625 2099:0.00019775625 2202:0.00019775625 2304:0.00019775625 2402:0.00019775625 2500:0.00019775625 2601:0.00019775625 2701:0.00019775625 #
-500 3:0.004965188 4:-0.015565887 11:-0.00019370492 12:-0.00019370492 13:-0.00019370492 14:-0.00019370492 15:-0.00019370492 16:-0.00019370492 18:-0.00019370492 19:-0.00019370492 28:0.14005059 29:0.1647654 30:0.015496394 31:0.00019370492 32:-0.00019370492 33:0.97607911 901:0.00019370492 1801:0.00019370492 2120:0.00019370492 2205:0.00019370492 2303:0.00019370492 2405:0.00019370492 2501:0.00019370492 2602:0.00019370492 2702:0.00019370492 #
350 3:0.011155795 4:-0.02639517 11:-0.00033349253 12:-0.00033349253 13:-0.00033349253 14:-0.00033349253 15:-0.00033349253 16:-0.00033349253 18:-0.00033349253 19:-0.00033349253 28:0.064697549 29:0.078900993 30:0.033349253 31:-0.00033349253 32:-0.00033349253 33:0.99380773 1801:0.00033349253 2101:0.00033349253 2201:0.00033349253 2501:0.00033349253 2602:0.00033349253 2702:0.00033349253 #
350 3:0.0074149095 4:-0.017616099 11:-0.00021375569 12:-0.00021375569 13:-0.00021375569 14:-0.00021375569 15:-0.00021375569 16:-0.00021375569 18:-0.00021375569 19:-0.00021375569 28:0.13741712 29:0.1616677 30:0.053438921 31:0.00021375569 32:-0.00021375569 33:0.97558093 899:0.00021375569 1799:0.00021375569 2104:0.00021375569 2202:0.00021375569 2299:0.00021375569 2402:0.00021375569 2500:0.00021375569 2602:0.00021375569 2701:0.00021375569 #
-500 3:0.010040012 4:-0.018878581 11:0.00025123305 12:-0.00025123305 13:-0.00025123305 14:-0.00025123305 15:-0.00025123305 16:-0.00025123305 18:-0.00025123305 19:-0.00025123305 28:0.12421966 29:0.14613974 30:0.075369909 31:-0.00025123305 32:-0.00025123305 33:0.97830147 901:0.00025123305 1800:0.00025123305 2123:0.00025123305 2204:0.00025123305 2500:0.00025123305 2602:0.00025123305 2701:0.00025123305 #
350 3:0.013143379 4:-0.033084471 11:-0.00038370577 12:-0.00038370577 13:-0.00038370577 14:-0.00038370577 15:-0.00038370577 16:-0.00038370577 18:-0.00038370577 19:-0.00038370577 28:0.19428942 29:0.23693831 30:0.006906704 31:-0.00038370577 32:-0.00038370577 33:0.95120662 899:0.00038370577 1800:0.00038370577 2115:0.00038370577 2204:0.00038370577 2323:0.00038370577 2404:0.00038370577 2499:0.00038370577 2602:0.00038370577 2700:0.00038370577 #
350 3:0.008655915 4:-0.028934849 11:-0.00025810243 12:-0.00025810243 13:-0.00025810243 14:-0.00025810243 15:-0.00025810243 16:-0.00025810243 18:-0.00025810243 19:-0.00025810243 28:0.10216727 29:0.12459379 30:0.0025810243 31:-0.00025810243 32:-0.00025810243 33:0.98646754 901:0.00025810243 1801:0.00025810243 2123:0.00025810243 2204:0.00025810243 2324:0.00025810243 2399:0.00025810243 2501:0.00025810243 2602:0.00025810243 2702:0.00025810243 #
-500 3:0.0063770828 4:-0.018968917 11:-0.00022949488 12:-0.00022949488 13:-0.00022949488 14:-0.00022949488 15:-0.00022949488 16:-0.00022949488 18:-0.00022949488 19:-0.00022949488 28:0.10208621 29:0.12010156 30:0.0041309078 31:-0.00022949488 32:-0.00022949488 33:0.98728698 901:0.00022949488 1801:0.00022949488 2103:0.00022949488 2205:0.00022949488 2501:0.00022949488 2602:0.00022949488 2699:0.00022949488 #
-500 3:0.012518655 4:-0.029538553 11:-0.00035862735 12:-0.00035862735 13:-0.00035862735 14:-0.00035862735 15:-0.00035862735 16:-0.00035862735 18:-0.00035862735 19:-0.00035862735 28:0.12408507 29:0.15132281 30:0.026897052 31:-0.00035862735 32:-0.00035862735 33:0.97976995 901:0.00035862735 1801:0.00035862735 2123:0.00035862735 2204:0.00035862735 2324:0.00035862735 2399:0.00035862735 2501:0.00035862735 2601:0.00035862735 2701:0.00035862735 #
350 3:0.009540516 4:-0.030783148 11:-0.00025171388 12:-0.00025171388 13:-0.00025171388 14:-0.00025171388 15:-0.00025171388 16:-0.00025171388 18:-0.00025171388 19:-0.00025171388 28:0.11810164 29:0.13894355 30:0.0050342777 31:-0.00025171388 32:-0.00025171388 33:0.98269105 900:0.00025171388 1800:0.00025171388 2101:0.00025171388 2201:0.00025171388 2500:0.00025171388 2600:0.00025171388 2700:0.00025171388 #
-500 3:0.0098159546 4:-0.026650036 11:-0.00028908174 12:-0.00028908174 13:-0.00028908174 14:-0.00028908174 15:-0.00028908174 16:-0.00028908174 18:-0.00028908174 19:-0.00028908174 28:0.14193624 29:0.17309347 30:0.0028908174 31:-0.00028908174 32:-0.00028908174 33:0.97420543 899:0.00028908174 1800:0.00028908174 2115:0.00028908174 2204:0.00028908174 2322:0.00028908174 2402:0.00028908174 2501:0.00028908174 2601:0.00028908174 2702:0.00028908174 #
-500 3:0.0084399907 4:-0.015274175 11:-0.00020694754 12:-0.00020694754 13:-0.00020694754 14:-0.00020694754 15:-0.00020694754 16:-0.00020694754 18:-0.00020694754 19:-0.00020694754 28:0.13097917 29:0.15409315 30:0.032076869 31:0.00020694754 32:-0.00020694754 33:0.97865492 901:0.00020694754 1801:0.00020694754 2114:0.00020694754 2203:0.00020694754 2321:0.00020694754 2404:0.00020694754 2501:0.00020694754 2601:0.00020694754 2701:0.00020694754 #
350 3:0.0083398847 4:-0.015674321 11:-0.0002087731 12:-0.0002087731 13:-0.0002087731 14:-0.0002087731 15:-0.0002087731 16:-0.0002087731 18:-0.0002087731 19:-0.0002087731 28:0.12997587 29:0.15291376 30:0.026096636 31:0.0002087731 32:-0.0002087731 33:0.97914582 901:0.0002087731 1800:0.0002087731 2114:0.0002087731 2203:0.0002087731 2315:0.0002087731 2404:0.0002087731 2501:0.0002087731 2602:0.0002087731 2702:0.0002087731 #
350 3:0.0072513977 4:-0.020618722 11:-0.00025175919 12:-0.00025175919 13:-0.00025175919 14:-0.00025175919 15:-0.00025175919 16:-0.00025175919 18:-0.00025175919 19:-0.00025175919 28:0.08822649 29:0.10379528 30:0.005538702 31:-0.00025175919 32:-0.00025175919 33:0.99042064 900:0.00025175919 1800:0.00025175919 2106:0.00025175919 2201:0.00025175919 2315:0.00025175919 2404:0.00025175919 2501:0.00025175919 2602:0.00025175919 2700:0.00025175919 #
350 3:0.0073351376 4:-0.022296434 11:-0.00024494171 12:-0.00024494171 13:-0.00024494171 14:-0.00024494171 15:-0.00024494171 16:-0.00024494171 18:-0.00024494171 19:-0.00024494171 28:0.21650152 29:0.24885342 30:0.036741253 31:-0.00024494171 32:-0.00024494171 33:0.94302553 1799:0.00024494171 2106:0.00024494171 2201:0.00024494171 2320:0.00024494171 2405:0.00024494171 2501:0.00024494171 2602:0.00024494171 2702:0.00024494171 #
-500 3:0.015435654 4:-0.03380546 11:-0.00042871363 12:-0.00042871363 13:-0.00042871363 14:-0.00042871363 15:-0.00042871363 16:-0.00042871363 18:-0.00042871363 19:-0.00042871363 28:0.29090363 29:0.35476053 30:0.053589202 31:-0.00042871363 32:-0.00042871363 33:0.88615108 901:0.00042871363 1801:0.00042871363 2115:0.00042871363 2204:0.00042871363 2323:0.00042871363 2404:0.00042871363 2499:0.00042871363 2602:0.00042871363 2700:0.00042871363 #
350 3:0.0089040315 4:-0.03091537 11:-0.00026141145 12:-0.00026141145 13:-0.00026141145 14:-0.00026141145 15:-0.00026141145 16:-0.00026141145 18:-0.00026141145 19:-0.00026141145 28:0.16935802 29:0.20653334 30:0.026141144 31:-0.00026141145 32:0.00026141145 33:0.96277833 901:0.00026141145 1799:0.00026141145 2108:0.00026141145 2203:0.00026141145 2314:0.00026141145 2403:0.00026141145 2501:0.00026141145 2601:0.00026141145 2701:0.00026141145 #
350 3:0.01020645 4:-0.020642428 11:-0.00023209762 12:-0.00023209762 13:-0.00023209762 14:-0.00023209762 15:-0.00023209762 16:-0.00023209762 18:-0.00023209762 19:-0.00023209762 28:0.10975432 29:0.12912287 30:0.0048740502 31:0.00023209762 32:-0.00023209762 33:0.98525441 1801:0.00023209762 2115:0.00023209762 2204:0.00023209762 2323:0.00023209762 2404:0.00023209762 2501:0.00023209762 2601:0.00023209762 2699:0.00023209762 #
350 3:0.009065602 4:-0.021136243 11:-0.00025185611 12:-0.00025185611 13:-0.00025185611 14:-0.00025185611 15:-0.00025185611 16:-0.00025185611 18:-0.00025185611 19:-0.00025185611 28:0.13115658 29:0.15430216 30:0.0093186758 31:-0.00025185611 32:-0.00025185611 33:0.97896469 901:0.00025185611 1799:0.00025185611 2125:0.00025185611 2203:0.00025185611 2308:0.00025185611 2403:0.00025185611 2499:0.00025185611 2602:0.00025185611 2702:0.00025185611 #
-500 3:0.0080785174 4:-0.014695403 11:-0.00019905576 12:-0.00019905576 13:-0.00019905576 14:-0.00019905576 15:-0.00019905576 16:-0.00019905576 18:-0.00019905576 19:-0.00019905576 28:0.092835627 29:0.10921791 30:0.0069669518 31:-0.00019905576 32:0.00019905576 33:0.98950619 901:0.00019905576 1800:0.00019905576 2100:0.00019905576 2201:0.00019905576 2311:0.00019905576 2400:0.00019905576 2504:0.00019905576 2601:0.00019905576 2701:0.00019905576 #
-500 3:0.01357216 4:-0.032487467 11:-0.0003866776 12:0.0003866776 13:-0.0003866776 14:-0.0003866776 15:-0.0003866776 16:-0.0003866776 18:-0.0003866776 19:-0.0003866776 28:0.30756336 29:0.37507728 30:0.021653945 31:-0.0003866776 32:-0.0003866776 33:0.8735047 899:0.0003866776 1801:0.0003866776 2106:0.0003866776 2201:0.0003866776 2320:0.0003866776 2405:0.0003866776 2501:0.0003866776 2602:0.0003866776 2702:0.0003866776 #
-500 3:0.0067974352 4:-0.021366725 11:-0.00022722996 12:-0.00022722996 13:-0.00022722996 14:-0.00022722996 15:-0.00022722996 16:-0.00022722996 18:-0.00022722996 19:-0.00022722996 28:0.17742343 29:0.20873345 30:0.031812195 31:-0.00022722996 32:-0.00022722996 33:0.96095556 899:0.00022722996 1801:0.00022722996 2101:0.00022722996 2201:0.00022722996 2300:0.00022722996 2401:0.00022722996 2501:0.00022722996 2600:0.00022722996 2701:0.00022722996 #
-500 3:0.010189925 4:-0.022057971 11:-0.00023849349 12:-0.00023849349 13:-0.00023849349 14:-0.00023849349 15:-0.00023849349 16:-0.00023849349 18:-0.00023849349 19:-0.00023849349 28:0.16169143 29:0.1902248 30:0.047698699 31:-0.00023849349 32:-0.00023849349 33:0.96685261 1800:0.00023849349 2113:0.00023849349 2200:0.00023849349 2500:0.00023849349 2600:0.00023849349 2699:0.00023849349 #
-500 3:0.0060898094 4:-0.017859163 11:-0.00021776244 12:-0.00021776244 13:-0.00021776244 14:-0.00021776244 15:-0.00021776244 16:-0.00021776244 18:-0.00021776244 19:-0.00021776244 28:0.091732427 29:0.10792089 30:0.0039197239 31:-0.00021776244 32:-0.00021776244 33:0.9897303 900:0.00021776244 1801:0.00021776244 2101:0.00021776244 2201:0.00021776244 2500:0.00021776244 2602:0.00021776244 2699:0.00021776244 #
350 3:0.0086790677 4:-0.019312965 11:-0.00024154558 12:-0.00024154558 13:-0.00024154558 14:-0.00024154558 15:-0.00024154558 16:-0.00024154558 18:-0.00024154558 19:-0.00024154558 28:0.1356979 29:0.15964472 30:0.0086956415 31:0.00024154558 32:-0.00024154558 33:0.97753501 1800:0.00024154558 2115:0.00024154558 2204:0.00024154558 2306:0.00024154558 2401:0.00024154558 2501:0.00024154558 2602:0.00024154558 2700:0.00024154558 #
350 3:0.01085931 4:-0.019636404 11:-0.00026570936 12:-0.00026570936 13:-0.00026570936 14:-0.00026570936 15:-0.00026570936 16:-0.00026570936 18:0.00026570936 19:-0.00026570936 28:0.12039024 29:0.1468177 30:0.0066427337 31:0.00026570936 32:-0.00026570936 33:0.98153031 901:0.00026570936 1800:0.00026570936 2115:0.00026570936 2204:0.00026570936 2306:0.00026570936 2401:0.00026570936 2500:0.00026570936 2602:0.00026570936 2699:0.00026570936 #
350 3:0.015269192 4:-0.030188406 11:0.00039216096 12:-0.00039216096 13:-0.00039216096 14:-0.00039216096 15:-0.00039216096 16:-0.00039216096 18:-0.00039216096 19:-0.00039216096 28:0.19093533 29:0.23284949 30:0.0078432197 31:-0.00039216096 32:-0.00039216096 33:0.95295113 901:0.00039216096 1801:0.00039216096 2125:0.00039216096 2203:0.00039216096 2315:0.00039216096 2404:0.00039216096 2500:0.00039216096 2601:0.00039216096 2702:0.00039216096 #
-500 3:0.0065397383 4:-0.022854546 11:-0.00019436535 12:-0.00019436535 13:-0.00019436535 14:-0.00019436535 15:-0.00019436535 16:-0.00019436535 18:-0.00019436535 19:-0.00019436535 28:0.13099253 29:0.15410841 30:0.0069971527 31:-0.00019436535 32:-0.00019436535 33:0.97901827 900:0.00019436535 1800:0.00019436535 2101:0.00019436535 2201:0.00019436535 2306:0.00019436535 2401:0.00019436535 2501:0.00019436535 2600:0.00019436535 2701:0.00019436535 #
-500 3:0.0065188357 4:-0.022834659 11:-0.00019366152 12:-0.00019366152 13:-0.00019366152 14:-0.00019366152 15:-0.00019366152 16:-0.00019366152 18:-0.00019366152 19:-0.00019366152 28:0.13241799 29:0.15578519 30:0.0054225223 31:-0.00019366152 32:-0.00019366152 33:0.97857159 901:0.00019366152 1801:0.00019366152 2123:0.00019366152 2204:0.00019366152 2315:0.00019366152 2404:0.00019366152 2501:0.00019366152 2602:0.00019366152 2699:0.00019366152 #
350 3:0.0067029274 4:-0.01974196 11:-0.00023924604 12:-0.00023924604 13:-0.00023924604 14:-0.00023924604 15:-0.00023924604 16:-0.00023924604 18:-0.00023924604 19:-0.00023924604 28:0.11955603 29:0.14065515 30:0.0040671825 31:-0.00023924604 32:-0.00023924604 33:0.98258346 900:0.00023924604 1800:0.00023924604 2115:0.00023924604 2204:0.00023924604 2504:0.00023924604 2602:0.00023924604 2700:0.00023924604 #
350 3:0.0098376628 4:-0.020679945 11:-0.00023597103 12:0.00023597103 13:-0.00023597103 14:-0.00023597103 15:-0.00023597103 16:-0.00023597103 18:-0.00023597103 19:-0.00023597103 28:0.14162038 29:0.16661207 30:0.007079131 31:-0.00023597103 32:-0.00023597103 33:0.97550428 901:0.00023597103 1801:0.00023597103 2115:0.00023597103 2204:0.00023597103 2501:0.00023597103 2602:0.00023597103 2702:0.00023597103 #
350 3:0.0093950303 4:-0.016688077 11:-0.0002280359 12:-0.0002280359 13:-0.0002280359 14:-0.0002280359 15:-0.0002280359 16:-0.0002280359 18:-0.0002280359 19:-0.0002280359 28:0.09978395 29:0.11739288 30:0.0066130408 31:-0.0002280359 32:-0.0002280359 33:0.9878515 901:0.0002280359 1801:0.0002280359 2123:0.0002280359 2204:0.0002280359 2310:0.0002280359 2401:0.0002280359 2501:0.0002280359 2602:0.0002280359 2700:0.0002280359 #
350 3:0.019969091 4:-0.044293653 11:-0.00055227464 12:-0.00055227464 13:-0.00055227464 14:-0.00055227464 15:-0.00055227464 16:-0.00055227464 18:-0.00055227464 19:-0.00055227464 28:0.23792544 29:0.29015404 30:0.0088363942 31:-0.00055227464 32:-0.00055227464 33:0.92561233 901:0.00055227464 1801:0.00055227464 2106:0.00055227464 2201:0.00055227464 2500:0.00055227464 2602:0.00055227464 2699:0.00055227464 #
350 3:0.0070011932 4:-0.019971184 11:-0.00024565766 12:-0.00024565766 13:-0.00024565766 14:-0.00024565766 15:-0.00024565766 16:-0.00024565766 18:-0.00024565766 19:-0.00024565766 28:0.097862639 29:0.11513238 30:0.0044218381 31:-0.00024565766 32:-0.00024565766 33:0.98828077 900:0.00024565766 1801:0.00024565766 2115:0.00024565766 2204:0.00024565766 2305:0.00024565766 2405:0.00024565766 2500:0.00024565766 2602:0.00024565766 2699:0.00024565766 #
-500 3:0.0086499769 4:-0.017546073 11:-0.00020500259 12:-0.00020500259 13:-0.00020500259 14:-0.00020500259 15:-0.00020500259 16:-0.00020500259 18:-0.00020500259 19:-0.00020500259 28:0.13234763 29:0.15570357 30:0.006150078 31:-0.00020500259 32:-0.00020500259 33:0.9786824 901:0.00020500259 1801:0.00020500259 2123:0.00020500259 2204:0.00020500259 2500:0.00020500259 2600:0.00020500259 2700:0.00020500259 #
350 3:0.0082412353 4:-0.029446103 11:0.00025159187 12:-0.00025159187 13:-0.00025159187 14:-0.00025159187 15:-0.00025159187 16:-0.00025159187 18:-0.00025159187 19:-0.00025159187 28:0.11904572 29:0.14005364 30:0.063149557 31:0.00025159187 32:-0.00025159187 33:0.98045349 900:0.00025159187 1799:0.00025159187 2101:0.00025159187 2201:0.00025159187 2320:0.00025159187 2405:0.00025159187 2501:0.00025159187 2601:0.00025159187 2702:0.00025159187 #
-500 3:0.009566973 4:-0.01877488 11:-0.00024508947 12:-0.00024508947 13:-0.00024508947 14:-0.00024508947 15:-0.00024508947 16:-0.00024508947 18:-0.00024508947 19:-0.00024508947 28:0.13007388 29:0.15302895 30:0.0061272364 31:-0.00024508947 32:-0.00024508947 33:0.97937745 899:0.00024508947 1801:0.00024508947 2115:0.00024508947 2204:0.00024508947 2323:0.00024508947 2404:0.00024508947 2501:0.00024508947 2600:0.00024508947 2700:0.00024508947 #
-500 3:0.0094544962 4:-0.018831037 11:-0.00024146447 12:-0.00024146447 13:-0.00024146447 14:-0.00024146447 15:-0.00024146447 16:-0.00024146447 18:-0.00024146447 19:-0.00024146447 28:0.099575117 29:0.11714648 30:0.024146447 31:-0.00024146447 32:-0.00024146447 33:0.98758966 899:0.00024146447 1801:0.00024146447 2115:0.00024146447 2204:0.00024146447 2304:0.00024146447 2402:0.00024146447 2501:0.00024146447 2600:0.00024146447 2699:0.00024146447 #
-500 3:0.0093845557 4:-0.027578304 11:-0.00028549557 12:-0.00028549557 13:-0.00028549557 14:-0.00028549557 15:-0.00028549557 16:-0.00028549557 18:-0.00028549557 19:-0.00028549557 28:0.15825304 29:0.19299215 30:0.012847301 31:-0.00028549557 32:-0.00028549557 33:0.96782994 1801:0.00028549557 2123:0.00028549557 2204:0.00028549557 2315:0.00028549557 2404:0.00028549557 2500:0.00028549557 2602:0.00028549557 2700:0.00028549557 #
350 3:0.010543507 4:-0.022715589 11:-0.0002685425 12:-0.0002685425 13:-0.0002685425 14:-0.0002685425 15:-0.0002685425 16:-0.0002685425 18:-0.0002685425 19:-0.0002685425 28:0.17009214 29:0.20743027 30:0.0075191897 31:0.0002685425 32:-0.0002685425 33:0.96299338 900:0.0002685425 1801:0.0002685425 2106:0.0002685425 2201:0.0002685425 2315:0.0002685425 2404:0.0002685425 2500:0.0002685425 2601:0.0002685425 2700:0.0002685425 #
-500 3:0.0075958143 4:-0.026369656 11:-0.00022307798 12:-0.00022307798 13:-0.00022307798 14:-0.00022307798 15:-0.00022307798 16:-0.00022307798 18:-0.00022307798 19:-0.00022307798 28:0.10896913 29:0.12819846 30:0.0071384953 31:-0.00022307798 32:-0.00022307798 33:0.98533541 901:0.00022307798 1801:0.00022307798 2123:0.00022307798 2204:0.00022307798 2308:0.00022307798 2403:0.00022307798 2501:0.00022307798 2601:0.00022307798 2700:0.00022307798 #
350 3:0.0079706851 4:-0.025842341 11:-0.00021110884 12:-0.00021110884 13:-0.00021110884 14:-0.00021110884 15:-0.00021110884 16:-0.00021110884 18:-0.00021110884 19:-0.00021110884 28:0.11775651 29:0.13853806 30:0.008444353 31:-0.00021110884 32:-0.00021110884 33:0.98292273 901:0.00021110884 1799:0.00021110884 2110:0.00021110884 2201:0.00021110884 2311:0.00021110884 2400:0.00021110884 2502:0.00021110884 2602:0.00021110884 2700:0.00021110884 #
350 3:0.01086 4:-0.019651074 11:-0.00026594053 12:-0.00026594053 13:-0.00026594053 14:-0.00026594053 15:-0.00026594053 16:-0.00026594053 18:-0.00026594053 19:-0.00026594053 28:0.22341399 29:0.27245608 30:0.0063825729 31:0.00026594053 32:-0.00026594053 33:0.93557882 901:0.00026594053 1801:0.00026594053 2106:0.00026594053 2201:0.00026594053 2323:0.00026594053 2404:0.00026594053 2504:0.00026594053 2602:0.00026594053 2699:0.00026594053 #
350 3:0.012435621 4:-0.040378701 11:-0.00032973182 12:-0.00032973182 13:-0.00032973182 14:-0.00032973182 15:-0.00032973182 16:-0.00032973182 18:-0.00032973182 19:-0.00032973182 28:0.16288751 29:0.19864362 30:0.010881149 31:-0.00032973182 32:-0.00032973182 33:0.9654547 901:0.00032973182 1799:0.00032973182 2115:0.00032973182 2204:0.00032973182 2314:0.00032973182 2403:0.00032973182 2499:0.00032973182 2602:0.00032973182 2700:0.00032973182 #
-500 3:0.012667582 4:-0.034082327 11:-0.00027815404 12:-0.00027815404 13:-0.00027815404 14:-0.00027815404 15:-0.00027815404 16:-0.00027815404 18:-0.00027815404 19:-0.00027815404 28:0.15809719 29:0.19280247 30:0.0083446214 31:-0.00027815404 32:-0.00027815404 33:0.96769792 901:0.00027815404 1800:0.00027815404 2115:0.00027815404 2204:0.00027815404 2308:0.00027815404 2403:0.00027815404 2499:0.00027815404 2602:0.00027815404 2700:0.00027815404 #
-500 3:0.0057077589 4:-0.01731601 11:-0.00021089388 12:-0.00021089388 13:-0.00021089388 14:-0.00021089388 15:-0.00021089388 16:-0.00021089388 18:-0.00021089388 19:-0.00021089388 28:0.067585163 29:0.07951121 30:0.0040069837 31:0.00021089388 32:-0.00021089388 33:0.99436462 899:0.00021089388 1800:0.00021089388 2115:0.00021089388 2204:0.00021089388 2500:0.00021089388 2602:0.00021089388 2700:0.00021089388 #
350 3:0.010293791 4:-0.018678438 11:-0.00025246121 12:-0.00025246121 13:-0.00025246121 14:-0.00025246121 15:-0.00025246121 16:-0.00025246121 18:-0.00025246121 19:-0.00025246121 28:0.21567003 29:0.26301157 30:0.042918406 31:0.00025246121 32:-0.00025246121 33:0.9391557 901:0.00025246121 1800:0.00025246121 2106:0.00025246121 2201:0.00025246121 2501:0.00025246121 2602:0.00025246121 2702:0.00025246121 #
-500 3:0.0065474934 4:-0.016425163 11:0.00019467741 12:-0.00019467741 13:-0.00019467741 14:-0.00019467741 15:-0.00019467741 16:-0.00019467741 18:-0.00019467741 19:-0.00019467741 28:0.13261037 29:0.15601254 30:0.0042829034 31:-0.00019467741 32:-0.00019467741 33:0.97864336 900:0.00019467741 1800:0.00019467741 2115:0.00019467741 2204:0.00019467741 2323:0.00019467741 2404:0.00019467741 2499:0.00019467741 2602:0.00019467741 2699:0.00019467741 #
350 3:0.011325556 4:-0.036162004 11:-0.00037909282 12:-0.00037909282 13:-0.00037909282 14:-0.00037909282 15:-0.00037909282 16:-0.00037909282 18:0.00037909282 19:-0.00037909282 28:0.28016096 29:0.34166119 30:0.047386602 31:-0.00037909282 32:-0.00037909282 33:0.89503813 901:0.00037909282 1800:0.00037909282 2115:0.00037909282 2204:0.00037909282 2300:0.00037909282 2401:0.00037909282 2499:0.00037909282 2601:0.00037909282 2700:0.00037909282 #
350 3:0.014185457 4:-0.025770124 11:-0.00034851799 12:-0.00034851799 13:-0.00034851799 14:-0.00034851799 15:-0.00034851799 16:-0.00034851799 18:-0.00034851799 19:-0.00034851799 28:0.13208832 29:0.16108502 30:0.0069703599 31:-0.00034851799 32:-0.00034851799 33:0.977593 901:0.00034851799 1801:0.00034851799 2123:0.00034851799 2204:0.00034851799 2315:0.00034851799 2404:0.00034851799 2501:0.00034851799 2602:0.00034851799 2699:0.00034851799 #
-500 3:0.0098549966 4:-0.019260904 11:-0.00023185129 12:-0.00023185129 13:-0.00023185129 14:-0.00023185129 15:-0.00023185129 16:-0.00023185129 18:-0.00023185129 19:-0.00023185129 28:0.069726951 29:0.082031302 30:0.23161943 31:-0.00023185129 32:-0.00023185129 33:0.96658796 901:0.00023185129 1799:0.00023185129 2115:0.00023185129 2204:0.00023185129 2324:0.00023185129 2399:0.00023185129 2501:0.00023185129 2601:0.00023185129 2702:0.00023185129 #
-500 3:0.0083707031 4:-0.014007769 11:-0.00019638411 12:-0.00019638411 13:-0.00019638411 14:-0.00019638411 15:-0.00019638411 16:-0.00019638411 18:-0.00019638411 19:-0.00019638411 28:0.032291438 29:0.037990507 30:0.0043204506 31:-0.00019638411 32:-0.00019638411 33:0.99861318 900:0.00019638411 1801:0.00019638411 2115:0.00019638411 2204:0.00019638411 2321:0.00019638411 2404:0.00019638411 2504:0.00019638411 2601:0.00019638411 2700:0.00019638411 #
-500 3:0.0051995143 4:-0.016102923 11:0.00020097643 12:-0.00020097643 13:-0.00020097643 14:-0.00020097643 15:-0.00020097643 16:-0.00020097643 18:-0.00020097643 19:-0.00020097643 28:0.11696628 29:0.13760656 30:0.0080390573 31:-0.00020097643 32:-0.00020097643 33:0.9833777 901:0.00020097643 1800:0.00020097643 2123:0.00020097643 2204:0.00020097643 2500:0.00020097643 2601:0.00020097643 2700:0.00020097643 #
350 3:0.010949553 4:-0.027570797 11:-0.00029495175 12:-0.00029495175 13:-0.00029495175 14:-0.00029495175 15:-0.00029495175 16:-0.00029495175 18:-0.00029495175 19:-0.00029495175 28:0.036868971 29:0.044962447 30:0.009438456 31:-0.00029495175 32:-0.00029495175 33:0.99782181 1800:0.00029495175 2115:0.00029495175 2204:0.00029495175 2324:0.00029495175 2399:0.00029495175 2499:0.00029495175 2600:0.00029495175 2701:0.00029495175 #
350 3:0.0068464442 4:-0.016749477 11:-0.00020430292 12:-0.00020430292 13:-0.00020430292 14:-0.00020430292 15:-0.00020430292 16:-0.00020430292 18:-0.00020430292 19:-0.00020430292 28:0.10504643 29:0.12358488 30:0.0051075728 31:-0.00020430292 32:-0.00020430292 33:0.98657882 900:0.00020430292 1801:0.00020430292 2121:0.00020430292 2204:0.00020430292 2323:0.00020430292 2404:0.00020430292 2501:0.00020430292 2601:0.00020430292 2699:0.00020430292 #
350 3:0.013839297 4:-0.037909567 11:-0.00033878084 12:-0.00033878084 13:-0.00033878084 14:-0.00033878084 15:-0.00033878084 16:-0.00033878084 18:-0.00033878084 19:-0.00033878084 28:0.1768436 29:0.21566451 30:0.0091470834 31:-0.00033878084 32:-0.00033878084 33:0.95942736 900:0.00033878084 1800:0.00033878084 2106:0.00033878084 2201:0.00033878084 2500:0.00033878084 2601:0.00033878084 2700:0.00033878084 #
350 3:0.0078898603 4:-0.01483366 11:0.00019734683 12:-0.00019734683 13:-0.00019734683 14:-0.00019734683 15:-0.00019734683 16:-0.00019734683 18:-0.00019734683 19:-0.00019734683 28:0.088409401 29:0.10401165 30:0.0049336706 31:-0.00019734683 32:-0.00019734683 33:0.9904837 901:0.00019734683 1800:0.00019734683 2106:0.00019734683 2201:0.00019734683 2324:0.00019734683 2399:0.00019734683 2501:0.00019734683 2602:0.00019734683 2700:0.00019734683 #
-500 3:0.0090240063 4:-0.029107064 11:-0.000237941 12:0.000237941 13:-0.000237941 14:-0.000237941 15:-0.000237941 16:-0.000237941 18:-0.000237941 19:-0.000237941 28:0.18897513 29:0.22232255 30:0.028552921 31:-0.000237941 32:-0.000237941 33:0.95557106 900:0.000237941 1799:0.000237941 2123:0.000237941 2204:0.000237941 2321:0.000237941 2404:0.000237941 2501:0.000237941 2602:0.000237941 2702:0.000237941 #
-500 3:0.0089754695 4:-0.018838055 11:-0.00021490407 12:-0.00021490407 13:0.00021490407 14:-0.00021490407 15:-0.00021490407 16:-0.00021490407 18:-0.00021490407 19:-0.00021490407 28:0.083589084 29:0.098340102 30:0.07521642 31:-0.00021490407 32:-0.00021490407 33:0.98855871 901:0.00021490407 1799:0.00021490407 2113:0.00021490407 2200:0.00021490407 2302:0.00021490407 2400:0.00021490407 2504:0.00021490407 2602:0.00021490407 2700:0.00021490407 #
-500 3:0.0090491204 4:-0.020059763 11:-0.00025130122 12:-0.00025130122 13:-0.00025130122 14:-0.00025130122 15:-0.00025130122 16:-0.00025130122 18:-0.00025130122 19:-0.00025130122 28:0.083537556 29:0.098278888 30:0.050260246 31:-0.00025130122 32:-0.00025130122 33:0.99012685 901:0.00025130122 1800:0.00025130122 2101:0.00025130122 2201:0.00025130122 2310:0.00025130122 2401:0.00025130122 2501:0.00025130122 2602:0.00025130122 2701:0.00025130122 #
-500 3:0.0096060969 4:-0.016083317 11:-0.00022649561 12:-0.00022649561 13:-0.00022649561 14:-0.00022649561 15:-0.00022649561 16:-0.00022649561 18:-0.00022649561 19:-0.00022649561 28:0.1046523 29:0.12312075 30:0.011324781 31:-0.00022649561 32:-0.00022649561 33:0.98661494 900:0.00022649561 1800:0.00022649561 2123:0.00022649561 2204:0.00022649561 2315:0.00022649561 2404:0.00022649561 2500:0.00022649561 2602:0.00022649561 2702:0.00022649561 #
350 3:0.0082952315 4:-0.023018366 11:0.00020611158 12:-0.00020611158 13:-0.00020611158 14:-0.00020611158 15:-0.00020611158 16:-0.00020611158 18:-0.00020611158 19:-0.00020611158 28:0.09696313 29:0.11407451 30:0.015458369 31:0.00020611158 32:-0.00020611158 33:0.98830503 901:0.00020611158 1801:0.00020611158 2103:0.00020611158 2205:0.00020611158 2501:0.00020611158 2601:0.00020611158 2701:0.00020611158 #
350 3:0.0073362659 4:-0.021718796 11:-0.00022713459 12:-0.00022713459 13:-0.00022713459 14:-0.00022713459 15:-0.00022713459 16:-0.00022713459 18:-0.00022713459 19:-0.00022713459 28:0.056781374 29:0.066802554 30:0.01589942 31:-0.00022713459 32:-0.00022713459 33:0.995758 899:0.00022713459 1799:0.00022713459 2106:0.00022713459 2201:0.00022713459 2320:0.00022713459 2405:0.00022713459 2501:0.00022713459 2601:0.00022713459 2700:0.00022713459 #
350 3:0.0076375846 4:-0.026296804 11:-0.00023692855 12:-0.00023692855 13:-0.00023692855 14:-0.00023692855 15:-0.00023692855 16:-0.00023692855 18:-0.00023692855 19:-0.00023692855 28:0.11905186 29:0.14006031 30:0.008292499 31:-0.00023692855 32:0.00023692855 33:0.98254269 1800:0.00023692855 2120:0.00023692855 2205:0.00023692855 2324:0.00023692855 2399:0.00023692855 2500:0.00023692855 2601:0.00023692855 2702:0.00023692855 #
350 3:0.0093290908 4:-0.015896397 11:-0.00022353737 12:0.00022353737 13:-0.00022353737 14:-0.00022353737 15:-0.00022353737 16:-0.00022353737 18:-0.00022353737 19:-0.00022353737 28:0.10002179 29:0.11767231 30:0.0060355091 31:-0.00022353737 32:-0.00022353737 33:0.98781163 901:0.00022353737 1801:0.00022353737 2100:0.00022353737 2201:0.00022353737 2504:0.00022353737 2602:0.00022353737 2699:0.00022353737 #
-500 3:0.0098465849 4:-0.026828261 11:-0.00021830117 12:-0.00021830117 13:-0.00021830117 14:-0.00021830117 15:-0.00021830117 16:-0.00021830117 18:-0.00021830117 19:-0.00021830117 28:0.15149665 29:0.17823198 30:0.0185556 31:-0.00021830117 32:-0.00021830117 33:0.97165853 1801:0.00021830117 2115:0.00021830117 2204:0.00021830117 2321:0.00021830117 2404:0.00021830117 2499:0.00021830117 2602:0.00021830117 2701:0.00021830117 #
350 3:0.0091202091 4:-0.017150676 11:-0.00022813398 12:-0.00022813398 13:-0.00022813398 14:-0.00022813398 15:-0.00022813398 16:-0.00022813398 18:-0.00022813398 19:-0.00022813398 28:0.16676366 29:0.19619295 30:0.045626797 31:-0.00022813398 32:-0.00022813398 33:0.96500677 901:0.00022813398 1800:0.00022813398 2106:0.00022813398 2201:0.00022813398 2320:0.00022813398 2405:0.00022813398 2501:0.00022813398 2602:0.00022813398 2702:0.00022813398 #
-500 3:0.0093629844 4:-0.020368375 11:-0.00026025923 12:-0.00026025923 13:-0.00026025923 14:-0.00026025923 15:-0.00026025923 16:-0.00026025923 18:-0.00026025923 19:-0.00026025923 28:0.18237145 29:0.22240452 30:0.031231107 31:-0.00026025923 32:-0.00026025923 33:0.9569732 899:0.00026025923 1799:0.00026025923 2101:0.00026025923 2201:0.00026025923 2300:0.00026025923 2401:0.00026025923 2501:0.00026025923 2601:0.00026025923 2701:0.00026025923 #
350 3:0.0098683219 4:-0.034295078 11:-0.00028999313 12:-0.00028999313 13:-0.00028999313 14:-0.00028999313 15:-0.00028999313 16:-0.00028999313 18:-0.00028999313 19:-0.00028999313 28:0.20154522 29:0.24578656 30:0.034799173 31:0.00028999313 32:-0.00028999313 33:0.94682753 901:0.00028999313 1800:0.00028999313 2101:0.00028999313 2201:0.00028999313 2306:0.00028999313 2401:0.00028999313 2501:0.00028999313 2602:0.00028999313 2702:0.00028999313 #
-500 3:0.0095586274 4:-0.028814131 11:-0.00031794963 12:0.00031794963 13:-0.00031794963 14:-0.00031794963 15:-0.00031794963 16:-0.00031794963 18:-0.00031794963 19:-0.00031794963 28:0.15293376 29:0.18650606 30:0.022256473 31:-0.00031794963 32:-0.00031794963 33:0.96974635 1799:0.00031794963 2101:0.00031794963 2201:0.00031794963 2301:0.00031794963 2401:0.00031794963 2501:0.00031794963 2602:0.00031794963 2701:0.00031794963 #
350 3:0.01309669 4:-0.025495799 11:-0.00033284037 12:-0.00033284037 13:-0.00033284037 14:-0.00033284037 15:-0.00033284037 16:-0.00033284037 18:-0.00033284037 19:-0.00033284037 28:0.18339504 29:0.22365208 30:0.033284035 31:-0.00033284037 32:-0.00033284037 33:0.95625037 901:0.00033284037 1799:0.00033284037 2119:0.00033284037 2204:0.00033284037 2499:0.00033284037 2602:0.00033284037 2701:0.00033284037 #
350 3:0.0068073235 4:-0.020063085 11:-0.00024313403 12:-0.00024313403 13:-0.00024313403 14:-0.00024313403 15:-0.00024313403 16:-0.00024313403 18:-0.00024313403 19:-0.00024313403 28:0.10914043 29:0.12840152 30:0.0097253611 31:0.00024313403 32:-0.00024313403 33:0.98542225 900:0.00024313403 1800:0.00024313403 2124:0.00024313403 2199:0.00024313403 2504:0.00024313403 2602:0.00024313403 2701:0.00024313403 #
-500 3:0.01191708 4:-0.021602171 11:-0.00029216034 12:-0.00029216034 13:-0.00029216034 14:-0.00029216034 15:-0.00029216034 16:-0.00029216034 18:-0.00029216034 19:0.00029216034 28:0.13770102 29:0.16792794 30:0.0035059243 31:0.00029216034 32:-0.00029216034 33:0.97581559 901:0.00029216034 1801:0.00029216034 2115:0.00029216034 2204:0.00029216034 2324:0.00029216034 2399:0.00029216034 2501:0.00029216034 2602:0.00029216034 2699:0.00029216034 #
-500 3:0.0085279038 4:-0.029570501 11:-0.00024937952 12:-0.00024937952 13:-0.00024937952 14:-0.00024937952 15:-0.00024937952 16:-0.00024937952 18:-0.00024937952 19:-0.00024937952 28:0.26284352 29:0.32053995 30:0.0072320062 31:0.00024937952 32:-0.00024937952 33:0.90948713 901:0.00024937952 1799:0.00024937952 2123:0.00024937952 2204:0.00024937952 2301:0.00024937952 2401:0.00024937952 2501:0.00024937952 2602:0.00024937952 2700:0.00024937952 #
350 3:0.010617844 4:-0.023140348 11:-0.00025593583 12:-0.00025593583 13:-0.00025593583 14:-0.00025593583 15:-0.00025593583 16:-0.00025593583 18:-0.00025593583 19:-0.00025593583 28:0.050496139 29:0.059407823 30:0.0056305882 31:-0.00025593583 32:-0.00025593583 33:0.9966141 900:0.00025593583 1801:0.00025593583 2115:0.00025593583 2204:0.00025593583 2305:0.00025593583 2405:0.00025593583 2501:0.00025593583 2601:0.00025593583 2699:0.00025593583 #
-500 3:0.013952161 4:-0.029717965 11:-0.00038275326 12:-0.00038275326 13:-0.00038275326 14:-0.00038275326 15:-0.00038275326 16:-0.00038275326 18:-0.00038275326 19:-0.00038275326 28:0.2628558 29:0.32055587 30:0.045930389 31:-0.00038275326 32:-0.00038275326 33:0.90827346 1799:0.00038275326 2104:0.00038275326 2202:0.00038275326 2314:0.00038275326 2403:0.00038275326 2501:0.00038275326 2601:0.00038275326 2700:0.00038275326 #
-500 3:0.0079711657 4:-0.016944349 11:-0.00020622378 12:-0.00020622378 13:-0.00020622378 14:-0.00020622378 15:-0.00020622378 16:-0.00020622378 18:-0.00020622378 19:-0.00020622378 28:0.11331584 29:0.13331336 30:0.061867133 31:-0.00020622378 32:-0.00020622378 33:0.98245007 1799:0.00020622378 2104:0.00020622378 2202:0.00020622378 2299:0.00020622378 2402:0.00020622378 2501:0.00020622378 2602:0.00020622378 2700:0.00020622378 #
350 3:0.013027405 4:-0.024707101 11:0.00032589398 12:-0.00032589398 13:0.00032589398 14:-0.00032589398 15:-0.00032589398 16:-0.00032589398 18:-0.00032589398 19:-0.00032589398 28:0.12058078 29:0.14704989 30:0.013035759 31:-0.00032589398 32:-0.00032589398 33:0.9812668 900:0.00032589398 1800:0.00032589398 2106:0.00032589398 2201:0.00032589398 2301:0.00032589398 2401:0.00032589398 2500:0.00032589398 2602:0.00032589398 2701:0.00032589398 #
-500 3:0.011104173 4:-0.023288721 11:-0.00026563383 12:-0.00026563383 13:0.00026563383 14:-0.00026563383 15:-0.00026563383 16:-0.00026563383 18:-0.00026563383 19:-0.00026563383 28:0.19431379 29:0.23696928 30:0.008234648 31:0.00026563383 32:-0.00026563383 33:0.95150036 901:0.00026563383 1800:0.00026563383 2106:0.00026563383 2201:0.00026563383 2321:0.00026563383 2404:0.00026563383 2501:0.00026563383 2602:0.00026563383 2699:0.00026563383 #
350 3:0.0096194884 4:-0.016131241 11:-0.00022698588 12:-0.00022698588 13:-0.00022698588 14:-0.00022698588 15:-0.00022698588 16:-0.00022698588 18:0.00022698588 19:-0.00022698588 28:0.17193954 29:0.20228074 30:0.017023942 31:0.00022698588 32:-0.00022698588 33:0.96378207 901:0.00022698588 1800:0.00022698588 2101:0.00022698588 2201:0.00022698588 2501:0.00022698588 2602:0.00022698588 2701:0.00022698588 #
-500 3:0.006441588 4:-0.016147163 11:-0.00019132823 12:-0.00019132823 13:-0.00019132823 14:-0.00019132823 15:-0.00019132823 16:-0.00019132823 18:-0.00019132823 19:-0.00019132823 28:0.1572412 29:0.18498953 30:0.022959389 31:0.00019132823 32:-0.00019132823 33:0.96965152 901:0.00019132823 1799:0.00019132823 2106:0.00019132823 2201:0.00019132823 2315:0.00019132823 2404:0.00019132823 2501:0.00019132823 2602:0.00019132823 2700:0.00019132823 #
350 3:0.0083820969 4:-0.0271494 11:-0.00022176147 12:-0.00022176147 13:-0.00022176147 14:-0.00022176147 15:-0.00022176147 16:-0.00022176147 18:-0.00022176147 19:-0.00022176147 28:0.19596617 29:0.23054767 30:0.0048787524 31:-0.00022176147 32:-0.00022176147 33:0.95268726 901:0.00022176147 1800:0.00022176147 2115:0.00022176147 2204:0.00022176147 2499:0.00022176147 2601:0.00022176147 2699:0.00022176147 #
350 3:0.0086357407 4:-0.021322249 11:0.00025157022 12:-0.00025157022 13:-0.00025157022 14:-0.00025157022 15:-0.00025157022 16:-0.00025157022 18:-0.00025157022 19:-0.00025157022 28:0.043353096 29:0.051003344 30:0.0055345446 31:-0.00025157022 32:-0.00025157022 33:0.99747586 899:0.00025157022 1801:0.00025157022 2110:0.00025157022 2201:0.00025157022 2324:0.00025157022 2399:0.00025157022 2504:0.00025157022 2601:0.00025157022 2700:0.00025157022 #
350 3:0.0093143955 4:-0.025094243 11:-0.00020480351 12:-0.00020480351 13:-0.00020480351 14:-0.00020480351 15:-0.00020480351 16:-0.00020480351 18:-0.00020480351 19:-0.00020480351 28:0.18247379 29:0.21467504 30:0.0061441055 31:-0.00020480351 32:-0.00020480351 33:0.95909488 1800:0.00020480351 2123:0.00020480351 2204:0.00020480351 2322:0.00020480351 2402:0.00020480351 2501:0.00020480351 2602:0.00020480351 2700:0.00020480351 #
-500 3:0.010839193 4:-0.022003138 11:-0.00025020985 12:-0.00025020985 13:-0.00025020985 14:-0.00025020985 15:-0.00025020985 16:-0.00025020985 18:-0.00025020985 19:-0.00025020985 28:0.16736037 29:0.19236884 30:0.025020985 31:-0.00025020985 32:-0.00025020985 33:0.96631044 900:0.00025020985 1801:0.00025020985 2101:0.00025020985 2201:0.00025020985 2324:0.00025020985 2399:0.00025020985 2501:0.00025020985 2600:0.00025020985 2702:0.00025020985 #
350 3:0.010421531 4:-0.021881493 11:-0.00024963994 12:0.00024963994 13:-0.00024963994 14:-0.00024963994 15:-0.00024963994 16:-0.00024963994 18:0.00024963994 19:-0.00024963994 28:0.16850697 29:0.19368565 30:0.024963995 31:-0.00024963994 32:-0.00024963994 33:0.96585697 1800:0.00024963994 2106:0.00024963994 2201:0.00024963994 2501:0.00024963994 2602:0.00024963994 2701:0.00024963994 #
350 3:0.01043609 4:-0.019634979 11:-0.00026142329 12:-0.00026142329 13:-0.00026142329 14:-0.00026142329 15:-0.00026142329 16:-0.00026142329 18:-0.00026142329 19:-0.00026142329 28:0.093458831 29:0.11397533 30:0.015685398 31:-0.00026142329 32:-0.00026142329 33:0.98870289 901:0.00026142329 1800:0.00026142329 2100:0.00026142329 2201:0.00026142329 2501:0.00026142329 2601:0.00026142329 2701:0.00026142329 #
-500 3:0.010528886 4:-0.022126479 11:0.00025317079 12:-0.00025317079 13:-0.00025317079 14:-0.00025317079 15:-0.00025317079 16:-0.00025317079 18:-0.00025317079 19:-0.00025317079 28:0.1063292 29:0.12509422 30:0.0070887818 31:-0.00025317079 32:-0.00025317079 33:0.9861002 901:0.00025317079 1801:0.00025317079 2106:0.00025317079 2201:0.00025317079 2315:0.00025317079 2404:0.00025317079 2500:0.00025317079 2602:0.00025317079 2699:0.00025317079 #
-500 3:0.0081628161 4:-0.016240753 11:-0.00020305876 12:-0.00020305876 13:-0.00020305876 14:-0.00020305876 15:-0.00020305876 16:-0.00020305876 18:-0.00020305876 19:-0.00020305876 28:0.13368577 29:0.15727714 30:0.033301637 31:-0.00020305876 32:-0.00020305876 33:0.97772795 899:0.00020305876 1801:0.00020305876 2100:0.00020305876 2201:0.00020305876 2500:0.00020305876 2600:0.00020305876 2702:0.00020305876 #
-500 3:0.013654921 4:-0.029049432 11:-0.00033727993 12:-0.00033727993 13:-0.00033727993 14:-0.00033727993 15:-0.00033727993 16:-0.00033727993 18:-0.00033727993 19:-0.00033727993 28:0.16661628 29:0.20319092 30:0.026982393 31:-0.00033727993 32:-0.00033727993 33:0.96394604 901:0.00033727993 1801:0.00033727993 2115:0.00033727993 2204:0.00033727993 2300:0.00033727993 2401:0.00033727993 2499:0.00033727993 2602:0.00033727993 2701:0.00033727993 #
-500 3:0.0062603145 4:-0.017751973 11:-0.00021822876 12:-0.00021822876 13:-0.00021822876 14:-0.00021822876 15:-0.00021822876 16:-0.00021822876 18:-0.00021822876 19:-0.00021822876 28:0.17195117 29:0.20229588 30:0.0043645753 31:-0.00021822876 32:-0.00021822876 33:0.96391642 900:0.00021822876 1801:0.00021822876 2118:0.00021822876 2205:0.00021822876 2320:0.00021822876 2405:0.00021822876 2501:0.00021822876 2601:0.00021822876 2702:0.00021822876 #
-500 3:0.0083830785 4:-0.021593548 11:-0.0001928397 12:-0.0001928397 13:-0.0001928397 14:-0.0001928397 15:-0.0001928397 16:-0.0001928397 18:-0.0001928397 19:-0.0001928397 28:0.16858818 29:0.19833948 30:0.023140762 31:0.0001928397 32:-0.0001928397 33:0.96496981 900:0.0001928397 1801:0.0001928397 2104:0.0001928397 2202:0.0001928397 2299:0.0001928397 2402:0.0001928397 2501:0.0001928397 2601:0.0001928397 2702:0.0001928397 #
350 3:0.0085028354 4:-0.015393675 11:-0.00020820266 12:-0.00020820266 13:-0.00020820266 14:-0.00020820266 15:-0.00020820266 16:-0.00020820266 18:-0.00020820266 19:0.00020820266 28:0.11141549 29:0.13107607 30:0.026025333 31:-0.00020820266 32:-0.00020820266 33:0.98459041 901:0.00020820266 1799:0.00020820266 2100:0.00020820266 2201:0.00020820266 2324:0.00020820266 2399:0.00020820266 2501:0.00020820266 2602:0.00020820266 2701:0.00020820266 #
350 3:0.014252874 4:-0.029855119 11:-0.00034065475 12:0.00034065475 13:-0.00034065475 14:-0.00034065475 15:-0.00034065475 16:-0.00034065475 18:-0.00034065475 19:-0.00034065475 28:0.11275672 29:0.13750869 30:0.0081757139 31:-0.00034065475 32:-0.00034065475 33:0.98347026 901:0.00034065475 1801:0.00034065475 2115:0.00034065475 2204:0.00034065475 2305:0.00034065475 2405:0.00034065475 2501:0.00034065475 2602:0.00034065475 2699:0.00034065475 #
-500 3:0.010936564 4:-0.026564455 11:-0.00033180526 12:-0.00033180526 13:-0.00033180526 14:-0.00033180526 15:-0.00033180526 16:-0.00033180526 18:-0.00033180526 19:-0.00033180526 28:0.12641782 29:0.15416668 30:0.0049770791 31:-0.00033180526 32:-0.00033180526 33:0.97948915 900:0.00033180526 1800:0.00033180526 2115:0.00033180526 2204:0.00033180526 2307:0.00033180526 2405:0.00033180526 2500:0.00033180526 2602:0.00033180526 2699:0.00033180526 #
350 3:0.0070336619 4:-0.016492745 11:-0.0002013081 12:-0.0002013081 13:0.0002013081 14:-0.0002013081 15:-0.0002013081 16:-0.0002013081 18:-0.0002013081 19:-0.0002013081 28:0.046198193 29:0.054351173 30:0.004630086 31:-0.0002013081 32:-0.0002013081 33:0.9972803 901:0.0002013081 1801:0.0002013081 2105:0.0002013081 2205:0.0002013081 2315:0.0002013081 2404:0.0002013081 2501:0.0002013081 2602:0.0002013081 2699:0.0002013081 #
-500 3:0.010108268 4:-0.020922886 11:-0.00022484355 12:0.00022484355 13:-0.00022484355 14:-0.00022484355 15:-0.00022484355 16:-0.00022484355 18:-0.00022484355 19:-0.00022484355 28:0.19024688 29:0.22382051 30:0.0051714014 31:-0.00022484355 32:-0.00022484355 33:0.95558506 901:0.00022484355 1801:0.00022484355 2123:0.00022484355 2204:0.00022484355 2300:0.00022484355 2401:0.00022484355 2500:0.00022484355 2602:0.00022484355 2699:0.00022484355 #
-500 3:0.0073139169 4:-0.02328996 11:-0.00020213221 12:-0.00020213221 13:-0.00020213221 14:-0.00020213221 15:-0.00020213221 16:-0.00020213221 18:-0.00020213221 19:-0.00020213221 28:0.16320963 29:0.19201145 30:0.0050533055 31:-0.00020213221 32:-0.00020213221 33:0.96740478 901:0.00020213221 1801:0.00020213221 2123:0.00020213221 2204:0.00020213221 2315:0.00020213221 2404:0.00020213221 2501:0.00020213221 2602:0.00020213221 2700:0.00020213221 #
-500 3:0.0075153601 4:-0.021321669 11:-0.00026220968 12:-0.00026220968 13:-0.00026220968 14:-0.00026220968 15:-0.00026220968 16:-0.00026220968 18:0.00026220968 19:-0.00026220968 28:0.078985415 29:0.096322723 30:0.0052441936 31:-0.00026220968 32:0.00026220968 33:0.99193919 900:0.00026220968 1801:0.00026220968 2115:0.00026220968 2204:0.00026220968 2308:0.00026220968 2403:0.00026220968 2500:0.00026220968 2601:0.00026220968 2699:0.00026220968 #
-500 3:0.0072510596 4:-0.025052236 11:-0.00021157895 12:-0.00021157895 13:0.00021157895 14:-0.00021157895 15:-0.00021157895 16:-0.00021157895 18:-0.00021157895 19:-0.00021157895 28:0.074232474 29:0.087331332 30:0.015868422 31:-0.00021157895 32:-0.00021157895 33:0.99294007 901:0.00021157895 1799:0.00021157895 2123:0.00021157895 2204:0.00021157895 2321:0.00021157895 2404:0.00021157895 2501:0.00021157895 2602:0.00021157895 2701:0.00021157895 #
-500 3:0.0068955435 4:-0.022910928 11:-0.00020481119 12:-0.00020481119 13:-0.00020481119 14:-0.00020481119 15:-0.00020481119 16:-0.00020481119 18:-0.00020481119 19:-0.00020481119 28:0.16035692 29:0.18865567 30:0.0053250906 31:-0.00020481119 32:-0.00020481119 33:0.96855211 901:0.00020481119 1800:0.00020481119 2115:0.00020481119 2204:0.00020481119 2501:0.00020481119 2599:0.00020481119 2700:0.00020481119 #
350 3:0.0100752 4:-0.020376978 11:-0.00022911298 12:-0.00022911298 13:-0.00022911298 14:-0.00022911298 15:-0.00022911298 16:-0.00022911298 18:-0.00022911298 19:-0.00022911298 28:0.13679419 29:0.16093354 30:0.0038949205 31:-0.00022911298 32:-0.00022911298 33:0.97716683 1800:0.00022911298 2124:0.00022911298 2199:0.00022911298 2504:0.00022911298 2601:0.00022911298 2699:0.00022911298 #
-500 3:0.0078086234 4:-0.02523965 11:0.00020638849 12:-0.00020638849 13:-0.00020638849 14:-0.00020638849 15:-0.00020638849 16:-0.00020638849 18:-0.00020638849 19:-0.00020638849 28:0.19135928 29:0.22512856 30:0.0072235973 31:-0.00020638849 32:-0.00020638849 33:0.95495957 901:0.00020638849 1799:0.00020638849 2123:0.00020638849 2204:0.00020638849 2310:0.00020638849 2401:0.00020638849 2501:0.00020638849 2602:0.00020638849 2701:0.00020638849 #
350 3:0.0089051854 4:-0.023077456 11:-0.00021609647 12:-0.00021609647 13:-0.00021609647 14:-0.00021609647 15:-0.00021609647 16:-0.00021609647 18:-0.00021609647 19:-0.00021609647 28:0.15918747 29:0.18728 30:0.0075633763 31:-0.00021609647 32:-0.00021609647 33:0.96897656 899:0.00021609647 1801:0.00021609647 2115:0.00021609647 2204:0.00021609647 2306:0.00021609647 2401:0.00021609647 2499:0.00021609647 2601:0.00021609647 2699:0.00021609647 #
350 3:0.0081036361 4:-0.01812431 11:-0.0002116812 12:-0.0002116812 13:-0.0002116812 14:-0.0002116812 15:-0.0002116812 16:-0.0002116812 18:-0.0002116812 19:-0.0002116812 28:0.088522956 29:0.10414503 30:0.027518556 31:0.0002116812 32:-0.0002116812 33:0.99003291 901:0.0002116812 1801:0.0002116812 2114:0.0002116812 2203:0.0002116812 2325:0.0002116812 2403:0.0002116812 2501:0.0002116812 2601:0.0002116812 2701:0.0002116812 #
-500 3:0.007892184 4:-0.018455772 11:-0.00022735789 12:-0.00022735789 13:0.00022735789 14:-0.00022735789 15:-0.00022735789 16:-0.00022735789 18:-0.00022735789 19:-0.00022735789 28:0.039958149 29:0.047008514 30:0.0061386628 31:-0.00022735789 32:-0.00022735789 33:0.99787378 1801:0.00022735789 2115:0.00022735789 2204:0.00022735789 2300:0.00022735789 2401:0.00022735789 2504:0.00022735789 2602:0.00022735789 2699:0.00022735789 #
350 3:0.0072456794 4:-0.025165489 11:0.00021271838 12:-0.00021271838 13:-0.00021271838 14:-0.00021271838 15:-0.00021271838 16:-0.00021271838 18:-0.00021271838 19:-0.00021271838 28:0.11675474 29:0.13735864 30:0.012763103 31:-0.00021271838 32:-0.00021271838 33:0.98318434 901:0.00021271838 1799:0.00021271838 2122:0.00021271838 2202:0.00021271838 2500:0.00021271838 2602:0.00021271838 2701:0.00021271838 #
350 3:0.014789405 4:-0.026867289 11:-0.0003633562 12:-0.0003633562 13:-0.0003633562 14:-0.0003633562 15:-0.0003633562 16:-0.0003633562 18:-0.0003633562 19:-0.0003633562 28:0.1467959 29:0.17901833 30:0.003633562 31:-0.0003633562 32:-0.0003633562 33:0.97234118 901:0.0003633562 1801:0.0003633562 2115:0.0003633562 2204:0.0003633562 2504:0.0003633562 2602:0.0003633562 2700:0.0003633562 #
350 3:0.0074840412 4:-0.018625742 11:-0.0002210536 12:-0.0002210536 13:-0.0002210536 14:-0.0002210536 15:-0.0002210536 16:-0.0002210536 18:-0.0002210536 19:-0.0002210536 28:0.055769615 29:0.065610923 30:0.0055263401 31:-0.0002210536 32:-0.0002210536 33:0.99606752 900:0.0002210536 1801:0.0002210536 2107:0.0002210536 2205:0.0002210536 2303:0.0002210536 2405:0.0002210536 2500:0.0002210536 2601:0.0002210536 2700:0.0002210536 #
350 3:0.018734416 4:-0.039347187 11:-0.00044906267 12:0.00044906267 13:-0.00044906267 14:-0.00044906267 15:-0.00044906267 16:-0.00044906267 18:-0.00044906267 19:-0.00044906267 28:0.16616666 29:0.20264402 30:0.02694376 31:-0.00044906267 32:-0.00044906267 33:0.96368849 901:0.00044906267 1799:0.00044906267 2123:0.00044906267 2204:0.00044906267 2500:0.00044906267 2602:0.00044906267 2702:0.00044906267 #
-500 3:0.012440839 4:-0.033553045 11:-0.00027361585 12:-0.00027361585 13:-0.00027361585 14:-0.00027361585 15:-0.00027361585 16:-0.00027361585 18:-0.00027361585 19:-0.00027361585 28:0.14310656 29:0.1745204 30:0.0054723173 31:-0.00027361585 32:-0.00027361585 33:0.97352523 901:0.00027361585 1801:0.00027361585 2123:0.00027361585 2204:0.00027361585 2500:0.00027361585 2600:0.00027361585 2700:0.00027361585 #
350 3:0.0063178744 4:-0.020291973 11:0.00021302281 12:-0.00021302281 13:-0.00021302281 14:-0.00021302281 15:-0.00021302281 16:-0.00021302281 18:0.00021302281 19:-0.00021302281 28:0.10590642 29:0.12459491 30:0.0053255702 31:0.00021302281 32:-0.00021302281 33:0.98629564 901:0.00021302281 1800:0.00021302281 2104:0.00021302281 2202:0.00021302281 2299:0.00021302281 2402:0.00021302281 2504:0.00021302281 2602:0.00021302281 2702:0.00021302281 #
-500 3:0.010752107 4:-0.027697468 11:-0.00031960316 12:-0.00031960316 13:-0.00031960316 14:-0.00031960316 15:-0.00031960316 16:-0.00031960316 18:-0.00031960316 19:-0.00031960316 28:0.11665515 29:0.14226176 30:0.0063920631 31:-0.00031960316 32:-0.00031960316 33:0.98246008 901:0.00031960316 1801:0.00031960316 2115:0.00031960316 2204:0.00031960316 2500:0.00031960316 2601:0.00031960316 2699:0.00031960316 #
-500 3:0.012051412 4:-0.029018722 11:-0.00030620373 12:-0.00030620373 13:-0.00030620373 14:-0.00030620373 15:-0.00030620373 16:-0.00030620373 18:-0.00030620373 19:-0.00030620373 28:0.15187706 29:0.18521652 30:0.0064302785 31:0.00030620373 32:-0.00030620373 33:0.97035962 1801:0.00030620373 2123:0.00030620373 2204:0.00030620373 2314:0.00030620373 2403:0.00030620373 2501:0.00030620373 2600:0.00030620373 2699:0.00030620373 #
-500 3:0.0062267785 4:-0.016886132 11:-0.00020746773 12:-0.00020746773 13:-0.00020746773 14:-0.00020746773 15:-0.00020746773 16:-0.00020746773 18:-0.00020746773 19:-0.00020746773 28:0.15829374 29:0.18622719 30:0.0037344194 31:-0.00020746773 32:-0.00020746773 33:0.96949673 900:0.00020746773 1801:0.00020746773 2115:0.00020746773 2204:0.00020746773 2500:0.00020746773 2600:0.00020746773 2699:0.00020746773 #
-500 3:0.0057842797 4:-0.018507276 11:-0.00019432955 12:-0.00019432955 13:-0.00019432955 14:-0.00019432955 15:-0.00019432955 16:-0.00019432955 18:-0.00019432955 19:-0.00019432955 28:0.12378015 29:0.14562279 30:0.0044695796 31:0.00019432955 32:-0.00019432955 33:0.98136425 901:0.00019432955 1801:0.00019432955 2110:0.00019432955 2201:0.00019432955 2301:0.00019432955 2401:0.00019432955 2501:0.00019432955 2602:0.00019432955 2700:0.00019432955 #
-500 3:0.01313038 4:-0.023806309 11:-0.00032263555 12:-0.00032263555 13:-0.00032263555 14:-0.00032263555 15:-0.00032263555 16:-0.00032263555 18:-0.00032263555 19:-0.00032263555 28:0.24455774 29:0.29824108 30:0.0290372 31:-0.00032263555 32:-0.00032263555 33:0.92176974 901:0.00032263555 1799:0.00032263555 2115:0.00032263555 2204:0.00032263555 2323:0.00032263555 2404:0.00032263555 2501:0.00032263555 2602:0.00032263555 2701:0.00032263555 #
-452.18903935572598129510879516602 3:0.012338567 4:-0.02231713 11:-0.00030199319 12:-0.00030199319 13:-0.00030199319 14:-0.00030199319 15:-0.00030199319 16:-0.00030199319 18:-0.00030199319 19:-0.00030199319 28:0.40705055 29:0.49640429 30:0.19840951 31:-0.00030199319 32:-0.00030199319 33:0.74018526 901:0.00030199319 1799:0.00030199319 2111:0.00030199319 2200:0.00030199319 2302:0.00030199319 2400:0.00030199319 2500:0.00030199319 2602:0.00030199319 2700:0.00030199319 #
350 3:0.0084652761 4:-0.019105291 11:-0.00022241889 12:-0.00022241889 13:-0.00022241889 14:-0.00022241889 15:-0.00022241889 16:-0.00022241889 18:-0.00022241889 19:-0.00022241889 28:0.12961017 29:0.1524815 30:0.0053380532 31:-0.00022241889 32:-0.00022241889 33:0.97953278 901:0.00022241889 1800:0.00022241889 2115:0.00022241889 2204:0.00022241889 2299:0.00022241889 2402:0.00022241889 2501:0.00022241889 2602:0.00022241889 2699:0.00022241889 #
-500 3:0.0098434631 4:-0.028273305 11:-0.00029264117 12:-0.00029264117 13:-0.00029264117 14:-0.00029264117 15:-0.00029264117 16:-0.00029264117 18:-0.00029264117 19:-0.00029264117 28:0.1106886 29:0.13498659 30:0.042432968 31:-0.00029264117 32:-0.00029264117 33:0.98327428 901:0.00029264117 1801:0.00029264117 2114:0.00029264117 2203:0.00029264117 2501:0.00029264117 2601:0.00029264117 2701:0.00029264117 #
-500 3:0.0098399892 4:-0.025347849 11:-0.0002924907 12:-0.0002924907 13:-0.0002924907 14:-0.0002924907 15:-0.0002924907 16:-0.0002924907 18:-0.0002924907 19:-0.0002924907 28:0.065968357 29:0.080449574 30:0.0070197773 31:-0.0002924907 32:-0.0002924907 33:0.99417591 901:0.0002924907 1801:0.0002924907 2106:0.0002924907 2201:0.0002924907 2305:0.0002924907 2405:0.0002924907 2500:0.0002924907 2601:0.0002924907 2699:0.0002924907 #
-500 3:0.010778242 4:-0.024146929 11:-0.0002814068 12:-0.0002814068 13:-0.0002814068 14:-0.0002814068 15:-0.0002814068 16:-0.0002814068 18:-0.0002814068 19:-0.0002814068 28:0.23272061 29:0.28380439 30:0.011256272 31:-0.0002814068 32:-0.0002814068 33:0.92976809 900:0.0002814068 1801:0.0002814068 2124:0.0002814068 2199:0.0002814068 2323:0.0002814068 2404:0.0002814068 2501:0.0002814068 2602:0.0002814068 2701:0.0002814068 #
350 3:0.014508217 4:-0.030448906 11:-0.00034777867 12:0.00034777867 13:-0.00034777867 14:-0.00034777867 15:-0.00034777867 16:-0.00034777867 18:-0.00034777867 19:-0.00034777867 28:0.12311365 29:0.15013953 30:0.00069555733 31:-0.00034777867 32:-0.00034777867 33:0.98038805 901:0.00034777867 1800:0.00034777867 2124:0.00034777867 2199:0.00034777867 2315:0.00034777867 2404:0.00034777867 2501:0.00034777867 2602:0.00034777867 2701:0.00034777867 #
-500 3:0.0099340389 4:-0.022793161 11:-0.00028191652 12:0.00028191652 13:-0.00028191652 14:-0.00028191652 15:-0.00028191652 16:-0.00028191652 18:-0.00028191652 19:-0.00028191652 28:0.13137311 29:0.16021034 30:0.0056383307 31:-0.00028191652 32:-0.00028191652 33:0.97796845 901:0.00028191652 1800:0.00028191652 2119:0.00028191652 2204:0.00028191652 2321:0.00028191652 2404:0.00028191652 2499:0.00028191652 2600:0.00028191652 2700:0.00028191652 #
-500 3:0.0059057376 4:-0.016064584 11:-0.0001976245 12:-0.0001976245 13:-0.0001976245 14:-0.0001976245 15:-0.0001976245 16:-0.0001976245 18:-0.0001976245 19:-0.0001976245 28:0.1060631 29:0.12478011 30:0.0035572411 31:-0.0001976245 32:-0.0001976245 33:0.98634392 900:0.0001976245 1801:0.0001976245 2101:0.0001976245 2201:0.0001976245 2501:0.0001976245 2600:0.0001976245 2700:0.0001976245 #
350 3:0.00635564 4:-0.016726026 11:-0.00020180215 12:-0.00020180215 13:-0.00020180215 14:-0.00020180215 15:-0.00020180215 16:-0.00020180215 18:-0.00020180215 19:-0.00020180215 28:0.093117565 29:0.10955031 30:0.0048432518 31:-0.00020180215 32:0.00020180215 33:0.98943591 899:0.00020180215 1801:0.00020180215 2123:0.00020180215 2204:0.00020180215 2306:0.00020180215 2401:0.00020180215 2501:0.00020180215 2602:0.00020180215 2699:0.00020180215 #
350 3:0.0067649214 4:-0.01988166 11:-0.00024115726 12:-0.00024115726 13:-0.00024115726 14:-0.00024115726 15:-0.00024115726 16:-0.00024115726 18:-0.00024115726 19:-0.00024115726 28:0.077375308 29:0.091029629 30:0.004823145 31:-0.00024115726 32:-0.00024115726 33:0.9926033 901:0.00024115726 1800:0.00024115726 2106:0.00024115726 2201:0.00024115726 2301:0.00024115726 2401:0.00024115726 2501:0.00024115726 2602:0.00024115726 2701:0.00024115726 #
350 3:0.0054838611 4:-0.016019672 11:-0.00019376093 12:-0.00019376093 13:-0.00019376093 14:-0.00019376093 15:-0.00019376093 16:-0.00019376093 18:-0.00019376093 19:-0.00019376093 28:0.10570434 29:0.12435771 30:0.0040689795 31:0.00019376093 32:-0.00019376093 33:0.98643696 900:0.00019376093 1800:0.00019376093 2115:0.00019376093 2204:0.00019376093 2501:0.00019376093 2602:0.00019376093 2699:0.00019376093 #
350 3:0.0071498877 4:-0.024819791 11:-0.00021004085 12:-0.00021004085 13:-0.00021004085 14:-0.00021004085 15:-0.00021004085 16:-0.00021004085 18:-0.00021004085 19:-0.00021004085 28:0.092966177 29:0.10937247 30:0.0052510211 31:-0.00021004085 32:-0.00021004085 33:0.98929238 900:0.00021004085 1800:0.00021004085 2122:0.00021004085 2202:0.00021004085 2307:0.00021004085 2405:0.00021004085 2500:0.00021004085 2600:0.00021004085 2699:0.00021004085 #
350 3:0.0078819664 4:-0.021699863 11:-0.00019369094 12:-0.00019369094 13:-0.00019369094 14:-0.00019369094 15:-0.00019369094 16:-0.00019369094 18:-0.00019369094 19:-0.00019369094 28:0.1462599 29:0.17207116 30:0.0052296557 31:-0.00019369094 32:-0.00019369094 33:0.97387809 900:0.00019369094 1801:0.00019369094 2101:0.00019369094 2201:0.00019369094 2306:0.00019369094 2401:0.00019369094 2501:0.00019369094 2601:0.00019369094 2700:0.00019369094 #
350 3:0.014096453 4:-0.02504562 11:-0.000342026 12:-0.000342026 13:-0.000342026 14:-0.000342026 15:-0.000342026 16:-0.000342026 18:-0.000342026 19:-0.000342026 28:0.15904209 29:0.19395268 30:0.0051303902 31:-0.000342026 32:-0.000342026 33:0.96759158 901:0.000342026 1800:0.000342026 2124:0.000342026 2199:0.000342026 2312:0.000342026 2405:0.000342026 2500:0.000342026 2602:0.000342026 2699:0.000342026 #
350 3:0.011784345 4:-0.024753192 11:-0.00028334104 12:-0.00028334104 13:-0.00028334104 14:-0.00028334104 15:-0.00028334104 16:-0.00028334104 18:-0.00028334104 19:-0.00028334104 28:0.085121311 29:0.10380766 30:0.0039667743 31:-0.00028334104 32:-0.00028334104 33:0.99056029 901:0.00028334104 1800:0.00028334104 2115:0.00028334104 2204:0.00028334104 2504:0.00028334104 2602:0.00028334104 2699:0.00028334104 #
-500 3:0.0058740214 4:-0.016260928 11:-0.00019688261 12:-0.00019688261 13:-0.00019688261 14:-0.00019688261 15:-0.00019688261 16:-0.00019688261 18:-0.00019688261 19:-0.00019688261 28:0.10818503 29:0.12727673 30:0.0035438871 31:0.00019688261 32:-0.00019688261 33:0.98579127 899:0.00019688261 1801:0.00019688261 2123:0.00019688261 2204:0.00019688261 2306:0.00019688261 2401:0.00019688261 2501:0.00019688261 2600:0.00019688261 2699:0.00019688261 #
350 3:0.0060032359 4:-0.020054072 11:-0.00020374279 12:-0.00020374279 13:-0.00020374279 14:-0.00020374279 15:-0.00020374279 16:-0.00020374279 18:-0.00020374279 19:-0.00020374279 28:0.09838739 29:0.11575035 30:0.0061122836 31:-0.00020374279 32:-0.00020374279 33:0.9881525 901:0.00020374279 1801:0.00020374279 2115:0.00020374279 2204:0.00020374279 2323:0.00020374279 2404:0.00020374279 2499:0.00020374279 2600:0.00020374279 2699:0.00020374279 #
-500 3:0.0077684107 4:-0.017446755 11:-0.00019416625 12:-0.00019416625 13:-0.00019416625 14:-0.00019416625 15:-0.00019416625 16:-0.00019416625 18:-0.00019416625 19:-0.00019416625 28:0.14138798 29:0.16633834 30:0.0036891587 31:-0.00019416625 32:-0.00019416625 33:0.97568542 1800:0.00019416625 2106:0.00019416625 2201:0.00019416625 2504:0.00019416625 2600:0.00019416625 2699:0.00019416625 #
-500 3:0.0094981063 4:-0.019638967 11:-0.00025344398 12:-0.00025344398 13:-0.00025344398 14:-0.00025344398 15:-0.00025344398 16:-0.00025344398 18:-0.00025344398 19:-0.00025344398 28:0.079241797 29:0.093226835 30:0.0050688796 31:0.00025344398 32:0.00025344398 33:0.99223316 901:0.00025344398 1801:0.00025344398 2115:0.00025344398 2204:0.00025344398 2306:0.00025344398 2401:0.00025344398 2501:0.00025344398 2602:0.00025344398 2699:0.00025344398 #
350 3:0.0087560713 4:-0.017451521 11:0.00021454232 12:-0.00021454232 13:-0.00021454232 14:-0.00021454232 15:-0.00021454232 16:-0.00021454232 18:-0.00021454232 19:-0.00021454232 28:0.099303059 29:0.11682688 30:0.005363558 31:-0.00021454232 32:-0.00021454232 33:0.98796743 901:0.00021454232 1800:0.00021454232 2123:0.00021454232 2204:0.00021454232 2500:0.00021454232 2602:0.00021454232 2700:0.00021454232 #
350 3:0.0082966015 4:-0.026355201 11:-0.00022898805 12:-0.00022898805 13:-0.00022898805 14:-0.00022898805 15:-0.00022898805 16:-0.00022898805 18:-0.00022898805 19:-0.00022898805 28:0.16451418 29:0.19354528 30:0.0057247016 31:0.00022898805 32:0.00022898805 33:0.96678758 900:0.00022898805 1801:0.00022898805 2115:0.00022898805 2204:0.00022898805 2499:0.00022898805 2602:0.00022898805 2699:0.00022898805 #
-500 3:0.0079380721 4:-0.016440816 11:0.00019815778 12:-0.00019815778 13:-0.00019815778 14:-0.00019815778 15:-0.00019815778 16:-0.00019815778 18:-0.00019815778 19:-0.00019815778 28:0.095569521 29:0.11243473 30:0.012285783 31:-0.00019815778 32:-0.00019815778 33:0.98880738 901:0.00019815778 1800:0.00019815778 2101:0.00019815778 2201:0.00019815778 2501:0.00019815778 2601:0.00019815778 2701:0.00019815778 #
350 3:0.0079982877 4:-0.025951689 11:-0.00021191179 12:-0.00021191179 13:-0.00021191179 14:-0.00021191179 15:-0.00021191179 16:-0.00021191179 18:-0.00021191179 19:-0.00021191179 28:0.13757101 29:0.16184762 30:0.013986178 31:-0.00021191179 32:-0.00021191179 33:0.97670138 901:0.00021191179 1801:0.00021191179 2100:0.00021191179 2201:0.00021191179 2310:0.00021191179 2401:0.00021191179 2500:0.00021191179 2601:0.00021191179 2700:0.00021191179 #
350 3:0.0080314977 4:-0.014353593 11:-0.00019545875 12:-0.00019545875 13:-0.00019545875 14:-0.00019545875 15:-0.00019545875 16:-0.00019545875 18:-0.00019545875 19:-0.00019545875 28:0.056348804 29:0.066291787 30:0.0052773864 31:-0.00019545875 32:-0.00019545875 33:0.99605781 901:0.00019545875 1801:0.00019545875 2105:0.00019545875 2205:0.00019545875 2324:0.00019545875 2399:0.00019545875 2504:0.00019545875 2601:0.00019545875 2699:0.00019545875 #
350 3:0.01056395 4:-0.022119824 11:-0.00025216735 12:-0.00025216735 13:0.00025216735 14:-0.00025216735 15:-0.00025216735 16:-0.00025216735 18:-0.00025216735 19:-0.00025216735 28:0.098388128 29:0.11574985 30:0.013869204 31:-0.00025216735 32:-0.00025216735 33:0.98799163 901:0.00025216735 1800:0.00025216735 2115:0.00025216735 2204:0.00025216735 2500:0.00025216735 2602:0.00025216735 2699:0.00025216735 #
350 3:0.0075293612 4:-0.026199823 11:-0.0002211649 12:-0.0002211649 13:-0.0002211649 14:-0.0002211649 15:-0.0002211649 16:-0.0002211649 18:-0.0002211649 19:-0.0002211649 28:0.14987682 29:0.17632593 30:0.0044232979 31:-0.0002211649 32:-0.0002211649 33:0.97246206 901:0.0002211649 1800:0.0002211649 2123:0.0002211649 2204:0.0002211649 2303:0.0002211649 2405:0.0002211649 2501:0.0002211649 2602:0.0002211649 2700:0.0002211649 #
-500 3:0.0079888878 4:-0.017943794 11:-0.00020907824 12:-0.00020907824 13:-0.00020907824 14:-0.00020907824 15:-0.00020907824 16:-0.00020907824 18:-0.00020907824 19:-0.00020907824 28:0.063359067 29:0.07454057 30:0.0033452518 31:0.00020907824 32:-0.00020907824 33:0.99500334 901:0.00020907824 1801:0.00020907824 2115:0.00020907824 2204:0.00020907824 2501:0.00020907824 2602:0.00020907824 2699:0.00020907824 #
-500 3:0.0067434809 4:-0.023305681 11:-0.00019678552 12:-0.00019678552 13:-0.00019678552 14:-0.00019678552 15:-0.00019678552 16:-0.00019678552 18:-0.00019678552 19:-0.00019678552 28:0.14993088 29:0.1763887 30:0.0059035653 31:0.00019678552 32:-0.00019678552 33:0.97251403 901:0.00019678552 1800:0.00019678552 2124:0.00019678552 2199:0.00019678552 2305:0.00019678552 2405:0.00019678552 2504:0.00019678552 2602:0.00019678552 2699:0.00019678552 #
350 3:0.0064846603 4:-0.022496929 11:-0.00019039975 12:-0.00019039975 13:-0.00019039975 14:-0.00019039975 15:-0.00019039975 16:-0.00019039975 18:-0.00019039975 19:-0.00019039975 28:0.15546711 29:0.18290181 30:0.0045695943 31:-0.00019039975 32:-0.00019039975 33:0.97046757 901:0.00019039975 1801:0.00019039975 2103:0.00019039975 2205:0.00019039975 2501:0.00019039975 2601:0.00019039975 2699:0.00019039975 #
350 3:0.016223131 4:-0.029418128 11:-0.00039801549 12:0.00039801549 13:-0.00039801549 14:-0.00039801549 15:-0.00039801549 16:-0.00039801549 18:-0.00039801549 19:0.00039801549 28:0.20617202 29:0.25143036 30:0.079603098 31:-0.00039801549 32:-0.00039801549 33:0.94170463 901:0.00039801549 1800:0.00039801549 2099:0.00039801549 2202:0.00039801549 2323:0.00039801549 2404:0.00039801549 2499:0.00039801549 2602:0.00039801549 2701:0.00039801549 #
350 3:0.0073538437 4:-0.024565836 11:-0.00024958083 12:-0.00024958083 13:-0.00024958083 14:-0.00024958083 15:-0.00024958083 16:-0.00024958083 18:0.00024958083 19:-0.00024958083 28:0.1224793 29:0.14409301 30:0.0059899404 31:-0.00024958083 32:-0.00024958083 33:0.98160148 901:0.00024958083 1801:0.00024958083 2124:0.00024958083 2199:0.00024958083 2315:0.00024958083 2404:0.00024958083 2504:0.00024958083 2600:0.00024958083 2699:0.00024958083 #
350 3:0.007402401 4:-0.02247208 11:-0.00021095124 12:-0.00021095124 13:-0.00021095124 14:-0.00021095124 15:-0.00021095124 16:-0.00021095124 18:-0.00021095124 19:-0.00021095124 28:0.098398209 29:0.1157616 30:0.0048518786 31:-0.00021095124 32:-0.00021095124 33:0.98809564 901:0.00021095124 1800:0.00021095124 2123:0.00021095124 2204:0.00021095124 2499:0.00021095124 2602:0.00021095124 2699:0.00021095124 #
-500 3:0.0076329131 4:-0.022949468 11:-0.00025444222 12:-0.00025444222 13:-0.00025444222 14:-0.00025444222 15:-0.00025444222 16:-0.00025444222 18:-0.00025444222 19:-0.00025444222 28:0.041107684 29:0.048361834 30:0.0066154976 31:-0.00025444222 32:-0.00025444222 33:0.99766797 901:0.00025444222 1801:0.00025444222 2115:0.00025444222 2204:0.00025444222 2323:0.00025444222 2404:0.00025444222 2504:0.00025444222 2602:0.00025444222 2699:0.00025444222 #
-500 3:0.0071866116 4:-0.017819136 11:-0.00020072253 12:-0.00020072253 13:-0.00020072253 14:-0.00020072253 15:-0.00020072253 16:-0.00020072253 18:-0.00020072253 19:-0.00020072253 28:0.14699312 29:0.17293249 30:0.0040144506 31:-0.00020072253 32:-0.00020072253 33:0.97370493 899:0.00020072253 1800:0.00020072253 2115:0.00020072253 2204:0.00020072253 2305:0.00020072253 2405:0.00020072253 2504:0.00020072253 2600:0.00020072253 2699:0.00020072253 #
-500 3:0.008240384 4:-0.026879052 11:0.00022061143 12:-0.00022061143 13:-0.00022061143 14:-0.00022061143 15:-0.00022061143 16:-0.00022061143 18:0.00022061143 19:-0.00022061143 28:0.09472172 29:0.11143745 30:0.011471794 31:-0.00022061143 32:-0.00022061143 33:0.98878038 901:0.00022061143 1800:0.00022061143 2123:0.00022061143 2204:0.00022061143 2500:0.00022061143 2601:0.00022061143 2699:0.00022061143 #
350 3:0.0083890911 4:-0.027020991 11:0.00022088033 12:-0.00022088033 13:-0.00022088033 14:-0.00022088033 15:-0.00022088033 16:-0.00022088033 18:-0.00022088033 19:-0.00022088033 28:0.09427835 29:0.11091506 30:0.011044017 31:-0.00022088033 32:-0.00022088033 33:0.98888123 900:0.00022088033 1801:0.00022088033 2103:0.00022088033 2205:0.00022088033 2504:0.00022088033 2602:0.00022088033 2701:0.00022088033 #
-500 3:0.0074125337 4:-0.023892459 11:-0.00019586741 12:-0.00019586741 13:-0.00019586741 14:-0.00019586741 15:-0.00019586741 16:-0.00019586741 18:-0.00019586741 19:-0.00019586741 28:0.094490357 29:0.11116455 30:0.009793371 31:-0.00019586741 32:-0.00019586741 33:0.98893458 900:0.00019586741 1799:0.00019586741 2122:0.00019586741 2202:0.00019586741 2320:0.00019586741 2405:0.00019586741 2501:0.00019586741 2599:0.00019586741 2702:0.00019586741 #
350 3:0.010332909 4:-0.024084616 11:-0.00028701976 12:-0.00028701976 13:-0.00028701976 14:-0.00028701976 15:-0.00028701976 16:-0.00028701976 18:-0.00028701976 19:-0.00028701976 28:0.096725665 29:0.11795939 30:0.0071754945 31:-0.00028701976 32:-0.00028701976 33:0.98792207 901:0.00028701976 1801:0.00028701976 2122:0.00028701976 2202:0.00028701976 2500:0.00028701976 2602:0.00028701976 2699:0.00028701976 #
-500 3:0.009034642 4:-0.021036882 11:-0.00023297321 12:-0.00023297321 13:-0.00023297321 14:-0.00023297321 15:-0.00023297321 16:-0.00023297321 18:-0.00023297321 19:-0.00023297321 28:0.091344133 29:0.10746355 30:0.011648661 31:0.00023297321 32:-0.00023297321 33:0.98967016 900:0.00023297321 1800:0.00023297321 2115:0.00023297321 2204:0.00023297321 2501:0.00023297321 2602:0.00023297321 2702:0.00023297321 #
350 3:0.007648244 4:-0.017935205 11:-0.00021312047 12:-0.00021312047 13:-0.00021312047 14:-0.00021312047 15:-0.00021312047 16:-0.00021312047 18:-0.00021312047 19:-0.00021312047 28:0.093308404 29:0.10977409 30:0.011721626 31:-0.00021312047 32:-0.00021312047 33:0.9893052 1800:0.00021312047 2115:0.00021312047 2204:0.00021312047 2306:0.00021312047 2401:0.00021312047 2501:0.00021312047 2600:0.00021312047 2700:0.00021312047 #
350 3:0.0068510016 4:-0.016187349 11:-0.00019637319 12:-0.00019637319 13:-0.00019637319 14:-0.00019637319 15:-0.00019637319 16:-0.00019637319 18:-0.00019637319 19:-0.00019637319 28:0.043585032 29:0.051276967 30:0.0019637321 31:-0.00019637319 32:-0.00019637319 33:0.99757582 900:0.00019637319 1801:0.00019637319 2124:0.00019637319 2199:0.00019637319 2501:0.00019637319 2602:0.00019637319 2701:0.00019637319 #
350 3:0.010378518 4:-0.01879435 11:-0.00025427967 12:-0.00025427967 13:-0.00025427967 14:-0.00025427967 15:-0.00025427967 16:-0.00025427967 18:-0.00025427967 19:-0.00025427967 28:0.10960471 29:0.12894776 30:0.003814195 31:-0.00025427967 32:0.00025427967 33:0.98533374 901:0.00025427967 1801:0.00025427967 2124:0.00025427967 2199:0.00025427967 2315:0.00025427967 2404:0.00025427967 2499:0.00025427967 2602:0.00025427967 2701:0.00025427967 #
-500 3:0.0094513632 4:-0.02016376 11:-0.00024615767 12:-0.00024615767 13:-0.00024615767 14:-0.00024615767 15:-0.00024615767 16:-0.00024615767 18:-0.00024615767 19:-0.00024615767 28:0.08528132 29:0.1003314 30:0.0046769953 31:-0.00024615767 32:-0.00024615767 33:0.99103075 900:0.00024615767 1801:0.00024615767 2111:0.00024615767 2200:0.00024615767 2504:0.00024615767 2601:0.00024615767 2699:0.00024615767 #
350 3:0.012776069 4:-0.028194511 11:-0.0003123137 12:-0.0003123137 13:-0.0003123137 14:-0.0003123137 15:-0.0003123137 16:-0.0003123137 18:-0.0003123137 19:-0.0003123137 28:0.0387269 29:0.047228076 30:0.015615685 31:-0.0003123137 32:-0.0003123137 33:0.99752992 1801:0.0003123137 2115:0.0003123137 2204:0.0003123137 2323:0.0003123137 2404:0.0003123137 2501:0.0003123137 2600:0.0003123137 2702:0.0003123137 #
-500 3:0.0058779027 4:-0.018882995 11:-0.00019724123 12:-0.00019724123 13:-0.00019724123 14:-0.00019724123 15:-0.00019724123 16:-0.00019724123 18:-0.00019724123 19:-0.00019724123 28:0.085995205 29:0.10117094 30:0.0039448244 31:-0.00019724123 32:-0.00019724123 33:0.99093992 900:0.00019724123 1801:0.00019724123 2123:0.00019724123 2204:0.00019724123 2499:0.00019724123 2602:0.00019724123 2699:0.00019724123 #
350 3:0.0085424446 4:-0.020767936 11:-0.00024281256 12:-0.00024281256 13:-0.00024281256 14:-0.00024281256 15:-0.00024281256 16:-0.00024281256 18:-0.00024281256 19:-0.00024281256 28:0.094526924 29:0.11120815 30:0.010926565 31:-0.00024281256 32:-0.00024281256 33:0.98897552 899:0.00024281256 1801:0.00024281256 2099:0.00024281256 2202:0.00024281256 2322:0.00024281256 2402:0.00024281256 2500:0.00024281256 2602:0.00024281256 2702:0.00024281256 #
350 3:0.011350052 4:-0.028032092 11:-0.00031580045 12:-0.00031580045 13:-0.00031580045 14:-0.00031580045 15:-0.00031580045 16:-0.00031580045 18:-0.00031580045 19:-0.00031580045 28:0.057475686 29:0.070091911 30:0.0063160094 31:-0.00031580045 32:-0.00031580045 33:0.99540305 899:0.00031580045 1801:0.00031580045 2115:0.00031580045 2204:0.00031580045 2323:0.00031580045 2404:0.00031580045 2499:0.00031580045 2601:0.00031580045 2699:0.00031580045 #
-500 3:0.01187869 4:-0.029114185 11:-0.00019431023 12:-0.00019431023 13:-0.00019431023 14:-0.00019431023 15:-0.00019431023 16:-0.00019431023 18:-0.00019431023 19:-0.00019431023 28:0.088488877 29:0.10410365 30:0.13213095 31:-0.00019431023 32:-0.00019431023 33:0.98126662 901:0.00019431023 1800:0.00019431023 2100:0.00019431023 2201:0.00019431023 2500:0.00019431023 2601:0.00019431023 2700:0.00019431023 #
-500 3:0.0089182593 4:-0.019354254 11:-0.00022445872 12:-0.00022445872 13:-0.00022445872 14:-0.00022445872 15:-0.00022445872 16:-0.00022445872 18:-0.00022445872 19:-0.00022445872 28:0.12445114 29:0.14641218 30:0.0067337616 31:-0.00022445872 32:-0.00022445872 33:0.98110908 901:0.00022445872 1800:0.00022445872 2115:0.00022445872 2204:0.00022445872 2501:0.00022445872 2602:0.00022445872 2700:0.00022445872 #
-500 3:0.0075168111 4:-0.019594848 11:-0.00024078054 12:-0.00024078054 13:-0.00024078054 14:-0.00024078054 15:-0.00024078054 16:-0.00024078054 18:-0.00024078054 19:-0.00024078054 28:0.18754637 29:0.22064166 30:0.010835125 31:-0.00024078054 32:-0.00024078054 33:0.95686191 1801:0.00024078054 2115:0.00024078054 2204:0.00024078054 2323:0.00024078054 2404:0.00024078054 2501:0.00024078054 2600:0.00024078054 2699:0.00024078054 #
350 3:0.0063512921 4:-0.020233478 11:-0.00021268903 12:-0.00021268903 13:-0.00021268903 14:-0.00021268903 15:-0.00021268903 16:-0.00021268903 18:-0.00021268903 19:-0.00021268903 28:0.043471511 29:0.051143207 30:0.0038284026 31:-0.00021268903 32:-0.00021268903 33:0.99751157 900:0.00021268903 1801:0.00021268903 2115:0.00021268903 2204:0.00021268903 2306:0.00021268903 2401:0.00021268903 2501:0.00021268903 2602:0.00021268903 2699:0.00021268903 #
350 3:0.0099434899 4:-0.024488132 11:-0.00025360574 12:-0.00025360574 13:-0.00025360574 14:-0.00025360574 15:-0.00025360574 16:-0.00025360574 18:-0.00025360574 19:-0.00025360574 28:0.077973619 29:0.091734268 30:0.0053257206 31:-0.00025360574 32:-0.00025360574 33:0.99235922 1801:0.00025360574 2115:0.00025360574 2204:0.00025360574 2323:0.00025360574 2404:0.00025360574 2501:0.00025360574 2601:0.00025360574 2699:0.00025360574 #
350 3:0.014688258 4:-0.026745217 11:-0.00036171966 12:0.00036171966 13:-0.00036171966 14:-0.00036171966 15:-0.00036171966 16:-0.00036171966 18:-0.00036171966 19:-0.00036171966 28:0.19713721 29:0.24040973 30:0.011936748 31:-0.00036171966 32:-0.00036171966 33:0.94987583 901:0.00036171966 1800:0.00036171966 2106:0.00036171966 2201:0.00036171966 2306:0.00036171966 2401:0.00036171966 2500:0.00036171966 2602:0.00036171966 2701:0.00036171966 #
350 3:0.0073452606 4:-0.023665745 11:-0.00019342994 12:-0.00019342994 13:-0.00019342994 14:-0.00019342994 15:-0.00019342994 16:-0.00019342994 18:0.00019342994 19:-0.00019342994 28:0.165253 29:0.1944145 30:0.0048357481 31:-0.00019342994 32:-0.00019342994 33:0.96656936 900:0.00019342994 1799:0.00019342994 2123:0.00019342994 2204:0.00019342994 2319:0.00019342994 2404:0.00019342994 2501:0.00019342994 2602:0.00019342994 2699:0.00019342994 #
-500 3:0.012902751 4:-0.02324198 11:-0.00029877556 12:-0.00029877556 13:-0.00029877556 14:-0.00029877556 15:-0.00029877556 16:-0.00029877556 18:-0.00029877556 19:-0.00029877556 28:0.14819267 29:0.18072335 30:0.0068718377 31:-0.00029877556 32:-0.00029877556 33:0.97191685 900:0.00029877556 1801:0.00029877556 2108:0.00029877556 2203:0.00029877556 2307:0.00029877556 2405:0.00029877556 2501:0.00029877556 2600:0.00029877556 2700:0.00029877556 #
350 3:0.0096253566 4:-0.030887557 11:-0.00025363924 12:0.00025363924 13:-0.00025363924 14:-0.00025363924 15:-0.00025363924 16:-0.00025363924 18:-0.00025363924 19:-0.00025363924 28:0.12214758 29:0.14039946 30:0.017754747 31:-0.00025363924 32:-0.00025363924 33:0.98183745 900:0.00025363924 1801:0.00025363924 2114:0.00025363924 2203:0.00025363924 2325:0.00025363924 2403:0.00025363924 2501:0.00025363924 2601:0.00025363924 2702:0.00025363924 #
-500 3:0.0074088089 4:-0.018563896 11:-0.00022995099 12:-0.00022995099 13:-0.00022995099 14:-0.00022995099 15:-0.00022995099 16:-0.00022995099 18:-0.00022995099 19:-0.00022995099 28:0.18852532 29:0.22179464 30:0.057487749 31:-0.00022995099 32:-0.00022995099 33:0.95475656 1801:0.00022995099 2122:0.00022995099 2202:0.00022995099 2323:0.00022995099 2404:0.00022995099 2501:0.00022995099 2601:0.00022995099 2702:0.00022995099 #
-500 3:0.0074188495 4:-0.020053716 11:-0.00024090864 12:-0.00024090864 13:-0.00024090864 14:-0.00024090864 15:-0.00024090864 16:-0.00024090864 18:-0.00024090864 19:-0.00024090864 28:0.099962637 29:0.11760197 30:0.010840889 31:-0.00024090864 32:-0.00024090864 33:0.9877255 1801:0.00024090864 2124:0.00024090864 2199:0.00024090864 2501:0.00024090864 2601:0.00024090864 2699:0.00024090864 #
350 3:0.011504096 4:-0.03686662 11:-0.00030288685 12:-0.00030288685 13:0.00030288685 14:-0.00030288685 15:-0.00030288685 16:-0.00030288685 18:-0.00030288685 19:-0.00030288685 28:0.10661617 29:0.13002023 30:0.0057548499 31:-0.00030288685 32:-0.00030288685 33:0.98498803 900:0.00030288685 1801:0.00030288685 2100:0.00030288685 2201:0.00030288685 2301:0.00030288685 2401:0.00030288685 2500:0.00030288685 2602:0.00030288685 2699:0.00030288685 #
350 3:0.0080609508 4:-0.014603898 11:-0.00019749864 12:-0.00019749864 13:-0.00019749864 14:-0.00019749864 15:-0.00019749864 16:-0.00019749864 18:-0.00019749864 19:-0.00019749864 28:0.093130484 29:0.10956434 30:0.059249591 31:0.00019749864 32:-0.00019749864 33:0.98769069 901:0.00019749864 1800:0.00019749864 2113:0.00019749864 2200:0.00019749864 2302:0.00019749864 2400:0.00019749864 2500:0.00019749864 2602:0.00019749864 2701:0.00019749864 #
-500 3:0.011271308 4:-0.020517457 11:0.00027643645 12:-0.00027643645 13:-0.00027643645 14:-0.00027643645 15:-0.00027643645 16:-0.00027643645 18:-0.00027643645 19:-0.00027643645 28:0.10512049 29:0.12819463 30:0.027643643 31:0.00027643645 32:-0.00027643645 33:0.98549592 900:0.00027643645 1801:0.00027643645 2106:0.00027643645 2201:0.00027643645 2323:0.00027643645 2404:0.00027643645 2501:0.00027643645 2602:0.00027643645 2700:0.00027643645 #
350 3:0.0083100721 4:-0.021227451 11:-0.00023622443 12:-0.00023622443 13:-0.00023622443 14:0.00023622443 15:-0.00023622443 16:-0.00023622443 18:-0.00023622443 19:-0.00023622443 28:0.15062615 29:0.17720611 30:0.0047244886 31:-0.00023622443 32:-0.00023622443 33:0.97229975 901:0.00023622443 1801:0.00023622443 2123:0.00023622443 2204:0.00023622443 2499:0.00023622443 2602:0.00023622443 2699:0.00023622443 #
350 3:0.0096869227 4:-0.031229246 11:-0.00025524088 12:-0.00025524088 13:-0.00025524088 14:-0.00025524088 15:-0.00025524088 16:-0.00025524088 18:-0.00025524088 19:-0.00025524088 28:0.1886715 29:0.23008689 30:0.010209635 31:0.00025524088 32:-0.00025524088 33:0.95409042 900:0.00025524088 1801:0.00025524088 2106:0.00025524088 2201:0.00025524088 2310:0.00025524088 2401:0.00025524088 2501:0.00025524088 2602:0.00025524088 2700:0.00025524088 #
-500 3:0.0087358328 4:-0.018937407 11:-0.00024522998 12:-0.00024522998 13:-0.00024522998 14:-0.00024522998 15:-0.00024522998 16:-0.00024522998 18:-0.00024522998 19:-0.00024522998 28:0.170837 29:0.20098558 30:0.014713798 31:-0.00024522998 32:-0.00024522998 33:0.96424425 899:0.00024522998 1799:0.00024522998 2115:0.00024522998 2204:0.00024522998 2308:0.00024522998 2403:0.00024522998 2501:0.00024522998 2602:0.00024522998 2701:0.00024522998 #
350 3:0.0090887798 4:-0.021192405 11:-0.00025249942 12:-0.00025249942 13:-0.00025249942 14:-0.00025249942 15:-0.00025249942 16:-0.00025249942 18:-0.00025249942 19:-0.00025249942 28:0.11437972 29:0.13456452 30:0.0063124858 31:-0.00025249942 32:-0.00025249942 33:0.98399031 901:0.00025249942 1801:0.00025249942 2123:0.00025249942 2204:0.00025249942 2320:0.00025249942 2405:0.00025249942 2501:0.00025249942 2602:0.00025249942 2700:0.00025249942 #
-500 3:0.011416019 4:-0.02941383 11:-0.00023986318 12:-0.00023986318 13:-0.00023986318 14:-0.00023986318 15:-0.00023986318 16:-0.00023986318 18:-0.00023986318 19:-0.00023986318 28:0.044530597 29:0.052388515 30:0.006716169 31:0.00023986318 32:-0.00023986318 33:0.9971112 901:0.00023986318 1801:0.00023986318 2108:0.00023986318 2203:0.00023986318 2315:0.00023986318 2404:0.00023986318 2504:0.00023986318 2602:0.00023986318 2700:0.00023986318 #
350 3:0.0072518084 4:-0.01728151 11:-0.0002130186 12:-0.0002130186 13:-0.0002130186 14:-0.0002130186 15:-0.0002130186 16:-0.0002130186 18:-0.0002130186 19:-0.0002130186 28:0.082840808 29:0.09746027 30:0.0036213163 31:-0.0002130186 32:-0.0002130186 33:0.99160165 901:0.0002130186 1801:0.0002130186 2115:0.0002130186 2204:0.0002130186 2500:0.0002130186 2601:0.0002130186 2699:0.0002130186 #
-500 3:0.0084632272 4:-0.017272852 11:-0.00019618614 12:-0.00019618614 13:-0.00019618614 14:0.00019618614 15:-0.00019618614 16:-0.00019618614 18:-0.00019618614 19:-0.00019618614 28:0.097376995 29:0.11456093 30:0.010790238 31:-0.00019618614 32:-0.00019618614 33:0.9883858 901:0.00019618614 1800:0.00019618614 2124:0.00019618614 2199:0.00019618614 2500:0.00019618614 2602:0.00019618614 2699:0.00019618614 #
350 3:0.008645256 4:-0.024306512 11:-0.00021814507 12:-0.00021814507 13:-0.00021814507 14:-0.00021814507 15:-0.00021814507 16:-0.00021814507 18:-0.00021814507 19:-0.00021814507 28:0.080469355 29:0.094670594 30:0.0043629012 31:-0.00021814507 32:-0.00021814507 33:0.99190563 899:0.00021814507 1801:0.00021814507 2113:0.00021814507 2200:0.00021814507 2500:0.00021814507 2601:0.00021814507 2699:0.00021814507 #
350 3:0.0075358748 4:-0.026309535 11:-0.0002223325 12:-0.0002223325 13:-0.0002223325 14:-0.0002223325 15:-0.0002223325 16:-0.0002223325 18:-0.0002223325 19:-0.0002223325 28:0.10086336 29:0.1186633 30:0.0088932998 31:0.0002223325 32:-0.0002223325 33:0.98737866 900:0.0002223325 1800:0.0002223325 2115:0.0002223325 2204:0.0002223325 2324:0.0002223325 2399:0.0002223325 2499:0.0002223325 2602:0.0002223325 2700:0.0002223325 #
-500 3:0.012494799 4:-0.027105184 11:-0.00034134783 12:-0.00034134783 13:-0.00034134783 14:-0.00034134783 15:-0.00034134783 16:-0.00034134783 18:-0.00034134783 19:-0.00034134783 28:0.082947522 29:0.10115502 30:0.0068269568 31:-0.00034134783 32:-0.00034134783 33:0.99093276 901:0.00034134783 1801:0.00034134783 2105:0.00034134783 2205:0.00034134783 2323:0.00034134783 2404:0.00034134783 2500:0.00034134783 2602:0.00034134783 2699:0.00034134783 #
350 3:0.011479308 4:-0.019271335 11:-0.00027106161 12:-0.00027106161 13:-0.00027106161 14:-0.00027106161 15:-0.00027106161 16:-0.00027106161 18:-0.00027106161 19:-0.00027106161 28:0.10924596 29:0.13322678 30:0.0067765401 31:0.00027106161 32:-0.00027106161 33:0.98476678 901:0.00027106161 1800:0.00027106161 2101:0.00027106161 2201:0.00027106161 2500:0.00027106161 2602:0.00027106161 2702:0.00027106161 #
350 3:0.012615873 4:-0.025327442 11:-0.00033472374 12:-0.00033472374 13:-0.00033472374 14:-0.00033472374 15:-0.00033472374 16:-0.00033472374 18:-0.00033472374 19:-0.00033472374 28:0.047196046 29:0.057555746 30:0.0056903032 31:-0.00033472374 32:-0.00033472374 33:0.99680728 899:0.00033472374 1801:0.00033472374 2123:0.00033472374 2204:0.00033472374 2314:0.00033472374 2403:0.00033472374 2499:0.00033472374 2601:0.00033472374 2699:0.00033472374 #
350 3:0.013078379 4:-0.027481034 11:-0.00031329106 12:0.00031329106 13:-0.00031329106 14:-0.00031329106 15:-0.00031329106 16:-0.00031329106 18:-0.00031329106 19:-0.00031329106 28:0.1052658 29:0.12837414 30:0.0087721497 31:-0.00031329106 32:-0.00031329106 33:0.9856137 901:0.00031329106 1801:0.00031329106 2106:0.00031329106 2201:0.00031329106 2500:0.00031329106 2602:0.00031329106 2700:0.00031329106 #
-500 3:0.0099988729 4:-0.026523151 11:-0.00027810642 12:-0.00027810642 13:-0.00027810642 14:-0.00027810642 15:-0.00027810642 16:-0.00027810642 18:-0.00027810642 19:-0.00027810642 28:0.073472939 29:0.089600332 30:0.0061183413 31:0.00027810642 32:-0.00027810642 33:0.99283993 899:0.00027810642 1801:0.00027810642 2115:0.00027810642 2204:0.00027810642 2305:0.00027810642 2405:0.00027810642 2504:0.00027810642 2602:0.00027810642 2699:0.00027810642 #
350 3:0.0087521719 4:-0.018123768 11:-0.00019413643 12:-0.00019413643 13:-0.00019413643 14:-0.00019413643 15:-0.00019413643 16:-0.00019413643 18:-0.00019413643 19:-0.00019413643 28:0.10167313 29:0.11961523 30:0.0058240932 31:-0.00019413643 32:-0.00019413643 33:0.98737788 900:0.00019413643 1801:0.00019413643 2115:0.00019413643 2204:0.00019413643 2500:0.00019413643 2602:0.00019413643 2699:0.00019413643 #
350 3:0.012346218 4:-0.025845041 11:-0.00029441784 12:0.00029441784 13:-0.00029441784 14:-0.00029441784 15:-0.00029441784 16:-0.00029441784 18:-0.00029441784 19:-0.00029441784 28:0.12012248 29:0.14649054 30:0.045634765 31:0.00029441784 32:-0.00029441784 33:0.98041141 901:0.00029441784 1801:0.00029441784 2122:0.00029441784 2202:0.00029441784 2308:0.00029441784 2403:0.00029441784 2500:0.00029441784 2602:0.00029441784 2702:0.00029441784 #
-500 3:0.010421895 4:-0.02425649 11:-0.00029712633 12:-0.00029712633 13:0.00029712633 14:-0.00029712633 15:-0.00029712633 16:-0.00029712633 18:-0.00029712633 19:-0.00029712633 28:0.10820747 29:0.13195975 30:0.0023770106 31:-0.00029712633 32:-0.00029712633 33:0.98497385 899:0.00029712633 1800:0.00029712633 2124:0.00029712633 2199:0.00029712633 2305:0.00029712633 2405:0.00029712633 2501:0.00029712633 2602:0.00029712633 2700:0.00029712633 #
350 3:0.009466745 4:-0.02247615 11:-0.00020714103 12:-0.00020714103 13:-0.00020714103 14:-0.00020714103 15:-0.00020714103 16:-0.00020714103 18:-0.00020714103 19:-0.00020714103 28:0.082315773 29:0.096842572 30:0.0033142564 31:-0.00020714103 32:-0.00020714103 33:0.99158412 1801:0.00020714103 2101:0.00020714103 2201:0.00020714103 2300:0.00020714103 2401:0.00020714103 2500:0.00020714103 2600:0.00020714103 2699:0.00020714103 #
350 3:0.0080719749 4:-0.02013211 11:-0.00023859172 12:-0.00023859172 13:-0.00023859172 14:-0.00023859172 15:-0.00023859172 16:-0.00023859172 18:-0.00023859172 19:-0.00023859172 28:0.11466479 29:0.13489977 30:0.0045332429 31:-0.00023859172 32:-0.00023859172 33:0.98395228 901:0.00023859172 1801:0.00023859172 2104:0.00023859172 2202:0.00023859172 2501:0.00023859172 2602:0.00023859172 2699:0.00023859172 #
350 3:0.0065934192 4:-0.023057263 11:-0.00019542425 12:-0.00019542425 13:-0.00019542425 14:-0.00019542425 15:-0.00019542425 16:-0.00019542425 18:-0.00019542425 19:-0.00019542425 28:0.11526709 29:0.13560879 30:0.01836988 31:0.00019542425 32:-0.00019542425 33:0.98357028 900:0.00019542425 1800:0.00019542425 2122:0.00019542425 2202:0.00019542425 2315:0.00019542425 2404:0.00019542425 2500:0.00019542425 2602:0.00019542425 2699:0.00019542425 #
