SVM-light Version V6.02
2 # kernel type
3 # kernel parameter -d 
1 # kernel parameter -g 
1 # kernel parameter -s 
1 # kernel parameter -r 
empty# kernel parameter -u 
33 # highest feature index 
10000 # number of training documents 
6508 # number of support vectors plus 1 
0 # threshold b, each following line is a SV (starting with alpha*y)
-100 3:0.0071187629 4:-0.020443061 8:0.00023256418 11:-0.00023256418 12:-0.00023256418 13:-0.00023256418 14:-0.00023256418 15:-0.00023256418 16:-0.00023256418 17:0.00069769257 18:-0.00023256418 19:-0.00023256418 20:0.0018605135 21:0.00069769257 22:0.003953591 23:0.0013953851 24:0.00069769257 25:0.00046512837 26:0.00046512837 28:0.10399805 29:0.12234969 30:0.037210267 31:0.00023256418 32:-0.00023256418 33:0.98607212 #
-100 3:0.012068413 4:-0.025345357 8:0.00086100679 11:-0.00028700224 12:-0.00028700224 13:-0.00028700224 14:-0.00028700224 15:-0.00028700224 16:-0.00028700224 17:0.00086100679 18:-0.00028700224 19:-0.00028700224 20:0.0048790383 21:0.0017220136 22:0.0017220136 23:0.001148009 24:0.0017220136 25:0.00086100679 26:0.00028700224 28:0.085276984 29:0.10399527 30:0.010332081 31:-0.00028700224 32:-0.00028700224 33:0.99044478 #
-100 3:0.0074118446 4:-0.013472725 8:0.00054640096 11:-0.00018213365 12:-0.00018213365 13:-0.00018213365 14:-0.00018213365 15:-0.00018213365 16:-0.00018213365 17:0.0003642673 18:-0.00018213365 19:-0.00018213365 20:0.0043712077 21:0.00072853459 22:0.0014570692 23:0.00054640096 24:0.00054640096 25:0.00072853459 26:0.0003642673 28:0.29792148 29:0.35049617 30:0.072489187 31:-0.00018213365 32:-0.00018213365 33:0.88480526 #
90 3:0.0091784103 4:-0.0296191 11:-0.00030958315 12:-0.00030958315 13:-0.00030958315 14:-0.00030958315 15:-0.00030958315 16:-0.00030958315 17:0.0006191663 18:-0.00030958315 19:-0.00030958315 20:0.0049533304 21:0.0015479157 22:0.0052629136 23:0.0018574989 24:0.00030958315 25:0.0006191663 26:0.0006191663 28:0.10185286 29:0.12421095 30:0.046437472 31:-0.00030958315 32:-0.00030958315 33:0.98540318 #
-100 3:0.0096632428 4:-0.023538781 8:0.00088217889 11:-0.00029405963 12:-0.00029405963 13:-0.00029405963 14:-0.00029405963 15:-0.00029405963 16:-0.00029405963 17:0.00088217889 18:-0.00029405963 19:-0.00029405963 20:0.0049990136 21:0.0017643578 22:0.0014702982 23:0.0020584173 24:0.00088217889 25:0.0011762385 26:0.00058811926 28:0.41926432 29:0.51129913 30:0.17643577 31:-0.00029405963 32:-0.00029405963 33:0.72867978 #
-100 3:0.0092454171 4:-0.021577958 8:0.00051534449 11:-0.00025767225 12:-0.00025767225 13:-0.00025767225 14:-0.00025767225 15:-0.00025767225 16:-0.00025767225 17:0.00077301671 18:-0.00025767225 19:-0.00025767225 20:0.004122756 21:0.0012883611 22:0.002061378 23:0.00077301671 24:0.00077301671 25:0.00077301671 26:0.00077301671 28:0.15153189 29:0.17417355 30:0.030920668 31:-0.00025767225 32:-0.00025767225 33:0.97219735 #
-100 3:0.0084399525 4:-0.021592332 8:0.00048101437 11:-0.00024050719 12:-0.00024050719 13:-0.00024050719 14:-0.00024050719 15:-0.00024050719 16:-0.00024050719 17:0.00072152156 18:-0.00024050719 19:-0.00024050719 20:0.0057721725 21:0.00096202875 24:0.00048101437 25:0.00024050719 26:0.00048101437 28:0.096234143 29:0.11321636 30:0.040886223 31:-0.00024050719 32:-0.00024050719 33:0.98776305 #
90 3:0.0069967275 4:-0.021054689 8:0.00070083915 11:0.00023361304 12:-0.00023361304 13:0.00023361304 14:0.00023361304 15:0.00023361304 16:-0.00023361304 17:0.00046722608 18:0.00023361304 19:-0.00023361304 20:0.0039714216 21:0.0014016783 24:0.00023361304 25:0.00093445217 26:0.00070083915 28:0.22082506 29:0.25979406 30:0.080830112 31:0.00023361304 32:-0.00023361304 33:0.93632108 #
90 3:0.0090988297 4:-0.026716108 8:0.00055288937 11:-0.00027644468 12:-0.00027644468 13:-0.00027644468 14:-0.00027644468 15:-0.00027644468 16:-0.00027644468 17:0.00082933408 18:-0.00027644468 19:-0.00027644468 20:0.0071875616 21:0.00027644468 22:0.0071875616 23:0.00027644468 24:0.00055288937 25:0.00082933408 26:0.0011057787 28:0.13718291 29:0.16729604 30:0.0024880022 31:0.00027644468 32:-0.00027644468 33:0.97584975 #
2.4085190316254738718271255493164 3:0.0076574893 4:-0.026664952 8:0.0006760484 11:-0.00022534946 12:-0.00022534946 13:-0.00022534946 14:-0.00022534946 15:-0.00022534946 16:-0.00022534946 17:0.0006760484 18:-0.00022534946 19:-0.00022534946 20:0.0038309409 21:0.0013520968 24:0.0006760484 25:0.00090139784 26:0.00022534946 28:0.08539167 29:0.10046079 30:0.0045069894 31:-0.00022534946 32:-0.00022534946 33:0.99086159 #
90 3:0.0064659431 4:-0.020458391 8:0.00021474849 11:-0.00021474849 12:-0.00021474849 13:-0.00021474849 14:-0.00021474849 15:-0.00021474849 16:-0.00021474849 17:0.00064424548 18:-0.00021474849 19:-0.00021474849 20:0.001288491 21:0.00085899397 22:0.00021474849 23:0.00085899397 24:0.00042949698 25:0.00085899397 26:0.00042949698 28:0.10124103 29:0.1191081 30:0.10737424 31:-0.00021474849 32:-0.00021474849 33:0.98161536 #
90 3:0.007303176 4:-0.021628927 8:0.00022612492 11:-0.00022612492 12:-0.00022612492 13:-0.00022612492 14:-0.00022612492 15:-0.00022612492 16:-0.00022612492 17:0.00067837472 18:-0.00022612492 19:-0.00022612492 20:0.0020351242 21:0.0015828745 22:0.002939624 23:0.00045224983 24:0.00045224983 25:0.00067837472 26:0.00022612492 28:0.090176359 29:0.10608876 30:0.004974748 31:-0.00022612492 32:0.00022612492 33:0.98997486 #
-100 3:0.0071320212 4:-0.022909023 8:0.00071970769 11:-0.00023990257 12:-0.00023990257 13:-0.00023990257 14:-0.00023990257 15:-0.00023990257 16:-0.00023990257 17:0.00047980514 18:-0.00023990257 19:-0.00023990257 20:0.0028788308 21:0.00071970769 22:0.00047980514 23:0.00071970769 24:0.00023990257 25:0.00071970769 26:0.00047980514 28:0.099917017 29:0.11754986 30:0.023990257 31:0.00023990257 32:-0.00023990257 33:0.98743898 #
-100 3:0.01184365 4:-0.024381706 11:-0.00027644803 12:-0.00027644803 13:-0.00027644803 14:-0.00027644803 15:-0.00027644803 16:-0.00027644803 17:0.00027644803 18:-0.00027644803 19:-0.00027644803 20:0.0046996167 21:0.0016586883 22:0.0069112009 23:0.0016586883 24:0.00027644803 25:0.00055289606 26:0.00082934415 28:0.12303597 29:0.15004493 30:0.024050979 31:-0.00027644803 32:-0.00027644803 33:0.98028475 #
90 3:0.0063101943 4:-0.018683612 8:0.00057828927 11:-0.00019276309 12:-0.00019276309 13:-0.00019276309 14:-0.00019276309 15:-0.00019276309 16:-0.00019276309 17:0.00038552619 18:0.00019276309 19:-0.00019276309 20:0.0032769726 21:0.0011565785 22:0.0044335513 23:0.0011565785 24:0.00019276309 25:0.00077105238 26:0.00019276309 28:0.15639834 29:0.18399815 30:0.0042407881 31:0.00019276309 32:-0.00019276309 33:0.97017664 #
-100 3:0.0085936505 4:-0.027618803 8:0.00084840896 11:-0.00028280297 12:-0.00028280297 13:-0.00028280297 14:-0.00028280297 15:-0.00028280297 16:-0.00028280297 17:0.00084840896 18:-0.00028280297 19:-0.00028280297 20:0.0048076506 21:0.0016968179 22:0.0070700743 23:0.0016968179 24:0.00084840896 25:0.0011312119 26:0.00028280297 28:0.11566642 29:0.14105648 30:0.0050904537 31:-0.00028280297 32:-0.00028280297 33:0.98274034 #
-100 3:0.007564262 4:-0.026277034 8:0.0006662847 11:-0.00022209491 12:-0.00022209491 13:-0.00022209491 14:-0.00022209491 15:-0.00022209491 16:-0.00022209491 17:0.0006662847 18:-0.00022209491 19:-0.00022209491 20:0.0055523724 21:0.0013325694 22:0.0017767593 23:0.0006662847 24:0.0006662847 25:0.00088837964 26:0.00044418982 28:0.096446931 29:0.11346607 30:0.015990833 31:-0.00022209491 32:-0.00022209491 33:0.98832232 #
18.395170900132882252364652231336 3:0.0078918794 4:-0.025393503 8:0.00020893036 11:-0.00020893036 12:-0.00020893036 13:-0.00020893036 14:-0.00020893036 15:-0.00020893036 16:-0.00020893036 17:0.00020893036 18:-0.00020893036 19:-0.00020893036 20:0.0052232589 21:0.0012535822 24:0.00062679109 25:0.00041786072 26:0.00062679109 28:0.097814925 29:0.11507675 30:0.015669776 31:-0.00020893036 32:-0.00020893036 33:0.98803169 #
-100 3:0.010990708 4:-0.021459788 8:0.00083996681 11:-0.00027998895 12:-0.00027998895 13:-0.00027998895 14:-0.00027998895 15:-0.00027998895 16:-0.00027998895 17:0.0005599779 18:-0.00027998895 19:-0.00027998895 20:0.0047598118 21:0.0016799336 22:0.0027998893 23:0.0013999447 24:0.00027998895 25:0.0011199558 26:0.0005599779 28:0.098026924 29:0.11954407 30:0.016799336 31:-0.00027998895 32:-0.00027998895 33:0.98752099 #
90 3:0.0091103073 4:-0.016513469 8:0.00066998409 11:-0.00022332804 12:-0.00022332804 13:-0.00022332804 14:-0.00022332804 15:-0.00022332804 16:-0.00022332804 17:0.00044665608 18:-0.00022332804 19:-0.00022332804 20:0.0055832011 21:0.0013399682 24:0.00022332804 25:0.00089331216 26:0.00022332804 28:0.11143176 29:0.1310958 30:0.0049132169 31:-0.00022332804 32:-0.00022332804 33:0.98487663 #
90 3:0.012049656 4:-0.027519342 11:-0.00034820166 12:-0.00034820166 13:-0.00034820166 14:-0.00034820166 15:-0.00034820166 16:-0.00034820166 17:0.00069640332 18:-0.00034820166 19:-0.00034820166 20:0.0020892101 21:0.0013928066 22:0.00034820166 23:0.0013928066 24:0.001044605 25:0.0013928066 26:0.001044605 28:0.051533848 29:0.062846921 30:0.007312235 31:-0.00034820166 32:-0.00034820166 33:0.99620497 #
-100 3:0.008474241 4:-0.021628903 8:0.0007213513 11:-0.00024045043 12:0.00024045043 13:-0.00024045043 14:-0.00024045043 15:-0.00024045043 16:-0.00024045043 17:0.0007213513 18:-0.00024045043 19:-0.00024045043 20:0.00048090087 21:0.0007213513 22:0.0019236035 23:0.0007213513 24:0.00024045043 25:0.00096180174 26:0.00024045043 28:0.10405011 29:0.12241091 30:0.018033782 31:-0.00024045043 32:-0.00024045043 33:0.98656815 #
90 3:0.011019819 4:-0.02966626 8:0.00072580011 11:-0.00024193336 12:-0.00024193336 13:-0.00024193336 14:-0.00024193336 15:-0.00024193336 16:-0.00024193336 17:0.00024193336 18:-0.00024193336 19:-0.00024193336 20:0.0060483343 21:0.0014516002 22:0.0041128672 23:0.0014516002 24:0.00024193336 25:0.00048386672 26:0.00072580011 28:0.049223762 29:0.057909168 30:0.024193337 31:-0.00024193336 32:-0.00024193336 33:0.99628156 #
-100 3:0.012647334 4:-0.020698857 11:-0.00029306739 12:-0.00029306739 13:-0.00029306739 14:-0.00029306739 15:-0.00029306739 16:-0.00029306739 17:0.00087920215 18:-0.00029306739 19:-0.00029306739 20:0.0061544152 21:0.0017584043 24:0.00087920215 25:0.00058613479 26:0.0011722696 28:0.10414442 29:0.12700662 30:0.020807784 31:0.00029306739 32:-0.00029306739 33:0.98587871 #
90 3:0.010645516 4:-0.023740629 8:0.00030453189 11:-0.00030453189 12:-0.00030453189 13:-0.00030453189 14:-0.00030453189 15:-0.00030453189 16:-0.00030453189 17:0.00060906378 18:-0.00030453189 19:-0.00030453189 20:0.0021317231 21:0.0021317231 22:0.0079178289 23:0.00030453189 24:0.00060906378 25:0.0012181276 26:0.00030453189 28:0.048116036 29:0.0586772 30:0.0036543824 31:-0.00030453189 32:-0.00030453189 33:0.99673283 #
90 3:0.0067593222 4:-0.020048369 8:0.00061816844 11:-0.00020605615 12:-0.00020605615 13:-0.00020605615 14:-0.00020605615 15:-0.00020605615 16:-0.00020605615 17:0.00061816844 18:-0.00020605615 19:-0.00020605615 20:0.0014423931 21:0.0014423931 22:0.0010302807 23:0.0014423931 24:0.00041211231 25:0.00082422461 26:0.00020605615 28:0.08286342 29:0.097487226 30:0.0041211229 31:-0.00020605615 32:-0.00020605615 33:0.99154216 #
90 3:0.010701118 4:-0.027548669 8:0.00067549583 11:-0.00022516528 12:-0.00022516528 13:-0.00022516528 14:-0.00022516528 15:-0.00022516528 16:-0.00022516528 17:0.00045033055 18:-0.00022516528 19:-0.00022516528 20:0.0038278098 21:0.0013509917 22:0.0060794624 23:0.0011258264 24:0.00022516528 25:0.00090066111 26:0.00045033055 28:0.16577569 29:0.19502915 30:0.0063046278 31:-0.00022516528 32:-0.00022516528 33:0.9661842 #
90 3:0.0079647964 4:-0.014806259 11:0.00019792847 12:-0.00019792847 13:-0.00019792847 14:-0.00019792847 15:-0.00019792847 16:-0.00019792847 17:0.00039585694 18:-0.00019792847 19:-0.00019792847 20:0.0049482118 21:0.0011875709 22:0.0051461402 23:0.00019792847 24:0.00039585694 25:0.00079171389 26:0.00039585694 28:0.06494429 29:0.076404348 30:0.0019792847 31:-0.00019792847 32:-0.00019792847 33:0.99478847 #
90 3:0.011629781 4:-0.020757249 8:0.00084790937 11:-0.00028263647 12:-0.00028263647 13:-0.00028263647 14:-0.00028263647 15:-0.00028263647 16:-0.00028263647 17:0.00056527293 18:-0.00028263647 19:-0.00028263647 20:0.0048048198 21:0.0016958187 22:0.0022610917 23:0.00084790937 24:0.0016958187 25:0.00084790937 26:0.00028263647 28:0.078174412 29:0.095333278 30:0.0050874562 31:-0.00028263647 32:-0.00028263647 33:0.99205393 #
-100 3:0.010336201 4:-0.021657107 8:0.00074176362 11:-0.00024725453 12:0.00024725453 13:-0.00024725453 14:0.00024725453 15:-0.00024725453 16:-0.00024725453 17:0.00049450906 18:-0.00024725453 19:-0.00024725453 20:0.0024725455 21:0.0012362727 24:0.0014835272 25:0.00098901812 26:0.00098901812 28:0.11960444 29:0.14071009 30:0.04203327 31:-0.00024725453 32:-0.00024725453 33:0.98160052 #
-100 3:0.0082640452 4:-0.017079568 8:0.00067175063 11:-0.00022391688 12:-0.00022391688 13:-0.00022391688 14:-0.00022391688 15:-0.00022391688 16:-0.00022391688 17:0.00067175063 18:-0.00022391688 19:-0.00022391688 20:0.00067175063 21:0.00067175063 24:0.00067175063 25:0.00089566753 26:0.00089566753 28:0.1008544 29:0.11865132 30:0.016793767 31:-0.00022391688 32:-0.00022391688 33:0.98747349 #
-100 3:0.010258018 4:-0.027272705 8:0.00056906365 11:-0.00028453182 12:-0.00028453182 13:-0.00028453182 14:-0.00028453182 15:-0.00028453182 16:-0.00028453182 17:0.00056906365 18:-0.00028453182 19:-0.00028453182 20:0.0014226591 21:0.0019917227 24:0.0008535955 25:0.0008535955 26:0.0011381273 28:0.11429074 29:0.13937791 30:0.028453182 31:0.00028453182 32:-0.00028453182 33:0.98277295 #
90 3:0.015267881 4:-0.030185813 8:0.0011763818 11:0.00039212729 12:-0.00039212729 13:-0.00039212729 14:-0.00039212729 15:-0.00039212729 16:-0.00039212729 17:0.0011763818 18:-0.00039212729 19:-0.00039212729 20:0.010587437 21:0.0019606363 22:0.0066661639 23:0.0023527637 24:0.00078425457 25:0.0011763818 26:0.0015685091 28:0.19091894 29:0.2328295 30:0.0078425454 31:-0.00039212729 32:-0.00039212729 33:0.9528693 #
-100 3:0.0086009223 4:-0.018933164 11:-0.00024091962 12:0.00024091962 13:-0.00024091962 14:-0.00024091962 15:-0.00024091962 16:-0.00024091962 17:0.00072275888 18:-0.00024091962 19:-0.00024091962 20:0.0024091962 21:0.0012045981 22:0.0038547139 23:0.0012045981 24:0.00072275888 25:0.00072275888 26:0.00072275888 28:0.11664847 29:0.13723263 30:0.030114952 31:-0.00024091962 32:-0.00024091962 33:0.98295206 #
90 3:0.013343962 4:-0.033447959 8:0.00038953367 11:-0.00038953367 12:-0.00038953367 13:-0.00038953367 14:-0.00038953367 15:-0.00038953367 16:-0.00038953367 17:0.001168601 18:-0.00038953367 19:-0.00038953367 20:0.0066220723 21:0.002337202 24:0.00038953367 25:0.0015581347 26:0.00038953367 28:0.036733024 29:0.04479637 30:0.0097383419 31:-0.00038953367 32:-0.00038953367 33:0.99759573 #
-100 3:0.0090201376 4:-0.018503379 8:0.0006290793 11:-0.0002096931 12:-0.0002096931 13:-0.0002096931 14:-0.0002096931 15:-0.0002096931 16:-0.0002096931 17:0.0006290793 18:-0.0002096931 19:-0.0002096931 20:0.0016775448 21:0.0006290793 22:0.0054520206 23:0.0002096931 24:0.0004193862 25:0.00083877239 26:0.0004193862 28:0.11692487 29:0.13755867 30:0.031453963 31:-0.0002096931 32:-0.0002096931 33:0.98283154 #
-100 3:0.011331497 4:-0.026921514 8:0.00066529977 11:-0.00033264988 12:0.00033264988 13:-0.00033264988 14:-0.00033264988 15:-0.00033264988 16:-0.00033264988 17:0.00099794962 18:-0.00033264988 19:-0.00033264988 20:0.0039917985 21:0.00099794962 22:0.0089815473 23:0.0016632495 24:0.00099794962 25:0.0013305995 26:0.00066529977 28:0.19792669 29:0.24137409 30:0.016632494 31:-0.00033264988 32:-0.00033264988 33:0.94938278 #
-100 3:0.0067924075 4:-0.023699917 8:0.00040049097 11:0.00020024549 12:-0.00020024549 13:-0.00020024549 14:-0.00020024549 15:-0.00020024549 16:-0.00020024549 17:0.00020024549 18:-0.00020024549 19:-0.00020024549 20:0.00060073647 21:0.00060073647 24:0.00040049097 25:0.00080098194 26:0.00080098194 28:0.11258402 29:0.13245237 30:0.030036822 31:-0.00020024549 32:-0.00020024549 33:0.98400629 #
90 3:0.014734591 4:-0.023707597 8:0.0010115972 11:-0.00033719908 12:-0.00033719908 13:-0.00033719908 14:-0.00033719908 15:-0.00033719908 16:-0.00033719908 17:0.0010115972 18:-0.00033719908 19:-0.00033719908 20:0.0084299771 21:0.0020231945 22:0.007755579 23:0.0020231945 24:0.0010115972 25:0.0013487963 26:0.00033719908 28:0.15342559 29:0.18710503 30:0.0067439815 31:-0.00033719908 32:-0.00033719908 33:0.96978456 #
64.816791221790481358766555786133 3:0.0089275157 4:-0.023969319 8:0.00058695575 11:-0.00019565191 12:-0.00019565191 13:-0.00019565191 14:-0.00019565191 15:-0.00019565191 16:-0.00019565191 17:0.00058695575 18:-0.00019565191 19:-0.00019565191 20:0.0011739115 21:0.00078260765 22:0.0031304306 23:0.0009782596 24:0.0011739115 25:0.00058695575 26:0.00039130382 28:0.12449723 29:0.14646697 30:0.044021681 31:-0.00019565191 32:-0.00019565191 33:0.9800204 #
-100 3:0.0096390108 4:-0.017367806 8:0.00047355454 11:-0.00023677727 12:-0.00023677727 13:-0.00023677727 14:-0.00023677727 15:-0.00023677727 16:-0.00023677727 17:0.00047355454 18:-0.00023677727 19:-0.00023677727 20:0.0037884363 21:0.0011838863 22:0.0021309953 23:0.0016574409 24:0.0014206636 25:0.00047355454 26:0.00071033178 28:0.15488786 29:0.18222141 30:0.029597158 31:-0.00023677727 32:-0.00023677727 33:0.97031325 #
90 3:0.0059481673 4:-0.017627668 8:0.0003915416 11:-0.0001957708 12:-0.0001957708 13:-0.0001957708 14:-0.0001957708 15:-0.0001957708 16:-0.0001957708 17:0.00058731245 18:-0.0001957708 19:-0.0001957708 20:0.0033281038 21:0.0011746249 22:0.0048942701 23:0.0011746249 24:0.0001957708 25:0.0003915416 26:0.0003915416 28:0.059958726 29:0.070540138 30:0.0058731241 31:-0.0001957708 32:-0.0001957708 33:0.99549454 #
90 3:0.0087006511 4:-0.023074238 8:0.00072192017 11:0.00024064005 12:-0.00024064005 13:-0.00024064005 14:-0.00024064005 15:-0.00024064005 16:-0.00024064005 17:0.00048128009 18:-0.00024064005 19:-0.00024064005 20:0.004090881 21:0.0014438403 22:0.0055347211 23:0.0014438403 24:0.00072192017 25:0.00096256018 26:0.00072192017 28:0.16961755 29:0.19955076 30:0.031283207 31:0.00024064005 32:-0.00024064005 33:0.96424466 #
90 3:0.0068237265 4:-0.020118613 8:0.00048712382 11:-0.00024356191 12:-0.00024356191 13:-0.00024356191 14:-0.00024356191 15:-0.00024356191 16:-0.00024356191 17:0.00048712382 18:-0.00024356191 19:-0.00024356191 20:0.0056019239 21:0.0014613714 22:0.0041405526 23:0.0014613714 24:0.00048712382 25:0.00097424764 26:0.00024356191 28:0.10650719 29:0.12530287 30:0.02922743 31:0.00024356191 32:-0.00024356191 33:0.98569506 #
-100 3:0.0078158276 4:-0.015466781 8:0.00040216476 11:-0.00020108238 12:-0.00020108238 13:-0.00020108238 14:-0.00020108238 15:-0.00020108238 16:-0.00020108238 17:0.00040216476 18:0.00020108238 19:-0.00020108238 20:0.0042227302 21:0.0012064943 24:0.00040216476 25:0.00080432952 26:0.00060324714 28:0.10979098 29:0.12916528 30:0.030162359 31:-0.00020108238 32:-0.00020108238 33:0.98490155 #
90 3:0.0086423308 4:-0.014631122 8:0.00041266182 11:-0.00020633091 12:-0.00020633091 13:-0.00020633091 14:-0.00020633091 15:-0.00020633091 16:-0.00020633091 17:0.00061899272 18:-0.00020633091 19:-0.00020633091 20:0.005158273 21:0.0012379854 22:0.0016506473 23:0.00061899272 24:0.00061899272 25:0.00041266182 26:0.00020633091 28:0.10845372 29:0.12759297 30:0.030949637 31:-0.00020633091 32:-0.00020633091 33:0.98523009 #
90 3:0.0075245053 4:-0.026182262 8:0.0006641139 11:-0.0002213713 12:-0.0002213713 13:-0.0002213713 14:-0.0002213713 15:-0.0002213713 16:-0.0002213713 17:0.0004427426 18:-0.0002213713 19:-0.0002213713 20:0.003763312 21:0.0013282278 22:0.0057556536 23:0.0002213713 24:0.0006641139 25:0.0006641139 26:0.0004427426 28:0.13776821 29:0.16207922 30:0.0057556536 31:0.0002213713 32:-0.0002213713 33:0.97669017 #
90 3:0.0074351239 4:-0.025676414 8:0.00065068278 11:0.00021689426 12:-0.00021689426 13:0.00021689426 14:-0.00021689426 15:-0.00021689426 16:0.00021689426 17:0.00043378852 18:0.00021689426 19:-0.00021689426 20:0.00043378852 21:0.00065068278 24:0.00043378852 25:0.00086757704 26:0.00065068278 28:0.21764037 29:0.25604799 30:0.026027311 31:-0.00021689426 32:-0.00021689426 33:0.94110417 #
-100 3:0.0079038311 4:-0.027572177 8:0.00069943507 11:-0.00023314502 12:-0.00023314502 13:-0.00023314502 14:-0.00023314502 15:-0.00023314502 16:-0.00023314502 17:0.00069943507 18:-0.00023314502 19:-0.00023314502 20:0.0058286255 21:0.0013988701 22:0.0039634653 23:0.0013988701 24:0.00046629005 25:0.00093258009 26:0.00046629005 28:0.10712548 29:0.12602888 30:0.023314502 31:0.00023314502 32:-0.00023314502 33:0.98550403 #
-100 3:0.0069434037 4:-0.024138428 8:0.00061229052 11:-0.00020409684 12:-0.00020409684 13:-0.00020409684 14:-0.00020409684 15:-0.00020409684 16:-0.00020409684 17:0.00040819368 18:-0.00020409684 19:-0.00020409684 20:0.0034696462 21:0.001224581 24:0.00020409684 25:0.00061229052 26:0.00020409684 28:0.14817226 29:0.17432114 30:0.0046942271 31:-0.00020409684 32:-0.00020409684 33:0.97313374 #
90 3:0.011230627 4:-0.02620233 8:0.0005799206 11:-0.0002899603 12:-0.0002899603 13:-0.0002899603 14:-0.0002899603 15:-0.0002899603 16:-0.0002899603 17:0.0008698809 18:-0.0002899603 19:-0.0002899603 20:0.0069590472 21:0.0011598412 22:0.0049293251 23:0.0017397618 24:0.0008698809 25:0.0011598412 26:0.0005799206 28:0.10554554 29:0.12871337 30:0.0063791266 31:-0.0002899603 32:-0.0002899603 33:0.98557502 #
-100 3:0.0075919982 4:-0.025179066 8:0.00025614459 11:-0.00025614459 12:-0.00025614459 13:-0.00025614459 14:-0.00025614459 15:-0.00025614459 16:-0.00025614459 17:0.00051228917 18:-0.00025614459 19:-0.00025614459 20:0.0064036148 21:0.0015368676 22:0.0020491567 23:0.00076843379 24:0.0015368676 25:0.00051228917 26:0.00025614459 28:0.14649934 29:0.16838945 30:0.0058913259 31:-0.00025614459 32:0.00025614459 33:0.97437406 #
90 3:0.0068168715 4:-0.017907673 8:0.00019729076 11:-0.00019729076 12:-0.00019729076 13:-0.00019729076 14:-0.00019729076 15:-0.00019729076 16:-0.00019729076 17:0.00059187232 18:-0.00019729076 19:-0.00019729076 20:0.00039458153 21:0.00059187232 24:0.0011837446 25:0.00078916305 26:0.00059187232 28:0.10008561 29:0.11774708 30:0.026634254 31:-0.00019729076 32:-0.00019729076 33:0.98744029 #
-100 3:0.008231001 4:-0.021134019 8:0.00070448784 11:-0.00023482928 12:-0.00023482928 13:-0.00023482928 14:-0.00023482928 15:-0.00023482928 16:-0.00023482928 17:0.00070448784 18:-0.00023482928 19:-0.00023482928 20:0.0039920979 21:0.0014089757 22:0.0018786342 23:0.00070448784 24:0.00070448784 25:0.00093931711 26:0.00023482928 28:0.091994368 29:0.10822812 30:0.005870732 31:0.00023482928 32:-0.00023482928 33:0.98957056 #
-100 3:0.0089502791 4:-0.025125751 11:-0.00025275745 12:-0.00025275745 13:-0.00025275745 14:-0.00025275745 15:-0.00025275745 16:-0.00025275745 17:0.00075827236 18:-0.00025275745 19:-0.00025275745 20:0.0030330895 21:0.00075827236 24:0.00075827236 25:0.00075827236 26:0.00075827236 28:0.10896121 29:0.12818848 30:0.035386045 31:-0.00025275745 32:-0.00025275745 33:0.98474306 #
-100 3:0.0081885429 4:-0.018868905 8:0.00069707085 11:-0.00023235695 12:0.00023235695 13:-0.00023235695 14:-0.00023235695 15:-0.00023235695 16:-0.00023235695 17:0.0004647139 18:-0.00023235695 19:-0.00023235695 20:0.0027882834 21:0.00069707085 22:0.0051118531 23:0.0016264986 24:0.00023235695 25:0.0009294278 26:0.0009294278 28:0.11868096 29:0.13962561 30:0.041824251 31:-0.00023235695 32:-0.00023235695 33:0.98194045 #
90 3:0.008316664 4:-0.016423061 8:0.00042648442 11:-0.00021324221 12:-0.00021324221 13:-0.00021324221 14:-0.00021324221 15:-0.00021324221 16:-0.00021324221 17:0.00042648442 18:-0.00021324221 19:-0.00021324221 20:0.0036251175 21:0.0012794533 24:0.00021324221 25:0.00042648442 26:0.00021324221 28:0.077419713 29:0.091082141 30:0.004051602 31:-0.00021324221 32:-0.00021324221 33:0.99264246 #
-100 3:0.010936939 4:-0.021884166 11:-0.00028201661 12:-0.00028201661 13:-0.00028201661 14:-0.00028201661 15:-0.00028201661 16:-0.00028201661 17:0.00028201661 18:-0.00028201661 19:-0.00028201661 20:0.0047942824 21:0.0016920997 22:0.00056403322 23:0.00084604986 24:0.00028201661 25:0.00056403322 26:0.00084604986 28:0.10147804 29:0.12375453 30:0.033841994 31:0.00028201661 32:-0.00028201661 33:0.98621213 #
90 3:0.0056919861 4:-0.018292835 8:0.00038203938 11:-0.00019101969 12:-0.00019101969 13:-0.00019101969 14:-0.00019101969 15:-0.00019101969 16:-0.00019101969 17:0.00038203938 18:-0.00019101969 19:-0.00019101969 20:0.0045844726 21:0.00076407875 24:0.00038203938 25:0.00057305908 26:0.00038203938 28:0.15623882 29:0.18381061 30:0.15281574 31:0.00019101969 32:-0.00019101969 33:0.95815474 #
-100 3:0.010083095 4:-0.026954953 8:0.00058287027 11:-0.00029143514 12:-0.00029143514 13:-0.00029143514 14:-0.00029143514 15:-0.00029143514 16:-0.00029143514 17:0.00087430538 18:-0.00029143514 19:-0.00029143514 20:0.0014571756 21:0.0020400458 22:0.0055372673 23:0.0020400458 24:0.00087430538 25:0.00087430538 26:0.0011657405 28:0.22877657 29:0.27899668 30:0.029143512 31:0.00029143514 32:-0.00029143514 33:0.93171811 #
-100 3:0.011337563 4:-0.033388954 8:0.0010343586 11:-0.00034478624 12:-0.00034478624 13:-0.00034478624 14:-0.00034478624 15:-0.00034478624 16:-0.00034478624 17:0.00068957248 18:-0.00034478624 19:-0.00034478624 20:0.0086196559 21:0.0020687173 22:0.00068957248 23:0.0010343586 24:0.00068957248 25:0.001379145 26:0.00068957248 28:0.098608859 29:0.12025454 30:0.0086196559 31:-0.00034478624 32:-0.00034478624 33:0.98712295 #
90 3:0.014676254 4:-0.030733304 8:0.0010519342 11:-0.00035064472 12:-0.00035064472 13:0.00035064472 14:-0.00035064472 15:-0.00035064472 16:-0.00035064472 17:0.0010519342 18:-0.00035064472 19:-0.00035064472 20:0.0091167623 21:0.00035064472 22:0.002454513 23:0.002454513 24:0.00035064472 25:0.0014025789 26:0.00035064472 28:0.25807452 29:0.31472468 30:0.0035064472 31:-0.00035064472 32:-0.00035064472 33:0.91272819 #
-100 3:0.012205531 4:-0.03595316 11:-0.00039726513 12:0.00039726513 13:-0.00039726513 14:-0.00039726513 15:-0.00039726513 16:-0.00039726513 17:0.00079453026 18:-0.00039726513 19:-0.00039726513 20:0.0067535075 21:0.0023835909 22:0.0031781211 23:0.0011917955 24:0.00079453026 25:0.0015890605 26:0.00039726513 28:0.094549105 29:0.11530223 30:0.010726159 31:-0.00039726513 32:-0.00039726513 33:0.98799843 #
-100 3:0.0053963712 4:-0.016102277 8:0.00040197789 11:-0.00020098894 12:-0.00020098894 13:-0.00020098894 14:-0.00020098894 15:-0.00020098894 16:-0.00020098894 17:0.00040197789 18:-0.00020098894 19:-0.00020098894 20:0.003416812 21:0.0012059336 22:0.0016079115 23:0.00060296681 24:0.00060296681 25:0.00040197789 26:0.00020098894 28:0.13084179 29:0.15393139 30:0.003416812 31:0.00020098894 32:0.00020098894 33:0.97921813 #
-100 3:0.0061927116 4:-0.019781731 8:0.00062239566 11:-0.00020746521 12:-0.00020746521 13:-0.00020746521 14:-0.00020746521 15:-0.00020746521 16:-0.00020746521 17:0.00041493043 18:-0.00020746521 19:-0.00020746521 20:0.0035269086 21:0.0012447913 22:0.0033194434 23:0.0010373261 24:0.0012447913 25:0.00062239566 26:0.00041493043 28:0.075407378 29:0.088714197 30:0.10373261 31:-0.00020746521 32:-0.00020746521 33:0.9875344 #
90 3:0.01010746 4:-0.029957572 8:0.00066541682 11:-0.00033270841 12:-0.00033270841 13:-0.00033270841 14:-0.00033270841 15:-0.00033270841 16:-0.00033270841 17:0.00099812518 18:-0.00033270841 19:-0.00033270841 20:0.0056560431 21:0.0019962504 22:0.00066541682 23:0.00099812518 24:0.00033270841 25:0.00066541682 26:0.00033270841 28:0.043252092 29:0.052747589 30:0.006654168 31:-0.00033270841 32:-0.00033270841 33:0.99712712 #
-100 3:0.011835332 4:-0.022202266 8:0.00088633521 11:-0.00029544506 12:-0.00029544506 13:-0.00029544506 14:-0.00029544506 15:-0.00029544506 16:-0.00029544506 17:0.00088633521 18:-0.00029544506 19:-0.00029544506 20:0.0023635605 21:0.00088633521 22:0.0076815719 23:0.00029544506 24:0.00059089012 25:0.0011817802 26:0.00059089012 28:0.088940784 29:0.10846379 30:0.0059089013 31:0.00029544506 32:-0.00029544506 33:0.98974097 #
90 3:0.007782863 4:-0.021494294 8:0.00038383107 11:-0.00019191553 12:-0.00019191553 13:-0.00019191553 14:-0.00019191553 15:-0.00019191553 16:-0.00019191553 17:0.00057574658 18:-0.00019191553 19:-0.00019191553 20:0.0032625641 21:0.0011514932 22:0.00057574658 23:0.00057574658 24:0.00019191553 25:0.00038383107 26:0.00019191553 28:0.16872446 29:0.19850016 30:0.0095957769 31:-0.00019191553 32:-0.00019191553 33:0.9651432 #
-100 3:0.0095065963 4:-0.015362324 8:0.0002134126 11:-0.0002134126 12:-0.0002134126 13:-0.0002134126 14:-0.0002134126 15:-0.0002134126 16:-0.0002134126 17:0.00064023776 18:-0.0002134126 19:-0.0002134126 20:0.0036280141 21:0.0012804755 22:0.002560951 23:0.00064023776 24:0.0002134126 25:0.00064023776 26:0.00042682519 28:0.094215259 29:0.11084224 30:0.0059755524 31:-0.0002134126 32:-0.0002134126 33:0.98916739 #
90 3:0.0078503499 4:-0.020130515 8:0.00067160407 11:-0.00022386803 12:-0.00022386803 13:-0.00022386803 14:-0.00022386803 15:-0.00022386803 16:-0.00022386803 17:0.00067160407 18:-0.00022386803 19:-0.00022386803 20:0.0020148123 21:0.0015670762 24:0.00067160407 25:0.00089547213 26:0.00044773606 28:0.10906403 29:0.12830997 30:0.0044773608 31:-0.00022386803 32:0.00022386803 33:0.98546708 #
-100 3:0.005890443 4:-0.017717138 8:0.00059066858 11:0.00019688952 12:-0.00019688952 13:-0.00019688952 14:-0.00019688952 15:-0.00019688952 16:-0.00019688952 17:0.00039377905 18:-0.00019688952 19:-0.00019688952 20:0.0047253487 21:0.00078755809 24:0.00039377905 25:0.00078755809 26:0.00078755809 28:0.094162419 29:0.11077989 30:0.0049222382 31:0.00019688952 32:-0.00019688952 33:0.989173 #
90 3:0.0061633475 4:-0.017471168 8:0.00021197865 11:-0.00021197865 12:-0.00021197865 13:-0.00021197865 14:-0.00021197865 15:-0.00021197865 16:-0.00021197865 17:0.00063593598 18:-0.00021197865 19:-0.00021197865 20:0.0052994667 21:0.001271872 22:0.0025437439 23:0.00063593598 24:0.00063593598 25:0.00084791461 26:0.00021197865 28:0.093457147 29:0.10994909 30:0.0084791463 31:0.00021197865 32:-0.00021197865 33:0.98930442 #
-100 3:0.0083099278 4:-0.017857915 8:0.0004157791 11:-0.00020788955 12:-0.00020788955 13:-0.00020788955 14:-0.00020788955 15:-0.00020788955 16:-0.00020788955 17:0.00062366866 18:-0.00020788955 19:-0.00020788955 20:0.0035341224 21:0.0012473373 22:0.0016631164 23:0.00062366866 24:0.00062366866 25:0.0004157791 26:0.0004157791 28:0.093132436 29:0.10956819 30:0.010394477 31:-0.00020788955 32:-0.00020788955 33:0.98934639 #
-100 3:0.010704894 4:-0.037089806 8:0.00093996024 11:-0.00031332008 12:-0.00031332008 13:0.00031332008 14:-0.00031332008 15:-0.00031332008 16:-0.00031332008 17:0.00062664016 18:-0.00031332008 19:-0.00031332008 20:0.0025065606 21:0.00093996024 22:0.005326441 23:0.0018799205 24:0.00093996024 25:0.0012532803 26:0.00062664016 28:0.22715706 29:0.27702194 30:0.0097129224 31:-0.00031332008 32:-0.00031332008 33:0.93275386 #
-100 3:0.0092987912 4:-0.022090293 11:-0.00026939379 12:-0.00026939379 13:-0.00026939379 14:-0.00026939379 15:-0.00026939379 16:-0.00026939379 17:0.00080818136 18:-0.00026939379 19:-0.00026939379 20:0.0021551503 21:0.00080818136 22:0.0045796945 23:0.0016163627 24:0.00053878757 25:0.0010775751 26:0.00026939379 28:0.091432251 29:0.11150209 30:0.007543026 31:0.00026939379 32:-0.00026939379 33:0.989214 #
6.43292504362761974334716796875 3:0.011575822 4:-0.019414145 8:0.00081969856 11:-0.00027323284 12:-0.00027323284 13:-0.00027323284 14:-0.00027323284 15:-0.00027323284 16:-0.00027323284 17:0.00054646569 18:-0.00027323284 19:-0.00027323284 20:0.0046449583 21:0.0016393971 22:0.0046449583 23:0.0016393971 24:0.00081969856 25:0.00081969856 26:0.00027323284 28:0.056990907 29:0.069502242 30:0.0043717255 31:-0.00027323284 32:-0.00027323284 33:0.99566048 #
90 3:0.0095232129 4:-0.02470048 11:-0.00020531945 12:-0.00020531945 13:-0.00020531945 14:-0.00020531945 15:-0.00020531945 16:-0.00020531945 17:0.0006159583 18:-0.00020531945 19:-0.00020531945 20:0.0034904305 21:0.0012319166 22:0.0014372361 23:0.0014372361 24:0.00020531945 25:0.00082127779 26:0.00020531945 28:0.058101296 29:0.068354949 30:0.0049276664 31:-0.00020531945 32:-0.00020531945 33:0.99559397 #
-100 3:0.0098263305 4:-0.01785367 8:0.00072455639 11:-0.00024151881 12:-0.00024151881 13:-0.00024151881 14:-0.00024151881 15:-0.00024151881 16:-0.00024151881 17:0.00024151881 18:-0.00024151881 19:-0.00024151881 20:0.006279489 21:0.00024151881 22:0.0041058194 23:0.0014491128 24:0.00072455639 25:0.00096607523 26:0.00048303761 28:0.15364702 29:0.18076234 30:0.02415188 31:-0.00024151881 32:0.00024151881 33:0.9709056 #
90 3:0.0080745118 4:-0.014747962 8:0.00039671431 11:-0.00019835716 12:-0.00019835716 13:-0.00019835716 14:-0.00019835716 15:-0.00019835716 16:-0.00019835716 17:0.00019835716 18:-0.00019835716 19:-0.00019835716 20:0.004958929 21:0.0011901429 22:0.0023802859 23:0.00059507147 24:0.00039671431 25:0.00039671431 26:0.00039671431 28:0.093975671 29:0.11056031 30:0.0099178581 31:-0.00019835716 32:-0.00019835716 33:0.98920715 #
-100 3:0.0086099431 4:-0.015587335 8:0.00063265202 11:-0.00021088401 12:-0.00021088401 13:-0.00021088401 14:-0.00021088401 15:-0.00021088401 16:-0.00021088401 17:0.00042176803 18:-0.00021088401 19:-0.00021088401 20:0.0052721002 21:0.001265304 24:0.00063265202 25:0.00084353605 26:0.00063265202 28:0.094473928 29:0.11114642 30:0.012653041 31:-0.00021088401 32:-0.00021088401 33:0.98904604 #
90 3:0.0097886603 4:-0.01690511 8:0.00068610359 11:-0.00022870119 12:0.00022870119 13:-0.00022870119 14:-0.00022870119 15:-0.00022870119 16:-0.00022870119 17:0.00045740238 18:-0.00022870119 19:-0.00022870119 20:0.0038879202 21:0.0013722072 22:0.0059462311 23:0.00022870119 24:0.00068610359 25:0.00068610359 26:0.00022870119 28:0.057893422 29:0.068109505 30:0.0050314264 31:-0.00022870119 32:-0.00022870119 33:0.99576497 #
90 3:0.0070432485 4:-0.019432709 8:0.00039878584 11:-0.00019939292 12:-0.00019939292 13:-0.00019939292 14:-0.00019939292 15:-0.00019939292 16:-0.00019939292 17:0.00059817877 18:-0.00019939292 19:-0.00019939292 20:0.0033896796 21:0.0011963575 22:0.0013957504 23:0.0013957504 24:0.00039878584 25:0.00039878584 26:0.00019939292 28:0.09469568 29:0.1114068 30:0.0087732887 31:-0.00019939292 32:-0.00019939292 33:0.98898888 #
90 3:0.0089958794 4:-0.015566858 8:0.00063285709 11:-0.00021095236 12:-0.00021095236 13:-0.00021095236 14:-0.00021095236 15:-0.00021095236 16:-0.00021095236 17:0.00042190473 18:-0.00021095236 19:-0.00021095236 20:0.0052738092 21:0.0012657142 24:0.00063285709 25:0.00084380945 26:0.00063285709 28:0.093004681 29:0.10941678 30:0.013289999 31:-0.00021095236 32:-0.00021095236 33:0.98936659 #
90 3:0.0069782063 4:-0.019265009 8:0.00039530426 11:-0.00019765213 12:-0.00019765213 13:-0.00019765213 14:-0.00019765213 15:-0.00019765213 16:-0.00019765213 17:0.00059295638 18:-0.00019765213 19:-0.00019765213 20:0.0033600864 21:0.0011859128 22:0.001581217 23:0.00059295638 24:0.00059295638 25:0.00039530426 26:0.00019765213 28:0.094394706 29:0.11105283 30:0.0098826066 31:0.00019765213 32:-0.00019765213 33:0.98905128 #
90 3:0.0070179612 4:-0.015940184 11:-0.00019630912 12:-0.00019630912 13:-0.00019630912 14:-0.00019630912 15:-0.00019630912 16:-0.00019630912 17:0.00058892736 18:-0.00019630912 19:-0.00019630912 20:0.003337255 21:0.0011778547 22:0.0049077277 23:0.0011778547 24:0.00019630912 25:0.00058892736 26:0.00019630912 28:0.062907256 29:0.074008539 30:0.0041224915 31:-0.00019630912 32:-0.00019630912 33:0.9950909 #
17.827971296661416999995708465576 3:0.010599443 4:-0.032913484 8:0.00054139347 11:0.00027069674 12:-0.00027069674 13:-0.00027069674 14:-0.00027069674 15:-0.00027069674 16:-0.00027069674 17:0.00081209018 18:-0.00027069674 19:-0.00027069674 20:0.0064967214 21:0.0010827869 24:0.00054139347 25:0.0010827869 26:0.0010827869 28:0.1297314 29:0.1582087 30:0.018948771 31:0.00027069674 32:-0.00027069674 33:0.97802728 #
90 3:0.0066772699 4:-0.019831641 11:-0.00024091174 12:-0.00024091174 13:-0.00024091174 14:-0.00024091174 15:-0.00024091174 16:-0.00024091174 17:0.00072273519 18:-0.00024091174 19:-0.00024091174 20:0.001927294 21:0.00072273519 22:0.0040954994 23:0.0014454704 24:0.00048182349 25:0.00096364698 26:0.00024091174 28:0.10497006 29:0.12349377 30:0.0043364111 31:0.00024091174 32:-0.00024091174 33:0.98653358 #
90 3:0.0082214903 4:-0.014919243 8:0.00060617807 11:-0.00020205937 12:-0.00020205937 13:-0.00020205937 14:-0.00020205937 15:-0.00020205937 16:-0.00020205937 17:0.00060617807 18:-0.00020205937 19:-0.00020205937 20:0.0050514843 21:0.0012123561 22:0.0048494246 23:0.00080823747 24:0.00060617807 25:0.00080823747 26:0.00020205937 28:0.097228944 29:0.11438783 30:0.0060617812 31:-0.00020205937 32:-0.00020205937 33:0.98847443 #
-100 3:0.0088312495 4:-0.02470983 11:-0.00026061406 12:-0.00026061406 13:-0.00026061406 14:-0.00026061406 15:-0.00026061406 16:-0.00026061406 17:0.00078184216 18:-0.00026061406 19:-0.00026061406 20:0.0044304389 21:0.0015636843 22:0.00078184216 23:0.00078184216 24:0.0015636843 25:0.0010424562 26:0.00052122812 28:0.084092334 29:0.096659146 30:0.0065153511 31:-0.00026061406 32:-0.00026061406 33:0.99137586 #
8.1295683805365115404129028320312 3:0.0068740086 4:-0.020661131 8:0.00068789389 11:0.00022929796 12:-0.00022929796 13:-0.00022929796 14:-0.00022929796 15:-0.00022929796 16:-0.00022929796 17:0.00022929796 18:-0.00022929796 19:-0.00022929796 20:0.0038980655 21:0.0013757878 22:0.0057324492 23:0.0013757878 24:0.00022929796 25:0.00091719185 26:0.00068789389 28:0.069683649 29:0.081980899 30:0.027515756 31:-0.00022929796 32:-0.00022929796 33:0.9935481 #
90 3:0.0043008891 4:-0.013455595 8:0.00033469385 11:-0.00016734692 12:-0.00016734692 13:-0.00016734692 14:-0.00016734692 15:-0.00016734692 16:-0.00016734692 17:0.00016734692 18:-0.00016734692 19:-0.00016734692 20:0.0013387754 21:0.00050204078 22:0.00050204078 23:0.00050204078 24:0.00050204078 25:0.00066938769 26:0.00066938769 28:0.33962891 29:0.39956424 30:0.035142854 31:-0.00016734692 32:-0.00016734692 33:0.85062444 #
-100 3:0.0058020442 4:-0.017417356 8:0.00058033364 11:0.00019344455 12:-0.00019344455 13:-0.00019344455 14:-0.00019344455 15:-0.00019344455 16:-0.00019344455 17:0.00038688909 18:-0.00019344455 19:-0.00019344455 20:0.0050295582 21:0.00019344455 24:0.00058033364 25:0.00077377819 26:0.00038688909 28:0.23418978 29:0.27551728 30:0.077377819 31:-0.00019344455 32:-0.00019344455 33:0.92892075 #
-100 3:0.0088108405 4:-0.024023198 8:0.00042888476 11:-0.00021444238 12:-0.00021444238 13:-0.00021444238 14:-0.00021444238 15:-0.00021444238 16:-0.00021444238 17:0.00064332713 18:-0.00021444238 19:-0.00021444238 20:0.0036455204 21:0.0012866543 24:0.00042888476 25:0.00064332713 26:0.00021444238 28:0.071643054 29:0.084286578 30:0.0051466171 31:0.00021444238 32:-0.00021444238 33:0.99351156 #
90 3:0.0087523153 4:-0.017847141 8:0.00022329004 11:-0.00022329004 12:-0.00022329004 13:-0.00022329004 14:-0.00022329004 15:-0.00022329004 16:-0.00022329004 17:0.00066987012 18:-0.00022329004 19:-0.00022329004 20:0.00066987012 21:0.00066987012 22:0.0037959307 23:0.0013397402 24:0.0013397402 25:0.00066987012 26:0.00066987012 28:0.067692608 29:0.07963863 30:0.021212554 31:-0.00022329004 32:-0.00022329004 33:0.99408728 #
-100 3:0.008540445 4:-0.016649518 8:0.00020800598 11:-0.00020800598 12:-0.00020800598 13:-0.00020800598 14:-0.00020800598 15:-0.00020800598 16:-0.00020800598 17:0.00020800598 18:-0.00020800598 19:-0.00020800598 20:0.0012480359 21:0.00083202391 22:0.00020800598 23:0.00083202391 24:0.00062401796 25:0.00041601196 26:0.00083202391 28:0.069365837 29:0.081606984 30:0.0041601197 31:-0.00020800598 32:-0.00020800598 33:0.99406058 #
26.000609306971302459032813203521 3:0.0089785578 4:-0.015445894 8:0.00063918973 11:-0.00021306323 12:-0.00021306323 13:-0.00021306323 14:-0.00021306323 15:-0.00021306323 16:-0.00021306323 17:0.00063918973 18:-0.00021306323 19:-0.00021306323 20:0.0036220751 21:0.0012783795 22:0.0025567589 23:0.00063918973 24:0.00021306323 25:0.00085225294 26:0.00021306323 28:0.067492045 29:0.079402275 30:0.0057527074 31:-0.00021306323 32:-0.00021306323 33:0.99436617 #
-100 3:0.0072438554 4:-0.016536737 8:0.00061427738 11:-0.00020475913 12:-0.00020475913 13:-0.00020475913 14:-0.00020475913 15:-0.00020475913 16:-0.00020475913 17:0.00061427738 18:-0.00020475913 19:-0.00020475913 20:0.00061427738 21:0.00061427738 22:0.0034809052 23:0.0012285548 24:0.00020475913 25:0.00040951825 26:0.00020475913 28:0.081492081 29:0.09587232 30:0.20455436 31:-0.00020475913 32:-0.00020475913 33:0.97055823 #
90 3:0.0073031667 4:-0.023391711 8:0.00020324878 11:-0.00020324878 12:-0.00020324878 13:-0.00020324878 14:-0.00020324878 15:-0.00020324878 16:-0.00020324878 17:0.00060974632 18:-0.00020324878 19:-0.00020324878 20:0.0016259903 21:0.00060974632 22:0.0034552291 23:0.0012194926 24:0.00060974632 25:0.00040649757 26:0.00020324878 28:0.08187674 29:0.096325696 30:0.0052844682 31:0.00020324878 32:-0.00020324878 33:0.99165076 #
90 3:0.0038863509 4:-0.0065200366 8:0.00018324389 11:-9.1621943e-05 12:-9.1621943e-05 13:-9.1621943e-05 14:-9.1621943e-05 15:-9.1621943e-05 16:-9.1621943e-05 17:0.00027486583 18:-9.1621943e-05 19:-9.1621943e-05 20:0.00073297555 21:0.00027486583 24:9.1621943e-05 25:0.00018324389 26:0.00036648777 28:0.57679033 29:0.67857683 30:0.0042146095 31:-9.1621943e-05 32:-9.1621943e-05 33:0.45471969 #
-100 3:0.0073298984 4:-0.016529964 8:0.00040271581 11:-0.00020135791 12:-0.00020135791 13:-0.00020135791 14:-0.00020135791 15:-0.00020135791 16:-0.00020135791 17:0.00060407369 18:-0.00020135791 19:-0.00020135791 20:0.0016108633 21:0.00060407369 22:0.00060407369 23:0.00060407369 24:0.00060407369 25:0.00080543163 26:0.00020135791 28:0.090204313 29:0.10612367 30:0.004027158 31:-0.00020135791 32:-0.00020135791 33:0.99007678 #
-100 3:0.0089403186 4:-0.032022405 8:0.0008207424 11:-0.00027358081 12:0.00027358081 13:-0.00027358081 14:-0.00027358081 15:-0.00027358081 16:-0.00027358081 17:0.0008207424 18:-0.00027358081 19:-0.00027358081 20:0.00054716162 21:0.0008207424 22:0.0008207424 23:0.0008207424 24:0.0008207424 25:0.0008207424 26:0.0008207424 28:0.2316819 29:0.28253785 30:0.051980354 31:-0.00027358081 32:-0.00027358081 33:0.92880684 #
18.452659495269472245126962661743 3:0.008976372 4:-0.016681822 8:0.00066946575 11:-0.00022315524 12:-0.00022315524 13:-0.00022315524 14:-0.00022315524 15:-0.00022315524 16:-0.00022315524 17:0.00044631047 18:-0.00022315524 19:-0.00022315524 20:0.0029010181 21:0.00044631047 24:0.0013389315 25:0.00089262094 26:0.00044631047 28:0.064536497 29:0.075926341 30:0.004463105 31:-0.00022315524 32:-0.00022315524 33:0.99482608 #
90 3:0.013539798 4:-0.0267809 8:0.0010443085 11:-0.00034810283 12:-0.00034810283 13:-0.00034810283 14:-0.00034810283 15:-0.00034810283 16:-0.00034810283 17:0.00069620565 18:-0.00034810283 19:-0.00034810283 20:0.005917748 21:0.0020886171 24:0.00069620565 25:0.0013924113 26:0.00034810283 28:0.43030733 29:0.52476501 30:0.0069620567 31:-0.00034810283 32:-0.00034810283 33:0.73380077 #
-100 3:0.008391263 4:-0.016478149 8:0.00061255798 11:-0.000204186 12:-0.000204186 13:-0.000204186 14:-0.000204186 15:-0.000204186 16:-0.000204186 17:0.000408372 18:-0.000204186 19:-0.000204186 20:0.0034711622 21:0.001225116 24:0.001225116 25:0.000816744 26:0.000408372 28:0.064145036 29:0.075465105 30:0.014701393 31:-0.000204186 32:-0.000204186 33:0.99479419 #
90 3:0.011707139 4:-0.023794575 8:0.0002961584 11:-0.0002961584 12:-0.0002961584 13:-0.0002961584 14:-0.0002961584 15:-0.0002961584 16:-0.0002961584 17:0.00059231679 18:-0.0002961584 19:-0.0002961584 20:0.0050346931 21:0.0017769504 24:0.0002961584 25:0.00088847522 26:0.00088847522 28:0.067820273 29:0.082708158 30:0.023692673 31:-0.0002961584 32:-0.0002961584 33:0.99361145 #
-100 3:0.0027616408 4:-0.0088780168 8:0.000278602 11:-9.2867333e-05 12:-9.2867333e-05 13:-9.2867333e-05 14:-9.2867333e-05 15:-9.2867333e-05 16:-9.2867333e-05 17:0.00018573467 18:-9.2867333e-05 19:-9.2867333e-05 20:0.00046433668 21:0.00065007136 24:0.000278602 25:0.000278602 26:0.00018573467 28:0.6156826 29:0.75083244 30:0.047362342 31:-9.2867333e-05 32:-9.2867333e-05 33:0.23421142 #
90 3:0.0087495986 4:-0.018956676 8:0.00065967737 11:-0.00021989245 12:0.00021989245 13:-0.00021989245 14:-0.00021989245 15:-0.00021989245 16:-0.00021989245 17:0.0004397849 18:-0.00021989245 19:-0.00021989245 20:0.005277419 21:0.00087956979 22:0.0057172035 23:0.00021989245 24:0.0004397849 25:0.00087956979 26:0.00021989245 28:0.088253833 29:0.10382882 30:0.021989245 31:-0.00021989245 32:-0.00021989245 33:0.99017572 #
-100 3:0.0071150479 4:-0.020390881 11:0.00024901918 12:-0.00024901918 13:-0.00024901918 14:-0.00024901918 15:-0.00024901918 16:-0.00024901918 17:0.00049803837 18:-0.00024901918 19:-0.00024901918 20:0.00024901918 21:0.00099607673 22:0.0042333258 23:0.0014941151 24:0.00049803837 25:0.00099607673 26:0.00049803837 28:0.060720835 29:0.07143613 30:0.0062254793 31:-0.00024901918 32:-0.00024901918 33:0.99532968 #
90 3:0.007716476 4:-0.018599022 8:0.0004022397 11:-0.00020111985 12:-0.00020111985 13:-0.00020111985 14:-0.00020111985 15:-0.00020111985 16:-0.00020111985 17:0.0004022397 18:-0.00020111985 19:-0.00020111985 20:0.005229116 21:0.00020111985 22:0.001407839 23:0.001407839 24:0.00060335954 25:0.0004022397 26:0.00080447941 28:0.1431732 29:0.16843988 30:0.0030167978 31:-0.00020111985 32:-0.00020111985 33:0.97502905 #
90 3:0.0093296738 4:-0.016947813 8:0.00068780489 11:-0.00022926829 12:-0.00022926829 13:-0.00022926829 14:-0.00022926829 15:-0.00022926829 16:-0.00022926829 17:0.00068780489 18:-0.00022926829 19:-0.00022926829 20:0.0018341463 21:0.00068780489 22:0.0052731708 23:0.0013756098 24:0.00068780489 25:0.00091707316 26:0.00045853658 28:0.14988185 29:0.17633253 30:0.057317071 31:-0.00022926829 32:-0.00022926829 33:0.9709512 #
-100 3:0.0071595833 4:-0.019031452 8:0.00059528358 11:-0.00019842786 12:-0.00019842786 13:-0.00019842786 14:-0.00019842786 15:-0.00019842786 16:-0.00019842786 17:0.00039685573 18:-0.00019842786 19:-0.00019842786 20:0.0017858509 21:0.0013889951 22:0.0013889951 23:0.0013889951 24:0.00039685573 25:0.00079371146 26:0.00039685573 28:0.10403176 29:0.12239031 30:0.005952836 31:0.00019842786 32:-0.00019842786 33:0.98678178 #
-100 3:0.009856374 4:-0.015864536 8:0.00067705126 11:-0.00022568375 12:-0.00022568375 13:-0.00022568375 14:-0.00022568375 15:-0.00022568375 16:-0.00022568375 17:0.00067705126 18:-0.00022568375 19:-0.00022568375 20:0.002708205 21:0.00067705126 24:0.00045136749 25:0.00045136749 26:0.00022568375 28:0.061665829 29:0.0725483 30:0.0047393586 31:0.00022568375 32:-0.00022568375 33:0.99526536 #
-100 3:0.010558274 4:-0.029094005 8:0.00071957061 11:-0.00023985688 12:-0.00023985688 13:-0.00023985688 14:-0.00023985688 15:-0.00023985688 16:-0.00023985688 17:0.00071957061 18:-0.00023985688 19:-0.00023985688 20:0.0040775668 21:0.0014391412 24:0.00023985688 25:0.00071957061 26:0.00023985688 28:0.10523001 29:0.12379973 30:0.017989265 31:0.00023985688 32:-0.00023985688 33:0.98605162 #
-100 3:0.006803405 4:-0.01688125 8:0.00040114063 11:-0.00020057031 12:-0.00020057031 13:-0.00020057031 14:-0.00020057031 15:-0.00020057031 16:-0.00020057031 17:0.00040114063 18:-0.00020057031 19:-0.00020057031 20:0.005014258 21:0.0012034219 22:0.0034096953 23:0.0012034219 24:0.00020057031 25:0.00080228125 26:0.00040114063 28:0.06181176 29:0.072718777 30:0.0060171094 31:0.00020057031 32:-0.00020057031 33:0.9952299 #
90 3:0.0071680131 4:-0.016466849 8:0.00061071513 11:-0.00020357172 12:0.00020357172 13:-0.00020357172 14:-0.00020357172 15:-0.00020357172 16:-0.00020357172 17:0.00061071513 18:-0.00020357172 19:-0.00020357172 20:0.002035717 21:0.0010178585 22:0.003460719 23:0.0012214303 24:0.00061071513 25:0.00081428688 26:0.00040714344 28:0.073082246 29:0.085978515 30:0.0044785775 31:-0.00020357172 32:-0.00020357172 33:0.99342996 #
90 3:0.0056103561 4:-0.016487556 8:0.00040077753 11:-0.00020038876 12:-0.00020038876 13:-0.00020038876 14:-0.00020038876 15:-0.00020038876 16:-0.00020038876 17:0.00060116628 18:-0.00020038876 19:-0.00020038876 20:0.0016031101 21:0.00060116628 22:0.00060116628 23:0.00060116628 24:0.00040077753 25:0.00080155506 26:0.00040077753 28:0.076997377 29:0.090585738 30:0.0072139953 31:-0.00020038876 32:-0.00020038876 33:0.99272591 #
-100 3:0.0064129597 4:-0.018198743 11:-0.00020133999 12:-0.00020133999 13:-0.00020133999 14:-0.00020133999 15:-0.00020133999 16:-0.00020133999 17:0.00060401997 18:0.00020133999 19:-0.00020133999 20:0.00342278 21:0.0012080399 22:0.0052348399 23:0.00020133999 24:0.00040267999 25:0.00080535997 26:0.00020133999 28:0.060428172 29:0.071091138 30:0.0030200998 31:-0.00020133999 32:-0.00020133999 33:0.99542493 #
90 3:0.0073176725 4:-0.021021413 8:0.00067305565 11:-0.00022435188 12:-0.00022435188 13:-0.00022435188 14:-0.00022435188 15:-0.00022435188 16:-0.00022435188 17:0.00067305565 18:-0.00022435188 19:-0.00022435188 20:0.003813982 21:0.0013461113 22:0.0056087971 23:0.0013461113 24:0.00067305565 25:0.00044870377 26:0.00022435188 28:0.059733689 29:0.070275985 30:0.0051600933 31:-0.00022435188 32:-0.00022435188 33:0.9954493 #
-100 3:0.0066628666 4:-0.023303166 8:0.00059264322 11:-0.00019754775 12:-0.00019754775 13:-0.00019754775 14:-0.00019754775 15:-0.00019754775 16:-0.00019754775 17:0.00059264322 18:-0.00019754775 19:-0.00019754775 20:0.0049386937 21:0.0011852864 22:0.0047411458 23:0.000790191 24:0.00019754775 25:0.0003950955 26:0.0003950955 28:0.059412483 29:0.06989634 30:0.006321528 31:0.00019754775 32:-0.00019754775 33:0.99544311 #
2.0000011788366598430854992329841 3:0.0077352202 4:-0.024681007 8:0.00060334563 11:-0.00020111521 12:-0.00020111521 13:-0.00020111521 14:-0.00020111521 15:-0.00020111521 16:-0.00020111521 17:0.00060334563 18:-0.00020111521 19:-0.00020111521 20:0.00502788 21:0.0012066913 22:0.0046256497 23:0.0012066913 24:0.0012066913 25:0.00080446084 26:0.00020111521 28:0.061436672 29:0.07227879 30:0.0044245343 31:0.00020111521 32:-0.00020111521 33:0.99511802 #
-100 3:0.012155232 4:-0.02545673 8:0.00087162515 11:-0.00029054174 12:0.00029054174 13:-0.00029054174 14:0.00029054174 15:-0.00029054174 16:-0.00029054174 17:0.00087162515 18:-0.00029054174 19:-0.00029054174 20:0.0014527086 21:0.002033792 22:0.0046486678 23:0.0014527086 24:0.00087162515 25:0.0011621669 26:0.00029054174 28:0.25015643 29:0.30506882 30:0.0078446269 31:-0.00029054174 32:-0.00029054174 33:0.91840237 #
4.0000165436772059379677557444666 3:0.0081356317 4:-0.029160831 8:0.00074709329 11:-0.00024903112 12:-0.00024903112 13:0.00024903112 14:-0.00024903112 15:-0.00024903112 16:-0.00024903112 17:0.00074709329 18:-0.00024903112 19:-0.00024903112 20:0.0057277153 21:0.0014941866 22:0.0042335289 23:0.0014941866 24:0.00049806223 25:0.00099612447 26:0.00024903112 28:0.063814223 29:0.07507541 30:0.0052296533 31:-0.00024903112 32:0.00024903112 33:0.99463022 #
-100 3:0.011746959 4:-0.038746133 8:0.00095471094 11:-0.00031823697 12:-0.00031823697 13:-0.00031823697 14:-0.00031823697 15:-0.00031823697 16:-0.00031823697 17:0.00095471094 18:-0.00031823697 19:-0.00031823697 20:0.0073194504 21:0.0019094219 22:0.0079559246 23:0.0019094219 24:0.00095471094 25:0.0012729479 26:0.0012729479 28:0.12920421 29:0.15756549 30:0.039779622 31:-0.00031823697 32:-0.00031823697 33:0.97730577 #
90 3:0.010200823 4:-0.021325203 8:0.00072955812 11:-0.00024318603 12:0.00024318603 13:-0.00024318603 14:-0.00024318603 15:-0.00024318603 16:-0.00024318603 17:0.00024318603 18:-0.00024318603 19:-0.00024318603 20:0.0014591162 21:0.00097274414 22:0.0058364649 23:0.00097274414 24:0.00072955812 25:0.00097274414 26:0.00097274414 28:0.15806849 29:0.18596193 30:0.014591162 31:0.00024318603 32:-0.00024318603 33:0.96933949 #
90 3:0.0090081757 4:-0.016925333 8:0.00067586952 11:-0.00022528984 12:-0.00022528984 13:-0.00022528984 14:-0.00022528984 15:-0.00022528984 16:-0.00022528984 17:0.00045057968 18:0.00022528984 19:-0.00022528984 20:0.0047310865 21:0.001351739 22:0.0022528984 23:0.0011264492 24:0.00045057968 25:0.00090115936 26:0.00090115936 28:0.17976327 29:0.21148632 30:0.038299274 31:-0.00022528984 32:-0.00022528984 33:0.95973468 #
-100 3:0.0065306132 4:-0.019396067 11:-0.00023562043 12:-0.00023562043 13:-0.00023562043 14:-0.00023562043 15:-0.00023562043 16:-0.00023562043 17:0.00070686132 18:-0.00023562043 19:-0.00023562043 20:0.0056548906 21:0.00094248174 24:0.0014137226 25:0.00094248174 26:0.00047124087 28:0.13821965 29:0.16261108 30:0.094248176 31:-0.00023562043 32:-0.00023562043 33:0.97216994 #
-100 3:0.0077523058 4:-0.018066628 8:0.00040008884 11:-0.00020004442 12:-0.00020004442 13:-0.00020004442 14:-0.00020004442 15:-0.00020004442 16:-0.00020004442 17:0.00060013327 18:-0.00020004442 19:-0.00020004442 20:0.0050011105 21:0.0012002665 22:0.0016003554 23:0.00060013327 24:0.00060013327 25:0.00080017769 26:0.00020004442 28:0.063072003 29:0.074202478 30:0.005601244 31:0.00020004442 32:-0.00020004442 33:0.99502099 #
-100 3:0.0064571989 4:-0.018957268 8:0.00045990388 11:-0.00022995194 12:-0.00022995194 13:-0.00022995194 14:-0.00022995194 15:-0.00022995194 16:-0.00022995194 17:0.00068985583 18:-0.00022995194 19:-0.00022995194 20:0.0039091832 21:0.0013797117 22:0.0052888948 23:0.0013797117 24:0.00045990388 25:0.00091980776 26:0.00022995194 28:0.10332891 29:0.1215641 30:0.0041391351 31:-0.00022995194 32:-0.00022995194 33:0.98695374 #
-100 3:0.011328872 4:-0.036696371 8:0.00076824246 11:-0.00038412123 12:-0.00038412123 13:-0.00038412123 14:-0.00038412123 15:-0.00038412123 16:-0.00038412123 17:0.0011523637 18:-0.00038412123 19:-0.00038412123 20:0.0065300609 21:0.0023047274 22:0.0061459397 23:0.0019206061 24:0.00038412123 25:0.00038412123 26:0.00038412123 28:0.068373583 29:0.083381198 30:0.0092189098 31:-0.00038412123 32:-0.00038412123 33:0.99333751 #
90 3:0.010971398 4:-0.029609187 8:0.0004828707 11:-0.00024143535 12:-0.00024143535 13:-0.00024143535 14:-0.00024143535 15:-0.00024143535 16:-0.00024143535 17:0.00072430604 18:-0.00024143535 19:-0.00024143535 20:0.0004828707 21:0.00072430604 22:0.004104401 23:0.0014486121 24:0.00024143535 25:0.0009657414 26:0.0009657414 28:0.1578625 29:0.18572173 30:0.060358837 31:-0.00024143535 32:0.00024143535 33:0.96743149 #
-100 3:0.0074728113 4:-0.020465799 8:0.00021060398 11:-0.00021060398 12:-0.00021060398 13:-0.00021060398 14:-0.00021060398 15:-0.00021060398 16:-0.00021060398 17:0.00063181191 18:-0.00021060398 19:-0.00021060398 20:0.0035802675 21:0.0012636238 22:0.0054757032 23:0.00021060398 24:0.00021060398 25:0.00063181191 26:0.00063181191 28:0.098227799 29:0.11556261 30:0.0052650995 31:-0.00021060398 32:-0.00021060398 33:0.98815382 #
-100 3:0.0077217403 4:-0.025213566 8:0.00062098214 11:-0.00020699405 12:0.00020699405 13:-0.00020699405 14:-0.00020699405 15:-0.00020699405 16:-0.00020699405 17:0.00041398811 18:-0.00020699405 19:-0.00020699405 20:0.0051748515 21:0.0012419643 24:0.00062098214 25:0.00062098214 26:0.00082797621 28:0.090114862 29:0.10601822 30:0.03063512 31:-0.00020699405 32:-0.00020699405 33:0.98943156 #
90 3:0.0064742588 4:-0.018408995 8:0.00044955584 11:-0.00022477792 12:-0.00022477792 13:-0.00022477792 14:-0.00022477792 15:-0.00022477792 16:-0.00022477792 17:0.00067433377 18:-0.00022477792 19:-0.00022477792 20:0.0020230012 21:0.0015734454 22:0.0038212247 23:0.0013486675 24:0.00022477792 25:0.00089911168 26:0.00044955584 28:0.098623559 29:0.11602812 30:0.0040460024 31:-0.00022477792 32:0.00022477792 33:0.98812371 #
-100 3:0.0085628312 4:-0.017941179 8:0.00061363203 11:-0.00020454402 12:0.00020454402 13:0.00020454402 14:-0.00020454402 15:-0.00020454402 16:-0.00020454402 17:0.00040908804 18:-0.00020454402 19:-0.00020454402 20:0.0051136003 21:0.0012272641 22:0.0024545281 23:0.00061363203 24:0.00061363203 25:0.00081817608 26:0.00020454402 28:0.079174899 29:0.0931473 30:0.0087953927 31:-0.00020454402 32:-0.00020454402 33:0.99224305 #
90 3:0.0089933127 4:-0.017943017 11:0.00020948218 12:-0.00020948218 13:-0.00020948218 14:-0.00020948218 15:-0.00020948218 16:-0.00020948218 17:0.00041896437 18:-0.00020948218 19:-0.00020948218 20:0.0035611971 21:0.0012568932 24:0.00062844658 25:0.00083792873 26:0.00020948218 28:0.07674589 29:0.090288915 30:0.0037706792 31:-0.00020948218 32:-0.00020948218 33:0.9927361 #
-100 3:0.011057931 4:-0.018847441 8:0.00026285331 11:-0.00026285331 12:-0.00026285331 13:-0.00026285331 14:-0.00026285331 15:-0.00026285331 16:-0.00026285331 17:0.00026285331 18:-0.00026285331 19:-0.00026285331 20:0.00078855996 21:0.00078855996 24:0.00052570662 25:0.00052570662 26:0.0010514132 28:0.078377604 29:0.095581353 30:0.012616959 31:-0.00026285331 32:-0.00026285331 33:0.99200845 #
90 3:0.0084178466 4:-0.019141346 8:0.00047000233 11:-0.00023500116 12:-0.00023500116 13:-0.00023500116 14:-0.00023500116 15:-0.00023500116 16:-0.00023500116 17:0.00070500351 18:-0.00023500116 19:-0.00023500116 20:0.0037600186 21:0.0011750058 24:0.001410007 25:0.00070500351 26:0.00094000465 28:0.062726513 29:0.073795065 30:0.032900162 31:0.00023500116 32:-0.00023500116 33:0.99452496 #
0.0956814470700919628143310546875 3:0.0075356178 4:-0.018704051 8:0.00020909451 11:-0.00020909451 12:-0.00020909451 13:0.00020909451 14:-0.00020909451 15:-0.00020909451 16:-0.00020909451 17:0.00062728353 18:-0.00020909451 19:-0.00020909451 20:0.0052273627 21:0.0012545671 22:0.001672756 23:0.00062728353 24:0.00062728353 25:0.00062728353 26:0.00020909451 28:0.048505742 29:0.057066072 30:0.0039727958 31:-0.00020909451 32:-0.00020909451 33:0.99696261 #
77.212395021895645186305046081543 3:0.012068179 4:-0.028395316 11:-0.00034798268 12:-0.00034798268 13:-0.00034798268 14:-0.00034798268 15:-0.00034798268 16:-0.00034798268 17:0.0010439481 18:-0.00034798268 19:-0.00034798268 20:0.0017399135 21:0.0024358789 24:0.0020878962 25:0.0013919307 26:0.0010439481 28:0.10717867 29:0.13070577 30:0.10439481 31:-0.00034798268 32:-0.00034798268 33:0.97957128 #
-100 3:0.010484846 4:-0.025196224 8:0.00058213109 11:-0.00029106555 12:-0.00029106555 13:-0.00029106555 14:-0.00029106555 15:-0.00029106555 16:-0.00029106555 17:0.00087319658 18:-0.00029106555 19:-0.00029106555 20:0.0023285244 21:0.00087319658 24:0.00058213109 25:0.0011642622 26:0.00058213109 28:0.086728796 29:0.10576739 30:0.0055302451 31:-0.00029106555 32:-0.00029106555 33:0.99020493 #
-100 3:0.015793594 4:-0.035665419 8:0.00090313138 11:-0.00045156569 12:-0.00045156569 13:-0.00045156569 14:-0.00045156569 15:-0.00045156569 16:-0.00045156569 17:0.00045156569 18:-0.00045156569 19:-0.00045156569 20:0.0058703539 21:0.00090313138 22:0.0022578284 23:0.0031609598 24:0.0027093941 25:0.001354697 26:0.00045156569 28:0.21291322 29:0.25965026 30:0.008128182 31:-0.00045156569 32:-0.00045156569 33:0.94106287 #
90 3:0.0065330011 4:-0.022823906 8:0.00038549831 11:-0.00019274915 12:-0.00019274915 13:-0.00019274915 14:-0.00019274915 15:-0.00019274915 16:-0.00019274915 17:0.00057824748 18:-0.00019274915 19:-0.00019274915 20:0.0048187287 21:0.001156495 24:0.00038549831 25:0.00019274915 26:0.00019274915 28:0.16691306 29:0.19636898 30:0.0096374573 31:-0.00019274915 32:-0.00019274915 33:0.96586597 #
-100 3:0.010313028 4:-0.019702706 8:0.00051512301 11:-0.00025756151 12:-0.00025756151 13:-0.00025756151 14:-0.00025756151 15:-0.00025756151 16:-0.00025756151 17:0.00077268452 18:-0.00025756151 19:-0.00025756151 20:0.0054087918 21:0.001545369 24:0.00025756151 25:0.001030246 26:0.001030246 28:0.1397194 29:0.17038982 30:0.0064390381 31:-0.00025756151 32:-0.00025756151 33:0.97512788 #
90 3:0.0081031788 4:-0.018032167 8:0.00021741226 11:-0.00021741226 12:-0.00021741226 13:-0.00021741226 14:-0.00021741226 15:-0.00021741226 16:-0.00021741226 17:0.00065223681 18:-0.00021741226 19:-0.00021741226 20:0.0036960086 21:0.0013044736 22:0.0017392981 23:0.00065223681 24:0.00065223681 25:0.00086964905 26:0.00021741226 28:0.16909021 29:0.19893005 30:0.0043482454 31:-0.00021741226 32:-0.00021741226 33:0.96509308 #
-100 3:0.008489117 4:-0.015962379 8:0.00063727412 11:0.00021242471 12:-0.00021242471 13:-0.00021242471 14:-0.00021242471 15:-0.00021242471 16:-0.00021242471 17:0.00042484942 18:-0.00021242471 19:-0.00021242471 20:0.00361122 21:0.0012745482 24:0.00021242471 25:0.00084969884 26:0.00021242471 28:0.089005955 29:0.10471264 30:0.0053106179 31:0.00021242471 32:-0.00021242471 33:0.99032402 #
90 3:0.0087853093 4:-0.015928969 8:0.00042948255 11:0.00021474127 12:-0.00021474127 13:-0.00021474127 14:-0.00021474127 15:-0.00021474127 16:-0.00021474127 17:0.00042948255 18:-0.00021474127 19:-0.00021474127 20:0.0036506017 21:0.0012884476 24:0.0012884476 25:0.00064422382 26:0.00021474127 28:0.088722505 29:0.1043793 30:0.0042948257 31:-0.00021474127 32:-0.00021474127 33:0.99038678 #
90 3:0.0084470166 4:-0.023276852 8:0.00041638009 11:-0.00020819005 12:-0.00020819005 13:-0.00020819005 14:-0.00020819005 15:-0.00020819005 16:-0.00020819005 17:0.00062457012 18:-0.00020819005 19:-0.00020819005 20:0.0016655204 21:0.00062457012 22:0.0035392307 23:0.0012491402 24:0.00062457012 25:0.00041638009 26:0.00041638009 28:0.17290391 29:0.20341624 30:0.012491402 31:-0.00020819005 32:-0.00020819005 33:0.96329534 #
90 3:0.0098968139 4:-0.028078044 8:0.00069059641 11:-0.00034529821 12:-0.00034529821 13:-0.00034529821 14:-0.00034529821 15:-0.00034529821 16:-0.00034529821 17:0.0010358946 18:-0.00034529821 19:-0.00034529821 20:0.0034529823 21:0.0017264911 22:0.0055247713 23:0.0017264911 24:0.00034529821 25:0.0010358946 26:0.00034529821 28:0.079073295 29:0.096431434 30:0.0069059646 31:-0.00034529821 32:-0.00034529821 33:0.99169648 #
-100 3:0.0099139363 4:-0.020609753 8:0.00074438698 11:-0.00024812901 12:-0.00024812901 13:-0.00024812901 14:-0.00024812901 15:-0.00024812901 16:-0.00024812901 17:0.00024812901 18:-0.00024812901 19:-0.00024812901 20:0.0062032249 21:0.001488774 22:0.0019850321 23:0.00074438698 24:0.00049625803 25:0.00099251606 26:0.00024812901 28:0.08386264 29:0.09866105 30:0.0059550959 31:-0.00024812901 32:0.00024812901 33:0.99127537 #
4.000009426374800725056957162451 3:0.010229613 4:-0.02139109 8:0.00073218578 11:-0.00024406193 12:0.00024406193 13:-0.00024406193 14:-0.00024406193 15:-0.00024406193 16:-0.00024406193 17:0.00048812386 18:-0.00024406193 19:-0.00024406193 20:0.0061015482 21:0.0014643716 22:0.0041490528 23:0.0014643716 24:0.00048812386 25:0.00073218578 26:0.00024406193 28:0.084411256 29:0.09930636 30:0.0063456101 31:-0.00024406193 32:-0.00024406193 33:0.99113548 #
-100 3:0.0098576881 4:-0.018560596 8:0.00074018532 11:-0.00024672845 12:-0.00024672845 13:-0.00024672845 14:-0.00024672845 15:-0.00024672845 16:-0.00024672845 17:0.0004934569 18:0.00024672845 19:-0.00024672845 20:0.0064149392 21:0.00024672845 22:0.0041943835 23:0.0014803706 24:0.00074018532 25:0.0009869138 26:0.00074018532 28:0.083702624 29:0.098474257 30:0.0024672844 31:-0.00024672845 32:-0.00024672845 33:0.99135488 #
18.000914669039605797706826706417 3:0.0079768486 4:-0.01647743 8:0.00064683543 11:-0.00021561181 12:0.00021561181 13:-0.00021561181 14:-0.00021561181 15:-0.00021561181 16:-0.00021561181 17:0.00064683543 18:-0.00021561181 19:-0.00021561181 20:0.0056059072 21:0.00021561181 22:0.0028029536 23:0.00043122363 24:0.00043122363 25:0.00086244725 26:0.00021561181 28:0.08058276 29:0.094802357 30:0.0043122363 31:0.00021561181 32:-0.00021561181 33:0.99202996 #
90 3:0.011959949 4:-0.020378977 8:0.00057092612 11:-0.00028546306 12:-0.00028546306 13:-0.00028546306 14:-0.00028546306 15:-0.00028546306 16:-0.00028546306 17:0.00085638918 18:-0.00028546306 19:-0.00028546306 20:0.0048528719 21:0.0017127784 22:0.0019982415 23:0.0019982415 24:0.00057092612 25:0.0011418522 26:0.00028546306 28:0.078502342 29:0.095735751 30:0.0065656505 31:-0.00028546306 32:-0.00028546306 33:0.99198413 #
-100 3:0.0094979741 4:-0.019638695 8:0.00076032139 11:-0.00025344046 12:-0.00025344046 13:-0.00025344046 14:-0.00025344046 15:-0.00025344046 16:-0.00025344046 17:0.00076032139 18:-0.00025344046 19:-0.00025344046 20:0.0043084878 21:0.0015206428 22:0.0020275237 23:0.00076032139 24:0.00076032139 25:0.0010137619 26:0.00025344046 28:0.079240695 29:0.093225539 30:0.0050688093 31:0.00025344046 32:0.00025344046 33:0.99221939 #
90 3:0.0093960064 4:-0.032547772 8:0.00082620699 11:-0.00027540233 12:-0.00027540233 13:-0.00027540233 14:-0.00027540233 15:-0.00027540233 16:-0.00027540233 17:0.00055080466 18:-0.00027540233 19:-0.00027540233 20:0.0041310349 21:0.00055080466 22:0.0035802303 23:0.00055080466 24:0.001652414 25:0.00082620699 26:0.00027540233 28:0.065909289 29:0.080376171 30:0.011016093 31:-0.00027540233 32:-0.00027540233 33:0.993927 #
90 3:0.0068459781 4:-0.015691523 8:0.00058167242 11:-0.0001938908 12:-0.0001938908 13:-0.0001938908 14:-0.0001938908 15:-0.0001938908 16:-0.0001938908 17:0.00038778159 18:-0.0001938908 19:-0.0001938908 20:0.0032961436 21:0.0011633448 22:0.001938908 23:0.00096945401 24:0.00058167242 25:0.00058167242 26:0.00038778159 28:0.14800848 29:0.1741275 30:0.0093067586 31:0.0001938908 32:-0.0001938908 33:0.97333181 #
90 3:0.0076924311 4:-0.025134878 8:0.0006189298 11:-0.00020630994 12:-0.00020630994 13:-0.00020630994 14:-0.00020630994 15:-0.00020630994 16:-0.00020630994 17:0.0006189298 18:-0.00020630994 19:-0.00020630994 20:0.0053640581 21:0.00020630994 22:0.0014441696 23:0.0014441696 24:0.0012378596 25:0.00082523975 26:0.00020630994 28:0.094836548 29:0.11157241 30:0.0043325084 31:-0.00020630994 32:-0.00020630994 33:0.9888435 #
-100 3:0.0099612614 4:-0.020870123 8:0.00047294245 11:-0.00023647123 12:-0.00023647123 13:-0.00023647123 14:-0.00023647123 15:-0.00023647123 16:-0.00023647123 17:0.00070941373 18:-0.00023647123 19:-0.00023647123 20:0.0028376549 21:0.00070941373 24:0.00047294245 25:0.00094588491 26:0.00023647123 28:0.075240418 29:0.088518277 30:0.0047294246 31:0.00023647123 32:-0.00023647123 33:0.99294269 #
90 3:0.0070774909 4:-0.020635912 8:0.00021327038 11:-0.00021327038 12:-0.00021327038 13:-0.00021327038 14:-0.00021327038 15:-0.00021327038 16:-0.00021327038 17:0.00063981116 18:-0.00021327038 19:-0.00021327038 20:0.0036255966 21:0.0012796223 24:0.00063981116 25:0.00042654076 26:0.00021327038 28:0.075145818 29:0.088406973 30:0.0046919486 31:-0.00021327038 32:-0.00021327038 33:0.99298692 #
-100 3:0.0064957673 4:-0.018728286 11:-0.00021316743 12:-0.00021316743 13:-0.00021316743 14:-0.00021316743 15:-0.00021316743 16:-0.00021316743 17:0.00042633485 18:-0.00021316743 19:-0.00021316743 20:0.0036238462 21:0.0012790046 22:0.0017053394 23:0.00063950231 24:0.00042633485 25:0.00042633485 26:0.00042633485 28:0.12279723 29:0.14446783 30:0.0053291856 31:-0.00021316743 32:-0.00021316743 33:0.98163605 #
90 3:0.0079417331 4:-0.024977319 8:0.00061731919 11:-0.00020577307 12:-0.00020577307 13:-0.00020577307 14:-0.00020577307 15:-0.00020577307 16:-0.00020577307 17:0.00020577307 18:-0.00020577307 19:-0.00020577307 20:0.0032923692 21:0.0010288653 22:0.0034981421 23:0.0012346384 24:0.00061731919 25:0.00041154615 26:0.00061731919 28:0.18281086 29:0.21507196 30:0.041154616 31:-0.00020577307 32:-0.00020577307 33:0.9580794 #
-100 3:0.0081168571 4:-0.014878822 8:0.00040069368 11:-0.00020034684 12:-0.00020034684 13:-0.00020034684 14:-0.00020034684 15:-0.00020034684 16:-0.00020034684 17:0.00040069368 18:-0.00020034684 19:-0.00020034684 20:0.0034058962 21:0.001202081 22:0.0010017342 23:0.0014024279 24:0.00040069368 25:0.00080138736 26:0.00040069368 28:0.074925713 29:0.088148601 30:0.005008671 31:-0.00020034684 32:-0.00020034684 33:0.9931193 #
-100 3:0.00617998 4:-0.016271951 8:0.00018590427 11:-0.00018590427 12:-0.00018590427 13:-0.00018590427 14:-0.00018590427 15:-0.00018590427 16:-0.00018590427 17:0.0005577128 18:-0.00018590427 19:-0.00018590427 20:0.0046476065 21:0.0011154256 22:0.0018590427 23:0.00092952134 24:0.0005577128 25:0.00037180854 26:0.00037180854 28:0.30828691 29:0.36268994 30:0.01394282 31:-0.00018590427 32:-0.00018590427 33:0.87914127 #
-100 3:0.0076558208 4:-0.026578991 8:0.00044975107 11:-0.00022487553 12:-0.00022487553 13:-0.00022487553 14:-0.00022487553 15:-0.00022487553 16:-0.00022487553 17:0.00044975107 18:-0.00022487553 19:-0.00022487553 20:0.0038228841 21:0.0013492532 24:0.00067462662 25:0.00067462662 26:0.00044975107 28:0.078866102 29:0.092783645 30:0.0049472619 31:0.00022487553 32:-0.00022487553 33:0.99215084 #
-100 3:0.0080447961 4:-0.023147333 8:0.00025754928 11:-0.00025754928 12:-0.00025754928 13:-0.00025754928 14:-0.00025754928 15:-0.00025754928 16:-0.00025754928 17:0.00077264791 18:-0.00025754928 19:-0.00025754928 20:0.0020603943 21:0.00077264791 22:0.006696282 23:0.00025754928 24:0.00077264791 25:0.0010301971 26:0.00077264791 28:0.10833811 29:0.12452766 30:0.033481408 31:-0.00025754928 32:0.00025754928 33:0.98538363 #
-100 3:0.0083736926 4:-0.021467051 8:0.00071597792 11:-0.00023865931 12:-0.00023865931 13:-0.00023865931 14:-0.00023865931 15:-0.00023865931 16:-0.00023865931 17:0.00071597792 18:-0.00023865931 19:-0.00023865931 20:0.0059664827 21:0.0014319558 22:0.0040572085 23:0.0014319558 24:0.00047731862 25:0.00095463725 26:0.00023865931 28:0.078323215 29:0.092143975 30:0.0059664827 31:0.00023865931 32:-0.00023865931 33:0.99234545 #
90 3:0.0085747 4:-0.0155602 8:0.00063222053 11:-0.00021074018 12:-0.00021074018 13:-0.00021074018 14:-0.00021074018 15:-0.00021074018 16:-0.00021074018 17:0.00042148036 18:-0.00021074018 19:0.00021074018 20:0.0052685048 21:0.0012644411 24:0.00063222053 25:0.00084296073 26:0.00042148036 28:0.10458825 29:0.12304487 30:0.0050577642 31:-0.00021074018 32:-0.00021074018 33:0.98668557 #
-100 3:0.010651647 4:-0.02357986 8:0.00088643323 11:-0.00029547774 12:-0.00029547774 13:-0.00029547774 14:-0.00029547774 15:-0.00029547774 16:-0.00029547774 17:0.00059095549 18:-0.00029547774 19:-0.00029547774 20:0.0050231218 21:0.0017728665 24:0.00059095549 25:0.001181911 26:0.00029547774 28:0.073966943 29:0.090203449 30:0.0053185998 31:-0.00029547774 32:-0.00029547774 33:0.99280524 #
90 3:0.0081502097 4:-0.022031927 8:0.00063064654 11:-0.00021021551 12:-0.00021021551 13:-0.00021021551 14:-0.00021021551 15:-0.00021021551 16:-0.00021021551 17:0.00063064654 18:-0.00021021551 19:-0.00021021551 20:0.0035736635 21:0.0012612931 24:0.00021021551 25:0.00063064654 26:0.00021021551 28:0.16885561 29:0.19865365 30:0.0063064652 31:-0.00021021551 32:0.00021021551 33:0.96509939 #
-100 3:0.0078919772 4:-0.027322259 8:0.00023239621 11:-0.00023239621 12:-0.00023239621 13:0.00023239621 14:-0.00023239621 15:-0.00023239621 16:-0.00023239621 17:0.0006971886 18:-0.00023239621 19:-0.00023239621 20:0.0039507356 21:0.0013943772 24:0.0006971886 25:0.00046479242 26:0.00046479242 28:0.075205736 29:0.088477887 30:0.006507094 31:0.00023239621 32:-0.00023239621 33:0.9927966 #
-100 3:0.0076641259 4:-0.026659794 8:0.00045104892 11:-0.00022552446 12:0.00022552446 13:0.00022552446 14:-0.00022552446 15:-0.00022552446 16:-0.00022552446 17:0.00045104892 18:-0.00022552446 19:-0.00022552446 20:0.0056381114 21:0.0013531467 22:0.0027062935 23:0.00067657337 24:0.00045104892 25:0.00067657337 26:0.00045104892 28:0.056996796 29:0.067055188 30:0.0065402091 31:-0.00022552446 32:-0.00022552446 33:0.99569046 #
-100 3:0.008728723 4:-0.020289229 8:0.00063475332 11:-0.00021158444 12:-0.00021158444 13:-0.00021158444 14:-0.00021158444 15:-0.00021158444 16:-0.00021158444 17:0.00063475332 18:-0.00021158444 19:-0.00021158444 20:0.0035969354 21:0.0012695066 22:0.0016926755 23:0.00063475332 24:0.00063475332 25:0.00084633776 26:0.00042316888 28:0.18127497 29:0.21326442 30:0.0059243646 31:-0.00021158444 32:-0.00021158444 33:0.95974702 #
90 3:0.011019705 4:-0.021721441 8:0.00079694908 11:0.00026564969 12:-0.00026564969 13:-0.00026564969 14:-0.00026564969 15:-0.00026564969 16:-0.00026564969 17:0.00079694908 18:-0.00026564969 19:-0.00026564969 20:0.0031877963 21:0.00079694908 22:0.0066412422 23:0.0015938982 24:0.0015938982 25:0.0010625988 26:0.00026564969 28:0.075827047 29:0.092472658 30:0.0071725417 31:-0.00026564969 32:0.00026564969 33:0.99246722 #
90 3:0.008423727 4:-0.021490121 8:0.00023930384 11:-0.00023930384 12:-0.00023930384 13:-0.00023930384 14:-0.00023930384 15:-0.00023930384 16:-0.00023930384 17:0.00071791158 18:-0.00023930384 19:-0.00023930384 20:0.0040681656 21:0.0014358232 22:0.0028716463 23:0.00071791158 24:0.00071791158 25:0.00095721538 26:0.00023930384 28:0.12418912 29:0.14610457 30:0.0045467732 31:-0.00023930384 32:-0.00023930384 33:0.9811458 #
90 3:0.007160028 4:-0.021204984 8:0.0002216927 11:-0.0002216927 12:-0.0002216927 13:-0.0002216927 14:-0.0002216927 15:-0.0002216927 16:-0.0002216927 17:0.00044338539 18:-0.0002216927 19:-0.0002216927 20:0.0055423174 21:0.0013301561 22:0.0057640099 23:0.0002216927 24:0.0002216927 25:0.00066507806 26:0.0002216927 28:0.061537456 29:0.072395965 30:0.004877239 31:0.0002216927 32:-0.0002216927 33:0.99517846 #
-100 3:0.0076197013 4:-0.027239114 8:0.00069741753 11:-0.00023247251 12:-0.00023247251 13:0.00023247251 14:-0.00023247251 15:-0.00023247251 16:-0.00023247251 17:0.00069741753 18:-0.00023247251 19:-0.00023247251 20:0.00023247251 21:0.00092989003 22:0.0055793403 23:0.00092989003 24:0.00069741753 25:0.00092989003 26:0.00023247251 28:0.099660963 29:0.11724751 30:0.026501866 31:-0.00023247251 32:-0.00023247251 33:0.98731077 #
-100 3:0.0072090351 4:-0.016602218 8:0.00020507266 11:-0.00020507266 12:0.00020507266 13:-0.00020507266 14:-0.00020507266 15:-0.00020507266 16:-0.00020507266 17:0.00020507266 18:-0.00020507266 19:-0.00020507266 20:0.001230436 21:0.00082029065 22:0.00020507266 23:0.00082029065 24:0.001230436 25:0.00082029065 26:0.00061521801 28:0.18521753 29:0.217902 30:0.026659446 31:0.00020507266 32:-0.00020507266 33:0.95768934 #
-100 3:0.005955521 4:-0.016019253 8:0.00058826793 11:-0.00019608931 12:-0.00019608931 13:-0.00019608931 14:-0.00019608931 15:-0.00019608931 16:-0.00019608931 17:0.00058826793 18:-0.00019608931 19:-0.00019608931 20:0.0033335185 21:0.0011765359 24:0.0011765359 25:0.00078435725 26:0.00058826793 28:0.10612158 29:0.12484811 30:0.019608932 31:-0.00019608931 32:-0.00019608931 33:0.98613316 #
-100 3:0.011969211 4:-0.024740919 8:0.00027695345 11:-0.00027695345 12:-0.00027695345 13:-0.00027695345 14:-0.00027695345 15:-0.00027695345 16:-0.00027695345 17:0.0008308604 18:-0.00027695345 19:-0.00027695345 20:0.0069238367 21:0.0016617208 22:0.0005539069 23:0.0008308604 24:0.0008308604 25:0.0005539069 26:0.00027695345 28:0.079072982 29:0.096429653 30:0.0055390694 31:-0.00027695345 32:-0.00027695345 33:0.99177033 #
90 3:0.0083961161 4:-0.021565057 8:0.00071851775 11:-0.00023950591 12:-0.00023950591 13:-0.00023950591 14:-0.00023950591 15:-0.00023950591 16:-0.00023950591 17:0.00047901183 18:-0.00023950591 19:-0.00023950591 20:0.0059876479 21:0.0014370355 22:0.0019160473 23:0.00071851775 24:0.00071851775 25:0.00095802365 26:0.00023950591 28:0.10849378 29:0.12763989 30:0.0038320946 31:-0.00023950591 32:-0.00023950591 33:0.98556685 #
-100 3:0.011359324 4:-0.017898444 8:0.0002558603 11:-0.0002558603 12:-0.0002558603 13:-0.0002558603 14:-0.0002558603 15:-0.0002558603 16:-0.0002558603 17:0.0002558603 18:-0.0002558603 19:-0.0002558603 20:0.0040937648 21:0.0012793015 24:0.0002558603 25:0.0005117206 26:0.0010234412 28:0.084441572 29:0.099342875 30:0.0069082282 31:-0.0002558603 32:0.0002558603 33:0.99120277 #
90 3:0.008131695 4:-0.015521872 8:0.00060571573 11:-0.00020190523 12:-0.00020190523 13:-0.00020190523 14:-0.00020190523 15:-0.00020190523 16:-0.00020190523 17:0.00060571573 18:-0.00020190523 19:-0.00020190523 20:0.0034323889 21:0.0012114315 22:0.0016152419 23:0.00060571573 24:0.00060571573 25:0.00080762093 26:0.00020190523 28:0.087049425 29:0.10241038 30:0.005047631 31:-0.00020190523 32:-0.00020190523 33:0.990749 #
-100 3:0.008107461 4:-0.022363162 8:0.00045879491 11:-0.00022939745 12:-0.00022939745 13:-0.00022939745 14:-0.00022939745 15:-0.00022939745 16:-0.00022939745 17:0.00068819238 18:-0.00022939745 19:-0.00022939745 20:0.0038997566 21:0.0013763848 24:0.00022939745 25:0.00068819238 26:0.00068819238 28:0.13607168 29:0.16008501 30:0.034409616 31:-0.00022939745 32:-0.00022939745 33:0.97677433 #
90 3:0.0094338013 4:-0.024444772 8:0.00077809347 11:-0.00025936449 12:-0.00025936449 13:0.00025936449 14:-0.00025936449 15:-0.00025936449 16:-0.00025936449 17:0.00077809347 18:-0.00025936449 19:-0.00025936449 20:0.0044091963 21:0.0015561869 24:0.00077809347 25:0.00051872898 26:0.00025936449 28:0.085421696 29:0.10417375 30:0.032420561 31:-0.00025936449 32:-0.00025936449 33:0.98999429 #
20.701558305881917476654052734375 3:0.014495335 4:-0.030422712 8:0.0010426465 11:-0.0003475488 12:0.0003475488 13:-0.0003475488 14:-0.0003475488 15:-0.0003475488 16:-0.0003475488 17:0.0010426465 18:-0.0003475488 19:-0.0003475488 20:0.0086887199 21:0.0020852929 24:0.0003475488 25:0.0013901952 26:0.00069509761 28:0.058735747 29:0.071629807 30:0.010426464 31:-0.0003475488 32:-0.0003475488 33:0.99503225 #
90 3:0.0069949436 4:-0.018400868 8:0.00020239645 11:-0.00020239645 12:-0.00020239645 13:-0.00020239645 14:-0.00020239645 15:-0.00020239645 16:-0.00020239645 17:0.00060718931 18:-0.00020239645 19:-0.00020239645 20:0.0034407396 21:0.0012143786 22:0.0024287573 23:0.00060718931 24:0.00060718931 25:0.00080958579 26:0.00060718931 28:0.088461414 29:0.10407225 30:0.024287574 31:-0.00020239645 32:-0.00020239645 33:0.99012339 #
-100 3:0.011844068 4:-0.017868722 8:0.00026425798 11:-0.00026425798 12:-0.00026425798 13:-0.00026425798 14:-0.00026425798 15:-0.00026425798 16:-0.00026425798 17:0.00079277396 18:-0.00026425798 19:-0.00026425798 20:0.0044923858 21:0.0015855479 22:0.0066064494 23:0.0015855479 24:0.0015855479 25:0.0010570319 26:0.00079277396 28:0.10747108 29:0.12353004 30:0.023783218 31:-0.00026425798 32:0.00026425798 33:0.98594654 #
90 3:0.007641613 4:-0.016486648 11:-0.00019611794 12:-0.00019611794 13:-0.00019611794 14:-0.00019611794 15:-0.00019611794 16:-0.00019611794 17:0.00039223587 18:-0.00019611794 19:-0.00019611794 20:0.0033340051 21:0.0011767077 22:0.0049029486 23:0.0011767077 24:0.00019611794 25:0.00058835384 26:0.00078447175 28:0.10106546 29:0.11890043 30:0.024514742 31:-0.00019611794 32:-0.00019611794 33:0.98725772 #
-100 3:0.011270978 4:-0.020516856 8:0.00055285665 11:0.00027642833 12:-0.00027642833 13:-0.00027642833 14:-0.00027642833 15:-0.00027642833 16:-0.00027642833 17:0.00082928501 18:-0.00027642833 19:-0.00027642833 20:0.0022114266 21:0.00082928501 22:0.0069107083 23:0.00165857 24:0.00082928501 25:0.0011057133 26:0.00055285665 28:0.1051174 29:0.12819088 30:0.027642833 31:0.00027642833 32:-0.00027642833 33:0.98546702 #
-100 3:0.013138192 4:-0.034557465 8:0.00098482962 11:-0.00032827654 12:-0.00032827654 13:-0.00032827654 14:-0.00032827654 15:-0.00032827654 16:-0.00032827654 17:0.00098482962 18:-0.00032827654 19:-0.00032827654 20:0.0052524246 21:0.0016413827 24:0.00065655308 25:0.00065655308 26:0.00032827654 28:0.11817955 29:0.14411996 30:0.020681422 31:-0.00032827654 32:-0.00032827654 33:0.98154682 #
-100 3:0.0067820898 4:-0.023553468 11:-0.00019914954 12:-0.00019914954 13:-0.00019914954 14:-0.00019914954 15:-0.00019914954 16:-0.00019914954 17:0.00059744861 18:-0.00019914954 19:-0.00019914954 20:0.00039829907 21:0.00059744861 22:0.0023897944 23:0.00059744861 24:0.00019914954 25:0.00059744861 26:0.00059744861 28:0.10171165 29:0.119661 30:0.013940467 31:-0.00019914954 32:-0.00019914954 33:0.98718429 #
-100 3:0.0067008114 4:-0.015906595 8:0.00039313358 11:-0.00019656679 12:-0.00019656679 13:-0.00019656679 14:-0.00019656679 15:-0.00019656679 16:-0.00019656679 17:0.00058970036 18:-0.00019656679 19:-0.00019656679 20:0.0033416355 21:0.0011794007 24:0.00019656679 25:0.00078626716 26:0.00019656679 28:0.090116046 29:0.1060183 30:0.0039313356 31:-0.00019656679 32:-0.00019656679 33:0.99010694 #
-100 3:0.0070585241 4:-0.021215728 8:0.0007063587 11:0.00023545291 12:-0.00023545291 13:-0.00023545291 14:-0.00023545291 15:-0.00023545291 16:-0.00023545291 17:0.0007063587 18:-0.00023545291 19:-0.00023545291 20:0.002354529 21:0.0011772645 22:0.0016481704 23:0.0016481704 24:0.00047090583 25:0.00094181165 26:0.00023545291 28:0.10662249 29:0.12543754 30:0.0058863228 31:0.00023545291 32:-0.00023545291 33:0.98607677 #
-100 3:0.0083856015 4:-0.016703593 8:0.00040041882 11:-0.00020020941 12:-0.00020020941 13:-0.00020020941 14:-0.00020020941 15:-0.00020020941 16:-0.00020020941 17:0.00020020941 18:-0.00020020941 19:-0.00020020941 20:0.0026027225 21:0.00040041882 22:0.0030031411 23:0.00040041882 24:0.0012012565 25:0.00060062826 26:0.00040041882 28:0.42369318 29:0.51669848 30:0.12012565 31:-0.00020020941 32:-0.00020020941 33:0.73396772 #
-100 3:0.010244266 4:-0.021445066 8:0.00073377235 11:-0.00024459077 12:0.00024459077 13:-0.00024459077 14:0.00024459077 15:-0.00024459077 16:-0.00024459077 17:0.00048918155 18:-0.00024459077 19:-0.00024459077 20:0.0061147697 21:0.0014675447 22:0.0019567262 23:0.00073377235 24:0.00048918155 25:0.00073377235 26:0.00024459077 28:0.10402691 29:0.12238345 30:0.0073377234 31:-0.00024459077 32:-0.00024459077 33:0.9866792 #
90 3:0.0076550022 4:-0.022634275 8:0.00070100994 11:-0.00023366997 12:-0.00023366997 13:-0.00023366997 14:-0.00023366997 15:-0.00023366997 16:-0.00023366997 17:0.00070100994 18:-0.00023366997 19:-0.00023366997 20:0.0039723897 21:0.0014020199 22:0.0018693598 23:0.00070100994 24:0.00070100994 25:0.00093467988 26:0.00023366997 28:0.10257878 29:0.1206812 30:0.010281479 31:0.00023366997 32:-0.00023366997 33:0.98702198 #
-100 3:0.007460962 4:-0.025782313 8:0.0004374143 11:-0.00021870715 12:-0.00021870715 13:-0.00021870715 14:-0.00021870715 15:-0.00021870715 16:-0.00021870715 17:0.00065612147 18:-0.00021870715 19:-0.00021870715 20:0.00065612147 21:0.00065612147 22:0.0021870716 23:0.0010935358 24:0.0004374143 25:0.00087482861 26:0.00021870715 28:0.10354471 29:0.1218177 30:0.018808816 31:-0.00021870715 32:-0.00021870715 33:0.986588 #
77.3378487341105937957763671875 3:0.0090915123 4:-0.0165023 11:-0.00022253023 12:-0.00022253023 13:-0.00022253023 14:-0.00022253023 15:-0.00022253023 16:-0.00022253023 17:0.00044506046 18:-0.00022253023 19:-0.00022253023 20:0.00066759065 21:0.00066759065 22:0.0057857856 23:0.00022253023 24:0.00066759065 25:0.00066759065 26:0.00089012092 28:0.10075056 29:0.11853072 30:0.022698082 31:-0.00022253023 32:-0.00022253023 33:0.98736662 #
-100 3:0.0081732078 4:-0.028379736 8:0.00024220662 11:-0.00024220662 12:-0.00024220662 13:-0.00024220662 14:-0.00024220662 15:-0.00024220662 16:-0.00024220662 17:0.00072661985 18:-0.00024220662 19:-0.00024220662 20:0.0041175126 21:0.0014532397 24:0.00024220662 25:0.00096882647 26:0.00024220662 28:0.14220919 29:0.16730422 30:0.0050863391 31:-0.00024220662 32:-0.00024220662 33:0.97512382 #
-100 3:0.0097003262 4:-0.017609503 8:0.00071516691 11:-0.00023838897 12:-0.00023838897 13:-0.00023838897 14:-0.00023838897 15:-0.00023838897 16:-0.00023838897 17:0.00047677793 18:-0.00023838897 19:-0.00023838897 20:0.0028606676 21:0.00071516691 24:0.0014303338 25:0.00095355586 26:0.00095355586 28:0.11439333 29:0.13458011 30:0.021455007 31:-0.00023838897 32:0.00023838897 33:0.98383129 #
-100 3:0.011785433 4:-0.024209244 11:-0.00028006587 12:0.00028006587 13:-0.00028006587 14:-0.00028006587 15:-0.00028006587 16:-0.00028006587 17:0.00084019761 18:-0.00028006587 19:-0.00028006587 20:0.0044810539 21:0.0014003293 22:0.0044810539 23:0.0014003293 24:0.00084019761 25:0.0011202635 26:0.00056013174 28:0.10556803 29:0.12874068 30:0.014003294 31:-0.00028006587 32:-0.00028006587 33:0.98555177 #
90 3:0.012307218 4:-0.024204066 11:-0.0002799652 12:-0.0002799652 13:-0.0002799652 14:-0.0002799652 15:-0.0002799652 16:-0.0002799652 17:0.00083989557 18:-0.0002799652 19:-0.0002799652 20:0.0047594081 21:0.0016797911 22:0.0069991299 23:0.0016797911 24:0.0002799652 25:0.0011198608 26:0.0002799652 28:0.04327422 29:0.052773438 30:0.0067191646 31:-0.0002799652 32:-0.0002799652 33:0.99723601 #
-100 3:0.012492266 4:-0.026111795 8:0.00089319737 11:-0.00029773248 12:-0.00029773248 13:-0.00029773248 14:-0.00029773248 15:-0.00029773248 16:-0.00029773248 17:0.00059546495 18:-0.00029773248 19:-0.00029773248 20:0.0074433116 21:0.0017863947 24:0.00029773248 25:0.0011909299 26:0.00089319737 28:0.1111733 29:0.13557844 30:0.0095274393 31:-0.00029773248 32:-0.00029773248 33:0.98400581 #
90 3:0.0078689419 4:-0.023369713 8:0.00056505558 11:-0.00028252779 12:-0.00028252779 13:-0.00028252779 14:-0.00028252779 15:-0.00028252779 16:-0.00028252779 17:0.00056505558 18:-0.00028252779 19:-0.00028252779 20:0.0048029725 21:0.0016951668 22:0.0028252779 23:0.0014126389 24:0.00028252779 25:0.0011301112 26:0.00028252779 28:0.11453395 29:0.13967609 30:0.0070631951 31:-0.00028252779 32:-0.00028252779 33:0.98319674 #
-100 3:0.0070507308 4:-0.024564123 8:0.00062304048 11:0.00020768016 12:-0.00020768016 13:-0.00020768016 14:-0.00020768016 15:-0.00020768016 16:-0.00020768016 17:0.00041536032 18:-0.00020768016 19:-0.00020768016 20:0.0035305629 21:0.001246081 22:0.0047766441 23:0.001246081 24:0.00062304048 25:0.00083072064 26:0.00020768016 28:0.11997891 29:0.14115191 30:0.0045689638 31:-0.00020768016 32:-0.00020768016 33:0.98232722 #
90 3:0.0083966888 4:-0.021524651 8:0.00071829924 11:-0.00023943308 12:-0.00023943308 13:-0.00023943308 14:-0.00023943308 15:-0.00023943308 16:-0.00023943308 17:0.00047886616 18:-0.00023943308 19:-0.00023943308 20:0.0040703625 21:0.0014365985 22:0.0021548977 23:0.0016760316 24:0.00023943308 25:0.00095773232 26:0.00047886616 28:0.11893839 29:0.13992709 30:0.011971654 31:-0.00023943308 32:-0.00023943308 33:0.98263335 #
-100 3:0.0085026454 4:-0.019127058 8:0.0006125808 11:-0.00020419361 12:-0.00020419361 13:-0.00020419361 14:-0.00020419361 15:-0.00020419361 16:-0.00020419361 17:0.0006125808 18:-0.00020419361 19:-0.00020419361 20:0.004696453 21:0.0012251616 22:0.0034712914 23:0.0012251616 24:0.00020419361 25:0.0006125808 26:0.00040838722 28:0.11640465 29:0.13694653 30:0.012251616 31:-0.00020419361 32:-0.00020419361 33:0.98339641 #
90 3:0.0085819252 4:-0.019559706 11:-0.00025065223 12:-0.00025065223 13:0.00025065223 14:-0.00025065223 15:-0.00025065223 16:-0.00025065223 17:0.00075195672 18:-0.00025065223 19:-0.00025065223 20:0.00075195672 21:0.00075195672 22:0.0030078269 23:0.00075195672 24:0.0015039134 25:0.00075195672 26:0.00075195672 28:0.06039967 29:0.071057402 30:0.025065225 31:0.00025065223 32:0.00025065223 33:0.99508941 #
-100 3:0.0092295995 4:-0.018857295 8:0.00064316532 11:-0.00021438843 12:-0.00021438843 13:-0.00021438843 14:-0.00021438843 15:-0.00021438843 16:-0.00021438843 17:0.00064316532 18:-0.00021438843 19:-0.00021438843 20:0.0036446033 21:0.0012863306 22:0.0012863306 23:0.00085755374 24:0.00064316532 25:0.00085755374 26:0.00021438843 28:0.11360014 29:0.13364761 30:0.0032158263 31:-0.00021438843 32:-0.00021438843 33:0.98425728 #
90 3:0.0088433968 4:-0.020932112 8:0.00024848559 11:-0.00024848559 12:-0.00024848559 13:-0.00024848559 14:-0.00024848559 15:-0.00024848559 16:-0.00024848559 17:0.00074545678 18:-0.00024848559 19:-0.00024848559 20:0.0029818271 21:0.00074545678 24:0.00074545678 25:0.00099394238 26:0.00024848559 28:0.11256149 29:0.13242543 30:0.0049697119 31:-0.00024848559 32:-0.00024848559 33:0.98449993 #
-100 3:0.010219519 4:-0.021368839 8:0.00073083537 11:-0.00024361178 12:-0.00024361178 13:-0.00024361178 14:-0.00024361178 15:-0.00024361178 16:-0.00024361178 17:0.00073083537 18:-0.00024361178 19:-0.00024361178 20:0.0019488942 21:0.00073083537 24:0.0014616707 25:0.00097444712 26:0.00024361178 28:0.11174229 29:0.13146266 30:0.0082828011 31:-0.00024361178 32:-0.00024361178 33:0.98467886 #
90 3:0.0075908042 4:-0.022846436 8:0.00050742767 11:-0.00025371384 12:-0.00025371384 13:-0.00025371384 14:-0.00025371384 15:-0.00025371384 16:-0.00025371384 17:0.00076114153 18:-0.00025371384 19:-0.00025371384 20:0.0043131351 21:0.0015222831 22:0.006342846 23:0.0015222831 24:0.00025371384 25:0.0010148553 26:0.00025371384 28:0.072937652 29:0.08580856 30:0.0068502738 31:-0.00025371384 32:0.00025371384 33:0.99328965 #
-100 3:0.0068025966 4:-0.023597533 8:0.00020130872 11:-0.00020130872 12:-0.00020130872 13:0.00020130872 14:-0.00020130872 15:-0.00020130872 16:-0.00020130872 17:0.00040261744 18:-0.00020130872 19:-0.00020130872 20:0.001409161 21:0.001409161 22:0.0034222482 23:0.0012078523 24:0.00040261744 25:0.00080523489 26:0.00020130872 28:0.11050842 29:0.13000919 30:0.0056366441 31:-0.00020130872 32:-0.00020130872 33:0.98500353 #
90 3:0.0079893814 4:-0.024195658 11:-0.00019497397 12:-0.00019497397 13:-0.00019497397 14:-0.00019497397 15:-0.00019497397 16:-0.00019497397 17:0.00058492192 18:-0.00019497397 19:-0.00019497397 20:0.0015597917 21:0.00058492192 22:0.0023396877 23:0.00058492192 24:0.00038994793 25:0.00058492192 26:0.00019497397 28:0.11043715 29:0.12992676 30:0.0046793753 31:-0.00019497397 32:-0.00019497397 33:0.98500848 #
-100 3:0.010639395 4:-0.027440097 8:0.00067094417 11:-0.00022364805 12:-0.00022364805 13:-0.00022364805 14:-0.00022364805 15:-0.00022364805 16:-0.00022364805 17:0.0004472961 18:-0.00022364805 19:-0.00022364805 20:0.0017891844 21:0.00067094417 24:0.0004472961 25:0.00067094417 26:0.00022364805 28:0.11107928 29:0.13068202 30:0.0058148494 31:-0.00022364805 32:-0.00022364805 33:0.98472238 #
-100 3:0.0085423132 4:-0.020801704 8:0.0002406299 11:-0.0002406299 12:-0.0002406299 13:-0.0002406299 14:-0.0002406299 15:-0.0002406299 16:-0.0002406299 17:0.00048125981 18:-0.0002406299 19:-0.0002406299 20:0.0060157473 21:0.0014437793 22:0.0038500784 23:0.0012031494 24:0.0002406299 25:0.00096251961 26:0.00048125981 28:0.11847894 29:0.13938728 30:0.014437794 31:-0.0002406299 32:-0.0002406299 33:0.98273247 #
-100 3:0.010207021 4:-0.023837738 8:0.00079244754 11:-0.00026414916 12:0.00026414916 13:-0.00026414916 14:-0.00026414916 15:-0.00026414916 16:-0.00026414916 17:0.00026414916 18:-0.00026414916 19:-0.00026414916 20:0.0066037294 21:0.0015848951 22:0.0026414916 23:0.0013207458 24:0.00026414916 25:0.0010565966 26:0.0010565966 28:0.11548866 29:0.13274552 30:0.011886713 31:-0.00026414916 32:-0.00026414916 33:0.98395568 #
90 3:0.0074054524 4:-0.023947496 8:0.00039325116 11:-0.00019662558 12:-0.00019662558 13:-0.00019662558 14:-0.00019662558 15:-0.00019662558 16:-0.00019662558 17:0.00058987678 18:-0.00019662558 19:-0.00019662558 20:0.0049156398 21:0.0011797536 22:0.0031460093 23:0.00098312797 24:0.00058987678 25:0.00039325116 26:0.00058987678 28:0.1142434 29:0.13440342 30:0.011404284 31:-0.00019662558 32:-0.00019662558 33:0.98391443 #
-100 3:0.0077204765 4:-0.026660107 8:0.00067599857 11:-0.00022533286 12:0.00022533286 13:-0.00022533286 14:-0.00022533286 15:-0.00022533286 16:-0.00022533286 17:0.00067599857 18:-0.00022533286 19:-0.00022533286 20:0.0033799929 21:0.00045066571 22:0.0020279957 23:0.0015773299 24:0.00045066571 25:0.00067599857 26:0.00045066571 28:0.11373226 29:0.13380265 30:0.007661317 31:0.00022533286 32:-0.00022533286 33:0.98402858 #
90 3:0.0063079121 4:-0.018881069 11:-0.00019845775 12:-0.00019845775 13:-0.00019845775 14:-0.00019845775 15:-0.00019845775 16:-0.00019845775 17:0.00059537328 18:-0.00019845775 19:-0.00019845775 20:0.0013892043 21:0.0013892043 24:0.00039691551 25:0.00079383102 26:0.00019845775 28:0.06139886 29:0.072234653 30:0.0075413948 31:-0.00019845775 32:-0.00019845775 33:0.99526566 #
-100 3:0.0096352417 4:-0.032250494 11:-0.00027605394 12:-0.00027605394 13:-0.00027605394 14:-0.00027605394 15:-0.00027605394 16:-0.00027605394 17:0.00082816178 18:-0.00027605394 19:-0.00027605394 20:0.0046929168 21:0.0016563236 24:0.00055210787 25:0.00082816178 26:0.00027605394 28:0.11033599 29:0.13455696 30:0.0066252942 31:0.00027605394 32:-0.00027605394 33:0.98413223 #
-100 3:0.0066722655 4:-0.016605768 8:0.00039400431 11:-0.00019700215 12:-0.00019700215 13:-0.00019700215 14:-0.00019700215 15:-0.00019700215 16:-0.00019700215 17:0.00059100648 18:-0.00019700215 19:-0.00019700215 20:0.004925054 21:0.001182013 22:0.0019700215 23:0.00098501076 24:0.00039400431 25:0.00078800862 26:0.00019700215 28:0.052869469 29:0.062199492 30:0.0098501081 31:0.00019700215 32:-0.00019700215 33:0.99643689 #
-100 3:0.007649309 4:-0.026489886 8:0.00067121518 11:-0.0002237384 12:-0.0002237384 13:-0.0002237384 14:-0.0002237384 15:-0.0002237384 16:-0.0002237384 17:0.00044747681 18:-0.0002237384 19:-0.0002237384 20:0.0055934601 21:0.0013424304 22:0.0058171987 23:0.0002237384 24:0.00067121518 25:0.00089495361 26:0.00067121518 28:0.10954008 29:0.12887108 30:0.010068228 31:0.0002237384 32:-0.0002237384 33:0.98512018 #
90 3:0.015238042 4:-0.052831929 8:0.0013364122 11:0.00044547074 12:-0.00044547074 13:-0.00044547074 14:-0.00044547074 15:-0.00044547074 16:-0.00044547074 17:0.00089094148 18:-0.00044547074 19:-0.00044547074 20:0.0075730025 21:0.0026728243 24:0.00044547074 25:0.001781883 26:0.00089094148 28:0.18629585 29:0.22719006 30:0.0093548847 31:-0.00044547074 32:-0.00044547074 33:0.9541983 #
-100 3:0.0091324132 4:-0.015600292 8:0.00043734052 11:-0.00021867026 12:-0.00021867026 13:-0.00021867026 14:-0.00021867026 15:-0.00021867026 16:-0.00021867026 17:0.00065601076 18:-0.00021867026 19:-0.00021867026 20:0.0015306917 21:0.0015306917 22:0.0013120215 23:0.00087468105 24:0.0013120215 25:0.00043734052 26:0.00021867026 28:0.1106559 29:0.13018315 30:0.0054667564 31:-0.00021867026 32:-0.00021867026 33:0.98510951 #
90 3:0.0076607871 4:-0.018247569 11:-0.00021147789 12:-0.00021147789 13:-0.00021147789 14:-0.00021147789 15:-0.00021147789 16:-0.00021147789 17:0.0006344337 18:-0.00021147789 19:-0.00021147789 20:0.0016918231 21:0.0006344337 24:0.00042295578 25:0.00084591156 26:0.00021147789 28:0.10904223 29:0.1282846 30:0.0084591154 31:-0.00021147789 32:-0.00021147789 33:0.98548698 #
-100 3:0.0082566775 4:-0.017335111 8:0.00059259264 11:-0.00019753087 12:-0.00019753087 13:-0.00019753087 14:-0.00019753087 15:-0.00019753087 16:-0.00019753087 17:0.00039506174 18:-0.00019753087 19:-0.00019753087 20:0.0011851853 21:0.00079012348 22:0.00019753087 23:0.00079012348 24:0.00039506174 25:0.00079012348 26:0.00059259264 28:0.10917729 29:0.12844445 30:0.0059259264 31:0.00019753087 32:-0.00019753087 33:0.9854815 #
90 3:0.009800151 4:-0.031709485 8:0.00077832758 11:-0.00025944252 12:-0.00025944252 13:-0.00025944252 14:-0.00025944252 15:-0.00025944252 16:-0.00025944252 17:0.00051888503 18:-0.00025944252 19:-0.00025944252 20:0.003891638 21:0.00051888503 22:0.0033727528 23:0.00051888503 24:0.00051888503 25:0.0010377701 26:0.00051888503 28:0.12964863 29:0.15810686 30:0.11415471 31:-0.00025944252 32:-0.00025944252 33:0.97161227 #
-100 3:0.0078392522 4:-0.024800563 8:0.00061621377 11:0.00030810689 12:-0.00030810689 13:-0.00030810689 14:-0.00030810689 15:-0.00030810689 16:-0.00030810689 17:0.00092432066 18:-0.00030810689 19:-0.00030810689 20:0.0061621377 21:0.0021567482 22:0.002772962 23:0.0021567482 24:0.00061621377 25:0.0012324275 26:0.00061621377 28:0.12416707 29:0.1514222 30:0.030810688 31:-0.00030810689 32:-0.00030810689 33:0.9797799 #
90 3:0.0091154659 4:-0.019126747 8:0.00065516925 11:-0.00021838974 12:0.00021838974 13:0.00021838974 14:-0.00021838974 15:-0.00021838974 16:-0.00021838974 17:0.00043677949 18:-0.00021838974 19:-0.00021838974 20:0.005241354 21:0.00087355898 22:0.0019655076 23:0.0015287282 24:0.00043677949 25:0.00087355898 26:0.00065516925 28:0.17019112 29:0.20022409 30:0.076436408 31:-0.00021838974 32:-0.00021838974 33:0.96157002 #
90 3:0.0076047825 4:-0.026462741 8:0.00044778627 11:-0.00022389313 12:0.00022389313 13:0.00022389313 14:-0.00022389313 15:-0.00022389313 16:-0.00022389313 17:0.00067167939 18:-0.00022389313 19:-0.00022389313 20:0.0038061833 21:0.0013433588 22:0.00022389313 23:0.00089557254 24:0.00067167939 25:0.00067167939 26:0.00067167939 28:0.10713287 29:0.1260384 30:0.0073884735 31:-0.00022389313 32:-0.00022389313 33:0.98580146 #
-100 3:0.0078880321 4:-0.027522918 8:0.000698385 11:-0.00023279501 12:-0.00023279501 13:-0.00023279501 14:-0.00023279501 15:-0.00023279501 16:-0.00023279501 17:0.000698385 18:-0.00023279501 19:-0.00023279501 20:0.0039575151 21:0.00139677 24:0.00139677 25:0.00093118002 26:0.00023279501 28:0.10847782 29:0.12762055 30:0.0069838502 31:-0.00023279501 32:-0.00023279501 33:0.98542124 #
90 3:0.012750299 4:-0.026331782 8:0.0010197355 11:-0.00033991184 12:-0.00033991184 13:-0.00033991184 14:-0.00033991184 15:-0.00033991184 16:-0.00033991184 17:0.00067982369 18:-0.00033991184 19:-0.00033991184 20:0.0057785013 21:0.0020394709 22:0.008497796 23:0.0020394709 24:0.00033991184 25:0.0013596474 26:0.00033991184 28:0.17131557 29:0.20892002 30:0.0050986777 31:-0.00033991184 32:-0.00033991184 33:0.96229041 #
-100 3:0.0082503324 4:-0.02716173 8:0.00068130804 11:0.00022710269 12:-0.00022710269 13:-0.00022710269 14:-0.00022710269 15:-0.00022710269 16:-0.00022710269 17:0.00068130804 18:-0.00022710269 19:-0.00022710269 20:0.0011355134 21:0.0015897189 24:0.00068130804 25:0.00045420538 26:0.00045420538 28:0.1111872 29:0.13080887 30:0.0068130805 31:-0.00022710269 32:-0.00022710269 33:0.98471725 #
-100 3:0.011334452 4:-0.029167568 8:0.00047726114 11:-0.00023863057 12:-0.00023863057 13:-0.00023863057 14:-0.00023863057 15:-0.00023863057 16:-0.00023863057 17:0.00071589171 18:-0.00023863057 19:-0.00023863057 20:0.0059657642 21:0.0014317834 22:0.0040567196 23:0.0014317834 24:0.00023863057 25:0.00071589171 26:0.00023863057 28:0.11356906 29:0.13361163 30:0.014317834 31:0.00023863057 32:-0.00023863057 33:0.98387384 #
3.4853596962057054042816162109375 3:0.012764691 4:-0.023188749 8:0.0009408631 11:-0.00031362104 12:-0.00031362104 13:-0.00031362104 14:-0.00031362104 15:-0.00031362104 16:-0.00031362104 17:0.00062724209 18:-0.00031362104 19:-0.00031362104 20:0.0043906947 21:0.0021953473 22:0.0028225894 23:0.0021953473 24:0.0015681052 25:0.0012544842 26:0.00062724209 28:0.11102185 29:0.13539334 30:0.0078405263 31:-0.00031362104 32:-0.00031362104 33:0.98414284 #
-100 3:0.010352861 4:-0.02991865 11:-0.00033081483 12:-0.00033081483 13:-0.00033081483 14:-0.00033081483 15:-0.00033081483 16:-0.00033081483 17:0.00099244446 18:-0.00033081483 19:-0.00033081483 20:0.0026465186 21:0.00099244446 22:0.0082703708 23:0.0019848889 24:0.00099244446 25:0.0013232593 26:0.00066162966 28:0.11247704 29:0.13716576 30:0.012240148 31:0.00033081483 32:-0.00033081483 33:0.98351246 #
-100 3:0.0066097197 4:-0.020080809 8:0.00059100532 11:-0.00019700176 12:-0.00019700176 13:-0.00019700176 14:-0.00019700176 15:-0.00019700176 16:-0.00019700176 17:0.00059100532 18:-0.00019700176 19:-0.00019700176 20:0.0015760141 21:0.00059100532 24:0.00039400352 25:0.00078800705 26:0.00039400352 28:0.045085825 29:0.053042725 30:0.01576014 31:-0.00019700176 32:-0.00019700176 33:0.99722296 #
-100 3:0.011578707 4:-0.029865526 8:0.00075205363 11:-0.00025068456 12:-0.00025068456 13:-0.00025068456 14:-0.00025068456 15:-0.00025068456 16:-0.00025068456 17:0.00050136913 18:-0.00025068456 19:-0.00025068456 20:0.0042616376 21:0.0015041073 22:0.0062671136 23:0.0015041073 24:0.00050136913 25:0.00075205363 26:0.00025068456 28:0.11449014 29:0.13469532 30:0.0045123221 31:-0.00025068456 32:-0.00025068456 33:0.98368621 #
90 3:0.0082411477 4:-0.026595062 8:0.00065254082 11:-0.00021751362 12:-0.00021751362 13:-0.00021751362 14:-0.00021751362 15:-0.00021751362 16:-0.00021751362 17:0.00043502724 18:-0.00021751362 19:-0.00021751362 20:0.0036977315 21:0.0013050816 22:0.0050028129 23:0.0013050816 24:0.00065254082 25:0.00065254082 26:0.00021751362 28:0.12571199 29:0.1478962 30:0.0047852993 31:-0.00021751362 32:-0.00021751362 33:0.98055136 #
90 3:0.005852133 4:-0.019571699 8:0.00059585943 11:-0.00019861982 12:0.00019861982 13:-0.00019861982 14:-0.00019861982 15:-0.00019861982 16:-0.00019861982 17:0.00059585943 18:-0.00019861982 19:-0.00019861982 20:0.0043696361 21:0.0013903388 22:0.0037737766 23:0.0013903388 24:0.00039723964 25:0.00059585943 26:0.00079447927 28:0.092030488 29:0.10827164 30:0.013903387 31:0.00019861982 32:-0.00019861982 33:0.98952395 #
90 3:0.0070687658 4:-0.019548509 8:0.00069573522 11:-0.00023191175 12:-0.00023191175 13:-0.00023191175 14:-0.00023191175 15:-0.00023191175 16:-0.00023191175 17:0.00069573522 18:-0.00023191175 19:-0.00023191175 20:0.0039424999 21:0.0013914704 24:0.00069573522 25:0.00069573522 26:0.00023191175 28:0.089058749 29:0.10477541 30:0.0041744113 31:0.00023191175 32:-0.00023191175 33:0.99026316 #
