SVM-light Version V6.02
1 # kernel type
3 # kernel parameter -d 
1 # kernel parameter -g 
1 # kernel parameter -s 
1 # kernel parameter -r 
empty# kernel parameter -u 
33 # highest feature index 
10000 # number of training documents 
7076 # number of support vectors plus 1 
0 # threshold b, each following line is a SV (starting with alpha*y)
-1000 3:0.0069550676 4:-0.019159006 8:0.00058921118 11:0.00019640372 12:-0.00019640372 13:-0.00019640372 14:-0.00019640372 15:-0.00019640372 16:-0.00019640372 17:0.00019640372 18:-0.00019640372 19:-0.00019640372 20:0.0051064966 21:0.00019640372 22:0.0045172856 23:0.0011784224 24:0.00019640372 25:0.00078561489 26:0.00019640372 28:0.11872801 29:0.13968036 30:0.0049100928 31:-0.00019640372 32:-0.00019640372 33:0.98280424 #
700 3:0.0083527397 4:-0.023032319 8:0.00041123197 11:-0.00020561599 12:-0.00020561599 13:0.00020561599 14:-0.00020561599 15:-0.00020561599 16:-0.00020561599 17:0.000616848 18:-0.00020561599 19:-0.00020561599 20:0.0034954718 21:0.001233696 22:0.0016449279 23:0.000616848 24:0.000616848 25:0.00041123197 26:0.00020561599 28:0.1086002 29:0.12776567 30:0.004317936 31:0.00020561599 32:-0.00020561599 33:0.98551744 #
700 3:0.0089349691 4:-0.018521151 8:0.00042160149 11:-0.00021080075 12:-0.00021080075 13:-0.00021080075 14:-0.00021080075 15:-0.00021080075 16:-0.00021080075 17:0.00063240225 18:-0.00021080075 19:-0.00021080075 20:0.001686406 21:0.00063240225 22:0.0035836129 23:0.0012648045 24:0.00063240225 25:0.00084320299 26:0.00042160149 28:0.094436631 29:0.11110254 30:0.0046376167 31:-0.00021080075 32:-0.00021080075 33:0.98907715 #
700 3:0.0095600681 4:-0.020722935 8:0.00072122383 11:-0.00024040793 12:-0.00024040793 13:-0.00024040793 14:-0.00024040793 15:-0.00024040793 16:-0.00024040793 17:0.00024040793 18:-0.00024040793 19:-0.00024040793 20:0.0062506064 21:0.00024040793 22:0.0057697906 23:0.00096163171 24:0.0012020397 25:0.00096163171 26:0.00096163171 28:0.13042131 29:0.15343796 30:0.0072122379 31:-0.00024040793 32:-0.00024040793 33:0.97918153 #
-1000 3:0.012589285 4:-0.021785043 8:0.00088565203 11:-0.00029521732 12:-0.00029521732 13:-0.00029521732 14:-0.00029521732 15:-0.00029521732 16:-0.00029521732 17:0.00029521732 18:-0.00029521732 19:-0.00029521732 20:0.0023617386 21:0.00088565203 24:0.00088565203 25:0.0011808693 26:0.00088565203 28:0.20429039 29:0.24913391 30:0.029521734 31:-0.00029521732 32:-0.00029521732 33:0.94587636 #
-1000 3:0.0085105561 4:-0.016686257 8:0.00060162169 11:0.00020054055 12:-0.00020054055 13:-0.00020054055 14:-0.00020054055 15:-0.00020054055 16:-0.00020054055 17:0.00060162169 18:-0.00020054055 19:-0.00020054055 20:0.0034091894 21:0.0012032434 22:0.0016043244 23:0.00060162169 24:0.00060162169 25:0.00060162169 26:0.00020054055 28:0.17125361 29:0.20147507 30:0.0056151357 31:-0.00020054055 32:-0.00020054055 33:0.96419901 #
700 3:0.0061257547 4:-0.018880762 8:0.00047065958 11:-0.00023532979 12:-0.00023532979 13:-0.00023532979 14:-0.00023532979 15:-0.00023532979 16:-0.00023532979 17:0.00070598937 18:-0.00023532979 19:-0.00023532979 20:0.0040006065 21:0.0014119787 22:0.0028239575 23:0.00070598937 24:0.0014119787 25:0.00094131916 26:0.00023532979 28:0.035419486 29:0.041669846 30:0.0065892343 31:0.00023532979 32:-0.00023532979 33:0.99826896 #
700 3:0.0062682661 4:-0.019924715 8:0.00041762533 11:-0.00020881266 12:-0.00020881266 13:-0.00020881266 14:-0.00020881266 15:-0.00020881266 16:-0.00020881266 17:0.00041762533 18:-0.00020881266 19:-0.00020881266 20:0.0016705013 21:0.00062643801 22:0.0048026913 23:0.001252876 24:0.00020881266 25:0.00083525066 26:0.00041762533 28:0.1127651 29:0.13266495 30:0.1879314 31:-0.00020881266 32:-0.00020881266 33:0.96638501 #
-1000 3:0.009541871 4:-0.030331038 8:0.00079111248 11:-0.00026370416 12:-0.00026370416 13:-0.00026370416 14:-0.00026370416 15:-0.00026370416 16:-0.00026370416 17:0.00079111248 18:-0.00026370416 19:-0.00026370416 20:0.0065926043 21:0.001582225 24:0.00052740832 25:0.0010548166 26:0.00079111248 28:0.047648706 29:0.058107212 30:0.042192668 31:0.00026370416 32:-0.00026370416 33:0.99574697 #
-1000 3:0.0089593697 4:-0.022607576 8:0.00025102912 11:0.00025102912 12:-0.00025102912 13:-0.00025102912 14:-0.00025102912 15:-0.00025102912 16:-0.00025102912 17:0.00075308734 18:-0.00025102912 19:-0.00025102912 20:0.0022592619 21:0.0017572037 24:0.00025102912 25:0.0010041165 26:0.00075308734 28:0.074681163 29:0.087860189 30:0.030123493 31:-0.00025102912 32:-0.00025102912 33:0.99256909 #
-420.32887270198989426717162132263 3:0.0082521383 4:-0.014986328 8:0.00060758379 11:-0.00020252792 12:-0.00020252792 13:-0.00020252792 14:-0.00020252792 15:-0.00020252792 16:-0.00020252792 17:0.00060758379 18:-0.00020252792 19:-0.00020252792 20:0.005063198 21:0.0012151676 22:0.0010126396 23:0.0014176954 24:0.00040505585 25:0.0008101117 26:0.0008101117 28:0.54409736 29:0.66353416 30:0.28353909 31:-0.00020252792 32:-0.00020252792 33:0.42773899 #
700 3:0.01773498 4:-0.032278903 8:0.0013094074 11:-0.00043646913 12:0.00043646913 13:-0.00043646913 14:-0.00043646913 15:-0.00043646913 16:-0.00043646913 17:0.00087293825 18:-0.00043646913 19:-0.00043646913 20:0.0052376296 21:0.0013094074 24:0.00087293825 25:0.0017458765 26:0.00043646913 28:0.26708418 29:0.32571074 30:0.012221136 31:-0.00043646913 32:-0.00043646913 33:0.90610993 #
700 3:0.0075773862 4:-0.022857644 8:0.00021439313 11:-0.00021439313 12:-0.00021439313 13:-0.00021439313 14:-0.00021439313 15:-0.00021439313 16:-0.00021439313 17:0.00042878627 18:-0.00021439313 19:-0.00021439313 20:0.0036446832 21:0.0012863588 24:0.00042878627 25:0.00042878627 26:0.00021439313 28:0.051694471 29:0.060816899 30:0.0047166487 31:-0.00021439313 32:-0.00021439313 33:0.9964993 #
700 3:0.0075455559 4:-0.019935455 8:0.00021294843 11:-0.00021294843 12:-0.00021294843 13:-0.00021294843 14:-0.00021294843 15:-0.00021294843 16:-0.00021294843 17:0.00063884532 18:-0.00021294843 19:-0.00021294843 20:0.00042589687 21:0.00063884532 24:0.00042589687 25:0.00085179374 26:0.00042589687 28:0.081921265 29:0.096378334 30:0.0085179377 31:-0.00021294843 32:-0.00021294843 33:0.99170089 #
700 3:0.0082609607 4:-0.028782496 8:0.00073001918 11:-0.00024333973 12:-0.00024333973 13:-0.00024333973 14:-0.00024333973 15:-0.00024333973 16:-0.00024333973 17:0.00024333973 18:-0.00024333973 19:-0.00024333973 20:0.0041367752 21:0.0014600384 22:0.0055968137 23:0.0014600384 24:0.00024333973 25:0.00073001918 26:0.00024333973 28:0.20022723 29:0.23556259 30:0.0068135122 31:-0.00024333973 32:-0.00024333973 33:0.95048499 #
-1000 3:0.0098094046 4:-0.021835763 8:0.0008155278 11:-0.00027184261 12:-0.00027184261 13:-0.00027184261 14:-0.00027184261 15:-0.00027184261 16:-0.00027184261 17:0.0008155278 18:-0.00027184261 19:-0.00027184261 20:0.0046213241 21:0.0016310556 22:0.001359213 23:0.0019028983 24:0.00027184261 25:0.0010873704 26:0.00054368522 28:0.066258915 29:0.0808025 30:0.1359213 31:0.00027184261 32:-0.00027184261 33:0.98488575 #
700 3:0.0082083801 4:-0.027583338 8:0.00046350452 11:-0.00023175226 12:-0.00023175226 13:-0.00023175226 14:-0.00023175226 15:-0.00023175226 16:-0.00023175226 17:0.00069525675 18:-0.00023175226 19:-0.00023175226 20:0.0060255588 21:0.00023175226 24:0.00069525675 25:0.00092700904 26:0.00046350452 28:0.21511012 29:0.25307113 30:0.0018540181 31:-0.00023175226 32:-0.00023175226 33:0.94276816 #
-1000 3:0.0096649714 4:-0.018930996 8:0.00068437221 11:-0.00022812407 12:-0.00022812407 13:-0.00022812407 14:-0.00022812407 15:-0.00022812407 16:-0.00022812407 17:0.00045624815 18:-0.00022812407 19:-0.00022812407 20:0.0027374888 21:0.00068437221 22:0.00045624815 23:0.00068437221 24:0.00045624815 25:0.0009124963 26:0.00045624815 28:0.10386489 29:0.12219466 30:0.13687444 31:-0.00022812407 32:-0.00022812407 33:0.97728354 #
700 3:0.0067020776 4:-0.021642694 8:0.00053107174 11:-0.0001770239 12:-0.0001770239 13:-0.0001770239 14:-0.0001770239 15:-0.0001770239 16:-0.0001770239 17:0.0001770239 18:-0.0001770239 19:-0.0001770239 20:0.00035404781 21:0.00053107174 22:0.00053107174 23:0.00053107174 24:0.00053107174 25:0.00053107174 26:0.00053107174 28:0.29567951 29:0.34785905 30:0.089043029 31:-0.0001770239 32:-0.0001770239 33:0.88494253 #
700 3:0.0077203386 4:-0.026772227 8:0.0006783905 11:0.00022613016 12:-0.00022613016 13:-0.00022613016 14:-0.00022613016 15:-0.00022613016 16:-0.00022613016 17:0.0006783905 18:-0.00022613016 19:-0.00022613016 20:0.002939692 21:0.00045226031 22:0.0015829111 23:0.0015829111 24:0.001356781 25:0.00022613016 26:0.00022613016 28:0.096030697 29:0.11297689 30:0.033919524 31:0.00022613016 32:-0.00022613016 33:0.98796266 #
-1000 3:0.0067387787 4:-0.020050168 8:0.00041133139 11:-0.0002056657 12:-0.0002056657 13:-0.0002056657 14:-0.0002056657 15:-0.0002056657 16:-0.0002056657 17:0.00061699713 18:-0.0002056657 19:-0.0002056657 20:0.003496317 21:0.0012339943 24:0.0002056657 25:0.00061699713 26:0.00041133139 28:0.057325203 29:0.067441896 30:0.0043189796 31:-0.0002056657 32:-0.0002056657 33:0.99583334 #
700 3:0.007250953 4:-0.025162397 8:0.000636685 11:0.00021222833 12:-0.00021222833 13:-0.00021222833 14:-0.00021222833 15:-0.00021222833 16:-0.00021222833 17:0.00042445667 18:-0.00021222833 19:-0.00021222833 20:0.0016978267 21:0.000636685 22:0.0036078817 23:0.00127337 24:0.000636685 25:0.00021222833 26:0.00021222833 28:0.10145363 29:0.11935721 30:0.0046690232 31:0.00021222833 32:-0.00021222833 33:0.98728621 #
-1000 3:0.0076985662 4:-0.024576591 8:0.00060067378 11:-0.00020022459 12:-0.00020022459 13:-0.00020022459 14:-0.00020022459 15:-0.00020022459 16:-0.00020022459 17:0.00060067378 18:-0.00020022459 19:-0.00020022459 20:0.0034038182 21:0.0012013476 22:0.0046051657 23:0.0012013476 24:0.00060067378 25:0.00080089836 26:0.00060067378 28:0.09702684 29:0.11415005 30:0.01001123 31:0.00020022459 32:-0.00020022459 33:0.98830861 #
700 3:0.010134806 4:-0.027398553 8:0.00044649787 11:-0.00022324894 12:-0.00022324894 13:-0.00022324894 14:-0.00022324894 15:-0.00022324894 16:-0.00022324894 17:0.00066974678 18:-0.00022324894 19:-0.00022324894 20:0.0055812234 21:0.0013394936 22:0.0037952317 23:0.0013394936 24:0.00022324894 25:0.00022324894 26:0.00044649787 28:0.097870097 29:0.11514063 30:0.018976159 31:-0.00022324894 32:-0.00022324894 33:0.98787653 #
-1000 3:0.011232735 4:-0.033249941 8:0.0010306207 11:-0.00034354022 12:-0.00034354022 13:-0.00034354022 14:-0.00034354022 15:-0.00034354022 16:-0.00034354022 17:0.00068708044 18:-0.00034354022 19:-0.00034354022 20:0.0027483217 21:0.0010306207 24:0.00068708044 25:0.0013741609 26:0.00034354022 28:0.1597462 29:0.19481136 30:0.0082449652 31:-0.00034354022 32:-0.00034354022 33:0.96706575 #
700 3:0.0085363695 4:-0.021715721 8:0.0002296282 11:-0.0002296282 12:-0.0002296282 13:-0.0002296282 14:-0.0002296282 15:-0.0002296282 16:-0.0002296282 17:0.00068888458 18:-0.0002296282 19:-0.0002296282 20:0.0020666539 21:0.0016073975 22:0.002296282 23:0.001148141 24:0.00068888458 25:0.00068888458 26:0.00045925641 28:0.10401009 29:0.12236428 30:0.0068888459 31:0.0002296282 32:-0.0002296282 33:0.9867124 #
-1000 3:0.0083901919 4:-0.021523664 8:0.00071857433 11:-0.00023952477 12:-0.00023952477 13:-0.00023952477 14:-0.00023952477 15:-0.00023952477 16:-0.00023952477 17:0.00047904954 18:-0.00023952477 19:-0.00023952477 20:0.0040719211 21:0.0014371487 22:0.0059881192 23:0.0014371487 24:0.0014371487 25:0.00095809909 26:0.00023952477 28:0.099503376 29:0.11706294 30:0.0071857432 31:-0.00023952477 32:-0.00023952477 33:0.98780012 #
700 3:0.0084036328 4:-0.023747353 8:0.00024160527 11:-0.00024160527 12:-0.00024160527 13:-0.00024160527 14:-0.00024160527 15:-0.00024160527 16:-0.00024160527 17:0.00072481582 18:-0.00024160527 19:-0.00024160527 20:0.0041072895 21:0.0014496316 22:0.0060401317 23:0.0014496316 24:0.00072481582 25:0.00072481582 26:0.00048321055 28:0.09877307 29:0.11620247 30:0.0072481581 31:-0.00024160527 32:-0.00024160527 33:0.98792398 #
-1000 3:0.0076130573 4:-0.026433062 8:0.00044740541 11:-0.00022370271 12:0.00022370271 13:-0.00022370271 14:-0.00022370271 15:-0.00022370271 16:-0.00022370271 17:0.00044740541 18:-0.00022370271 19:-0.00022370271 20:0.0038029458 21:0.0013422162 22:0.0060399729 23:0.0011185135 24:0.00067110808 25:0.00067110808 26:0.00067110808 28:0.098684207 29:0.11609946 30:0.0089481082 31:0.00022370271 32:-0.00022370271 33:0.98787111 #
-1000 3:0.0053793592 4:-0.020145226 8:0.00061530521 11:-0.00020510174 12:-0.00020510174 13:-0.00020510174 14:-0.00020510174 15:-0.00020510174 16:-0.00020510174 17:0.00041020347 18:-0.00020510174 19:-0.00020510174 20:0.0034867297 21:0.0012306104 22:0.0047173402 23:0.0012306104 24:0.00020510174 25:0.00020510174 26:0.00041020347 28:0.099416919 29:0.11696132 30:0.026047921 31:-0.00020510174 32:-0.00020510174 33:0.98756486 #
-1000 3:0.007643274 4:-0.018237684 11:-0.00021555522 12:-0.00021555522 13:-0.00021555522 14:-0.00021555522 15:-0.00021555522 16:-0.00021555522 17:0.00064666563 18:-0.00021555522 19:-0.00021555522 20:0.0036644388 21:0.0012933313 22:0.0021555522 23:0.0010777761 24:0.00021555522 25:0.00064666563 26:0.00043111044 28:0.091302723 29:0.10741547 30:0.019399969 31:0.00021555522 32:-0.00021555522 33:0.98961401 #
-1000 3:0.0099942181 4:-0.030743131 8:0.00065970572 11:-0.00032985286 12:-0.00032985286 13:-0.00032985286 14:-0.00032985286 15:-0.00032985286 16:-0.00032985286 17:0.00098955852 18:-0.00032985286 19:-0.00032985286 20:0.0056074983 21:0.001979117 22:0.0085761743 23:0.00032985286 24:0.00098955852 25:0.00098955852 26:0.00065970572 28:0.25200757 29:0.30732721 30:0.0032985285 31:-0.00032985286 32:-0.00032985286 33:0.91699094 #
-1000 3:0.0075105554 4:-0.016497198 8:0.00019692187 11:-0.00019692187 12:-0.00019692187 13:-0.00019692187 14:-0.00019692187 15:-0.00019692187 16:-0.00019692187 17:0.00059076562 18:0.00019692187 19:-0.00019692187 20:0.001575375 21:0.00059076562 22:0.0019692187 23:0.00098460936 24:0.00059076562 25:0.00078768749 26:0.00039384374 28:0.061670024 29:0.072553895 30:0.0092553282 31:-0.00019692187 32:-0.00019692187 33:0.99524313 #
700 3:0.0070294491 4:-0.020829301 8:0.00042943851 11:-0.00021471926 12:-0.00021471926 13:-0.00021471926 14:-0.00021471926 15:-0.00021471926 16:-0.00021471926 17:0.00064415776 18:-0.00021471926 19:-0.00021471926 20:0.0036502273 21:0.0012883155 22:0.0015030347 23:0.0015030347 24:0.00064415776 25:0.00085887703 26:0.00021471926 28:0.17724645 29:0.2085246 30:0.0094476473 31:-0.00021471926 32:-0.00021471926 33:0.9615128 #
700 3:0.0063917418 4:-0.020307517 8:0.00042641093 11:-0.00021320547 12:-0.00021320547 13:-0.00021320547 14:-0.00021320547 15:-0.00021320547 16:-0.00021320547 17:0.0006396164 18:-0.00021320547 19:-0.00021320547 20:0.003624493 21:0.0012792328 22:0.005330137 23:0.0012792328 24:0.00021320547 25:0.0006396164 26:0.00085282186 28:0.092573814 29:0.10890962 30:0.028782738 31:0.00021320547 32:-0.00021320547 33:0.98906016 #
-1000 3:0.0081891185 4:-0.020935886 8:0.00069757964 11:-0.00023252655 12:-0.00023252655 13:-0.00023252655 14:-0.00023252655 15:-0.00023252655 16:-0.00023252655 17:0.0004650531 18:-0.00023252655 19:-0.00023252655 20:0.0060456903 21:0.00023252655 24:0.00069757964 25:0.00093010621 26:0.00069757964 28:0.10060959 29:0.11836532 30:0.0093010617 31:0.00023252655 32:-0.00023252655 33:0.98754025 #
700 3:0.0090293307 4:-0.016947696 8:0.00067723251 11:0.00022574417 12:-0.00022574417 13:-0.00022574417 14:-0.00022574417 15:-0.00022574417 16:-0.00022574417 17:0.00067723251 18:-0.00022574417 19:-0.00022574417 20:0.0056436043 21:0.001354465 22:0.0022574416 23:0.0011287208 24:0.00067723251 25:0.00090297667 26:0.00067723251 28:0.068116046 29:0.080136925 30:0.011738697 31:-0.00022574417 32:-0.00022574417 33:0.99417728 #
-1000 3:0.0082512647 4:-0.018383561 8:0.00023032271 11:-0.00023032271 12:-0.00023032271 13:-0.00023032271 14:-0.00023032271 15:-0.00023032271 16:-0.00023032271 17:0.00069096813 18:-0.00023032271 19:-0.00023032271 20:0.0057580676 21:0.0013819363 24:0.00023032271 25:0.00069096813 26:0.00069096813 28:0.10376269 29:0.12207334 30:0.017504526 31:0.00023032271 32:-0.00023032271 33:0.9867025 #
-1000 3:0.0070798541 4:-0.023993529 8:0.00021415581 11:-0.00021415581 12:-0.00021415581 13:-0.00021415581 14:-0.00021415581 15:-0.00021415581 16:-0.00021415581 17:0.00064246741 18:-0.00021415581 19:-0.00021415581 20:0.0036406487 21:0.0012849348 22:0.0055680508 23:0.00021415581 24:0.00021415581 25:0.00064246741 26:0.00042831161 28:0.11469115 29:0.13493101 30:0.0064246743 31:-0.00021415581 32:-0.00021415581 33:0.98383176 #
700 3:0.0086027673 4:-0.015642524 8:0.00063444499 11:-0.00021148166 12:-0.00021148166 13:-0.00021148166 14:-0.00021148166 15:-0.00021148166 16:-0.00021148166 17:0.00042296332 18:-0.00021148166 19:-0.00021148166 20:0.0019033349 21:0.0014803716 24:0.00042296332 25:0.00063444499 26:0.00042296332 28:0.14112593 29:0.16603002 30:0.0071903761 31:-0.00021148166 32:-0.00021148166 33:0.97577637 #
-1000 3:0.0088209193 4:-0.017473701 8:0.00068063685 11:-0.00022687894 12:-0.00022687894 13:-0.00022687894 14:-0.00022687894 15:-0.00022687894 16:-0.00022687894 17:0.00045375788 18:-0.00022687894 19:-0.00022687894 20:0.0054450948 21:0.00090751576 22:0.003630063 23:0.0011343948 24:0.00045375788 25:0.00090751576 26:0.00022687894 28:0.059145074 29:0.069581501 30:0.068063684 31:-0.00022687894 32:-0.00022687894 33:0.993276 #
-1000 3:0.0088599939 4:-0.028564619 8:0.00023864458 11:-0.00023864458 12:-0.00023864458 13:-0.00023864458 14:-0.00023864458 15:-0.00023864458 16:-0.00023864458 17:0.00023864458 18:-0.00023864458 19:-0.00023864458 20:0.0038183134 21:0.0011932229 24:0.0007159338 25:0.00047728917 26:0.00095457834 28:0.10627321 29:0.12502828 30:0.016705122 31:-0.00023864458 32:-0.00023864458 33:0.9858408 #
700 3:0.010776811 4:-0.025200961 8:0.00087462529 11:-0.00029154177 12:-0.00029154177 13:-0.00029154177 14:-0.00029154177 15:-0.00029154177 16:-0.00029154177 17:0.00087462529 18:-0.00029154177 19:-0.00029154177 20:0.0046646683 21:0.0014577089 24:0.00058308354 25:0.00087462529 26:0.0011661671 28:0.10495504 29:0.12799267 30:0.014577089 31:0.00029154177 32:-0.00029154177 33:0.98570275 #
700 3:0.0087400433 4:-0.018115688 8:0.00041235151 11:-0.00020617576 12:-0.00020617576 13:-0.00020617576 14:-0.00020617576 15:-0.00020617576 16:-0.00020617576 17:0.00061852724 18:-0.00020617576 19:-0.00020617576 20:0.0026802847 21:0.00041235151 22:0.0035049878 23:0.0012370545 24:0.00061852724 25:0.00082470302 26:0.00041235151 28:0.15934499 29:0.1874653 30:0.0051543936 31:-0.00020617576 32:-0.00020617576 33:0.96902603 #
700 3:0.010895655 4:-0.02790034 8:0.00045714821 11:-0.00022857411 12:-0.00022857411 13:-0.00022857411 14:-0.00022857411 15:-0.00022857411 16:-0.00022857411 17:0.00045714821 18:-0.00022857411 19:-0.00022857411 20:0.0038857597 21:0.0013714447 24:0.00022857411 25:0.00045714821 26:0.00022857411 28:0.10672811 29:0.12556261 30:0.0068572233 31:-0.00022857411 32:-0.00022857411 33:0.98584014 #
-1000 3:0.01234826 4:-0.032046746 8:0.00078498316 11:-0.00026166104 12:-0.00026166104 13:-0.00026166104 14:-0.00026166104 15:-0.00026166104 16:-0.00026166104 17:0.00078498316 18:-0.00026166104 19:-0.00026166104 20:0.0020932883 21:0.00078498316 22:0.0018316273 23:0.0018316273 24:0.00052332209 25:0.0010466442 26:0.00026166104 28:0.10825703 29:0.12443291 30:0.0065415264 31:-0.00026166104 32:0.00026166104 33:0.98567718 #
700 3:0.0092127565 4:-0.032104 8:0.00081432285 11:-0.00027144095 12:0.00027144095 13:-0.00027144095 14:-0.00027144095 15:-0.00027144095 16:-0.00027144095 17:0.0005428819 18:-0.00027144095 19:-0.00027144095 20:0.0067860237 21:0.0016286457 22:0.00081432285 23:0.00081432285 24:0.00081432285 25:0.00081432285 26:0.0005428819 28:0.12194756 29:0.14871706 30:0.0062431418 31:0.00027144095 32:0.00027144095 33:0.98071617 #
-1000 3:0.015666867 4:-0.031009115 8:0.0012077905 11:-0.00040259684 12:-0.00040259684 13:-0.00040259684 14:-0.00040259684 15:-0.00040259684 16:-0.00040259684 17:0.00080519367 18:-0.00040259684 19:-0.00040259684 20:0.0048311618 21:0.0012077905 22:0.0048311618 23:0.0012077905 24:0.0016103873 25:0.0016103873 26:0.00040259684 28:0.08459767 29:0.10316946 30:0.0080519365 31:-0.00040259684 32:-0.00040259684 33:0.99038821 #
700 3:0.0091855964 4:-0.029699674 11:-0.00024514121 12:-0.00024514121 13:-0.00024514121 14:-0.00024514121 15:-0.00024514121 16:-0.00024514121 17:0.00073542364 18:-0.00024514121 19:-0.00024514121 20:0.00612853 21:0.0014708473 22:0.0019611297 23:0.00073542364 24:0.00049028243 25:0.00073542364 26:0.00049028243 28:0.047802534 29:0.056237843 30:0.0063736713 31:0.00024514121 32:-0.00024514121 33:0.99674416 #
-1000 3:0.011599675 4:-0.032117311 8:0.00028714605 11:-0.00028714605 12:-0.00028714605 13:-0.00028714605 14:-0.00028714605 15:-0.00028714605 16:-0.00028714605 17:0.00086143817 18:-0.00028714605 19:-0.00028714605 20:0.004881483 21:0.0017228763 22:0.0020100223 23:0.0020100223 24:0.00086143817 25:0.00057429209 26:0.00028714605 28:0.093299493 29:0.11377876 30:0.017228764 31:-0.00028714605 32:-0.00028714605 33:0.98835671 #
-1000 3:0.0080871135 4:-0.020639211 8:0.00023000099 11:-0.00023000099 12:-0.00023000099 13:-0.00023000099 14:-0.00023000099 15:-0.00023000099 16:-0.00023000099 17:0.00046000199 18:-0.00023000099 19:-0.00023000099 20:0.001840008 21:0.00069000298 22:0.0057500247 23:0.001380006 24:0.00069000298 25:0.00069000298 26:0.00046000199 28:0.10414675 29:0.12252613 30:0.0048300209 31:-0.00023000099 32:-0.00023000099 33:0.98670429 #
700 3:0.015410633 4:-0.027934959 8:0.001133426 11:-0.00037780867 12:-0.00037780867 13:-0.00037780867 14:-0.00037780867 15:-0.00037780867 16:-0.00037780867 17:0.00075561734 18:-0.00037780867 19:-0.00037780867 20:0.0064227474 21:0.002266852 22:0.0098230252 23:0.00037780867 24:0.002266852 25:0.0015112347 26:0.00037780867 28:0.26797968 29:0.32680452 30:0.0094452165 31:-0.00037780867 32:-0.00037780867 33:0.9056074 #
700 3:0.0094143813 4:-0.017766621 8:0.00047687136 11:-0.00023843568 12:-0.00023843568 13:-0.00023843568 14:-0.00023843568 15:-0.00023843568 16:-0.00023843568 17:0.00071530702 18:-0.00023843568 19:-0.00023843568 20:0.0040534064 21:0.001430614 22:0.0033380995 23:0.0016690497 24:0.00071530702 25:0.00071530702 26:0.00047687136 28:0.11357407 29:0.13361697 30:0.005960892 31:-0.00023843568 32:-0.00023843568 33:0.98426247 #
-1000 3:0.0081552407 4:-0.017348174 8:0.00060417689 11:-0.00020139231 12:-0.00020139231 13:-0.00020139231 14:-0.00020139231 15:-0.00020139231 16:-0.00020139231 17:0.00060417689 18:-0.00020139231 19:-0.00020139231 20:0.0016111385 21:0.00060417689 22:0.0034236691 23:0.0012083538 24:0.00060417689 25:0.00080556923 26:0.00040278462 28:0.11679546 29:0.13740595 30:0.0044306307 31:-0.00020139231 32:-0.00020139231 33:0.98339862 #
-1000 3:0.007475175 4:-0.019417724 8:0.00020713966 11:-0.00020713966 12:-0.00020713966 13:-0.00020713966 14:-0.00020713966 15:-0.00020713966 16:-0.00020713966 17:0.00062141899 18:-0.00020713966 19:-0.00020713966 20:0.0037285138 21:0.0010356983 22:0.0035213742 23:0.001242838 24:0.00062141899 25:0.00082855864 26:0.00020713966 28:0.099632107 29:0.11721412 30:0.0049713519 31:0.00020713966 32:-0.00020713966 33:0.98784906 #
-1000 3:0.0067937584 4:-0.017224828 11:-0.00020244825 12:-0.00020244825 13:-0.00020244825 14:-0.00020244825 15:-0.00020244825 16:-0.00020244825 17:0.00060734473 18:-0.00020244825 19:-0.00020244825 20:0.0034416204 21:0.0012146895 24:0.0012146895 25:0.00060734473 26:0.00020244825 28:0.049743559 29:0.058521718 30:0.0046563097 31:-0.00020244825 32:-0.00020244825 33:0.9968552 #
700 3:0.0066619832 4:-0.019593341 8:0.00047613014 11:-0.00023806507 12:-0.00023806507 13:-0.00023806507 14:-0.00023806507 15:-0.00023806507 16:-0.00023806507 17:0.00071419519 18:-0.00023806507 19:-0.00023806507 20:0.0019045206 21:0.00071419519 22:0.0059516267 23:0.0014283904 24:0.00071419519 25:0.00095226028 26:0.00023806507 28:0.14218198 29:0.16727404 30:0.0042851712 31:0.00023806507 32:-0.00023806507 33:0.97535259 #
-1000 3:0.0082839113 4:-0.026378747 8:0.00068681885 11:-0.00022893961 12:-0.00022893961 13:-0.00022893961 14:-0.00022893961 15:-0.00022893961 16:-0.00022893961 17:0.00068681885 18:-0.00022893961 19:-0.00022893961 20:0.0057234904 21:0.0013736377 22:0.0018315169 23:0.00068681885 24:0.00022893961 25:0.00091575843 26:0.00022893961 28:0.19422549 29:0.22850004 30:0.0057234904 31:-0.00022893961 32:-0.00022893961 33:0.95353347 #
-1000 3:0.0069968128 4:-0.022144444 8:0.00023247929 11:-0.00023247929 12:-0.00023247929 13:-0.00023247929 14:-0.00023247929 15:-0.00023247929 16:-0.00023247929 17:0.00069743791 18:-0.00023247929 19:-0.00023247929 20:0.0048820651 21:0.0013948758 22:0.00046495858 23:0.00069743791 24:0.00069743791 25:0.00092991715 26:0.00023247929 28:0.076453142 29:0.089943916 30:0.0083692549 31:0.00023247929 32:-0.00023247929 33:0.99268657 #
-1000 3:0.014185697 4:-0.03580055 8:0.00058525742 11:-0.00029262871 12:-0.00029262871 13:-0.00029262871 14:-0.00029262871 15:-0.00029262871 16:-0.00029262871 17:0.00058525742 18:-0.00029262871 19:-0.00029262871 20:0.0023410297 21:0.00087788614 22:0.0076083462 23:0.00029262871 24:0.00058525742 25:0.0011705148 26:0.00058525742 28:0.097462915 29:0.118857 30:0.0020484009 31:-0.00029262871 32:-0.00029262871 33:0.98732924 #
-1000 3:0.011558686 4:-0.021067755 8:0.00085176388 11:0.00028392128 12:-0.00028392128 13:0.00028392128 14:-0.00028392128 15:0.00028392128 16:-0.00028392128 17:0.00056784257 18:0.00028392128 19:-0.00028392128 20:0.0022713703 21:0.00085176388 24:0.00056784257 25:0.0011356851 26:0.00056784257 28:0.19735369 29:0.24067441 30:0.0062462683 31:0.00028392128 32:-0.00028392128 33:0.95000064 #
700 3:0.010946085 4:-0.026026512 8:0.0003270953 11:-0.0003270953 12:-0.0003270953 13:-0.0003270953 14:-0.0003270953 15:-0.0003270953 16:-0.0003270953 17:0.00098128582 18:-0.0003270953 19:-0.0003270953 20:0.0078502866 21:0.0013083812 22:0.0078502866 23:0.0013083812 24:0.00098128582 25:0.0013083812 26:0.0013083812 28:0.23027508 29:0.28082439 30:0.049064294 31:-0.0003270953 32:-0.0003270953 33:0.92993188 #
700 3:0.0081028705 4:-0.017786754 8:0.00022831871 11:-0.00022831871 12:-0.00022831871 13:-0.00022831871 14:-0.00022831871 15:-0.00022831871 16:-0.00022831871 17:0.00068495609 18:-0.00022831871 19:-0.00022831871 20:0.0027398244 21:0.00068495609 22:0.0018265496 23:0.00068495609 24:0.00068495609 25:0.00068495609 26:0.00045663741 28:0.11356801 29:0.13360982 30:0.0066212425 31:0.00022831871 32:0.00022831871 33:0.9842819 #
700 3:0.008568869 4:-0.02890083 8:0.00072795805 11:-0.00024265268 12:-0.00024265268 13:-0.00024265268 14:-0.00024265268 15:-0.00024265268 16:-0.00024265268 17:0.00072795805 18:-0.00024265268 19:-0.00024265268 20:0.00072795805 21:0.00072795805 22:0.0019412214 23:0.00072795805 24:0.00072795805 25:0.00072795805 26:0.00072795805 28:0.20456591 29:0.24066536 30:0.0082501909 31:0.00024265268 32:-0.00024265268 33:0.94828665 #
700 3:0.0087495912 4:-0.023555573 8:0.00057597144 11:-0.00019199048 12:-0.00019199048 13:-0.00019199048 14:-0.00019199048 15:-0.00019199048 16:-0.00019199048 17:0.00038398095 18:-0.00019199048 19:-0.00019199048 20:0.0047997618 21:0.0011519429 24:0.00019199048 25:0.00057597144 26:0.00038398095 28:0.16304983 29:0.19182344 30:0.0046077715 31:-0.00019199048 32:-0.00019199048 33:0.96744001 #
-1000 3:0.0098782368 4:-0.020658324 8:0.00023867798 11:-0.00023867798 12:-0.00023867798 13:-0.00023867798 14:-0.00023867798 15:-0.00023867798 16:-0.00023867798 17:0.00071603397 18:-0.00023867798 19:-0.00023867798 20:0.0040575257 21:0.0014320679 24:0.00023867798 25:0.00071603397 26:0.00023867798 28:0.10496819 29:0.12349199 30:0.009547119 31:0.00023867798 32:-0.00023867798 33:0.9864561 #
700 3:0.0073041688 4:-0.019555954 8:0.00042251183 11:-0.00021125592 12:-0.00021125592 13:-0.00021125592 14:-0.00021125592 15:-0.00021125592 16:-0.00021125592 17:0.00063376775 18:-0.00021125592 19:-0.00021125592 20:0.0035913505 21:0.0012675355 24:0.00063376775 25:0.00042251183 26:0.00042251183 28:0.10299782 29:0.12117428 30:0.010562796 31:-0.00021125592 32:-0.00021125592 33:0.98698765 #
-1000 3:0.0092394371 4:-0.016733544 8:0.0006789664 11:-0.00022632214 12:0.00022632214 13:-0.00022632214 14:-0.00022632214 15:-0.00022632214 16:-0.00022632214 17:0.0006789664 18:-0.00022632214 19:-0.00022632214 20:0.0018105771 21:0.0006789664 24:0.00045264428 25:0.00090528856 26:0.0006789664 28:0.10116373 29:0.11901602 30:0.013579329 31:-0.00022632214 32:-0.00022632214 33:0.98744351 #
700 3:0.0092068249 4:-0.016659616 8:0.00067615794 11:-0.00022538597 12:-0.00022538597 13:-0.00022538597 14:-0.00022538597 15:-0.00022538597 16:-0.00022538597 17:0.00045077194 18:-0.00022538597 19:-0.00022538597 20:0.0018030878 21:0.00067615794 24:0.00045077194 25:0.00090154388 26:0.00067615794 28:0.10304872 29:0.12123286 30:0.014650089 31:-0.00022538597 32:-0.00022538597 33:0.98696518 #
700 3:0.015006461 4:-0.027152279 8:0.001102288 11:-0.00036742937 12:-0.00036742937 13:-0.00036742937 14:-0.00036742937 15:-0.00036742937 16:-0.00036742937 17:0.00036742937 18:-0.00036742937 19:-0.00036742937 20:0.0091857342 21:0.002204576 22:0.006246299 23:0.002204576 24:0.00036742937 25:0.0014697175 26:0.001102288 28:0.14182773 29:0.17296003 30:0.0091857342 31:-0.00036742937 32:-0.00036742937 33:0.97405523 #
700 3:0.011821093 4:-0.02897563 8:0.0005798933 11:-0.00019329776 12:-0.00019329776 13:-0.00019329776 14:-0.00019329776 15:-0.00019329776 16:-0.00019329776 17:0.0005798933 18:-0.00019329776 19:-0.00019329776 20:0.0023195732 21:0.0005798933 22:0.0015463821 23:0.0005798933 24:0.00038659552 25:0.0005798933 26:0.00038659552 28:0.14835216 29:0.17453241 30:0.067654215 31:-0.00019329776 32:-0.00019329776 33:0.97054803 #
-1000 3:0.0066460092 4:-0.023069182 8:0.00039107609 11:-0.00019553804 12:-0.00019553804 13:-0.00019553804 14:-0.00019553804 15:-0.00019553804 16:-0.00019553804 17:0.00058661413 18:-0.00019553804 19:-0.00019553804 20:0.0050839894 21:0.00019553804 22:0.00097769022 23:0.0013687663 24:0.00058661413 25:0.00058661413 26:0.00019553804 28:0.18129897 29:0.2132929 30:0.0021509186 31:-0.00019553804 32:-0.00019553804 33:0.95970076 #
700 3:0.007649106 4:-0.02653439 8:0.00067300128 11:-0.00022433377 12:0.00022433377 13:-0.00022433377 14:-0.00022433377 15:-0.00022433377 16:-0.00022433377 17:0.00044866753 18:-0.00022433377 19:-0.00022433377 20:0.003813674 21:0.0013460026 24:0.00022433377 25:0.00067300128 26:0.00067300128 28:0.10345825 29:0.12171452 30:0.026920052 31:-0.00022433377 32:-0.00022433377 33:0.9863956 #
700 3:0.0078573646 4:-0.020304561 8:0.00046800065 11:-0.00023400033 12:-0.00023400033 13:-0.00023400033 14:-0.00023400033 15:-0.00023400033 16:-0.00023400033 17:0.00046800065 18:-0.00023400033 19:-0.00023400033 20:0.0058500082 21:0.001404002 24:0.00046800065 25:0.00093600131 26:0.00046800065 28:0.05115715 29:0.060184885 30:0.0046800068 31:-0.00023400033 32:-0.00023400033 33:0.99660742 #
700 3:0.021391274 4:-0.044877395 8:0.0015362478 11:-0.0005120826 12:-0.0005120826 13:0.0005120826 14:-0.0005120826 15:-0.0005120826 16:-0.0005120826 17:0.0015362478 18:-0.0005120826 19:-0.0005120826 20:0.012802064 21:0.0030724956 22:0.0087054037 23:0.0030724956 24:0.0005120826 25:0.0020483304 26:0.0015362478 28:0.19420731 29:0.23683819 30:0.011777899 31:-0.0005120826 32:-0.0005120826 33:0.95042527 #
700 3:0.0089762807 4:-0.021016108 8:0.00025796719 11:-0.00025796719 12:-0.00025796719 13:-0.00025796719 14:-0.00025796719 15:-0.00025796719 16:-0.00025796719 17:0.00077390159 18:-0.00025796719 19:-0.00025796719 20:0.0033535734 21:0.00051593437 22:0.0018057703 23:0.0018057703 24:0.0015478032 25:0.00077390159 26:0.00025796719 28:0.046968088 29:0.053987373 30:0.015478032 31:-0.00025796719 32:-0.00025796719 33:0.99704319 #
700 3:0.0084722992 4:-0.019545477 8:0.0002413255 11:-0.0002413255 12:-0.0002413255 13:-0.0002413255 14:-0.0002413255 15:-0.0002413255 16:-0.0002413255 17:0.00072397653 18:-0.0002413255 19:-0.0002413255 20:0.0041025337 21:0.0014479531 22:0.0024132549 23:0.0012066275 24:0.0002413255 25:0.00072397653 26:0.00072397653 28:0.10089819 29:0.11870319 30:0.023649899 31:0.0002413255 32:0.0002413255 33:0.98726261 #
-1000 3:0.0074200667 4:-0.019458834 8:0.00022030793 11:-0.00022030793 12:-0.00022030793 13:-0.00022030793 14:-0.00022030793 15:-0.00022030793 16:-0.00022030793 17:0.00066092378 18:-0.00022030793 19:-0.00022030793 20:0.0055076983 21:0.0013218476 24:0.00066092378 25:0.00066092378 26:0.00044061587 28:0.098541535 29:0.11593044 30:0.0088123176 31:-0.00022030793 32:-0.00022030793 33:0.9880811 #
700 3:0.0093600266 4:-0.019721085 8:0.00044949204 11:-0.00022474602 12:-0.00022474602 13:-0.00022474602 14:-0.00022474602 15:-0.00022474602 16:-0.00022474602 17:0.00044949204 18:-0.00022474602 19:-0.00022474602 20:0.0038206822 21:0.001348476 22:0.0020227141 23:0.0015732221 24:0.001348476 25:0.00089898409 26:0.00067423802 28:0.098771378 29:0.11620268 30:0.011237301 31:-0.00022474602 32:0.00022474602 33:0.98798347 #
88.293829721747897565364837646484 3:0.0079838336 4:-0.021166148 8:0.00045918344 11:-0.00022959172 12:-0.00022959172 13:-0.00022959172 14:-0.00022959172 15:-0.00022959172 16:-0.00022959172 17:0.00068877515 18:-0.00022959172 19:-0.00022959172 20:0.0057397932 21:0.0013775503 22:0.0039030593 23:0.0013775503 24:0.00045918344 25:0.00091836689 26:0.00022959172 28:0.034321666 29:0.040378295 30:0.0096428525 31:-0.00022959172 32:-0.00022959172 33:0.99826479 #
-1000 3:0.0070388247 4:-0.024567645 8:0.00041619959 11:-0.00020809979 12:-0.00020809979 13:-0.00020809979 14:-0.00020809979 15:-0.00020809979 16:-0.00020809979 17:0.0006242994 18:-0.00020809979 19:-0.00020809979 20:0.0016647984 21:0.0006242994 24:0.0006242994 25:0.00041619959 26:0.0006242994 28:0.10489061 29:0.1234011 30:0.046822451 31:-0.00020809979 32:-0.00020809979 33:0.98535252 #
700 3:0.010802993 4:-0.01962149 8:0.00079675618 11:-0.00026558538 12:-0.00026558538 13:-0.00026558538 14:-0.00026558538 15:-0.00026558538 16:-0.00026558538 17:0.00053117075 18:-0.00026558538 19:-0.00026558538 20:0.0066396347 21:0.0015935124 22:0.00053117075 23:0.00079675618 24:0.00079675618 25:0.0010623415 26:0.00026558538 28:0.16525786 29:0.20153417 30:0.0055772932 31:-0.00026558538 32:-0.00026558538 33:0.9651373 #
700 3:0.01242387 4:-0.026936594 8:0.00093757355 11:-0.00031252453 12:-0.00031252453 13:-0.00031252453 14:-0.00031252453 15:-0.00031252453 16:-0.00031252453 17:0.00093757355 18:-0.00031252453 19:-0.00031252453 20:0.0078131128 21:0.0018751471 22:0.0053129168 23:0.0018751471 24:0.00093757355 25:0.0012500981 26:0.00031252453 28:0.10719591 29:0.13072588 30:0.0078131128 31:0.00031252453 32:-0.00031252453 33:0.98507726 #
700 3:0.011543536 4:-0.024334321 11:-0.00027855049 12:-0.00027855049 13:-0.00027855049 14:-0.00027855049 15:-0.00027855049 16:-0.00027855049 17:0.00027855049 18:-0.00027855049 19:-0.00027855049 20:0.0072423127 21:0.00027855049 22:0.0066852118 23:0.001114202 24:0.00055710098 25:0.00083565147 26:0.00083565147 28:0.12642014 29:0.15417212 30:0.02785505 31:-0.00027855049 32:-0.00027855049 33:0.979105 #
700 3:0.0080374843 4:-0.024130516 11:-0.00021329497 12:-0.00021329497 13:-0.00021329497 14:-0.00021329497 15:-0.00021329497 16:-0.00021329497 17:0.00063988491 18:-0.00021329497 19:-0.00021329497 20:0.0036260146 21:0.0012797698 24:0.00042658995 25:0.00063988491 26:0.00042658995 28:0.05462271 29:0.064261511 30:0.0057589645 31:-0.00021329497 32:-0.00021329497 33:0.99608749 #
-1000 3:0.0090922182 4:-0.017063431 8:0.00045597393 11:-0.00022798697 12:-0.00022798697 13:-0.00022798697 14:-0.00022798697 15:-0.00022798697 16:-0.00022798697 17:0.00045597393 18:-0.00022798697 19:-0.00022798697 20:0.0018238957 21:0.00068396091 22:0.004559739 23:0.0015959088 24:0.00068396091 25:0.00022798697 26:0.00045597393 28:0.10061064 29:0.11836627 30:0.0056996741 31:-0.00022798697 32:-0.00022798697 33:0.98763949 #
700 3:0.0095406137 4:-0.018854097 8:0.00073436752 11:-0.00024478917 12:-0.00024478917 13:-0.00024478917 14:-0.00024478917 15:-0.00024478917 16:-0.00024478917 17:0.00048957835 18:-0.00024478917 19:-0.00024478917 20:0.0063645183 21:0.00024478917 24:0.00048957835 25:0.0009791567 26:0.00073436752 28:0.10792265 29:0.12696725 30:0.0026926808 31:-0.00024478917 32:-0.00024478917 33:0.98576599 #
-1000 3:0.0068834834 4:-0.02402281 8:0.00060923572 11:-0.00020307857 12:0.00020307857 13:-0.00020307857 14:-0.00020307857 15:-0.00020307857 16:-0.00020307857 17:0.00060923572 18:-0.00020307857 19:-0.00020307857 20:0.0034523357 21:0.0012184714 22:0.0016246286 23:0.00060923572 24:0.00060923572 25:0.00081231428 26:0.00020307857 28:0.12088049 29:0.14221187 30:0.0048738858 31:-0.00020307857 32:0.00020307857 33:0.98208797 #
700 3:0.013083937 4:-0.025371868 11:-0.00032852581 12:-0.00032852581 13:-0.00032852581 14:-0.00032852581 15:-0.00032852581 16:-0.00032852581 17:0.00098557747 18:-0.00032852581 19:-0.00032852581 20:0.0055849389 21:0.0019711549 22:0.0082131457 23:0.0019711549 24:0.00032852581 25:0.00098557747 26:0.00098557747 28:0.090016074 29:0.10977691 30:0.065705165 31:-0.00032852581 32:-0.00032852581 33:0.98722011 #
700 3:0.013597109 4:-0.028511867 8:0.00097587326 11:-0.00032529107 12:-0.00032529107 13:0.00032529107 14:-0.00032529107 15:-0.00032529107 16:-0.00032529107 17:0.00065058214 18:-0.00032529107 19:-0.00032529107 20:0.0055299485 21:0.0019517465 22:0.0032529107 23:0.0016264553 24:0.00097587326 25:0.0013011643 26:0.00065058214 28:0.21566799 29:0.26301086 30:0.010084024 31:-0.00032529107 32:-0.00032529107 33:0.93976593 #
700 3:0.0072358833 4:-0.015878307 11:-0.00020604431 12:-0.00020604431 13:-0.00020604431 14:-0.00020604431 15:-0.00020604431 16:-0.00020604431 17:0.00041208862 18:-0.00020604431 19:-0.00020604431 20:0.0051511079 21:0.0012362659 22:0.0018543989 23:0.0014423102 24:0.00020604431 25:0.00082417723 26:0.00041208862 28:0.071233638 29:0.083804406 30:0.0045329751 31:-0.00020604431 32:-0.00020604431 33:0.9937517 #
700 3:0.0075387252 4:-0.020726491 11:-0.00021344803 12:-0.00021344803 13:-0.00021344803 14:-0.00021344803 15:-0.00021344803 16:-0.00021344803 17:0.00064034411 18:-0.00021344803 19:-0.00021344803 20:0.0017075842 21:0.00064034411 22:0.00021344803 23:0.00085379212 24:0.00064034411 25:0.00064034411 26:0.00042689606 28:0.095088959 29:0.11187024 30:0.0042689606 31:0.00021344803 32:-0.00021344803 33:0.98890471 #
-1000 3:0.007180376 4:-0.022937432 8:0.00059768028 11:0.00019922676 12:-0.00019922676 13:-0.00019922676 14:-0.00019922676 15:-0.00019922676 16:-0.00019922676 17:0.00039845353 18:-0.00019922676 19:-0.00019922676 20:0.0013945873 21:0.0013945873 22:0.0015938141 23:0.00059768028 24:0.00059768028 25:0.00059768028 26:0.00019922676 28:0.095507316 29:0.1123619 30:0.0039845351 31:-0.00019922676 32:-0.00019922676 33:0.98876244 #
-1000 3:0.011564664 4:-0.020914387 8:0.00056823716 11:-0.00028411858 12:-0.00028411858 13:-0.00028411858 14:-0.00028411858 15:-0.00028411858 16:-0.00028411858 17:0.00056823716 18:-0.00028411858 19:-0.00028411858 20:0.007387083 21:0.00028411858 22:0.007387083 23:0.00028411858 24:0.00056823716 25:0.0011364743 26:0.00056823716 28:0.17530686 29:0.21378787 30:0.010796506 31:-0.00028411858 32:-0.00028411858 33:0.96060497 #
-1000 3:0.007396956 4:-0.022267578 8:0.00024099974 11:-0.00024099974 12:-0.00024099974 13:-0.00024099974 14:-0.00024099974 15:-0.00024099974 16:-0.00024099974 17:0.00072299922 18:-0.00024099974 19:-0.00024099974 20:0.0019279979 21:0.00072299922 24:0.00048199948 25:0.00096399896 26:0.00048199948 28:0.10211882 29:0.12014078 30:0.012049987 31:-0.00024099974 32:-0.00024099974 33:0.98713493 #
700 3:0.0085179899 4:-0.018895226 8:0.00047138144 11:-0.00023569072 12:-0.00023569072 13:-0.00023569072 14:-0.00023569072 15:-0.00023569072 16:-0.00023569072 17:0.00070707215 18:-0.00023569072 19:-0.00023569072 20:0.0040067425 21:0.0014141443 24:0.0014141443 25:0.00094276288 26:0.00047138144 28:0.055908196 29:0.06577421 30:0.0047138147 31:0.00023569072 32:-0.00023569072 33:0.99602902 #
-1000 3:0.0096310684 4:-0.016671095 11:-0.00023088155 12:-0.00023088155 13:-0.00023088155 14:-0.00023088155 15:-0.00023088155 16:-0.00023088155 17:0.00069264462 18:-0.00023088155 19:-0.00023088155 20:0.0039249863 21:0.0013852892 22:0.0020779339 23:0.0016161709 24:0.00023088155 25:0.00092352618 26:0.00046176309 28:0.089979157 29:0.10585688 30:0.012698486 31:-0.00023088155 32:-0.00023088155 33:0.9900201 #
700 3:0.010203554 4:-0.030002898 8:0.00093028258 11:-0.00031009418 12:-0.00031009418 13:-0.00031009418 14:-0.00031009418 15:-0.00031009418 16:-0.00031009418 17:0.00093028258 18:-0.00031009418 19:-0.00031009418 20:0.0027908478 21:0.0021706594 24:0.00062018837 25:0.0012403767 26:0.00031009418 28:0.11876608 29:0.1448357 30:0.0068220724 31:0.00031009418 32:-0.00031009418 33:0.98175824 #
-1000 3:0.0073203202 4:-0.01808529 8:0.00043056873 11:-0.00021528437 12:-0.00021528437 13:-0.00021528437 14:-0.00021528437 15:-0.00021528437 16:-0.00021528437 17:0.00064585311 18:-0.00021528437 19:-0.00021528437 20:0.0055973935 21:0.00021528437 22:0.0053821094 23:0.0012917062 24:0.00021528437 25:0.00064585311 26:0.00064585311 28:0.10708029 29:0.1259758 30:0.0043056873 31:0.00021528437 32:-0.00021528437 33:0.98600239 #
700 3:0.0078580389 4:-0.027268765 8:0.00024496872 11:-0.00024496872 12:-0.00024496872 13:-0.00024496872 14:-0.00024496872 15:-0.00024496872 16:-0.00024496872 17:0.00048993743 18:-0.00024496872 19:-0.00024496872 20:0.0039194995 21:0.0012248436 24:0.00073490612 25:0.00097987487 26:0.00073490612 28:0.095540248 29:0.11240144 30:0.036745306 31:-0.00024496872 32:-0.00024496872 33:0.98795879 #
700 3:0.0091754114 4:-0.029660489 8:0.0004870774 11:-0.0002435387 12:-0.0002435387 13:-0.0002435387 14:-0.0002435387 15:-0.0002435387 16:-0.0002435387 17:0.0002435387 18:-0.0002435387 19:-0.0002435387 20:0.0065755448 21:0.0012176934 22:0.0043836967 23:0.0012176934 24:0.0007306161 25:0.0004870774 26:0.0009741548 28:0.17984115 29:0.21157667 30:0.10228625 31:-0.0002435387 32:-0.0002435387 33:0.95467168 #
700 3:0.0067358799 4:-0.024185879 8:0.00041313143 11:-0.00020656572 12:-0.00020656572 13:0.00020656572 14:-0.00020656572 15:-0.00020656572 16:-0.00020656572 17:0.00041313143 18:-0.00020656572 19:-0.00020656572 20:0.0051641432 21:0.0012393943 22:0.0035116172 23:0.0012393943 24:0.00020656572 25:0.00082626287 26:0.00041313143 28:0.030832 29:0.036272939 30:0.14459601 31:-0.00020656572 32:-0.00020656572 33:0.98800385 #
700 3:0.0095794853 4:-0.02211359 8:0.00026748099 11:-0.00026748099 12:-0.00026748099 13:-0.00026748099 14:-0.00026748099 15:-0.00026748099 16:-0.00026748099 17:0.00053496199 18:-0.00026748099 19:-0.00026748099 20:0.00080244301 21:0.00080244301 22:0.0058845822 23:0.001872367 24:0.00080244301 25:0.00080244301 26:0.001069924 28:0.11853421 29:0.14455476 30:0.01604886 31:0.00026748099 32:-0.00026748099 33:0.98192275 #
-1000 3:0.008055442 4:-0.019511484 8:0.00061865308 11:-0.00020621769 12:-0.00020621769 13:-0.00020621769 14:-0.00020621769 15:-0.00020621769 16:-0.00020621769 17:0.00061865308 18:-0.00020621769 19:-0.00020621769 20:0.0016497415 21:0.00061865308 24:0.00041243539 25:0.00082487077 26:0.00061865308 28:0.09425386 29:0.11088738 30:0.014435239 31:-0.00020621769 32:-0.00020621769 33:0.98902005 #
-1000 3:0.007140846 4:-0.018929148 8:0.00059247698 11:-0.00019749234 12:-0.00019749234 13:-0.00019749234 14:-0.00019749234 15:-0.00019749234 16:-0.00019749234 17:0.00059247698 18:-0.00019749234 19:-0.00019749234 20:0.0033573697 21:0.001184954 24:0.00019749234 25:0.00078996934 26:0.00019749234 28:0.081597909 29:0.095997073 30:0.0047398158 31:0.00019749234 32:-0.00019749234 33:0.99180651 #
-1000 3:0.0080432193 4:-0.018292742 11:-0.00022932871 12:-0.00022932871 13:-0.00022932871 14:-0.00022932871 15:-0.00022932871 16:-0.00022932871 17:0.00045865742 18:-0.00022932871 19:-0.00022932871 20:0.0059625464 21:0.00022932871 22:0.0038985882 23:0.0013759723 24:0.00022932871 25:0.00091731484 26:0.00091731484 28:0.21038845 29:0.24751678 30:0.0022932871 31:-0.00022932871 32:-0.00022932871 33:0.94552231 #
700 3:0.0083812317 4:-0.029157367 8:0.00073913444 11:-0.00024637816 12:-0.00024637816 13:-0.00024637816 14:-0.00024637816 15:-0.00024637816 16:-0.00024637816 17:0.00049275631 18:-0.00024637816 19:-0.00024637816 20:0.0041884286 21:0.0014782689 22:0.0064058318 23:0.00024637816 24:0.0014782689 25:0.00098551263 26:0.00024637816 28:0.15282097 29:0.17978953 30:0.007884101 31:-0.00024637816 32:0.00024637816 33:0.9712227 #
700 3:0.0091278572 4:-0.029398393 8:0.00073714514 11:0.00024571505 12:-0.00024571505 13:-0.00024571505 14:-0.00024571505 15:-0.00024571505 16:-0.00024571505 17:0.00049143011 18:0.00024571505 19:-0.00024571505 20:0.0061428761 21:0.0014742903 24:0.00073714514 25:0.00098286022 26:0.00098286022 28:0.145768 29:0.17149191 30:0.024571504 31:-0.00024571505 32:-0.00024571505 33:0.97352302 #
-1000 3:0.013362247 4:-0.029873256 8:0.00036908194 11:-0.00036908194 12:-0.00036908194 13:-0.00036908194 14:-0.00036908194 15:-0.00036908194 16:-0.00036908194 17:0.0011072458 18:-0.00036908194 19:-0.00036908194 20:0.0044289832 21:0.0011072458 22:0.0062743933 23:0.0022144916 24:0.00036908194 25:0.0011072458 26:0.00073816389 28:0.12844051 29:0.15663469 30:0.022144917 31:-0.00036908194 32:-0.00036908194 33:0.97843623 #
700 3:0.011415164 4:-0.020734383 8:0.00084109645 11:-0.00028036549 12:-0.00028036549 13:-0.00028036549 14:-0.00028036549 15:-0.00028036549 16:-0.00028036549 17:0.00028036549 18:-0.00028036549 19:-0.00028036549 20:0.0044858479 21:0.0014018274 22:0.0028036549 23:0.0014018274 24:0.00028036549 25:0.001121462 26:0.001121462 28:0.13720806 29:0.16732773 30:0.0098127918 31:0.00028036549 32:-0.00028036549 33:0.97595227 #
-1000 3:0.011703692 4:-0.024593266 11:-0.00032252152 12:-0.00032252152 13:-0.00032252152 14:-0.00032252152 15:-0.00032252152 16:-0.00032252152 17:0.00096756459 18:-0.00032252152 19:-0.00032252152 20:0.0080630379 21:0.0019351292 22:0.00032252152 23:0.0012900861 24:0.00096756459 25:0.00096756459 26:0.0012900861 28:0.19706066 29:0.24031724 30:0.032252152 31:-0.00032252152 32:-0.00032252152 33:0.94950336 #
-1000 3:0.010289166 4:-0.018649632 11:-0.00025221155 12:-0.00025221155 13:-0.00025221155 14:-0.00025221155 15:-0.00025221155 16:-0.00025221155 17:0.00050442311 18:-0.00025221155 19:-0.00025221155 20:0.0015132693 21:0.0010088462 24:0.00050442311 25:0.0010088462 26:0.00025221155 28:0.093050927 29:0.10947242 30:0.037831731 31:-0.00025221155 32:-0.00025221155 33:0.98866922 #
700 3:0.011362521 4:-0.023469647 8:0.00050290429 11:-0.00025145215 12:-0.00025145215 13:-0.00025145215 14:-0.00025145215 15:-0.00025145215 16:-0.00025145215 17:0.00025145215 18:-0.00025145215 19:-0.00025145215 20:0.0057833996 21:0.0015087129 22:0.0042746863 23:0.0015087129 24:0.0015087129 25:0.00050290429 26:0.00025145215 28:0.10649502 29:0.12528855 30:0.025145216 31:-0.00025145215 32:-0.00025145215 33:0.98569244 #
700 3:0.012437947 4:-0.02261471 8:0.00091728504 11:-0.00030576167 12:-0.00030576167 13:-0.00030576167 14:-0.00030576167 15:-0.00030576167 16:-0.00030576167 17:0.00061152334 18:-0.00030576167 19:0.00030576167 20:0.0012230467 21:0.00061152334 22:0.0061152335 23:0.0021403318 24:0.0012230467 25:0.0012230467 26:0.0012230467 28:0.3983402 29:0.48578191 30:0.0061152335 31:-0.00030576167 32:-0.00030576167 33:0.77755195 #
700 3:0.0080788499 4:-0.021170838 11:-0.00023037488 12:-0.00023037488 13:-0.00023037488 14:-0.00023037488 15:-0.00023037488 16:-0.00023037488 17:0.00069112465 18:-0.00023037488 19:-0.00023037488 20:0.0027644986 21:0.00069112465 22:0.00046074975 23:0.00069112465 24:0.00046074975 25:0.00069112465 26:0.00069112465 28:0.090219408 29:0.10614061 30:0.057593718 31:0.00023037488 32:-0.00023037488 33:0.98830819 #
-1000 3:0.0085135307 4:-0.019489622 8:0.00072303164 11:-0.00024101055 12:0.00024101055 13:-0.00024101055 14:-0.00024101055 15:-0.00024101055 16:-0.00024101055 17:0.0004820211 18:-0.00024101055 19:-0.00024101055 20:0.0040971795 21:0.0014460633 22:0.0019280844 23:0.00072303164 24:0.00072303164 25:0.00096404221 26:0.0004820211 28:0.099867545 29:0.11749023 30:0.096404217 31:0.00024101055 32:0.00024101055 33:0.98308206 #
-1000 3:0.0087458901 4:-0.020310668 11:-0.00021327149 12:-0.00021327149 13:-0.00021327149 14:-0.00021327149 15:-0.00021327149 16:-0.00021327149 17:0.00063981448 18:-0.00021327149 19:-0.00021327149 20:0.0036256153 21:0.001279629 22:0.0017061719 23:0.00063981448 24:0.00063981448 25:0.00063981448 26:0.00042654297 28:0.10378644 29:0.12210219 30:0.0046919729 31:-0.00021327149 32:-0.00021327149 33:0.98680717 #
-1000 3:0.0097078811 4:-0.023144003 8:0.00025299427 11:-0.00025299427 12:-0.00025299427 13:-0.00025299427 14:-0.00025299427 15:-0.00025299427 16:-0.00025299427 17:0.00075898279 18:-0.00025299427 19:-0.00025299427 20:0.0060718623 21:0.0010119771 22:0.00025299427 23:0.0010119771 24:0.00075898279 25:0.00075898279 26:0.0010119771 28:0.11015117 29:0.12958872 30:0.018974569 31:-0.00025299427 32:0.00025299427 33:0.98490667 #
700 3:0.011561351 4:-0.031371631 11:-0.00025515762 12:-0.00025515762 13:-0.00025515762 14:-0.00025515762 15:-0.00025515762 16:-0.00025515762 17:0.00076547288 18:-0.00025515762 19:-0.00025515762 20:0.0043376796 21:0.0015309458 22:0.0017861034 23:0.0017861034 24:0.00076547288 25:0.00076547288 26:0.00025515762 28:0.10000138 29:0.11494341 30:0.0076547288 31:-0.00025515762 32:-0.00025515762 33:0.98771518 #
700 3:0.0084216204 4:-0.020481009 8:0.00021822157 11:-0.00021822157 12:-0.00021822157 13:-0.00021822157 14:-0.00021822157 15:-0.00021822157 16:-0.00021822157 17:0.00065466471 18:-0.00021822157 19:-0.00021822157 20:0.0010911078 21:0.001527551 24:0.00043644314 25:0.00065466471 26:0.00043644314 28:0.088838004 29:0.10451504 30:0.0039279885 31:-0.00021822157 32:-0.00021822157 33:0.99028951 #
700 3:0.011091588 4:-0.022906231 8:0.00088707614 11:-0.00029569207 12:-0.00029569207 13:-0.00029569207 14:-0.00029569207 15:-0.00029569207 16:-0.00029569207 17:0.00088707614 18:-0.00029569207 19:-0.00029569207 20:0.0050267652 21:0.0017741523 22:0.004731073 23:0.0014784603 24:0.00088707614 25:0.0011827683 26:0.00059138413 28:0.040805504 29:0.049762014 30:0.096099921 31:-0.00029569207 32:-0.00029569207 33:0.99293393 #
700 3:0.011280089 4:-0.033229697 11:-0.00036711351 12:-0.00036711351 13:-0.00036711351 14:-0.00036711351 15:-0.00036711351 16:-0.00036711351 17:0.0011013405 18:-0.00036711351 19:-0.00036711351 20:0.0011013405 21:0.0011013405 22:0.0058738161 23:0.0018355676 24:0.00073422701 25:0.001468454 26:0.00073422701 28:0.20135809 29:0.24555856 30:0.0091778375 31:-0.00036711351 32:-0.00036711351 33:0.94752002 #
700 3:0.0092964778 4:-0.022190234 8:0.00025846926 11:-0.00025846926 12:-0.00025846926 13:-0.00025846926 14:-0.00025846926 15:-0.00025846926 16:-0.00025846926 17:0.00077540777 18:-0.00025846926 19:-0.00025846926 20:0.0043939771 21:0.0015508155 22:0.0059447926 23:0.0015508155 24:0.00025846926 25:0.00077540777 26:0.00077540777 28:0.10642213 29:0.12232316 30:0.042130489 31:-0.00025846926 32:0.00025846926 33:0.98554325 #
700 3:0.0064788582 4:-0.020794217 8:0.00065449043 11:-0.00021816348 12:-0.00021816348 13:-0.00021816348 14:-0.00021816348 15:-0.00021816348 16:-0.00021816348 17:0.00021816348 18:-0.00021816348 19:-0.00021816348 20:0.0017453078 21:0.00065449043 24:0.00043632695 25:0.00065449043 26:0.00043632695 28:0.083809681 29:0.098598987 30:0.0054540872 31:-0.00021816348 32:-0.00021816348 33:0.99133486 #
700 3:0.011455103 4:-0.019908074 8:0.00054799824 11:-0.00027399912 12:0.00027399912 13:-0.00027399912 14:-0.00027399912 15:-0.00027399912 16:-0.00027399912 17:0.00082199735 18:-0.00027399912 19:-0.00027399912 20:0.0043839859 21:0.0013699955 24:0.00082199735 25:0.0010959965 26:0.0010959965 28:0.10407308 29:0.12691914 30:0.041099865 31:-0.00027399912 32:-0.00027399912 33:0.98530078 #
-1000 3:0.0092741698 4:-0.02129272 8:0.00079088536 11:-0.00026362846 12:-0.00026362846 13:-0.00026362846 14:-0.00026362846 15:-0.00026362846 16:-0.00026362846 17:0.00052725693 18:-0.00026362846 19:-0.00026362846 20:0.0065907114 21:0.0015817707 22:0.0060634543 23:0.0015817707 24:0.00079088536 25:0.0010545139 26:0.00079088536 28:0.098615497 29:0.12026203 30:0.021090277 31:0.00026362846 32:-0.00026362846 33:0.98728853 #
700 3:0.0095358053 4:-0.018586593 8:0.00072823267 11:0.00024274422 12:-0.00024274422 13:-0.00024274422 14:0.00024274422 15:-0.00024274422 16:-0.00024274422 17:0.00048548845 18:0.00024274422 19:-0.00024274422 20:0.0019419538 21:0.00072823267 24:0.00072823267 25:0.00097097689 26:0.00072823267 28:0.15492907 29:0.18226935 30:0.02184698 31:-0.00024274422 32:-0.00024274422 33:0.97049141 #
-1000 3:0.0087047089 4:-0.017399622 8:0.00045040218 11:-0.00022520109 12:-0.00022520109 13:-0.00022520109 14:-0.00022520109 15:-0.00022520109 16:-0.00022520109 17:0.00045040218 18:-0.00022520109 19:-0.00022520109 20:0.0036032174 21:0.0011260054 22:0.0022520109 23:0.0011260054 24:0.00067560328 25:0.00090080436 26:0.00067560328 28:0.10201384 29:0.12001642 30:0.02252011 31:-0.00022520109 32:-0.00022520109 33:0.98705637 #
700 3:0.010390374 4:-0.027927198 8:0.00028619001 11:-0.00028619001 12:-0.00028619001 13:-0.00028619001 14:-0.00028619001 15:-0.00028619001 16:-0.00028619001 17:0.0008585701 18:-0.00028619001 19:-0.00028619001 20:0.0048652305 21:0.0017171402 22:0.0022895201 23:0.0008585701 24:0.0008585701 25:0.0011447601 26:0.00028619001 28:0.13365074 29:0.16298808 30:0.0040066605 31:-0.00028619001 32:-0.00028619001 33:0.97705275 #
700 3:0.0084728021 4:-0.027258359 8:0.00044592869 11:-0.00022296434 12:-0.00022296434 13:-0.00022296434 14:-0.00022296434 15:-0.00022296434 16:-0.00022296434 17:0.00022296434 18:-0.00022296434 19:-0.00022296434 20:0.00066889304 21:0.00066889304 22:0.0017837147 23:0.00066889304 24:0.00066889304 25:0.00066889304 26:0.00089185737 28:0.15301821 29:0.18002141 30:0.042363226 31:-0.00022296434 32:-0.00022296434 33:0.97034085 #
700 3:0.0074968962 4:-0.025922425 8:0.00043965742 11:-0.00021982871 12:-0.00021982871 13:-0.00021982871 14:-0.00021982871 15:-0.00021982871 16:-0.00021982871 17:0.0006594861 18:-0.00021982871 19:-0.00021982871 20:0.0021982871 21:0.0010991435 22:0.0035172594 23:0.0010991435 24:0.00043965742 25:0.00087931484 26:0.00021982871 28:0.098760247 29:0.11618827 30:0.0054957177 31:0.00021982871 32:-0.00021982871 33:0.98791021 #
700 3:0.0072735962 4:-0.020974565 8:0.0002391858 11:-0.0002391858 12:-0.0002391858 13:-0.0002391858 14:-0.0002391858 15:-0.0002391858 16:-0.0002391858 17:0.00071755738 18:-0.0002391858 19:-0.0002391858 20:0.0040661586 21:0.0014351148 24:0.0004783716 25:0.0009567432 26:0.0002391858 28:0.039286267 29:0.046220262 30:0.0059796451 31:-0.0002391858 32:-0.0002391858 33:0.99788314 #
-1000 3:0.013183833 4:-0.02532386 11:-0.00032020145 12:-0.00032020145 13:-0.00032020145 14:-0.00032020145 15:-0.00032020145 16:-0.00032020145 17:0.0006404029 18:-0.00032020145 19:-0.00032020145 20:0.0038424174 21:0.00096060435 22:0.0038424174 23:0.00096060435 24:0.00096060435 25:0.00096060435 26:0.0012808058 28:0.15625831 29:0.19055828 30:0.080050364 31:-0.00032020145 32:-0.00032020145 33:0.96540737 #
700 3:0.012382998 4:-0.039972384 8:0.00065367209 11:-0.00032683605 12:-0.00032683605 13:-0.00032683605 14:-0.00032683605 15:-0.00032683605 16:-0.00032683605 17:0.00098050816 18:0.00032683605 19:-0.00032683605 20:0.0078440653 21:0.0013073442 24:0.00065367209 25:0.00065367209 26:0.00065367209 28:0.15132509 29:0.18454143 30:0.029415244 31:-0.00032683605 32:-0.00032683605 33:0.96972257 #
-1000 3:0.010186612 4:-0.018522289 8:0.00075193227 11:-0.00025064408 12:-0.00025064408 13:-0.00025064408 14:-0.00025064408 15:-0.00025064408 16:-0.00025064408 17:0.00050128816 18:-0.00025064408 19:-0.00025064408 20:0.0042609493 21:0.0015038645 22:0.0062661022 23:0.0015038645 24:0.00025064408 25:0.0010025763 26:0.0010025763 28:0.11053153 29:0.13003665 30:0.032583732 31:-0.00025064408 32:-0.00025064408 33:0.98452997 #
700 3:0.012967681 4:-0.028056644 8:0.00097748288 11:-0.00032582763 12:-0.00032582763 13:-0.00032582763 14:-0.00032582763 15:-0.00032582763 16:-0.00032582763 17:0.00097748288 18:-0.00032582763 19:-0.00032582763 20:0.0055390699 21:0.0019549658 24:0.00097748288 25:0.0013033105 26:0.00065165525 28:0.083086044 29:0.10132588 30:0.0081456909 31:-0.00032582763 32:-0.00032582763 33:0.99084181 #
700 3:0.0097043552 4:-0.017608887 8:0.00071401487 11:-0.00023800496 12:-0.00023800496 13:-0.00023800496 14:-0.00023800496 15:-0.00023800496 16:-0.00023800496 17:0.00047600991 18:-0.00023800496 19:-0.00023800496 20:0.005950124 21:0.0014280297 22:0.0040460844 23:0.0014280297 24:0.00023800496 25:0.00095201982 26:0.00095201982 28:0.12719223 29:0.14963847 30:0.019040396 31:-0.00023800496 32:0.00023800496 33:0.98010439 #
-1000 3:0.011053499 4:-0.025926512 11:-0.00028052338 12:-0.00028052338 13:-0.00028052338 14:-0.00028052338 15:-0.00028052338 16:-0.00028052338 17:0.0008415702 18:-0.00028052338 19:-0.00028052338 20:0.0008415702 21:0.0008415702 24:0.00056104676 25:0.0011220935 26:0.00056104676 28:0.12376972 29:0.15093842 30:0.020197684 31:-0.00028052338 32:-0.00028052338 33:0.98014873 #
700 3:0.012950337 4:-0.02232537 8:0.00092302274 11:-0.00030767426 12:-0.00030767426 13:-0.00030767426 14:-0.00030767426 15:-0.00030767426 16:-0.00030767426 17:0.00061534852 18:-0.00030767426 19:-0.00030767426 20:0.0052304622 21:0.0018460455 22:0.0079995301 23:0.00030767426 24:0.00092302274 25:0.001230697 26:0.00030767426 28:0.12983853 29:0.1583384 30:0.0055381367 31:-0.00030767426 32:-0.00030767426 33:0.9784041 #
700 3:0.0082266545 4:-0.018035788 8:0.00022802802 11:-0.00022802802 12:-0.00022802802 13:-0.00022802802 14:-0.00022802802 15:-0.00022802802 16:-0.00022802802 17:0.00045605603 18:-0.00022802802 19:-0.00022802802 20:0.0018242241 21:0.00068408402 22:0.0059287283 23:0.00022802802 24:0.00068408402 25:0.00045605603 26:0.00022802802 28:0.092960179 29:0.10936452 30:0.0050166161 31:-0.00022802802 32:-0.00022802802 33:0.98941356 #
700 3:0.0089850035 4:-0.024896916 11:-0.00022168514 12:0.00022168514 13:-0.00022168514 14:-0.00022168514 15:-0.00022168514 16:-0.00022168514 17:0.00022168514 18:-0.00022168514 19:-0.00022168514 20:0.0046553882 21:0.0013301108 24:0.00066505541 25:0.00066505541 26:0.00088674057 28:0.16792428 29:0.19755693 30:0.035469621 31:-0.00022168514 32:-0.00022168514 33:0.96477371 #
-1000 3:0.011364566 4:-0.036739632 11:-0.00032222894 12:-0.00032222894 13:-0.00032222894 14:-0.00032222894 15:-0.00032222894 16:-0.00032222894 17:0.00096668687 18:-0.00032222894 19:-0.00032222894 20:0.0080557242 21:0.0019333737 22:0.0054778922 23:0.0019333737 24:0.00064445788 25:0.0012889158 26:0.00032222894 28:0.14371412 29:0.17526032 30:0.007733495 31:-0.00032222894 32:-0.00032222894 33:0.97313142 #
-1000 3:0.0077887434 4:-0.018522397 8:0.00046071355 11:-0.00023035677 12:-0.00023035677 13:-0.00023035677 14:-0.00023035677 15:-0.00023035677 16:-0.00023035677 17:0.00069107034 18:-0.00023035677 19:-0.00023035677 20:0.0018428542 21:0.00069107034 22:0.0057589198 23:0.0013821407 24:0.00046071355 25:0.0009214271 26:0.00069107034 28:0.07807713 29:0.091854766 30:0.069107033 31:-0.00023035677 32:-0.00023035677 33:0.99007344 #
700 3:0.012641232 4:-0.029092759 8:0.0010794927 11:-0.00035983088 12:0.00035983088 13:-0.00035983088 14:-0.00035983088 15:-0.00035983088 16:-0.00035983088 17:0.00071966177 18:-0.00035983088 19:-0.00035983088 20:0.0093556037 21:0.00035983088 24:0.00071966177 25:0.0014393235 26:0.00071966177 28:0.090573035 29:0.1104537 30:0.0053974632 31:-0.00035983088 32:-0.00035983088 33:0.98917514 #
-1000 3:0.012684102 4:-0.026077854 8:0.00067436078 11:-0.00033718039 12:-0.00033718039 13:-0.00033718039 14:-0.00033718039 15:-0.00033718039 16:-0.00033718039 17:0.0010115411 18:-0.00033718039 19:-0.00033718039 20:0.0010115411 21:0.0010115411 22:0.00067436078 23:0.0010115411 24:0.00067436078 25:0.00067436078 26:0.0010115411 28:0.12172212 29:0.14844029 30:0.074179687 31:-0.00033718039 32:-0.00033718039 33:0.97816032 #
-1000 3:0.0073740082 4:-0.017491113 11:-0.00020744061 12:-0.00020744061 13:-0.00020744061 14:-0.00020744061 15:-0.00020744061 16:-0.00020744061 17:0.00062232179 18:-0.00020744061 19:-0.00020744061 20:0.0045636934 21:0.0014520842 22:0.00041488121 23:0.00062232179 24:0.00062232179 25:0.00082976243 26:0.00082976243 28:0.1740883 29:0.20481026 30:0.010372031 31:-0.00020744061 32:-0.00020744061 33:0.96293926 #
700 3:0.0064830952 4:-0.022598274 8:0.00057550205 11:0.00019183401 12:-0.00019183401 13:-0.00019183401 14:-0.00019183401 15:-0.00019183401 16:-0.00019183401 17:0.00038366803 18:-0.00019183401 19:-0.00019183401 20:0.004028514 21:0.0011510041 22:0.0046040164 23:0.00076733605 24:0.00057550205 25:0.00057550205 26:0.00057550205 28:0.15391611 29:0.18107788 30:0.057550203 31:0.00019183401 32:-0.00019183401 33:0.96933728 #
-1000 3:0.015504642 4:-0.033239175 8:0.00038475191 11:-0.00038475191 12:-0.00038475191 13:-0.00038475191 14:-0.00038475191 15:-0.00038475191 16:-0.00038475191 17:0.00076950382 18:-0.00038475191 19:-0.00038475191 20:0.0065407827 21:0.0023085116 24:0.00038475191 25:0.0011542558 26:0.0015390076 28:0.097803935 29:0.1192731 30:0.01000355 31:-0.00038475191 32:-0.00038475191 33:0.98727345 #
125.41677885944955050945281982422 3:0.0082267877 4:-0.019206328 8:0.00063870219 11:-0.00021290072 12:0.00021290072 13:-0.00021290072 14:-0.00021290072 15:-0.00021290072 16:-0.00021290072 17:0.00042580144 18:-0.00021290072 19:-0.00021290072 20:0.0017032058 21:0.00063870219 24:0.00021290072 25:0.00085160288 26:0.00063870219 28:0.10444058 29:0.1228714 30:0.038322132 31:-0.00021290072 32:-0.00021290072 33:0.98594326 #
700 3:0.012871204 4:-0.02424318 8:0.0009668523 11:-0.00032228409 12:-0.00032228409 13:-0.00032228409 14:-0.00032228409 15:-0.00032228409 16:-0.00032228409 17:0.0009668523 18:-0.00032228409 19:-0.00032228409 20:0.0054788296 21:0.0019337046 24:0.00032228409 25:0.0012891364 26:0.00032228409 28:0.1215011 29:0.14817333 30:0.0080571026 31:0.00032228409 32:-0.00032228409 33:0.98103279 #
-1000 3:0.008833468 4:-0.017464343 11:0.00022676987 12:-0.00022676987 13:-0.00022676987 14:-0.00022676987 15:-0.00022676987 16:-0.00022676987 17:0.00045353975 18:-0.00022676987 19:-0.00022676987 20:0.0006803096 21:0.0006803096 22:0.0058960165 23:0.00022676987 24:0.00022676987 25:0.00022676987 26:0.0006803096 28:0.11242116 29:0.13226126 30:0.019728979 31:-0.00022676987 32:-0.00022676987 33:0.98440802 #
700 3:0.0074743391 4:-0.014561638 8:0.0001931329 11:-0.0001931329 12:-0.0001931329 13:-0.0001931329 14:-0.0001931329 15:-0.0001931329 16:-0.0001931329 17:0.00057939871 18:-0.0001931329 19:-0.0001931329 20:0.0032832595 21:0.0011587974 22:0.0023175948 23:0.00057939871 24:0.0001931329 25:0.00077253161 26:0.0003862658 28:0.1345866 29:0.15833808 30:0.019313291 31:-0.0001931329 32:-0.0001931329 33:0.9778319 #
-1000 3:0.0088885287 4:-0.02075983 11:-0.00026322776 12:-0.00026322776 13:-0.00026322776 14:-0.00026322776 15:-0.00026322776 16:-0.00026322776 17:0.00078968325 18:-0.00026322776 19:-0.00026322776 20:0.0057910103 21:0.0018425942 22:0.00052645552 23:0.00078968325 24:0.00078968325 25:0.00052645552 26:0.001052911 28:0.11523058 29:0.1324483 30:0.031587329 31:0.00026322776 32:-0.00026322776 33:0.9836821 #
700 3:0.0073686237 4:-0.023846895 8:0.00058678171 11:-0.00019559391 12:-0.00019559391 13:-0.00019559391 14:-0.00019559391 15:-0.00019559391 16:-0.00019559391 17:0.00019559391 18:-0.00019559391 19:-0.00019559391 20:0.0015647513 21:0.00058678171 24:0.00058678171 25:0.00019559391 26:0.00078237563 28:0.1350752 29:0.15891223 30:0.031295024 31:-0.00019559391 32:-0.00019559391 33:0.97718716 #
700 3:0.0070530176 4:-0.019459736 8:0.00059846981 11:-0.00019948992 12:-0.00019948992 13:-0.00019948992 14:-0.00019948992 15:-0.00019948992 16:-0.00019948992 17:0.00059846981 18:-0.00019948992 19:-0.00019948992 20:0.0033913287 21:0.0011969396 24:0.00019948992 25:0.00039897984 26:0.00039897984 28:0.091611758 29:0.10777842 30:0.099744961 31:-0.00019948992 32:-0.00019948992 33:0.98468226 #
700 3:0.0080961129 4:-0.027306333 8:0.00068779563 11:-0.00022926521 12:-0.00022926521 13:-0.00022926521 14:-0.00022926521 15:-0.00022926521 16:-0.00022926521 17:0.00068779563 18:-0.00022926521 19:-0.00022926521 20:0.0027511825 21:0.00068779563 22:0.00068779563 23:0.00068779563 24:0.00045853041 25:0.00068779563 26:0.00068779563 28:0.11837192 29:0.13926028 30:0.025677703 31:0.00022926521 32:-0.00022926521 33:0.98240143 #
700 3:0.011364478 4:-0.026069997 8:0.00096834905 11:-0.00032278302 12:-0.00032278302 13:-0.00032278302 14:-0.00032278302 15:-0.00032278302 16:-0.00032278302 17:0.00096834905 18:-0.00032278302 19:-0.00032278302 20:0.0054873112 21:0.0019366981 22:0.0054873112 23:0.0019366981 24:0.00096834905 25:0.0012911321 26:0.00032278302 28:0.12782207 29:0.1558816 30:0.006132877 31:-0.00032278302 32:-0.00032278302 33:0.97900087 #
-1000 3:0.0063986825 4:-0.01880531 8:0.00068430451 11:-0.0002281015 12:-0.0002281015 13:-0.0002281015 14:-0.0002281015 15:-0.0002281015 16:-0.0002281015 17:0.00045620301 18:-0.0002281015 19:-0.0002281015 20:0.0059306393 21:0.0002281015 22:0.0038777257 23:0.001368609 24:0.001368609 25:0.00091240602 26:0.00045620301 28:0.13616748 29:0.16019797 30:0.0020529137 31:-0.0002281015 32:-0.0002281015 33:0.97741497 #
-1000 3:0.008777976 4:-0.019260852 8:0.00073204126 11:-0.00024401375 12:-0.00024401375 13:0.00024401375 14:-0.00024401375 15:-0.00024401375 16:-0.00024401375 17:0.00073204126 18:-0.00024401375 19:-0.00024401375 20:0.0048802751 21:0.0017080962 22:0.006100344 23:0.0014640825 24:0.00073204126 25:0.00073204126 26:0.00073204126 28:0.19812208 29:0.23308438 30:0.073204122 31:-0.00024401375 32:-0.00024401375 33:0.94896948 #
-1000 3:0.0080690114 4:-0.014639433 8:0.00059410284 11:-0.00019803426 12:-0.00019803426 13:-0.00019803426 14:-0.00019803426 15:-0.00019803426 16:-0.00019803426 17:0.00039606853 18:-0.00019803426 19:-0.00019803426 20:0.0033665826 21:0.0011882057 22:0.0015842741 23:0.00059410284 24:0.00039606853 25:0.00079213706 26:0.00019803426 28:0.060099442 29:0.070706159 30:0.0059410282 31:0.00019803426 32:-0.00019803426 33:0.99551827 #
-1000 3:0.0068128798 4:-0.019007899 8:0.00046977939 11:-0.0002348897 12:-0.0002348897 13:-0.0002348897 14:-0.0002348897 15:-0.0002348897 16:-0.0002348897 17:0.0007046691 18:-0.0002348897 19:-0.0002348897 20:0.0039931247 21:0.0014093382 22:0.006107132 23:0.0002348897 24:0.0007046691 25:0.0007046691 26:0.0007046691 28:0.17864066 29:0.2101652 30:0.03100544 31:-0.0002348897 32:-0.0002348897 33:0.96046394 #
700 3:0.012370151 4:-0.027562102 8:0.00068944477 11:-0.00034472239 12:-0.00034472239 13:-0.00034472239 14:-0.00034472239 15:-0.00034472239 16:-0.00034472239 17:0.0010341671 18:-0.00034472239 19:-0.00034472239 20:0.0055155582 21:0.0017236118 22:0.0086180596 23:0.0020683343 24:0.00068944477 25:0.00068944477 26:0.0010341671 28:0.062394749 29:0.076090574 30:0.01447834 31:-0.00034472239 32:-0.00034472239 33:0.99452406 #
-1000 3:0.0074444548 4:-0.024468143 8:0.00061353174 11:0.00020451059 12:-0.00020451059 13:-0.00020451059 14:-0.00020451059 15:-0.00020451059 16:-0.00020451059 17:0.00020451059 18:-0.00020451059 19:-0.00020451059 20:0.0016360848 21:0.00061353174 22:0.00347668 23:0.0012270635 24:0.00040902119 25:0.00040902119 26:0.00020451059 28:0.10524728 29:0.12382094 30:0.0049082539 31:-0.00020451059 32:0.00020451059 33:0.98635459 #
700 3:0.0095490227 4:-0.019967912 8:0.00068347243 11:-0.00022782416 12:0.00022782416 13:-0.00022782416 14:-0.00022782416 15:-0.00022782416 16:-0.00022782416 17:0.00068347243 18:-0.00022782416 19:-0.00022782416 20:0.0022782416 21:0.0011391208 22:0.0036451865 23:0.0011391208 24:0.00022782416 25:0.00068347243 26:0.00068347243 28:0.13895907 29:0.16348206 30:0.02961714 31:-0.00022782416 32:-0.00022782416 33:0.9759987 #
-1000 3:0.0079214014 4:-0.017150329 8:0.00059642066 11:-0.00019880688 12:-0.00019880688 13:-0.00019880688 14:-0.00019880688 15:-0.00019880688 16:-0.00019880688 17:0.00059642066 18:-0.00019880688 19:-0.00019880688 20:0.0015904551 21:0.00059642066 22:0.003379717 23:0.0011928413 24:0.00039761377 25:0.00059642066 26:0.00039761377 28:0.138302 29:0.16270752 30:0.019880688 31:-0.00019880688 32:-0.00019880688 33:0.97653937 #
-1000 3:0.0085303923 4:-0.029706839 8:0.00075206649 11:-0.00025068884 12:-0.00025068884 13:-0.00025068884 14:-0.00025068884 15:-0.00025068884 16:-0.00025068884 17:0.00075206649 18:-0.00025068884 19:-0.00025068884 20:0.0042617102 21:0.001504133 24:0.00075206649 25:0.00050137768 26:0.00025068884 28:0.13367982 29:0.15726964 30:0.0075206649 31:-0.00025068884 32:-0.00025068884 33:0.97793716 #
-1000 3:0.013470806 4:-0.035891183 8:0.00061747833 11:0.00030873917 12:-0.00030873917 13:-0.00030873917 14:-0.00030873917 15:-0.00030873917 16:-0.00030873917 17:0.00092621753 18:-0.00030873917 19:-0.00030873917 20:0.0024699133 21:0.00092621753 22:0.0080272183 23:0.00030873917 24:0.00092621753 25:0.00061747833 26:0.00061747833 28:0.21303004 29:0.25979167 30:0.0055573052 31:-0.00030873917 32:-0.00030873917 33:0.941037 #
700 3:0.0078888703 4:-0.017975854 11:-0.0002305073 12:-0.0002305073 13:-0.0002305073 14:-0.0002305073 15:-0.0002305073 16:-0.0002305073 17:0.00069152185 18:-0.0002305073 19:-0.0002305073 20:0.0018440584 21:0.00069152185 22:0.0059931898 23:0.0002305073 24:0.0004610146 25:0.00069152185 26:0.0004610146 28:0.036150459 29:0.042530902 30:0.01613551 31:-0.0002305073 32:-0.0002305073 33:0.99809659 #
-1000 3:0.0074346596 4:-0.025832081 8:0.00065557804 11:-0.00021852601 12:-0.00021852601 13:0.00021852601 14:-0.00021852601 15:-0.00021852601 16:-0.00021852601 17:0.00043705202 18:-0.00021852601 19:-0.00021852601 20:0.0054631503 21:0.0013111561 22:0.0050260983 23:0.0013111561 24:0.00065557804 25:0.00065557804 26:0.00021852601 28:0.16985153 29:0.19982456 30:0.0059002023 31:0.00021852601 32:-0.00021852601 33:0.9645738 #
700 3:0.013558366 4:-0.02454664 8:0.00099598616 11:-0.0003319954 12:-0.0003319954 13:-0.0003319954 14:-0.0003319954 15:-0.0003319954 16:-0.0003319954 17:0.0006639908 18:-0.0003319954 19:-0.0003319954 20:0.0056439214 21:0.0019919723 22:0.0076358938 23:0.0019919723 24:0.0019919723 25:0.0013279816 26:0.0003319954 28:0.091630727 29:0.11174633 30:0.0086318804 31:-0.0003319954 32:-0.0003319954 33:0.98901427 #
-1000 3:0.0093673607 4:-0.023781724 8:0.00021870151 11:-0.00021870151 12:-0.00021870151 13:-0.00021870151 14:-0.00021870151 15:-0.00021870151 16:-0.00021870151 17:0.00065610453 18:-0.00021870151 19:-0.00021870151 20:0.0026244181 21:0.00065610453 24:0.00043740301 25:0.00065610453 26:0.00021870151 28:0.13260309 29:0.15600416 30:0.0034992241 31:-0.00021870151 32:-0.00021870151 33:0.97847056 #
700 3:0.0082218423 4:-0.01685098 11:-0.00019516889 12:-0.00019516889 13:-0.00019516889 14:-0.00019516889 15:-0.00019516889 16:-0.00019516889 17:0.00058550667 18:-0.00019516889 19:-0.00019516889 20:0.0033178711 21:0.0011710133 22:0.0027323645 23:0.0013661822 24:0.00019516889 25:0.00058550667 26:0.00019516889 28:0.084471047 29:0.099378049 30:0.00351304 31:-0.00019516889 32:-0.00019516889 33:0.99126279 #
-1000 3:0.0091730924 4:-0.024341261 8:0.00076119252 11:-0.00025373083 12:-0.00025373083 13:-0.00025373083 14:-0.00025373083 15:-0.00025373083 16:-0.00025373083 17:0.00050746166 18:0.00025373083 19:-0.00025373083 20:0.0020298467 21:0.00076119252 24:0.00050746166 25:0.0010149233 26:0.0010149233 28:0.1379839 29:0.15860207 30:0.019029813 31:0.00025373083 32:-0.00025373083 33:0.97711748 #
700 3:0.0087914085 4:-0.015599224 8:0.00063668296 11:-0.00021222765 12:-0.00021222765 13:-0.00021222765 14:-0.00021222765 15:-0.00021222765 16:-0.00021222765 17:0.00021222765 18:-0.00021222765 19:-0.00021222765 20:0.0036078701 21:0.0012733659 22:0.0016978212 23:0.00063668296 24:0.00063668296 25:0.0004244553 26:0.00021222765 28:0.095075861 29:0.11185458 30:0.0050934637 31:0.00021222765 32:-0.00021222765 33:0.98898083 #
700 3:0.011688239 4:-0.021088757 8:0.00057084276 11:-0.00028542138 12:-0.00028542138 13:0.00028542138 14:-0.00028542138 15:-0.00028542138 16:-0.00028542138 17:0.00057084276 18:-0.00028542138 19:-0.00028542138 20:0.0042813206 21:0.00057084276 22:0.0011416855 23:0.00057084276 24:0.00057084276 25:0.0011416855 26:0.0011416855 28:0.12615626 29:0.15384784 30:0.049948744 31:0.00028542138 32:-0.00028542138 33:0.97842449 #
700 3:0.01038632 4:-0.018864688 8:0.00076602522 11:-0.00025534173 12:-0.00025534173 13:-0.00025534173 14:-0.00025534173 15:-0.00025534173 16:-0.00025534173 17:0.00076602522 18:-0.00025534173 19:0.00025534173 20:0.0063835434 21:0.0015320504 22:0.0040854677 23:0.0012767087 24:0.0015320504 25:0.0010213669 26:0.00025534173 28:0.089395143 29:0.10517015 30:0.019916655 31:-0.00025534173 32:0.00025534173 33:0.9899599 #
-1000 3:0.0079650134 4:-0.02031634 8:0.00064467918 11:-0.00021489305 12:-0.00021489305 13:-0.00021489305 14:-0.00021489305 15:-0.00021489305 16:-0.00021489305 17:0.00064467918 18:-0.00021489305 19:-0.00021489305 20:0.0004297861 21:0.00064467918 24:0.00064467918 25:0.00064467918 26:0.0004297861 28:0.14628844 29:0.17210355 30:0.0053723264 31:-0.00021489305 32:-0.00021489305 33:0.97389531 #
700 3:0.009009731 4:-0.018605301 8:0.00072995602 11:-0.00024331869 12:0.00024331869 13:-0.00024331869 14:-0.00024331869 15:-0.00024331869 16:-0.00024331869 17:0.00072995602 18:-0.00024331869 19:-0.00024331869 20:0.0012165934 21:0.0017032308 22:0.0041364175 23:0.001459912 24:0.001459912 25:0.00048663738 26:0.00024331869 28:0.16689472 29:0.19634601 30:0.0055963299 31:-0.00024331869 32:-0.00024331869 33:0.96597517 #
700 3:0.0083166696 4:-0.015030421 8:0.00061048794 11:-0.00020349598 12:-0.00020349598 13:-0.00020349598 14:-0.00020349598 15:-0.00020349598 16:-0.00020349598 17:0.00061048794 18:-0.00020349598 19:-0.00020349598 20:0.0034594317 21:0.0012209759 22:0.00040699195 23:0.00061048794 24:0.0012209759 25:0.0008139839 26:0.00020349598 28:0.058759466 29:0.069129616 30:0.0050873994 31:-0.00020349598 32:-0.00020349598 33:0.99570584 #
-1000 3:0.0064366478 4:-0.018918209 8:0.00039181608 11:-0.00019590804 12:-0.00019590804 13:-0.00019590804 14:-0.00019590804 15:-0.00019590804 16:-0.00019590804 17:0.00058772409 18:-0.00019590804 19:-0.00019590804 20:0.0033304365 21:0.0011754482 22:0.0015672643 23:0.00058772409 24:0.00058772409 25:0.00058772409 26:0.00039181608 28:0.071508393 29:0.08412683 30:0.0078363214 31:-0.00019590804 32:-0.00019590804 33:0.99364555 #
700 3:0.008942618 4:-0.019299893 11:-0.0002461781 12:-0.0002461781 13:-0.0002461781 14:-0.0002461781 15:-0.0002461781 16:-0.0002461781 17:0.0002461781 18:-0.0002461781 19:-0.0002461781 20:0.0061544525 21:0.0014770686 22:0.0041850279 23:0.0014770686 24:0.00073853432 25:0.00098471239 26:0.00073853432 28:0.083378062 29:0.098092124 30:0.02461781 31:-0.0002461781 32:-0.0002461781 33:0.99111307 #
700 3:0.0094506051 4:-0.019859957 8:0.00045521345 11:-0.00022760672 12:-0.00022760672 13:-0.00022760672 14:-0.00022760672 15:-0.00022760672 16:-0.00022760672 17:0.00045521345 18:-0.00022760672 19:-0.00022760672 20:0.0038693144 21:0.0013656403 22:0.0056901681 23:0.0013656403 24:0.00068282016 25:0.00068282016 26:0.00022760672 28:0.11465006 29:0.13488202 30:0.029588874 31:-0.00022760672 32:-0.00022760672 33:0.98348868 #
700 3:0.010449939 4:-0.019651085 8:0.00078478892 11:0.00026159629 12:-0.00026159629 13:-0.00026159629 14:-0.00026159629 15:-0.00026159629 16:-0.00026159629 17:0.00026159629 18:-0.00026159629 19:-0.00026159629 20:0.00078478892 21:0.00078478892 22:0.0068015037 23:0.00026159629 24:0.00052319258 25:0.0010463852 26:0.0010463852 28:0.10785877 29:0.13153586 30:0.031391557 31:-0.00026159629 32:-0.00026159629 33:0.98464847 #
700 3:0.014015765 4:-0.024889367 8:0.001020039 11:-0.00034001301 12:0.00034001301 13:-0.00034001301 14:-0.00034001301 15:-0.00034001301 16:-0.00034001301 17:0.001020039 18:-0.00034001301 19:-0.00034001301 20:0.005780221 21:0.0020400779 22:0.00068002602 23:0.001020039 24:0.00034001301 25:0.001360052 26:0.00034001301 28:0.14926571 29:0.18203276 30:0.0085003246 31:-0.00034001301 32:-0.00034001301 33:0.97141713 #
700 3:0.0092260921 4:-0.019701509 11:-0.00020715773 12:-0.00020715773 13:-0.00020715773 14:-0.00020715773 15:-0.00020715773 16:-0.00020715773 17:0.00041431547 18:-0.00020715773 19:-0.00020715773 20:0.0049717859 21:0.00082863093 24:0.00041431547 25:0.00041431547 26:0.00041431547 28:0.03483979 29:0.040988229 30:0.0041431547 31:-0.00020715773 32:-0.00020715773 33:0.99829316 #
700 3:0.012197241 4:-0.020990789 8:0.00057806214 11:-0.00028903107 12:-0.00028903107 13:-0.00028903107 14:-0.00028903107 15:-0.00028903107 16:-0.00028903107 17:0.00057806214 18:-0.00028903107 19:-0.00028903107 20:0.0063586836 21:0.0020232175 22:0.0069367457 23:0.0011561243 24:0.00086709321 25:0.0011561243 26:0.0011561243 28:0.10144991 29:0.12371974 30:0.0057806214 31:0.00028903107 32:-0.00028903107 33:0.98675203 #
-1000 3:0.010007919 4:-0.032345638 8:0.00079431321 11:-0.00026477108 12:0.00026477108 13:-0.00026477108 14:-0.00026477108 15:-0.00026477108 16:-0.00026477108 17:0.00079431321 18:-0.00026477108 19:-0.00026477108 20:0.0066192769 21:0.0015886264 22:0.0068840478 23:0.00026477108 24:0.00052954216 25:0.0010590843 26:0.0010590843 28:0.1133988 29:0.13828993 30:0.01721012 31:-0.00026477108 32:-0.00026477108 33:0.98309499 #
700 3:0.010184962 4:-0.027622314 8:0.00033752841 11:-0.00033752841 12:-0.00033752841 13:-0.00033752841 14:-0.00033752841 15:-0.00033752841 16:-0.00033752841 17:0.0010125852 18:-0.00033752841 19:-0.00033752841 20:0.0057379832 21:0.0020251705 22:0.0023626988 23:0.0023626988 24:0.0010125852 25:0.00067505683 26:0.00033752841 28:0.11712236 29:0.14283189 30:0.015188779 31:-0.00033752841 32:-0.00033752841 33:0.98220766 #
-1000 3:0.0069806306 4:-0.022182511 8:0.00038513137 11:-0.00019256568 12:-0.00019256568 13:-0.00019256568 14:-0.00019256568 15:-0.00019256568 16:-0.00019256568 17:0.00057769706 18:-0.00019256568 19:-0.00019256568 20:0.0017330912 21:0.0013479597 24:0.00057769706 25:0.00057769706 26:0.00038513137 28:0.12285498 29:0.14453594 30:0.010591113 31:-0.00019256568 32:-0.00019256568 33:0.9815073 #
-1000 3:0.0077335704 4:-0.019706042 8:0.00062572391 11:-0.00020857465 12:-0.00020857465 13:-0.00020857465 14:-0.00020857465 15:-0.00020857465 16:-0.00020857465 17:0.00041714931 18:-0.00020857465 19:-0.00020857465 20:0.0052143661 21:0.0012514478 22:0.0018771718 23:0.0014600225 24:0.00041714931 25:0.00083429861 26:0.00041714931 28:0.078363582 29:0.092192076 30:0.0045886422 31:-0.00020857465 32:-0.00020857465 33:0.99239814 #
700 3:0.0081543438 4:-0.018755239 11:-0.00022869422 12:-0.00022869422 13:-0.00022869422 14:-0.00022869422 15:-0.00022869422 16:-0.00022869422 17:0.00068608264 18:-0.00022869422 19:-0.00022869422 20:0.0027443306 21:0.00068608264 22:0.0018295537 23:0.00068608264 24:0.00045738844 25:0.00068608264 26:0.00068608264 28:0.1106011 29:0.13011786 30:0.068608262 31:-0.00022869422 32:-0.00022869422 33:0.98269904 #
700 3:0.007059826 4:-0.017006654 11:-0.00019696538 12:-0.00019696538 13:-0.00019696538 14:0.00019696538 15:-0.00019696538 16:-0.00019696538 17:0.00059089612 18:-0.00019696538 19:-0.00019696538 20:0.0033484115 21:0.0011817922 22:0.0049241344 23:0.0011817922 24:0.00059089612 25:0.00059089612 26:0.00039393076 28:0.092225097 29:0.10850035 30:0.011227027 31:-0.00019696538 32:-0.00019696538 33:0.98955405 #
-1000 3:0.009572072 4:-0.01936595 8:0.00023892353 11:-0.00023892353 12:-0.00023892353 13:-0.00023892353 14:-0.00023892353 15:-0.00023892353 16:-0.00023892353 17:0.00047784706 18:-0.00023892353 19:-0.00023892353 20:0.0059730886 21:0.0014335412 24:0.00023892353 25:0.00071677059 26:0.00047784706 28:0.091421701 29:0.10755382 30:0.02628159 31:0.00023892353 32:-0.00023892353 33:0.98938239 #
700 3:0.0066495324 4:-0.023210892 8:0.00039322276 11:-0.00019661138 12:-0.00019661138 13:0.00019661138 14:-0.00019661138 15:-0.00019661138 16:-0.00019661138 17:0.00019661138 18:-0.00019661138 19:-0.00019661138 20:0.0047186729 21:0.00078644551 24:0.00039322276 25:0.00039322276 26:0.00058983412 28:0.092708163 29:0.1090682 30:0.029491708 31:-0.00019661138 32:-0.00019661138 33:0.98895526 #
700 3:0.0075189085 4:-0.026315227 8:0.00066763762 11:-0.00022254587 12:-0.00022254587 13:-0.00022254587 14:-0.00022254587 15:-0.00022254587 16:-0.00022254587 17:0.00066763762 18:-0.00022254587 19:-0.00022254587 20:0.005563647 21:0.0013352752 22:0.001780367 23:0.00066763762 24:0.00066763762 25:0.0008901835 26:0.00022254587 28:0.13358094 29:0.157153 30:0.003560734 31:0.00022254587 32:-0.00022254587 33:0.97808915 #
700 3:0.009907648 4:-0.021686688 8:0.00082413753 11:-0.00027471251 12:-0.00027471251 13:-0.00027471251 14:-0.00027471251 15:-0.00027471251 16:-0.00027471251 17:0.00054942502 18:-0.00027471251 19:-0.00027471251 20:0.0032965501 21:0.00082413753 22:0.00082413753 23:0.00082413753 24:0.00054942502 25:0.00082413753 26:0.00109885 28:0.10428911 29:0.1271809 30:0.049448252 31:0.00027471251 32:-0.00027471251 33:0.98484433 #
700 3:0.009892974 4:-0.023112569 8:0.00076829974 11:0.00025609991 12:-0.00025609991 13:-0.00025609991 14:-0.00025609991 15:-0.00025609991 16:-0.00025609991 17:0.00076829974 18:-0.00025609991 19:-0.00025609991 20:0.0043536983 21:0.0015365995 22:0.0053780982 23:0.0015365995 24:0.00025609991 25:0.0010243997 26:0.00025609991 28:0.11249188 29:0.12930228 30:0.057622481 31:-0.00025609991 32:-0.00025609991 33:0.98316759 #
700 3:0.011090306 4:-0.021609589 8:0.00084519439 11:-0.00028173145 12:-0.00028173145 13:-0.00028173145 14:0.00028173145 15:-0.00028173145 16:-0.00028173145 17:0.00056346291 18:-0.00028173145 19:-0.00028173145 20:0.0061980919 21:0.0019721203 22:0.0067615551 23:0.0011269258 24:0.00028173145 25:0.0011269258 26:0.0011269258 28:0.11607336 29:0.14155315 30:0.067615546 31:0.00028173145 32:-0.00028173145 33:0.98042548 #
700 3:0.0063069966 4:-0.015729908 8:0.00037221136 11:-0.00018610568 12:-0.00018610568 13:-0.00018610568 14:-0.00018610568 15:-0.00018610568 16:-0.00018610568 17:0.00037221136 18:-0.00018610568 19:-0.00018610568 20:0.000558317 21:0.000558317 22:0.0014888454 23:0.000558317 24:0.000558317 25:0.00074442272 26:0.00037221136 28:0.46702847 29:0.56954664 30:0.05080685 31:-0.00018610568 32:-0.00018610568 33:0.67426085 #
700 3:0.0088471463 4:-0.018374635 11:-0.00024096799 12:-0.00024096799 13:-0.00024096799 14:-0.00024096799 15:-0.00024096799 16:-0.00024096799 17:0.00072290393 18:-0.00024096799 19:-0.00024096799 20:0.00048193597 21:0.00072290393 22:0.0060241995 23:0.0014458079 24:0.00048193597 25:0.00048193597 26:0.00024096799 28:0.095018491 29:0.11178745 30:0.0055422634 31:-0.00024096799 32:0.00024096799 33:0.98893261 #
-1000 3:0.0098420866 4:-0.023927988 8:0.00059762195 11:-0.00029881098 12:-0.00029881098 13:-0.00029881098 14:-0.00029881098 15:-0.00029881098 16:-0.00029881098 17:0.00059762195 18:-0.00029881098 19:-0.00029881098 20:0.0050797863 21:0.0017928658 22:0.0074702743 23:0.0017928658 24:0.00029881098 25:0.0011952439 26:0.00059762195 28:0.089126348 29:0.1086895 30:0.0071714632 31:0.00029881098 32:-0.00029881098 33:0.98966193 #
-1000 3:0.0093801478 4:-0.021597661 8:0.00026679903 11:-0.00026679903 12:0.00026679903 13:-0.00026679903 14:-0.00026679903 15:-0.00026679903 16:-0.00026679903 17:0.00080039713 18:-0.00026679903 19:-0.00026679903 20:0.0013339953 21:0.0018675933 24:0.00080039713 25:0.00080039713 26:0.0010671961 28:0.24260037 29:0.29585347 30:0.020009927 31:0.00026679903 32:-0.00026679903 33:0.92339146 #
700 3:0.009525029 4:-0.022030205 11:-0.00025636813 12:-0.00025636813 13:-0.00025636813 14:-0.00025636813 15:-0.00025636813 16:-0.00025636813 17:0.00051273627 18:-0.00025636813 19:-0.00025636813 20:0.0033327856 21:0.00051273627 22:0.0056400988 23:0.0017945769 24:0.00051273627 25:0.0010254725 26:0.0010254725 28:0.24180642 29:0.29488486 30:0.051273625 31:0.00025636813 32:-0.00025636813 33:0.92266887 #
-1000 3:0.0097605838 4:-0.026913302 8:0.00055224285 11:-0.00027612143 12:-0.00027612143 13:-0.00027612143 14:-0.00027612143 15:-0.00027612143 16:-0.00027612143 17:0.00082836422 18:-0.00027612143 19:-0.00027612143 20:0.0016567284 21:0.0011044857 22:0.00027612143 23:0.0011044857 24:0.00082836422 25:0.00082836422 26:0.00055224285 28:0.10337433 29:0.126066 30:0.082836427 31:-0.00027612143 32:-0.00027612143 33:0.98271608 #
700 3:0.0080798045 4:-0.024431394 8:0.00040800497 11:-0.00020400248 12:-0.00020400248 13:-0.00020400248 14:-0.00020400248 15:-0.00020400248 16:-0.00020400248 17:0.00040800497 18:-0.00020400248 19:-0.00020400248 20:0.0034680422 21:0.0012240149 22:0.0014280174 23:0.0014280174 24:0.00020400248 25:0.00081600994 26:0.00020400248 28:0.083745055 29:0.098522998 30:0.0051000621 31:-0.00020400248 32:-0.00020400248 33:0.99124807 #
-1000 3:0.0066244439 4:-0.015510696 8:0.00058973557 11:0.00019657853 12:-0.00019657853 13:-0.00019657853 14:-0.00019657853 15:-0.00019657853 16:-0.00019657853 17:0.00039315707 18:-0.00019657853 19:-0.00019657853 20:0.0011794711 21:0.00078631414 24:0.00039315707 25:0.00039315707 26:0.00039315707 28:0.097221844 29:0.11437922 30:0.042460963 31:-0.00019657853 32:-0.00019657853 33:0.98761052 #
700 3:0.0099379336 4:-0.019365678 8:0.00075892278 11:-0.00025297425 12:-0.00025297425 13:-0.00025297425 14:-0.00025297425 15:-0.00025297425 16:-0.00025297425 17:0.0005059485 18:-0.00025297425 19:-0.00025297425 20:0.0043005622 21:0.0015178456 24:0.00025297425 25:0.001011897 26:0.00075892278 28:0.1160064 29:0.13647708 30:0.022767683 31:-0.00025297425 32:0.00025297425 33:0.98331094 #
-1000 3:0.0071037738 4:-0.018264377 8:0.0006087186 11:-0.0002029062 12:-0.0002029062 13:-0.0002029062 14:0.0002029062 15:-0.0002029062 16:-0.0002029062 17:0.0006087186 18:-0.0002029062 19:-0.0002029062 20:0.0050726547 21:0.0012174372 24:0.0006087186 25:0.00081162481 26:0.0006087186 28:0.31844911 29:0.37464601 30:0.010145309 31:-0.0002029062 32:-0.0002029062 33:0.8704676 #
-1000 3:0.010983841 4:-0.022783877 8:0.00051713671 11:-0.00025856835 12:-0.00025856835 13:-0.00025856835 14:-0.00025856835 15:-0.00025856835 16:-0.00025856835 17:0.00077570509 18:-0.00025856835 19:-0.00025856835 20:0.0064642089 21:0.0015514102 22:0.00025856835 23:0.0010342734 24:0.00077570509 25:0.00051713671 26:0.00077570509 28:0.080606103 29:0.09265022 30:0.02068547 31:-0.00025856835 32:-0.00025856835 33:0.99186826 #
-1000 3:0.013023636 4:-0.027254444 8:0.00093267387 11:-0.00031089128 12:0.00031089128 13:-0.00031089128 14:-0.00031089128 15:-0.00031089128 16:-0.00031089128 17:0.00062178256 18:-0.00031089128 19:-0.00031089128 20:0.0052851518 21:0.0018653477 24:0.0012435651 25:0.0012435651 26:0.00031089128 28:0.18342586 29:0.22368939 30:0.016166346 31:-0.00031089128 32:-0.00031089128 33:0.95661247 #
700 3:0.0099583389 4:-0.018101418 8:0.00073370582 11:-0.0002445686 12:0.0002445686 13:-0.0002445686 14:-0.0002445686 15:-0.0002445686 16:-0.0002445686 17:0.00073370582 18:-0.0002445686 19:-0.0002445686 20:0.00048913719 21:0.00073370582 22:0.0029348233 23:0.00073370582 24:0.00073370582 25:0.00097827439 26:0.00097827439 28:0.14752378 29:0.17355812 30:0.085599013 31:-0.0002445686 32:0.0002445686 33:0.96971452 #
700 3:0.010460122 4:-0.021846531 8:0.00074757315 11:-0.00024919104 12:0.00024919104 13:-0.00024919104 14:-0.00024919104 15:-0.00024919104 16:-0.00024919104 17:0.00049838208 18:-0.00024919104 19:-0.00024919104 20:0.0029902926 21:0.00074757315 22:0.0019935283 23:0.00074757315 24:0.0014951463 25:0.00099676417 26:0.00024919104 28:0.082332723 29:0.096863054 30:0.0099676419 31:-0.00024919104 32:-0.00024919104 33:0.99153119 #
-1000 3:0.0073058475 4:-0.024442086 8:0.00065337867 11:-0.00021779288 12:-0.00021779288 13:-0.00021779288 14:-0.00021779288 15:-0.00021779288 16:-0.00021779288 17:0.00065337867 18:-0.00021779288 19:-0.00021779288 20:0.0017423431 21:0.00065337867 22:0.0054448224 23:0.0013067573 24:0.00065337867 25:0.00087117153 26:0.00021779288 28:0.082961671 29:0.097601704 30:0.021779289 31:-0.00021779288 32:-0.00021779288 33:0.99117547 #
700 3:0.010450884 4:-0.020716889 11:-0.00025541263 12:-0.00025541263 13:-0.00025541263 14:-0.00025541263 15:-0.00025541263 16:-0.00025541263 17:0.00051082525 18:-0.00025541263 19:-0.00025541263 20:0.0063853157 21:0.0015324757 22:0.0061299028 23:0.0010216505 24:0.00051082525 25:0.0010216505 26:0.00025541263 28:0.041279789 29:0.048564155 30:0.0051082526 31:-0.00025541263 32:-0.00025541263 33:0.99764168 #
700 3:0.011108795 4:-0.023690298 8:0.00078380451 11:-0.00026126817 12:-0.00026126817 13:-0.00026126817 14:-0.00026126817 15:-0.00026126817 16:-0.00026126817 17:0.00078380451 18:-0.00026126817 19:-0.00026126817 20:0.0044415588 21:0.001567609 24:0.00026126817 25:0.0010450727 26:0.00026126817 28:0.095843613 29:0.11688354 30:0.033181056 31:-0.00026126817 32:-0.00026126817 33:0.98759371 #
700 3:0.0069639944 4:-0.016595753 8:0.00061469118 11:-0.00020489706 12:-0.00020489706 13:-0.00020489706 14:-0.00020489706 15:-0.00020489706 16:-0.00020489706 17:0.00040979413 18:-0.00020489706 19:-0.00020489706 20:0.0014342795 21:0.0014342795 22:0.00040979413 23:0.00061469118 24:0.00040979413 25:0.00040979413 26:0.00020489706 28:0.031097228 29:0.03658437 30:0.0051224269 31:-0.00020489706 32:-0.00020489706 33:0.99866831 #
-1000 3:0.0058327974 4:-0.018702805 8:0.00058862643 11:0.00019620881 12:-0.00019620881 13:-0.00019620881 14:-0.00019620881 15:0.00019620881 16:-0.00019620881 17:0.00039241763 18:0.00019620881 19:-0.00019620881 20:0.0015696705 21:0.00058862643 22:0.00333555 23:0.0011772529 24:0.00039241763 25:0.00078483525 26:0.00058862643 28:0.07629972 29:0.089763574 30:0.020601926 31:-0.00019620881 32:-0.00019620881 33:0.99262041 #
700 3:0.010799597 4:-0.034940779 8:0.00085757696 11:-0.00028585899 12:-0.00028585899 13:-0.00028585899 14:0.00028585899 15:-0.00028585899 16:-0.00028585899 17:0.00057171797 18:0.00028585899 19:-0.00028585899 20:0.00057171797 21:0.00085757696 24:0.00057171797 25:0.0011434359 26:0.00057171797 28:0.17551742 29:0.21404549 30:0.0071464749 31:-0.00028585899 32:-0.00028585899 33:0.96020037 #
-1000 3:0.0087204585 4:-0.020277532 8:0.00024529322 11:-0.00024529322 12:-0.00024529322 13:-0.00024529322 14:-0.00024529322 15:-0.00024529322 16:-0.00024529322 17:0.0007358797 18:-0.00024529322 19:-0.00024529322 20:0.0024529323 21:0.0012264661 22:0.0029435188 23:0.0007358797 24:0.00049058645 25:0.0007358797 26:0.0007358797 28:0.082764387 29:0.097369149 30:0.02501991 31:0.00024529322 32:-0.00024529322 33:0.99122995 #
-1000 3:0.012506016 4:-0.029874751 8:0.00073669822 11:-0.00036834911 12:-0.00036834911 13:-0.00036834911 14:-0.00036834911 15:-0.00036834911 16:-0.00036834911 17:0.00073669822 18:-0.00036834911 19:-0.00036834911 20:0.0092087276 21:0.0022100948 24:0.00073669822 25:0.0011050474 26:0.0014733964 28:0.2646699 29:0.32276961 30:0.013997267 31:-0.00036834911 32:-0.00036834911 33:0.90798056 #
-1000 3:0.012384453 4:-0.022523962 8:0.00091109157 11:-0.00030369719 12:-0.00030369719 13:-0.00030369719 14:-0.00030369719 15:-0.00030369719 16:-0.00030369719 17:0.00060739438 18:-0.00030369719 19:-0.00030369719 20:0.0030369719 21:0.001518486 22:0.0051628524 23:0.0018221831 24:0.00091109157 25:0.0012147888 26:0.00060739438 28:0.2715053 29:0.33110282 30:0.013666374 31:-0.00030369719 32:-0.00030369719 33:0.90319544 #
700 3:0.0089320065 4:-0.01678177 8:0.00067003368 11:-0.00022334457 12:0.00022334457 13:-0.00022334457 14:-0.00022334457 15:-0.00022334457 16:-0.00022334457 17:0.00067003368 18:-0.00022334457 19:-0.00022334457 20:0.0037968575 21:0.0013400674 22:0.0017867566 23:0.00067003368 24:0.00044668914 25:0.00089337828 26:0.00022334457 28:0.080216438 29:0.094372012 30:0.0044668913 31:-0.00022334457 32:-0.00022334457 33:0.99209654 #
-1000 3:0.0087081296 4:-0.024827082 8:0.00025340338 11:-0.00025340338 12:-0.00025340338 13:-0.00025340338 14:-0.00025340338 15:-0.00025340338 16:-0.00025340338 17:0.00076021015 18:-0.00025340338 19:-0.00025340338 20:0.0063350848 21:0.0015204203 22:0.0060816812 23:0.0010136135 24:0.00025340338 25:0.00076021015 26:0.0010136135 28:0.082890786 29:0.097519763 30:0.025340339 31:-0.00025340338 32:0.00025340338 33:0.99106067 #
700 3:0.0074840058 4:-0.01983753 8:0.000620045 11:-0.00020668168 12:0.00020668168 13:0.00020668168 14:-0.00020668168 15:-0.00020668168 16:-0.00020668168 17:0.000620045 18:0.00020668168 19:-0.00020668168 20:0.0014467718 21:0.0014467718 22:0.0035135886 23:0.00124009 24:0.000620045 25:0.00082672673 26:0.00020668168 28:0.11065944 29:0.13018672 30:0.0047536786 31:-0.00020668168 32:-0.00020668168 33:0.9850449 #
-1000 3:0.012100747 4:-0.027653018 8:0.00033823581 11:-0.00033823581 12:-0.00033823581 13:-0.00033823581 14:-0.00033823581 15:-0.00033823581 16:-0.00033823581 17:0.0010147075 18:-0.00033823581 19:-0.00033823581 20:0.002029415 21:0.0013529432 24:0.00067647162 25:0.0010147075 26:0.00033823581 28:0.12954432 29:0.1579798 30:0.1860297 31:-0.00033823581 32:-0.00033823581 33:0.96058977 #
-1000 3:0.006497812 4:-0.019326497 8:0.00039877367 11:-0.00019938684 12:-0.00019938684 13:-0.00019938684 14:-0.00019938684 15:-0.00019938684 16:-0.00019938684 17:0.00059816055 18:-0.00019938684 19:-0.00019938684 20:0.0033895762 21:0.0011963211 24:0.00059816055 25:0.00079754734 26:0.00019938684 28:0.14152478 29:0.16649997 30:0.0047852844 31:-0.00019938684 32:-0.00019938684 33:0.97559983 #
-1000 3:0.0068669748 4:-0.020224432 8:0.00062756683 11:-0.00020918895 12:-0.00020918895 13:-0.00020918895 14:-0.00020918895 15:-0.00020918895 16:-0.00020918895 17:0.00062756683 18:-0.00020918895 19:-0.00020918895 20:0.0052297236 21:0.0012551337 22:0.0048113456 23:0.0012551337 24:0.00062756683 25:0.00083675579 26:0.00062756683 28:0.090357073 29:0.10630146 30:0.031378344 31:0.00020918895 32:-0.00020918895 33:0.98946375 #
700 3:0.0085071418 4:-0.015451951 8:0.00062860548 11:-0.00020953517 12:-0.00020953517 13:-0.00020953517 14:-0.00020953517 15:-0.00020953517 16:-0.00020953517 17:0.00041907033 18:-0.00020953517 19:-0.00020953517 20:0.0050288439 21:0.00083814067 22:0.0010476758 23:0.0014667462 24:0.00041907033 25:0.00083814067 26:0.00020953517 28:0.090234227 29:0.1061589 30:0.0062860548 31:-0.00020953517 32:-0.00020953517 33:0.99005365 #
-1000 3:0.014259499 4:-0.025803432 8:0.0010476974 11:-0.00034923246 12:-0.00034923246 13:-0.00034923246 14:-0.00034923246 15:-0.00034923246 16:-0.00034923246 17:0.00069846492 18:-0.00034923246 19:-0.00034923246 20:0.0034923246 21:0.0017461623 22:0.0087308111 23:0.0020953948 24:0.00069846492 25:0.0013969298 26:0.0013969298 28:0.18544243 29:0.22614896 30:0.02270011 31:-0.00034923246 32:-0.00034923246 33:0.95550001 #
700 3:0.013084506 4:-0.025443256 8:0.00091193069 11:-0.00030397691 12:-0.00030397691 13:-0.00030397691 14:-0.00030397691 15:-0.00030397691 16:-0.00030397691 17:0.00060795381 18:-0.00030397691 19:-0.00030397691 20:0.0075994227 21:0.0018238614 22:0.0048636305 23:0.0015198846 24:0.00091193069 25:0.0012159076 26:0.00030397691 28:0.15897992 29:0.19387648 30:0.0075994227 31:-0.00030397691 32:-0.00030397691 33:0.9675585 #
700 3:0.006403917 4:-0.016764889 8:0.00039427646 11:-0.00019713823 12:-0.00019713823 13:-0.00019713823 14:-0.00019713823 15:-0.00019713823 16:-0.00019713823 17:0.00059141469 18:-0.00019713823 19:-0.00019713823 20:0.0019713822 21:0.00098569109 22:0.0031542117 23:0.00098569109 24:0.00039427646 25:0.00078855292 26:0.00078855292 28:0.096063487 29:0.1130154 30:0.037456263 31:-0.00019713823 32:-0.00019713823 33:0.98805678 #
-1000 3:0.010001548 4:-0.026772331 8:0.00071913685 11:-0.00023971229 12:-0.00023971229 13:-0.00023971229 14:-0.00023971229 15:-0.00023971229 16:-0.00023971229 17:0.00071913685 18:-0.00023971229 19:-0.00023971229 20:0.004075109 21:0.0014382737 24:0.00023971229 25:0.00047942458 26:0.00023971229 28:0.081077889 29:0.095386311 30:0.0064722318 31:-0.00023971229 32:-0.00023971229 33:0.99168974 #
-1000 3:0.006391014 4:-0.016068658 8:0.00038104411 11:-0.00019052206 12:-0.00019052206 13:-0.00019052206 14:-0.00019052206 15:-0.00019052206 16:-0.00019052206 17:0.00057156617 18:-0.00019052206 19:-0.00019052206 20:0.0015241764 21:0.00057156617 22:0.003238875 23:0.0011431323 24:0.00057156617 25:0.00076208822 26:0.00038104411 28:0.16808999 29:0.19775237 30:0.0026673088 31:-0.00019052206 32:-0.00019052206 33:0.9655658 #
700 3:0.011602131 4:-0.02289065 8:0.00059547659 11:-0.0002977383 12:-0.0002977383 13:-0.0002977383 14:-0.0002977383 15:-0.0002977383 16:-0.0002977383 17:0.00059547659 18:-0.0002977383 19:-0.0002977383 20:0.005061551 21:0.0017864297 22:0.0074434574 23:0.0017864297 24:0.0002977383 25:0.0011909532 26:0.00089321483 28:0.083366722 29:0.10166571 30:0.011611793 31:-0.0002977383 32:-0.0002977383 33:0.99087304 #
-1000 3:0.013478311 4:-0.02448122 11:-0.00033134941 12:-0.00033134941 13:-0.00033134941 14:-0.00033134941 15:-0.00033134941 16:-0.00033134941 17:0.00066269882 18:-0.00033134941 19:0.00033134941 20:0.0026507953 21:0.0009940482 24:0.0009940482 25:0.0013253976 26:0.0013253976 28:0.30384079 29:0.37053812 30:0.051359158 31:-0.00033134941 32:-0.00033134941 33:0.8757565 #
700 3:0.0091565736 4:-0.025175547 8:0.0004498011 11:-0.00022490055 12:-0.00022490055 13:-0.00022490055 14:-0.00022490055 15:-0.00022490055 16:-0.00022490055 17:0.00067470165 18:-0.00022490055 19:-0.00022490055 20:0.0038233092 21:0.0013494033 22:0.0051727127 23:0.0013494033 24:0.00067470165 25:0.00089960219 26:0.00022490055 28:0.14721765 29:0.17319816 30:0.031486075 31:-0.00022490055 32:-0.00022490055 33:0.97291976 #
700 3:0.0095461048 4:-0.016235102 8:0.00067794096 11:-0.00022598032 12:-0.00022598032 13:-0.00022598032 14:-0.00022598032 15:-0.00022598032 16:-0.00022598032 17:0.00067794096 18:-0.00022598032 19:-0.00022598032 20:0.0038416653 21:0.0013558819 22:0.0058754883 23:0.00022598032 24:0.00045196063 25:0.00067794096 26:0.00022598032 28:0.088132322 29:0.10368428 30:0.0063274489 31:0.00022598032 32:-0.00022598032 33:0.99047172 #
-1000 3:0.0075954827 4:-0.026583228 8:0.00067443703 11:-0.00022481233 12:-0.00022481233 13:-0.00022481233 14:-0.00022481233 15:-0.00022481233 16:-0.00022481233 17:0.00067443703 18:-0.00022481233 19:-0.00022481233 20:0.0038218098 21:0.0013488741 24:0.00022481233 25:0.00089924934 26:0.00022481233 28:0.074264504 29:0.087371066 30:0.0051706838 31:-0.00022481233 32:-0.00022481233 33:0.9929961 #
-1000 3:0.0075295335 4:-0.018709449 8:0.00044322835 11:-0.00022161417 12:-0.00022161417 13:-0.00022161417 14:-0.00022161417 15:-0.00022161417 16:-0.00022161417 17:0.00066484249 18:-0.00022161417 19:-0.00022161417 20:0.0037674408 21:0.001329685 22:0.0017729134 23:0.00066484249 24:0.00044322835 25:0.00044322835 26:0.00044322835 28:0.091597572 29:0.10776211 30:0.0024377559 31:-0.00022161417 32:-0.00022161417 33:0.98972887 #
-1000 3:0.0091257589 4:-0.029062305 8:0.00050515513 11:-0.00025257756 12:-0.00025257756 13:-0.00025257756 14:-0.00025257756 15:-0.00025257756 16:-0.00025257756 17:0.00025257756 18:-0.00025257756 19:-0.00025257756 20:0.004293819 21:0.0015154654 24:0.00075773272 25:0.0010103103 26:0.00025257756 28:0.07154765 29:0.084174 30:0.0050515514 31:0.00025257756 32:-0.00025257756 33:0.99338758 #
700 3:0.0098693091 4:-0.019560508 8:0.00076227187 11:-0.00025409064 12:-0.00025409064 13:-0.00025409064 14:-0.00025409064 15:-0.00025409064 16:-0.00025409064 17:0.00050818129 18:0.00025409064 19:-0.00025409064 20:0.0043195407 21:0.0015245437 22:0.0017786344 23:0.0017786344 24:0.00050818129 25:0.0010163626 26:0.00025409064 28:0.1183732 29:0.13606045 30:0.0050818124 31:-0.00025409064 32:-0.00025409064 33:0.98333073 #
700 3:0.0071210768 4:-0.024811288 8:0.00063189695 11:-0.00021063232 12:-0.00021063232 13:-0.00021063232 14:-0.00021063232 15:-0.00021063232 16:-0.00021063232 17:0.00063189695 18:-0.00021063232 19:-0.00021063232 20:0.0035807495 21:0.0012637939 22:0.0052658082 23:0.0012637939 24:0.00042126465 25:0.00042126465 26:0.00021063232 28:0.076004572 29:0.089417636 30:0.0065296022 31:-0.00021063232 32:-0.00021063232 33:0.99271017 #
700 3:0.0082383007 4:-0.017291516 8:0.00059184222 11:-0.00019728074 12:-0.00019728074 13:-0.00019728074 14:-0.00019728074 15:-0.00019728074 16:-0.00019728074 17:0.00039456147 18:-0.00019728074 19:-0.00019728074 20:0.0033537727 21:0.0011836844 22:0.0049320185 23:0.0011836844 24:0.0011836844 25:0.00078912295 26:0.00019728074 28:0.12786554 29:0.15043052 30:0.0059184222 31:-0.00019728074 32:-0.00019728074 33:0.98009074 #
