SVM-light Version V6.02
1 # kernel type
3 # kernel parameter -d 
1 # kernel parameter -g 
1 # kernel parameter -s 
1 # kernel parameter -r 
empty# kernel parameter -u 
33 # highest feature index 
10000 # number of training documents 
7528 # number of support vectors plus 1 
0 # threshold b, each following line is a SV (starting with alpha*y)
-100 3:0.013790206 4:-0.026889298 8:0.0010523429 11:-0.00035078099 12:-0.00035078099 13:0.00035078099 14:-0.00035078099 15:-0.00035078099 16:-0.00035078099 17:0.0010523429 18:-0.00035078099 19:-0.00035078099 20:0.0028062479 21:0.0010523429 22:0.0049109338 23:0.0024554669 24:0.0010523429 25:0.001403124 26:0.00035078099 28:0.067700729 29:0.082563326 30:0.0087695252 31:-0.00035078099 32:-0.00035078099 33:0.99376255 #
-100 3:0.011916601 4:-0.024592148 8:0.00095234904 11:-0.00031744968 12:-0.00031744968 13:-0.00031744968 14:-0.00031744968 15:-0.00031744968 16:-0.00031744968 17:0.00095234904 18:-0.00031744968 19:-0.00031744968 20:0.0082536917 21:0.00031744968 22:0.0025395975 23:0.00095234904 24:0.00095234904 25:0.0012697987 26:0.00063489936 28:0.1980886 29:0.24157286 30:0.0063489936 31:-0.00031744968 32:-0.00031744968 33:0.94949198 #
-100 3:0.008999465 4:-0.026158988 8:0.00027073608 11:-0.00027073608 12:-0.00027073608 13:-0.00027073608 14:-0.00027073608 15:-0.00027073608 16:-0.00027073608 17:0.00081220828 18:-0.00027073608 19:-0.00027073608 20:0.0046025137 21:0.0016244166 22:0.0067684022 23:0.0016244166 24:0.00081220828 25:0.00081220828 26:0.00027073608 28:0.067529701 29:0.082352504 30:0.0059561939 31:0.00027073608 32:-0.00027073608 33:0.99387217 #
60 3:0.008535224 4:-0.021833921 8:0.0007287669 11:-0.0002429223 12:-0.0002429223 13:-0.0002429223 14:-0.0002429223 15:-0.0002429223 16:-0.0002429223 17:0.0007287669 18:-0.0002429223 19:-0.0002429223 20:0.0041296789 21:0.0014575338 22:0.0012146115 23:0.0017004561 24:0.00048584459 25:0.00048584459 26:0.0002429223 28:0.057567727 29:0.067726739 30:0.0053442908 31:-0.0002429223 32:-0.0002429223 33:0.99573851 #
-100 3:0.008193844 4:-0.017136868 8:0.00058665121 11:-0.0001955504 12:-0.0001955504 13:-0.0001955504 14:-0.0001955504 15:-0.0001955504 16:-0.0001955504 17:0.00058665121 18:-0.0001955504 19:-0.0001955504 20:0.0050843102 21:0.0001955504 22:0.0013688528 23:0.0013688528 24:0.00058665121 25:0.00078220159 26:0.0001955504 28:0.099513642 29:0.11707406 30:0.0033243569 31:-0.0001955504 32:-0.0001955504 33:0.98792058 #
60 3:0.0092032775 4:-0.029958749 8:0.00073478516 11:-0.00024492838 12:0.00024492838 13:-0.00024492838 14:-0.00024492838 15:-0.00024492838 16:-0.00024492838 17:0.00024492838 18:-0.00024492838 19:-0.00024492838 20:0.00073478516 21:0.00073478516 24:0.00048985676 25:0.00048985676 26:0.00073478516 28:0.13232011 29:0.15567158 30:0.017634843 31:-0.00024492838 32:-0.00024492838 33:0.97824395 #
60 3:0.011777755 4:-0.023112185 8:0.00083426316 11:-0.00027808771 12:-0.00027808771 13:-0.00027808771 14:-0.00027808771 15:-0.00027808771 16:-0.00027808771 17:0.00055617542 18:-0.00027808771 19:-0.00027808771 20:0.0013904386 21:0.0019466141 22:0.00083426316 23:0.00083426316 24:0.00083426316 25:0.0011123508 26:0.0011123508 28:0.12246983 29:0.14935258 30:0.0033370527 31:0.00027808771 32:-0.00027808771 33:0.98081541 #
60 3:0.008928908 4:-0.024127183 8:0.00025318278 11:-0.00025318278 12:-0.00025318278 13:-0.00025318278 14:-0.00025318278 15:-0.00025318278 16:-0.00025318278 17:0.00075954833 18:-0.00025318278 19:-0.00025318278 20:0.0043041073 21:0.0015190967 24:0.00050636556 25:0.0010127311 26:0.00050636556 28:0.1198947 29:0.14105318 30:0.0058232038 31:-0.00025318278 32:-0.00025318278 33:0.98234916 #
-100 3:0.0087019699 4:-0.028111963 8:0.00046182712 11:-0.00023091356 12:-0.00023091356 13:-0.00023091356 14:-0.00023091356 15:-0.00023091356 16:-0.00023091356 17:0.00046182712 18:-0.00023091356 19:-0.00023091356 20:0.0053110118 21:0.0013854813 22:0.00023091356 23:0.00092365424 24:0.00069274066 25:0.00069274066 26:0.00023091356 28:0.045275219 29:0.05326483 30:0.0060037524 31:-0.00023091356 32:-0.00023091356 33:0.99708474 #
60 3:0.0081892023 4:-0.02690587 8:0.00056412333 11:-0.00028206166 12:-0.00028206166 13:-0.00028206166 14:-0.00028206166 15:-0.00028206166 16:-0.00028206166 17:0.00056412333 18:-0.00028206166 19:-0.00028206166 20:0.0047950484 21:0.00169237 22:0.0019744316 23:0.0019744316 24:0.00056412333 25:0.00084618502 26:0.00028206166 28:0.038820148 29:0.047341231 30:0.010718343 31:-0.00028206166 32:-0.00028206166 33:0.99765211 #
-100 3:0.0076046907 4:-0.022315949 8:0.0004618094 11:-0.0002309047 12:-0.0002309047 13:-0.0002309047 14:-0.0002309047 15:-0.0002309047 16:-0.0002309047 17:0.0004618094 18:-0.0002309047 19:-0.0002309047 20:0.0039253798 21:0.0013854282 22:0.0057726176 23:0.0013854282 24:0.0002309047 25:0.00092361879 26:0.0002309047 28:0.092500426 29:0.10882308 30:0.0050799036 31:-0.0002309047 32:-0.0002309047 33:0.98942667 #
60 3:0.0086672241 4:-0.015663967 8:0.0006362205 11:-0.0002120735 12:-0.0002120735 13:-0.0002120735 14:-0.0002120735 15:-0.0002120735 16:-0.0002120735 17:0.000424147 18:-0.0002120735 19:-0.0002120735 20:0.0036052496 21:0.001272441 22:0.0014845146 23:0.0014845146 24:0.000424147 25:0.000848294 26:0.0002120735 28:0.088757001 29:0.10442075 30:0.0042414702 31:-0.0002120735 32:-0.0002120735 33:0.99038327 #
-100 3:0.012776136 4:-0.023246143 8:0.00094226026 11:-0.00031408676 12:-0.00031408676 13:-0.00031408676 14:-0.00031408676 15:-0.00031408676 16:-0.00031408676 17:0.00062817353 18:-0.00031408676 19:-0.00031408676 20:0.0053394749 21:0.0018845205 22:0.0078521688 23:0.0018845205 24:0.00062817353 25:0.0012563471 26:0.00062817353 28:0.12594879 29:0.1535947 30:0.0072239954 31:-0.00031408676 32:-0.00031408676 33:0.97963661 #
60 3:0.0077794683 4:-0.023455646 8:0.00056862686 11:-0.00028431343 12:-0.00028431343 13:0.00028431343 14:-0.00028431343 15:-0.00028431343 16:-0.00028431343 17:0.00085294031 18:-0.00028431343 19:-0.00028431343 20:0.0071078357 21:0.0017058806 24:0.00028431343 25:0.0011372537 26:0.00056862686 28:0.045276914 29:0.055216514 30:0.0071078357 31:-0.00028431343 32:-0.00028431343 33:0.99708724 #
60 3:0.01809632 4:-0.032720007 8:0.0013284985 11:-0.00044283282 12:-0.00044283282 13:-0.00044283282 14:-0.00044283282 15:-0.00044283282 16:-0.00044283282 17:0.00088566565 18:-0.00044283282 19:-0.00044283282 20:0.002214164 21:0.0030998297 24:0.00088566565 25:0.0017713313 26:0.00044283282 28:0.18510412 29:0.22573845 30:0.011070821 31:-0.00044283282 32:-0.00044283282 33:0.95563322 #
60 3:0.010828954 4:-0.027139008 11:-0.00033619889 12:-0.00033619889 13:-0.00033619889 14:-0.00033619889 15:-0.00033619889 16:-0.00033619889 17:0.00067239779 18:-0.00033619889 19:-0.00033619889 20:0.0040343865 21:0.0010085966 22:0.00067239779 23:0.0010085966 24:0.0020171932 25:0.0013447956 26:0.00033619889 28:0.052110825 29:0.063548312 30:0.00605158 31:-0.00033619889 32:-0.00033619889 33:0.99615729 #
-100 3:0.0085930796 4:-0.01981576 8:0.00024548537 11:-0.00024548537 12:-0.00024548537 13:-0.00024548537 14:-0.00024548537 15:-0.00024548537 16:-0.00024548537 17:0.00073645607 18:-0.00024548537 19:-0.00024548537 20:0.0024548536 21:0.0012274268 22:0.006137134 23:0.0014729121 24:0.0014729121 25:0.00049097073 26:0.00073645607 28:0.061079212 29:0.071858473 30:0.013010724 31:0.00024548537 32:-0.00024548537 33:0.99519765 #
60 3:0.010177737 4:-0.024178324 11:-0.00029485757 12:-0.00029485757 13:-0.00029485757 14:-0.00029485757 15:-0.00029485757 16:-0.00029485757 17:0.00088457274 18:-0.00029485757 19:-0.00029485757 20:0.0050125788 21:0.0017691455 22:0.0029485759 23:0.0014742879 24:0.00029485757 25:0.0011794303 26:0.00029485757 28:0.055728082 29:0.067961723 30:0.0076662973 31:-0.00029485757 32:-0.00029485757 33:0.99573404 #
60 3:0.020987226 4:-0.037948258 8:0.001540266 11:-0.00051342201 12:-0.00051342201 13:-0.00051342201 14:-0.00051342201 15:-0.00051342201 16:-0.00051342201 17:0.00051342201 18:-0.00051342201 19:0.00051342201 20:0.011808706 21:0.003080532 24:0.00051342201 25:0.002053688 26:0.002053688 28:0.23208214 29:0.28302902 30:0.071879081 31:-0.00051342201 32:-0.00051342201 33:0.9267267 #
60 3:0.0076811532 4:-0.012971967 8:0.0003614981 11:-0.00018074905 12:-0.00018074905 13:-0.00018074905 14:-0.00018074905 15:-0.00018074905 16:-0.00018074905 17:0.00054224714 18:-0.00018074905 19:-0.00018074905 20:0.0021689886 21:0.00054224714 22:0.0028919848 23:0.00090374524 24:0.00054224714 25:0.00054224714 26:0.0003614981 28:0.24802023 29:0.29178861 30:0.0037957302 31:-0.00018074905 32:-0.00018074905 33:0.92362767 #
60 3:0.018108776 4:-0.041524954 8:0.00050525111 11:-0.00050525111 12:-0.00050525111 13:-0.00050525111 14:-0.00050525111 15:-0.00050525111 16:-0.00050525111 17:0.0015157535 18:-0.00050525111 19:-0.00050525111 20:0.012631278 21:0.0030315069 24:0.00050525111 25:0.0015157535 26:0.0010105022 28:0.27085504 29:0.33031297 30:0.010105022 31:-0.00050525111 32:-0.00050525111 33:0.90288377 #
60 3:0.011199112 4:-0.023147397 8:0.00028561155 11:-0.00028561155 12:-0.00028561155 13:-0.00028561155 14:-0.00028561155 15:-0.00028561155 16:-0.00028561155 17:0.00085683464 18:-0.00028561155 19:-0.00028561155 20:0.0014280577 21:0.0019992806 22:0.0019992806 23:0.0019992806 24:0.0017136693 25:0.00085683464 26:0.00028561155 28:0.065941989 29:0.080416784 30:0.0065690652 31:0.00028561155 32:-0.00028561155 33:0.99421376 #
-100 3:0.0097224861 4:-0.028526478 8:0.00059056276 11:-0.00029528138 12:-0.00029528138 13:-0.00029528138 14:-0.00029528138 15:-0.00029528138 16:-0.00029528138 17:0.00088584417 18:-0.00029528138 19:-0.00029528138 20:0.002362251 21:0.00088584417 22:0.00059056276 23:0.00088584417 24:0.00059056276 25:0.0011811255 26:0.00059056276 28:0.11381326 29:0.13879701 30:0.0029528139 31:-0.00029528138 32:-0.00029528138 33:0.98328698 #
60 3:0.0069258069 4:-0.015221379 11:-0.00019736246 12:-0.00019736246 13:-0.00019736246 14:-0.00019736246 15:-0.00019736246 16:-0.00019736246 17:0.00039472492 18:-0.00019736246 19:-0.00019736246 20:0.0033551618 21:0.0011841748 24:0.00019736246 25:0.0005920874 26:0.00019736246 28:0.062982306 29:0.07409776 30:0.0047366992 31:-0.00019736246 32:-0.00019736246 33:0.99510151 #
60 3:0.007211091 4:-0.01587606 8:0.00059969374 11:-0.00019989791 12:-0.00019989791 13:-0.00019989791 14:-0.00019989791 15:-0.00019989791 16:-0.00019989791 17:0.00039979583 18:-0.00019989791 19:-0.00019989791 20:0.0033982645 21:0.0011993875 24:0.00039979583 25:0.00079959165 26:0.00019989791 28:0.09196303 29:0.10819274 30:0.0047975499 31:-0.00019989791 32:-0.00019989791 33:0.98969454 #
60 3:0.0075416248 4:-0.025223749 8:0.00067470426 11:-0.00022490142 12:-0.00022490142 13:-0.00022490142 14:-0.00022490142 15:-0.00022490142 16:-0.00022490142 17:0.00044980284 18:0.00022490142 19:-0.00022490142 20:0.0038233241 21:0.0013494085 24:0.00022490142 25:0.00089960569 26:0.00067470426 28:0.09458679 29:0.11127897 30:0.0071968455 31:-0.00022490142 32:-0.00022490142 33:0.98889154 #
60 3:0.013159228 4:-0.026025193 8:0.00065135973 11:0.00032567987 12:-0.00032567987 13:-0.00032567987 14:-0.00032567987 15:-0.00032567987 16:-0.00032567987 17:0.00097703957 18:-0.00032567987 19:-0.00032567987 20:0.008467677 21:0.00032567987 22:0.0081419973 23:0.0019540791 24:0.00065135973 25:0.0013027195 26:0.00065135973 28:0.12701516 29:0.1548966 30:0.021169191 31:-0.00032567987 32:-0.00032567987 33:0.97899371 #
60 3:0.0072557782 4:-0.024058744 8:0.000395479 11:-0.0001977395 12:-0.0001977395 13:-0.0001977395 14:-0.0001977395 15:-0.0001977395 16:-0.0001977395 17:0.000395479 18:-0.0001977395 19:-0.0001977395 20:0.001581916 21:0.00059321849 24:0.000395479 25:0.000790958 26:0.000395479 28:0.087584756 29:0.10304008 30:0.0055367062 31:-0.0001977395 32:-0.0001977395 33:0.99047714 #
-100 3:0.0080948723 4:-0.02408009 8:0.00087338925 11:-0.00029112975 12:-0.00029112975 13:-0.00029112975 14:-0.00029112975 15:-0.00029112975 16:-0.00029112975 17:0.0005822595 18:-0.00029112975 19:-0.00029112975 20:0.002329038 21:0.00087338925 22:0.0005822595 23:0.00087338925 24:0.00087338925 25:0.001164519 26:0.0005822595 28:0.23173928 29:0.28260839 30:0.0058225947 31:-0.00029112975 32:-0.00029112975 33:0.93045068 #
-100 3:0.0068075629 4:-0.022971461 11:-0.00019330617 12:-0.00019330617 13:-0.00019330617 14:-0.00019330617 15:-0.00019330617 16:-0.00019330617 17:0.00019330617 18:-0.00019330617 19:-0.00019330617 20:0.00019330617 21:0.00077322469 22:0.0038661235 23:0.0013531432 24:0.00057991856 25:0.00077322469 26:0.00077322469 28:0.18071035 29:0.21260007 30:0.033828583 31:-0.00019330617 32:-0.00019330617 33:0.95937854 #
60 3:0.0076015862 4:-0.014798945 8:0.00058000069 11:-0.00019333356 12:-0.00019333356 13:-0.00019333356 14:-0.00019333356 15:-0.00019333356 16:-0.00019333356 17:0.00038666712 18:0.00019333356 19:-0.00019333356 20:0.0015466685 21:0.00058000069 22:0.0050266725 23:0.00019333356 24:0.00058000069 25:0.00077333424 26:0.00058000069 28:0.1407391 29:0.16557473 30:0.019333355 31:-0.00019333356 32:-0.00019333356 33:0.97575444 #
60 3:0.0079917451 4:-0.014493243 8:0.00058849872 11:-0.00019616623 12:-0.00019616623 13:-0.00019616623 14:-0.00019616623 15:-0.00019616623 16:-0.00019616623 17:0.00039233247 18:-0.00019616623 19:-0.00019616623 20:0.005100322 21:0.00019616623 22:0.0045118234 23:0.0011769974 24:0.00058849872 25:0.00078466494 26:0.00019616623 28:0.075573042 29:0.088910379 30:0.0049041556 31:-0.00019616623 32:-0.00019616623 33:0.99299347 #
-100 3:0.0077604083 4:-0.02432427 8:0.00025580611 11:-0.00025580611 12:-0.00025580611 13:-0.00025580611 14:-0.00025580611 15:-0.00025580611 16:-0.00025580611 17:0.00076741836 18:-0.00025580611 19:-0.00025580611 20:0.0020464489 21:0.00076741836 24:0.00051161222 25:0.0010232244 26:0.00025580611 28:0.078537591 29:0.092397168 30:0.0056277346 31:-0.00025580611 32:0.00025580611 33:0.99227196 #
-100 3:0.0067950524 4:-0.01615601 11:-0.00020352383 12:-0.00020352383 13:-0.00020352383 14:-0.00020352383 15:-0.00020352383 16:-0.00020352383 17:0.00020352383 18:-0.00020352383 19:-0.00020352383 20:0.00061057147 21:0.00061057147 24:0.00040704766 25:0.00081409531 26:0.00081409531 28:0.065498039 29:0.077056155 30:0.02442286 31:-0.00020352383 32:-0.00020352383 33:0.99441743 #
-100 3:0.012243005 4:-0.022960031 11:-0.00029717048 12:-0.00029717048 13:-0.00029717048 14:-0.00029717048 15:-0.00029717048 16:-0.00029717048 17:0.00059434096 18:-0.00029717048 19:-0.00029717048 20:0.0050518983 21:0.0017830229 22:0.0077264328 23:0.00029717048 24:0.0017830229 25:0.00089151144 26:0.00029717048 28:0.075130641 29:0.091623604 30:0.0059434096 31:0.00029717048 32:-0.00029717048 33:0.99254942 #
60 3:0.0096821468 4:-0.0166844 8:0.00069005508 11:-0.00023001837 12:-0.00023001837 13:-0.00023001837 14:-0.00023001837 15:-0.00023001837 16:-0.00023001837 17:0.00069005508 18:-0.00023001837 19:-0.00023001837 20:0.0059804777 21:0.00023001837 22:0.0016101286 23:0.0016101286 24:0.0013801102 25:0.00092007348 26:0.00023001837 28:0.11941633 29:0.14049062 30:0.002530202 31:-0.00023001837 32:-0.00023001837 33:0.98263848 #
-100 3:0.010526783 4:-0.024743633 8:0.00030174511 11:-0.00030174511 12:-0.00030174511 13:-0.00030174511 14:-0.00030174511 15:-0.00030174511 16:-0.00030174511 17:0.00090523536 18:-0.00030174511 19:-0.00030174511 20:0.005129667 21:0.0018104707 22:0.005129667 23:0.0018104707 24:0.00060349022 25:0.00060349022 26:0.00030174511 28:0.072418824 29:0.088314757 30:0.0060349023 31:-0.00030174511 32:-0.00030174511 33:0.99304318 #
-100 3:0.0069310376 4:-0.024216147 8:0.00041096489 11:-0.00020548244 12:-0.00020548244 13:-0.00020548244 14:-0.00020548244 15:-0.00020548244 16:-0.00020548244 17:0.00020548244 18:-0.00020548244 19:-0.00020548244 20:0.0024657892 21:0.0006164473 24:0.0006164473 25:0.00082192977 26:0.00082192977 28:0.17232579 29:0.2027372 30:0.024657894 31:-0.00020548244 32:-0.00020548244 33:0.96330172 #
-100 3:0.013802134 4:-0.023868097 8:0.00097047345 11:-0.00032349114 12:-0.00032349114 13:-0.00032349114 14:-0.00032349114 15:-0.00032349114 16:-0.00032349114 17:0.00032349114 18:-0.00032349114 19:-0.00032349114 20:0.0038818938 21:0.00097047345 22:0.0019409469 23:0.0012939646 24:0.00064698228 25:0.0012939646 26:0.0012939646 28:0.2772319 29:0.33808708 30:0.032349113 31:-0.00032349114 32:-0.00032349114 33:0.89833492 #
60 3:0.0089097098 4:-0.022137243 11:0.00026081069 12:-0.00026081069 13:-0.00026081069 14:-0.00026081069 15:-0.00026081069 16:-0.00026081069 17:0.00078243203 18:-0.00026081069 19:-0.00026081069 20:0.0020864855 21:0.00078243203 22:0.0044337814 23:0.0015648641 24:0.0015648641 25:0.00078243203 26:0.00052162138 28:0.12742949 29:0.14647128 30:0.0059986454 31:-0.00026081069 32:-0.00026081069 33:0.98064816 #
-100 3:0.0076738717 4:-0.019430282 8:0.00064263755 11:-0.0002142125 12:-0.0002142125 13:-0.0002142125 14:-0.0002142125 15:-0.0002142125 16:-0.0002142125 17:0.000428425 18:-0.0002142125 19:-0.0002142125 20:0.0055695251 21:0.0002142125 22:0.0027847625 23:0.000428425 24:0.00064263755 25:0.00085685001 26:0.00085685001 28:0.098332107 29:0.11568546 30:0.002142125 31:-0.0002142125 32:-0.0002142125 33:0.98816228 #
-100 3:0.0072066239 4:-0.016528169 8:0.00020844 11:-0.00020844 12:-0.00020844 13:-0.00020844 14:-0.00020844 15:-0.00020844 16:-0.00020844 17:0.00062532001 18:-0.00020844 19:-0.00020844 20:0.00250128 21:0.00062532001 22:0.0033350401 23:0.0010422 24:0.00062532001 25:0.00083376002 26:0.00041688001 28:0.19055377 29:0.2241814 30:0.01125576 31:-0.00020844 32:-0.00020844 33:0.95548898 #
-100 3:0.0069391993 4:-0.023377314 8:0.0005889007 11:-0.00019630023 12:-0.00019630023 13:-0.00019630023 14:-0.00019630023 15:-0.00019630023 16:-0.00019630023 17:0.0005889007 18:-0.00019630023 19:-0.00019630023 20:0.0033371039 21:0.0011778014 22:0.0049075056 23:0.0011778014 24:0.0005889007 25:0.00039260046 26:0.00019630023 28:0.070832975 29:0.083333373 30:0.0045149052 31:0.00019630023 32:-0.00019630023 33:0.99367177 #
-100 3:0.007641342 4:-0.017869182 11:-0.00022013164 12:-0.00022013164 13:-0.00022013164 14:-0.00022013164 15:-0.00022013164 16:-0.00022013164 17:0.0006603949 18:-0.00022013164 19:-0.00022013164 20:0.0037422378 21:0.0013207898 22:0.0017610531 23:0.0006603949 24:0.00044026328 25:0.00088052655 26:0.00022013164 28:0.074030273 29:0.087095082 30:0.0046227644 31:-0.00022013164 32:-0.00022013164 33:0.99323392 #
-100 3:0.010893798 4:-0.025660248 8:0.000309867 11:-0.000309867 12:-0.000309867 13:-0.000309867 14:-0.000309867 15:-0.000309867 16:-0.000309867 17:0.00092960097 18:-0.000309867 19:-0.000309867 20:0.000619734 21:0.00092960097 22:0.00092960097 23:0.00092960097 24:0.000619734 25:0.001239468 26:0.00092960097 28:0.070339806 29:0.085780479 30:0.024789359 31:-0.000309867 32:-0.000309867 33:0.99312371 #
60 3:0.0074879071 4:-0.024155021 8:0.00050676154 11:-0.00025338077 12:-0.00025338077 13:-0.00025338077 14:-0.00025338077 15:-0.00025338077 16:-0.00025338077 17:0.00076014228 18:-0.00025338077 19:-0.00025338077 20:0.0043074731 21:0.0015202846 24:0.00025338077 25:0.00050676154 26:0.00050676154 28:0.074448332 29:0.087586127 30:0.024071172 31:-0.00025338077 32:-0.00025338077 33:0.99274582 #
-100 3:0.0083204648 4:-0.020472305 11:-0.00022753805 12:-0.00022753805 13:-0.00022753805 14:-0.00022753805 15:-0.00022753805 16:-0.00022753805 17:0.00068261416 18:-0.00022753805 19:-0.00022753805 20:0.0059159892 21:0.00022753805 22:0.0038681468 23:0.0013652283 24:0.00022753805 25:0.00091015222 26:0.00022753805 28:0.081176475 29:0.095502272 30:0.0020478424 31:-0.00022753805 32:-0.00022753805 33:0.9918384 #
60 3:0.0098525323 4:-0.019272031 11:-0.00023234033 12:-0.00023234033 13:-0.00023234033 14:-0.00023234033 15:-0.00023234033 16:-0.00023234033 17:0.00046468066 18:-0.00023234033 19:-0.00023234033 20:0.0027880841 21:0.00069702102 22:0.0058085085 23:0.001394042 24:0.001394042 25:0.00092936133 26:0.00046468066 28:0.077390246 29:0.091047205 30:0.0058085085 31:0.00023234033 32:-0.00023234033 33:0.99255794 #
-100 3:0.0092275916 4:-0.020915734 11:-0.00023305406 12:-0.00023305406 13:-0.00023305406 14:-0.00023305406 15:-0.00023305406 16:-0.00023305406 17:0.00069916213 18:-0.00023305406 19:-0.00023305406 20:0.0060594054 21:0.00023305406 22:0.0039619189 23:0.0013983243 24:0.00069916213 25:0.00069916213 26:0.00023305406 28:0.07717818 29:0.090797856 30:0.0032627569 31:-0.00023305406 32:-0.00023305406 33:0.9925772 #
60 3:0.0063581569 4:-0.018139793 8:0.00066823896 11:-0.00022274633 12:-0.00022274633 13:-0.00022274633 14:-0.00022274633 15:-0.00022274633 16:-0.00022274633 17:0.00066823896 18:-0.00022274633 19:-0.00022274633 20:0.0037866875 21:0.0013364779 24:0.00022274633 25:0.00089098531 26:0.00022274633 28:0.094936714 29:0.11168946 30:0.004009434 31:-0.00022274633 32:-0.00022274633 33:0.9889937 #
-100 3:0.010475728 4:-0.024687266 8:0.00029807852 11:-0.00029807852 12:-0.00029807852 13:-0.00029807852 14:-0.00029807852 15:-0.00029807852 16:-0.00029807852 17:0.00089423556 18:-0.00029807852 19:-0.00029807852 20:0.0065577272 21:0.0020865495 24:0.00089423556 25:0.00089423556 26:0.0011923141 28:0.12817377 29:0.1563094 30:0.011923141 31:0.00029807852 32:-0.00029807852 33:0.97888982 #
60 3:0.0066275117 4:-0.022264017 8:0.00019838005 11:-0.00019838005 12:-0.00019838005 13:-0.00019838005 14:-0.00019838005 15:-0.00019838005 16:-0.00019838005 17:0.00059514015 18:-0.00019838005 19:-0.00019838005 20:0.0033724606 21:0.0011902803 22:0.0015870404 23:0.00059514015 24:0.0011902803 25:0.00079352019 26:0.00039676009 28:0.10703992 29:0.12592967 30:0.0055546411 31:-0.00019838005 32:-0.00019838005 33:0.9859488 #
-100 3:0.0062942575 4:-0.020222696 8:0.00063528458 11:0.00021176152 12:-0.00021176152 13:-0.00021176152 14:-0.00021176152 15:-0.00021176152 16:-0.00021176152 17:0.00063528458 18:-0.00021176152 19:-0.00021176152 20:0.005294038 21:0.0012705692 24:0.00042352304 25:0.00084704609 26:0.00084704609 28:0.074186414 29:0.087277517 30:0.005294038 31:0.00021176152 32:-0.00021176152 33:0.99316156 #
60 3:0.006210648 4:-0.018728705 11:-0.00022872472 12:-0.00022872472 13:-0.00022872472 14:-0.00022872472 15:-0.00022872472 16:-0.00022872472 17:0.00045744944 18:-0.00022872472 19:-0.00022872472 20:0.0038883202 21:0.0013723483 24:0.00068617414 25:0.00091489888 26:0.00022872472 28:0.074628301 29:0.087798268 30:0.0045744944 31:0.00022872472 32:-0.00022872472 33:0.9931227 #
60 3:0.0075935721 4:-0.015685713 8:0.00061575591 11:-0.00020525197 12:0.00020525197 13:-0.00020525197 14:-0.00020525197 15:-0.00020525197 16:-0.00020525197 17:0.00041050394 18:-0.00020525197 19:-0.00020525197 20:0.0010262599 21:0.0014367638 24:0.0012315118 25:0.00082100788 26:0.00020525197 28:0.078866012 29:0.092784151 30:0.0041050394 31:-0.00020525197 32:-0.00020525197 33:0.99239326 #
-100 3:0.0049594115 4:-0.015396021 11:-0.00019193295 12:-0.00019193295 13:-0.00019193295 14:-0.00019193295 15:-0.00019193295 16:-0.00019193295 17:0.0003838659 18:-0.00019193295 19:-0.00019193295 20:0.0026870614 21:0.0013435307 22:0.0013435307 23:0.0013435307 24:0.00019193295 25:0.00076773181 26:0.00076773181 28:0.15288803 29:0.17986804 30:0.0076773181 31:0.00019193295 32:-0.00019193295 33:0.97156459 #
-100 3:0.0071968008 4:-0.021325443 8:0.00047538546 11:-0.00023769273 12:-0.00023769273 13:-0.00023769273 14:-0.00023769273 15:-0.00023769273 16:-0.00023769273 17:0.00071307819 18:-0.00023769273 19:-0.00023769273 20:0.0019015418 21:0.00071307819 24:0.00071307819 25:0.00047538546 26:0.00023769273 28:0.075823985 29:0.089203708 30:0.0066553964 31:0.00023769273 32:-0.00023769273 33:0.99284256 #
60 3:0.0073063914 4:-0.019552534 8:0.00019880365 11:-0.00019880365 12:-0.00019880365 13:-0.00019880365 14:-0.00019880365 15:-0.00019880365 16:-0.00019880365 17:0.00059641094 18:-0.00019880365 19:-0.00019880365 20:0.0033796621 21:0.0011928219 24:0.00039760731 25:0.00079521461 26:0.00019880365 28:0.077159673 29:0.090775736 30:0.0069581275 31:-0.00019880365 32:-0.00019880365 33:0.99262661 #
60 3:0.0062714461 4:-0.017485937 8:0.0005815624 11:-0.00019385414 12:-0.00019385414 13:-0.00019385414 14:-0.00019385414 15:-0.00019385414 16:-0.00019385414 17:0.00038770828 18:0.00019385414 19:-0.00019385414 20:0.0032955203 21:0.0011631248 22:0.0048463535 23:0.0011631248 24:0.00019385414 25:0.00077541656 26:0.0005815624 28:0.091630973 29:0.10780035 30:0.01550833 31:-0.00019385414 32:-0.00019385414 33:0.98962533 #
60 3:0.0071065379 4:-0.021277422 8:0.00070008368 11:0.00023336124 12:-0.00023336124 13:-0.00023336124 14:-0.00023336124 15:-0.00023336124 16:-0.00023336124 17:0.00023336124 18:0.00023336124 19:-0.00023336124 20:0.006067392 21:0.00023336124 22:0.0039671408 23:0.0014001674 24:0.00023336124 25:0.00093344494 26:0.00023336124 28:0.10055069 29:0.11829548 30:0.0035004185 31:-0.00023336124 32:-0.00023336124 33:0.98758477 #
-100 3:0.0087083373 4:-0.018759873 8:0.00044415661 11:-0.00022207831 12:-0.00022207831 13:-0.00022207831 14:-0.00022207831 15:-0.00022207831 16:-0.00022207831 17:0.00044415661 18:-0.00022207831 19:-0.00022207831 20:0.0019987049 21:0.0015545482 22:0.0037753312 23:0.0013324699 24:0.00044415661 25:0.00088831323 26:0.00022207831 28:0.095749058 29:0.112647 30:0.013324698 31:0.00022207831 32:-0.00022207831 33:0.98869264 #
-100 3:0.012077006 4:-0.021893572 8:0.00088820304 11:-0.00029606768 12:-0.00029606768 13:-0.00029606768 14:-0.00029606768 15:-0.00029606768 16:-0.00029606768 17:0.00059213536 18:-0.00029606768 19:0.00029606768 20:0.0076977597 21:0.00029606768 22:0.0074016917 23:0.0017764061 24:0.00059213536 25:0.0011842707 26:0.00059213536 28:0.13573222 29:0.16552848 30:0.0035528122 31:0.00029606768 32:-0.00029606768 33:0.97643119 #
-100 3:0.0086775459 4:-0.025743684 8:0.00057171262 11:-0.00028585631 12:-0.00028585631 13:-0.00028585631 14:-0.00028585631 15:-0.00028585631 16:-0.00028585631 17:0.00085756899 18:-0.00028585631 19:-0.00028585631 20:0.0048595574 21:0.001715138 22:0.0014292817 23:0.0020009943 24:0.00085756899 25:0.00057171262 26:0.00028585631 28:0.47993848 29:0.58529085 30:0.0068605519 31:-0.00028585631 32:-0.00028585631 33:0.65289587 #
60 3:0.010188693 4:-0.021194894 8:0.00076524733 11:0.00025508244 12:-0.00025508244 13:-0.00025508244 14:-0.00025508244 15:-0.00025508244 16:-0.00025508244 17:0.00076524733 18:-0.00025508244 19:-0.00025508244 20:0.0040813191 21:0.0012754122 22:0.0068872259 23:0.0012754122 24:0.00025508244 25:0.0010203298 26:0.00051016489 28:0.10234162 29:0.11763381 30:0.0076524732 31:-0.00025508244 32:-0.00025508244 33:0.98742408 #
60 3:0.01005059 4:-0.024755299 8:0.00063241908 11:-0.00021080635 12:-0.00021080635 13:-0.00021080635 14:-0.00021080635 15:-0.00021080635 16:-0.00021080635 17:0.00063241908 18:-0.00021080635 19:-0.00021080635 20:0.00063241908 21:0.00063241908 22:0.0004216127 23:0.00063241908 24:0.0004216127 25:0.00063241908 26:0.0008432254 28:0.1073173 29:0.12625614 30:0.012648381 31:-0.00021080635 32:-0.00021080635 33:0.98573053 #
-100 3:0.0073395595 4:-0.020178532 8:0.000414187 11:-0.0002070935 12:-0.0002070935 13:-0.0002070935 14:-0.0002070935 15:-0.0002070935 16:-0.0002070935 17:0.000414187 18:-0.0002070935 19:-0.0002070935 20:0.0035205896 21:0.001242561 24:0.0002070935 25:0.000828374 26:0.0002070935 28:0.073882677 29:0.086921282 30:0.0047631506 31:-0.0002070935 32:-0.0002070935 33:0.99322045 #
60 3:0.009177682 4:-0.027071275 8:0.00083979487 11:-0.00027993161 12:-0.00027993161 13:-0.00027993161 14:-0.00027993161 15:-0.00027993161 16:-0.00027993161 17:0.00055986323 18:-0.00027993161 19:-0.00027993161 20:0.0047588376 21:0.0016795897 22:0.00027993161 23:0.0011197265 24:0.00027993161 25:0.0011197265 26:0.00027993161 28:0.11349828 29:0.13841219 30:0.0061584958 31:-0.00027993161 32:-0.00027993161 33:0.98339981 #
60 3:0.0074783503 4:-0.022484811 8:0.00074927049 11:0.00024975682 12:-0.00024975682 13:-0.00024975682 14:-0.00024975682 15:-0.00024975682 16:-0.00024975682 17:0.00049951364 18:-0.00024975682 19:-0.00024975682 20:0.0059941639 21:0.00099902728 22:0.0042458661 23:0.001498541 24:0.00049951364 25:0.00099902728 26:0.00099902728 28:0.1306403 29:0.15369536 30:0.012487841 31:0.00024975682 32:0.00024975682 33:0.97904676 #
-100 3:0.0091002481 4:-0.015443035 8:0.00043187308 11:-0.00021593654 12:-0.00021593654 13:-0.00021593654 14:-0.00021593654 15:-0.00021593654 16:-0.00021593654 17:0.00043187308 18:-0.00021593654 19:-0.00021593654 20:0.002807175 21:0.00043187308 24:0.00043187308 25:0.00043187308 26:0.00064780965 28:0.059069443 29:0.069492698 30:0.07730528 31:-0.00021593654 32:-0.00021593654 33:0.99266028 #
-100 3:0.010333681 4:-0.027582638 11:-0.00023710665 12:-0.00023710665 13:-0.00023710665 14:-0.00023710665 15:-0.00023710665 16:-0.00023710665 17:0.00071131991 18:-0.00023710665 19:-0.00023710665 20:0.0016597465 21:0.0016597465 22:0.004030813 23:0.0014226398 24:0.00071131991 25:0.0004742133 26:0.00023710665 28:0.19729644 29:0.23211318 30:0.0056905593 31:-0.00023710665 32:-0.00023710665 33:0.95198315 #
60 3:0.0066848737 4:-0.023196811 8:0.00058825599 11:-0.00019608533 12:-0.00019608533 13:0.00019608533 14:-0.00019608533 15:-0.00019608533 16:-0.00019608533 17:0.00058825599 18:-0.00019608533 19:-0.00019608533 20:0.0033334505 21:0.001176512 22:0.0015686826 23:0.00058825599 24:0.001176512 25:0.00058825599 26:0.00019608533 28:0.095020987 29:0.1117902 30:0.0056864745 31:-0.00019608533 32:-0.00019608533 33:0.98885828 #
-100 3:0.0083687324 4:-0.023029463 8:0.00041123675 11:-0.00020561837 12:-0.00020561837 13:-0.00020561837 14:-0.00020561837 15:-0.00020561837 16:-0.00020561837 17:0.0006168551 18:-0.00020561837 19:-0.00020561837 20:0.0034955123 21:0.0012337102 24:0.00020561837 25:0.00082247349 26:0.0006168551 28:0.12788434 29:0.15045302 30:0.0061685513 31:0.00020561837 32:-0.00020561837 33:0.97997713 #
60 3:0.0089792628 4:-0.018388573 11:-0.00021463854 12:-0.00021463854 13:-0.00021463854 14:-0.00021463854 15:-0.00021463854 16:-0.00021463854 17:0.00064391561 18:-0.00021463854 19:-0.00021463854 20:0.003648855 21:0.0012878312 22:0.0021463854 23:0.0010731927 24:0.00064391561 25:0.00064391561 26:0.00042927708 28:0.041691389 29:0.049049199 30:0.023610238 31:-0.00021463854 32:-0.00021463854 33:0.99742526 #
60 3:0.0076765162 4:-0.019007146 8:0.00019896233 11:-0.00019896233 12:-0.00019896233 13:-0.00019896233 14:-0.00019896233 15:-0.00019896233 16:-0.00019896233 17:0.00059688697 18:-0.00019896233 19:-0.00019896233 20:0.0049740584 21:0.0011937739 24:0.00019896233 25:0.00079584931 26:0.00039792465 28:0.059010237 29:0.069423929 30:0.0039792466 31:-0.00019896233 32:-0.00019896233 33:0.9956075 #
60 3:0.0068720654 4:-0.016128482 8:0.00059061055 11:-0.00019687018 12:-0.00019687018 13:-0.00019687018 14:-0.00019687018 15:-0.00019687018 16:-0.00019687018 17:0.00059061055 18:-0.00019687018 19:-0.00019687018 20:0.0049217544 21:0.0011812211 22:0.0047248844 23:0.00078748073 24:0.00039374037 25:0.00059061055 26:0.00039374037 28:0.087912381 29:0.10342575 30:0.014765264 31:0.00019687018 32:-0.00019687018 33:0.99045384 #
60 3:0.0068074986 4:-0.021437846 11:-0.00022451702 12:0.00022451702 13:-0.00022451702 14:-0.00022451702 15:-0.00022451702 16:-0.00022451702 17:0.00067355105 18:-0.00022451702 19:-0.00022451702 20:0.0053884084 21:0.00089806807 24:0.0013471021 25:0.00089806807 26:0.00089806807 28:0.10298371 29:0.12115836 30:0.0071845446 31:-0.00022451702 32:-0.00022451702 33:0.9869768 #
60 3:0.013408937 4:-0.025178203 8:0.0010052869 11:-0.00033509565 12:-0.00033509565 13:-0.00033509565 14:-0.00033509565 15:-0.00033509565 16:-0.00033509565 17:0.00067019131 18:-0.00033509565 19:-0.00033509565 20:0.0056966264 21:0.0020105739 22:0.0077072 23:0.0020105739 24:0.0010052869 25:0.0013403826 26:0.00033509565 28:0.084779203 29:0.10339042 30:0.0053615305 31:-0.00033509565 32:-0.00033509565 33:0.99054277 #
-100 3:0.008182181 4:-0.025068216 8:0.00061736774 11:-0.00020578924 12:-0.00020578924 13:-0.00020578924 14:-0.00020578924 15:-0.00020578924 16:-0.00020578924 17:0.00061736774 18:-0.00020578924 19:-0.00020578924 20:0.0016463139 21:0.00061736774 24:0.0012347355 25:0.00041157848 26:0.00082315697 28:0.077866532 29:0.091607079 30:0.012347355 31:-0.00020578924 32:0.00020578924 33:0.99231571 #
-100 3:0.0072117522 4:-0.017050976 8:0.00020083527 11:-0.00020083527 12:-0.00020083527 13:-0.00020083527 14:-0.00020083527 15:-0.00020083527 16:-0.00020083527 17:0.00060250581 18:-0.00020083527 19:-0.00020083527 20:0.0010041764 21:0.0014058469 24:0.00060250581 25:0.0008033411 26:0.00040167055 28:0.089972198 29:0.10585023 30:0.0044183759 31:-0.00020083527 32:-0.00020083527 33:0.99011791 #
60 3:0.0096446835 4:-0.019875502 8:0.00069476105 11:-0.00023158701 12:-0.00023158701 13:-0.00023158701 14:-0.00023158701 15:-0.00023158701 16:-0.00023158701 17:0.00069476105 18:-0.00023158701 19:-0.00023158701 20:0.0057896753 21:0.0013895221 24:0.00023158701 25:0.00046317402 26:0.00023158701 28:0.07260716 29:0.085420869 30:0.10421415 31:-0.00023158701 32:-0.00023158701 33:0.98795021 #
52.220923031782149337232112884521 3:0.007226327 4:-0.025001952 8:0.00063391658 11:-0.00021130552 12:-0.00021130552 13:-0.00021130552 14:-0.00021130552 15:-0.00021130552 16:-0.00021130552 17:0.00063391658 18:-0.00021130552 19:-0.00021130552 20:0.0050713327 21:0.00084522209 24:0.0012678332 25:0.00042261105 26:0.00042261105 28:0.069863945 29:0.082193621 30:0.15847914 31:0.00021130552 32:-0.00021130552 33:0.98109156 #
-100 3:0.00977749 4:-0.01919906 8:0.00069319573 11:-0.00023106523 12:-0.00023106523 13:-0.00023106523 14:-0.00023106523 15:-0.00023106523 16:-0.00023106523 17:0.00046213047 18:-0.00023106523 19:-0.00023106523 20:0.0053145005 21:0.0013863915 22:0.0039281091 23:0.0013863915 24:0.00046213047 25:0.00092426094 26:0.00023106523 28:0.11057858 29:0.13009204 30:0.0069319573 31:-0.00023106523 32:-0.00023106523 33:0.98503113 #
-100 3:0.0073159765 4:-0.017242532 8:0.0004188742 11:-0.0002094371 12:-0.0002094371 13:-0.0002094371 14:-0.0002094371 15:-0.0002094371 16:-0.0002094371 17:0.0006283113 18:-0.0002094371 19:-0.0002094371 20:0.0035604308 21:0.0012566226 24:0.0006283113 25:0.0006283113 26:0.0002094371 28:0.036921669 29:0.043437254 30:0.0050264904 31:-0.0002094371 32:-0.0002094371 33:0.99817723 #
-100 3:0.006086091 4:-0.018445196 8:0.00020466224 11:-0.00020466224 12:-0.00020466224 13:-0.00020466224 14:-0.00020466224 15:-0.00020466224 16:-0.00020466224 17:0.00061398669 18:-0.00020466224 19:-0.00020466224 20:0.00020466224 21:0.00081864896 22:0.0012279734 23:0.00081864896 24:0.00061398669 25:0.00081864896 26:0.00040932448 28:0.077145383 29:0.090759516 30:0.012279734 31:-0.00020466224 32:-0.00020466224 33:0.99261189 #
60 3:0.010218268 4:-0.01851151 8:0.00075095461 11:-0.0002503182 12:-0.0002503182 13:-0.0002503182 14:-0.0002503182 15:-0.0002503182 16:-0.0002503182 17:0.00050063641 18:-0.0002503182 19:-0.0002503182 20:0.0042554094 21:0.0015019092 24:0.0002503182 25:0.0010012728 26:0.0002503182 28:0.10990721 29:0.12930186 30:0.0030038184 31:-0.0002503182 32:0.0002503182 33:0.98525244 #
60 3:0.006822871 4:-0.024392789 8:0.00062476879 11:0.00020825626 12:-0.00020825626 13:-0.00020825626 14:-0.00020825626 15:-0.00020825626 16:-0.00020825626 17:0.00062476879 18:-0.00020825626 19:-0.00020825626 20:0.0052064061 21:0.0012495376 22:0.0016660501 23:0.00062476879 24:0.00062476879 25:0.00083302503 26:0.00020825626 28:0.1479973 29:0.17411472 30:0.004789894 31:-0.00020825626 32:-0.00020825626 33:0.97318149 #
-100 3:0.0066116387 4:-0.017302493 8:0.0006113422 11:-0.00020378073 12:-0.00020378073 13:-0.00020378073 14:-0.00020378073 15:-0.00020378073 16:-0.00020378073 17:0.00040756146 18:-0.00020378073 19:-0.00020378073 20:0.0052982988 21:0.00020378073 22:0.0034642722 23:0.0012226844 24:0.0006113422 25:0.00081512291 26:0.00040756146 28:0.070607983 29:0.083069175 30:0.0034642722 31:-0.00020378073 32:-0.00020378073 33:0.99383861 #
60 3:0.0070331255 4:-0.024482585 8:0.00041407844 11:-0.00020703922 12:-0.00020703922 13:0.00020703922 14:-0.00020703922 15:-0.00020703922 16:-0.00020703922 17:0.00041407844 18:-0.00020703922 19:-0.00020703922 20:0.0035196668 21:0.0012422354 22:0.0016563138 23:0.00062111771 24:0.00062111771 25:0.00082815689 26:0.00020703922 28:0.10032707 29:0.118031 30:0.0051759807 31:-0.00020703922 32:-0.00020703922 33:0.98757714 #
60 3:0.012373872 4:-0.021839364 8:0.00089855795 11:-0.00029951931 12:0.00029951931 13:-0.00029951931 14:-0.00029951931 15:-0.00029951931 16:-0.00029951931 17:0.00059903861 18:-0.00029951931 19:-0.00029951931 20:0.0050918283 21:0.0017971159 22:0.0074879825 23:0.0017971159 24:0.00029951931 25:0.0011980772 26:0.0011980772 28:0.1225034 29:0.14939424 30:0.017971158 31:0.00029951931 32:-0.00029951931 33:0.98062623 #
60 3:0.0078982124 4:-0.021910297 8:0.00020301643 11:-0.00020301643 12:-0.00020301643 13:-0.00020301643 14:-0.00020301643 15:-0.00020301643 16:-0.00020301643 17:0.00040603286 18:-0.00020301643 19:-0.00020301643 20:0.001421115 21:0.001421115 22:0.0050754109 23:0.0012180986 24:0.00040603286 25:0.00060904928 26:0.00020301643 28:0.070440613 29:0.08287131 30:0.0050754109 31:-0.00020301643 32:-0.00020301643 33:0.99376547 #
60 3:0.0089057824 4:-0.020984387 8:0.00020627126 11:-0.00020627126 12:-0.00020627126 13:-0.00020627126 14:-0.00020627126 15:-0.00020627126 16:-0.00020627126 17:0.00061881379 18:-0.00020627126 19:-0.00020627126 20:0.0045379675 21:0.0014438988 22:0.0024752552 23:0.00061881379 24:0.00041254252 25:0.00082508504 26:0.00082508504 28:0.10320988 29:0.12142364 30:0.033003401 31:-0.00020627126 32:-0.00020627126 33:0.98638916 #
60 3:0.0068937931 4:-0.024007129 8:0.0006089767 11:-0.00020299222 12:-0.00020299222 13:-0.00020299222 14:-0.00020299222 15:-0.00020299222 16:-0.00020299222 17:0.0006089767 18:-0.00020299222 19:-0.00020299222 20:0.0050748056 21:0.0012179534 22:0.0016239377 23:0.0006089767 24:0.0012179534 25:0.00081196887 26:0.00020299222 28:0.073247716 29:0.086174257 30:0.0048718136 31:-0.00020299222 32:0.00020299222 33:0.99324095 #
-100 3:0.0066789463 4:-0.02323309 8:0.00039312162 11:-0.00019656081 12:-0.00019656081 13:-0.00019656081 14:-0.00019656081 15:-0.00019656081 16:-0.00019656081 17:0.00039312162 18:-0.00019656081 19:-0.00019656081 20:0.0033415337 21:0.0011793649 24:0.00019656081 25:0.00078624324 26:0.00019656081 28:0.072413005 29:0.085191421 30:0.0045208987 31:-0.00019656081 32:-0.00019656081 33:0.99341834 #
60 3:0.0066217738 4:-0.022238024 8:0.00019898071 11:-0.00019898071 12:-0.00019898071 13:-0.00019898071 14:-0.00019898071 15:-0.00019898071 16:-0.00019898071 17:0.00059694209 18:-0.00019898071 19:-0.00019898071 20:0.0015918456 21:0.00059694209 24:0.00059694209 25:0.00039796141 26:0.00079592282 28:0.081528366 29:0.095916659 30:0.029847106 31:0.00019898071 32:-0.00019898071 33:0.99132186 #
-100 3:0.0090533867 4:-0.016415032 8:0.00044258795 11:0.00022129397 12:-0.00022129397 13:-0.00022129397 14:-0.00022129397 15:-0.00022129397 16:-0.00022129397 17:0.00044258795 18:-0.00022129397 19:-0.00022129397 20:0.0037619977 21:0.0013277639 22:0.0019916459 23:0.0015490578 24:0.0013277639 25:0.00066388195 26:0.00044258795 28:0.10691155 29:0.12577908 30:0.0026555278 31:-0.00022129397 32:-0.00022129397 33:0.98608595 #
60 3:0.0081729461 4:-0.014834854 8:0.00060149049 11:-0.00020049683 12:-0.00020049683 13:-0.00020049683 14:-0.00020049683 15:-0.00020049683 16:-0.00020049683 17:0.00040099365 18:-0.00020049683 19:-0.00020049683 20:0.0042104335 21:0.001202981 22:0.0044109304 23:0.0014034779 24:0.00060149049 25:0.00080198731 26:0.00080198731 28:0.44868785 29:0.54717988 30:0.02405962 31:0.00020049683 32:-0.00020049683 33:0.70594931 #
60 3:0.0085333856 4:-0.029782597 8:0.00075551233 11:-0.00025183745 12:-0.00025183745 13:-0.00025183745 14:-0.00025183745 15:-0.00025183745 16:-0.00025183745 17:0.00050367491 18:-0.00025183745 19:-0.00025183745 20:0.0025183745 21:0.0012591872 22:0.005540424 23:0.0017628622 24:0.00025183745 25:0.0010073498 26:0.00025183745 28:0.12830363 29:0.15094633 30:0.0062959362 31:-0.00025183745 32:-0.00025183745 33:0.9796477 #
60 3:0.0071245795 4:-0.015992552 8:0.00020509155 11:-0.00020509155 12:-0.00020509155 13:-0.00020509155 14:-0.00020509155 15:-0.00020509155 16:-0.00020509155 17:0.0004101831 18:-0.00020509155 19:-0.00020509155 20:0.0053323801 21:0.00020509155 24:0.00061527465 25:0.0008203662 26:0.00020509155 28:0.13178977 29:0.15504716 30:0.0024610986 31:-0.00020509155 32:-0.00020509155 33:0.97890198 #
60 3:0.0075434041 4:-0.019874783 11:-0.00021495949 12:-0.00021495949 13:-0.00021495949 14:-0.00021495949 15:-0.00021495949 16:-0.00021495949 17:0.00064487848 18:-0.00021495949 19:-0.00021495949 20:0.0038692709 21:0.0010747975 24:0.001289757 25:0.00064487848 26:0.00085983798 28:0.094917513 29:0.11166716 30:0.026869936 31:0.00021495949 32:-0.00021495949 33:0.9885987 #
-100 3:0.007080819 4:-0.015331832 8:0.00059083611 11:-0.00019694537 12:-0.00019694537 13:-0.00019694537 14:-0.00019694537 15:-0.00019694537 16:-0.00019694537 17:0.00059083611 18:-0.00019694537 19:-0.00019694537 20:0.0033480714 21:0.0011816722 22:0.0013786176 23:0.0013786176 24:0.0011816722 25:0.00078778149 26:0.00019694537 28:0.15712695 29:0.18485489 30:0.0045297435 31:-0.00019694537 32:-0.00019694537 33:0.96995592 #
60 3:0.0086276326 4:-0.015533706 8:0.00042347694 11:-0.00021173847 12:-0.00021173847 13:-0.00021173847 14:-0.00021173847 15:-0.00021173847 16:-0.00021173847 17:0.00021173847 18:-0.00021173847 19:-0.00021173847 20:0.0012704309 21:0.00084695389 22:0.00021173847 23:0.00084695389 24:0.0012704309 25:0.00063521543 26:0.00042347694 28:0.067796543 29:0.079759769 30:0.0063521541 31:-0.00021173847 32:-0.00021173847 33:0.99432385 #
60 3:0.0077080363 4:-0.023691643 8:0.00071248843 11:-0.00023749615 12:-0.00023749615 13:-0.00023749615 14:-0.00023749615 15:-0.00023749615 16:-0.00023749615 17:0.00071248843 18:-0.00023749615 19:-0.00023749615 20:0.0056999074 21:0.00094998459 24:0.0004749923 25:0.00094998459 26:0.00094998459 28:0.16201749 29:0.19060965 30:0.011399815 31:-0.00023749615 32:-0.00023749615 33:0.9677968 #
-100 3:0.00873766 4:-0.026361845 8:0.00058536173 11:-0.00029268087 12:-0.00029268087 13:-0.00029268087 14:-0.00029268087 15:-0.00029268087 16:-0.00029268087 17:0.00087804266 18:-0.00029268087 19:-0.00029268087 20:0.004975575 21:0.0017560853 22:0.0067316601 23:0.0017560853 24:0.00029268087 25:0.0011707235 26:0.00058536173 28:0.12690936 29:0.15476672 30:0.0064389794 31:-0.00029268087 32:-0.00029268087 33:0.97931021 #
60 3:0.0075702262 4:-0.026339585 8:0.00066696561 11:-0.00022232186 12:0.00022232186 13:-0.00022232186 14:-0.00022232186 15:-0.00022232186 16:-0.00022232186 17:0.00066696561 18:-0.00022232186 19:-0.00022232186 20:0.0055580465 21:0.0013339312 22:0.0013339312 23:0.00088928745 24:0.00066696561 25:0.00088928745 26:0.00022232186 28:0.13520949 29:0.15906908 30:0.0048910808 31:0.00022232186 32:-0.00022232186 33:0.97754925 #
60 3:0.013014288 4:-0.025876259 8:0.00067048415 11:-0.00033524208 12:-0.00033524208 13:-0.00033524208 14:-0.00033524208 15:-0.00033524208 16:-0.00033524208 17:0.0010057262 18:-0.00033524208 19:-0.00033524208 20:0.0056991153 21:0.0020114523 24:0.00033524208 25:0.0010057262 26:0.0010057262 28:0.14482458 29:0.17661558 30:0.033524208 31:-0.00033524208 32:-0.00033524208 33:0.97253728 #
-100 3:0.011399927 4:-0.028813429 8:0.00033369876 11:-0.00033369876 12:-0.00033369876 13:-0.00033369876 14:-0.00033369876 15:-0.00033369876 16:-0.00033369876 17:0.00066739751 18:-0.00033369876 19:-0.00033369876 20:0.0056728791 21:0.0020021927 22:0.0016684938 23:0.0023358914 24:0.00066739751 25:0.001334795 26:0.00033369876 28:0.046717826 29:0.056972388 30:0.0060065775 31:-0.00033369876 32:-0.00033369876 33:0.99675822 #
60 3:0.0089782458 4:-0.032163318 8:0.00082436838 11:-0.00027478946 12:-0.00027478946 13:0.00027478946 14:-0.00027478946 15:-0.00027478946 16:-0.00027478946 17:0.00054957892 18:-0.00027478946 19:-0.00027478946 20:0.0019235263 21:0.0019235263 22:0.0071445261 23:0.00027478946 24:0.00082436838 25:0.0010991578 26:0.00027478946 28:0.13135761 29:0.16019127 30:0.0027478947 31:-0.00027478946 32:-0.00027478946 33:0.97770089 #
60 3:0.0072940192 4:-0.02552416 8:0.00064715679 11:-0.00021571893 12:-0.00021571893 13:-0.00021571893 14:-0.00021571893 15:-0.00021571893 16:-0.00021571893 17:0.00064715679 18:-0.00021571893 19:-0.00021571893 20:0.0036672219 21:0.0012943136 24:0.0012943136 25:0.00043143786 26:0.00021571893 28:0.084762439 29:0.099720389 30:0.0064715678 31:-0.00021571893 32:-0.00021571893 33:0.99101275 #
60 3:0.0087142047 4:-0.027945518 8:0.00045905192 11:-0.00022952596 12:0.00022952596 13:0.00022952596 14:-0.00022952596 15:-0.00022952596 16:-0.00022952596 17:0.00068857789 18:-0.00022952596 19:-0.00022952596 20:0.0039019415 21:0.0013771558 22:0.0020657338 23:0.0016066817 24:0.00045905192 25:0.00068857789 26:0.00045905192 28:0.10689254 29:0.12575498 30:0.0068857791 31:-0.00022952596 32:-0.00022952596 33:0.98581403 #
60 3:0.0075904052 4:-0.026118251 8:0.00044613276 11:-0.00022306638 12:-0.00022306638 13:-0.00022306638 14:-0.00022306638 15:-0.00022306638 16:-0.00022306638 17:0.00066919916 18:-0.00022306638 19:-0.00022306638 20:0.0057997261 21:0.00022306638 24:0.00066919916 25:0.00089226553 26:0.00022306638 28:0.10920884 29:0.12848178 30:0.0022306638 31:-0.00022306638 32:-0.00022306638 33:0.98528421 #
-100 3:0.013226384 4:-0.027049568 8:0.00092280563 11:0.00030760188 12:-0.00030760188 13:-0.00030760188 14:-0.00030760188 15:-0.00030760188 16:-0.00030760188 17:0.00092280563 18:-0.00030760188 19:-0.00030760188 20:0.0021532131 21:0.0021532131 22:0.002460815 23:0.00092280563 24:0.00092280563 25:0.0012304075 26:0.00030760188 28:0.067364812 29:0.082151234 30:0.00492163 31:-0.00030760188 32:-0.00030760188 33:0.99386168 #
60 3:0.0093677696 4:-0.031421602 8:0.00028004069 11:-0.00028004069 12:-0.00028004069 13:-0.00028004069 14:-0.00028004069 15:-0.00028004069 16:-0.00028004069 17:0.00084012205 18:-0.00028004069 19:-0.00028004069 20:0.0070010172 21:0.0016802441 22:0.0022403256 23:0.00084012205 24:0.00056008139 25:0.0011201628 26:0.00028004069 28:0.031372961 29:0.03825916 30:0.016802441 31:-0.00028004069 32:-0.00028004069 33:0.99806505 #
60 3:0.01215285 4:-0.033451658 8:0.0010288832 11:-0.00034296105 12:-0.00034296105 13:-0.00034296105 14:-0.00034296105 15:-0.00034296105 16:-0.00034296105 17:0.0006859221 18:-0.00034296105 19:-0.00034296105 20:0.0058303378 21:0.0020577663 24:0.0006859221 25:0.0013718442 26:0.00034296105 28:0.10563201 29:0.1288196 30:0.0082310652 31:-0.00034296105 32:-0.00034296105 33:0.98532712 #
60 3:0.0094604949 4:-0.016142046 8:0.00045328063 11:-0.00022664032 12:-0.00022664032 13:-0.00022664032 14:-0.00022664032 15:-0.00022664032 16:-0.00022664032 17:0.00067992095 18:-0.00022664032 19:-0.00022664032 20:0.0027196838 21:0.00067992095 22:0.0054393676 23:0.00090656127 24:0.00045328063 25:0.00045328063 26:0.00045328063 28:0.1432548 29:0.16853426 30:0.0067992094 31:0.00022664032 32:-0.00022664032 33:0.97500664 #
60 3:0.007177121 4:-0.025058899 8:0.00042495827 11:-0.00021247914 12:-0.00021247914 13:-0.00021247914 14:-0.00021247914 15:-0.00021247914 16:-0.00021247914 17:0.00042495827 18:-0.00021247914 19:-0.00021247914 20:0.0050994991 21:0.00084991654 24:0.00042495827 25:0.00084991654 26:0.00084991654 28:0.10390655 29:0.12224349 30:0.01699833 31:0.00021247914 32:-0.00021247914 33:0.98654062 #
60 3:0.0083216522 4:-0.021305345 8:0.00047449078 11:-0.00023724539 12:-0.00023724539 13:-0.00023724539 14:-0.00023724539 15:-0.00023724539 16:-0.00023724539 17:0.00047449078 18:-0.00023724539 19:-0.00023724539 20:0.0037959262 21:0.001186227 22:0.0064056255 23:0.001186227 24:0.00071173615 25:0.00047449078 26:0.00047449078 28:0.14333655 29:0.16863164 30:0.010913287 31:0.00023724539 32:-0.00023724539 33:0.9748413 #
-100 3:0.0074679786 4:-0.023414699 8:0.00057967287 11:-0.00019322429 12:-0.00019322429 13:-0.00019322429 14:-0.00019322429 15:-0.00019322429 16:-0.00019322429 17:0.00057967287 18:-0.00019322429 19:-0.00019322429 20:0.0032848129 21:0.0011593457 22:0.0025119158 23:0.00038644858 24:0.0011593457 25:0.00038644858 26:0.00038644858 28:0.14046632 29:0.16525507 30:0.0135257 31:-0.00019322429 32:-0.00019322429 33:0.97578263 #
60 3:0.0096307155 4:-0.023221174 8:0.00028727038 11:-0.00028727038 12:-0.00028727038 13:-0.00028727038 14:-0.00028727038 15:-0.00028727038 16:-0.00028727038 17:0.00057454075 18:-0.00028727038 19:-0.00028727038 20:0.0071817595 21:0.0017236223 24:0.00028727038 25:0.0011490815 26:0.0011490815 28:0.13300619 29:0.16220148 30:0.014363519 31:0.00028727038 32:-0.00028727038 33:0.97729385 #
-100 3:0.011403057 4:-0.022514528 8:0.0005393608 11:0.0002696804 12:-0.0002696804 13:-0.0002696804 14:-0.0002696804 15:-0.0002696804 16:-0.0002696804 17:0.0005393608 18:-0.0002696804 19:-0.0002696804 20:0.0045845667 21:0.0016180824 24:0.0008090412 25:0.0008090412 26:0.0005393608 28:0.12805504 29:0.15616383 30:0.015102102 31:-0.0002696804 32:-0.0002696804 33:0.97893983 #
-100 3:0.0071530878 4:-0.024816122 8:0.00062981882 11:-0.00020993959 12:-0.00020993959 13:-0.00020993959 14:-0.00020993959 15:-0.00020993959 16:-0.00020993959 17:0.00062981882 18:0.00020993959 19:-0.00020993959 20:0.0018894564 21:0.0014695772 22:0.0056683691 23:0.001049698 24:0.00041987919 25:0.00062981882 26:0.00020993959 28:0.087334871 29:0.10274654 30:0.0052484898 31:-0.00020993959 32:-0.00020993959 33:0.99049503 #
60 3:0.0090121552 4:-0.01552387 8:0.00064191525 11:-0.00021397175 12:-0.00021397175 13:-0.00021397175 14:-0.00021397175 15:-0.00021397175 16:-0.00021397175 17:0.00042794351 18:-0.00021397175 19:-0.00021397175 20:0.004493407 21:0.0012838305 24:0.0012838305 25:0.00085588702 26:0.00085588702 28:0.083776362 29:0.09855967 30:0.032095764 31:0.00021397175 32:-0.00021397175 33:0.9909032 #
60 3:0.010292814 4:-0.027629614 11:-0.00028601594 12:-0.00028601594 13:-0.00028601594 14:-0.00028601594 15:-0.00028601594 16:-0.00028601594 17:0.00085804786 18:-0.00028601594 19:-0.00028601594 20:0.0071503986 21:0.0017160957 22:0.00028601594 23:0.0011440638 24:0.00028601594 25:0.0011440638 26:0.0011440638 28:0.13700163 29:0.16707622 30:0.0057203192 31:0.00028601594 32:-0.00028601594 33:0.9758864 #
60 3:0.0072368709 4:-0.018880328 8:0.00066702027 11:-0.0002223401 12:-0.0002223401 13:-0.0002223401 14:-0.0002223401 15:-0.0002223401 16:-0.0002223401 17:0.00044468019 18:-0.0002223401 19:-0.0002223401 20:0.0015563807 21:0.0015563807 22:0.0020010609 23:0.0015563807 24:0.00044468019 25:0.00044468019 26:0.0002223401 28:0.084667109 29:0.099608362 30:0.0051138219 31:0.0002223401 32:-0.0002223401 33:0.9911921 #
-100 3:0.0070793005 4:-0.021517783 8:0.00046752297 11:-0.00023376149 12:-0.00023376149 13:-0.00023376149 14:-0.00023376149 15:-0.00023376149 16:-0.00023376149 17:0.00070128444 18:-0.00023376149 19:-0.00023376149 20:0.003973945 21:0.0014025689 24:0.00070128444 25:0.00093504594 26:0.00023376149 28:0.053575795 29:0.06303145 30:0.0051427525 31:-0.00023376149 32:-0.00023376149 33:0.99629146 #
-100 3:0.011930976 4:-0.021198545 8:0.00086863397 11:-0.00028954467 12:-0.00028954467 13:-0.00028954467 14:-0.00028954467 15:-0.00028954467 16:-0.00028954467 17:0.00086863397 18:-0.00028954467 19:-0.00028954467 20:0.0020268126 21:0.0020268126 22:0.00028954467 23:0.0011581787 24:0.00057908933 25:0.0011581787 26:0.00028954467 28:0.13613231 29:0.16601622 30:0.0072386162 31:-0.00028954467 32:-0.00028954467 33:0.97634459 #
-100 3:0.0099708932 4:-0.029585181 8:0.0006590602 11:-0.0003295301 12:-0.0003295301 13:-0.0003295301 14:-0.0003295301 15:-0.0003295301 16:-0.0003295301 17:0.0009885903 18:-0.0003295301 19:-0.0003295301 20:0.0023067107 21:0.0023067107 22:0.0019771806 23:0.0013181204 24:0.0006590602 25:0.0013181204 26:0.0003295301 28:0.2168308 29:0.26442814 30:0.006590602 31:-0.0003295301 32:-0.0003295301 33:0.93916076 #
-100 3:0.0059041656 4:-0.017046409 8:0.00019257418 11:-0.00019257418 12:-0.00019257418 13:-0.00019257418 14:-0.00019257418 15:-0.00019257418 16:-0.00019257418 17:0.0005777225 18:-0.00019257418 19:-0.00019257418 20:0.0048143542 21:0.001155445 22:0.0032737609 23:0.001155445 24:0.0005777225 25:0.0005777225 26:0.00077029673 28:0.14028451 29:0.16503991 30:0.014443063 31:-0.00019257418 32:-0.00019257418 33:0.97596592 #
-100 3:0.0092553031 4:-0.026627172 11:-0.00029645144 12:-0.00029645144 13:-0.00029645144 14:-0.00029645144 15:-0.00029645144 16:-0.00029645144 17:0.00059290288 18:-0.00029645144 19:-0.00029645144 20:0.0023716115 21:0.00088935433 24:0.00088935433 25:0.0011858058 26:0.00088935433 28:0.25020501 29:0.30512857 30:0.023716116 31:0.00029645144 32:-0.00029645144 33:0.91811013 #
60 3:0.0097790314 4:-0.021659439 8:0.00022562794 11:-0.00022562794 12:-0.00022562794 13:-0.00022562794 14:-0.00022562794 15:-0.00022562794 16:-0.00022562794 17:0.00067688385 18:-0.00022562794 19:-0.00022562794 20:0.0038356751 21:0.0013537677 24:0.00067688385 25:0.00045125588 26:0.00022562794 28:0.059495833 29:0.069994301 30:0.0040613031 31:-0.00022562794 32:-0.00022562794 33:0.99547052 #
-100 3:0.0076196892 4:-0.019968459 8:0.00024476025 11:-0.00024476025 12:-0.00024476025 13:-0.00024476025 14:-0.00024476025 15:-0.00024476025 16:-0.00024476025 17:0.00073428074 18:-0.00024476025 19:-0.00024476025 20:0.0041609243 21:0.0014685615 22:0.0061190063 23:0.0014685615 24:0.00024476025 25:0.00073428074 26:0.00048952049 28:0.10320805 29:0.12142067 30:0.012972293 31:-0.00024476025 32:0.00024476025 33:0.98687333 #
-100 3:0.0076023019 4:-0.026338333 8:0.00066721707 11:-0.0002224057 12:-0.0002224057 13:-0.0002224057 14:-0.0002224057 15:-0.0002224057 16:-0.0002224057 17:0.0002224057 18:-0.0002224057 19:-0.0002224057 20:0.0037808968 21:0.0013344341 22:0.0017792456 23:0.00066721707 24:0.00066721707 25:0.00088962278 26:0.00044481139 28:0.12119108 29:0.14257762 30:0.0064497651 31:0.0002224057 32:-0.0002224057 33:0.98192114 #
60 3:0.0091990195 4:-0.02439083 8:0.0007634862 11:-0.00025449539 12:-0.00025449539 13:-0.00025449539 14:-0.00025449539 15:-0.00025449539 16:-0.00025449539 17:0.00050899078 18:-0.00025449539 19:-0.00025449539 20:0.0043264218 21:0.0015269724 22:0.0063623847 23:0.0015269724 24:0.00025449539 25:0.0010179816 26:0.0010179816 28:0.1209693 29:0.1390461 30:0.035629354 31:0.00025449539 32:-0.00025449539 33:0.98184323 #
-100 3:0.01118568 4:-0.021190662 8:0.0002491117 11:-0.0002491117 12:-0.0002491117 13:-0.0002491117 14:-0.0002491117 15:-0.0002491117 16:-0.0002491117 17:0.00074733514 18:-0.0002491117 19:-0.0002491117 20:0.0024911172 21:0.0012455586 24:0.00074733514 25:0.00099644682 26:0.00049822341 28:0.13812995 29:0.16250554 30:0.018434267 31:-0.0002491117 32:-0.0002491117 33:0.97651792 #
60 3:0.0083080698 4:-0.028989794 8:0.00073552615 11:-0.00024517538 12:-0.00024517538 13:-0.00024517538 14:-0.00024517538 15:-0.00024517538 16:-0.00024517538 17:0.00049035077 18:-0.00024517538 19:-0.00024517538 20:0.0041679814 21:0.0014710523 24:0.00049035077 25:0.00098070153 26:0.00049035077 28:0.14707336 29:0.17302762 30:0.0098070148 31:-0.00024517538 32:0.00024517538 33:0.97334623 #
60 3:0.0089031728 4:-0.023524834 11:-0.00022413713 12:0.00022413713 13:-0.00022413713 14:-0.00022413713 15:-0.00022413713 16:-0.00022413713 17:0.00044827425 18:-0.00022413713 19:-0.00022413713 20:0.003810331 21:0.0013448227 22:0.001793097 23:0.00067241135 24:0.0013448227 25:0.00022413713 26:0.00044827425 28:0.14354414 29:0.16887611 30:0.0062758392 31:-0.00022413713 32:-0.00022413713 33:0.97477233 #
60 3:0.0098816026 4:-0.019552106 11:0.00025414047 12:-0.00025414047 13:-0.00025414047 14:-0.00025414047 15:0.00025414047 16:-0.00025414047 17:0.00025414047 18:-0.00025414047 19:-0.00025414047 20:0.0015248428 21:0.0010165619 24:0.0007624214 25:0.0010165619 26:0.00025414047 28:0.10248468 29:0.12056932 30:0.025414046 31:-0.00025414047 32:0.00025414047 33:0.98682743 #
60 3:0.014143161 4:-0.025609668 8:0.0010390496 11:-0.00034634984 12:-0.00034634984 13:-0.00034634984 14:-0.00034634984 15:-0.00034634984 16:-0.00034634984 17:0.0010390496 18:-0.00034634984 19:-0.00034634984 20:0.0058879475 21:0.0020780992 22:0.0058879475 23:0.0020780992 24:0.00069269969 25:0.0013853994 26:0.00069269969 28:0.13750088 29:0.16768527 30:0.010390495 31:-0.00034634984 32:-0.00034634984 33:0.97566754 #
60 3:0.0071643265 4:-0.024760136 8:0.00062719936 11:-0.00020906646 12:-0.00020906646 13:-0.00020906646 14:-0.00020906646 15:-0.00020906646 16:-0.00020906646 17:0.00062719936 18:-0.00020906646 19:-0.00020906646 20:0.0012543987 21:0.00083626586 24:0.0012543987 25:0.00083626586 26:0.00041813293 28:0.073001824 29:0.085884504 30:0.005435728 31:-0.00020906646 32:-0.00020906646 33:0.99327475 #
60 3:0.0074695498 4:-0.024388989 8:0.00059984636 11:-0.00019994879 12:-0.00019994879 13:-0.00019994879 14:-0.00019994879 15:-0.00019994879 16:-0.00019994879 17:0.00059984636 18:-0.00019994879 19:-0.00019994879 20:0.0049987198 21:0.0011996927 22:0.004598822 23:0.0011996927 24:0.00039989757 25:0.00059984636 26:0.00039989757 28:0.14355123 29:0.16888474 30:0.005598566 31:-0.00019994879 32:-0.00019994879 33:0.97475034 #
-100 3:0.0077835321 4:-0.018537147 8:0.00022014313 11:-0.00022014313 12:-0.00022014313 13:-0.00022014313 14:-0.00022014313 15:-0.00022014313 16:-0.00022014313 17:0.00066042942 18:-0.00022014313 19:-0.00022014313 20:0.0037424332 21:0.0013208588 22:0.001541002 23:0.001541002 24:0.00022014313 25:0.00088057254 26:0.00022014313 28:0.13208808 29:0.15539683 30:0.0037424332 31:0.00022014313 32:-0.00022014313 33:0.97875637 #
60 3:0.009272242 4:-0.027287276 8:0.00084610039 11:-0.00028203346 12:-0.00028203346 13:-0.00028203346 14:-0.00028203346 15:-0.00028203346 16:-0.00028203346 17:0.00084610039 18:-0.00028203346 19:-0.00028203346 20:0.0070508365 21:0.0016922008 22:0.006204736 23:0.0019742341 24:0.00028203346 25:0.0011281339 26:0.0011281339 28:0.087351404 29:0.10652686 30:0.042305019 31:0.00028203346 32:-0.00028203346 33:0.98909134 #
60 3:0.0073560677 4:-0.023761641 8:0.00058318983 11:-0.00019439661 12:-0.00019439661 13:-0.00019439661 14:-0.00019439661 15:-0.00019439661 16:-0.00019439661 17:0.00019439661 18:-0.00019439661 19:-0.00019439661 20:0.0023327593 21:0.00058318983 22:0.0033047423 23:0.0011663797 24:0.00019439661 25:0.00019439661 26:0.00058318983 28:0.10000733 29:0.1176566 30:0.0171069 31:-0.00019439661 32:-0.00019439661 33:0.98753476 #
-100 3:0.0077450369 4:-0.017504042 11:-0.00022132693 12:-0.00022132693 13:-0.00022132693 14:-0.00022132693 15:-0.00022132693 16:-0.00022132693 17:0.00066398078 18:-0.00022132693 19:-0.00022132693 20:0.0037625579 21:0.0013279616 22:0.0055331732 23:0.0013279616 24:0.00066398078 25:0.00044265387 26:0.00044265387 28:0.14586331 29:0.17160362 30:0.008189097 31:-0.00022132693 32:-0.00022132693 33:0.97405982 #
60 3:0.0079175336 4:-0.018088061 11:-0.00022795124 12:-0.00022795124 13:-0.00022795124 14:-0.00022795124 15:-0.00022795124 16:-0.00022795124 17:0.00045590248 18:-0.00022795124 19:-0.00022795124 20:0.0038751711 21:0.0013677075 22:0.0059267324 23:0.00022795124 24:0.00022795124 25:0.00091180496 26:0.00068385375 28:0.1597072 29:0.1878911 30:0.013677075 31:-0.00022795124 32:0.00022795124 33:0.9687928 #
60 3:0.0067052511 4:-0.023315182 8:0.00059146533 11:-0.00019715511 12:-0.00019715511 13:0.00019715511 14:-0.00019715511 15:-0.00019715511 16:-0.00019715511 17:0.00039431022 18:-0.00019715511 19:-0.00019715511 20:0.0011829307 21:0.00078862044 24:0.00019715511 25:0.00059146533 26:0.00039431022 28:0.090076223 29:0.10597284 30:0.011434997 31:-0.00019715511 32:-0.00019715511 33:0.98991579 #
-100 3:0.004987123 4:-0.015501224 8:0.00038619593 11:-0.00019309796 12:-0.00019309796 13:-0.00019309796 14:-0.00019309796 15:-0.00019309796 16:-0.00019309796 17:0.00038619593 18:-0.00019309796 19:-0.00019309796 20:0.0019309797 21:0.00096548983 22:0.0048274491 23:0.0011585878 24:0.00057929388 25:0.00077239185 26:0.00038619593 28:0.14138053 29:0.16633072 30:0.0034757634 31:-0.00019309796 32:-0.00019309796 33:0.97572398 #
60 3:0.0071822614 4:-0.016037468 8:0.00056248397 11:-0.00018749466 12:-0.00018749466 13:-0.00018749466 14:-0.00018749466 15:-0.00018749466 16:-0.00018749466 17:0.00037498932 18:-0.00018749466 19:-0.00018749466 20:0.0048748609 21:0.00018749466 24:0.00056248397 25:0.00056248397 26:0.00037498932 28:0.19806935 29:0.23302211 30:0.0013124626 31:0.00018749466 32:-0.00018749466 33:0.95191038 #
60 3:0.016601281 4:-0.038080264 8:0.0014131254 11:-0.0004710418 12:-0.0004710418 13:-0.0004710418 14:-0.0004710418 15:-0.0004710418 16:-0.0004710418 17:0.0009420836 18:-0.0004710418 19:-0.0004710418 20:0.0075366688 21:0.0023552091 22:0.0042393762 23:0.0032972926 24:0.0004710418 25:0.0018841672 26:0.0004710418 28:0.23320338 29:0.2843962 30:0.0080077108 31:-0.0004710418 32:-0.0004710418 33:0.92889446 #
-100 3:0.016841298 4:-0.036967147 8:0.00046746709 11:-0.00046746709 12:-0.00046746709 13:0.00046746709 14:-0.00046746709 15:-0.00046746709 16:-0.00046746709 17:0.00093493419 18:-0.00046746709 19:-0.00046746709 20:0.011686678 21:0.0028048027 24:0.00046746709 25:0.0014024014 26:0.0014024014 28:0.1787267 29:0.21796121 30:0.046746712 31:-0.00046746709 32:-0.00046746709 33:0.95737261 #
60 3:0.0082923044 4:-0.015041232 11:-0.00020421699 12:-0.00020421699 13:-0.00020421699 14:-0.00020421699 15:-0.00020421699 16:-0.00020421699 17:0.00040843399 18:-0.00020421699 19:-0.00020421699 20:0.0053096418 21:0.00020421699 22:0.001021085 23:0.0014295189 24:0.000612651 25:0.000612651 26:0.00040843399 28:0.12879558 29:0.15152493 30:0.0071475948 31:-0.00020421699 32:-0.00020421699 33:0.97983313 #
-100 3:0.0084706051 4:-0.014431058 8:0.00040443498 11:-0.00020221749 12:-0.00020221749 13:-0.00020221749 14:-0.00020221749 15:-0.00020221749 16:-0.00020221749 17:0.00060665247 18:-0.00020221749 19:-0.00020221749 20:0.0050554369 21:0.0012133049 22:0.0016177399 23:0.00060665247 24:0.00060665247 25:0.00080886995 26:0.00040443498 28:0.15896721 29:0.18702084 30:0.0060665244 31:-0.00020221749 32:-0.00020221749 33:0.96922839 #
-100 3:0.010934132 4:-0.037809819 8:0.0009578935 11:0.00031929783 12:-0.00031929783 13:0.00031929783 14:-0.00031929783 15:-0.00031929783 16:-0.00031929783 17:0.0009578935 18:-0.00031929783 19:-0.00031929783 20:0.0025543827 21:0.0009578935 22:0.0079824459 23:0.001915787 24:0.0009578935 25:0.0012771913 26:0.00063859567 28:0.081740245 29:0.099684782 30:0.010217531 31:-0.00031929783 32:-0.00031929783 33:0.99078113 #
60 3:0.012869702 4:-0.038394827 8:0.00084424898 11:-0.00042212449 12:-0.00042212449 13:-0.00042212449 14:-0.00042212449 15:-0.00042212449 16:-0.00042212449 17:0.0012663734 18:-0.00042212449 19:-0.00042212449 20:0.010130988 21:0.001688498 24:0.00084424898 25:0.0012663734 26:0.00042212449 28:0.18475544 29:0.22531317 30:0.0021106224 31:-0.00042212449 32:-0.00042212449 33:0.95568985 #
60 3:0.007266806 4:-0.018987868 8:0.00067047746 11:-0.00022349249 12:-0.00022349249 13:-0.00022349249 14:-0.00022349249 15:-0.00022349249 16:-0.00022349249 17:0.00067047746 18:-0.00022349249 19:-0.00022349249 20:0.0058108047 21:0.00022349249 22:0.0015644474 23:0.0015644474 24:0.00022349249 25:0.00089396996 26:0.00022349249 28:0.087890655 29:0.10340104 30:0.0013409549 31:0.00022349249 32:-0.00022349249 33:0.99051869 #
60 3:0.0095824329 4:-0.016133195 8:0.0006801915 11:-0.00022673051 12:-0.00022673051 13:-0.00022673051 14:-0.00022673051 15:-0.00022673051 16:-0.00022673051 17:0.00045346102 18:-0.00022673051 19:-0.00022673051 20:0.0029474965 21:0.00045346102 22:0.0015871135 23:0.0015871135 24:0.00045346102 25:0.0006801915 26:0.00022673051 28:0.099768221 29:0.11737385 30:0.004988071 31:-0.00022673051 32:-0.00022673051 33:0.98786479 #
60 3:0.0097472155 4:-0.028690072 8:0.0010440786 11:-0.00034802619 12:-0.00034802619 13:-0.00034802619 14:-0.00034802619 15:-0.00034802619 16:-0.00034802619 17:0.00069605239 18:-0.00034802619 19:-0.00034802619 20:0.0059164455 21:0.0020881572 24:0.0020881572 25:0.0013921048 26:0.00069605239 28:0.11484865 29:0.14005966 30:0.016705258 31:-0.00034802619 32:-0.00034802619 33:0.98282599 #
60 3:0.011886394 4:-0.028807709 11:-0.00019287271 12:-0.00019287271 13:-0.00019287271 14:-0.00019287271 15:-0.00019287271 16:-0.00019287271 17:0.00057861814 18:-0.00019287271 19:-0.00019287271 20:0.0032788361 21:0.0011572363 24:0.00019287271 25:0.00057861814 26:0.00019287271 28:0.16212881 29:0.19073954 30:0.004050327 31:-0.00019287271 32:-0.00019287271 33:0.96764243 #
60 3:0.011820342 4:-0.024546731 8:0.00086468249 11:-0.00028822751 12:-0.00028822751 13:-0.00028822751 14:-0.00028822751 15:-0.00028822751 16:-0.00028822751 17:0.00086468249 18:-0.00028822751 19:-0.00028822751 20:0.0048998673 21:0.001729365 24:0.00028822751 25:0.0011529101 26:0.00086468249 28:0.10606772 29:0.12935074 30:0.0115291 31:-0.00028822751 32:-0.00028822751 33:0.98544985 #
60 3:0.0083743213 4:-0.016556697 8:0.00064523687 11:0.00021507895 12:-0.00021507895 13:-0.00021507895 14:-0.00021507895 15:-0.00021507895 16:-0.00021507895 17:0.0004301579 18:0.00021507895 19:-0.00021507895 20:0.0036563422 21:0.0012904737 22:0.0047317366 23:0.0015055527 24:0.0004301579 25:0.00064523687 26:0.00064523687 28:0.075469054 29:0.088786744 30:0.019357106 31:-0.00021507895 32:-0.00021507895 33:0.99280441 #
-100 3:0.008533909 4:-0.020035876 8:0.00044341717 11:-0.00022170859 12:-0.00022170859 13:-0.00022170859 14:-0.00022170859 15:-0.00022170859 16:-0.00022170859 17:0.00066512573 18:-0.00022170859 19:-0.00022170859 20:0.0057644229 21:0.00022170859 24:0.0013302515 25:0.00044341717 26:0.00066512573 28:0.14912784 29:0.17544465 30:0.0042124628 31:-0.00022170859 32:-0.00022170859 33:0.97285724 #
60 3:0.0080570448 4:-0.017712051 8:0.00067618629 11:0.00022539543 12:-0.00022539543 13:-0.00022539543 14:-0.00022539543 15:-0.00022539543 16:-0.00022539543 17:0.00045079086 18:-0.00022539543 19:-0.00022539543 20:0.0056348857 21:0.0013523726 22:0.0018031634 23:0.00067618629 24:0.00045079086 25:0.00067618629 26:0.00022539543 28:0.094089068 29:0.11069395 30:0.016904658 31:-0.00022539543 32:-0.00022539543 33:0.98903513 #
60 3:0.0070905359 4:-0.023899935 8:0.00060207216 11:-0.00020069072 12:-0.00020069072 13:-0.00020069072 14:-0.00020069072 15:-0.00020069072 16:-0.00020069072 17:0.00060207216 18:-0.00020069072 19:-0.00020069072 20:0.0048165773 21:0.00080276286 22:0.0034117422 23:0.0012041443 24:0.00040138143 25:0.00060207216 26:0.00020069072 28:0.10267939 29:0.12079976 30:0.0064221029 31:0.00020069072 32:-0.00020069072 33:0.98699695 #
-100 3:0.0073841191 4:-0.024670534 8:0.00065979024 11:-0.00021993008 12:-0.00021993008 13:-0.00021993008 14:-0.00021993008 15:-0.00021993008 16:-0.00021993008 17:0.00043986016 18:-0.00021993008 19:-0.00021993008 20:0.002639161 21:0.00065979024 22:0.00065979024 23:0.00065979024 24:0.00065979024 25:0.00065979024 26:0.00043986016 28:0.10424246 29:0.12263741 30:0.0052783219 31:-0.00021993008 32:-0.00021993008 33:0.98660636 #
60 3:0.0064115073 4:-0.022013221 8:0.00039643591 11:-0.00019821795 12:-0.00019821795 13:-0.00019821795 14:-0.00019821795 15:-0.00019821795 16:-0.00019821795 17:0.00039643591 18:-0.00019821795 19:-0.00019821795 20:0.0051536667 21:0.00019821795 24:0.00059465383 25:0.00059465383 26:0.00019821795 28:0.10404064 29:0.12240157 30:0.0023786153 31:-0.00019821795 32:-0.00019821795 33:0.98672897 #
-100 3:0.0084253317 4:-0.019773941 8:0.000724104 11:-0.00024136799 12:-0.00024136799 13:-0.00024136799 14:-0.00024136799 15:-0.00024136799 16:-0.00024136799 17:0.00048273598 18:-0.00024136799 19:-0.00024136799 20:0.0062755677 21:0.00024136799 22:0.001689576 23:0.001689576 24:0.00048273598 25:0.000724104 26:0.00024136799 28:0.1022459 29:0.12028815 30:0.0036205198 31:-0.00024136799 32:-0.00024136799 33:0.98719507 #
60 3:0.0090846512 4:-0.02006547 8:0.00044782207 11:-0.00022391103 12:-0.00022391103 13:-0.00022391103 14:-0.00022391103 15:-0.00022391103 16:-0.00022391103 17:0.00067173311 18:-0.00022391103 19:-0.00022391103 20:0.0058216872 21:0.00022391103 22:0.0020151993 23:0.0015673772 24:0.00067173311 25:0.00067173311 26:0.00067173311 28:0.10111151 29:0.11895498 30:0.0067173312 31:-0.00022391103 32:0.00022391103 33:0.98744768 #
-100 3:0.0079700304 4:-0.020308571 8:0.00064485596 11:-0.00021495199 12:-0.00021495199 13:-0.00021495199 14:-0.00021495199 15:-0.00021495199 16:-0.00021495199 17:0.00021495199 18:-0.00021495199 19:-0.00021495199 20:0.0053737997 21:0.0012897119 22:0.0017196159 23:0.00064485596 24:0.00042990397 25:0.00085980794 26:0.00042990397 28:0.10082753 29:0.11862125 30:0.010747599 31:0.00021495199 32:-0.00021495199 33:0.98748946 #
60 3:0.0078956848 4:-0.018741991 11:-0.00022218285 12:-0.00022218285 13:-0.00022218285 14:-0.00022218285 15:-0.00022218285 16:-0.00022218285 17:0.00066654856 18:-0.00022218285 19:-0.00022218285 20:0.0019996457 21:0.0015552799 22:0.0022218286 23:0.0011109143 24:0.00044436569 25:0.00088873139 26:0.00044436569 28:0.10143092 29:0.11932997 30:0.011109143 31:-0.00022218285 32:0.00022218285 33:0.98738056 #
-100 3:0.0076366072 4:-0.026550783 8:0.0006735315 11:-0.00022451051 12:-0.00022451051 13:-0.00022451051 14:-0.00022451051 15:-0.00022451051 16:-0.00022451051 17:0.00044902103 18:-0.00022451051 19:-0.00022451051 20:0.0051637418 21:0.001347063 22:0.0038166787 23:0.001347063 24:0.0006735315 25:0.00089804205 26:0.00022451051 28:0.084692098 29:0.099637762 30:0.005388252 31:0.00022451051 32:-0.00022451051 33:0.99098939 #
60 3:0.0067178556 4:-0.019775407 8:0.00071984535 11:0.00023994845 12:-0.00023994845 13:-0.00023994845 14:-0.00023994845 15:-0.00023994845 16:-0.00023994845 17:0.00071984535 18:-0.00023994845 19:-0.00023994845 20:0.0040791235 21:0.0014396907 24:0.00023994845 25:0.00071984535 26:0.00071984535 28:0.10338179 29:0.12162507 30:0.0086381445 31:-0.00023994845 32:-0.00023994845 33:0.98690796 #
-100 3:0.0066474564 4:-0.018901467 8:0.00046158224 11:-0.00023079112 12:-0.00023079112 13:-0.00023079112 14:-0.00023079112 15:-0.00023079112 16:-0.00023079112 17:0.00069237337 18:-0.00023079112 19:-0.00023079112 20:0.0039234487 21:0.0013847467 22:0.001846329 23:0.00069237337 24:0.0013847467 25:0.00092316448 26:0.00023079112 28:0.10275282 29:0.12088608 30:0.0069237333 31:0.00023079112 32:-0.00023079112 33:0.98709363 #
60 3:0.010170928 4:-0.018486075 8:0.00075016578 11:-0.00025005525 12:-0.00025005525 13:-0.00025005525 14:-0.00025005525 15:-0.00025005525 16:-0.00025005525 17:0.0005001105 18:-0.00025005525 19:-0.00025005525 20:0.0050011054 21:0.0017503869 22:0.0012502763 23:0.0017503869 24:0.0015003316 25:0.001000221 26:0.0005001105 28:0.12072418 29:0.14202888 30:0.0045009949 31:-0.00025005525 32:0.00025005525 33:0.98221707 #
-100 3:0.0084079616 4:-0.016818579 8:0.00039246702 11:-0.00019623351 12:-0.00019623351 13:-0.00019623351 14:-0.00019623351 15:-0.00019623351 16:-0.00019623351 17:0.00039246702 18:-0.00019623351 19:-0.00019623351 20:0.0049058381 21:0.001177401 22:0.0015698681 23:0.00058870052 24:0.001177401 25:0.00039246702 26:0.00019623351 28:0.099027283 29:0.11650188 30:0.0047096042 31:-0.00019623351 32:-0.00019623351 33:0.98803574 #
-100 3:0.0087082181 4:-0.018663362 11:-0.00024104411 12:-0.00024104411 13:-0.00024104411 14:-0.00024104411 15:-0.00024104411 16:-0.00024104411 17:0.00072313234 18:-0.00024104411 19:-0.00024104411 20:0.0040977499 21:0.0014462647 22:0.0019283529 23:0.00072313234 24:0.0014462647 25:0.00072313234 26:0.00024104411 28:0.13535349 29:0.15923856 30:0.0048208823 31:-0.00024104411 32:-0.00024104411 33:0.9776749 #
-100 3:0.007195137 4:-0.017728377 8:0.00042246256 11:-0.00021123128 12:-0.00021123128 13:-0.00021123128 14:-0.00021123128 15:-0.00021123128 16:-0.00021123128 17:0.00063369382 18:-0.00021123128 19:-0.00021123128 20:0.0054920134 21:0.00021123128 22:0.0014786189 23:0.0014786189 24:0.00063369382 25:0.00042246256 26:0.00021123128 28:0.09769658 29:0.11493728 30:0.0021123129 31:-0.00021123128 32:-0.00021123128 33:0.98835117 #
60 3:0.0082987817 4:-0.016446143 8:0.00039210718 11:-0.00019605359 12:-0.00019605359 13:-0.00019605359 14:-0.00019605359 15:-0.00019605359 16:-0.00019605359 17:0.00039210718 18:-0.00019605359 19:-0.00019605359 20:0.0033329111 21:0.0011763215 22:0.0015684287 23:0.00058816076 24:0.00058816076 25:0.00039210718 26:0.00019605359 28:0.10121267 29:0.11907315 30:0.0047052861 31:-0.00019605359 32:-0.00019605359 33:0.98752195 #
-100 3:0.0070112464 4:-0.016312717 8:0.00020608582 11:-0.00020608582 12:-0.00020608582 13:-0.00020608582 14:-0.00020608582 15:-0.00020608582 16:-0.00020608582 17:0.00061825744 18:-0.00020608582 19:-0.00020608582 20:0.003503459 21:0.0012365149 22:0.0016486866 23:0.00061825744 24:0.00061825744 25:0.00061825744 26:0.00041217165 28:0.11603044 29:0.13650712 30:0.0024730298 31:-0.00020608582 32:-0.00020608582 33:0.98364764 #
60 3:0.0070140753 4:-0.017547861 11:-0.00020815534 12:0.00020815534 13:-0.00020815534 14:-0.00020815534 15:-0.00020815534 16:-0.00020815534 17:0.00062446605 18:-0.00020815534 19:-0.00020815534 20:0.0029141749 21:0.0014570875 22:0.0035386409 23:0.0012489321 24:0.00041631068 25:0.00083262136 26:0.00020815534 28:0.10128839 29:0.11916269 30:0.0047875731 31:-0.00020815534 32:-0.00020815534 33:0.98748899 #
-100 3:0.0052611702 4:-0.011182486 8:0.00012211614 11:-0.00012211614 12:0.00012211614 13:-0.00012211614 14:-0.00012211614 15:-0.00012211614 16:-0.00012211614 17:0.00036634842 18:-0.00012211614 19:-0.00012211614 20:0.0012211615 21:0.00061058073 22:0.0019538582 23:0.00061058073 24:0.00024423227 25:0.00048846455 26:0.00048846455 28:0.56454903 29:0.68847495 30:0.020759745 31:-0.00012211614 32:-0.00012211614 33:0.45463839 #
60 3:0.0084039113 4:-0.016444078 8:0.00063856237 11:-0.00021285414 12:-0.00021285414 13:-0.00021285414 14:-0.00021285414 15:-0.00021285414 16:-0.00021285414 17:0.00063856237 18:-0.00021285414 19:-0.00021285414 20:0.0036185202 21:0.0012771247 24:0.00021285414 25:0.00042570828 26:0.00021285414 28:0.099824332 29:0.11744014 30:0.005108499 31:0.00021285414 32:-0.00021285414 33:0.98785603 #
-100 3:0.0098027932 4:-0.026524605 8:0.00050617498 11:-0.00025308749 12:-0.00025308749 13:-0.00025308749 14:-0.00025308749 15:-0.00025308749 16:-0.00025308749 17:0.00075926242 18:-0.00025308749 19:-0.00025308749 20:0.0043024872 21:0.0015185248 22:0.0065802746 23:0.00025308749 24:0.00075926242 25:0.00075926242 26:0.00025308749 28:0.069561094 29:0.079955399 30:0.19361192 31:-0.00025308749 32:-0.00025308749 33:0.97489297 #
60 3:0.0079848012 4:-0.016563671 8:0.00039946631 11:-0.00019973316 12:-0.00019973316 13:-0.00019973316 14:-0.00019973316 15:-0.00019973316 16:-0.00019973316 17:0.00039946631 18:-0.00019973316 19:-0.00019973316 20:0.0033954638 21:0.001198399 22:0.0015978653 23:0.0005991995 24:0.0005991995 25:0.00039946631 26:0.00019973316 28:0.033561163 29:0.039483253 30:0.0049933293 31:-0.00019973316 32:-0.00019973316 33:0.99846607 #
60 3:0.0082460595 4:-0.016072702 8:0.00062973704 11:0.00020991235 12:-0.00020991235 13:-0.00020991235 14:0.00020991235 15:-0.00020991235 16:-0.00020991235 17:0.00020991235 18:0.00020991235 19:-0.00020991235 20:0.0033585976 21:0.0010495618 22:0.0056676334 23:0.0010495618 24:0.0004198247 25:0.00083964941 26:0.00062973704 28:0.084720626 29:0.099670582 30:0.020991234 31:-0.00020991235 32:0.00020991235 33:0.99099618 #
60 3:0.0095375758 4:-0.030600907 8:0.00050293026 11:-0.00025146513 12:-0.00025146513 13:0.00025146513 14:-0.00025146513 15:-0.00025146513 16:-0.00025146513 17:0.00075439538 18:-0.00025146513 19:-0.00025146513 20:0.0042749071 21:0.0015087908 22:0.0062866281 23:0.0015087908 24:0.00025146513 25:0.00075439538 26:0.00050293026 28:0.08487954 29:0.09985932 30:0.010058605 31:-0.00025146513 32:-0.00025146513 33:0.9907726 #
-100 3:0.0062622302 4:-0.020136008 8:0.00063219276 11:0.00021073093 12:-0.00021073093 13:-0.00021073093 14:-0.00021073093 15:-0.00021073093 16:-0.00021073093 17:0.00042146185 18:0.00021073093 19:-0.00021073093 20:0.0035824256 21:0.0012643855 22:0.0033716948 23:0.0010536546 24:0.00021073093 25:0.00084292371 26:0.00063219276 28:0.071090072 29:0.083634891 30:0.10536546 31:-0.00021073093 32:-0.00021073093 33:0.98811728 #
-100 3:0.0073649175 4:-0.024730442 8:0.00022151011 11:0.00022151011 12:-0.00022151011 13:-0.00022151011 14:-0.00022151011 15:-0.00022151011 16:-0.00022151011 17:0.00066453032 18:-0.00022151011 19:-0.00022151011 20:0.005537753 21:0.0013290606 22:0.0015505708 23:0.0015505708 24:0.00044302022 25:0.00066453032 26:0.00022151011 28:0.096892953 29:0.11399132 30:0.0046517123 31:-0.00022151011 32:-0.00022151011 33:0.98837817 #
60 3:0.0063484292 4:-0.020185843 8:0.00021234037 11:-0.00021234037 12:0.00021234037 13:-0.00021234037 14:-0.00021234037 15:-0.00021234037 16:-0.00021234037 17:0.00042468074 18:-0.00021234037 19:-0.00021234037 20:0.00063702109 21:0.00063702109 24:0.00042468074 25:0.00063702109 26:0.00084936147 28:0.095370553 29:0.11220065 30:0.0016987229 31:-0.00021234037 32:-0.00021234037 33:0.98886907 #
60 3:0.015342374 4:-0.030330749 8:0.0011819497 11:-0.00039398324 12:-0.00039398324 13:-0.00039398324 14:-0.00039398324 15:-0.00039398324 16:-0.00039398324 17:0.00078796648 18:-0.00039398324 19:-0.00039398324 20:0.0066977153 21:0.0023638995 22:0.0066977153 23:0.0023638995 24:0.00078796648 25:0.001575933 26:0.00078796648 28:0.091348954 29:0.11140271 30:0.0078796651 31:-0.00039398324 32:-0.00039398324 33:0.98889798 #
60 3:0.0087782955 4:-0.02848486 8:0.00069992722 11:-0.00023330907 12:-0.00023330907 13:-0.00023330907 14:-0.00023330907 15:-0.00023330907 16:-0.00023330907 17:0.00023330907 18:-0.00023330907 19:-0.00023330907 20:0.0055994177 21:0.00093323627 24:0.00069992722 25:0.00069992722 26:0.00093323627 28:0.20936222 29:0.24630904 30:0.046661813 31:0.00023330907 32:-0.00023330907 33:0.94466841 #
-100 3:0.008376454 4:-0.017596792 11:-0.00023085652 12:-0.00023085652 13:-0.00023085652 14:-0.00023085652 15:-0.00023085652 16:-0.00023085652 17:0.00069256953 18:-0.00023085652 19:-0.00023085652 20:0.0039245607 21:0.0013851391 24:0.00069256953 25:0.00069256953 26:0.00046171303 28:0.55749542 29:0.67987245 30:0.013851391 31:-0.00023085652 32:-0.00023085652 33:0.47579527 #
60 3:0.0075686984 4:-0.025376629 8:0.00068055553 11:-0.00022685184 12:-0.00022685184 13:-0.00022685184 14:-0.00022685184 15:-0.00022685184 16:-0.00022685184 17:0.00068055553 18:-0.00022685184 19:-0.00022685184 20:0.0056712963 21:0.0013611111 24:0.00068055553 25:0.00068055553 26:0.00090740738 28:0.12157217 29:0.14302555 30:0.037430555 31:-0.00022685184 32:-0.00022685184 33:0.98113424 #
60 3:0.0091295419 4:-0.021389779 11:-0.0002706743 12:-0.0002706743 13:-0.0002706743 14:-0.0002706743 15:-0.0002706743 16:-0.0002706743 17:0.00081202289 18:-0.0002706743 19:-0.0002706743 20:0.0046014627 21:0.0016240458 22:0.0067668571 23:0.0016240458 24:0.00054134859 25:0.0010826972 26:0.0002706743 28:0.057653625 29:0.070310354 30:0.0040601143 31:0.0002706743 32:-0.0002706743 33:0.99554002 #
-100 3:0.006129995 4:-0.017882857 8:0.00043457834 11:-0.00021728917 12:-0.00021728917 13:-0.00021728917 14:-0.00021728917 15:-0.00021728917 16:-0.00021728917 17:0.00043457834 18:-0.00021728917 19:-0.00021728917 20:0.0010864459 21:0.0015210242 24:0.00043457834 25:0.00043457834 26:0.00021728917 28:0.081164025 29:0.095487721 30:0.0041284943 31:0.00021728917 32:-0.00021728917 33:0.99192506 #
60 3:0.0098964712 4:-0.022253424 11:-0.00024359458 12:-0.00024359458 13:-0.00024359458 14:-0.00024359458 15:-0.00024359458 16:-0.00024359458 17:0.00073078374 18:-0.00024359458 19:-0.00024359458 20:0.0060898643 21:0.0014615675 24:0.00024359458 25:0.00073078374 26:0.00024359458 28:0.054942757 29:0.064637825 30:0.0060898643 31:0.00024359458 32:-0.00024359458 33:0.99605823 #
-100 3:0.011140575 4:-0.027086742 8:0.00033770947 11:-0.00033770947 12:-0.00033770947 13:-0.00033770947 14:-0.00033770947 15:-0.00033770947 16:-0.00033770947 17:0.00067541894 18:-0.00033770947 19:-0.00033770947 20:0.0027016758 21:0.0010131284 24:0.00067541894 25:0.0010131284 26:0.00067541894 28:0.10063742 29:0.122727 30:0.013846088 31:-0.00033770947 32:-0.00033770947 33:0.98678708 #
60 3:0.0089768004 4:-0.023572499 8:0.00024966439 11:-0.00024966439 12:-0.00024966439 13:-0.00024966439 14:-0.00024966439 15:-0.00024966439 16:-0.00024966439 17:0.00074899319 18:-0.00024966439 19:-0.00024966439 20:0.0042442945 21:0.0014979864 24:0.00024966439 25:0.00099865755 26:0.00024966439 28:0.11531249 29:0.13566263 30:0.0042442945 31:0.00024966439 32:0.00024966439 33:0.98367769 #
60 3:0.0087690679 4:-0.025489289 8:0.00026380495 11:-0.00026380495 12:-0.00026380495 13:-0.00026380495 14:-0.00026380495 15:-0.00026380495 16:-0.00026380495 17:0.00079141482 18:-0.00026380495 19:-0.00026380495 20:0.0044846837 21:0.0015828296 22:0.0031656593 23:0.00079141482 24:0.00079141482 25:0.00079141482 26:0.00026380495 28:0.058709789 29:0.067481302 30:0.0042208792 31:-0.00026380495 32:-0.00026380495 33:0.99559987 #
60 3:0.0075793425 4:-0.026315263 8:0.00066640734 11:-0.00022213579 12:-0.00022213579 13:-0.00022213579 14:-0.00022213579 15:-0.00022213579 16:-0.00022213579 17:0.00044427157 18:-0.00022213579 19:-0.00022213579 20:0.0017770863 21:0.00066640734 22:0.0055533946 23:0.0013328147 24:0.00066640734 25:0.00022213579 26:0.00044427157 28:0.15790968 29:0.18577661 30:0.005109123 31:0.00022213579 32:-0.00022213579 33:0.96940058 #
60 3:0.013259454 4:-0.046165209 8:0.0011693884 11:-0.00038979616 12:-0.00038979616 13:-0.00038979616 14:-0.00038979616 15:-0.00038979616 16:-0.00038979616 17:0.00077959232 18:-0.00038979616 19:-0.00038979616 20:0.0066265343 21:0.0023387768 24:0.00038979616 25:0.00077959232 26:0.00038979616 28:0.18219072 29:0.22218381 30:0.0085755149 31:-0.00038979616 32:-0.00038979616 33:0.95655972 #
-100 3:0.0098434584 4:-0.019146848 8:0.00050050317 11:-0.00025025159 12:-0.00025025159 13:-0.00025025159 14:-0.00025025159 15:-0.00025025159 16:-0.00025025159 17:0.00050050317 18:-0.00025025159 19:-0.00025025159 20:0.0042542769 21:0.0015015095 22:0.0062562898 23:0.0015015095 24:0.00050050317 25:0.00075075473 26:0.00025025159 28:0.057612918 29:0.067780644 30:0.0062562898 31:-0.00025025159 32:-0.00025025159 33:0.99575102 #
-100 3:0.0080104182 4:-0.018463932 8:0.00068211328 11:-0.0002273711 12:-0.0002273711 13:-0.0002273711 14:-0.0002273711 15:-0.0002273711 16:-0.0002273711 17:0.0004547422 18:-0.0002273711 19:-0.0002273711 20:0.0038653086 21:0.0013642266 24:0.0002273711 25:0.0009094844 26:0.00068211328 28:0.19465694 29:0.22900817 30:0.018189687 31:-0.0002273711 32:-0.0002273711 33:0.95336699 #
-100 3:0.010001447 4:-0.018196166 8:0.00073844183 11:-0.00024614728 12:0.00024614728 13:-0.00024614728 14:-0.00024614728 15:-0.00024614728 16:-0.00024614728 17:0.00049229455 18:-0.00024614728 19:-0.00024614728 20:0.0017230309 21:0.0017230309 22:0.0061536818 23:0.0014768837 24:0.00049229455 25:0.0009845891 26:0.00024614728 28:0.058521513 29:0.068849854 30:0.0022153254 31:-0.00024614728 32:0.00024614728 33:0.99566573 #
60 3:0.0097023882 4:-0.018533358 8:0.00048933551 11:-0.00024466775 12:-0.00024466775 13:-0.00024466775 14:-0.00024466775 15:-0.00024466775 16:-0.00024466775 17:0.00073400326 18:-0.00024466775 19:-0.00024466775 20:0.0041593518 21:0.0014680065 24:0.00048933551 25:0.00073400326 26:0.00024466775 28:0.074484199 29:0.087627754 30:0.0073400326 31:0.00024466775 32:-0.00024466775 33:0.99310642 #
-100 3:0.0098117469 4:-0.024358053 8:0.00026318096 11:-0.00026318096 12:-0.00026318096 13:-0.00026318096 14:-0.00026318096 15:-0.00026318096 16:-0.00026318096 17:0.00078954286 18:-0.00026318096 19:-0.00026318096 20:0.00052636192 21:0.00078954286 22:0.0031581714 23:0.00078954286 24:0.00026318096 25:0.00078954286 26:0.00026318096 28:0.23187558 29:0.28277478 30:0.0052636191 31:-0.00026318096 32:-0.00026318096 33:0.93034464 #
60 3:0.012927629 4:-0.027063705 8:0.00092547102 11:-0.00030849033 12:-0.00030849033 13:0.00030849033 14:-0.00030849033 15:-0.00030849033 16:-0.00030849033 17:0.00030849033 18:-0.00030849033 19:-0.00030849033 20:0.0077122585 21:0.001850942 22:0.0052443356 23:0.001850942 24:0.00030849033 25:0.0012339613 26:0.00092547102 28:0.31373468 29:0.38260207 30:0.0083292387 31:-0.00030849033 32:-0.00030849033 33:0.86840028 #
60 3:0.0066963513 4:-0.023053978 8:0.00038899205 11:-0.00019449602 12:-0.00019449602 13:-0.00019449602 14:-0.00019449602 15:-0.00019449602 16:-0.00019449602 17:0.00058348809 18:-0.00019449602 19:-0.00019449602 20:0.0015559682 21:0.00058348809 24:0.00058348809 25:0.00038899205 26:0.00019449602 28:0.083489366 29:0.098222435 30:0.0058348808 31:-0.00019449602 32:-0.00019449602 33:0.99134624 #
60 3:0.0098570129 4:-0.031983063 8:0.00078377593 11:-0.00026125865 12:-0.00026125865 13:-0.00026125865 14:-0.00026125865 15:-0.00026125865 16:-0.00026125865 17:0.00052251731 18:-0.00026125865 19:-0.00026125865 20:0.0044413968 21:0.0015675519 22:0.0028738452 23:0.00052251731 24:0.00026125865 25:0.0010450346 26:0.00052251731 28:0.18524806 29:0.22591296 30:0.078377597 31:-0.00026125865 32:-0.00026125865 33:0.95254904 #
-100 3:0.0077511966 4:-0.025083067 8:0.00076910213 11:-0.00025636738 12:-0.00025636738 13:-0.00025636738 14:-0.00025636738 15:-0.00025636738 16:-0.00025636738 17:0.00076910213 18:-0.00025636738 19:-0.00025636738 20:0.0066655516 21:0.00025636738 22:0.00051273475 23:0.00076910213 24:0.00051273475 25:0.00051273475 26:0.00076910213 28:0.098498911 29:0.11321696 30:0.0035891433 31:-0.00025636738 32:-0.00025636738 33:0.98829621 #
60 3:0.0081151472 4:-0.015799174 8:0.0003889311 11:0.00019446555 12:-0.00019446555 13:-0.00019446555 14:-0.00019446555 15:-0.00019446555 16:-0.00019446555 17:0.0003889311 18:-0.00019446555 19:-0.00019446555 20:0.0046671736 21:0.00077786221 22:0.0050561046 23:0.00019446555 24:0.0005833967 25:0.0005833967 26:0.0005833967 28:0.086778313 29:0.10209247 30:0.019446556 31:-0.00019446555 32:-0.00019446555 33:0.99060756 #
-100 3:0.0079675149 4:-0.027605437 8:0.00069936586 11:-0.00023312194 12:0.00023312194 13:-0.00023312194 14:-0.00023312194 15:-0.00023312194 16:-0.00023312194 17:0.00069936586 18:-0.00023312194 19:-0.00023312194 20:0.0037299511 21:0.0011656097 22:0.0023312194 23:0.0011656097 24:0.00069936586 25:0.00093248778 26:0.00093248778 28:0.17758764 29:0.20892622 30:0.043826926 31:-0.00023312194 32:-0.00023312194 33:0.96022928 #
60 3:0.0077004535 4:-0.026703268 8:0.0006766431 11:0.0002255477 12:-0.0002255477 13:-0.0002255477 14:-0.0002255477 15:-0.0002255477 16:-0.0002255477 17:0.0004510954 18:-0.0002255477 19:-0.0002255477 20:0.0038343109 21:0.0013532862 22:0.0056386925 23:0.0013532862 24:0.0002255477 25:0.0002255477 26:0.0002255477 28:0.1094177 29:0.12872684 30:0.0054131448 31:0.0002255477 32:-0.0002255477 33:0.98519236 #
60 3:0.0097679626 4:-0.022488309 8:0.00027910291 11:-0.00027910291 12:-0.00027910291 13:-0.00027910291 14:-0.00027910291 15:-0.00027910291 16:-0.00027910291 17:0.0008373087 18:-0.00027910291 19:-0.00027910291 20:0.0033492348 21:0.0008373087 22:0.0033492348 23:0.0008373087 24:0.0008373087 25:0.0011164116 26:0.00055820582 28:0.095118269 29:0.11599796 30:0.011164116 31:0.00027910291 32:-0.00027910291 33:0.98830336 #
60 3:0.0086086821 4:-0.02795363 8:0.00045796784 11:-0.00022898392 12:-0.00022898392 13:-0.00022898392 14:-0.00022898392 15:-0.00022898392 16:-0.00022898392 17:0.00068695174 18:-0.00022898392 19:-0.00022898392 20:0.0045796782 21:0.0016028874 24:0.00068695174 25:0.00068695174 26:0.00045796784 28:0.10252297 29:0.12061499 30:0.0068695177 31:-0.00022898392 32:-0.00022898392 33:0.98692071 #
60 3:0.0062106904 4:-0.01951158 11:-0.00020123049 12:-0.00020123049 13:-0.00020123049 14:-0.00020123049 15:-0.00020123049 16:-0.00020123049 17:0.0006036915 18:-0.00020123049 19:-0.00020123049 20:0.0016098439 21:0.0006036915 22:0.0034209185 23:0.001207383 24:0.00040246098 25:0.00080492196 26:0.00020123049 28:0.094570287 29:0.11125833 30:0.0050307624 31:-0.00020123049 32:-0.00020123049 33:0.98904788 #
-100 3:0.007411099 4:-0.017243033 8:0.00021783894 11:-0.00021783894 12:-0.00021783894 13:-0.00021783894 14:-0.00021783894 15:-0.00021783894 16:-0.00021783894 17:0.00043567788 18:-0.00021783894 19:-0.00021783894 20:0.0054459735 21:0.0013070337 22:0.0017427115 23:0.00065351685 24:0.00043567788 25:0.00065351685 26:0.00021783894 28:0.10226231 29:0.12030809 30:0.0050102957 31:-0.00021783894 32:-0.00021783894 33:0.9872461 #
60 3:0.0076835817 4:-0.026549425 8:0.00044829029 11:-0.00022414514 12:-0.00022414514 13:-0.00022414514 14:-0.00022414514 15:-0.00022414514 16:-0.00022414514 17:0.00044829029 18:-0.00022414514 19:-0.00022414514 20:0.0038104674 21:0.0013448709 24:0.00067243545 25:0.00089658058 26:0.00022414514 28:0.13872792 29:0.16320905 30:0.0049311933 31:0.00022414514 32:-0.00022414514 33:0.97637624 #
-100 3:0.0074422457 4:-0.023517173 8:0.00038731692 11:-0.00019365846 12:-0.00019365846 13:-0.00019365846 14:-0.00019365846 15:-0.00019365846 16:-0.00019365846 17:0.00058097538 18:-0.00019365846 19:-0.00019365846 20:0.0023239015 21:0.00058097538 22:0.0032921939 23:0.0011619508 24:0.00058097538 25:0.00058097538 26:0.00038731692 28:0.12684049 29:0.14922352 30:0.0054224371 31:-0.00019365846 32:-0.00019365846 33:0.98029912 #
60 3:0.007548051 4:-0.017524624 11:-0.00021216086 12:0.00021216086 13:-0.00021216086 14:-0.00021216086 15:-0.00021216086 16:-0.00021216086 17:0.00063648255 18:-0.00021216086 19:-0.00021216086 20:0.0036067346 21:0.0012729651 24:0.00021216086 25:0.00063648255 26:0.00042432171 28:0.059617199 29:0.070138253 30:0.014426938 31:0.00021216086 32:-0.00021216086 33:0.99545872 #
60 3:0.0075596548 4:-0.017588671 8:0.00022220553 11:-0.00022220553 12:-0.00022220553 13:-0.00022220553 14:-0.00022220553 15:-0.00022220553 16:-0.00022220553 17:0.0006666166 18:-0.00022220553 19:-0.00022220553 20:0.0017776443 21:0.0006666166 24:0.00044441107 25:0.0006666166 26:0.00022220553 28:0.071419083 29:0.084022582 30:0.0046663163 31:0.00022220553 32:-0.00022220553 33:0.99370313 #
-100 3:0.0076411981 4:-0.017901743 8:0.00043677868 11:-0.00021838934 12:-0.00021838934 13:-0.00021838934 14:-0.00021838934 15:-0.00021838934 16:-0.00021838934 17:0.00021838934 18:-0.00021838934 19:-0.00021838934 20:0.0017471147 21:0.00065516803 22:0.0037126187 23:0.0013103361 24:0.00021838934 25:0.00065516803 26:0.00043677868 28:0.051795397 29:0.060934991 30:0.01310336 31:-0.00021838934 32:-0.00021838934 33:0.99651051 #
60 3:0.0089868866 4:-0.020958327 8:0.00069663237 11:-0.00023221079 12:0.00023221079 13:-0.00023221079 14:-0.00023221079 15:-0.00023221079 16:-0.00023221079 17:0.00069663237 18:-0.00023221079 19:-0.00023221079 20:0.00069663237 21:0.00069663237 22:0.0051086377 23:0.0016254756 24:0.00069663237 25:0.00092884316 26:0.00092884316 28:0.11578263 29:0.13621485 30:0.02902635 31:0.00023221079 32:-0.00023221079 33:0.98318052 #
60 3:0.011293684 4:-0.022143437 8:0.00057735434 11:-0.00028867717 12:-0.00028867717 13:-0.00028867717 14:-0.00028867717 15:-0.00028867717 16:-0.00028867717 17:0.00057735434 18:-0.00028867717 19:-0.00028867717 20:0.007216929 21:0.001732063 22:0.0014433858 23:0.0020207402 24:0.00057735434 25:0.0011547087 26:0.00057735434 28:0.058601465 29:0.071464919 30:0.0060622203 31:-0.00028867717 32:-0.00028867717 33:0.99535888 #
60 3:0.0057932688 4:-0.018664625 8:0.00058678776 11:-0.00019559592 12:-0.00019559592 13:-0.00019559592 14:-0.00019559592 15:-0.00019559592 16:-0.00019559592 17:0.00019559592 18:0.00019559592 19:-0.00019559592 20:0.0011735755 21:0.00078238366 22:0.00019559592 23:0.00078238366 24:0.00039119183 25:0.00058678776 26:0.00039119183 28:0.13441546 29:0.15813538 30:0.009779796 31:0.00019559592 32:-0.00019559592 33:0.9779796 #
60 3:0.0071584359 4:-0.018020704 8:0.00019945081 11:-0.00019945081 12:-0.00019945081 13:-0.00019945081 14:-0.00019945081 15:-0.00019945081 16:-0.00019945081 17:0.0005983524 18:-0.00019945081 19:-0.00019945081 20:0.0049862703 21:0.0011967048 22:0.0043879179 23:0.0013961557 24:0.0005983524 25:0.00079780322 26:0.00079780322 28:0.049543578 29:0.058287505 30:0.0013961557 31:-0.00019945081 32:-0.00019945081 33:0.99685514 #
60 3:0.0092936279 4:-0.029868124 8:0.00048910693 11:-0.00024455346 12:-0.00024455346 13:-0.00024455346 14:-0.00024455346 15:-0.00024455346 16:-0.00024455346 17:0.00024455346 18:-0.00024455346 19:-0.00024455346 20:0.0012227674 21:0.0017118743 22:0.00073366042 23:0.00073366042 24:0.00073366042 25:0.00048910693 26:0.00097821385 28:0.18196246 29:0.21407233 30:0.024455348 31:-0.00024455346 32:-0.00024455346 33:0.95889419 #
60 3:0.0085495161 4:-0.02683085 8:0.00044235867 11:-0.00022117933 12:-0.00022117933 13:-0.00022117933 14:-0.00022117933 15:-0.00022117933 16:-0.00022117933 17:0.00044235867 18:-0.00022117933 19:-0.00022117933 20:0.00331769 21:0.00044235867 22:0.0057506626 23:0.00022117933 24:0.00044235867 25:0.00088471733 26:0.000663538 28:0.093930438 29:0.11050562 30:0.14376657 31:-0.00022117933 32:-0.00022117933 33:0.97849739 #
60 3:0.010255222 4:-0.022596072 8:0.00057145272 11:-0.00028572636 12:-0.00028572636 13:-0.00028572636 14:-0.00028572636 15:-0.00028572636 16:-0.00028572636 17:0.00085717905 18:-0.00028572636 19:-0.00028572636 20:0.0048573483 21:0.0017143581 22:0.0074288854 23:0.00028572636 24:0.00085717905 25:0.00057145272 26:0.0011429054 28:0.044144724 29:0.053833704 30:0.0085717905 31:-0.00028572636 32:-0.00028572636 33:0.99718499 #
60 3:0.013744311 4:-0.044976369 11:-0.00036890042 12:-0.00036890042 13:-0.00036890042 14:-0.00036890042 15:-0.00036890042 16:-0.00036890042 17:0.00073780084 18:-0.00036890042 19:-0.00036890042 20:0.002582303 21:0.002582303 22:0.0095914118 23:0.00036890042 24:0.00073780084 25:0.00073780084 26:0.00036890042 28:0.065601565 29:0.08000344 30:0.0059024068 31:-0.00036890042 32:-0.00036890042 33:0.99344885 #
60 3:0.021812741 4:-0.039652355 8:0.0016119904 11:-0.00053733011 12:-0.00053733011 13:-0.00053733011 14:-0.00053733011 15:-0.00053733011 16:-0.00053733011 17:0.00053733011 18:-0.00053733011 19:-0.00053733011 20:0.0032239808 21:0.0021493204 22:0.0037613108 23:0.0037613108 24:0.0021493204 25:0.0021493204 26:0.0010746602 28:0.33596566 29:0.40971422 30:0.042986408 31:-0.00053733011 32:-0.00053733011 33:0.8457576 #
-100 3:0.0090704458 4:-0.02529804 11:-0.00027297752 12:-0.00027297752 13:-0.00027297752 14:-0.00027297752 15:-0.00027297752 16:-0.00027297752 17:0.0008189326 18:-0.00027297752 19:-0.00027297752 20:0.0068244385 21:0.0016378652 22:0.0021838201 23:0.0008189326 24:0.00054595503 25:0.0008189326 26:0.00027297752 28:0.1307535 29:0.15945436 30:0.11328568 31:0.00027297752 32:-0.00027297752 33:0.97152704 #
60 3:0.0082564615 4:-0.017226815 8:0.00058938388 11:-0.0001964613 12:-0.0001964613 13:-0.0001964613 14:-0.0001964613 15:-0.0001964613 16:-0.0001964613 17:0.0001964613 18:-0.0001964613 19:-0.0001964613 20:0.0049115326 21:0.0011787678 22:0.0015716904 23:0.00058938388 24:0.00058938388 25:0.00078584522 26:0.0001964613 28:0.060089655 29:0.070694633 30:0.0060903006 31:-0.0001964613 32:-0.0001964613 33:0.99546945 #
60 3:0.0083450647 4:-0.015643938 8:0.00062511675 11:-0.00020837225 12:-0.00020837225 13:-0.00020837225 14:-0.00020837225 15:-0.00020837225 16:-0.00020837225 17:0.0004167445 18:-0.00020837225 19:-0.00020837225 20:0.0052093063 21:0.0012502335 22:0.0047925618 23:0.0012502335 24:0.00062511675 25:0.000833489 26:0.00020837225 28:0.093348682 29:0.10982259 30:0.0062511675 31:-0.00020837225 32:-0.00020837225 33:0.98935139 #
-100 3:0.0088018933 4:-0.015917413 8:0.00064606842 11:-0.00021535614 12:-0.00021535614 13:-0.00021535614 14:-0.00021535614 15:-0.00021535614 16:-0.00021535614 17:0.00043071227 18:-0.00021535614 19:-0.00021535614 20:0.0036610542 21:0.0012921368 22:0.0017228491 23:0.00064606842 24:0.00043071227 25:0.00086142455 26:0.00043071227 28:0.054640159 29:0.06428165 30:0.0064606839 31:-0.00021535614 32:-0.00021535614 33:0.99623746 #
60 3:0.0082977759 4:-0.017410094 11:-0.00022632821 12:-0.00022632821 13:-0.00022632821 14:-0.00022632821 15:-0.00022632821 16:-0.00022632821 17:0.00067898462 18:-0.00022632821 19:-0.00022632821 20:0.0018106257 21:0.00067898462 24:0.0013579692 25:0.00090531283 26:0.00045265642 28:0.061613325 29:0.072486132 30:0.014711333 31:-0.00022632821 32:-0.00022632821 33:0.99516511 #
-100 3:0.010437246 4:-0.017870273 8:0.00075108412 11:-0.00025036137 12:-0.00025036137 13:-0.00025036137 14:-0.00025036137 15:-0.00025036137 16:-0.00025036137 17:0.00050072273 18:-0.00025036137 19:-0.00025036137 20:0.0040057818 21:0.0012518069 22:0.0062590344 23:0.0015021682 24:0.00025036137 25:0.00050072273 26:0.00075108412 28:0.054498665 29:0.064115047 30:0.0062590344 31:-0.00025036137 32:-0.00025036137 33:0.99618793 #
-100 3:0.0074430667 4:-0.019137835 11:-0.00019994589 12:-0.00019994589 13:-0.00019994589 14:-0.00019994589 15:-0.00019994589 16:-0.00019994589 17:0.00039989178 18:-0.00019994589 19:-0.00019994589 20:0.0033990801 21:0.0011996754 24:0.00019994589 25:0.00059983769 26:0.00039989178 28:0.084931016 29:0.099918962 30:0.0049986471 31:-0.00019994589 32:-0.00019994589 33:0.99113178 #
-100 3:0.010048283 4:-0.018229712 8:0.0007411617 11:-0.00024705389 12:-0.00024705389 13:-0.00024705389 14:-0.00024705389 15:-0.00024705389 16:-0.00024705389 17:0.00049410778 18:-0.00024705389 19:-0.00024705389 20:0.0064234016 21:0.00024705389 22:0.0041999165 23:0.0014823234 24:0.00049410778 25:0.00098821556 26:0.00049410778 28:0.05509302 29:0.06481459 30:0.0029646468 31:-0.00024705389 32:-0.00024705389 33:0.99612135 #
60 3:0.0080569806 4:-0.023612464 11:-0.00025361095 12:-0.00025361095 13:-0.00025361095 14:-0.00025361095 15:-0.00025361095 16:-0.00025361095 17:0.00050722191 18:-0.00025361095 19:-0.00025361095 20:0.0038041642 21:0.00050722191 22:0.0017752767 23:0.0017752767 24:0.00050722191 25:0.0010144438 26:0.00025361095 28:0.10214689 29:0.12017355 30:0.060866628 31:0.00025361095 32:0.00025361095 33:0.98527855 #
60 3:0.008478336 4:-0.017446265 11:-0.00021746823 12:-0.00021746823 13:-0.00021746823 14:-0.00021746823 15:-0.00021746823 16:-0.00021746823 17:0.00043493646 18:-0.00021746823 19:-0.00021746823 20:0.0054367059 21:0.0013048094 22:0.0036969599 23:0.0013048094 24:0.00065240468 25:0.00065240468 26:0.00021746823 28:0.033411819 29:0.039307382 30:0.010873412 31:-0.00021746823 32:-0.00021746823 33:0.99839669 #
60 3:0.0068190205 4:-0.020971984 8:0.00076899613 11:-0.00025633204 12:-0.00025633204 13:-0.00025633204 14:-0.00025633204 15:-0.00025633204 16:-0.00025633204 17:0.00051266409 18:-0.00025633204 19:-0.00025633204 20:0.0064083012 21:0.0015379923 24:0.00051266409 25:0.0010253282 26:0.00051266409 28:0.060563572 29:0.071250051 30:0.0051266407 31:-0.00025633204 32:-0.00025633204 33:0.99533731 #
60 3:0.0078024301 4:-0.02598748 8:0.00042626786 11:-0.00021313393 12:-0.00021313393 13:-0.00021313393 14:-0.00021313393 15:-0.00021313393 16:-0.00021313393 17:0.00063940178 18:-0.00021313393 19:-0.00021313393 20:0.0017050714 21:0.00063940178 24:0.00042626786 25:0.00042626786 26:0.00021313393 28:0.071975328 29:0.084675983 30:0.005541482 31:-0.00021313393 32:-0.00021313393 33:0.99341726 #
-100 3:0.0083512636 4:-0.015138393 8:0.00061422138 11:-0.00020474046 12:-0.00020474046 13:-0.00020474046 14:-0.00020474046 15:-0.00020474046 16:-0.00020474046 17:0.00040948091 18:-0.00020474046 19:-0.00020474046 20:0.0053232517 21:0.00020474046 22:0.0014331832 23:0.0014331832 24:0.00061422138 25:0.00081896182 26:0.00020474046 28:0.077174865 29:0.090794198 30:0.015765015 31:-0.00020474046 32:-0.00020474046 33:0.99258173 #
-100 3:0.010148951 4:-0.02109774 8:0.00076223246 11:0.00025407749 12:-0.00025407749 13:-0.00025407749 14:-0.00025407749 15:-0.00025407749 16:-0.00025407749 17:0.00050815498 18:-0.00025407749 19:-0.00025407749 20:0.0043193172 21:0.0015244649 24:0.00050815498 25:0.00101631 26:0.00025407749 28:0.042789191 29:0.050340373 30:0.0063519371 31:-0.00025407749 32:-0.00025407749 33:0.99750823 #
-100 3:0.0062808804 4:-0.018590029 8:0.00045166162 11:-0.00022583081 12:-0.00022583081 13:-0.00022583081 14:-0.00022583081 15:-0.00022583081 16:-0.00022583081 17:0.00067749247 18:-0.00022583081 19:-0.00022583081 20:0.0056457701 21:0.0013549849 22:0.00067749247 23:0.00067749247 24:0.00067749247 25:0.00045166162 26:0.00022583081 28:0.091201775 29:0.10729674 30:0.0033874621 31:-0.00022583081 32:-0.00022583081 33:0.98981643 #
60 3:0.0085556144 4:-0.016772544 11:-0.0002219493 12:-0.0002219493 13:-0.0002219493 14:-0.0002219493 15:-0.0002219493 16:-0.0002219493 17:0.00044389861 18:-0.0002219493 19:-0.0002219493 20:0.0053267833 21:0.00088779721 22:0.0057706819 23:0.0002219493 24:0.00044389861 25:0.00066584791 26:0.00088779721 28:0.073449686 29:0.086411528 30:0.033292398 31:-0.0002219493 32:-0.0002219493 33:0.99277925 #
