0.6988  [  0.00000000e+00   0.00000000e+00   5.51020085e-01  -5.08832221e-01
   0.00000000e+00   0.00000000e+00   0.00000000e+00   1.96240947e-01
   0.00000000e+00   0.00000000e+00   2.83023890e-02   1.68056565e-02
   2.38920977e-03   6.51018330e-03   5.23845901e-04   2.74229305e-03
  -8.22226106e-02   6.26539095e-02   2.39450038e-02  -8.47804558e-02
  -9.06787140e-02   2.38701740e-02   6.19140845e-03  -1.32998163e-01
   9.87112349e-02   3.90844134e-02   0.00000000e+00   2.70198313e-01
   2.24518315e-01   1.60508507e-01   8.29644954e-02   3.46804632e-02
  -2.46427236e-01]
0.7007  [ 0.          0.          2.06916856 -1.54275784  0.          0.          0.
  1.62338681  0.          0.          0.35805961  0.15893914  0.09491326
  0.11146935  0.07246374  0.08505035 -0.89156597  0.6272808   0.25369615
 -0.37732669 -1.02912938 -0.1508734  -0.00381733 -1.37239754  0.74449366
  0.3148563   0.          0.51900158 -1.30919316  0.47537256  0.88946772
  0.38840129  0.25242628]
0.7025  [ 0.          0.          7.59946433 -3.41154679  0.          0.          0.
  9.01419994  0.          0.          2.72164546  0.88045194  0.62495559
  0.76826902  0.73490035  0.72824416 -6.13876758  5.27210146  2.30423488
  0.42602469 -4.69758665 -0.60042683 -0.17578353 -5.80967989  4.54212659
  1.63553746  0.          5.47060414 -6.81934688 -0.17255981  6.63494944
  3.36015827 -2.68797676]
0.7022  [  0.           0.          33.41416776  -8.35854097   0.           0.           0.
  22.01047679   0.           0.           8.71688115   0.42243775
   1.03099472   3.12903309   4.25099634   5.04951076 -19.17355883
  29.0777783   13.47298418  11.74986166  -8.25968056   2.31849193
   0.90803829 -13.9090965   13.96864211   3.57136009   0.          -1.77656265
 -14.98172613  -8.31720434  23.09571282  22.25614587   3.25102206]
